500 128
43 0.18269883 0.14155094 -0.38918397 -0.14135306 -0.2940738 -0.09945275 0.034973226 -0.43612078 0.65660834 0.33609116 -0.43625152 -0.253082 0.21177553 -0.21151705 0.23692243 0.11638936 -0.5553807 0.110060476 -0.15054227 -0.020060396 0.33340096 0.49827114 -0.42007565 -0.32168248 -0.056126554 0.23217662 -0.1892188 -0.015517709 0.30574661 0.37460852 0.05430408 0.21295363 0.33755672 0.048085157 -0.22297977 0.21633151 0.30503103 -0.044547256 0.372063 0.1008816 -0.09447959 0.08044679 0.48800525 0.38955006 -0.06853985 0.16844165 0.25448787 -0.48493144 0.19545463 0.30897158 -0.16946374 0.2779482 0.4064967 -0.25534907 -0.63777435 0.02966142 -0.121404156 0.15108752 -0.39118922 0.37719277 0.10549029 -0.26279613 -0.03661874 -0.10872351 0.2868904 0.098474234 -0.31079206 -0.07549517 -0.09769184 0.47713545 -0.57047147 0.27648103 0.17208624 -0.19441715 0.3046147 0.18436508 0.16941656 0.020492125 -0.20550062 0.23093975 -0.64701 0.19321969 -0.021394657 -0.018491233 -0.14782923 -0.036610533 0.121806435 0.45080653 0.35563463 -0.50370914 0.605631 0.3297023 0.48596057 -0.10664772 0.21244505 0.34818384 0.5021938 -0.26598835 0.28466785 -0.06216538 0.1487096 -0.37353536 0.19325581 0.0724644 -0.09946597 -0.05671567 0.15192178 -0.22045608 0.23704426 0.123356335 0.13805743 -0.08185557 -0.3700574 0.11328916 -0.39171442 -0.11809262 -0.30075702 -0.09698591 -0.038942695 -0.05236179 0.32603177 0.18087728 -0.05953953 -0.30290163 0.1329393 -0.34174982 0.073547624 0.25687513
150 0.19743343 -0.5364627 -0.13798691 -0.5222793 0.1914427 -0.23920426 0.068348445 -0.065673895 -0.080370374 0.13291977 -0.70688653 0.0016710745 0.16950329 0.25090307 0.23399004 -0.515321 0.2920928 0.157599 0.120243 -0.10054657 -0.25021386 -0.2651501 0.3344743 -0.12974496 0.26988894 0.10316284 -0.3771406 -0.19350556 -0.2937164 -0.22382617 0.15841995 0.048983436 -0.44814447 -0.4477818 0.08651773 0.31391785 -0.02486199 -0.114468046 -0.16468771 -0.0003420895 -0.032746777 0.5427149 -0.32029682 -0.0024283135 0.32767546 0.08553013 -0.31214634 0.014070034 -0.01443392 0.16025111 0.008521016 0.4941269 0.39632973 -0.19993818 -0.31774423 -0.3203875 -0.014608996 -0.14416264 -0.32720888 0.39534292 -0.14533067 -0.37480378 -0.18447277 0.0055755298 0.02921295 -0.029392429 -0.5778496 0.13377559 -0.52407604 0.41206288 0.0924633 0.07966924 0.35378432 -0.049913935 -0.14833061 -0.029554395 0.0017606616 0.7428627 -0.29894915 0.056497995 -0.24499525 0.054121826 -0.29221138 0.22639766 -0.15732452 0.1913313 0.33431914 -0.10821752 0.3723071 0.39691567 -0.34965268 0.15212135 -0.13728641 0.07010508 -0.2120957 0.28137276 0.1615375 -0.12408589 0.07417899 0.4070802 -0.1952513 -0.46727598 0.296193 0.1868291 -0.06641017 0.18856104 -0.05707121 0.22880092 0.29973546 0.34873205 -0.076298535 0.080915 0.1280853 -0.28328398 -0.40820178 0.20248072 -0.938522 0.4958578 -0.10346953 -0.051597252 0.17201173 0.250148 -0.12121945 -0.025653128 -0.16723663 0.043131858 -0.13510205 0.24622497
149 0.17024095 -0.53522164 -0.20224601 -0.5669219 0.078676395 -0.2503951 -0.009768724 -0.099574536 -0.122013226 0.21060652 -0.7541191 0.043794125 0.238058 0.23095405 0.2578112 -0.54456246 0.30724174 0.17430508 0.17080763 -0.047838926 -0.20884639 -0.16188052 0.29848662 -0.12718847 0.277287 0.05523958 -0.42845216 -0.13066663 -0.2105752 -0.1310454 0.1008309 0.050062757 -0.4024448 -0.43405378 0.17700706 0.2885336 0.026876384 -0.010916104 -0.25781617 -0.008946118 -0.011811853 0.49931246 -0.31225902 0.023312073 0.49611396 0.10574193 -0.29870462 0.028718967 0.03581217 0.16940224 -0.0038531388 0.35297513 0.2591027 -0.20625004 -0.2933337 -0.33135945 -0.058709346 -0.114159524 -0.35694003 0.44320533 -0.18742393 -0.34645128 -0.1214894 -0.029539047 0.02649284 -0.06879892 -0.6082471 0.088057555 -0.5426815 0.51573837 0.16287735 0.03268663 0.24431784 0.043272585 -0.16693436 -0.058874015 -0.054241836 0.7994847 -0.25706607 0.025173966 -0.25420603 0.08275617 -0.18740107 0.1548143 -0.2720774 0.20859945 0.3819765 -0.11050692 0.3629652 0.32405716 -0.2448678 0.16378428 -0.090515584 0.091504194 -0.23479803 0.31831756 0.08018811 -0.1538764 0.05982637 0.37829772 -0.2577821 -0.50011736 0.21559116 0.28507897 -0.07302323 0.1330366 -0.012713051 0.2880149 0.22180188 0.34468177 -0.06598068 0.018718276 0.19921443 -0.2644435 -0.38760936 0.19443668 -0.8739882 0.4731788 -0.0066808397 -0.006370385 0.14667575 0.20258833 -0.07040118 -0.061007395 -0.096071586 0.10446775 -0.13038048 0.24029328
114 0.12834896 -0.28241175 -0.5185889 -0.20164846 0.014389564 -0.45083192 -0.12060393 0.4227341 0.52091616 0.4028988 -0.30358294 0.10361831 -0.027100608 0.39729437 0.35085884 -0.113409765 0.061949257 0.28806004 0.26235875 -0.054417815 -0.25262904 0.4733051 -0.3115029 0.6989254 0.1970311 0.18219896 -0.60580057 -0.05114044 -0.3360371 -0.18754537 0.023765406 -0.17653744 -0.41041657 0.38621122 0.14250043 -0.21979344 -0.07946807 -0.30798492 0.37722376 0.24792083 0.049395196 0.069694154 0.10314522 0.14655522 -0.4897645 0.08160274 -0.4239235 0.20342031 -0.40276736 -0.17159334 0.06993872 0.0048630694 0.34364003 0.28191248 -0.15956114 0.17218181 -0.14749128 -0.43926537 -0.25103343 0.21158156 -0.20449479 -0.24836864 0.1109716 0.13265409 0.09514144 0.22000194 -0.41204566 0.29538354 -0.407332 0.21421441 0.2651521 0.2115855 0.15529037 -0.23115727 0.031714678 -0.17367013 0.56260955 0.16445604 -0.23565665 -0.14678349 0.06910664 -0.28073734 0.07341608 -0.17501035 0.023436695 -0.18439193 0.5603954 -0.028640268 0.146464 0.31361037 0.6597382 -0.09770014 0.008495087 -0.0597818 -0.72849137 0.17303967 0.11498825 0.018030077 -0.26765037 0.100308836 -0.5484512 -0.4187339 -0.22764426 -0.4603954 -0.24765189 -0.30418676 -0.055464257 0.476805 0.028822916 0.2866207 -0.20753805 0.22212039 -0.4020424 -0.0062427605 -0.4632627 0.14862609 0.077906504 0.1987612 -0.15777144 0.102319084 0.008599993 0.20113298 -0.06388708 -0.1499481 -0.16273329 0.33691314 -0.42088836 -0.19017622
84 0.14524902 -0.52763194 -0.14358898 -0.57239515 0.22007424 -0.25547725 -0.06460043 -0.06728443 -0.033719484 0.14694962 -0.71364415 -0.05764057 0.15538481 0.21292044 0.16567019 -0.49378178 0.28302222 0.2284734 0.13237922 -0.09412394 -0.26607963 -0.1594018 0.21181805 -0.11515379 0.20815869 0.034627926 -0.39011645 -0.14168046 -0.2860776 -0.102743626 0.20861235 0.05287455 -0.44103086 -0.38283002 0.09281602 0.31926116 -0.037262905 -0.08588945 -0.17187923 -0.059142612 -0.057622828 0.58479863 -0.35003975 -0.019387871 0.40642717 0.10823993 -0.2912406 -0.011007505 -0.035132714 0.16602689 0.068890065 0.44793275 0.33653823 -0.18218406 -0.21302561 -0.3593025 -0.042786974 -0.1546387 -0.344855 0.4282142 -0.14834505 -0.3294286 -0.10286403 0.00348665 0.05979126 -0.101785764 -0.5800708 0.18492204 -0.54780287 0.44699934 0.10523077 0.052691054 0.30885705 0.05895277 -0.22301914 -0.0065077217 -0.053375803 0.80067277 -0.31774086 0.11351562 -0.31896272 0.029949497 -0.29180935 0.19465816 -0.14672887 0.30748495 0.28901213 -0.13307115 0.30935997 0.3550072 -0.30927494 0.26195186 -0.1420133 0.06018289 -0.14974561 0.31301597 0.17770804 -0.13551441 0.022602964 0.39363694 -0.12891224 -0.46107903 0.3456821 0.21544866 -0.11271313 0.119867444 0.07657917 0.25936317 0.24635892 0.31885603 -0.07982536 0.10274292 0.19076495 -0.21475843 -0.4466749 0.19918755 -0.96685266 0.43426716 -0.12172293 -0.013027597 0.11817554 0.2187762 -0.087641776 -0.10043607 -0.15072842 0.111306675 -0.26991898 0.20361589
138 0.44297716 0.21054874 -0.36486018 -0.15784922 -0.53269607 -0.624404 0.5077428 0.24829417 -0.16980918 0.28072724 -0.57957697 -0.29239064 0.32036155 0.12149382 -0.66950774 -0.22236413 -0.11753384 0.310244 0.008654062 -0.045339096 0.02312625 0.856777 -0.024877371 -0.068309344 0.05068479 -0.13458341 -0.5666198 0.3878304 -0.22498481 0.74398696 0.082740024 0.12936689 0.2892549 0.23422356 -0.4485161 -0.038513217 -0.22531945 -0.15848127 0.27724102 0.36125955 0.2472651 0.37841713 0.022985807 0.04389201 0.027118756 -0.2549305 0.016399382 -0.14955835 0.49926233 0.22662352 -0.56702465 0.36809683 0.23905534 -0.037097655 -0.5966913 -0.14615862 -0.12998882 -0.2711414 -0.76420397 0.42159778 0.34804344 -0.34114125 -0.45349467 0.035689168 0.456209 -0.17877914 -0.2575313 0.41507685 -0.33797675 -0.35439768 -0.51905066 0.09481608 0.40230635 -0.2949356 -0.0034596324 0.3498531 0.0041567935 -0.08652754 -0.03617921 0.06531657 -0.45688963 0.19204426 -0.23302792 -0.13623218 0.10356916 -0.4700827 0.18634786 0.1849594 0.70671445 -0.09869519 -0.12701179 -0.062170193 0.043597642 -0.14045721 0.011289824 -0.07461022 0.09685479 -0.53493994 0.180831 0.08107387 -0.027292673 -0.25825918 0.1455252 0.45728907 0.25994992 0.15716644 0.3264197 0.086567305 0.23661241 0.50384 0.16084155 -0.019925214 -0.049122322 0.17727715 -0.016371418 -0.21982229 -0.28958577 0.13351114 -0.0032111101 -0.33243442 0.20771402 0.046425994 0.099461555 0.09887404 0.2611586 -0.032896835 0.23998527 -0.17369132
69 0.29847544 -0.038337935 -0.26105085 -0.34772107 -0.5325974 -0.55150884 0.48597205 0.02972731 -0.2444124 0.14498755 -0.6343315 -0.039817084 0.24577993 0.23066711 -0.36974758 -0.271218 -0.334087 0.4043427 -0.02410665 -0.06349029 0.09622109 0.9232227 -0.1595572 -0.25692675 -0.036594402 -0.108359195 -0.47132197 0.2525786 -0.06711405 0.5511788 0.10269064 0.106341936 0.21624327 0.030392513 -0.52606773 0.028069973 -0.08572263 -0.16979031 0.1886706 0.36161935 0.2448489 0.23915346 0.21802005 0.11020692 -0.10321497 -0.019761909 0.2900988 -0.10014005 0.4709342 0.41037193 -0.5443643 0.15860327 0.31387323 -0.21564315 -0.70508975 -0.090235315 -0.07558974 -0.13673781 -0.51835626 0.4693112 0.30790552 -0.13404278 -0.30310217 0.080211766 0.46886656 -0.057410866 -0.34419188 0.20783103 -0.2778565 -0.27558443 -0.47678086 0.20075491 0.44055018 -0.31921887 0.084889 0.2753205 0.11272136 -0.21767844 0.06616475 -0.03748974 -0.3382204 0.24598567 -0.055790965 -0.10744252 0.0073449044 -0.4080437 0.19002551 0.2567118 0.6424268 -0.120192334 -0.022261484 -0.05883184 0.13091223 -0.10890605 -0.08205241 0.0014027309 0.20903885 -0.47933224 0.27247262 0.044866543 -0.18298547 -0.29804665 -0.071114354 0.2992174 0.46427584 0.11852083 0.14363754 0.1751602 0.26686725 0.54635066 0.10752709 -0.058671806 -0.12215699 -0.004225221 -0.08574538 -0.18152842 -0.3126695 0.051514685 0.15611905 -0.33478007 0.23143694 0.060563326 0.19522235 0.16510805 0.26030642 -0.12073665 0.34110874 -0.15785263
159 0.08676386 -0.65910304 -0.13930357 -0.5867222 0.16207127 -0.2599598 -0.005971577 -0.08482484 -0.0017605474 0.14494891 -0.7535861 0.059188407 0.21568078 0.3706527 0.26855263 -0.56288993 0.23775028 0.29029164 0.112461016 -0.13264376 -0.24910401 -0.066288404 0.22893843 -0.17890742 0.21210878 0.057737008 -0.3916082 -0.23731385 -0.23068726 -0.12732436 0.1481431 0.08237545 -0.49438637 -0.5143247 0.039095175 0.33342955 -0.022243343 -0.05719778 -0.21990089 -0.051731247 -0.006508372 0.5817984 -0.309256 -0.015500182 0.3428798 0.15368211 -0.18756053 0.054573435 -0.0076117762 0.2141628 0.025919253 0.39880732 0.37493074 -0.17954202 -0.25966957 -0.36856997 0.070280984 -0.13786307 -0.3287086 0.4204046 -0.1322393 -0.30181286 -0.14559416 0.031962693 0.030827358 -0.048939403 -0.62505853 0.15478759 -0.40668428 0.4295928 0.12454568 0.03055973 0.3299931 0.017789803 -0.15673824 0.017990412 -0.0041950354 0.7559599 -0.31826738 0.008470646 -0.21236652 0.011036494 -0.19359298 0.2009063 -0.17639166 0.21375331 0.25281292 -0.16440186 0.42143384 0.31769273 -0.33604783 0.20764476 -0.1040498 0.13952246 -0.18090074 0.28884798 0.12591487 -0.07826041 0.06464984 0.36564788 -0.23393676 -0.46387246 0.23965058 0.18662761 -0.020428304 0.10968069 -0.09544844 0.2655368 0.25598133 0.25735068 -0.082552426 0.035833847 0.19119513 -0.3127018 -0.45857573 0.27307418 -0.9149864 0.5325188 -0.11740733 0.034239784 0.10834732 0.21704072 -0.056168552 -0.017328184 -0.1929458 0.09848265 -0.128289 0.20526226
145 0.1856327 -0.6224314 -0.15112203 -0.53319055 0.16007993 -0.22637348 -0.010824505 -0.12647553 -0.030527098 0.13397576 -0.67686284 -0.0394949 0.06342787 0.1830135 0.3536018 -0.51438195 0.25737655 0.15511459 0.08817206 -0.06972857 -0.288097 -0.16404794 0.17943175 -0.08238629 0.24021783 -0.10819688 -0.41341412 -0.17072454 -0.25739914 -0.16912645 0.16094016 -0.04287693 -0.40592694 -0.5062564 0.05415088 0.36120382 0.012532106 -0.039467547 -0.13166256 -0.03878033 -0.07497416 0.6011341 -0.33973297 -0.061482444 0.3768118 0.1644174 -0.23124127 -0.0025619506 0.015765676 0.20185225 0.05038584 0.3873496 0.33935452 -0.19319314 -0.31821382 -0.30635515 0.020013897 -0.19016095 -0.3219112 0.45202607 -0.2201656 -0.3495849 -0.16202098 0.08299585 0.0655817 -0.22456643 -0.54548186 0.082316905 -0.52357537 0.4415139 0.02800253 0.056712158 0.17305116 0.01207688 -0.21366723 -0.0058726794 -0.06180415 0.838049 -0.25268897 -0.018135253 -0.2991666 0.093554065 -0.25538698 0.23065554 -0.13600892 0.23852128 0.36442822 -0.13289106 0.41916278 0.43816486 -0.34444726 0.24091882 -0.08423163 0.048040982 -0.29515523 0.30693066 0.13270514 -0.12986505 0.04747936 0.41310388 -0.24440664 -0.42669356 0.22389725 0.22449937 -0.055335823 0.14291196 0.041487608 0.27188483 0.24793386 0.4478258 -0.046937022 0.013016483 0.16688825 -0.20927864 -0.44704223 0.17354865 -0.87826407 0.52047867 -0.08657081 -0.006755216 0.19499694 0.29158324 -0.02800713 -0.20265186 -0.18285844 0.089317955 -0.03733226 0.29010674
38 0.26870736 -0.36981663 -0.39699683 -0.21534613 -0.09097845 -0.42126766 -0.12400818 0.34720668 0.5009251 0.37547863 -0.2505591 0.13444103 -0.13982947 0.29146492 0.38932934 -0.18756282 0.10021534 0.20019536 0.2652302 0.047380604 -0.12110313 0.34533617 -0.30148092 0.7991479 0.24965091 0.18483655 -0.60056615 0.016454298 -0.39262387 -0.17637284 0.013502161 -0.36616343 -0.38481918 0.36479285 0.2119341 -0.22588256 0.038194068 -0.21969129 0.33522755 0.12706506 0.062476236 0.08090252 0.017280772 0.2185101 -0.39702672 0.09986094 -0.36796674 0.103164226 -0.36757994 -0.28270695 -0.010547281 -0.043857526 0.31347921 0.23882554 -0.22025788 0.11100239 -0.16982709 -0.3946395 -0.25865647 0.1999397 -0.24439852 -0.3307554 0.09917733 0.19050814 0.106098555 0.07506287 -0.3577662 0.2831001 -0.4485964 0.24569139 0.31448424 0.23617777 0.054532114 -0.26334444 0.072290204 -0.17830043 0.6162537 0.10508467 -0.1483752 -0.12573029 0.08949531 -0.26526225 0.1322873 -0.1672174 -0.010060627 -0.18346827 0.57246923 -0.057512783 0.19281822 0.32459423 0.7072777 -0.20724072 -0.052048307 -0.11047641 -0.7760123 0.11393889 0.01596219 -0.039950877 -0.2944582 0.15956402 -0.5390846 -0.45613608 -0.27483875 -0.31293777 -0.17780954 -0.3355927 -0.011754309 0.45505172 0.10409864 0.38079107 -0.1803134 0.1708245 -0.31399497 0.08873571 -0.5191033 0.049784653 0.1637777 0.07488451 -0.030986948 0.07016839 0.0435461 0.35180902 -0.0967546 -0.17355521 -0.23816805 0.35139972 -0.41828817 -0.20528553
59 0.18216656 -0.5596487 -0.09186842 -0.54163027 0.2357714 -0.29462227 0.040457375 -0.15147571 0.07761063 0.00043074042 -0.6766727 0.03237051 0.23737027 0.26579314 0.20272362 -0.50182575 0.32376638 0.18753429 0.03253277 -0.040352874 -0.09420379 -0.15795974 0.20597783 -0.09942044 0.24268922 -0.028667837 -0.47772175 -0.16252975 -0.182155 -0.18023406 0.17867729 0.09717695 -0.46044314 -0.37551868 0.14705588 0.33542833 -0.009466194 -0.06830882 -0.23749582 -0.070044644 -0.036528517 0.59249425 -0.37062564 0.07778519 0.41840544 0.12790178 -0.2205261 -0.04506654 0.061982214 0.18465845 0.059342105 0.3737221 0.35825586 -0.19552721 -0.22730021 -0.41282564 0.011263922 -0.06438678 -0.3115833 0.40985298 -0.1734525 -0.3132872 -0.018425021 0.036066048 0.084859185 -0.09319154 -0.6012009 0.18050975 -0.5121932 0.42983142 0.06275594 0.0011081408 0.27903774 -0.01974418 -0.22009096 -0.030264113 -0.04295263 0.82140666 -0.3455833 -0.043121397 -0.19057181 0.067498446 -0.18676834 0.19182724 -0.09798671 0.25753072 0.29904056 -0.05318926 0.29654232 0.4554273 -0.2774422 0.18715988 -0.13709313 0.09100912 -0.26207924 0.30021355 0.12322855 -0.13852748 0.17958573 0.4745969 -0.26023442 -0.3933461 0.24121231 0.28480983 -0.024304658 0.033813965 -0.034059145 0.24017057 0.32174236 0.3089732 -0.065958984 0.082823575 0.22024813 -0.25807858 -0.4994756 0.20402913 -0.99539214 0.39368835 -0.07357146 0.092913635 0.12628417 0.28263876 -0.03204403 -0.06517155 -0.06619306 0.0929474 -0.16858667 0.17990191
85 0.100811884 -0.5750105 -0.10298657 -0.50271624 0.14924783 -0.19495086 0.042511832 -0.080074735 -0.015154484 0.13002288 -0.6819028 -0.1168018 0.11244874 0.24975547 0.29477853 -0.62164503 0.2747243 0.09157126 0.15336615 -0.07707541 -0.26203516 -0.18758912 0.22417657 -0.055688176 0.21093234 -0.006713443 -0.38544402 -0.22469164 -0.27848414 -0.18257052 0.20837685 -0.066723615 -0.4542564 -0.45769572 0.12280504 0.37401003 0.033215053 0.10115449 -0.14764813 -0.01407967 0.022351604 0.53007734 -0.3958521 -0.07129024 0.4436407 0.18461673 -0.23883817 0.020654146 0.029115781 0.13483223 0.022875004 0.4456741 0.3297527 -0.17154297 -0.35420087 -0.2746589 0.035608273 -0.14383662 -0.33033186 0.4284047 -0.19666584 -0.42248788 -0.16434737 0.044897508 0.023391904 -0.14491656 -0.62433213 0.1414258 -0.5977796 0.43931827 0.13570939 0.12960753 0.22689503 0.03932013 -0.13179097 -0.019214569 -0.055525243 0.80271745 -0.27196744 -0.021975107 -0.27475992 0.10568639 -0.22819643 0.2672119 -0.18819857 0.24516079 0.3801664 -0.12156571 0.4124825 0.33450085 -0.2825387 0.17577477 -0.09731425 0.03490873 -0.29097062 0.24738106 0.14499223 -0.09308335 0.013479086 0.4124209 -0.19453831 -0.41232264 0.27041015 0.207532 -0.13081186 0.14262658 -0.025742432 0.16010962 0.32006377 0.3130522 -0.13803756 0.064685516 0.13705076 -0.17927957 -0.39540586 0.18043737 -0.82210654 0.4485656 -0.051263615 -0.0069742235 0.16669966 0.32831398 -0.10052811 -0.08132866 -0.11817069 0.026501657 -0.055191536 0.28178558
212 0.16580276 -0.56025434 -0.17860855 -0.55293363 0.11054308 -0.24323769 -0.01596395 -0.12443856 0.047716342 0.16356517 -0.69479406 -0.011674265 0.1712658 0.26302236 0.20372595 -0.57304305 0.25984123 0.20961909 0.13682087 -0.11879966 -0.24133445 -0.15850314 0.17195344 -0.09500618 0.25644305 0.049743995 -0.38261846 -0.23227492 -0.25830382 -0.18425219 0.11824809 0.012240307 -0.45417395 -0.48544222 0.08339336 0.3787638 0.036689993 0.034638345 -0.26945588 0.018178279 -0.04666112 0.46968424 -0.34658214 -0.05795839 0.4167083 0.17506225 -0.16756487 0.034202404 0.027668377 0.17843434 -0.0015488216 0.41682312 0.31015489 -0.2888435 -0.31801257 -0.33429366 0.015652394 -0.12133921 -0.24956 0.4848854 -0.12730283 -0.31010786 -0.16085045 0.043160826 -0.0052978992 -0.064386286 -0.6673773 0.13011609 -0.5421437 0.4680684 0.17558266 0.079798855 0.22320426 -0.0076016574 -0.20229572 -0.04592547 0.04708644 0.76426804 -0.2556336 0.04477657 -0.22785333 0.12067319 -0.185325 0.19533269 -0.15600662 0.20760562 0.3366569 -0.11049283 0.39443296 0.37526873 -0.35451216 0.19784948 -0.13158299 0.10159472 -0.2097687 0.27223197 0.07616619 -0.11923185 0.048644498 0.4167346 -0.28735873 -0.48684657 0.22384265 0.18891759 -0.07640377 0.18304676 -0.018529803 0.26283595 0.27861714 0.4285342 -0.04523343 -0.0013972104 0.22785068 -0.25983495 -0.37830868 0.21719962 -0.8887035 0.4921549 0.07490264 0.04295005 0.20751412 0.2941824 -0.09867209 -0.049495865 -0.12201188 0.06466942 -0.17101665 0.28779474
58 0.10410466 -0.5998065 -0.0060941153 -0.5482244 0.19808726 -0.20209159 0.029684026 -0.08650219 -0.027208794 0.18203439 -0.74775624 0.005482071 0.18762857 0.25666064 0.3672842 -0.48081285 0.25652343 0.14539643 0.12243828 -0.058322374 -0.23845477 -0.17508209 0.33016774 -0.12002639 0.20364192 0.01859196 -0.48513547 -0.14762668 -0.24353205 -0.10199178 0.11855428 0.0028233728 -0.3777343 -0.4484083 0.07068072 0.39896563 -0.022760153 -0.052771952 -0.10506509 -0.057805788 -0.061176393 0.546996 -0.27496344 -0.10630443 0.30262828 0.12348315 -0.2555425 -0.01403659 -0.019572863 0.18764092 -0.0063566924 0.37221038 0.39210483 -0.16422583 -0.29891238 -0.28083578 0.07233098 -0.15319315 -0.37315828 0.38119859 -0.17905526 -0.35165793 -0.12769821 -0.009816956 0.043082073 -0.11109396 -0.5756905 0.13229436 -0.5419887 0.5209647 0.008741228 0.07298866 0.29550642 -0.018653715 -0.16642258 -0.028005086 -0.056036353 0.7944825 -0.3215897 0.029617947 -0.270013 0.07132709 -0.20888953 0.21659103 -0.19573714 0.23746976 0.33600911 -0.09424462 0.37389812 0.3075477 -0.34056586 0.23183872 -0.11470283 0.056612123 -0.22680385 0.30842686 0.10699195 -0.086732164 0.029708404 0.4046826 -0.18285227 -0.39670375 0.30554035 0.18194535 -0.18003348 0.12552169 -0.083022006 0.2693184 0.23003379 0.28037572 -0.09804672 0.018787455 0.13422392 -0.26448107 -0.4044616 0.22151154 -0.9311878 0.59027904 -0.09466522 0.0034593458 0.1654893 0.23528402 -0.115351066 -0.006993685 -0.18658741 0.051301066 -0.13619941 0.30932316
163 0.2571106 -0.26632002 -0.47519335 -0.14722006 -0.088988476 -0.39934394 -0.026104677 0.39687344 0.3908894 0.42785072 -0.21523233 0.2271719 -8.635732e-05 0.35312325 0.3936615 -0.19394182 0.13420485 0.1271943 0.33393717 0.109751105 -0.04545472 0.364001 -0.26406446 0.859067 0.293408 0.23649958 -0.61410785 -0.04493953 -0.38876426 -0.17936908 -0.064394064 -0.33511806 -0.3852817 0.40125206 0.22606674 -0.23851146 -0.06453176 -0.21777362 0.3339846 0.17106421 0.11756995 0.014552912 0.006873859 0.1942936 -0.35479534 0.019337362 -0.4969511 0.15488103 -0.3310545 -0.22006175 0.04257149 0.0059935083 0.31548288 0.30805582 -0.112814054 0.14125134 -0.17356567 -0.35732406 -0.21064807 0.07149958 -0.17998666 -0.38765496 0.108549066 0.0546818 0.06696164 0.2174956 -0.41495943 0.35700867 -0.39217034 0.2920914 0.33268046 0.25926366 0.13424636 -0.21091308 0.036609992 -0.19840106 0.61311066 0.11365504 -0.22915211 -0.109407075 0.094898336 -0.20690116 0.09620534 -0.12731229 -0.0057806913 -0.20938432 0.55655044 -0.030585306 0.21122894 0.31944507 0.72627956 -0.18464011 0.0037006314 -0.055090655 -0.71963257 0.10539087 0.038507998 0.009313721 -0.16488734 0.1108698 -0.50298613 -0.45170227 -0.1441169 -0.33534765 -0.27150506 -0.32507426 -0.057540108 0.43353227 0.09691509 0.27763256 -0.19982807 0.13743573 -0.29317564 0.0784659 -0.5306229 0.07002999 0.017567785 0.19463117 -0.08990228 0.16136299 0.092354186 0.23095456 -0.14799139 -0.15922137 -0.17137383 0.33118373 -0.38292617 -0.20328069
88 0.283716 -0.011830588 0.30958554 0.20033167 -0.202666 -0.6424832 0.18006983 -0.14347848 -0.32782027 -0.026611416 -0.26959485 0.07521723 0.31767723 -0.0766355 0.18913306 -0.3086115 0.32649645 0.12093047 -0.1723755 -0.21502285 0.18231763 -0.23298304 -0.013145581 -0.08637879 0.31749508 0.095862545 0.15634969 -0.45489967 -0.7209547 -0.13316496 -0.09886838 -0.05690431 0.0842764 -0.19600265 -0.30477792 0.25723612 0.2841588 -0.28666648 0.9003969 0.23252626 -0.022171259 0.09765384 0.11770724 0.37267506 0.34120956 0.41376224 -0.05373692 -0.91544616 0.09973594 0.25922063 0.08743983 0.2779969 0.45666218 0.4584024 0.14828774 -0.54270834 -0.16169728 -0.012959561 -0.4119407 0.18819998 -0.1770031 -0.6912534 0.043182246 0.0021173859 0.112662934 0.39840326 -0.7061431 0.0660276 -0.10025128 -0.17657778 0.661568 0.24072976 0.15776962 0.058728248 0.37097946 0.13826041 0.46344182 0.1507412 0.37458277 -0.3456111 -0.092329554 -0.21643724 -0.081015326 -0.36702874 0.33749512 0.2924095 -0.0977839 -0.25183666 0.10814775 -0.060416564 0.25861663 0.105965704 0.43053252 0.17551792 -0.012613761 0.083159186 -0.32944843 0.0031569628 0.2934036 0.17908956 -0.14252123 -0.19461653 0.10841108 -0.2822424 -0.05237366 0.24961679 0.16904965 0.49148163 0.18276821 0.19262576 -0.38577417 -0.0009943105 0.14328988 0.16321419 0.1237305 -0.106851526 -0.14813626 -0.020129826 -0.0031711718 0.17554085 0.3191666 0.15392314 0.026597911 -0.43881446 0.05016036 0.20182855 0.12404372 0.18188968
35 0.26775053 -0.27454662 -0.43576258 -0.28954405 -0.12636836 -0.3458355 -0.014276295 0.37755394 0.51564896 0.4157883 -0.2579373 0.25526303 -0.029170554 0.41325322 0.3391083 -0.10488 0.10037894 0.19858159 0.35224408 0.016440116 -0.085521825 0.39433348 -0.37844992 0.81570345 0.19717154 0.21420124 -0.546725 -0.034243405 -0.37472382 -0.17558062 -0.06825711 -0.20488417 -0.37943357 0.43566155 0.18451175 -0.17513743 -0.01978804 -0.26446128 0.41500387 0.13181135 0.088709034 0.03654279 0.02982981 0.14046478 -0.3423627 0.1311545 -0.36600596 0.12790816 -0.32338032 -0.15383624 0.03970954 -0.026990402 0.3120661 0.22235447 -0.18185885 0.15722449 -0.12143933 -0.3903003 -0.2583246 0.25909275 -0.2635424 -0.29526678 0.10581344 0.14682439 0.11792711 0.1217568 -0.3477461 0.33752427 -0.42056093 0.23525201 0.2892319 0.2414542 0.108579114 -0.15453216 0.026251087 -0.16928564 0.58883476 0.093964964 -0.119170725 -0.12705359 0.11131734 -0.21952985 0.15391663 -0.19071293 0.0053857695 -0.12706493 0.62094414 -0.06642835 0.19608353 0.26961523 0.67071813 -0.19538209 0.03360386 -0.025717128 -0.7751345 0.15149322 0.045880575 -0.0044593527 -0.29773062 0.18589559 -0.5593101 -0.37337452 -0.2087514 -0.33392695 -0.19621001 -0.37257898 -0.004468393 0.54525375 0.057125427 0.34240034 -0.19496392 0.20070969 -0.21948569 0.0892141 -0.47237352 0.11234665 0.019195905 0.18838301 -0.008266182 0.11695341 0.012918107 0.2502273 -0.022080783 -0.1847305 -0.18260683 0.3713415 -0.44516212 -0.18520677
196 0.2131637 -0.2866004 -0.4139666 -0.16360131 -0.062249813 -0.5059734 -0.02588812 0.36370158 0.44645724 0.49709985 -0.17551532 0.11857435 0.036552917 0.33599797 0.44575137 -0.077643506 0.034779772 0.1751251 0.204615 0.050203875 -0.033690397 0.39970914 -0.3335104 0.8064766 0.22856572 0.13599746 -0.6212411 -0.03213673 -0.45723465 -0.21287231 -0.067224555 -0.34310445 -0.3361206 0.41116145 0.18697274 -0.25356984 -0.025822755 -0.2532255 0.33432284 0.10902526 0.010819927 0.007473588 -0.011923475 0.191136 -0.38431683 0.029720116 -0.52705073 0.2508174 -0.25202903 -0.18874888 0.049471337 0.029486708 0.2855206 0.3282637 -0.14802 0.11816745 -0.13895908 -0.4539616 -0.27549455 0.16106668 -0.23061763 -0.34133944 0.15889136 0.14860241 0.0943295 0.08546334 -0.38512143 0.39254826 -0.36831415 0.2127645 0.27280143 0.22119115 0.09352508 -0.26227748 0.0469078 -0.12725027 0.5352813 0.1738711 -0.20201653 -0.11216004 0.11402111 -0.20202576 0.09161299 -0.1501483 0.03655122 -0.15104815 0.5537175 -0.027457641 0.15492362 0.32386768 0.8108648 -0.10105116 0.09089191 -0.08418349 -0.77100164 0.15170343 -0.008909739 -0.017803987 -0.25585645 0.1923175 -0.57206035 -0.34011555 -0.20417804 -0.36705822 -0.15577145 -0.36654747 0.003947112 0.4927617 0.025274549 0.299798 -0.15812445 0.13880631 -0.268639 0.10152809 -0.5230143 0.033714924 0.035492856 0.20393144 -0.075854756 0.15782493 -0.028817752 0.23981947 -0.061389666 -0.11581841 -0.14446096 0.3530521 -0.40582258 -0.24765578
156 0.13115223 -0.5564149 -0.12399371 -0.47937632 0.143396 -0.27283812 0.0683409 -0.056281153 -0.057377044 0.16156548 -0.70833373 0.03089492 0.19348045 0.29757068 0.2737692 -0.5448832 0.368777 0.15117873 0.110868014 -0.111157484 -0.22451057 -0.17075934 0.20478211 -0.01040356 0.25040555 0.1377686 -0.40394154 -0.15973978 -0.25780094 -0.1291412 0.1485199 0.09962247 -0.462737 -0.4525068 0.11207844 0.40281457 0.014138712 -0.026793335 -0.11131684 0.0068717333 0.055812005 0.52269614 -0.35154706 -0.06779024 0.40893888 0.14537305 -0.23017049 -0.0057602716 0.051130235 0.15426669 0.044977333 0.46502745 0.3217789 -0.16007921 -0.31425714 -0.30124497 0.046261586 -0.20216349 -0.28896517 0.44642028 -0.15015034 -0.3310387 -0.13060375 0.03790078 0.11344551 -0.10723687 -0.60932416 0.20019057 -0.42950737 0.48000994 0.09568172 0.07506164 0.33649573 -0.05744715 -0.17976715 -0.002059487 0.0339219 0.75754356 -0.29260302 -0.023488663 -0.30413252 0.0325786 -0.2430299 0.3072281 -0.19262731 0.2554951 0.34455526 -0.1264083 0.45449874 0.28221396 -0.3118897 0.25193882 -0.09398411 0.09323113 -0.26924473 0.34261933 0.17215072 -0.119327344 0.08280052 0.37355736 -0.2288261 -0.431036 0.25287727 0.17646839 -0.113028616 0.097883716 0.005059925 0.26807532 0.23924397 0.2440975 -0.02308918 0.014657536 0.17114633 -0.23526296 -0.44706488 0.20833895 -0.9819054 0.619215 -0.071377054 0.09468074 0.10337918 0.22214775 -0.08038777 -0.026573662 -0.12330214 0.041295115 -0.15271468 0.25606298
401 0.4533335 0.038367134 -0.13909009 -0.29532933 -0.58499855 -0.6132908 0.5818895 -0.14112486 -0.23111166 0.17645779 -0.70380694 -0.029837318 0.18730754 0.09662906 -0.43962246 -0.22842096 -0.21011189 0.32555702 -0.110145494 -0.10425756 0.17891535 0.84245133 -0.23052447 0.03163752 0.05815072 -0.007590034 -0.52528876 0.15270865 -0.20413122 0.5822918 0.17449605 0.1212559 0.20788816 0.102737784 -0.52074957 0.05585723 -0.029419849 -0.12562864 0.28175038 0.22578442 0.2900626 0.27281892 0.08923837 0.065659635 -0.073562 -0.059779923 0.28494 -0.09457677 0.39134556 0.29979938 -0.52615494 0.15395832 0.26326227 -0.28639528 -0.6680128 0.02149288 0.011279376 -0.13968463 -0.40665978 0.44698602 0.26127622 -0.19723418 -0.26594892 0.15810832 0.51918536 -0.21219753 -0.25814384 0.22889166 -0.17722152 -0.20942746 -0.5639626 0.20859537 0.4036601 -0.32149366 0.29233617 0.35869852 0.17213374 -0.24593852 0.013079026 0.06682856 -0.31519142 0.32115027 -0.056273535 0.030995589 0.084709115 -0.23636204 0.11769314 0.27749917 0.60853946 -0.26427487 0.056349725 -0.024351265 0.19139022 -0.09954358 -0.017133914 0.09167752 0.32527974 -0.522996 0.21856831 0.118320584 -0.13999303 -0.16299294 0.046864893 0.2553959 0.4196264 0.11015088 0.24125579 0.053930435 0.28191024 0.46338028 0.20236406 -0.06591085 -0.14351381 0.024461597 -0.22049296 -0.20581369 -0.3705877 0.120908014 0.18475273 -0.32497373 0.2151033 0.085808545 0.105086565 0.022612475 0.24924114 -0.026446471 0.29671013 -0.15483153
305 0.09697923 -0.05229147 -0.35371825 -0.0048954003 -0.0014904011 -0.29945758 0.0074161883 0.41469032 0.3649328 -0.017838597 -0.33608413 -0.5091008 0.089249544 0.1510897 -0.69944227 -0.67143697 -0.37723193 0.8204671 -0.07982025 0.8966885 0.61406356 0.013307755 -0.23936507 0.31096387 -0.15132897 -0.050425347 -0.10484234 -0.2537198 -0.02000761 -0.18650077 0.19849788 -0.2989967 0.03738956 -0.013298555 0.29798672 0.5886013 -0.18465194 0.08580091 -0.1099428 -0.20939644 -0.7980511 0.6427627 0.071639344 -0.36538002 -0.47973973 0.27415028 -0.14109579 -0.6897078 -0.054335743 -0.23715402 -0.4661335 -0.04028042 0.60290635 0.7009716 0.028010583 0.055432156 -0.062855564 -0.21691436 -0.6003621 0.0054535307 -0.35770676 -0.06598515 -0.3546514 -0.020094192 0.101640455 -0.2014969 -0.5281796 0.062395908 -0.63352215 -0.206234 0.41182977 0.67613715 0.055458453 -0.1351728 0.33294216 0.13910191 0.19991879 -0.3783241 0.36932743 -0.17055713 0.50450474 -0.1640537 0.27684096 -0.18690142 -0.08657941 -0.22955857 0.17663895 0.13286382 -0.03230531 -0.06278078 -0.1551669 0.014990196 0.16703929 0.02537447 -0.19663171 0.08472853 0.2596422 -0.18106903 -0.24171774 -0.29418153 -0.48925692 0.06219715 -0.0019121114 0.24976969 0.06451476 -0.09461997 0.19429977 -0.069926135 0.036129482 0.56366956 -0.044929177 -0.15206815 -0.00029988063 0.137757 -0.101991124 -0.27384156 -0.60802853 0.50309443 0.41200507 -0.106515676 -0.15295367 -0.17991391 -0.44771075 0.039627694 0.12744531 0.28561348 -0.38471946 -0.68934995
227 0.2546671 -0.35331428 -0.40427324 -0.16420957 -0.0074712085 -0.42643145 -0.014691986 0.40316013 0.5841341 0.39443752 -0.19859207 0.21488424 -0.052169595 0.35667583 0.3928216 -0.07248988 0.10644517 0.21099485 0.23096853 0.1368594 -0.15571451 0.29801488 -0.24457327 0.8659947 0.16885516 0.2405752 -0.58596075 0.013667625 -0.39075425 -0.15711647 -0.0935681 -0.34915042 -0.37159014 0.3310421 0.17845862 -0.15792854 0.022646707 -0.32007074 0.40740064 0.11174817 0.051573485 0.07261611 -0.0024951247 0.18390602 -0.4487374 0.042181052 -0.38661557 0.07544969 -0.36105558 -0.17424275 0.024701916 -0.008996215 0.3505832 0.24847192 -0.15550835 0.15962894 -0.16995372 -0.41481447 -0.24508649 0.10006703 -0.20979288 -0.27510992 0.11269074 0.1632924 0.12988414 0.10787226 -0.30829838 0.35138395 -0.38010928 0.29056677 0.21784969 0.2738547 0.080020316 -0.29378313 0.078925595 -0.15515612 0.6175714 0.15804255 -0.2139805 -0.13676687 0.08987785 -0.28043985 0.12600534 -0.16543745 -0.0032346805 -0.14258857 0.520021 0.0013202662 0.2229412 0.37227175 0.7050083 -0.115901254 0.016310643 -0.082193226 -0.7607249 0.13460734 0.04436198 -0.043078907 -0.19920541 0.14351279 -0.5016048 -0.3990828 -0.19580752 -0.46878117 -0.17177686 -0.31988952 -0.02489708 0.5085267 0.04176708 0.29590234 -0.14584765 0.16182287 -0.30587357 0.074432716 -0.55410534 0.05088311 0.10709467 0.20096214 -0.08907518 0.14618513 -0.011500406 0.29705772 -0.070849635 -0.21487173 -0.25749817 0.318986 -0.3454239 -0.16350399
143 0.18843587 -0.3037106 -0.4881313 -0.16651247 -0.12731455 -0.35096443 -0.10966513 0.39761588 0.48667613 0.44083774 -0.22916977 0.19737837 -0.08806697 0.32654056 0.3581063 -0.11522014 0.100353904 0.23840007 0.32105717 0.06973858 -0.15161659 0.48906046 -0.38445273 0.8145398 0.2613957 0.17060682 -0.71798784 -0.046244923 -0.4702493 -0.2183164 0.019229501 -0.3231119 -0.3677225 0.32520282 0.18470871 -0.21296264 0.042790454 -0.1892255 0.36685157 0.097608745 0.13424636 0.01761028 -0.022729652 0.14133847 -0.30277732 0.05430031 -0.42579034 0.16031061 -0.39753836 -0.2734234 -0.021838525 -0.07958619 0.27335995 0.25557277 -0.17589702 0.1551118 -0.12795389 -0.36067793 -0.29984182 0.13110137 -0.25407004 -0.3687844 0.11628563 0.11475125 0.113098614 0.098491915 -0.39911327 0.32020187 -0.4427393 0.20216484 0.2982802 0.2555484 0.11052917 -0.16833942 0.07880042 -0.13156085 0.5775257 0.1491737 -0.13507657 -0.14796938 0.13605087 -0.23673981 0.14433151 -0.17941493 -0.038902692 -0.2004272 0.54111797 -0.020979682 0.18024231 0.25292432 0.68257225 -0.20215794 0.017252222 -0.05219845 -0.7331034 0.16086179 0.051611815 -0.0017392567 -0.21744063 0.13118866 -0.52749866 -0.4214987 -0.19059004 -0.30163756 -0.14983007 -0.33618972 -0.033011597 0.42882833 0.09404428 0.3391436 -0.23400569 0.1366383 -0.263564 0.06354013 -0.5434094 0.09371163 0.07583285 0.17596872 -0.06307652 0.13234156 -0.031270735 0.25911123 -0.19327076 -0.20270851 -0.16546196 0.39461148 -0.3997811 -0.17229128
47 0.13027003 -0.48194072 -0.12225688 -0.5273665 0.16351561 -0.22145897 -0.051771596 -0.07320061 0.0668559 0.14728767 -0.72101957 -0.07784498 0.19520386 0.26276374 0.20501208 -0.5038949 0.3205612 0.20224291 0.16779475 -0.12362736 -0.22178735 -0.14612968 0.20372479 -0.104513675 0.19917111 -0.035794552 -0.4128397 -0.23452207 -0.25610644 -0.17004006 0.22055292 0.0066103353 -0.45138705 -0.43927592 0.084826596 0.3203877 0.05159885 -0.01141899 -0.14935659 -0.06847729 -0.011359787 0.5114597 -0.40067038 0.0049194894 0.46149504 0.096726984 -0.1794209 -0.030062204 0.025686063 0.116758935 0.015404443 0.45333257 0.31138912 -0.186363 -0.30821702 -0.4268888 0.001780061 -0.14859267 -0.3337196 0.44172984 -0.15815496 -0.3696386 -0.054645114 0.070582926 0.09036307 -0.08209785 -0.5679713 0.17038426 -0.56696224 0.3367529 0.09021653 0.03679676 0.27127916 -0.004232214 -0.2589694 -0.011220122 -0.040983424 0.8058192 -0.2877069 -0.027234735 -0.22932422 0.12161872 -0.22290857 0.20280649 -0.12828243 0.25201944 0.32408953 -0.14387976 0.32739 0.3936316 -0.38283893 0.24811667 -0.16468276 0.0860408 -0.24459668 0.28543422 0.09768522 -0.13411193 0.082030624 0.4378116 -0.14600821 -0.46036482 0.24751727 0.30377653 -0.06942627 0.09243913 -0.022710871 0.24804139 0.32497966 0.29970247 -0.07693866 0.11003754 0.20488054 -0.23432459 -0.44756535 0.21321294 -0.9345499 0.4014837 -0.07889545 0.036309585 0.16373663 0.31996718 -0.06261982 -0.08051264 -0.15768933 0.09433977 -0.19580808 0.22400819
97 0.22990869 -0.09250662 0.25929022 0.18482047 -0.20904824 -0.5973584 0.18789607 -0.1952299 -0.25747132 -0.06417025 -0.22686903 0.17345905 0.37202245 -0.050062187 0.12339307 -0.34636104 0.3941483 0.23726512 -0.2157847 -0.20691799 0.26205337 -0.276397 -0.033589695 -0.10946369 0.3405524 0.15817863 -0.03681193 -0.5769932 -0.8248781 -0.22190748 -0.023182375 -0.022236126 0.05745294 -0.27581224 -0.34008446 0.22927782 0.3655899 -0.28237614 0.91240865 0.16264841 -0.06802008 0.16012596 0.08719546 0.2772689 0.26364523 0.4713096 0.039048787 -0.9426296 0.09894389 0.23212077 0.044476304 0.27222055 0.5426878 0.3921977 0.13467853 -0.6323852 -0.122559994 -0.06079614 -0.41506803 0.20943972 -0.14490244 -0.67000246 0.060558792 0.0008647212 0.02846425 0.44358233 -0.62692344 0.06493702 -0.07174776 -0.19850692 0.62046754 0.21894908 0.1644564 0.029624846 0.27623564 0.020054467 0.51118374 0.088929094 0.31975216 -0.24602097 0.045491777 -0.24006622 0.018178357 -0.3659726 0.27921253 0.271851 -0.16474965 -0.21653472 0.103855975 -0.022690285 0.28953812 0.07918693 0.2712766 0.20234925 0.016195154 0.04934192 -0.30496982 0.04589278 0.34499314 0.19124307 -0.18270433 -0.23230088 0.15581621 -0.2905535 -0.017363017 0.28246266 0.13718198 0.50090724 0.1816645 0.19585565 -0.34525144 -0.020290647 0.2295007 0.1292586 0.086576596 -0.08961647 -0.07450823 -0.07564726 0.05597399 0.2061031 0.34423646 0.08627435 0.02770749 -0.4643964 -0.0355417 0.2071565 0.16028628 0.15404579
30 0.22232245 -0.016584815 0.32397252 0.18365316 -0.31661108 -0.6105058 0.20246586 -0.2100148 -0.3377757 -0.07708155 -0.21975729 0.17598277 0.40719864 0.031453304 0.16826068 -0.23410802 0.34913445 0.22554885 -0.19224907 -0.19477886 0.2800704 -0.23266944 0.085377686 -0.14110404 0.25871813 0.1049466 0.087566584 -0.46532694 -0.7429298 -0.12800527 -0.1472238 0.09801414 0.16361894 -0.2908859 -0.35709316 0.27844733 0.29910982 -0.253298 0.86337554 0.13982432 -0.115408935 0.15131819 0.13594672 0.220999 0.40551293 0.38424936 -0.038217098 -0.82914394 0.088405065 0.27241793 0.07977752 0.32282197 0.4760761 0.28622305 0.20080015 -0.60774434 -0.10914504 -0.008800811 -0.45550832 0.26160878 -0.1584457 -0.7507585 -0.012401264 -0.041160677 -0.016230268 0.47892362 -0.68446714 0.120546564 -0.07657009 -0.21930474 0.7191458 0.2628693 0.22585814 0.08196378 0.34827492 0.028323334 0.4605214 0.11974401 0.31578222 -0.22890677 -0.026602484 -0.22117513 -0.061716955 -0.4509479 0.24979301 0.31222534 -0.053270098 -0.1919228 0.15400647 -0.061092924 0.3100012 0.07713553 0.32924923 0.17498314 -0.022370046 0.022055205 -0.32002947 0.0072885263 0.21583134 0.16491026 -0.25107908 -0.2109152 0.120703764 -0.37433296 0.008058835 0.2736933 0.1215098 0.52144915 0.10122359 0.2007527 -0.40831524 0.048118915 0.13306807 0.15292804 0.12058174 0.037432227 -0.07134728 0.06351589 0.07547951 0.13007754 0.3404981 0.06599021 -0.011180131 -0.4544701 -0.10710386 0.27077612 0.120075986 0.23886909
103 0.23716521 -0.050580554 0.30262893 0.2741178 -0.31406665 -0.6673001 0.17093776 -0.2989693 -0.3023809 -0.14497441 -0.19864175 0.06631829 0.44011497 -0.11252797 0.22274148 -0.3116892 0.4188063 0.25852588 -0.24442424 -0.3130256 0.19011906 -0.311021 -0.01367585 -0.07575658 0.3315647 0.024451653 0.06389247 -0.38745758 -0.78549206 -0.31006613 0.0045162025 0.08506793 0.13166863 -0.2765373 -0.30606902 0.23431525 0.30175745 -0.30072594 0.86921215 0.21731202 -0.03526012 0.112329446 0.14251238 0.3481969 0.27976626 0.33567816 -0.026231147 -0.9313207 0.02633877 0.17686152 0.049457334 0.21474645 0.48818544 0.4303905 0.09863834 -0.5810062 -0.120585866 -0.0741336 -0.45366293 0.2679479 -0.12131572 -0.6120405 0.022075972 -0.028418202 0.057288166 0.43457732 -0.6640693 0.026669092 -0.110256515 -0.16575171 0.6554869 0.210301 0.1363573 -0.06079698 0.42984778 0.09967639 0.51087743 0.16825847 0.2889289 -0.3262729 -0.0010701171 -0.28772455 -0.10747685 -0.40172207 0.298025 0.2570452 -0.06590237 -0.23917536 0.18161833 -0.0089863865 0.23525983 0.058740873 0.31451875 0.18532994 -0.03533405 0.09222711 -0.33389622 -0.015461905 0.3197068 0.16389342 -0.22156549 -0.25733382 0.07328504 -0.31236598 -0.041899174 0.2836798 0.08075774 0.4562068 0.2232063 0.24497919 -0.3799519 -0.06250743 0.19432834 0.14082831 0.14005505 -0.030888425 -0.06503813 -0.0080329245 -0.036812708 0.18578126 0.3032999 0.13821831 -0.033976737 -0.39824578 0.02095574 0.22086947 0.2363751 0.21239646
178 0.15026356 0.06102267 -0.39495116 -0.099627115 -0.2275012 -0.19712722 0.0728531 -0.46968654 0.5668145 0.30577034 -0.4434033 -0.232232 0.21265666 -0.21315601 0.19310151 0.07055367 -0.5164329 0.058625054 -0.15318465 0.04545116 0.24870285 0.5238563 -0.37265387 -0.3513774 -0.108949825 0.23242652 -0.014159634 0.090966165 0.5072083 0.46376497 0.0718969 0.30217025 0.12483772 -0.068857946 -0.25042778 0.2950765 0.18504903 -0.091672234 0.37719873 0.1852513 -0.089678995 0.07822913 0.50238144 0.44147682 -0.10450909 0.19623142 0.28758478 -0.4112984 0.28465524 0.3998317 -0.1623683 0.2587035 0.5085167 -0.12180118 -0.5910185 0.109937474 -0.15359059 0.05620532 -0.40989178 0.36944568 0.084588625 -0.17533873 -0.048941076 -0.07397605 0.27332824 0.06443245 -0.3142999 -0.112482905 -0.011912513 0.4874695 -0.523288 0.24492839 0.22943321 -0.19981149 0.21944818 0.1157581 0.22466823 -0.06582462 -0.21007814 0.32627824 -0.58315045 0.19757374 -0.0026184274 0.029222758 -0.17619577 -0.17986308 0.11043091 0.41715723 0.41664988 -0.50061023 0.5435457 0.28149447 0.48668697 -0.09900248 0.28314903 0.28944913 0.5241169 -0.30906433 0.27627122 -0.11065944 0.09339054 -0.43263036 0.214984 0.13428755 0.008340355 0.009286811 0.16765164 -0.27549082 0.296495 0.1586303 0.08037385 0.0020593547 -0.33746713 0.1399672 -0.35343692 -0.07699551 -0.35327095 0.0023452928 0.05895356 -0.061092872 0.29324082 0.14668687 -0.15075693 -0.25341135 0.14021967 -0.37752938 0.045080185 0.08607832
136 0.15604328 -0.09330567 0.34245053 0.24261676 -0.23931102 -0.5760915 0.26656258 -0.22958899 -0.25074306 -0.14969021 -0.20835274 0.019907476 0.3731916 -0.044918925 0.27047312 -0.30838716 0.38982219 0.18312304 -0.2581883 -0.20861205 0.21861425 -0.24194011 0.0059650964 -0.09725926 0.2884319 -0.039683636 0.16260996 -0.3537003 -0.7326611 -0.24103557 -0.027078027 0.080341116 0.06350205 -0.33520162 -0.33667696 0.24368776 0.29314232 -0.21473695 0.85748047 0.2152881 -0.0964643 0.102866225 0.099613614 0.38266724 0.35150713 0.31754258 0.030262133 -0.8282828 0.08422098 0.23699085 0.1580701 0.29867697 0.47019798 0.4027198 0.14043134 -0.62249935 -0.15894575 -0.07279251 -0.42728257 0.20139721 -0.14880852 -0.6697627 0.012024532 -0.016984625 0.017510192 0.4001957 -0.6875358 -0.011231991 -0.08788867 -0.21456748 0.67972237 0.28013727 0.16472271 -0.0719147 0.43610677 0.0002503621 0.49552312 0.1815626 0.25371304 -0.34793407 0.04834744 -0.27800643 -0.09722815 -0.39245126 0.37909415 0.15874633 -0.03281616 -0.26446235 0.19570737 -0.049679816 0.31920037 -0.021954834 0.359761 0.20236328 -0.075865164 0.0537593 -0.3498914 -0.009542058 0.33891112 0.24626994 -0.3415694 -0.23280731 0.09872929 -0.3534747 0.049931753 0.27893972 0.06369778 0.47866753 0.22815947 0.19622016 -0.46615273 0.033384625 0.16229124 0.17384769 0.12381768 -0.068595655 -0.12022516 0.037153892 -0.07713666 0.18865159 0.3158632 0.15703683 0.035446115 -0.39745656 -0.03829601 0.18473254 0.20541275 0.18926863
186 0.1228377 -0.049361166 0.341631 0.1860281 -0.20959444 -0.4564491 0.17801423 -0.25333092 -0.3313286 -0.13939065 -0.2818787 0.22990124 0.3829629 0.008123931 0.1874543 -0.34172958 0.33136895 0.25321573 -0.22684644 -0.3678002 0.09220768 -0.14589679 -0.055917006 -0.14023916 0.24591559 0.0045034457 0.16968207 -0.32980046 -0.7845652 -0.1230815 -0.02972815 0.111472405 0.001970979 -0.33302516 -0.34137547 0.27484113 0.32886788 -0.27087563 0.82212704 0.16828585 -0.053216547 0.07827417 0.14276205 0.32878783 0.27651152 0.44271818 0.0044334773 -0.8894009 0.060958903 0.3912038 0.044940613 0.2830318 0.54718304 0.39504528 0.16326381 -0.57825357 -0.13560632 -0.060742006 -0.52128243 0.25885448 -0.19077578 -0.55880874 -0.015185126 0.014919305 -0.00046680577 0.49954638 -0.7623058 0.07926766 -0.12551418 -0.1147249 0.6359551 0.28180856 0.21118519 0.053158667 0.39812574 0.057971418 0.53978354 0.17288727 0.26028174 -0.2549694 -0.010974564 -0.28570664 0.0070416923 -0.4722082 0.24455248 0.28813508 -0.09218783 -0.23927958 0.26830626 -0.1597804 0.31183723 0.025704598 0.37126026 0.20150198 -0.015821347 0.02058884 -0.29930466 0.090367444 0.25137284 0.16698939 -0.25235954 -0.17036308 0.116785154 -0.33462918 0.038441334 0.26515928 0.07493017 0.50854933 0.12650582 0.21822408 -0.37240788 0.010767844 0.22195335 0.1461383 0.23132037 0.026022887 -0.08639844 -0.045560542 0.022649713 0.16713814 0.2600392 0.08458897 0.01375985 -0.49291438 -0.052908067 0.27628168 0.15385228 0.16748968
90 0.5285573 -0.29083198 0.2274375 -0.51010036 0.2679052 -0.4200004 0.031162767 0.33884075 0.13132595 -0.12063019 -0.33059677 -0.8089625 -0.074735954 -0.25984558 0.088257566 -0.047844972 0.021304106 0.037848372 -0.036260106 0.17326137 0.24473685 -0.18006483 0.30882812 0.57330525 -0.2963146 -0.08806859 -0.45964366 -0.09712549 0.3460254 -0.31871063 -0.069836386 0.18201958 -0.37146044 0.0020890695 -0.25225565 -0.0035840026 0.37935114 -0.36047593 0.520758 -0.28033176 -0.45249563 0.13796589 0.044089258 -0.037875853 -0.30393687 -0.50176156 -0.14934786 0.080242954 -0.16761506 0.11377953 -0.38485104 0.052492533 0.33420095 0.012398668 -0.31702682 -0.12171062 0.5804806 0.018473728 -0.31611007 0.5308953 -0.26991197 -0.5125212 -0.048027687 0.4523478 0.3062247 0.24546531 -0.40776598 0.32720482 -0.074842416 0.3694282 0.09156357 0.21454537 0.18030941 0.07616713 0.46510816 0.35252294 0.2505595 0.15117872 -0.20729142 -0.0645939 -0.18886973 0.4416246 0.056019764 -0.2894882 -0.098875724 -0.022354167 -0.21268316 -0.08774919 0.33167353 -0.4116774 0.3306639 0.28587842 0.6434698 -0.014779454 0.13062994 -0.27794486 -0.36995873 0.21456182 -0.16915482 0.008559136 0.44492915 -0.32545114 -0.3467354 0.21278901 -0.14925465 0.041100446 -0.025756694 0.41305235 -0.039610293 0.46197844 0.05646693 -0.3862173 0.06588522 -0.173416 -0.34622523 -0.17555131 -0.44247568 -0.082770415 0.41880333 0.028223546 0.1255198 -0.37092793 -0.2421245 0.45359755 -0.4671896 -0.5808412 -0.5897913 0.021950789
49 0.31082204 -0.10767921 0.3455582 0.09042454 -0.25923553 -0.6796558 0.2318839 -0.16500539 -0.22163133 -0.022405308 -0.29055008 0.15233356 0.34750384 0.031486105 0.26686275 -0.19258946 0.37014538 0.16926402 -0.2208247 -0.23387933 0.31484705 -0.33402756 0.12084552 -0.16719478 0.2999882 0.20061007 0.21047398 -0.5191019 -0.7147171 -0.15580277 -0.07919465 0.021367777 0.10616313 -0.2687927 -0.24231462 0.22185822 0.23799738 -0.3443963 0.9458623 0.23364192 0.02876638 0.101937585 0.10722057 0.37295362 0.32992262 0.44281238 -0.05953021 -0.9177552 0.11570983 0.27303717 0.0693824 0.29097086 0.56540203 0.4205814 0.10591283 -0.6136704 -0.145717 -0.084263615 -0.40530223 0.20993768 -0.112737626 -0.5801649 -0.0540218 -0.019169752 0.0849424 0.503579 -0.63754547 0.04664804 -0.012400282 -0.15849298 0.59414816 0.20581536 0.17125005 0.01583916 0.36190322 0.04208926 0.50834775 0.12623584 0.32790533 -0.22720118 0.08801981 -0.20630276 -0.07055859 -0.4076244 0.224075 0.2738034 -0.15051094 -0.38478005 0.18781017 -0.12595281 0.28777277 0.075138 0.32779494 0.25437975 0.054302208 0.060640566 -0.27115735 -0.09225054 0.3160165 0.19868372 -0.23884739 -0.20080227 0.08645049 -0.32856196 -0.018114451 0.21816863 0.106481984 0.53364176 0.17955524 0.14296211 -0.32018197 0.08486939 0.13016155 0.12675408 0.17711507 -0.01355333 -0.044293758 0.052859586 0.009969028 0.18884616 0.36757407 0.13590412 0.09064172 -0.35756594 -0.05152678 0.119010136 0.122763015 0.13857687
16 0.20811802 -0.5592284 -0.16065599 -0.54305124 0.12337079 -0.23643745 0.029608935 -0.1512663 0.0074378303 0.12761377 -0.7504921 0.03565 0.30048752 0.36331928 0.18832786 -0.5683618 0.26597938 0.27571934 0.10619062 -0.1099852 -0.2963157 -0.17675269 0.2646856 -0.06710541 0.17418112 0.029874213 -0.31833786 -0.10235575 -0.2786163 -0.14902943 0.17242594 0.09739971 -0.4048063 -0.47397655 0.06868855 0.3736337 -0.038101368 -0.013221547 -0.24246123 -0.06567493 -0.028323643 0.53627104 -0.31903896 0.04533212 0.36504525 0.12624687 -0.27598038 0.015697917 -0.05556704 0.17253688 0.05503442 0.358868 0.34442666 -0.21006835 -0.2929871 -0.33975917 0.027747244 -0.16214608 -0.22480218 0.4779002 -0.14067867 -0.32040218 -0.13392004 -0.0019439793 0.021904975 -0.039889246 -0.58126986 0.16541384 -0.48656824 0.52979153 0.08932282 0.03365075 0.3017471 0.008571744 -0.16998725 0.018482013 -0.0027704157 0.7919631 -0.32243502 0.03814073 -0.2546304 0.057565767 -0.2498845 0.20204966 -0.17669299 0.24219666 0.34793556 -0.075984865 0.3900369 0.38842756 -0.36604798 0.3017928 -0.081322595 0.08049174 -0.22842482 0.38270575 0.18285416 -0.11741006 0.026176052 0.37076032 -0.21063447 -0.45120052 0.26431683 0.22730899 -0.0950572 0.0829184 -0.0075473245 0.26013055 0.322387 0.30527133 -0.103229776 -0.015284138 0.20675838 -0.29987928 -0.42260617 0.1785669 -0.9184601 0.45895165 -0.08690676 0.031193435 0.15448184 0.27527538 -0.09875846 -0.043470513 -0.12028865 0.025937352 -0.16975813 0.26319954
82 0.21675153 -0.1060484 0.39649493 0.11810796 -0.28533828 -0.62288034 0.23992932 -0.26071188 -0.2473485 -0.041380145 -0.26024064 0.1292496 0.36609796 0.10587986 0.185305 -0.22131713 0.36465114 0.26321274 -0.1493244 -0.23602039 0.15426989 -0.23653309 0.086719416 -0.13784072 0.26833552 0.11283242 0.14634058 -0.5099739 -0.76833516 -0.1938733 -0.03569664 0.0749204 0.15414199 -0.27062696 -0.33636987 0.23948522 0.2508243 -0.31468886 0.83644176 0.11473815 -0.16286674 0.09760191 0.132026 0.33783326 0.23535727 0.4143941 0.055177655 -0.87973785 -0.036642175 0.22272018 0.11511933 0.25504464 0.54769397 0.3896065 0.14670196 -0.6240976 -0.0879856 -0.041910604 -0.4378691 0.22279237 -0.18714014 -0.65385336 -0.048657183 -0.014695536 0.02936479 0.5031165 -0.66922903 0.04676568 -0.106657386 -0.24725194 0.6063437 0.20246872 0.17778748 -0.009280618 0.3843767 0.046227265 0.48514542 0.100936286 0.33086345 -0.26672164 0.011426401 -0.26143697 -0.078633174 -0.4707921 0.30107006 0.25196758 -0.05773131 -0.26398465 0.18944387 -0.1164971 0.2707109 0.10298249 0.38195893 0.21415424 -0.00025801698 0.121973656 -0.31843913 -0.050148237 0.226694 0.19250616 -0.27198106 -0.23197392 0.06895737 -0.33668843 0.008617028 0.197992 0.10992216 0.4784123 0.20523614 0.18362819 -0.40453026 0.038241502 0.09314445 0.147412 0.1130263 -0.03725855 -0.022596357 -0.011762596 -0.03351597 0.18285348 0.3815773 0.18676235 0.032639027 -0.39689228 -0.05404554 0.15269496 0.08911887 0.18779086
116 0.19204709 -0.015396647 0.33016852 0.1859285 -0.23310442 -0.6052652 0.29158938 -0.26148346 -0.17638554 -0.13541143 -0.20066392 0.12442841 0.39967725 -0.0791299 0.21668191 -0.15347435 0.3109541 0.26284495 -0.22430488 -0.22215487 0.2611051 -0.24678169 0.019184941 -0.25342685 0.24711326 0.08912681 0.07345251 -0.4725508 -0.7488997 -0.20104904 -0.01802809 0.060718097 0.07218313 -0.28298947 -0.3056043 0.23428437 0.23937042 -0.38945535 0.9436091 0.20852616 -0.034437872 0.109824955 0.1435417 0.30669492 0.27791688 0.42129377 -0.06890185 -0.8709274 0.077723846 0.3084622 0.08966519 0.24299593 0.60900223 0.42153528 0.15036099 -0.6388921 -0.14686123 -0.040168047 -0.46616113 0.2148157 -0.13493337 -0.5842453 0.024468074 0.04506343 -0.007850907 0.4455492 -0.6482288 -0.011335578 -0.10968867 -0.20089145 0.55737025 0.17839831 0.15432994 -0.00015173214 0.39776134 0.022039048 0.50924236 0.1105934 0.2528135 -0.26299006 -0.01301722 -0.2364389 -0.07754123 -0.36531028 0.29586557 0.2643752 -0.100187086 -0.26001617 0.1786622 -0.035967223 0.18326783 0.043114927 0.21485963 0.22103815 0.015961653 -0.010958681 -0.34168342 -0.033802357 0.34227726 0.22299035 -0.24210015 -0.26084158 0.15112616 -0.31290886 -0.028072923 0.25272074 -0.003575041 0.48049396 0.27180436 0.19584513 -0.44231847 0.018228685 0.18177208 0.1821032 0.1792478 0.059166312 -0.103521876 0.04155873 -0.042337738 0.1838041 0.34357485 0.1346524 0.010365412 -0.3142323 -0.13898309 0.20343544 0.19754073 0.1351091
5 0.268511 -0.32473105 -0.34528568 -0.2673897 -0.06290797 -0.38450515 0.036338132 0.3745707 0.5291533 0.32768044 -0.21530244 0.17750235 -0.05638799 0.3677454 0.46655312 0.011954885 0.071155414 0.2804277 0.2756495 0.11426119 -0.10689141 0.3548262 -0.23680545 0.77788126 0.15765792 0.14160843 -0.5645464 -0.06897334 -0.40558 -0.2105705 -0.088075034 -0.20115171 -0.34507847 0.4065377 0.13608588 -0.15032354 -0.11803379 -0.3686596 0.40192646 0.2004034 -0.011605532 0.007535067 0.05374757 0.173922 -0.47998148 0.12561405 -0.52065855 0.112903565 -0.39578062 -0.07025826 0.10988269 -0.06833005 0.32872236 0.24675477 -0.14912681 0.20440525 -0.09379082 -0.3802627 -0.26859543 0.18112937 -0.20047115 -0.20230076 0.01906249 0.13865693 0.04242564 0.1838281 -0.35355768 0.2883036 -0.400685 0.252866 0.1756107 0.21132576 0.08319391 -0.23897485 0.10471449 -0.13537091 0.56123257 0.08676767 -0.1931435 -0.13217592 0.07285779 -0.20094226 0.11361943 -0.14265676 -0.057974212 -0.1677969 0.6183005 -0.03658681 0.25106114 0.35335428 0.6021403 -0.13252696 -0.025916511 -0.05292304 -0.76284343 0.15987392 0.07150131 -0.092760116 -0.27874973 0.13043487 -0.55114895 -0.4143427 -0.23759098 -0.41585326 -0.24950378 -0.36790204 -0.036633357 0.5175232 0.052242797 0.3483646 -0.2559187 0.18908654 -0.30485767 0.054952733 -0.42415413 0.20866302 0.06488728 0.21357141 -0.12760997 0.094195396 -0.0012563802 0.315655 -0.051780917 -0.11985771 -0.24123207 0.32905412 -0.3790693 -0.2055839
107 0.28947562 -0.2333032 -0.46160033 -0.23193276 -0.06733068 -0.2951359 -0.048287373 0.27384204 0.5188025 0.5071775 -0.24039052 0.2863116 0.052381992 0.44172812 0.34339717 -0.16849077 0.19356945 0.19393928 0.2837183 0.068806194 -0.15500751 0.3357854 -0.32462102 0.83961815 0.14186116 0.22098058 -0.4363558 0.047393512 -0.39361444 -0.21560231 -0.02354867 -0.29082495 -0.41189754 0.33217466 0.24219915 -0.08072828 -0.057265118 -0.26080287 0.2782831 0.13523562 0.014938155 0.11181849 0.057607364 0.22496657 -0.4151356 0.04757578 -0.37753123 0.04487479 -0.33331263 -0.16327244 -0.03826624 -0.0353924 0.3140459 0.27087086 -0.1723213 0.20187618 -0.13501212 -0.3645865 -0.22792964 0.17141387 -0.20879352 -0.3047157 0.0530081 0.10461449 0.17496046 0.24761474 -0.32891086 0.42926773 -0.29629058 0.37499696 0.34210393 0.22622752 0.16545169 -0.295999 0.059075117 -0.121286616 0.642689 0.1823119 -0.2276585 -0.098144524 0.15229076 -0.27554545 0.1566487 -0.19390197 -0.051590987 -0.18917064 0.5287184 -0.012359778 0.25209194 0.3093031 0.6913405 -0.08141604 0.07730518 -0.06228744 -0.7343223 0.1649834 0.017582478 -0.049042642 -0.35743183 0.09062963 -0.5058373 -0.36422598 -0.19078462 -0.42133477 -0.20789649 -0.34662098 -0.011923489 0.46493003 0.005889376 0.26130095 -0.13953689 0.09246856 -0.29979703 0.027813043 -0.61026406 0.09273271 0.054627087 0.18625852 -0.08667415 0.19095853 -0.02534239 0.31099752 -0.14296444 -0.20727181 -0.09558634 0.35300627 -0.4484451 -0.14772166
73 0.29315796 0.05071432 0.3120933 0.2113467 -0.11988653 -0.5994883 0.27645722 -0.24615902 -0.3230167 -0.0658452 -0.3268782 0.11627235 0.42540827 -0.053171307 0.09157187 -0.41960728 0.389898 0.104154825 -0.21543217 -0.34226638 0.12244634 -0.27801135 0.0025879997 -0.14110345 0.2959924 0.109460145 0.21660961 -0.37183103 -0.7789304 -0.1353423 -0.0693554 0.055310603 -0.039686445 -0.31361264 -0.26389384 0.2871839 0.2793079 -0.24920003 0.81463706 0.20891738 0.0052826894 0.13120049 0.11387968 0.36159003 0.2860309 0.4052263 0.011386863 -0.9295531 0.07771797 0.24700312 0.0027252547 0.33972657 0.59289813 0.44145587 0.106940314 -0.60979754 -0.22215785 0.017495986 -0.36337608 0.1988808 -0.13662466 -0.6320288 -0.04645263 -0.018109635 0.099815585 0.53747046 -0.73231554 0.11124433 -0.112992056 -0.085234776 0.68163294 0.26781344 0.20833297 0.026745565 0.36640763 0.025346369 0.557718 0.18097012 0.2559669 -0.30154333 0.04475124 -0.3074965 -0.027007004 -0.44496462 0.29444742 0.21519318 -0.14214018 -0.23593007 0.1786892 -0.043271605 0.27109545 0.07113933 0.303623 0.13736849 9.33102e-05 -0.038637433 -0.32698184 -0.03297844 0.26203516 0.11143779 -0.22690932 -0.16553499 0.106245995 -0.34711626 -0.047873814 0.234253 0.09328736 0.39267623 0.10473075 0.068321474 -0.29090574 -0.069754586 0.10875658 0.1181491 0.10543393 -0.09011463 -0.040145032 -0.056587625 0.0018627633 0.25965744 0.40145752 0.15954445 -0.0064099394 -0.46189642 0.059733626 0.16060661 0.16413786 0.13655187
52 0.32377154 0.43063325 -0.29542923 -0.35000008 -0.41955137 -0.49952805 0.79668236 0.25428137 -0.1261992 0.35891077 -0.71906435 -0.2295238 0.45382443 0.190176 -0.6459346 -0.23333631 -0.10212733 0.09521096 0.13749829 -0.03956896 -0.050393388 0.76498365 -0.09139665 -0.105040066 -0.19226187 -0.26917407 -0.5720038 0.50827223 -0.4057738 0.86054987 -0.022314997 0.02764504 0.3129916 0.33566764 -0.42692152 0.013749583 -0.2794331 -0.33267835 0.2433568 0.43614838 0.2343004 0.54226995 -0.07193808 0.031272028 -0.12252757 -0.3894941 -0.1597369 -0.2392527 0.6799565 0.05981266 -0.66909367 0.28902492 0.20857838 -0.060414907 -0.5742525 -0.15438221 -0.19329125 -0.064133324 -0.75415975 0.427266 0.40116578 -0.39272276 -0.49144745 0.12616765 0.50367135 -0.13796167 -0.00984537 0.70711875 -0.26372594 -0.36243632 -0.60288733 0.19557826 0.20265329 -0.23927976 0.018380303 0.44711998 0.057995822 -0.04625125 0.0017226929 -0.2405867 -0.2145516 0.26827893 -0.12600432 -0.27399057 0.2572227 -0.42401558 0.32995304 0.20373382 0.92320746 -0.014910418 -0.13492471 -0.0873925 -0.07962755 -0.13319199 -0.2878094 -0.12069157 0.13418944 -0.6768135 0.2901036 0.11667927 -0.057955425 -0.12158267 0.078178264 0.44437668 0.23748474 0.07993362 0.34011552 0.10941329 0.14326836 0.472181 0.20642346 -0.20201263 -0.1825416 0.16846536 0.02278732 -0.29231575 -0.46794838 0.2504831 -0.020385403 -0.17246293 0.2436925 0.13858089 0.031247623 -0.08702641 0.2747471 -0.06040721 0.290431 -0.06613884
448 0.43082437 0.22064884 -0.1464108 -0.32179245 -0.53838664 -0.4155942 0.6833633 0.161588 -0.19284873 0.29601395 -0.49243116 -0.2703352 0.37474886 0.21003583 -0.6068902 -0.2486367 -0.11047451 0.28471705 0.02055593 0.057495855 0.11653476 0.9251174 -0.16978656 0.074742064 -0.18111126 -0.1737169 -0.5924824 0.3945952 -0.3574552 0.7087061 0.09150479 0.06621378 0.24965367 0.20514601 -0.45416918 -0.0179272 -0.2750485 -0.23166902 0.16348621 0.41222078 0.29859856 0.35713825 -0.07086755 -0.0050764554 0.013314882 -0.2538643 -0.017435104 -0.1718447 0.6726025 0.23118222 -0.7058747 0.32644996 0.19153692 -0.12540945 -0.66090655 -0.22320113 -0.018196966 -0.11572481 -0.8335336 0.44812906 0.46015763 -0.292802 -0.54229414 0.12618595 0.48744628 -0.17117119 -0.17919046 0.7037749 -0.22964658 -0.41173548 -0.5832463 0.20485547 0.2142737 -0.36933005 0.2307681 0.5396339 0.03850963 0.05934082 -0.12235566 -0.22946367 -0.29214996 0.2926435 -0.10900626 -0.14847769 0.14892595 -0.39560014 0.27223295 0.14785382 0.9397311 -0.029751277 -0.1659479 -0.066958584 -0.06834773 -0.066352524 -0.25267497 -0.072890006 0.19064373 -0.524997 0.2973963 0.07832773 -0.21419547 -0.14141607 -0.019070307 0.5218134 0.32540134 -0.0059972135 0.19486666 0.060288742 0.260569 0.44273645 0.25091657 -0.12058638 -0.05639497 0.1218558 0.054225218 -0.17480026 -0.2825027 0.13873214 -0.014600096 -0.14424074 0.021906426 0.21411642 0.09949222 -0.024517879 0.28725836 0.013428956 0.34447247 -0.042354643
366 0.11403077 0.019611947 -0.3683999 -0.053949233 -0.011476364 -0.34607244 0.1602878 0.4405311 0.48910162 -0.091623664 -0.3295057 -0.544553 0.21264473 0.29485112 -0.7255403 -0.5219974 -0.31828213 0.80826193 -0.061699808 0.85795164 0.73677593 -0.027570019 -0.12411522 0.32357505 -0.18972927 0.087634526 -0.042170037 -0.22976412 0.093138 -0.12455452 0.18741705 -0.12266247 0.04392174 0.006990968 0.41442397 0.5895123 -0.24768928 0.06778275 -0.11585997 -0.16821577 -0.7691911 0.68881637 0.0723433 -0.2837968 -0.45728055 0.2099581 -0.22870366 -0.6668572 -0.020296969 -0.23070827 -0.37520674 0.07069061 0.6582614 0.75319684 0.119588494 0.12616444 -0.056315556 -0.29604766 -0.6345609 -0.047035318 -0.28731635 -0.00024976156 -0.46995714 -0.10191947 0.15879649 -0.040719125 -0.5101581 0.12357965 -0.5846862 -0.10713052 0.47107863 0.6909138 0.13284211 -0.26819155 0.38241756 0.08038966 0.27666172 -0.3788009 0.22721769 -0.1144859 0.5344644 -0.21660781 0.20334215 -0.14116047 -0.14327645 -0.27698526 0.19513765 0.062127735 0.08291625 -0.08791541 -0.115143456 -0.032534715 0.17930295 0.08708456 -0.1738601 0.036092363 0.21034384 -0.29677066 -0.2805695 -0.33628693 -0.55606425 -0.030867202 0.027896559 0.19720142 0.04265833 -0.15039596 0.14153601 -0.064393714 0.073805146 0.45802808 -0.04795413 -0.10073506 -0.005723588 0.14411291 -0.11857376 -0.13409339 -0.63918036 0.6421141 0.29300973 -0.06714275 -0.19706711 -0.18190546 -0.33316708 0.15792686 0.12799947 0.23209019 -0.26874837 -0.872912
194 0.23969749 -0.18019892 -0.48195153 -0.23140737 -0.0009357406 -0.2777154 -0.037721448 0.39777443 0.48029265 0.3566235 -0.25562266 0.06596483 -0.06733037 0.355508 0.4173646 -0.07842097 0.11166798 0.18845375 0.2241112 0.025315862 -0.23768489 0.40670064 -0.248118 0.66909546 0.1665293 0.08445628 -0.63033295 0.07909928 -0.44822133 -0.20224343 0.006991572 -0.14681374 -0.3588454 0.3765847 0.16784638 -0.25657937 -0.02206139 -0.28509444 0.26341122 0.22065137 -0.035206497 0.16266462 0.088233724 0.16970815 -0.43256176 0.050807994 -0.5733106 0.19746032 -0.369319 -0.18190143 0.012949108 -0.0033240602 0.38254824 0.29375482 -0.21930239 0.15137978 -0.16134967 -0.32855737 -0.24429609 0.22728097 -0.27608004 -0.38598272 0.015910337 0.17773171 0.05317228 0.28128666 -0.38712206 0.28338078 -0.37087187 0.31551093 0.26593113 0.18065438 0.11091731 -0.3513693 0.05341975 -0.21577515 0.6376543 0.10751103 -0.25658092 -0.101311356 0.13446398 -0.30383718 0.11699636 -0.19659536 -0.05509187 -0.19568674 0.5324203 -0.025757069 0.13505699 0.3609512 0.6815986 -0.20782939 -0.008463958 -0.09203603 -0.7702594 0.117254525 -0.009265888 -0.046242304 -0.29819483 0.13012752 -0.6219458 -0.46525997 -0.23466997 -0.38245234 -0.25355843 -0.26801014 -0.07605656 0.44107386 0.009951681 0.37071094 -0.2762473 0.080616996 -0.35314298 0.00057724206 -0.45165777 0.12744056 0.12907994 0.17872931 -0.11817641 0.10661045 0.05808105 0.32342824 -0.11972982 -0.26894724 -0.18715937 0.317137 -0.28564507 -0.16609117
70 0.48519573 -0.27741796 0.10731697 -0.44657445 0.30264384 -0.37388667 -0.02223479 0.30324513 0.21439081 -0.1090764 -0.24258849 -0.71777254 -0.15256612 -0.38421375 0.17888081 -0.071609095 0.01603442 -0.105172716 -0.02010143 0.19589193 0.30613026 -0.20413616 0.17232862 0.4470149 -0.2812779 -0.046637204 -0.3829926 -0.097131155 0.4243821 -0.39452192 0.014935248 0.15330568 -0.49534714 0.008841619 -0.2450939 -7.8998804e-05 0.34698474 -0.49062183 0.52572155 -0.22656137 -0.48394772 0.15788338 0.011295185 -0.07658945 -0.20763491 -0.48739567 -0.3258557 0.03124398 -0.1583209 0.17427142 -0.37128687 0.124001525 0.2780658 -0.007349814 -0.27349362 -0.10593543 0.5330523 0.15038198 -0.35163385 0.550858 -0.36190355 -0.5854049 -0.030398397 0.47682795 0.29182923 0.21184908 -0.4648434 0.29887986 -0.124838345 0.35010666 0.11566978 0.21976864 0.19561829 0.16463162 0.47510046 0.38808513 0.24429119 0.1327565 -0.18837206 -0.10757627 -0.20997934 0.53570586 0.064363495 -0.28537968 -0.08633433 -0.078040786 -0.19720045 0.031228082 0.27893773 -0.46264815 0.3507303 0.23989947 0.6124716 -0.05933686 0.117450446 -0.36453462 -0.41764963 0.16081454 -0.16237119 -0.020971246 0.40827683 -0.29058483 -0.2825029 0.16828313 -0.08456121 0.1218638 -0.032870363 0.37621304 -0.09576349 0.50798434 -0.021228503 -0.43101788 0.032878026 -0.15675236 -0.338453 -0.08477094 -0.48836115 -0.09021088 0.44774213 0.006349228 0.16168344 -0.37952498 -0.27146983 0.33217335 -0.47013378 -0.50536025 -0.5732564 0.0054620504
235 0.033923335 -0.0694513 0.62305707 0.2818661 0.2915481 -0.09399308 0.22879338 -0.05265449 0.024841597 0.34972447 -0.20935722 0.23050317 0.49796006 0.35292482 -0.023653999 0.056421425 -0.64628446 0.4006014 0.2908914 -0.1023488 0.68170923 0.1554491 0.33430982 0.73836035 -0.23178875 0.0052539827 0.44231236 -0.11624165 0.37666765 -0.1379755 -0.33506775 0.31069633 -0.045282267 -0.15212472 -0.07056081 -0.15054317 -0.030309912 -0.05503563 0.49445274 -0.10629669 0.2393306 0.9607229 0.23706996 -0.21732469 0.0778193 0.0039754645 0.28668994 0.0955748 -0.10554644 -0.21225591 0.09950824 0.260524 0.1662597 0.17916897 -0.21387723 -0.10978376 0.29285267 -0.5075372 -0.47835672 0.3182167 -0.34974632 -0.03704753 -0.16128325 0.031418134 -0.082990505 -0.101271324 -0.6418399 0.465292 0.17379004 0.048458744 0.04848439 -0.09561371 -0.14543393 0.26141387 0.029447408 0.2652581 0.3941189 0.2479046 -0.10850105 -0.14183025 0.13992696 -0.51531327 0.26710302 -0.3271879 -0.042732712 -0.0016459632 0.1108167 -0.20025353 0.17120884 0.22772886 0.54591477 -0.07739758 -0.09824002 0.0362372 -0.16352506 -0.073384315 0.49768764 -0.32252932 -0.15468596 -0.10697138 -0.34187979 -0.8697383 -0.059632465 0.23978435 -0.4286135 0.3108089 0.18875308 0.2985472 0.2994876 0.5575298 -0.38022304 -0.037035137 0.23470432 -0.1669477 0.16176507 -0.479371 0.14171788 0.13225372 0.26797438 0.20321655 -0.024167089 0.34141773 -0.14039242 -0.14476119 0.43218815 -0.21014765 -0.42652333 -0.43120784
193 -0.07624132 -0.11973189 0.6593645 0.14247026 0.3465843 -0.05285642 0.31101164 0.043154284 -0.14388128 0.35168082 -0.18474111 0.13943492 0.38137326 0.28543636 -0.029472664 0.095226154 -0.6097618 0.25915164 0.35667264 -0.045649778 0.5313714 0.08921465 0.38361937 0.587856 -0.25350872 -0.015250727 0.39676458 -0.096122816 0.40025494 -0.08161815 -0.3320838 0.27466473 -0.06760954 -0.06455667 -0.123351604 -0.1310594 -0.012050956 -0.009457465 0.51687247 -0.0607661 0.1603427 1.0017105 0.14044707 -0.2655867 0.012610787 0.0022175286 0.24692988 -0.0068071927 -0.063210666 -0.2402269 0.15488541 0.29239845 0.10338295 0.25937235 -0.27324647 -0.17726037 0.253847 -0.5795095 -0.48346427 0.30886585 -0.37878397 -0.049766555 -0.124140926 0.065769434 -0.054833904 -0.12911943 -0.6150133 0.33672985 0.16714332 0.056252062 -0.0387953 -0.12643757 -0.09195965 0.18722935 0.020636722 0.25582716 0.36008647 0.19046454 -0.05719347 -0.17768762 0.17707632 -0.41675752 0.3933317 -0.21641578 -0.16295043 0.055843145 0.081477515 -0.1868007 0.08220105 0.2031167 0.6052641 -0.026595045 -0.14425993 0.016140085 -0.20058002 -0.025933174 0.57122475 -0.41271812 -0.10475496 -0.15767439 -0.22925103 -0.89293975 -0.0764594 0.34038538 -0.5647843 0.3285404 0.2646505 0.29126015 0.32914543 0.53588986 -0.35935447 -0.036389414 0.19481452 -0.12083509 0.108775906 -0.59823984 0.065661244 0.16974199 0.30803838 0.19697998 0.04980428 0.39834848 -0.1310877 -0.25713676 0.4627069 -0.19815181 -0.41888428 -0.4802651
251 0.1981395 -0.33165312 -0.37115136 -0.28243977 -0.055357154 -0.4115071 -0.024177553 0.28497025 0.5185058 0.49088982 -0.27506483 0.17976844 -0.016773116 0.3480617 0.3917365 -0.06091359 0.11707486 0.18070188 0.27504075 0.008435361 -0.055951823 0.36265165 -0.3044307 0.72574353 0.1882384 0.2777363 -0.54092675 0.043572437 -0.35303095 -0.19073325 0.020346593 -0.22406438 -0.42238423 0.38704637 0.26000604 -0.18056478 -0.00286345 -0.21365474 0.3355878 0.114550024 0.026769474 0.060330443 -0.00804693 0.22921106 -0.32840687 0.0915182 -0.437169 0.102411486 -0.36144656 -0.22081867 0.030133544 0.005922059 0.2366152 0.26996234 -0.14788082 0.16474728 -0.17558686 -0.43507323 -0.3346857 0.18696679 -0.3027701 -0.3052362 0.059902363 0.094208084 0.10956913 0.106724836 -0.34566084 0.35866287 -0.45490634 0.29897663 0.32336298 0.19657677 0.101607814 -0.12768291 0.0070655574 -0.20141147 0.50099754 0.16210516 -0.1269886 -0.08704402 0.14783773 -0.2632231 0.1485184 -0.2648809 -0.08868239 -0.19387627 0.59724945 -0.05501097 0.25435787 0.18299623 0.8532476 -0.17348664 0.07534272 -0.08869881 -0.7518257 0.14075238 -0.014532642 -0.0788088 -0.38303584 0.1500323 -0.57318544 -0.3488931 -0.24635431 -0.3568752 -0.10914392 -0.39488527 -0.010825089 0.43609974 -0.023632903 0.26897153 -0.183265 0.18613923 -0.2980543 0.10024458 -0.48505732 0.12700808 0.16492258 0.12983078 -0.06059029 0.1331562 -0.077907965 0.24122381 -0.0049243877 -0.09468928 -0.1444392 0.29168078 -0.47367582 -0.2526894
225 0.036295727 0.06990466 -0.2704136 -0.07647468 0.034691617 0.23998398 0.10147269 -0.25825998 0.47835174 0.060570702 -0.75951904 0.05277548 0.35037932 -0.22725244 0.68586105 -0.26856738 -0.055479173 0.51865155 -0.3585467 -0.4732813 0.53223646 0.2654152 -0.108338185 0.25327462 -0.44522703 -0.081071585 0.19422837 0.28449732 0.46563432 -0.6711724 0.13868704 0.36543322 -0.046857856 -0.554595 0.109062664 -0.27676988 0.3319564 -0.30525357 0.019149693 -0.36525726 0.0020660092 0.65682906 -0.17642675 -0.3653902 0.13538459 0.49710336 -0.13223344 -0.6233221 -0.507202 -0.08260758 0.2585431 -0.18935005 0.52247316 0.6876329 -0.10300192 -0.24172789 -0.41355896 -0.060060736 -0.3199719 -0.40693438 -0.2398741 -0.31826317 -0.6632196 -0.09058114 0.097351596 -0.17145316 -0.2847563 -0.29513565 -0.45418623 -0.9277727 -0.09200344 0.2743934 0.41717786 -0.18856104 0.76512563 -0.25607353 -0.15388925 -0.1437248 0.08472046 -0.24957943 -0.17847519 -0.07304523 0.017834118 -0.407872 -0.24674325 0.24971549 -0.07317846 -0.15513025 0.1483893 0.3727867 0.18859856 0.0026224381 0.18392609 -0.16899548 0.3319067 0.04382137 -0.0076473267 -0.7685165 -0.14992216 -0.09149471 -0.20920645 -0.7246705 -0.04531643 0.5406139 -0.35967728 0.14481801 0.36783683 0.19591784 -0.6084716 -0.23925011 0.23785558 -0.22552656 -0.024298845 -0.08073086 -0.1576573 -0.17201862 -0.015447928 0.5453191 0.4131609 0.06251519 0.1603189 -0.2533801 0.17963213 0.13387613 0.35927033 0.42016193 -0.27160245 -0.4479903
25 -0.12457902 -0.21394208 0.4199395 0.25380677 0.10278482 -0.70884776 -0.27566662 0.19064571 0.13503297 0.45444688 -0.3702445 -0.34540662 0.06421447 -0.26363584 0.5720841 0.3386773 0.50107527 0.35152406 -0.068309605 -0.30658358 -0.4211937 -0.017237263 0.38154265 0.11157639 -0.1028338 0.123605 -0.25225115 0.13154966 -0.22660483 -0.29447156 0.019840017 0.12503609 0.2744526 -0.25863042 0.13542609 -0.117180996 -0.40386683 -0.12321038 -0.3553777 0.24372517 -0.2603021 0.5415498 0.3883361 0.34688047 0.04102919 -0.263414 0.27490306 -0.47469997 0.35737312 0.5232342 -0.36103344 0.08748523 0.6650285 0.11654404 -0.035667263 0.16677383 -0.035274696 -0.15156305 -0.4397294 -0.04282396 -0.04243195 0.08828382 0.06531475 -0.2216015 -0.18759245 0.21036679 -0.33073315 0.117776506 -0.18471803 0.100398734 -0.19226049 0.6051508 0.2290252 0.36361927 -0.3194171 0.10885501 0.15568608 0.14984374 0.07015202 0.20084165 0.39049554 0.36686832 0.32736474 -0.2900443 -0.46057284 -0.21705766 0.34620842 -0.10692608 0.30550444 -0.04110407 0.28384766 0.2543115 -0.14214185 0.1833918 -0.10153092 0.19904324 -0.013305963 -0.31555772 0.1011472 -0.20119055 -0.197603 -0.16333184 0.007983606 0.34077817 0.45352632 -0.20657477 0.26281458 -0.08447843 -0.17460805 0.29827535 0.24782236 0.100332 0.101608135 -0.10612979 0.029568462 0.01429892 0.09380904 0.055499442 0.08763955 -0.2331441 0.4218748 0.26328865 0.10611291 -0.5419039 -0.50742024 0.18496047 -0.60150033 -0.029429505
12 0.1855614 -0.6014808 -0.08846078 -0.6011665 0.1869251 -0.25318146 -0.00470573 -0.12456302 0.029383292 0.14494129 -0.7523988 -0.028279146 0.1691444 0.28962186 0.31624833 -0.5377705 0.19484727 0.17994195 0.15949851 -0.19598569 -0.31633222 -0.07192148 0.2572624 -0.18629974 0.20685671 -0.039813183 -0.36197823 -0.16402726 -0.25383657 -0.13950452 0.19048846 -0.009696125 -0.445477 -0.53200585 0.051666085 0.30566072 -0.006318226 0.054529462 -0.23672213 -0.0724035 0.050321124 0.57044953 -0.29542094 0.0342292 0.4318053 0.09289393 -0.23394385 0.09750328 -0.031155543 0.1668398 0.0037914517 0.39217 0.29901242 -0.19784911 -0.2894447 -0.3473678 0.024410889 -0.14056695 -0.345284 0.43511528 -0.20480113 -0.40539944 -0.20943075 0.054415002 -0.018815098 -0.10993931 -0.62891346 0.15195009 -0.4962417 0.42288908 0.118052825 0.042219132 0.25541893 0.08407813 -0.16116993 0.04183455 -0.029136788 0.8043247 -0.2828144 -0.042501476 -0.23078492 -0.01388682 -0.22090878 0.11559278 -0.14621346 0.17298536 0.39357805 -0.13348457 0.36933595 0.39305267 -0.2908926 0.21353099 -0.11354164 0.08270631 -0.24933083 0.30318794 0.15912762 -0.057203304 0.047952645 0.40719116 -0.25285593 -0.39998773 0.20470744 0.2404735 -0.024480578 0.11277936 -0.06214942 0.18702377 0.27776212 0.28477198 -0.13389102 0.08168278 0.10155412 -0.256026 -0.36289206 0.24215461 -0.80767876 0.46629718 -0.13220413 -0.0152934985 0.14078212 0.2535927 -0.12274832 -0.068093576 -0.20314406 0.10320922 -0.16897948 0.27124932
281 0.11453645 0.027619837 -0.31585222 -0.05588957 -0.06415276 -0.4479005 0.012114756 0.42272565 0.30447745 0.012993511 -0.44154015 -0.53539497 0.30761626 0.31495377 -0.7351988 -0.5981268 -0.37321857 0.9469724 -0.006921608 0.70874447 0.61442703 0.06475359 -0.047849335 0.21720505 -0.2539806 0.0036183628 0.02427276 -0.1778086 0.09302045 -0.10439707 0.16419196 -0.045099888 -0.044327572 -0.0034956492 0.28092864 0.5380888 -0.28850648 0.010669608 -0.16696748 -0.12338358 -0.7296031 0.6636968 0.15297604 -0.3215422 -0.46649155 0.24803828 -0.2277621 -0.6000604 -0.14829014 -0.14322098 -0.43272126 0.060864035 0.6142818 0.70216894 0.08858809 0.0622609 -0.10173458 -0.23904803 -0.6270619 0.028194044 -0.3146737 0.037853353 -0.51306593 -0.08787998 0.1637103 0.013326567 -0.5912049 0.09730832 -0.62299794 -0.1515674 0.4940213 0.5954903 0.15135548 -0.11293485 0.35501534 0.0867455 0.17285858 -0.4165587 0.24168874 -0.1464145 0.52183056 -0.20579612 0.2095048 -0.29028362 -0.1714995 -0.26712218 0.17410304 0.064205855 -0.03269301 -0.07360664 -0.11403053 0.08251358 0.14467452 0.059141535 -0.11226616 0.03424213 0.28553468 -0.24982816 -0.36344236 -0.365482 -0.5613021 0.10876336 -0.032283198 0.17709279 0.08810987 -0.1539431 0.079479985 -0.033716865 -0.092526995 0.38908598 -0.061213415 -0.10641571 -0.06637028 0.0757367 -0.029012386 -0.044541962 -0.4925791 0.50314367 0.2885941 -0.15798718 -0.21076481 -0.30488136 -0.30937576 0.20321113 0.11192595 0.33402216 -0.33008173 -0.83633006
137 0.30278814 -0.34670034 -0.3193599 -0.3012529 -0.09557385 -0.36494878 -0.06277479 0.27151948 0.51603866 0.35831082 -0.28420135 0.12105954 -0.025391852 0.37101957 0.38365418 -0.15812548 0.042131953 0.24624194 0.25671458 -0.015675535 -0.08671124 0.37045664 -0.3516865 0.8288713 0.16434091 0.20997441 -0.5875184 -0.050768737 -0.3958682 -0.17788136 -0.03964602 -0.14026767 -0.35391405 0.39553434 0.25633654 -0.16799277 -0.08791029 -0.23647273 0.27356708 0.11058284 -0.08378406 -0.010168756 0.08169611 0.17448014 -0.41298863 0.10518421 -0.5248185 0.16912873 -0.34894037 -0.18596192 0.07324961 -0.11886898 0.2588523 0.27273884 -0.07825065 0.1492563 -0.14659388 -0.34822845 -0.18932971 0.20485105 -0.24170084 -0.22093469 0.055717267 0.13113734 0.072159655 0.1472456 -0.41892698 0.27482346 -0.3888305 0.34560397 0.3377112 0.24669695 0.08209493 -0.224258 0.04452182 -0.1382686 0.6182139 0.11315109 -0.16523585 -0.117740996 0.10244889 -0.21145286 0.14131467 -0.13907214 -0.073625125 -0.20107503 0.6388297 -0.0539981 0.24499534 0.27161273 0.68531203 -0.19191873 0.05926029 -0.039113794 -0.7789447 0.11752583 0.063006766 -0.017381445 -0.30373642 0.09602077 -0.5932347 -0.39368463 -0.20736814 -0.35417598 -0.24937011 -0.36119196 -0.01546976 0.5065623 0.069851734 0.350951 -0.21668357 0.15620977 -0.24585149 0.082102194 -0.42840302 0.12923662 0.015891267 0.17533813 -0.09425349 0.108355895 0.07152225 0.28672254 -0.06775217 -0.23696864 -0.23066851 0.34664944 -0.41007715 -0.2231585
68 0.08695314 0.4025592 -0.3998101 -0.0011966494 -0.18408298 0.17399405 0.15512164 0.10226825 -0.03361068 -0.35895312 0.0653713 -0.19788936 -0.24258532 -0.34182474 0.12346679 0.56489074 -0.15896088 0.27184722 -0.34105602 0.43095428 0.3079805 0.4467117 -0.0696905 0.12965629 -0.5369974 -0.600598 -0.0852008 0.48005635 0.32581297 -0.10212646 0.059583 0.0639158 0.33667123 0.042889576 -0.124274686 0.37549645 -0.34367234 0.086849004 0.29186276 -0.3472864 0.29732817 0.021104952 0.028249089 -0.087297305 -0.37652048 -0.25578424 0.28952014 -0.29889667 -0.30924726 0.5578281 -0.70492095 0.53457075 0.9557187 -0.4582502 -0.17440124 0.679043 0.21297032 0.06008605 0.12342049 -0.018061867 0.021606652 -0.23474734 -0.25003535 -0.57451195 0.52409077 0.4820584 -0.6395568 -0.13163288 -0.319776 0.020492006 0.43157628 0.8350899 0.1376688 0.40568817 0.32405394 0.2348477 0.23741604 0.11426446 0.49321434 -0.020201432 0.7697381 0.043511916 0.18602842 -0.5838711 0.18552373 -0.1171514 0.14809613 -0.579582 0.076666094 -0.2907041 0.27075815 0.46429434 -0.07147078 0.5053718 -0.05558784 0.63051957 -0.65090024 -0.5946415 0.05747052 0.06304895 -0.44565052 -0.63984305 0.25960776 0.17672814 -0.053237274 -0.43026426 0.19282418 0.26981622 0.019967938 0.20115873 -0.4488164 -0.23209089 -0.006620085 0.34156397 -0.24971594 -0.27992615 -0.06403364 0.5992766 -0.47286516 0.26558357 0.27744663 0.10000656 -0.25624213 0.15449984 -0.57552344 -0.123967685 -0.34315932 -0.36849463
262 0.4696437 0.31320837 -0.1745238 -0.38468918 -0.49477658 -0.49812675 0.6554776 0.19768094 -0.19482827 0.23467194 -0.62811315 -0.22076999 0.46132717 0.2805239 -0.6472254 -0.24719241 -0.19904897 0.3557347 0.058417708 -0.084341235 0.10148152 0.800159 -0.17458823 -0.022420028 -0.12583934 -0.17902394 -0.6707451 0.3933029 -0.46202904 0.81909454 -0.003101188 0.158652 0.3430246 0.23277818 -0.4011663 -0.019687515 -0.17743504 -0.24854094 0.14628342 0.4288161 0.23791601 0.36262062 0.045157257 -0.03101915 0.004720803 -0.2709811 -0.12220954 -0.19113511 0.68527436 0.12949397 -0.67156523 0.35086226 0.15728953 -0.13067737 -0.52996814 -0.2101168 -0.10687208 -0.030314188 -0.71359074 0.36657953 0.4852734 -0.25255084 -0.5226943 0.14307009 0.53320086 -0.15748332 -0.1610724 0.6446276 -0.2973424 -0.30285355 -0.59994596 0.23550393 0.19829597 -0.33451658 0.06738823 0.5299853 0.099703364 -0.028319662 -0.05644927 -0.22020277 -0.32770023 0.29518434 -0.12919413 -0.20442694 0.17023748 -0.43310335 0.28506425 0.12297981 0.9216938 -0.035966553 -0.16928056 -0.072409675 -0.055586763 -0.051565908 -0.20313488 -0.075552516 0.16587017 -0.5355232 0.24493432 0.10500421 -0.19340022 -0.0530756 0.016991533 0.43509412 0.2520084 -0.019027054 0.29545802 0.1862952 0.22174153 0.56738895 0.3184988 -0.13640326 -0.08349391 0.16312155 0.108948685 -0.15778804 -0.47480115 0.15806773 0.09113665 -0.21701677 0.15043113 0.16136894 0.119623326 -0.044315707 0.2167998 0.060059063 0.2803115 -0.069598936
219 -0.012181276 -0.15724185 -0.29103965 -0.1446918 -0.25713575 -0.43401298 -0.14673501 -0.31159285 0.12638558 0.21396536 -0.5866589 -0.46305865 -0.122422695 -0.43947163 -0.17247206 -0.015558026 -1.296742 0.16207515 -0.034393482 0.016122121 0.33314925 0.3529205 -0.24329212 -0.11089616 -0.12777634 0.24187914 0.21031985 0.056756 0.7561288 0.5872669 -0.075830825 0.28305447 0.1804748 0.03511333 -0.057925783 0.07929562 0.48702136 0.10685549 0.44905686 0.2918032 0.08515659 0.22537264 0.4789808 0.57185936 0.045884192 -0.04763009 0.13141154 -0.54426265 0.39611828 0.30030945 -0.47636828 0.35380557 0.6107947 -0.15381645 -0.5926674 0.1316766 -0.6684534 0.21440236 -0.67355204 0.20714144 0.055205986 -0.11264067 0.14552084 -0.08648377 0.37713122 0.12822379 -0.40332985 -0.37801626 -0.26654842 0.43288317 -0.5446768 0.28082663 0.21597661 0.21593292 0.24235344 0.033520114 0.15815912 0.2625955 0.08801463 0.3766351 -0.17278828 0.10189306 -0.056522924 -0.43946943 -0.121831775 0.16189271 -0.07625423 0.25012934 0.2876252 -0.26720622 0.76840115 0.22115456 0.4133229 -0.09146924 0.34130013 0.33635634 0.67733574 -0.42419624 0.36041167 -0.0035827516 0.1674278 -0.34545022 0.17929731 0.08547967 -0.18562888 0.16275322 -0.053076826 -0.34018186 0.2552242 0.3658825 -0.17696238 0.096904844 -0.3463734 0.18985718 -0.23911294 0.0775387 -0.48172295 -0.10721662 -0.02178257 -0.20043768 0.18201461 0.2013143 -0.5118611 -0.53622943 0.33991912 -0.20039576 0.26646727 0.42051125
195 0.043431856 -0.076162174 0.56638694 0.080504976 0.34382534 -0.08132441 0.25218573 0.04393341 -0.096545085 0.37172636 -0.13533561 0.27750757 0.3414859 0.31935045 -0.054298133 0.038333595 -0.69891495 0.4123259 0.284988 -0.04537075 0.554815 0.1755116 0.1339771 0.68395704 -0.20772605 0.00026806645 0.37819406 -0.15307966 0.31528074 -0.1228912 -0.46607786 0.27533302 -0.029480001 -0.015523224 -0.039038733 -0.13476063 0.059287123 -0.1258303 0.4487281 -0.0835551 0.07740642 1.0056511 0.22064371 -0.3172942 0.041777346 0.20077866 0.21928012 0.08901044 -0.0784434 -0.14874281 0.20035231 0.27478364 0.097189546 0.18852493 -0.21657217 -0.14833775 0.2149868 -0.44909522 -0.33267444 0.3146262 -0.3747328 -0.026299987 -0.03936607 0.118450664 -0.029313251 -0.039201014 -0.69623494 0.3784732 0.21189064 0.011039114 0.026888046 -0.11901579 -0.15668558 0.25660208 -0.07810246 0.24995005 0.40133896 0.214974 -0.0011159732 -0.08561409 0.14113149 -0.28937635 0.368578 -0.27114433 -0.005039299 0.088848256 0.019711748 -0.20745018 0.025844611 0.30974442 0.508857 -0.029755425 -0.13585088 0.022003874 -0.084229216 -0.048230253 0.5766731 -0.38789436 -0.09961401 -0.104257256 -0.2763212 -0.9277448 0.0006007874 0.32276788 -0.5865796 0.2874732 0.31585947 0.32058167 0.38380802 0.7214253 -0.2909875 -0.0778944 0.2869209 -0.067462236 0.13398038 -0.5978311 0.04105841 0.122477226 0.42940283 0.23745435 0.08577558 0.40022138 -0.17468224 -0.31737593 0.42680278 -0.2189834 -0.43553486 -0.35541227
314 0.20092191 0.007080524 -0.24024814 -0.17434342 -0.031021608 -0.4209575 0.07947451 0.3996917 0.35036784 0.04591242 -0.32006332 -0.51750094 0.2897716 0.24996798 -0.7499798 -0.5397515 -0.4649559 0.8490748 -0.012142338 0.75057954 0.64644474 -0.024980068 -0.14069813 0.29394335 -0.14720835 -0.0021976912 0.05777246 -0.21495649 0.090199836 -0.20643274 0.11217111 -0.2059437 -0.0023996287 0.1022739 0.42778423 0.53362894 -0.25492808 -0.016782269 -0.08297119 -0.1403986 -0.7644795 0.5883898 0.1346898 -0.22645251 -0.5441185 0.25366667 -0.35069472 -0.6875341 -0.06817786 -0.05362377 -0.39270407 0.03138343 0.6227295 0.80660003 0.099847876 0.1009484 -0.12182683 -0.31648165 -0.53398323 -0.0064749327 -0.29241312 0.11689879 -0.38719645 -0.03592235 0.13893762 -0.057356138 -0.6620662 0.03165844 -0.68675697 -0.13507304 0.4257895 0.679545 0.06543915 -0.14627223 0.3649904 0.15909654 0.23189436 -0.45821548 0.2667303 -0.15154606 0.43909574 -0.1850659 0.1682332 -0.21452862 -0.11530498 -0.2528285 0.19047971 0.06016782 -0.00023329402 -0.033951662 -0.18286866 0.030754806 0.2043516 0.044868138 -0.11504494 0.033136114 0.2798874 -0.19500941 -0.20780145 -0.35598388 -0.54359186 0.12843996 -0.049177762 0.2159537 0.103414856 -0.26962534 0.16857702 -0.018077606 0.14129347 0.54137295 0.022915468 -0.09576939 0.015858045 0.20091216 -0.0423616 -0.17086564 -0.61648893 0.4954233 0.31691664 -0.09735231 -0.15289174 -0.2658493 -0.3848574 0.21796624 0.11587988 0.39964938 -0.30386263 -0.97719306
403 0.11900501 0.06607171 -0.33515382 -0.03961086 0.09723233 -0.36941412 0.17993888 0.40597183 0.47146174 -0.049178723 -0.37144232 -0.6323393 0.2598355 0.16559169 -0.6828812 -0.7034136 -0.4355994 0.78337836 -0.12742504 0.8431172 0.77925193 -0.02257524 -0.21427332 0.36530876 -0.22523583 -0.043248985 0.039491903 -0.30720785 0.025474496 -0.1683713 0.056439117 -0.2465368 -0.03686765 0.026063643 0.43151468 0.52011967 -0.28914276 0.06153316 -0.17056768 -0.10856863 -0.64865005 0.6214294 0.109361194 -0.26772916 -0.4409226 0.21883008 -0.3381346 -0.63102144 -0.0056198253 -0.07422708 -0.34293494 0.090509795 0.6641245 0.74825865 0.18428503 0.051405936 -0.13776952 -0.18520875 -0.46935487 -0.060068615 -0.22755836 -0.043318532 -0.47913378 -0.056774344 0.10517303 -0.0937518 -0.5926533 0.1388879 -0.6064215 -0.16621777 0.47669536 0.7116426 0.046431806 -0.1477718 0.37918887 0.07303267 0.20036355 -0.39517018 0.16430232 -0.13989845 0.44937995 -0.21526057 0.12398663 -0.1852631 -0.07479706 -0.30091396 0.18139665 0.058172017 0.092427544 0.00872802 -0.07456035 -0.024858223 0.20947692 0.034711175 -0.1297192 -0.010768953 0.24467632 -0.233981 -0.24625953 -0.358698 -0.5104478 0.002943677 0.07247028 0.15502161 -0.0052606487 -0.19000512 0.2286528 -0.09354748 -0.011111042 0.48219472 0.08409352 -0.14952065 -0.05043569 0.17841081 -0.14119916 -0.16134448 -0.6538293 0.5305353 0.26373383 -0.069559634 -0.09454611 -0.29961377 -0.33287883 0.17648955 0.17702354 0.32287437 -0.23274621 -0.9096912
42 0.2592053 -0.2564049 -0.46541378 -0.13221818 -0.084384516 -0.43157482 -0.01393487 0.45921752 0.43383738 0.39201155 -0.33383408 0.1551967 -0.023812942 0.2887406 0.42907876 -0.13152136 -0.0014316011 0.18105155 0.17876618 0.020518748 -0.13693115 0.28138664 -0.15622306 0.77972317 0.16119544 0.13793166 -0.5792083 0.083147794 -0.45628136 -0.2368381 -0.08261036 -0.29826814 -0.3226859 0.30294794 0.20168278 -0.2821628 -0.010173887 -0.24449767 0.2599968 0.07734751 0.112963505 0.11044921 0.08008669 0.18540399 -0.37398666 -0.03989063 -0.58438224 0.19492278 -0.3518346 -0.2716985 -0.039060973 -0.040866207 0.36571607 0.30783242 -0.14073648 0.08305693 -0.17539898 -0.32592416 -0.22979414 0.14957145 -0.20813243 -0.3950007 0.059867233 0.13139756 0.08033041 0.16304517 -0.3582054 0.33342198 -0.39700451 0.31972873 0.30874497 0.2205643 0.11310536 -0.2567612 0.08575346 -0.12222177 0.66588676 0.19326971 -0.2401704 -0.16059744 0.0754958 -0.30087274 0.002938483 -0.22731261 0.034946647 -0.17710133 0.59890956 -0.022566942 0.18037616 0.36311185 0.6743882 -0.1699858 -0.002656856 -0.093978226 -0.8098337 0.12581156 -0.0034729997 0.0041260733 -0.21624005 0.12734286 -0.54638904 -0.43943414 -0.2587616 -0.3849614 -0.17499468 -0.2945795 -0.06694088 0.4759106 0.04796022 0.3246984 -0.1739438 0.100869626 -0.35104886 -0.015395582 -0.4348711 0.1124631 0.10143369 0.11467729 -0.13644636 0.06995226 0.0635428 0.23333396 -0.12714954 -0.19276626 -0.27102482 0.3298666 -0.31947175 -0.12462182
450 0.31867364 0.08211959 0.6993466 -0.38840023 -0.48392949 -0.29396603 -0.41793647 0.25001314 0.7930638 0.36612022 -0.44977924 -0.22488013 0.007764392 0.24555892 0.62938815 0.32681143 -0.5591171 -0.3367077 -0.33248964 -0.53681827 0.67997855 -0.06528771 -0.041604858 0.59515804 -0.45592728 0.278869 0.3403879 -0.34060118 -0.082981035 -0.11718672 0.44386926 0.15465859 -0.40380222 0.024712069 -0.19418298 0.096474946 -0.100599535 -0.09745471 0.0768611 0.41639808 0.10172624 0.51262826 -0.30860266 -0.39134863 0.07133073 -0.36323836 0.24814749 -0.62844473 -0.19950324 0.38232276 0.09840843 0.36163622 -0.2220361 0.08342161 0.073203176 0.18172655 0.029325161 -0.687059 -0.40773377 -0.22026925 -0.19392876 -0.031352334 -0.20269908 0.067225665 -0.17918232 0.39251834 0.06683004 0.1504184 -0.3834879 -0.09949969 -0.108009115 0.16538814 0.8463967 -0.31807294 0.12054994 -0.122987084 -0.016011916 -0.14403184 -0.15500925 -0.20345804 -0.11226675 0.15014277 0.7904951 -0.5112551 -0.19711629 -0.5808117 0.06592503 0.8114357 -0.24817474 0.10099893 0.21610238 0.48905078 0.07579322 0.30069858 0.076644704 0.100453 -0.20462008 0.185974 0.43669915 -0.08162238 -0.5063526 -0.43563703 0.43671048 0.40941003 0.4610191 0.013103347 -0.0778593 0.1718038 -0.051680654 0.54760355 0.12604055 -0.4465936 0.07692801 0.06792168 -0.57645136 -0.5315983 -0.09571397 0.25807092 -0.40790027 0.23730794 0.1652979 -0.34695426 -0.47170806 -0.6343651 -0.06641124 0.49733302 -0.28770885 -0.22449845
118 0.012340963 -0.15644257 0.4643363 0.20552634 0.26449588 -0.19995573 0.35939568 0.07207503 -0.14891554 0.29055077 -0.1949397 0.24210528 0.4013052 0.30300018 -0.032165576 0.019244384 -0.65391004 0.3376297 0.24598186 -0.009883378 0.6111892 0.043921296 0.3930736 0.7476067 -0.16374077 0.019472659 0.42555895 -0.122355215 0.3686877 -0.11118593 -0.48589236 0.24979444 -0.0751549 -0.15625978 -0.03493239 -0.09992447 0.011319392 -0.039597824 0.5872141 -0.11126386 0.29297656 0.91278034 0.11901568 -0.24279271 0.09440076 -0.039135862 0.17494598 0.004746356 -0.05820268 -0.28618133 0.11069637 0.31866747 0.09488898 0.27657402 -0.21665761 -0.20610787 0.21945384 -0.5710024 -0.40231577 0.23588705 -0.31752124 -0.08499648 -0.10556056 0.06711578 -0.009084599 -0.08576173 -0.6537516 0.4349673 0.2107111 0.014951641 -0.07094737 -0.15036581 -0.07824428 0.26441294 -0.028907582 0.28915188 0.40588513 0.21538417 -0.091264606 -0.16225508 0.15204053 -0.36020812 0.25421137 -0.19416875 -0.066431165 -0.0020729539 0.07369004 -0.14889252 0.06986366 0.28089046 0.46894 0.04349435 -0.14398164 -0.043138865 -0.13365486 0.023922486 0.5410522 -0.43772504 -0.08858572 -0.22328478 -0.21534954 -0.95853394 -0.015625242 0.22173005 -0.60257876 0.35507706 0.32743672 0.2720218 0.3107892 0.59095526 -0.3337766 -0.07580577 0.17987525 -0.17330074 0.12210445 -0.5342127 0.05439731 0.25452185 0.2569624 0.23535423 0.025078299 0.3336241 -0.27200317 -0.20805573 0.48548365 -0.27554372 -0.36777216 -0.3514967
153 0.529995 0.026189728 -0.9275547 -0.35785326 -0.069745585 -0.30017555 -0.31014165 0.19150467 0.15648793 -0.4614652 -0.53709286 -0.27395955 -0.22862406 0.20802322 -0.2778375 -0.5200187 -0.38535723 0.008464015 -0.10406341 -0.109987706 0.006775087 -0.1560133 0.04533768 0.23429821 -0.17720784 -0.0103923725 -0.0053721117 0.68427444 0.6138787 0.2799407 0.23046336 0.2831265 0.24885032 -0.19323833 -0.33375645 -0.027723009 -0.031078074 -0.89742666 0.4505423 0.050231688 -0.164338 0.2921875 -0.05152964 0.031177936 -0.3159083 0.17617261 0.12445576 -0.31310132 -0.21917818 -0.0054224445 0.0744648 0.3033341 -0.20655431 -0.1597547 -0.09697021 -0.055695944 0.41674304 0.0409653 -0.50998634 0.106809035 -0.11587745 -0.18754165 -0.21105103 -0.12732841 0.16321023 0.29287395 -0.16024175 -0.06477758 0.10247589 0.19380333 0.5621043 0.54213864 -0.13102306 -0.5656086 0.65008545 0.20038004 0.27500632 0.43309182 -0.10628635 -0.35183054 0.1345514 0.22396295 0.097180024 0.084446155 0.22919716 0.17416567 -0.44385806 0.03667398 -0.2384142 -0.0036686712 0.6552752 0.16257371 0.13736114 0.19625281 0.045986302 -0.35400546 0.08626451 -0.32517463 0.6049229 0.19883832 -0.24944921 0.043177053 0.058837615 -0.22885707 0.094969705 0.06860301 -0.02272326 0.2897555 0.4126254 -0.07039198 -0.11336171 0.15330644 0.09293584 0.17882095 -0.2346764 -0.05532414 0.14710046 -0.008041503 0.42044246 0.44961798 0.23819499 0.0127471695 -0.40053385 0.3973298 -0.32659546 0.103823334 -0.441519 -0.50849754
222 0.20840392 0.17696497 -0.34711137 0.14903629 0.1542232 -0.26702455 -0.34435257 0.05956977 -0.52188635 0.41121206 -0.14178342 -0.2863062 0.12200946 0.11769942 0.24741778 -0.10923294 -0.30433676 0.077651374 0.34907907 -0.4912469 0.008746304 -0.0660455 0.25230315 0.3030542 -0.05574473 -0.19632858 -0.5068745 0.1120942 0.04636898 -0.05920822 -0.108014695 0.02405324 0.0372758 -0.58216035 -0.8775563 -0.16374777 0.39773652 -0.5412284 0.7310718 0.5471664 0.1680768 0.2967899 0.29995608 -0.24791627 0.23244953 0.25254726 0.012029139 -0.12756847 0.009347492 0.2397231 -0.038522825 0.14052355 0.52059406 -0.26696402 0.38634643 -0.03585999 0.32316864 0.05882481 -0.58929515 0.12940307 0.4784986 0.07800744 -0.082792416 0.14229207 -0.41408992 0.18637598 0.17530003 0.09771514 -0.2070026 0.19806916 -0.61211807 0.15725516 -0.10026468 -0.0012238481 0.47830614 -0.058471583 0.026906624 0.10280565 -0.48518088 0.45208973 0.44031537 0.12358654 0.3173798 -0.44528943 0.25070477 -0.4488295 -0.2293351 0.0011612134 0.20896171 -0.4064321 0.4674661 -0.03443845 -0.26730743 0.44970623 0.48380557 0.09303893 -0.5396784 -0.5175363 -0.09635485 0.1085561 -0.71435153 -0.39414242 0.25087106 -0.03762433 -0.20448339 -0.2723644 0.14161853 -0.2823309 0.20030698 0.1984663 0.17403302 -0.5220354 0.020980652 0.1466795 -0.29072136 -0.16722527 -0.24279882 0.0425159 -0.0931962 0.5173899 0.2853776 0.26397002 -0.2889956 0.38869867 0.58109105 0.35352123 -0.57862246 -0.3056964
249 0.51073176 -0.28755075 0.09460883 -0.40874207 0.26611486 -0.3640172 -0.028977538 0.286247 0.1931355 -0.16569397 -0.3024376 -0.7950376 -0.13538626 -0.4116919 0.1202422 -0.16568866 0.027373392 -0.007475114 -0.08045024 0.23998435 0.34076962 -0.24002889 0.20583145 0.62601984 -0.17953098 -0.184111 -0.39269832 -0.08538647 0.40134603 -0.38959816 -0.060265668 0.12103646 -0.37469673 -0.0687582 -0.2501553 -0.14246023 0.41731274 -0.43642208 0.56818557 -0.26639846 -0.33801088 0.11844268 0.042484656 -0.05943918 -0.21913302 -0.60461986 -0.3091914 0.065051705 -0.16387169 0.047854826 -0.4262989 0.06769003 0.38476866 0.039562777 -0.2305601 -0.09636372 0.57011145 0.1147608 -0.26006746 0.4642649 -0.30307558 -0.6317431 -0.07087987 0.47838557 0.33822268 0.12851204 -0.43051904 0.3016784 -0.12956357 0.31682074 0.099581026 0.25196138 0.12793541 0.14111468 0.4627577 0.4185449 0.24010652 0.26578337 -0.25925186 -0.13401876 -0.27238378 0.47556335 -0.08016759 -0.27149373 0.036910377 -0.06501853 -0.19781227 -0.031673074 0.35506257 -0.39201897 0.2594052 0.23936439 0.7158237 -0.0598721 0.10723781 -0.25620806 -0.42070952 0.2572172 -0.118102975 -0.037441526 0.42984688 -0.3758033 -0.31299496 0.2194595 -0.14605962 0.0944259 0.059403762 0.32535556 -0.039297797 0.5060348 0.09009279 -0.43123162 0.03216227 -0.19909877 -0.36800036 -0.1952655 -0.42243907 -0.081918724 0.33017206 0.056066245 0.17139792 -0.42025888 -0.3535339 0.30487567 -0.42828524 -0.5037012 -0.5478611 0.060114812
265 0.23584498 0.0500724 -0.5221838 -0.22400002 -0.44527754 -0.35032582 0.2192992 -0.5047684 0.1099246 0.24061988 -0.59869426 -0.09096199 0.11135945 -0.22760455 0.115429744 0.057509106 -0.34038648 0.24576218 -0.26081744 -0.23400283 0.17345622 0.582994 -0.3778488 -0.47038633 0.17313334 0.08318105 -0.48937717 -0.012446033 0.20227906 0.28730977 0.18705694 0.2282248 0.17889157 -0.14366353 -0.39232376 0.064890586 0.22569792 -0.11913216 0.4312617 0.12441308 -0.10456214 0.043089975 0.4744211 0.2188373 -0.1814304 0.22036877 0.305746 -0.21068892 0.10578825 0.40569484 -0.22490947 0.018169448 0.34188962 -0.20467286 -0.59276104 0.034982838 0.03396697 -0.121577136 -0.15114178 0.5530957 0.0151086375 -0.09972676 -0.068830214 0.056895927 0.4141626 -0.015481999 -0.3669282 -0.29498422 -0.10666604 0.409197 -0.38409072 0.23598564 0.27562562 -0.19467808 0.11878108 0.15066724 0.13133013 -0.21217997 -0.14541882 0.2256715 -0.5398519 0.34657767 0.047043737 0.21878234 -0.1754989 -0.28955424 0.15246335 0.39344862 0.30328026 -0.5273454 0.3676132 0.21516842 0.51216614 -0.05299634 0.11157826 0.22366503 0.5159168 -0.33148235 0.21955805 -0.22876936 -0.17692824 -0.50787973 0.15401462 0.20157823 0.16554146 0.07449 0.20216128 -0.07451558 0.33663392 0.3384864 0.17056969 -0.15138613 -0.2260158 -0.049126785 -0.3420017 -0.28304374 -0.19233292 -0.007715835 0.012858875 -0.26223505 0.37091628 -0.13169742 0.13013855 -0.11520839 0.16656396 -0.18474768 0.24258372 -0.2732247
6 0.19634633 0.041307062 -0.31951436 -0.12378155 -0.44877386 -0.24288549 0.069769256 -0.5858536 0.06006065 0.2551 -0.3012422 -0.014892569 0.13197649 -0.33275872 -0.14257362 -0.09359259 -0.3034192 0.34881273 -0.24063891 -0.36271784 0.15555118 0.8004019 -0.5833779 -0.40306795 0.073780976 0.103635706 -0.38638425 0.009728965 0.14316148 0.2866929 0.29448354 0.25381744 0.05396259 -0.10039685 -0.3877839 0.05106494 0.04956866 -0.10091277 0.15697601 0.10465841 0.027271094 0.13561022 0.44983193 0.21032572 -0.056607015 0.28345755 0.12542467 -0.10584353 0.12843035 0.39962286 -0.21682611 0.15514801 0.24673867 -0.24574646 -0.54022765 0.028059375 0.006178981 -0.10789385 -0.2226015 0.61551386 0.08095791 -0.2212673 -0.16462968 0.06686201 0.42982566 -0.036827087 -0.493224 -0.18135093 -0.10540797 0.31371942 -0.27429244 0.12128348 0.3698287 -0.25948724 0.21553686 0.23078896 0.2849695 -0.1498574 -0.21023066 0.28857997 -0.67608947 0.3699614 -0.056815628 0.20735095 -0.050290283 -0.347469 0.16732731 0.37715948 0.3498494 -0.46455723 0.4135681 0.1595775 0.44992515 -0.112117656 0.17592216 0.17708153 0.40851477 -0.320707 0.15581264 -0.17262231 -0.087003656 -0.46403217 0.1579964 0.20797665 0.120256215 0.0138109755 0.20241116 -0.074369274 0.3194 0.32950142 0.16829172 -0.079353474 -0.24558821 0.099604845 -0.35829675 -0.15721782 -0.187956 -0.11228994 0.007768282 -0.18912913 0.4117613 -0.05782117 -0.053291462 -0.082329474 0.06586622 -0.104299076 0.058906317 -0.29882857
223 0.48325267 -0.38543582 0.20049508 -0.4658338 0.27912128 -0.38768533 -0.08644802 0.32737294 0.06686775 -0.20145078 -0.23831221 -0.852234 -0.16224833 -0.40933147 0.12644717 -0.12709132 0.012295259 0.059712484 -0.09792453 0.1714517 0.24531816 -0.23109895 0.20609878 0.5278773 -0.2146622 -0.17054819 -0.4162122 -0.12595318 0.33800513 -0.39769128 -0.035281505 0.119426005 -0.4083566 0.06982673 -0.20780797 -0.14783509 0.44165272 -0.43048373 0.4945514 -0.26614523 -0.418115 0.09940922 -0.010936084 -0.08821595 -0.2849485 -0.58178955 -0.25799996 0.07080224 -0.16367322 0.1598166 -0.44886112 0.12167847 0.27083144 -0.013185197 -0.32957292 -0.21749333 0.52725434 0.012333729 -0.2961021 0.6093225 -0.30754638 -0.5753869 -0.043952577 0.57921374 0.3628119 0.17354737 -0.46906084 0.24594146 -0.21758215 0.2618562 0.089212514 0.27677017 0.07783011 0.10485118 0.47716916 0.37990266 0.20513986 0.1835547 -0.19979586 -0.13802928 -0.21277732 0.52632505 0.029078202 -0.3511282 0.013058421 -0.046400394 -0.22321524 -0.06959588 0.22849482 -0.36027595 0.3497603 0.2717348 0.64722866 -0.01893865 0.077141605 -0.3005186 -0.3884646 0.25057232 -0.077832125 0.029026646 0.40413925 -0.35706285 -0.3409388 0.2620074 -0.113424726 0.037526082 -0.059979714 0.40315285 -0.0066269776 0.5562759 0.0826081 -0.34963322 0.09097266 -0.15275249 -0.33043242 -0.19218786 -0.36866283 -0.09319499 0.33969748 0.012863484 0.13722803 -0.4259471 -0.2909739 0.37893534 -0.5432557 -0.4269062 -0.5415037 -0.027248647
122 -0.024502806 -0.12872036 0.66303086 0.24703014 0.32617503 -0.12607034 0.2985164 0.07606759 -0.21328893 0.37641203 -0.1420933 0.23151778 0.31326562 0.20802319 0.04707387 0.08803987 -0.6274579 0.27709833 0.32697484 -0.03643699 0.6762836 0.09057747 0.38907698 0.70648277 -0.14812241 0.029690452 0.3206533 -0.0993265 0.39907178 -0.12399179 -0.34568807 0.279065 -0.07260709 -0.038369786 -0.025107233 -0.22372986 0.08023794 -0.07305257 0.47064185 -0.08728353 0.16850041 0.9623502 0.08803751 -0.17742719 0.08863276 -0.06952359 0.1872952 0.06413363 -0.04653741 -0.2376647 0.09063628 0.29728198 0.12654237 0.22185872 -0.25720313 -0.14286236 0.19048978 -0.53484505 -0.40315402 0.27552727 -0.36242834 -0.009746278 -0.115002155 0.048395574 -0.0066342335 -0.16380413 -0.6785217 0.26973638 0.17177732 0.048076853 0.031135397 -0.11512575 -0.09466099 0.15379028 0.017913183 0.22542612 0.3884337 0.21104744 -0.013698126 -0.11660264 0.19575949 -0.39673808 0.34448403 -0.18079323 -0.121294126 0.024665002 0.05502951 -0.19688311 0.11183353 0.21788745 0.58240604 -0.09620773 -0.18180522 0.050731104 -0.17944816 -0.07207602 0.596161 -0.39985526 -0.07197627 -0.07673437 -0.3893628 -0.8899896 -0.016000852 0.36866468 -0.5180109 0.294608 0.20950127 0.29250768 0.418245 0.6105721 -0.36204427 -0.056480173 0.29515004 -0.07830892 0.079350814 -0.60043734 -0.004472916 0.21190028 0.2964786 0.21556742 0.011278017 0.35694817 -0.22810185 -0.25767675 0.46213862 -0.15610066 -0.34276387 -0.48245394
343 0.3243113 0.14772588 -0.30630365 0.19304658 0.10737467 -0.29143456 -0.43344146 0.14097725 -0.6165419 0.40297544 -0.09539237 -0.30628878 0.019233026 0.102747455 0.33257696 -0.07559448 -0.2215057 -0.02944806 0.3048645 -0.4868212 -0.015103456 -0.030172437 0.28195712 0.3135079 0.0025823398 -0.19773056 -0.5357179 0.06857278 0.090668105 -0.11782702 -0.09536385 0.0347533 -0.012816222 -0.52630335 -0.9052953 -0.20134598 0.4110061 -0.5258021 0.70348674 0.57575375 0.14532563 0.2641739 0.23927362 -0.19006842 0.2262643 0.22683161 0.020913385 -0.11091462 -0.0030480798 0.29257548 -0.11920434 0.17570211 0.55787605 -0.2972393 0.33187395 0.003211776 0.37434983 0.079293914 -0.65101427 0.15957491 0.4315092 0.029670777 -0.0835235 0.14257549 -0.37108597 0.18120183 0.08382245 0.054732163 -0.19653639 0.14008796 -0.5895199 0.17212252 -0.028162375 0.019248681 0.5751975 -0.04732261 -0.031831797 0.041626062 -0.43151283 0.4586188 0.5280679 0.1517742 0.31845775 -0.39700913 0.19276536 -0.39520574 -0.27154422 -0.0009817184 0.102086015 -0.41416386 0.4721765 -0.08178959 -0.24020286 0.43672743 0.44864327 0.04532342 -0.42448935 -0.5113002 -0.033669464 0.14399017 -0.7589771 -0.30520147 0.1975874 -0.009941895 -0.15702628 -0.26891175 0.049883362 -0.36865535 0.22457969 0.1920484 0.16538583 -0.462512 -0.006465726 0.090924114 -0.37145 -0.10144859 -0.26895192 0.062976845 -0.037429858 0.47517118 0.31937456 0.250903 -0.34465328 0.3596761 0.6102997 0.4198556 -0.5758466 -0.30477217
