500 128
43 -0.0047175325 -0.32186833 -0.12125995 -0.2181957 -0.60191756 -0.046473894 0.22746582 -0.3254514 0.35301173 -0.14323796 -0.15110402 0.23656805 0.00800439 -0.09128037 0.11203768 -0.07571328 -0.44614267 -0.14648408 0.03486658 -0.51974005 -0.27909976 0.44377115 -0.46107763 -0.33317465 0.18814759 0.3816459 -0.22515818 0.05490387 0.4586494 0.22250457 0.081024125 -0.6332961 -0.018847484 0.47200313 0.19714311 0.07773315 -0.021589061 0.3367808 -0.37981054 0.030589744 0.17377317 0.080058604 0.25310874 0.29207686 -0.4466601 0.43098307 -0.21681543 0.13760938 0.23011607 -0.2991277 0.18061872 0.067675285 -0.21678844 0.090266876 -0.6698584 0.4899093 -0.44426128 -0.22317836 -0.102265954 0.27666628 0.12917556 0.36130968 -0.08981486 -0.1613595 -0.4236866 -0.34121 0.32631236 0.06853372 -0.3164951 0.33087704 -0.50961024 -0.19409321 0.3799669 -0.012604524 -0.68877834 -0.21101259 -0.0023324208 -0.04113703 0.19839644 0.1735109 -0.52256745 0.026036521 -0.23332556 0.09169286 -0.2532651 0.23761056 0.25993532 -0.033039086 0.013772451 0.21045828 -0.10957076 0.23164642 -0.23925081 -0.53313816 -0.09990156 0.4462319 0.93119043 -0.0021985145 0.32892036 0.20130613 -0.043333888 0.13619359 0.073174484 -0.0075419457 0.23344171 -0.3209939 0.006150542 -0.07427872 0.3733299 -0.2240544 0.424119 0.02219816 -0.2697209 0.17986211 -0.04109378 0.04928527 -0.023077525 0.030158095 0.004736381 -0.3056 0.18554139 0.24381664 0.023300927 0.106086485 0.17962468 0.41204554 0.23292601 0.2930241
114 -0.07690586 -0.4169523 -0.38731366 -0.43972206 -0.12720336 -0.18056433 0.13306233 -0.061862845 0.019859077 0.2970583 -0.23943001 0.25946155 -0.18711044 0.21863037 0.14776139 -0.356106 0.5715685 -0.09250229 0.34575012 0.110804304 0.25559345 0.3850556 0.19152175 0.018111628 0.64807135 0.11788353 -0.5713967 -0.2440362 -0.2992595 0.20566896 0.23466581 -0.079376705 -0.33564445 0.27547067 0.08276041 -0.30402488 -0.04599366 0.046312656 -0.29893997 0.19592696 -0.07547196 -0.036735613 -0.46092987 0.15631145 -0.28365317 0.21678193 -0.41720048 0.12760165 -0.25533354 0.50088346 -0.20376544 -0.08663811 0.28872564 0.25693348 0.0301999 -0.133022 0.13865888 -0.08457874 -0.23193553 0.32035315 0.20524237 -0.18507542 -0.32362172 0.20400022 0.10561826 0.24177498 0.14631231 0.29674503 -0.47839236 0.19718993 0.17951196 -0.26765522 0.74433494 -0.7386202 0.24592188 -0.53601867 0.27247986 0.36193955 -0.22414415 -0.351989 -0.16829944 0.009673733 -0.5210104 0.11052052 0.34327245 0.26016012 0.33614784 0.20609428 0.024514692 0.46047354 -0.027929109 -0.14216416 0.17882858 -0.44086918 -0.6639367 0.24831238 -0.39306843 -0.42753756 -0.14428614 0.55947566 -0.36060125 -0.1737845 -0.14654946 -0.075891756 0.106918134 -0.11904874 0.018185273 0.18103746 -0.22034481 0.18432656 0.44073138 0.13355581 -0.03582675 -0.3147389 -0.41792992 0.50554496 -0.17534065 0.015173691 -0.3270363 -0.20358849 -0.1984052 -0.025870323 0.32539535 0.30026647 0.13876146 0.19870612 0.31411695 0.13482206
149 0.047120377 -0.3384831 0.010441541 -0.28110185 0.14803605 0.5038034 0.13514218 -0.07503095 -0.22155938 0.19523236 -0.24283203 0.029805647 -0.053238455 0.25316957 0.16389515 -0.017199215 0.112088665 -0.07102271 -0.029242909 0.17062345 -0.16060567 -0.3084481 0.63360673 -0.32828617 0.09588401 0.17620258 0.33248675 0.48096946 0.008082353 0.41381413 -0.024933 0.36335605 -0.14343327 0.16809273 0.32292795 0.26650262 -0.35880676 0.2512613 -0.300202 -0.036246747 0.43176547 0.102100454 -0.096067354 -0.10878233 0.08295459 0.39846894 0.12507004 0.074304834 -0.07721007 0.03151261 -0.063823014 0.32625735 -0.5161322 -0.4600434 -0.17595813 -0.21530801 0.7102652 -0.15058088 -0.055225927 0.3726536 0.06518601 -0.10505447 -0.33962774 -0.2686592 -0.3939846 -0.0669415 0.32805037 0.182691 -0.24330284 0.44492745 0.07836805 -0.47929272 -0.06894409 -0.09880481 0.0742555 -0.048852462 -0.084651224 0.818093 0.3217817 -0.21378724 0.010521937 -0.18470849 -0.034206603 -0.14608397 0.33201277 0.26616484 -0.14971684 -0.23285191 -0.49473885 0.21627402 -0.46046752 0.33084345 0.039297983 -0.037892975 0.05324682 0.6186448 -0.31799987 0.11502969 0.20449157 0.58477044 0.029291809 -0.3922215 0.2216672 0.23524296 -0.14432089 0.32355934 -0.16491365 0.25578946 0.2319563 -0.28783444 0.22261712 0.32173342 -0.08372706 -0.38019326 0.31080776 0.09079864 -0.8340581 -0.07240452 -0.370758 -0.09031688 -0.3220906 -0.03347423 -0.021573573 0.2651532 0.34660202 -0.23327568 -0.5316007 0.1864218
138 0.2908048 -0.09263489 -0.19174731 0.14259987 -0.59466463 -0.1981733 0.38390625 0.11930042 0.26573026 -0.08384573 0.1452313 0.22470316 0.078758575 -0.3908943 -0.063525066 -0.08276013 0.072636664 0.30144778 -0.07181918 -0.46186948 -0.26765814 0.80273914 0.5368131 0.05221005 0.2392014 0.23551221 0.073580794 0.29204473 -0.250482 0.41139102 -0.014438654 -0.008018666 0.19091946 0.69109225 -0.31165612 -0.13391729 -0.15187174 0.48087746 -0.38838735 0.5531269 0.45510527 0.4317196 0.0011031418 -0.275243 0.1715468 -0.090824895 0.030274631 -0.22853154 0.8154517 0.055891756 -0.1755485 0.37272677 -0.4163174 0.18959667 -0.16230486 0.17657162 -0.26132888 -0.2599415 -0.22950801 0.2508234 0.32448688 -0.009311055 -0.23931612 -0.027880007 -0.1252412 -0.22312132 0.5559009 0.18083748 -0.71102947 -0.1465016 -0.24624686 -0.07901821 0.6736479 -0.28071737 -0.27544558 0.13795665 -0.13699114 0.12700328 0.35425758 -0.74583536 -0.32818386 0.055356935 -0.029800588 0.26496983 0.043773063 0.2764401 0.12118418 0.21665819 0.11065496 0.41452327 -0.28814572 0.2787826 -0.18770544 -0.102812074 -0.19089557 0.016906582 0.5588056 -0.3041075 0.5790592 0.10283988 -0.083431035 -0.08956492 -0.031336438 0.2718946 0.61026114 0.28244823 0.2819286 -0.14960879 -0.05922079 -0.03269051 0.43205208 0.34703308 0.18459283 0.22887926 0.432421 0.05730819 -0.016090207 -0.20605908 -0.37821925 -0.44327605 -0.1563122 0.21445194 0.48885784 0.310147 0.10194554 0.18345532 0.46387124 -0.17032473
150 0.08815374 -0.2993142 -0.015478064 -0.29081723 0.17835426 0.46101406 0.14591977 -0.099553496 -0.23095801 0.18506354 -0.35781175 0.040839672 0.0022742962 0.18387368 0.15048489 -0.0029580528 0.025222069 -0.02097072 -0.11916557 0.15021676 -0.08640861 -0.26012805 0.58266467 -0.29132104 0.09659943 0.10334261 0.36924925 0.4305864 0.044084225 0.40246025 -0.064946935 0.39423856 -0.12634918 0.15444107 0.3255061 0.18951407 -0.36833146 0.11525557 -0.30499074 -0.023678206 0.43334955 0.058946438 -0.041392952 -0.14216466 0.13089012 0.36183736 0.14893176 0.06681757 -0.047446057 -0.022163473 -0.099022664 0.34452492 -0.49822432 -0.5424562 -0.27252647 -0.17721337 0.7819131 -0.15167388 -0.09577185 0.35089046 -0.055596568 -0.14466819 -0.26459792 -0.18296215 -0.399383 -0.005905543 0.362177 0.2350913 -0.2702715 0.39266622 0.10627245 -0.5595195 -0.13351348 -0.050225627 0.09419763 -0.04574432 -0.09174426 0.7793046 0.2254806 -0.2730694 0.102435105 -0.19192015 -0.025867706 -0.11502385 0.3793492 0.35199714 -0.16240005 -0.24491961 -0.43897894 0.14049725 -0.48783845 0.352746 0.07045499 -0.05659399 -0.017715324 0.667251 -0.260866 0.11059245 0.16472821 0.6157926 -0.0059785736 -0.34688416 0.24572651 0.21087186 -0.14544083 0.26839954 -0.18947472 0.22053519 0.30026543 -0.27294093 0.2618311 0.40319425 -0.16588148 -0.45108023 0.3758421 0.16132131 -0.785561 -0.037725087 -0.37839332 -0.0838821 -0.3056197 0.030811323 -0.0873065 0.18508367 0.2422364 -0.25633568 -0.6083188 0.16162866
69 0.23428977 0.019489817 -0.103871614 0.13968004 -0.5946347 -0.15870401 0.28446618 0.054561727 0.21292102 0.059085954 -0.0908704 0.3791001 0.024956912 -0.5278429 -0.1678336 -0.11281846 -0.23942298 0.17346023 -0.20248395 -0.32901192 -0.17228596 0.9477964 0.38361827 -0.12243266 0.26194525 0.26489237 -0.18907435 0.18159522 -0.12101447 0.38276199 -0.10930762 -0.14832443 0.27356586 0.5272903 -0.37299052 -0.1732641 -0.15926088 0.17782418 -0.23509106 0.53635406 0.34694475 0.4668696 0.18009397 -0.2573884 0.014409306 -0.08508128 0.14338262 -0.13371103 0.83532333 -0.12523001 -0.092459306 0.4648523 -0.34391528 0.15490589 -0.34279305 0.13140921 -0.18243329 -0.21448117 -0.14888622 0.18233101 0.2027962 -0.084966466 -0.060849883 -0.044413775 -0.18309125 -0.14971133 0.52854663 0.07933473 -0.7539859 -0.25421432 -0.1777465 -0.21201973 0.5017348 -0.27919647 -0.3227071 0.047030613 0.05137371 0.12815765 0.18220931 -0.7380925 -0.3771512 0.11856921 -0.08129198 0.31224516 -0.017778985 0.3319806 0.07015094 0.22291753 -0.01689318 0.38118625 -0.27361318 0.37373158 -0.21057563 -0.38305375 -0.2556734 0.12603156 0.61556983 -0.15562882 0.5278903 -0.038470484 0.00063881325 -0.038966525 -0.091237985 0.1170903 0.6531571 0.21739495 0.22197822 0.052286875 -0.044703927 0.062073663 0.4136462 0.31771573 0.037839927 0.11832572 0.3349207 0.15503271 -0.12129954 -0.13779534 -0.44045907 -0.47375578 -0.17368971 0.26287618 0.47576222 0.21550511 -0.0652252 0.22258006 0.4501093 -0.12876533
159 0.098453075 -0.2554474 0.0067154747 -0.30001524 0.23080647 0.5070337 0.12400574 -0.09119634 -0.2636069 0.14477175 -0.23783718 0.086644724 -0.065556616 0.18052179 0.09250159 -0.08486044 0.038290475 -0.098996945 -0.011949339 0.13050115 -0.16985336 -0.22347051 0.5728599 -0.25153583 0.2453765 0.17856407 0.36782748 0.43163523 0.03382565 0.47335258 -0.06536584 0.449357 -0.14173594 0.112841874 0.33698788 0.23707217 -0.30558935 0.20646146 -0.29243982 -0.025240997 0.4980686 0.13790557 -0.023521489 -0.14874503 0.11756262 0.3828749 0.22872932 0.023470461 -0.013112158 0.007928643 -0.05153641 0.41972187 -0.49967846 -0.51396567 -0.19226839 -0.17558007 0.72444 -0.14122947 -0.1039841 0.3931747 -0.0009991985 -0.124102935 -0.29813635 -0.15904965 -0.4764954 -0.024067642 0.40026215 0.22556975 -0.30772275 0.407149 0.089059405 -0.5003438 -0.100989066 -0.119931616 0.15074024 -0.03330257 -0.09466975 0.75761247 0.3211858 -0.21060354 0.082929865 -0.24019672 -0.065961935 -0.104733944 0.51373774 0.3483621 -0.06713525 -0.24195972 -0.39950955 0.13717528 -0.4556792 0.33393064 0.062124006 -0.0023208484 0.013020948 0.6157992 -0.2660846 0.13202721 0.20637193 0.5417678 -0.037128855 -0.3578105 0.19663537 0.19655284 -0.101655856 0.25603214 -0.06372119 0.20224659 0.27748242 -0.3116437 0.2493268 0.3125461 -0.16259028 -0.35372484 0.3590421 0.09404607 -0.72876966 -0.05089625 -0.38985234 -0.10757287 -0.3117781 -0.10540142 -0.1358913 0.1790567 0.21285422 -0.1998923 -0.6367314 0.12765962
84 0.009328256 -0.21822546 0.014138755 -0.22008319 0.19191396 0.49727565 0.03326118 0.03480231 -0.21205544 0.183825 -0.35820228 0.04273233 -0.060929094 0.3244371 0.11929874 -0.06391704 0.03792263 -0.04785179 -0.11974946 0.12639572 -0.1750713 -0.3622028 0.575801 -0.26075703 0.09438557 0.2090976 0.2908468 0.4231283 0.042085156 0.29303658 -0.024888294 0.32344604 -0.20838907 0.1341963 0.2840692 0.26333594 -0.3830412 0.20324181 -0.2611435 -0.056076985 0.4172363 0.09514642 -0.071597256 -0.12718111 0.11968865 0.4332476 0.20498538 0.0692637 0.07216975 0.05511462 -0.12060456 0.3950895 -0.52196324 -0.53749084 -0.27027524 -0.24195844 0.7804272 -0.1921353 -0.115505874 0.439769 0.056946833 -0.1382816 -0.30943477 -0.22555491 -0.44497448 -0.114849254 0.30661106 0.24742624 -0.18183394 0.43980625 0.10190913 -0.57011807 -0.1003966 -0.10452656 0.050015315 -0.060860604 -0.029863589 0.826126 0.3239307 -0.28496256 -0.033604812 -0.118251026 -0.10392294 -0.13640095 0.3540843 0.39072648 -0.16136095 -0.286332 -0.5026361 0.22328958 -0.46470982 0.32396206 0.067302674 -0.061044265 0.010457387 0.5542897 -0.2548969 0.20564021 0.21765262 0.5045179 0.07864029 -0.35460538 0.17741399 0.16675688 -0.12613082 0.40172085 -0.1136306 0.25560057 0.267134 -0.26636156 0.25440654 0.38325378 -0.046033986 -0.4986326 0.47101834 0.16522115 -0.7168887 -0.038840648 -0.34030196 -0.08258392 -0.25225475 0.04418354 0.0058368887 0.2945919 0.29749036 -0.22789061 -0.57719266 0.040527284
38 -0.097863674 -0.35330814 -0.51413214 -0.383651 -0.027868014 -0.20457816 -0.050352495 0.048909254 -0.03819978 0.28910664 -0.3375326 0.22280055 -0.2061495 0.26952177 0.028042313 -0.40521935 0.45495608 -0.13621673 0.37918785 0.09255004 0.21704862 0.2752637 0.2798897 -0.006229848 0.6603453 0.06780767 -0.47520888 -0.266143 -0.22686909 0.17978692 0.2770731 -0.104426526 -0.251989 0.24115099 0.07608101 -0.27918464 -0.035803977 0.0797844 -0.18843774 0.12652604 -0.0066992827 0.023014434 -0.3533236 0.07194047 -0.28231993 0.1937841 -0.32037085 0.106101245 -0.1513084 0.4090265 -0.19276276 -0.013532074 0.31969061 0.13457167 -0.09022969 -0.1512004 0.16783619 -0.0517968 -0.17282657 0.22928828 0.042778075 -0.16893652 -0.24781995 0.21936251 0.16035889 0.23012969 0.17778488 0.3118681 -0.49574837 0.18107659 0.14773105 -0.31585783 0.7975458 -0.7533056 0.27018312 -0.43375948 0.22278692 0.23236725 -0.1652669 -0.32545903 -0.18131761 -0.1249614 -0.6197247 -0.02086903 0.41070172 0.2963486 0.342834 0.21939598 0.11663695 0.46073288 -0.036968555 -0.07412201 0.18775487 -0.3856176 -0.80233634 0.31261468 -0.32891425 -0.4465653 -0.16720195 0.55538285 -0.33672684 -0.130548 -0.19692834 -0.024208399 0.06033297 -0.066412084 0.075230315 0.23793472 -0.37673414 0.09818008 0.37830073 0.07488219 -0.17881566 -0.23905186 -0.38452706 0.591335 -0.27800545 -0.03447558 -0.33102477 -0.074300565 -0.21107079 0.08239551 0.39372638 0.34912053 0.06614526 0.31303933 0.23374654 0.13775672
145 -0.032302342 -0.21896183 -0.06694162 -0.24687538 0.26364905 0.55609643 0.12614903 -0.16786759 -0.18141684 0.16461228 -0.25658357 0.08479073 -0.055920795 0.26628906 0.12149055 -0.049240343 -0.018338589 -0.10856681 -0.062807694 0.100157686 -0.103915535 -0.26709875 0.59450376 -0.2892377 0.19427711 0.19440256 0.39539245 0.49459147 0.037545063 0.41922435 -0.057857234 0.36988375 -0.17218615 0.12722872 0.33629718 0.22325283 -0.3352175 0.25030273 -0.22916521 -0.06261062 0.45732927 0.062429357 -0.100468546 -0.08002813 0.07119806 0.48426405 0.2107485 0.016629942 -0.05763698 0.0882795 -0.0817734 0.40589008 -0.56673443 -0.5594195 -0.19913243 -0.1844659 0.80175805 -0.17118207 -0.044295743 0.38331085 -0.0018223836 -0.12202122 -0.29464197 -0.13927585 -0.3588659 -0.0028894055 0.35554028 0.17121401 -0.29084352 0.36081454 0.07121775 -0.5208747 -0.09523824 -0.0927302 0.07464479 0.009120813 -0.048713773 0.7062216 0.20795093 -0.25021932 0.03307463 -0.11593649 -0.08647748 -0.08774628 0.39839837 0.34682837 -0.056939475 -0.22518143 -0.3254858 0.2156856 -0.49257308 0.42698467 0.1868789 -0.02816809 -0.012519853 0.59220386 -0.26077846 0.1730883 0.15196025 0.50603443 0.041670594 -0.30522445 0.17536168 0.23520811 -0.0847246 0.33934602 -0.17383239 0.2340897 0.3642409 -0.2758491 0.28007966 0.30396426 -0.08221227 -0.47923368 0.41717893 0.08129752 -0.7724853 -0.014419377 -0.36370015 -0.10026749 -0.2083805 0.014231472 -0.00984429 0.30440903 0.18738987 -0.26284987 -0.69114697 0.09801414
16 -0.019940771 -0.34232545 0.11531833 -0.29011345 0.23365313 0.6091976 0.09163351 -0.09845217 -0.21191554 0.22771613 -0.36631247 0.15793829 -0.0881073 0.21332556 0.1733822 -0.011948013 0.07538722 -0.104509525 -0.1349807 0.10036144 -0.22195502 -0.24953513 0.6290168 -0.2639932 0.27007028 0.22247204 0.31028137 0.3855341 0.1464108 0.4169998 -0.11754548 0.38640434 -0.26554406 0.054535188 0.35153642 0.24853443 -0.38947868 0.11950485 -0.3198371 -0.058412403 0.47013304 0.10922859 -0.008478885 -0.07591143 0.15486789 0.34227347 0.23446086 -0.0065344023 -0.05984089 0.051490225 -0.07409565 0.35338616 -0.5078335 -0.54690623 -0.19411682 -0.20059878 0.6405791 -0.15940928 -0.15718189 0.3890491 0.056953844 -0.17918865 -0.33208618 -0.1801665 -0.45090452 -0.17508572 0.3633413 0.3215369 -0.23263228 0.45306438 0.1116684 -0.5705737 -0.07199199 -0.121569686 0.11354658 -0.10110103 -0.06829129 0.7511786 0.3057922 -0.24425936 0.0055758064 -0.19730423 -0.11005143 -0.08555843 0.4657525 0.35751018 -0.15207335 -0.26862517 -0.45804378 0.1254752 -0.5390642 0.36893317 0.022800384 -0.053919274 0.006082437 0.5755509 -0.24460056 0.11343031 0.24995328 0.44223058 0.085668646 -0.3066245 0.1607287 0.17013423 -0.12689112 0.26145592 -0.119797826 0.2830443 0.2694548 -0.24601856 0.0992481 0.27003694 -0.105819896 -0.33791462 0.37011543 0.111991316 -0.7118671 -0.009756513 -0.3779284 -0.072679356 -0.26243305 -0.063154496 -0.059618406 0.29029784 0.23885809 -0.28057155 -0.61953855 0.08349421
212 0.03133265 -0.32602632 0.08670158 -0.28960356 0.08254093 0.48898634 0.08688871 -0.13538736 -0.2149461 0.12536274 -0.25755224 0.11116774 -0.037290227 0.22589226 0.08941107 -0.06389846 0.049966395 -0.061131146 -0.017153211 0.09783177 -0.16831186 -0.26937386 0.57882607 -0.27202195 0.22087397 0.20302823 0.24962966 0.45214033 0.038936686 0.36534074 -0.08409559 0.42943278 -0.2661477 0.14383376 0.30497533 0.2770549 -0.31346652 0.21541773 -0.21459936 -0.076623105 0.3738146 0.007395406 -0.042230226 -0.07097441 0.046006646 0.46996436 0.2520184 0.037146762 0.01743658 0.013553676 -0.08226927 0.38382566 -0.51637304 -0.48404154 -0.26958275 -0.121512115 0.7248385 -0.14457428 -0.13513839 0.41752484 0.00090659555 -0.14578068 -0.2560663 -0.090034425 -0.5022778 -0.032500062 0.33049965 0.21679322 -0.24786468 0.38728002 0.14627977 -0.4952604 -0.19559975 -0.05199194 0.04389763 -0.0018353277 -0.06873183 0.79449135 0.2097172 -0.22882174 0.065960236 -0.18446176 -0.008586103 -0.025288388 0.50184363 0.34290108 -0.076124094 -0.19218305 -0.50228494 0.13835816 -0.5226204 0.3156642 0.051888175 -0.06015168 -0.0040580113 0.5340457 -0.38644245 0.08028301 0.2457575 0.6372109 -0.012220391 -0.4429515 0.2405908 0.16947001 -0.19985983 0.3245957 -0.11567622 0.16815485 0.2980582 -0.28220722 0.20104079 0.41199115 -0.08302214 -0.40100458 0.39411336 0.15169682 -0.7843132 -0.016841162 -0.3751429 -0.0576492 -0.163626 -0.04840384 -0.047541402 0.25601527 0.24414282 -0.22363599 -0.5685101 -0.03284037
59 -0.04649845 -0.22124332 0.051240057 -0.1846078 0.16794246 0.44966307 0.06291236 0.012304335 -0.20337579 0.19099838 -0.39238063 0.17405131 -0.039438616 0.2798814 0.12707102 -0.033685762 0.03528037 -0.11348002 -0.101998806 0.15474106 -0.17639288 -0.22738838 0.52187043 -0.2688987 0.18226755 0.2215088 0.28635868 0.452769 0.028866168 0.41940814 -0.021742372 0.32468632 -0.1870172 0.16105254 0.30793157 0.23949477 -0.3954383 0.2000143 -0.2636399 -0.017839184 0.4950342 0.1033373 -0.068240784 -0.09004007 0.07421197 0.35919195 0.19189568 0.05217707 0.006654684 0.06693374 -0.14020939 0.3993765 -0.52149963 -0.5162765 -0.21354413 -0.2247102 0.71123 -0.23040068 -0.10496145 0.42566362 0.013942888 -0.09870464 -0.34207448 -0.24103536 -0.42826205 -0.0705817 0.34458238 0.23584765 -0.24601476 0.39758742 0.04296313 -0.55747455 -0.06328077 -0.09173743 0.105231166 -0.044281974 -0.12088128 0.7343645 0.2497975 -0.2692123 0.018031223 -0.16948374 -0.09687531 -0.090598695 0.37153018 0.347608 -0.13227035 -0.25885105 -0.49386755 0.16232584 -0.5591557 0.3496529 -0.015180485 -0.08271065 0.0062653995 0.5982257 -0.29682028 0.10329152 0.19868265 0.48467624 0.1074351 -0.3873389 0.14570406 0.18251278 -0.16738036 0.3713933 -0.18107913 0.20872922 0.2660023 -0.23018286 0.1501997 0.29297155 -0.094899796 -0.3985105 0.38232833 0.1308645 -0.72857165 -0.0738454 -0.33638465 -0.014130586 -0.23611774 0.095334806 -0.16466281 0.2632907 0.22541617 -0.32818764 -0.63459444 0.13540854
30 -0.23716088 -0.29325026 -0.54134244 0.10739724 0.23357423 -0.05476995 0.21475323 -0.46946195 0.43257794 -0.15449241 0.027161013 0.036047537 0.043439705 -0.48140532 0.26979214 -0.0025731882 -0.01584577 0.04576954 -0.5434892 -0.31471437 0.020670049 0.21138564 0.22917606 -0.13052285 0.2388799 0.30372724 0.20523468 0.060740642 0.07635445 -0.0797714 0.010901995 0.14241092 0.14372408 -0.38513377 0.002013071 0.004557524 0.03973288 0.18432622 -0.0876985 -0.4524892 0.051143005 0.2576091 -0.087858416 0.42050472 -0.30895826 0.26908126 0.22793227 -0.18749656 -0.20305121 0.050652638 0.20306364 0.37414405 0.24514271 -0.07303969 0.033309046 -0.3284574 0.23687436 -0.15866923 -0.08793432 -0.16197427 0.14797403 -0.55505544 -0.10115451 -0.68492156 -0.1344347 0.5904932 -0.19402888 0.09677599 -0.30107313 -0.30121502 0.36791617 -0.07437537 0.4535124 -0.43464944 0.32316107 -0.4699389 0.15627375 0.3018092 0.45224857 -0.13826065 0.1578931 -0.59540796 0.06955763 -0.088507384 0.21567626 0.20157665 -0.15841565 -0.4124743 -0.16705142 0.36140952 -0.33346024 0.2695865 -0.24455354 -0.14116159 0.06474988 0.482141 -0.0685332 -0.731253 0.53233254 0.41211316 -0.15030213 -0.0049908385 0.57249415 -0.21377139 -0.09796551 0.026973348 0.20536396 0.21403767 -0.1406545 -0.52981746 0.42996514 0.093773164 0.012834012 0.34674424 0.27569908 0.27960396 -0.28653395 0.4560775 0.17240381 -0.11455886 0.29467133 0.1900738 0.5004581 0.19269732 -0.27433762 0.029745415 -0.13461848 0.0082505755
58 0.024070974 -0.24578506 0.054806937 -0.29958194 0.17596309 0.45801538 0.13680112 -0.017007947 -0.17719108 0.15030128 -0.32606864 0.073825374 0.0069885203 0.27151474 0.117162466 -0.0682069 0.07953653 -0.05583719 -0.058835205 0.14317578 -0.18719827 -0.2821456 0.58830684 -0.2364318 0.16806808 0.21398391 0.3895366 0.41734034 -0.021084169 0.35866812 -0.06659496 0.4068977 -0.24183579 0.17654419 0.31617305 0.25515264 -0.37231094 0.23418336 -0.2651842 -0.04480333 0.41188788 -0.0019703135 -0.025960758 -0.0711591 0.048854258 0.3586422 0.18167233 -0.009616111 0.049983818 0.039075945 -0.09496399 0.3715941 -0.55688405 -0.49098176 -0.20778099 -0.17545137 0.673165 -0.22765632 -0.07211363 0.4024302 -0.036184605 -0.15765418 -0.3031777 -0.30087966 -0.4546531 0.022095427 0.33496395 0.2458149 -0.25147286 0.4441606 0.12634209 -0.519617 -0.16382091 -0.06359822 0.09492677 -0.041971706 -0.1299213 0.6958771 0.24198276 -0.25207004 0.06213356 -0.18798652 -0.021630263 -0.0843117 0.44616437 0.33373013 -0.13964467 -0.2359957 -0.50331515 0.15427169 -0.467193 0.30618107 0.10681246 -0.054331288 0.06975714 0.5179424 -0.25280705 0.045838345 0.23729444 0.58809 0.07722773 -0.38132504 0.2597041 0.18742043 -0.17061853 0.3108689 -0.10858051 0.22817288 0.30350915 -0.33905584 0.22095087 0.36362895 -0.17461902 -0.42729357 0.35564142 0.12458794 -0.83337545 -0.09449579 -0.33226702 -0.1023416 -0.25317642 0.007974771 -0.046827987 0.25029492 0.33348897 -0.20658186 -0.6325745 0.08625846
163 -0.06311618 -0.5076743 -0.4711411 -0.4446792 -0.117418304 -0.29762688 0.07737822 -0.044476956 0.014882491 0.17206073 -0.27969483 0.26060373 -0.27556086 0.22419953 0.042432483 -0.4758643 0.4981439 -0.105191834 0.4326621 0.10930016 0.21945778 0.37152022 0.17830783 0.107518956 0.67397636 0.031837653 -0.5400045 -0.18675752 -0.2672468 0.10987299 0.2116848 -0.07417238 -0.33772862 0.2789115 0.039054334 -0.22509073 0.0009084284 0.18384624 -0.16285887 0.23810662 -0.06701433 -0.048493326 -0.35166734 0.12240216 -0.33606097 0.26134858 -0.38088533 0.12607361 -0.23580398 0.4915898 -0.09319914 -0.004691708 0.2818568 0.22958647 -0.033920605 -0.049073305 0.15582813 -0.040638223 -0.10549083 0.31744438 0.13013665 -0.116428636 -0.25657767 0.3173268 0.02016372 0.16622956 0.14495268 0.31761035 -0.48243448 0.23525476 0.12025863 -0.24639353 0.67199576 -0.80821764 0.29170257 -0.51797026 0.2475109 0.37380698 -0.25125208 -0.3045834 -0.16366655 -0.0003606871 -0.5299357 0.09731927 0.41184893 0.2113706 0.3709372 0.2411896 0.019128216 0.41049185 -0.028787373 -0.16275513 0.1723283 -0.37657157 -0.69508696 0.24658087 -0.42218757 -0.47115654 -0.10341619 0.4669494 -0.33526748 -0.18727864 -0.15100667 -0.10854232 -0.01633354 -0.09965226 0.12148923 0.23495628 -0.3451845 0.03295219 0.29696512 0.14498755 -0.13293573 -0.29047564 -0.2056936 0.49545133 -0.3161724 0.015226521 -0.39748394 -0.15070543 -0.16540976 0.057447024 0.45878515 0.33090192 0.08480615 0.22766979 0.2195398 0.037167646
85 0.12200827 -0.29043907 0.059496228 -0.28027508 0.122717634 0.44491065 0.22610243 -0.03359095 -0.2631154 0.11368147 -0.26801342 0.12694807 -0.10986824 0.21828789 0.09327586 -0.02289124 0.0519217 -0.07872395 -0.03717037 0.08848207 -0.17051362 -0.1775178 0.52159727 -0.21059361 0.19841386 0.15161285 0.39661366 0.4285493 -0.036331594 0.40468848 -0.11377496 0.3746904 -0.26587602 0.16241208 0.33047512 0.24469991 -0.34720442 0.18375245 -0.26865748 -0.019464046 0.43942916 0.023505908 -0.052689776 -0.11040652 0.10397082 0.3244454 0.14575705 -0.033508588 -0.014489432 0.043796077 -0.09299101 0.43295413 -0.46835473 -0.5133119 -0.21863018 -0.19450097 0.7334537 -0.23662233 -0.09213207 0.45856634 -0.011628832 -0.10727434 -0.34924847 -0.20490494 -0.44101235 -0.086311415 0.33458233 0.21971034 -0.2338267 0.42190766 0.06631856 -0.5087078 -0.13050282 -0.07844455 0.16539049 -0.016771726 -0.1126603 0.8171287 0.27289405 -0.272814 0.071217224 -0.17190392 -0.025121294 -0.13046564 0.45412362 0.35690057 -0.17019993 -0.21985026 -0.4376029 0.19071037 -0.44941172 0.23814619 0.11709536 -0.041608356 0.07892258 0.61272573 -0.27115414 0.07209309 0.26547214 0.49843296 0.039929513 -0.3890578 0.30626056 0.1382735 -0.15675367 0.32575774 -0.1177174 0.19448827 0.26268575 -0.3458817 0.27993786 0.38070816 -0.14099798 -0.45529947 0.36989623 0.115122765 -0.71634305 0.00759985 -0.38124937 -0.10325458 -0.3135248 -0.061984234 -0.091664135 0.14956422 0.2821689 -0.22358808 -0.5918076 0.1836671
196 -0.016074244 -0.46294814 -0.4304816 -0.4020304 -0.13842542 -0.27290618 -0.020454837 0.07358821 -0.04671312 0.25989786 -0.36836547 0.17219856 -0.15429756 0.25323918 0.12239486 -0.41265577 0.5378507 -0.09870006 0.4018476 0.02588091 0.15481208 0.3938294 0.16179477 0.15122923 0.61993873 0.021229684 -0.4779696 -0.11882118 -0.25052038 0.16766357 0.16312665 -0.038969487 -0.3065017 0.27264756 0.09752109 -0.26191187 -0.072444566 0.0910676 -0.19288853 0.20027496 -0.065118715 -0.10280289 -0.3323326 0.1564152 -0.3067553 0.15325882 -0.42851228 0.104838714 -0.2636165 0.50844526 -0.14720494 -0.07132208 0.32494476 0.25752985 -0.008158155 -0.09405785 0.1641978 -0.046402384 -0.111579746 0.3287683 0.10327602 -0.05879277 -0.31760138 0.2989806 0.09898464 0.09842529 0.19070466 0.3447029 -0.442987 0.23649774 0.13441032 -0.3086522 0.7404291 -0.7555485 0.32345733 -0.43722942 0.21104565 0.23591395 -0.16709287 -0.36945373 -0.20477802 -0.16091058 -0.5537148 0.06134979 0.4672978 0.28363815 0.39106935 0.17748615 0.024724152 0.3776899 -0.13074505 -0.06964426 0.24297732 -0.4451012 -0.7140746 0.27868536 -0.29399505 -0.54106885 -0.05746055 0.5293753 -0.38262045 -0.10503812 -0.13808529 -0.131374 0.09960107 -0.1539825 0.06126019 0.24967664 -0.34953925 0.130572 0.39242223 0.12519996 -0.09395535 -0.29532245 -0.37903202 0.57128745 -0.19550115 0.00917056 -0.32282254 -0.13604355 -0.16958217 -0.040206995 0.43756765 0.2328534 0.08764724 0.3145472 0.2420335 0.1482604
156 0.040689185 -0.4617419 -0.028420027 -0.32138205 0.09803545 0.6300788 0.0884494 -0.08768583 -0.22795469 0.124334134 -0.21709813 0.076547936 -0.06843922 0.33805442 0.04015366 -0.06977515 0.010057767 -0.06407382 -0.093729064 0.10853003 -0.21678059 -0.3545572 0.56900364 -0.29665405 0.15809332 0.135392 0.38446692 0.45581758 0.045564607 0.3693049 -0.09381684 0.38515922 -0.22101633 0.17319953 0.23492332 0.20883477 -0.28669786 0.28871325 -0.19764973 -0.003032084 0.4634007 0.039120045 -0.005719679 -0.09828656 0.0017502417 0.43384755 0.29742515 -0.014938793 0.06462724 0.064031504 -0.0825048 0.455251 -0.44898933 -0.5765534 -0.29365245 -0.1343189 0.6919151 -0.19982277 -0.12661324 0.4031343 0.07066897 -0.112152465 -0.2889309 -0.22578408 -0.46332133 -0.075215094 0.31990772 0.27974123 -0.18024684 0.4730197 0.038418427 -0.49887502 -0.13424736 -0.055913504 0.1005564 -0.026060289 -0.09301944 0.70035815 0.24231808 -0.16442598 0.05333858 -0.17941044 -0.07082145 -0.1660901 0.46296677 0.31904173 -0.08625274 -0.26500377 -0.44934267 0.15555817 -0.42999208 0.28391257 0.09781651 -0.021026585 0.0035763143 0.557491 -0.32113025 0.16354069 0.22153175 0.5608391 0.04297187 -0.30560985 0.15269916 0.16496898 -0.15501069 0.29765442 -0.13247341 0.31427374 0.2666906 -0.20785247 0.15072179 0.3082994 -0.11385747 -0.55032194 0.3135856 0.12454798 -0.8146965 -0.07111701 -0.359253 -0.046405774 -0.20265052 -0.065772526 0.10103914 0.25658226 0.28528407 -0.12911946 -0.72281325 0.035159715
88 -0.16331664 -0.3520315 -0.49630806 0.1279463 0.24010995 -0.023294082 0.21273336 -0.45372742 0.38674912 -0.23082896 0.06484072 0.01630943 -0.0069813463 -0.47023475 0.27445537 -0.012361876 -0.04539025 -0.012328837 -0.54762447 -0.40062928 0.008163142 0.13371202 0.13771588 -0.11787223 0.15432653 0.1989326 0.39601243 0.16423772 0.08510667 -0.16846421 -0.04386336 0.13159628 0.030114492 -0.3133055 0.021320269 -0.0029816981 0.025877645 0.25577366 -0.058857143 -0.45835933 0.039854962 0.2182369 -0.17394431 0.43347147 -0.34847087 0.30035177 0.19193079 -0.19432959 -0.23565544 0.062366605 0.21027897 0.37011626 0.37964728 -0.04980907 -0.045268796 -0.30723104 0.24549587 -0.2025771 -0.055384815 -0.09852765 0.11069645 -0.4017902 -0.09060246 -0.63868 -0.17389223 0.49290973 -0.15730476 0.16987029 -0.18735138 -0.2990085 0.28487518 -0.009667108 0.49628955 -0.42323378 0.26777422 -0.42203528 0.12510253 0.27166054 0.44713798 -0.13616344 0.17064062 -0.5501228 0.041461773 -0.07367281 0.22654615 0.27881965 -0.10499199 -0.4371714 -0.16897419 0.3272514 -0.35064134 0.16228563 -0.19405627 -0.112115294 0.022855239 0.41871345 -0.07517637 -0.7739186 0.5891238 0.42660427 -0.22114071 0.029569834 0.57775605 -0.31154516 -0.14850646 -0.061005387 0.24256928 0.20582145 -0.19931017 -0.57956654 0.4668204 0.05616922 -0.045291565 0.31502873 0.222017 0.30967948 -0.29956248 0.50311166 0.15210587 -0.08156125 0.30742684 0.189915 0.50913846 0.07881619 -0.2081994 0.14684759 -0.24223484 0.044551224
401 0.1356995 -0.08143761 -0.12464929 0.15080526 -0.55293036 -0.14330965 0.35302898 0.025695818 0.26256058 -0.029605059 -0.13162853 0.28132987 0.049327597 -0.5307179 -0.1796481 -0.1279024 -0.28527528 0.1388584 -0.28183347 -0.4694954 -0.17277355 1.0397235 0.3388034 0.03444245 0.26848096 0.21871647 -0.11497289 0.20797671 -0.08329475 0.37509426 -0.11607193 -0.11341842 0.2439367 0.53064346 -0.44680086 -0.08058659 -0.069613114 0.27412447 -0.10994152 0.5941069 0.35607833 0.41659614 0.13532591 -0.2108979 -0.08311887 0.015267084 0.18738234 -0.053644065 0.81863946 -0.033683788 -0.012903081 0.44896016 -0.37509906 0.20059977 -0.3082383 0.27048957 -0.10735044 -0.12417267 -0.059859 0.2502409 0.25409535 0.065803714 0.0032681602 0.012260867 -0.27582958 -0.12589054 0.48307496 0.09871417 -0.7059734 -0.22493427 -0.24095446 -0.2571421 0.44080907 -0.32534853 -0.31966603 0.063655406 0.061414637 0.13347854 0.17478742 -0.5877084 -0.44974178 0.12453565 -0.118178025 0.3412859 -0.0054274593 0.2398749 0.1418831 0.24523863 -0.004140186 0.2898765 -0.27404422 0.25929272 -0.15297012 -0.28622973 -0.2648506 0.014862879 0.6464809 -0.22809587 0.5781526 0.024666315 -0.042018063 0.07064608 -0.08669383 0.03327634 0.57022536 0.22893652 0.2912962 -0.07145353 0.038573537 -0.015539955 0.37726805 0.2789374 0.03748823 0.12817904 0.4572326 0.14083418 -0.1879536 -0.083371215 -0.35580513 -0.4506074 -0.10362338 0.20933327 0.54317844 0.18950233 -0.16829419 0.15331872 0.39027476 -0.16173628
143 -0.028413864 -0.45113224 -0.45023394 -0.47709557 -0.17024258 -0.13257098 0.0940333 0.016343182 -0.02082853 0.22457218 -0.24018776 0.19005631 -0.17214608 0.3042798 0.016340347 -0.37150395 0.5292806 -0.07810462 0.52239734 0.11274147 0.17276351 0.20984511 0.19698383 0.06399037 0.67725646 -0.018480523 -0.49525952 -0.15174697 -0.18500023 0.08629905 0.24033049 -0.121866584 -0.3242619 0.25014442 0.050486855 -0.2467688 0.06229546 0.26127023 -0.18975963 0.13907017 -0.07201378 0.027934471 -0.37074274 0.20337297 -0.34338018 0.23887941 -0.26196668 0.06815677 -0.30667964 0.55137455 -0.09965166 -0.03457857 0.28167704 0.17852317 -0.044117864 0.00031498438 0.104319215 -0.08311223 -0.12693918 0.22314501 0.09103359 -0.10431997 -0.2235794 0.2843118 0.13789278 0.08560275 0.12515584 0.41654834 -0.42842475 0.23722985 0.084036656 -0.21867828 0.7546614 -0.75713116 0.29206866 -0.537022 0.19847092 0.24571319 -0.24875851 -0.3795511 -0.14486212 -0.039044693 -0.5308365 0.06866833 0.46909177 0.15368086 0.45860374 0.26986554 0.06053435 0.41505572 -0.1265265 -0.08570624 0.27781817 -0.37718615 -0.75568444 0.14921243 -0.33333164 -0.5020983 -0.065724485 0.55739653 -0.36097717 -0.15176155 -0.25495353 0.05190344 0.0032702188 -0.15052183 0.12194039 0.3305191 -0.3712619 0.10741535 0.3285295 0.11486614 -0.07098084 -0.3046533 -0.23484196 0.584859 -0.3793371 -0.022363737 -0.3556703 -0.06848865 -0.06324906 0.020505503 0.59145766 0.33909103 0.09485232 0.31457 0.16114005 0.055893864
305 -0.45078215 -0.33938506 -0.67270654 0.09935725 0.06074325 0.6214084 0.2561189 -0.19993334 0.21043043 -0.44869104 -0.030346982 0.46336517 -0.049479805 0.46492472 -0.66441745 -0.52042234 -0.12498641 0.48040307 -0.013465174 0.4213742 -0.102130525 0.28120974 -0.04846613 -0.24885605 0.43900052 -0.06151147 -0.1039563 0.002795684 0.019337181 0.36393905 0.08102455 -0.4763909 0.3181694 0.13439967 0.28582188 0.21483253 -0.12446415 0.21016774 -0.3961235 -0.45677128 -0.36382318 0.4128985 -0.20375364 -0.7646192 -0.5018081 0.22737949 -0.31917655 0.13826293 -0.42935458 -0.46062943 -0.16827616 -0.4462476 0.022707019 0.59364223 0.09253921 -0.02873288 0.39353392 -0.10296457 0.017024325 -0.27682105 0.09150339 0.50962627 -0.17690115 -0.23914546 -0.19892985 -0.2679137 0.37682158 0.38734552 -0.7488812 -0.05081037 -0.21069746 -0.30196604 0.21097927 -0.71749556 0.26682702 -0.22045766 -0.5129246 -0.2589539 0.008472371 0.1914029 0.107412666 -0.37119925 -0.32416728 0.17127018 0.10338922 -0.16820112 -0.029449482 -0.09270017 -0.76450586 0.10742289 -0.73088646 -0.44417632 -0.3405363 -0.2221825 0.06454742 0.37068024 0.5082293 -0.45034096 -0.13716385 0.1484892 -0.23025762 0.14820533 0.08403992 -0.1082494 0.2974358 0.2546794 -0.14062174 -0.36821094 -0.08439754 0.17221215 0.7348809 0.18004733 0.27563012 -0.30891618 0.18272316 0.119543105 -0.119101875 0.24209109 0.04512372 -0.13055007 -0.56152993 0.17291974 0.59356594 0.8074952 0.7344187 0.1059044 -0.43381384 -0.4931158
47 0.026993731 -0.24194892 0.03735118 -0.20150422 0.22305794 0.49336642 0.10372787 -0.11883546 -0.22649299 0.13893361 -0.24594657 0.009131352 -0.041940507 0.252134 0.170977 0.01955775 0.1214594 -0.028215416 -0.13508098 0.08530765 -0.10489098 -0.25087062 0.5749441 -0.26602876 0.14055406 0.14345343 0.36176378 0.42139363 -0.007711939 0.35548738 -0.07074945 0.376163 -0.1720802 0.15316571 0.3109536 0.26644444 -0.3642122 0.17791814 -0.2469093 -0.041242894 0.4229157 0.108899474 -0.036137242 -0.15132466 0.08648542 0.43609008 0.18883921 0.06345314 0.038912416 0.061617814 -0.062608115 0.345422 -0.49588746 -0.43372363 -0.2194948 -0.1447619 0.69305736 -0.16123906 -0.068706185 0.37084952 0.01547689 -0.10438953 -0.2592288 -0.16032884 -0.4785313 -0.14536041 0.37609923 0.17983596 -0.25476363 0.31724605 0.03703887 -0.60425836 -0.050634272 -0.040655307 0.06782655 -0.06451153 -0.03966748 0.81445843 0.27563322 -0.29404587 -0.0051481016 -0.18519382 -0.04895462 -0.09269387 0.4232455 0.35179183 -0.05996497 -0.23128517 -0.47279555 0.20645684 -0.47518328 0.34943053 0.15356708 -0.04629627 -0.014271411 0.5951284 -0.3166137 0.16954555 0.24279286 0.58968514 0.0133100385 -0.3180276 0.17793478 0.1767062 -0.1222903 0.3294367 -0.21552916 0.16844186 0.42107987 -0.2447659 0.23743181 0.37408313 -0.0710767 -0.5313481 0.3514756 0.16941242 -0.74371076 0.010815411 -0.36101022 -0.08848669 -0.22073811 -0.07180532 -0.056716148 0.2837857 0.2121135 -0.29440856 -0.6700682 0.014035168
35 -0.122984335 -0.40739575 -0.4339966 -0.39521813 -0.14891544 -0.17261833 0.08937384 -0.02855313 0.027413443 0.2606431 -0.29277328 0.2358291 -0.21716157 0.30022678 0.047988523 -0.32516637 0.51574725 -0.055762775 0.2951913 0.1288464 0.2631262 0.34720048 0.1660004 0.06259813 0.68893915 -0.016987307 -0.53178704 -0.19286147 -0.18564063 0.14828269 0.25209498 -0.07685622 -0.31496468 0.27392638 0.048692685 -0.17183214 -0.062758714 0.04095934 -0.13049191 0.19401325 -0.11360203 -0.02329244 -0.331997 0.13794222 -0.23034275 0.21150106 -0.28513056 0.10170809 -0.23472431 0.52577615 -0.13574404 -0.08735486 0.30042633 0.20886663 0.009831684 -0.06235866 0.12825347 -0.043754075 -0.14846519 0.22616144 0.0706963 -0.16872929 -0.18569869 0.31485716 0.047026128 0.089778505 0.15523575 0.34494185 -0.46134335 0.16054149 0.11301808 -0.37151164 0.71630293 -0.6812463 0.2327211 -0.557159 0.22093146 0.38884896 -0.26732528 -0.38342458 -0.19654384 -0.0106096575 -0.5432237 0.13917705 0.42427644 0.2442703 0.40869397 0.19917122 0.0601939 0.38629693 -0.10364308 -0.04213709 0.22082467 -0.4137235 -0.8035811 0.26434588 -0.3851303 -0.49879542 -0.026134234 0.61979693 -0.35978463 -0.14245686 -0.20030771 0.0029882032 0.05346723 -0.17019488 0.08081095 0.21634887 -0.21325289 0.139427 0.31167933 0.123403706 -0.09556904 -0.2747655 -0.33231354 0.5967114 -0.29531485 -0.01918956 -0.30223706 -0.103761636 -0.062340803 -0.016938604 0.5104358 0.33351496 0.00652725 0.24597685 0.197148 0.019882618
103 -0.20596719 -0.30774143 -0.47320554 0.21502818 0.16448006 -0.014806957 0.17064324 -0.4778639 0.3972317 -0.22737902 0.10007368 0.029559184 -0.052829426 -0.49006793 0.29747638 -0.032911718 -0.0065427483 -0.006116816 -0.6694342 -0.3616307 0.15582494 0.22596566 0.002048432 -0.13822423 0.19623736 0.22657162 0.3710031 0.13979484 0.053448386 -0.09995729 0.020028954 0.15818182 0.093901075 -0.26672375 0.051223505 0.009283344 -0.051242635 0.11805471 0.019064479 -0.5582744 -0.028068928 0.30090392 -0.10353116 0.3521407 -0.35587963 0.21983838 0.2151449 -0.15986416 -0.09690016 0.05162063 0.2088619 0.2920244 0.41310117 0.009729862 0.00308101 -0.30931962 0.21145108 -0.22942372 -0.061929617 -0.18719292 0.046440076 -0.5483955 -0.06451873 -0.71199906 -0.21486188 0.50586265 -0.11386117 0.04608105 -0.3061715 -0.42001146 0.3482874 -0.14687042 0.47789803 -0.26262665 0.24359117 -0.3883338 0.11765361 0.41496244 0.41938785 -0.15920968 0.10792997 -0.5173337 0.029205447 -0.01662063 0.2818591 0.2894131 -0.10584124 -0.49759018 -0.14316298 0.38364863 -0.3115526 0.14521764 -0.1744228 -0.12721701 -0.07136507 0.5316484 -0.1772976 -0.67560947 0.57607645 0.5819097 -0.19690232 0.001333711 0.5711097 -0.19868296 -0.11129994 0.03263584 0.14539078 0.12195756 -0.11887745 -0.46328712 0.45750812 0.13797486 0.045144655 0.2904305 0.12275766 0.395263 -0.28430253 0.45499566 0.10929393 -0.04081077 0.35451195 0.17066549 0.5703648 0.051411834 -0.27809253 0.096654676 -0.1514933 0.0033415407
49 -0.1757958 -0.3125891 -0.46537632 0.17990473 0.24108714 -0.10098497 0.2161355 -0.49285012 0.4196064 -0.17459294 0.12001845 -0.025427237 0.027637923 -0.5132328 0.28790373 0.085196525 0.012030368 0.07943243 -0.6910302 -0.36501142 0.106084585 0.22567 0.08686919 -0.14644031 0.11758124 0.19028933 0.40641502 0.13301045 -0.014819775 -0.1731289 0.03880097 0.18898387 0.08299178 -0.22655933 0.038172707 -0.002238261 -0.027567336 0.16391434 -0.076701306 -0.4529862 -0.010616214 0.2140707 -0.14422743 0.32509834 -0.4745041 0.33497354 0.15217748 -0.15534754 -0.11323996 0.017576141 0.1652965 0.30086708 0.3544203 0.042525783 -0.055634335 -0.31524566 0.1406917 -0.18879293 -0.09092142 -0.13902768 0.08109481 -0.509081 -0.1078828 -0.7216603 -0.23705603 0.5459748 -0.15604416 0.025970329 -0.31805098 -0.38233358 0.31267157 -0.10568423 0.4356341 -0.3165102 0.23510017 -0.37736428 0.1680053 0.40173554 0.42619672 -0.19338998 0.18569885 -0.5369296 0.05059661 -0.029781034 0.2554862 0.3155143 -0.12032991 -0.464275 -0.16077036 0.31799537 -0.28393725 0.13495179 -0.14127982 -0.1416581 0.0005184596 0.47383663 -0.1656313 -0.7164691 0.5311524 0.58406484 -0.23073503 -0.034532793 0.54470557 -0.31281543 -0.22839995 -0.011520095 0.12797073 0.1565896 -0.13244906 -0.5376953 0.46356007 0.09983883 -0.07179866 0.24156336 0.20139329 0.40408066 -0.31917816 0.45952004 0.077672005 -0.06840804 0.28932709 0.17266472 0.4388331 0.06031189 -0.15799388 0.0883315 -0.28669393 0.0035699338
448 0.2905932 -0.08949701 -0.09534742 0.13771553 -0.6403731 -0.35461676 0.4876131 0.2853398 0.41921297 -0.11869731 0.07485253 0.19568214 0.06915346 -0.43875843 -0.1706439 -0.08039415 0.040968414 0.27942142 -0.17767455 -0.3964507 -0.20358753 0.8140577 0.38172573 0.13176402 0.114628986 0.07658491 0.2441958 0.37694144 -0.1796336 0.36224532 0.10137177 -0.039223824 0.1719728 0.6797601 -0.17766212 -0.15844843 -0.46137774 0.37150106 -0.31114691 0.44192114 0.56545055 0.4216331 -0.12392899 -0.29653385 0.2573145 -0.1480693 0.021986008 -0.09434082 0.9098386 0.037239514 -0.21598305 0.44635153 -0.41262698 0.106982954 -0.26415703 0.091455646 -0.06743477 -0.27750123 -0.07282046 0.19665845 0.22146045 -0.05004688 -0.2306168 0.09954597 -0.11151165 -0.36597446 0.6118139 0.15691712 -0.7458527 -0.25524208 -0.23799026 -0.03181712 0.8996863 -0.35488668 -0.16699588 0.08478271 -0.16634767 0.18114866 0.3080776 -0.94196063 -0.22298194 0.029870706 -0.105181724 0.2395308 0.11107112 0.31287032 0.11734688 0.12017942 0.13407432 0.30690205 -0.45770922 0.278511 -0.1677443 0.00028085947 -0.41987932 -0.07654966 0.4929256 -0.38198096 0.62198 0.13818723 0.014567728 -0.0014605258 -0.08377853 0.28526196 0.6936355 0.20176657 0.17479137 -0.057776913 -0.25650784 -0.04073161 0.4039455 0.1341203 0.17773722 0.23059554 0.48454058 0.102325305 -0.07956454 0.001136054 -0.5512088 -0.22816649 -0.1779507 0.2551177 0.4789872 0.22429258 0.082481146 0.23633055 0.35565144 -0.24804303
97 -0.1722932 -0.41430876 -0.4617768 0.15963271 0.13826403 -0.1366865 0.26309496 -0.42615178 0.41352716 -0.23116411 0.09851659 0.056184962 -0.022045583 -0.48877406 0.23005536 0.036996026 0.03428043 0.029078212 -0.5570699 -0.3423146 0.039426424 0.093647555 0.25470233 -0.13096787 0.13809936 0.17491375 0.30629706 -0.03478377 0.12787534 -0.20099534 7.113794e-05 0.09871952 0.13629818 -0.37076795 0.017895116 -0.017579807 -0.013368 0.20639253 -0.11183773 -0.48762873 0.041393418 0.3050374 -0.09525542 0.44616562 -0.24446088 0.32258624 0.23080757 -0.26944652 -0.23138294 -0.0010553844 0.2651256 0.35071513 0.33137354 -0.121640466 -0.021071091 -0.33240774 0.18968067 -0.2069207 -0.090874486 -0.19844058 0.12050073 -0.5398998 -0.11377652 -0.7595099 -0.089579515 0.61422557 -0.13700038 0.19830734 -0.21899924 -0.28533915 0.3990455 -0.08601981 0.4924016 -0.3728835 0.28377602 -0.49102154 0.07184024 0.31482813 0.41546032 -0.24256632 0.19554715 -0.5391434 0.04485041 -0.07947534 0.24909694 0.26021913 -0.21970254 -0.36795262 -0.16575852 0.2870647 -0.28501183 0.19356498 -0.21745715 -0.202393 0.026675653 0.41579875 -0.10248942 -0.67606366 0.5262398 0.4879278 -0.14491336 -0.049327567 0.57388705 -0.16282171 -0.13023715 -0.05692641 0.16675414 0.22792782 -0.20731817 -0.56809217 0.39712426 0.15143524 -0.017212674 0.2622881 0.22858223 0.30646932 -0.28281954 0.41680744 0.09170359 -0.0794006 0.26370004 0.23731616 0.58101165 0.14836788 -0.16435947 0.11548744 -0.15697244 0.0764978
178 0.12780173 -0.31499195 -0.16927141 -0.32422107 -0.49547338 -0.2033887 0.31883305 -0.33478618 0.28691807 -0.12605695 -0.15355136 0.4145512 0.08920167 -0.133053 -0.023114933 0.077316456 -0.378519 -0.111614816 -0.0011380342 -0.44165522 -0.24797566 0.37916678 -0.39856854 -0.39848092 0.09323332 0.2267397 -0.17422973 -0.13836506 0.3459525 0.14507046 -0.090696834 -0.57317466 -0.0086043915 0.355106 0.16310793 0.023133622 0.088324025 0.34602454 -0.49904516 0.20091367 0.19183195 0.1929736 0.12229048 0.31214678 -0.51541203 0.52938056 -0.2346082 0.1101498 0.27550945 -0.32387775 0.10081216 0.09062834 -0.2793945 0.11537853 -0.7722782 0.5194124 -0.40276918 -0.3036271 -0.21152526 0.3028523 0.1323547 0.3633327 -0.09582383 -0.2669688 -0.45834646 -0.26701987 0.30509534 0.21974462 -0.40109393 0.32723323 -0.61923355 -0.08254965 0.30559862 -0.05908435 -0.70027214 -0.24687569 -0.036196377 -0.103393435 0.19130051 -0.10194576 -0.4519366 0.09053427 -0.16307801 0.13288128 -0.14971533 0.20501798 0.21445505 0.047446392 -0.042704437 0.11463455 -0.2032783 0.24907629 -0.19614205 -0.41222927 -0.080837086 0.48572493 0.88866 0.102275625 0.26986322 0.15823829 -0.033461835 0.0874101 0.067247756 0.0128077045 0.08036107 -0.28460264 -0.052882835 -0.04827419 0.23709868 -0.25860366 0.3785774 -0.0022954934 -0.33895463 0.18839906 0.008067358 -0.013793014 0.064151324 0.05484086 0.09077264 -0.23382121 0.07074167 0.21345988 -0.05458889 0.082493916 0.1349819 0.39361075 0.19367716 0.2891636
366 -0.4378359 -0.41125244 -0.6138997 0.05918062 0.14776556 0.50021505 0.18951094 -0.18585141 0.2762577 -0.35796544 -0.014070911 0.44627848 -0.020270947 0.3972345 -0.6434718 -0.47006163 -0.062667325 0.6228881 -0.12952621 0.45449075 -0.12471177 0.23662433 0.09726151 -0.33023804 0.3703861 -0.08198792 -0.21477278 -0.13677767 0.08172712 0.2765595 0.07574535 -0.44502607 0.3250089 0.06058063 0.33765748 0.26750422 -0.19675714 0.12613812 -0.4756907 -0.5316529 -0.38268617 0.48529464 -0.17441994 -0.72927487 -0.40488213 0.3584192 -0.29119977 0.14233246 -0.4456629 -0.619105 -0.17001869 -0.51202667 0.080836885 0.602006 -0.01602344 -0.16698249 0.36401623 -0.039077252 -0.008156596 -0.2925487 0.13506822 0.42805785 -0.14181712 -0.4161927 -0.0970467 -0.19189121 0.24713682 0.46871918 -0.7530108 0.019124616 -0.17016245 -0.2780892 0.21626559 -0.6869118 0.19573045 -0.22499599 -0.5196473 -0.22166473 0.0063393335 0.060054798 0.0888531 -0.38931927 -0.38184804 0.17797641 0.04168928 -0.19642 -0.14689761 -0.022962807 -0.7820515 0.04090897 -0.6871787 -0.41135088 -0.35061663 -0.29342112 0.03238945 0.39376765 0.47623748 -0.38234425 -0.2251459 0.14358866 -0.19222069 0.02132177 0.06685483 -0.090367995 0.2595319 0.33127937 -0.18608247 -0.37243158 -0.216633 0.15494356 0.67596847 0.2605515 0.2146855 -0.29205915 0.100883745 0.15694089 -0.110556394 0.18046074 -0.04792752 -0.14306805 -0.61712587 0.21684948 0.5574215 0.7569781 0.7762056 0.12813616 -0.24905595 -0.5611873
5 -0.08126786 -0.43686065 -0.4741805 -0.3683441 -0.052558377 -0.21431255 0.08205043 0.046543173 0.033948172 0.2513914 -0.3076185 0.26190826 -0.18649113 0.27500963 0.04654092 -0.4063094 0.5834316 -0.06993754 0.3284855 0.09291469 0.2041391 0.321243 0.2115494 0.029299613 0.55640787 -0.03982698 -0.46049383 -0.24050745 -0.23265044 0.10985884 0.24819985 -0.05540982 -0.3231247 0.26852798 0.08137476 -0.23015217 -0.070027426 0.06651997 -0.1942236 0.12582959 -0.062201515 0.052363966 -0.36572307 0.07765547 -0.24934444 0.2369454 -0.33075905 0.1913776 -0.18149523 0.44610426 -0.15100783 -0.10255361 0.3466402 0.15759215 -0.10329793 -0.113340236 0.11488613 -0.050557327 -0.14705035 0.24770993 0.094616935 -0.22024494 -0.25769815 0.23516294 0.10763989 0.13861242 0.1080943 0.3693235 -0.41895056 0.23223132 0.10768065 -0.2280893 0.812225 -0.7103395 0.18260643 -0.48845395 0.22598766 0.3246701 -0.22246885 -0.41423678 -0.22421652 0.008549558 -0.5844298 0.10184401 0.43093464 0.29780874 0.3623828 0.20548858 0.086075544 0.40380108 -0.08236564 -0.12285917 0.16417901 -0.35235497 -0.8040519 0.2516217 -0.44128218 -0.39879128 -0.14024898 0.68739665 -0.36434758 -0.19126107 -0.19758183 -0.02125302 0.05369971 -0.14534676 0.05052947 0.2505024 -0.37490696 0.0665131 0.31677902 0.101787634 -0.17145005 -0.2459211 -0.36225608 0.56403583 -0.28314036 -0.029244745 -0.39371943 -0.055715628 -0.15851875 0.081845544 0.4040679 0.28104722 0.080977686 0.356665 0.2585946 0.031189084
73 -0.2046218 -0.3801918 -0.49188203 0.19444522 0.23801558 -0.0694298 0.26807263 -0.40852538 0.4245662 -0.17250058 0.08500705 0.05375257 0.04420236 -0.4805308 0.26581094 0.019358832 0.0003897266 0.14300205 -0.6510554 -0.3459182 0.031532854 0.18677095 0.10660295 -0.1666968 0.119587414 0.26495516 0.36433598 0.087142006 0.07849801 -0.101650015 -0.029778194 0.124298245 0.099958465 -0.2949706 0.027493313 0.006512971 -0.034806155 0.15379357 0.023092858 -0.5426783 0.02439148 0.2511316 -0.11098249 0.35336185 -0.3262552 0.2441637 0.20097466 -0.14805983 -0.15609558 0.051274657 0.18024008 0.3102148 0.32978678 -0.06821355 -0.024336 -0.34476358 0.22326939 -0.19603762 -0.019549772 -0.2087477 0.10463177 -0.51946014 -0.050230958 -0.78757155 -0.13296495 0.4970516 -0.14860994 0.08323441 -0.2242777 -0.34975487 0.27467674 -0.060880713 0.4979114 -0.29636592 0.23009773 -0.3824534 0.15737058 0.34376037 0.43208396 -0.21473789 0.14711739 -0.4889111 0.029803371 -0.082918674 0.19742998 0.28862122 -0.13318133 -0.48079124 -0.186421 0.2899688 -0.2827293 0.21465403 -0.1685218 -0.14952038 -0.00065053964 0.5146573 -0.15604047 -0.65767014 0.5818949 0.5332229 -0.2025254 -0.05208822 0.5312439 -0.20473295 -0.14824331 -0.00848937 0.15922111 0.16669592 -0.24406733 -0.47152486 0.50103074 0.16281551 0.002390755 0.36192286 0.1362419 0.31707168 -0.29079765 0.46306956 0.09086374 -0.077710055 0.28713432 0.21873136 0.5242991 0.08151472 -0.18514729 0.10434646 -0.13252716 -0.00935881
107 -0.2079992 -0.45768738 -0.4592736 -0.4425353 -0.12539217 -0.25419277 0.11967407 0.025289414 0.11423499 0.2771543 -0.24464492 0.29732025 -0.19276543 0.30141097 -0.03348402 -0.35609466 0.5383361 -0.051739577 0.38407004 0.16001457 0.16773254 0.23799822 0.19320114 -0.0051246597 0.5627267 0.03985401 -0.4295413 -0.30757546 -0.24504264 0.1632374 0.22873275 -0.11035922 -0.37525997 0.28437406 0.010388287 -0.21552067 -0.0025456971 0.08414201 -0.13349919 0.11669693 -0.065734655 -0.080945134 -0.40844235 0.12692718 -0.27845597 0.07969179 -0.2985985 0.09321216 -0.18733047 0.49831176 -0.21994017 0.0038118805 0.3291597 0.2156973 -0.042112954 -0.10605129 0.0679312 -0.031464458 -0.12851457 0.21688473 0.059859455 -0.18281463 -0.2576329 0.23528026 0.05643204 0.11501805 0.086709134 0.29134482 -0.49685714 0.27418533 0.06639467 -0.22947448 0.73774076 -0.69391 0.26888287 -0.5466641 0.20383331 0.38322958 -0.22211625 -0.31467736 -0.11983226 -0.0077206893 -0.5245255 0.04587481 0.43285134 0.1804549 0.38725778 0.17156354 0.052897796 0.411003 -0.07565363 -0.08297443 0.14610955 -0.31974727 -0.8056215 0.3052082 -0.4423969 -0.44841465 -0.009269268 0.6350629 -0.32247087 -0.14635135 -0.09258174 -0.031637035 0.045396417 -0.18447055 0.109759144 0.2886598 -0.3940577 0.13405602 0.37571147 0.07237508 -0.12740326 -0.18933566 -0.39498007 0.5361472 -0.33784524 -0.054250896 -0.27481726 -0.109400585 -0.20207055 -0.008037786 0.50505817 0.3830392 0.10564812 0.41005805 0.2733501 0.021041889
227 -0.13411447 -0.33375567 -0.50760525 -0.38124606 0.011147511 -0.05258032 -0.06498922 -0.013418387 0.054806672 0.35748526 -0.32404396 0.27636993 -0.13159484 0.30003583 0.06631159 -0.40483108 0.45706457 -0.09819914 0.30007103 0.120882355 0.23396228 0.31693855 0.21411148 0.0080095455 0.5845592 0.050936535 -0.48905623 -0.21503337 -0.20732078 0.19977003 0.23709588 -0.10384395 -0.37144703 0.23257078 0.09100128 -0.2814518 0.035014957 0.09465186 -0.27093124 0.25531498 -0.0091622975 -0.026324376 -0.46917126 0.09938972 -0.30196992 0.26050466 -0.2551738 0.10894201 -0.16731721 0.45194352 -0.2342319 0.009272081 0.272586 0.17602234 -0.018003896 -0.0864522 0.1478503 -0.052609663 -0.090250105 0.25697967 0.07550022 -0.11564723 -0.23371282 0.31906617 0.18600659 0.119437896 0.141404 0.39696616 -0.50478256 0.11724517 0.095931455 -0.2504521 0.7614565 -0.7757103 0.18223245 -0.4919153 0.23258352 0.24882609 -0.18832864 -0.42144075 -0.24546494 -0.0363039 -0.62565386 0.1193228 0.38112345 0.29472762 0.36859208 0.20455946 0.12287983 0.47261447 -0.16661789 -0.12382297 0.19024856 -0.4403154 -0.7304315 0.11197009 -0.32759923 -0.54135084 -0.15777029 0.5660361 -0.3033589 -0.14849149 -0.27349743 -0.05431401 0.104956865 -0.13692532 0.057039987 0.27288073 -0.3211703 0.15912437 0.37001684 0.055850063 -0.07728405 -0.27044854 -0.3750636 0.5379137 -0.3319835 0.051518336 -0.3600883 -0.038924318 -0.11342549 0.03248984 0.3699912 0.3312634 0.06950886 0.24545635 0.17113987 0.09689917
82 -0.14979045 -0.26698768 -0.49724633 0.15734373 0.20252204 -0.020185554 0.15686676 -0.49505413 0.4224733 -0.14501856 0.15958881 0.08240627 0.004006508 -0.48617455 0.24477692 0.048284065 0.029332642 0.018133897 -0.57436323 -0.3800033 0.023387281 0.1700986 0.1897433 -0.23474716 0.066002056 0.1829652 0.33516136 0.07109878 -0.0022755042 -0.05795764 -0.010813748 0.22763759 0.11834368 -0.29783046 -0.010033926 -0.007183859 0.03947124 0.09617897 -0.12135098 -0.42406777 -0.002635316 0.30178872 -0.09571407 0.38288063 -0.3067482 0.22415145 0.2094927 -0.12561613 -0.10951696 0.011743104 0.2128101 0.33607823 0.3672971 0.08943717 0.010120512 -0.32140195 0.19369559 -0.16620708 -0.08018844 -0.106038615 0.1346401 -0.5204403 -0.08142431 -0.7109854 -0.10421459 0.5766278 -0.18902339 0.08507338 -0.37643674 -0.4224901 0.36418214 -0.079660475 0.43652686 -0.36274722 0.1622558 -0.43334538 0.15843351 0.30757064 0.48040184 -0.18343844 0.09289599 -0.5812421 0.079643436 -0.011405483 0.2105897 0.2535638 -0.13694127 -0.3707759 -0.14378108 0.36041704 -0.32263494 0.24864545 -0.22643845 -0.1867812 0.063001424 0.46252856 -0.11645961 -0.71618766 0.5370524 0.53113985 -0.17279197 -0.06937002 0.5892988 -0.2530132 -0.08525343 -0.016897418 0.16957553 0.1611171 -0.13567422 -0.52550197 0.47596174 0.1446685 -0.02953801 0.23996325 0.1250443 0.38182336 -0.27118054 0.4505022 0.1684614 -0.1040569 0.2437929 0.1452321 0.45311233 0.11288108 -0.25733012 0.101909995 -0.16507865 0.063499205
136 -0.27158293 -0.38756475 -0.4779394 0.12684835 0.21632133 -0.1229486 0.2514284 -0.51645166 0.38360518 -0.197484 0.07255982 0.04647867 0.04661979 -0.47186723 0.29501176 0.03358766 0.009694449 0.051384125 -0.5244333 -0.30406836 0.07865559 0.18698105 0.13274592 -0.19262575 0.20798495 0.2661165 0.2816716 0.12416025 0.03290546 -0.14698394 0.020335943 0.097630545 0.12672837 -0.28858837 0.032461565 -0.020703206 -0.07767887 0.16666695 0.025401728 -0.53683496 0.0021362407 0.2055064 -0.1305661 0.4011327 -0.3212446 0.23728909 0.2162095 -0.23395592 -0.20681614 0.042848058 0.2428167 0.34963873 0.2896254 -0.0700998 -0.009205236 -0.34026355 0.204505 -0.19494271 -0.04154629 -0.18465726 0.148957 -0.5182051 -0.06977018 -0.7141666 -0.16344196 0.51994866 -0.13522264 0.064709425 -0.22836584 -0.30234832 0.34165412 -0.027237313 0.46479395 -0.31195548 0.25419712 -0.34003672 0.14032704 0.31969464 0.44657972 -0.2170754 0.17085637 -0.57051027 0.054080486 -0.07890613 0.26231048 0.29148665 -0.13952664 -0.41739315 -0.2168724 0.31966707 -0.31066036 0.25083062 -0.2083508 -0.20403881 0.020079017 0.46238774 -0.14660548 -0.6967336 0.56403345 0.46161428 -0.17408222 -0.036260508 0.5811004 -0.24633782 -0.12931907 0.013798016 0.19615065 0.19742137 -0.22713584 -0.54349536 0.52754456 0.110820234 -0.03000522 0.32050526 0.1787359 0.37728027 -0.31311986 0.42829296 0.08302597 -0.16148452 0.35286212 0.24645498 0.53791165 0.11734678 -0.17697667 0.15958796 -0.035828236 0.018146604
90 0.18920368 -0.8096301 -0.49406397 -0.23249188 0.16124466 -0.26515666 -0.0038924564 0.10935872 0.09644522 0.082194656 -0.41546482 -0.3673646 -0.13055068 -0.5523043 0.29070228 -0.17623521 -0.5596756 -0.03773973 -0.31564826 0.34145603 0.09338419 0.26776797 0.07633657 0.19272292 -0.09447837 0.25876588 -0.18782882 0.38810915 0.6414912 -0.17064896 0.16320983 0.15775397 -0.026836907 -0.36198857 0.1868407 -0.4234188 0.353633 -0.20201498 -0.61803883 0.3927195 0.049982082 0.64246964 -0.025013043 -0.09640082 -0.2209935 -0.23174141 -0.095432006 0.1393503 -0.14215024 0.39874348 -0.24120563 0.06563673 0.14495727 -0.27193415 -0.30363166 0.43613315 -0.31745246 0.13603444 -0.5276428 0.21742223 0.17249493 0.41599452 -0.37940428 -0.5514038 0.09018078 -0.15304543 -0.13628985 0.017503165 -0.030656336 0.26856083 -0.051728174 -0.16091152 0.35044044 -0.44302377 0.52288437 -0.05601231 0.077557385 0.5305697 -0.23778977 0.029693298 -0.29653966 0.24682197 -0.15712297 -0.0038433901 -0.33099172 0.20293508 -0.097996965 0.22712371 -0.09494107 0.043860335 0.10177567 -0.23478696 0.115619645 -0.07155687 -0.03321855 0.22137538 0.13639985 -0.44902784 -0.24417913 0.25828323 0.26064453 -0.09156456 0.4109843 0.5511269 -0.1757639 0.14175504 0.3293418 -0.12803893 -0.1649593 -0.38170537 0.48277932 -0.023575313 -0.48528343 -0.01269921 -0.20539582 0.56996566 -0.6138317 -0.092965536 0.3074757 -0.49932408 -0.01942295 -0.28822398 0.10602815 0.5009337 -0.40087932 0.060375366 -0.36945242 -0.4920749
194 0.056011267 -0.49461907 -0.51022756 -0.44386542 -0.19963403 -0.18794578 0.10415888 0.017646236 -0.04068113 0.28971153 -0.3040195 0.1982923 -0.07404921 0.3075328 0.13420063 -0.34890723 0.59641916 -0.017677654 0.4513039 -0.0023819627 0.105814435 0.3041455 0.21617152 0.010643858 0.63395095 0.07833224 -0.52283496 -0.11430221 -0.27035868 0.18202522 0.26624885 -0.06903057 -0.20809935 0.32132575 0.05032268 -0.36232695 -0.021248695 0.16322549 -0.1438453 0.22291256 -0.026203034 -0.025962222 -0.3502499 0.21272196 -0.36769077 0.18585257 -0.3441085 0.0546951 -0.21224958 0.5238336 -0.106050596 -0.104518846 0.30710208 0.3195988 -0.06163312 -0.10616609 0.064965695 0.02542066 -0.12686843 0.28463888 0.1456167 -0.14604315 -0.2578147 0.18875587 0.11635989 0.22933392 0.17496037 0.264748 -0.43169916 0.20940562 0.12506837 -0.2616251 0.777448 -0.64767045 0.27740887 -0.42924222 0.22073717 0.22662577 -0.21410699 -0.35013786 -0.08250413 -0.1340129 -0.5314301 -0.0055157654 0.39463267 0.17972942 0.41549435 0.18321174 -0.03195011 0.3581647 -0.13718629 -0.058164943 0.24451928 -0.37679675 -0.72037673 0.25171673 -0.32254416 -0.46800184 -0.10305043 0.6162381 -0.33570495 -0.1679385 -0.21899332 0.03616657 0.053458154 -0.00061595294 0.0094042495 0.24124841 -0.34862772 0.16793554 0.3802237 0.14607438 -0.112374835 -0.3606586 -0.35729116 0.6021061 -0.31693304 -0.10775642 -0.33918262 -0.19962405 -0.19817452 -0.0011136059 0.48173785 0.27403152 0.0856397 0.3001916 0.23066737 0.12003848
118 0.12501036 -0.8933675 -0.37016335 -0.14269088 -0.033975046 -0.58412737 -0.65326035 -0.37293208 0.3817896 0.529385 -0.1034232 0.108929 0.10914114 0.32287017 0.8535004 -0.68794036 0.022726823 0.37038648 0.35339418 -0.6547363 -0.3179247 0.21432711 0.2665179 0.49527964 0.043452002 -0.08415077 0.10630286 0.370424 0.15184577 -0.04265684 -0.0030429559 0.09074336 0.37224475 -0.17391874 0.2911744 -0.16626476 -0.40774298 -0.3648274 0.019242587 0.022496723 0.019538898 0.4561564 -0.19716986 -0.05385059 -0.01541193 0.28440967 0.106345646 -0.12423942 0.00815409 -0.21010873 0.15222669 0.47893304 -0.086944155 -0.32746342 -0.39443314 -0.16698833 0.26858664 -0.5405834 -0.48762763 -0.23528278 0.1917461 -0.19510059 0.059921656 -0.29851326 -0.35666183 -0.1829228 0.20516843 0.12141945 -0.3409214 -0.18268189 -0.51898736 0.13018301 0.017017689 -0.12899485 -0.05597398 -0.20385322 -0.044191778 0.4430183 -0.43744838 -0.12649262 0.43026596 -0.0027710812 0.2709059 0.108008735 -0.3268563 -0.104980946 0.21314181 0.05418849 -0.047449484 0.3987891 0.20529059 -0.042200763 -0.44046688 -0.012042783 -0.11725737 -0.02007776 0.5394994 -0.64762956 0.45659348 0.21090125 -0.13957766 -0.07707251 0.39534083 -0.22334109 0.039977424 -0.07813164 -0.036297005 -0.15366167 0.19745928 -0.39910725 0.61485076 -0.036781486 -0.3675541 -0.1844363 0.12738328 0.37094203 0.2897678 0.25234124 -0.040540896 -0.17292503 -0.10438097 0.32312754 0.061533734 0.33245084 0.26384285 0.1932651 -0.21816586 -0.18410486
186 -0.23579793 -0.30875933 -0.4626588 0.12245148 0.19506095 -0.01970081 0.2553872 -0.5579229 0.40154982 -0.08876617 0.047629293 0.01792775 0.020942874 -0.4946899 0.34240198 0.05441394 -0.017036978 0.102738984 -0.5290873 -0.3420402 0.15515271 0.1698627 0.1439162 -0.14052671 0.20530432 0.20574717 0.27759358 0.07926355 0.058742534 -0.111903295 0.01405601 0.1384315 0.10987558 -0.23711424 -0.039419305 -0.026258996 -0.027715212 0.13543333 -0.061358374 -0.48735628 -0.013875874 0.2236967 -0.045730583 0.46221018 -0.24764408 0.2222817 0.28710866 -0.28332272 -0.2555815 0.107884236 0.27375424 0.2846629 0.32491398 -0.088708214 0.0040445435 -0.2715134 0.298271 -0.14937626 -0.073269755 -0.12412153 0.053337086 -0.57490104 -0.06533706 -0.629802 -0.02953116 0.5782627 -0.1926312 0.15481032 -0.30734676 -0.34449047 0.3834307 -0.119396284 0.3744579 -0.26499683 0.2519319 -0.41183785 0.07711702 0.29977056 0.4082157 -0.18835576 0.21758333 -0.56082624 0.088172 -0.03389385 0.19083422 0.25392845 -0.17286023 -0.47034293 -0.13590132 0.36478853 -0.38511246 0.26367986 -0.2249541 -0.20744546 0.062486976 0.45092508 -0.005819736 -0.662812 0.5628847 0.5104207 -0.24005094 0.044084102 0.6003688 -0.200541 -0.096304595 -0.07658976 0.1953118 0.22374813 -0.096240565 -0.4981281 0.60680807 0.21947274 0.048168093 0.32112342 0.15456815 0.29876354 -0.26735896 0.44618654 0.2056427 -0.1463505 0.2619993 0.15407646 0.5585702 0.080869794 -0.22428145 0.16300277 -0.211859 0.033979986
116 -0.11495094 -0.33895347 -0.5568451 0.11780468 0.18249302 -0.060174566 0.10469086 -0.45145118 0.44175175 -0.16596805 0.13726106 0.033252906 -0.031636328 -0.46009362 0.24455859 0.028805763 -0.06526125 -0.0010092695 -0.5671165 -0.34730625 0.090026654 0.19627194 0.13396898 -0.15797746 0.14969987 0.24576332 0.324484 0.01771216 0.045251954 -0.115070716 0.004437432 0.14683181 0.13112365 -0.30341202 0.09070003 -0.004334947 -0.0066248463 0.122972414 -0.055438805 -0.5261261 -0.0072963927 0.16982734 -0.115714744 0.3268262 -0.39691553 0.26914048 0.17618336 -0.16684671 -0.1781448 -0.017783882 0.18920311 0.3595718 0.36552492 0.028846508 0.02646867 -0.33324385 0.18929113 -0.16752866 -0.052306145 -0.178293 0.09524317 -0.5444184 -0.048557613 -0.7229929 -0.22703658 0.5265886 -0.10623273 0.07066468 -0.3252015 -0.32950163 0.34836158 -0.112930074 0.3801358 -0.34577635 0.24678256 -0.4096436 0.15408202 0.32345888 0.50423086 -0.12136073 0.11494524 -0.59776384 0.03277343 -0.07976634 0.33186346 0.22189598 -0.09647008 -0.3640095 -0.096314356 0.3183184 -0.25489947 0.26255864 -0.09411559 -0.14739653 0.029964153 0.55366355 -0.085709974 -0.73442364 0.59496146 0.45199618 -0.21413432 -0.017861314 0.60330117 -0.27469093 -0.11939013 -0.022058094 0.18070453 0.20392905 -0.1069827 -0.5304637 0.39584002 0.13490753 -0.07080169 0.3099707 0.22230025 0.36989948 -0.3341875 0.41039154 0.11201732 -0.06033815 0.31414023 0.17162693 0.5172984 0.15015467 -0.22810248 0.11250549 -0.11495571 -0.00043473177
137 -0.07592178 -0.38809717 -0.49130175 -0.39462805 -0.09650603 -0.17341615 0.026620341 0.032152645 0.016114455 0.18274592 -0.2787795 0.15680122 -0.21255237 0.25528675 0.041171495 -0.40630734 0.59140193 -0.104240485 0.39968446 0.09393094 0.2821055 0.36550003 0.23233989 0.0942352 0.58185333 -0.00928645 -0.5128927 -0.2370115 -0.3148887 0.124281526 0.24335304 -0.0804691 -0.3184714 0.2686043 0.121912464 -0.19726717 -0.015291957 0.09580803 -0.16636744 0.16959433 -0.07357057 -0.09172144 -0.33337048 0.03339961 -0.2558055 0.17730829 -0.39994773 0.1450831 -0.16670568 0.4321547 -0.1245528 -0.07948703 0.2659742 0.23565887 -0.0041508446 -0.049795236 0.1634312 -0.049710672 -0.11817293 0.31102607 0.07547307 -0.09267246 -0.22501318 0.33673617 0.068882905 0.09919066 0.15908171 0.33036548 -0.43012172 0.20900503 0.14633638 -0.30971873 0.6611703 -0.70566314 0.23581555 -0.42937455 0.19601989 0.29333404 -0.15958841 -0.2839557 -0.24215011 -0.12556334 -0.5169534 0.053384073 0.44715178 0.29413873 0.3589948 0.2264385 0.07205171 0.3907444 -0.019549428 -0.1505737 0.25844643 -0.38590375 -0.703598 0.27705735 -0.38316676 -0.48478615 -0.13672324 0.60768956 -0.3791208 -0.109246254 -0.073332265 -0.07792981 0.048950244 -0.20257664 0.049831245 0.24948168 -0.34909144 -0.010850334 0.4597241 0.10604008 -0.17573172 -0.24475932 -0.38829985 0.6035753 -0.26701927 0.021391928 -0.37149885 -0.18161426 -0.20459452 -0.040834263 0.48161697 0.35868862 0.12250276 0.33820528 0.21888125 0.050881177
52 0.40975273 -0.076204196 -0.20462592 -0.076795116 -0.65379053 -0.41922057 0.73607427 0.27719617 0.34368753 -0.1502603 0.09881762 0.24392982 0.06872001 -0.2935603 -0.17589857 -0.0832178 0.03571546 0.27557996 0.05948408 -0.43865755 -0.26719496 0.8141513 0.25742754 0.18757758 0.12199075 0.02086617 0.31940913 0.4490791 -0.31369784 0.45429558 0.07173803 -0.069647476 0.22782835 0.7850023 -0.25493127 -0.24596484 -0.3941911 0.40249893 -0.37363377 0.47168502 0.5949503 0.38916504 -0.15307748 -0.2254293 0.10518575 -0.24546774 0.0071308473 -0.17825603 0.9555844 0.121922635 -0.27757138 0.53010416 -0.462591 0.114646204 -0.2721349 0.1879224 -0.0504165 -0.29979458 -0.12356563 0.19853672 0.1392794 -0.029095614 -0.28760195 0.15212229 -0.08941832 -0.30960128 0.5872914 0.023762593 -0.8496418 -0.27684528 -0.3341516 0.046351966 0.7351472 -0.24100466 -0.140899 0.14128591 -0.19874258 0.1644191 0.26705322 -0.7976398 -0.008938565 0.01106621 -0.031203358 0.23835444 0.15590386 0.21499754 0.14331904 0.0801343 0.23550683 0.38153863 -0.4861404 0.3065884 -0.12224604 -0.01548478 -0.35203677 -0.1242077 0.44598502 -0.4919007 0.66434246 0.21777388 0.03122263 0.025011258 0.010473072 0.31647247 0.5416572 0.2492926 0.21557346 -0.0042860126 -0.20078008 -0.0050455127 0.40597996 0.21773739 0.24253935 0.17965259 0.5240978 0.06530675 -0.13304745 -0.07366756 -0.38734254 -0.2583008 -0.22518148 0.15683764 0.56065804 0.28657538 0.06218235 0.22288395 0.25795475 -0.204668
42 -0.003189941 -0.5571314 -0.4269878 -0.39696485 -0.15968609 -0.21167628 0.018293058 0.06363188 -0.060947347 0.284236 -0.38420272 0.22689897 -0.12529723 0.2553511 0.13882561 -0.46198958 0.67176354 -0.061710477 0.4411027 0.09527381 0.26053205 0.28694496 0.26050407 0.07205473 0.63631886 0.06011979 -0.5078705 -0.19286731 -0.28224784 0.21099772 0.19344896 -0.005648665 -0.28868508 0.3047783 0.05577298 -0.28585795 0.020477206 0.042045787 -0.18755145 0.16904573 -0.034200914 0.022740096 -0.3617433 0.10991235 -0.24115671 0.09420954 -0.28466827 0.13251598 -0.2642496 0.41125458 -0.07558097 -0.10308615 0.32872126 0.24124475 -0.021157945 -0.15054344 0.12608972 0.0013498097 -0.22171588 0.29516807 0.15723145 -0.22796068 -0.23917542 0.26094344 0.036800943 0.1388975 0.20855978 0.3657707 -0.446274 0.17682922 0.17429705 -0.31018892 0.7455605 -0.6146426 0.24383639 -0.4153713 0.18018164 0.27984214 -0.21104573 -0.36224023 -0.24220446 -0.078908786 -0.48073253 0.06321342 0.3910415 0.21673472 0.37588233 0.21346006 0.02663334 0.34468177 -0.026051538 -0.11458187 0.12953563 -0.38952607 -0.70899373 0.1977629 -0.38397613 -0.45804042 -0.028019905 0.67418635 -0.3729678 -0.18774591 -0.1195657 -0.046443496 0.08289612 -0.09889596 0.06442401 0.25121048 -0.3388479 0.048235267 0.4477103 0.21835701 -0.14266248 -0.21217401 -0.34667128 0.68015426 -0.35605803 -0.04838254 -0.37707567 -0.18991801 -0.26951742 0.010806786 0.4455914 0.2898884 0.08832706 0.31087062 0.23980795 0.12856452
251 -0.16970201 -0.38453302 -0.48533452 -0.41621435 -0.08577696 -0.09598757 0.0129855005 -0.0773183 0.14351927 0.32220462 -0.26737693 0.29742163 -0.1194547 0.2726922 0.059317976 -0.40975714 0.49620628 -0.02906588 0.395814 0.06954175 0.15410186 0.35910404 0.20261759 0.057683557 0.65290326 0.039383747 -0.5374535 -0.2543394 -0.23471865 0.14074771 0.259462 -0.10244437 -0.28533024 0.22940923 0.06377338 -0.24041194 0.024648044 0.1619672 -0.23106919 0.23245874 -0.040103503 -0.044339456 -0.4270076 0.1526744 -0.31974566 0.2605363 -0.33199933 0.13508764 -0.17587979 0.51676995 -0.18413329 -0.0010131567 0.3467729 0.23172583 0.0019197521 -0.03611014 0.11602843 -0.011532773 -0.17907989 0.321336 0.11281608 -0.14241906 -0.2833538 0.30819607 0.037288178 0.21829794 0.19038433 0.29849166 -0.47159272 0.2460123 0.13757509 -0.24281132 0.76283765 -0.7472789 0.20721689 -0.4913602 0.25913364 0.30127993 -0.14262176 -0.28272074 -0.09650934 -0.10151234 -0.54082555 0.07568554 0.4496614 0.27039123 0.39142305 0.20001969 0.099670894 0.42249426 -0.13580513 -0.055292893 0.19991748 -0.36008963 -0.73474044 0.20582233 -0.46102285 -0.44569105 -0.09310476 0.5599797 -0.33456713 -0.083967015 -0.22140904 -0.050376974 0.051058345 -0.15491259 0.12328003 0.30455226 -0.29169157 0.11214304 0.29005077 0.09039879 -0.07691871 -0.17675975 -0.2856991 0.4795312 -0.34962386 -0.07672438 -0.34228387 -0.10181738 -0.15203008 -0.02113936 0.45959258 0.35033372 0.08052455 0.275204 0.19025937 0.055790756
70 0.1288669 -0.7895966 -0.5084312 -0.17358348 0.23080465 -0.24218868 -0.1261446 0.10299318 0.08139969 0.13577586 -0.36945271 -0.30195805 -0.17068744 -0.53613216 0.28710765 -0.3004392 -0.60780954 0.03030068 -0.26114905 0.5226619 0.1508349 0.29047105 0.098077685 0.18194717 -0.094953105 0.29708257 -0.22880495 0.33411244 0.6099336 -0.10686228 0.18272312 0.17393705 -0.008561175 -0.3287588 0.15204605 -0.4770572 0.31786668 -0.24119578 -0.6247638 0.34146115 0.0755841 0.64854515 -0.10883082 -0.101330005 -0.21989886 -0.2492576 -0.021746766 0.13117279 -0.12258058 0.41053548 -0.29149616 0.15396506 0.27672216 -0.30359903 -0.34806412 0.49580467 -0.26054016 0.07541185 -0.6251477 0.17283875 0.18798949 0.3901684 -0.35490486 -0.5867344 0.04036359 -0.18384166 -0.08226096 -0.03049043 -0.03622752 0.10002055 -0.069612734 -0.15305577 0.34397087 -0.35183263 0.6249888 -0.06433107 0.058236253 0.5640669 -0.12808125 0.012037558 -0.28760904 0.26978934 -0.12048985 -0.05125894 -0.25330418 0.1993042 -0.12255344 0.22167343 -0.056135286 0.092964195 0.11323941 -0.20828167 0.10742663 -0.031531528 0.007000356 0.3393229 0.05298349 -0.36614263 -0.1730477 0.14450838 0.25056738 -0.07707342 0.38851193 0.6276264 -0.17203625 0.11488039 0.36249435 -0.09701121 -0.17857394 -0.38935003 0.47834143 -0.011252276 -0.46371233 0.023626382 -0.15776072 0.52803934 -0.67645097 -0.05974476 0.2928702 -0.5253198 -0.027161183 -0.31119156 0.060926806 0.46579653 -0.41048512 0.09887872 -0.34448212 -0.3518091
262 0.3015171 0.041475892 -0.21131763 0.087146446 -0.5845515 -0.23754236 0.49880105 0.2635369 0.43227047 -0.041478623 0.11664664 0.32396883 0.026903141 -0.34072027 -0.121501386 -0.18025419 -0.01733026 0.22310002 -0.03406234 -0.42701352 -0.11546899 0.83719486 0.34134296 0.10759908 0.068819284 0.10179632 0.19448224 0.2848115 -0.25366056 0.49459425 0.071176566 -0.12548688 0.18317512 0.7018278 -0.23607847 -0.27478915 -0.2814384 0.42101827 -0.33383277 0.46298742 0.59236246 0.41471568 -0.13061155 -0.25849688 0.19055343 -0.20631863 0.17564125 -0.16672416 0.9369692 0.07998022 -0.2276576 0.60113436 -0.39229777 0.09937568 -0.2244731 0.20024593 0.0063973553 -0.286642 -0.09534031 0.21544729 0.1871052 -0.014807838 -0.2245404 0.14533575 -0.1158432 -0.35477468 0.6551697 0.11498212 -0.79922307 -0.35586634 -0.30225405 -0.04725437 0.68791926 -0.2578652 -0.17507467 0.08399615 -0.21153271 0.13777818 0.31402114 -0.75309205 -0.08199585 0.068541735 -0.051970005 0.20333374 0.12585749 0.24567543 0.14245872 0.11679876 0.24293743 0.45577416 -0.49587947 0.30262336 -0.14475174 -0.04952458 -0.2796715 -0.08307031 0.46304962 -0.41038188 0.6778956 0.12973675 0.010301504 0.0026427726 -0.033542138 0.3158731 0.7030984 0.29317418 0.19972394 -0.051587973 -0.1709162 -0.057874635 0.47831425 0.20735978 0.23561051 0.13834289 0.56489474 0.07771171 -0.23615466 -0.06429906 -0.47777414 -0.2977928 -0.21124798 0.27112067 0.56671834 0.27996418 0.046809595 0.27705196 0.35110757 -0.1361962
281 -0.5078536 -0.34759903 -0.6554742 0.092208914 0.11923506 0.6684358 0.2072808 -0.2541494 0.1640965 -0.32177588 -0.09294643 0.4934678 0.063668095 0.43867496 -0.56687105 -0.49119395 0.020141928 0.6034928 -0.089508764 0.42708328 -0.09914299 0.30195442 0.19587454 -0.3063246 0.4626973 -0.022275934 -0.27396992 -0.11578199 -0.07045172 0.38709933 0.035747144 -0.40262786 0.35675406 0.09874766 0.31372947 0.14476494 -0.011305577 0.14769562 -0.46242234 -0.46852204 -0.3551233 0.41964653 -0.15095556 -0.69880056 -0.4977957 0.23308188 -0.26648742 0.07519706 -0.45811915 -0.5399267 -0.13207795 -0.48415282 0.0092687905 0.66710925 0.12251395 -0.019691888 0.3305221 -0.04421914 -0.119363874 -0.21076977 0.18592082 0.4504106 -0.16959806 -0.41775045 -0.1863396 -0.16930084 0.34619474 0.40637064 -0.79721296 -0.035169143 -0.14680673 -0.39017478 0.08350437 -0.5955907 0.23512188 -0.1082506 -0.49883306 -0.33856767 0.07782233 0.19859843 0.109312624 -0.5091069 -0.22677161 0.15285026 0.08325827 -0.16997482 -0.07345511 -0.040466823 -0.8123325 0.07465852 -0.7173075 -0.37020367 -0.35078326 -0.34660828 0.16837129 0.41393825 0.44674 -0.41467455 -0.19678576 0.08455735 -0.2635905 0.13274223 0.08893866 -0.15532655 0.31159523 0.3134404 -0.14551228 -0.37202644 -0.09241113 0.21882252 0.79121953 0.29065543 0.28454992 -0.27564076 0.116926976 0.17404999 -0.2062688 0.20641802 0.05746583 -0.23965842 -0.6751925 0.16308397 0.6383379 0.83406466 0.77973795 0.13628232 -0.41173342 -0.45043144
403 -0.44543836 -0.48266637 -0.75878644 0.087328 0.03203348 0.6479709 0.11268478 -0.19332565 0.34990937 -0.37520605 0.026476374 0.5936625 -0.038299534 0.4003794 -0.6703926 -0.5751822 -0.010028722 0.5955694 -0.1426222 0.27022928 -0.095545 0.32388282 0.12981236 -0.3234772 0.34277955 -0.04682535 -0.1491013 -0.27021512 0.027262837 0.44949088 0.026074206 -0.43873417 0.26460633 0.09140513 0.33849818 0.25549674 -0.022746267 0.108691454 -0.38904893 -0.44588548 -0.29046676 0.3880078 -0.21740094 -0.78708667 -0.41325408 0.26491264 -0.31297985 0.09752553 -0.3184522 -0.5930198 -0.13980949 -0.4143793 0.12476904 0.6249434 0.028686346 -0.05483225 0.29820985 -0.14853701 -0.014355072 -0.2490904 0.10720627 0.50137156 -0.084759906 -0.38735196 -0.14550698 -0.20254165 0.40824383 0.37644723 -0.7532014 -0.06641446 -0.18810032 -0.33620498 0.2080807 -0.55017513 0.25502202 -0.14189887 -0.6106683 -0.19511418 0.0573591 0.17958286 0.12708876 -0.4432744 -0.38806337 0.10201197 0.09511655 -0.17852198 -0.12815987 -0.085237764 -0.70000476 0.0845632 -0.7263998 -0.48523587 -0.3219801 -0.2570566 0.027315365 0.45322222 0.2872095 -0.3517182 -0.18799436 0.20974353 -0.20672122 0.13023616 0.081162855 -0.09618868 0.24655572 0.256121 -0.21811727 -0.39711228 -0.18055299 0.22127867 0.73897004 0.2822342 0.27631775 -0.26873082 -0.027089367 0.13571781 -0.21425466 0.13440482 -0.05571316 -0.120080456 -0.66477925 0.09353813 0.6218843 0.6683685 0.7160917 0.10951743 -0.40642402 -0.44785514
314 -0.5304571 -0.39362827 -0.65393424 0.07195494 0.20543225 0.6599056 0.2995932 -0.21942885 0.10947029 -0.3536375 -0.18229477 0.48648763 0.02556449 0.42695242 -0.62198246 -0.490194 -0.12715974 0.5721978 -0.027227983 0.4470768 -0.12693807 0.24831617 0.100999944 -0.19271976 0.3939461 -0.08026597 -0.11701194 -0.06437682 0.049256362 0.2421955 0.03948188 -0.4897161 0.26336384 0.038238663 0.24251479 0.2515882 -0.05000288 0.1098599 -0.350964 -0.5605206 -0.3979762 0.38644388 -0.25896645 -0.61341035 -0.4663042 0.2985739 -0.20947962 0.071359225 -0.4183287 -0.4950066 -0.13350675 -0.47508597 0.04258249 0.60142785 0.042868264 0.053163905 0.26778978 -0.01553052 -0.11323073 -0.2391279 0.13477616 0.43244153 -0.20728213 -0.30653465 -0.11304578 -0.14427201 0.23070152 0.41608799 -0.8003276 -0.059143957 -0.17658967 -0.34028527 0.16897981 -0.59477943 0.23644644 -0.16137442 -0.48850176 -0.2629248 0.00054892444 0.1138788 0.026599796 -0.32432136 -0.38463497 0.23122765 0.17357966 -0.13740203 -0.09932118 0.03455831 -0.70847887 0.016854165 -0.7238022 -0.4852626 -0.37501016 -0.28922248 0.07187468 0.32492223 0.45883387 -0.45683786 -0.21887293 0.13296065 -0.27348626 0.13537888 0.08429078 -0.08865914 0.30390155 0.24863832 -0.16197658 -0.41665718 -0.15020262 0.15650862 0.81060433 0.30255026 0.279385 -0.2652975 0.19690262 0.18593629 -0.20899467 0.27874333 0.020224947 -0.1585681 -0.6031111 0.29132742 0.61341125 0.8330079 0.79761416 0.15766561 -0.37092385 -0.5070338
25 -0.23184314 -0.27519 0.021705713 0.10424242 0.32412657 -0.53300613 -0.23727807 0.11162662 -0.32821134 0.056260355 -0.077659376 0.13048081 -0.101914704 -0.177124 0.09645759 -0.0030983076 0.4795794 -0.05327895 0.44696894 0.110668525 -0.30954883 0.12996867 0.692513 0.028983824 0.14857444 -0.022032235 -0.53433233 -0.25331634 -0.105245285 -0.22369422 -0.15441518 0.10560899 0.18283421 0.12114218 -0.16166873 0.11250442 -0.5587263 0.34144425 -0.32969752 -0.20491536 -0.38282186 0.2733523 0.0042278254 0.11271319 -0.556434 -0.20085879 -0.09322668 0.26037812 0.49364352 0.5360752 -0.054503944 -0.16886416 0.036785975 -0.04560763 -0.17206866 0.32413518 0.19682486 -0.4109686 -0.032702185 0.15187849 -0.0732478 0.599543 0.16444673 -0.3728275 -0.25481352 0.27351448 -0.057268634 0.24512538 0.064660184 0.37457147 -0.22763243 0.15732446 0.10609873 -0.33946592 -0.36981234 -0.16611265 0.16419047 0.16386506 0.28462926 0.18621057 0.13376269 0.1930116 0.11240988 0.29156992 0.0820417 0.037845895 0.3634076 -0.16631664 -0.10131723 -0.07839144 -0.39440194 0.1505587 -0.39152443 0.16827628 -0.13547899 0.69449574 0.03759202 -0.05800581 0.14026919 0.5464608 -0.3826667 0.23200457 0.1039606 0.14311723 0.52652204 -0.36536247 0.32150382 0.15320228 -0.071860574 0.34093618 0.40969855 -0.11172474 0.12294687 -0.2330175 -0.04849661 0.2573216 -0.15970646 0.09948215 -0.17932063 -0.13028178 0.51316595 0.3741196 0.053935543 -0.2724061 -0.31631866 0.44209325 -0.586975 -0.043662358
235 0.06963878 -0.8727136 -0.33062577 -0.1890887 -0.06993457 -0.4939669 -0.6232888 -0.33490482 0.45709437 0.4212726 -0.16363876 0.10521973 0.119202994 0.33593002 0.7668028 -0.8041356 -0.06754484 0.34580687 0.41523954 -0.6977843 -0.3741994 0.22576542 0.24891289 0.55732566 0.108929 -0.04131349 0.21050912 0.43138477 0.18992622 -0.061361477 -0.014392131 0.093081065 0.3202828 -0.19539985 0.30201602 -0.122134425 -0.35201314 -0.32815182 0.066167206 0.02599699 -0.02271593 0.48128334 -0.1745294 -0.14161758 0.047043387 0.28460306 0.06086785 -0.13644281 0.046953306 -0.18135889 0.18185633 0.39509243 -0.12956844 -0.36290666 -0.31484234 -0.10133633 0.2643753 -0.58810997 -0.50516206 -0.2923782 0.22199896 -0.23338458 0.004382986 -0.26098117 -0.29824883 -0.16924725 0.15732968 0.15611953 -0.3143807 -0.18025833 -0.3875933 0.2232832 0.06869531 -0.18943363 0.0005359347 -0.18222405 -0.03171936 0.41093764 -0.48911288 -0.11533389 0.37440154 0.046633545 0.26337937 0.15145399 -0.24030861 -0.09797307 0.27201834 0.080644414 0.07441251 0.39848244 0.19783959 -0.06091878 -0.45623642 0.059542675 -0.1675973 -0.017798126 0.52779156 -0.6861092 0.45629063 0.2301869 -0.123598665 -0.066626824 0.3629255 -0.16920447 0.17531392 -0.16554719 0.03183665 -0.20446895 0.2524246 -0.34502134 0.63653344 -0.059219968 -0.3234507 -0.18305223 0.13940121 0.3893304 0.30520874 0.2681603 -0.061574068 -0.088956736 0.03703475 0.40590045 0.13929945 0.37991092 0.16918314 0.16211544 -0.19659504 -0.23132269
96 0.09019249 -0.8951118 -0.11681199 -0.26713794 -0.0047481386 -0.07386666 -0.09807668 -0.10191896 0.19266225 0.51671875 0.143409 0.09455906 0.2471692 -0.29129052 -0.006869986 -0.16607542 0.13856928 0.58639354 0.11766345 0.61647815 0.1577951 0.34474054 0.30268982 -0.08072823 0.27834278 0.33834422 -0.38843134 -0.16989696 -0.109116904 0.11652668 0.38529968 0.30659208 -0.52721936 0.66753703 0.76230335 -0.43437552 -0.38245514 -0.20090674 -0.4903262 -0.11421718 0.14761744 -0.46412247 -0.11341826 -0.014696991 -0.39345634 -0.07392397 0.3891726 0.31715024 0.5853374 0.0020361564 0.0021774739 0.10804813 0.108948745 0.20398912 -0.033288658 -0.05918479 -0.021824444 0.008252055 0.06881542 0.1928585 0.085632816 -0.14566869 -0.075851955 -0.15442488 -0.14282261 -0.40857407 0.04695232 0.32713252 0.651981 0.10722606 -0.011654095 -0.14284013 -0.2663283 -0.02274491 -0.47227028 -0.04572177 0.4370447 -0.070785694 0.14380684 -0.51987815 -0.028876787 0.41911116 0.00073849567 0.19381072 0.30650494 0.085203625 0.5243323 0.30770186 -0.47892162 0.5092902 -0.16303341 0.062171478 -0.092378266 -0.20935468 -0.5899214 0.024613565 0.12976116 -0.027934793 -0.25261742 0.04909305 0.93199235 0.01343872 0.24312188 0.57004905 -0.059873715 0.19635783 -0.21122636 0.29750058 -0.24800427 -0.28585628 0.45781755 -0.31938475 -0.26876172 -0.21629098 0.17362098 0.19632022 -0.06576072 0.13912158 0.045544207 -0.9898988 -0.6817534 0.044521607 0.39606774 0.53122383 -0.16349153 -0.21004838 -0.7432397 0.06331897
12 0.017122462 -0.29233593 0.00029213156 -0.21012472 0.16508591 0.617117 0.13897784 -0.018652888 -0.23096971 0.16607246 -0.3289038 0.07386642 -0.06895849 0.27429548 0.11875017 -0.12180516 0.08591962 -0.019141015 -0.13578981 0.099841565 -0.18632051 -0.2710077 0.56478137 -0.22896665 0.16417949 0.27355498 0.34557343 0.39030486 -0.013399044 0.37884828 -0.09818381 0.44673875 -0.27931336 0.072539665 0.32755092 0.26242247 -0.25713202 0.11025011 -0.18401104 -0.090396136 0.39495465 0.06439163 0.006911686 -0.124666244 0.115543336 0.2948227 0.22422871 -0.016402528 -0.011195501 0.012591367 -0.034873694 0.40791836 -0.42650014 -0.51097894 -0.23587346 -0.15078875 0.53903866 -0.22489426 -0.096438445 0.37897813 -0.017152498 -0.12260145 -0.21247227 -0.18430896 -0.44660512 -0.1739172 0.30941328 0.17184792 -0.17231165 0.38457358 0.11922461 -0.6194143 -0.124416605 -0.028994791 0.06134786 -0.028938787 -0.07981067 0.8698117 0.25362283 -0.21087657 -0.08948388 -0.17070994 -0.16574179 -0.06369379 0.48529068 0.4253046 -0.16018553 -0.26218903 -0.47444564 0.1304996 -0.4845698 0.27699596 0.050015606 -0.111935265 0.02894098 0.6170974 -0.35450685 0.13325635 0.24456592 0.55768704 0.03837302 -0.40980023 0.16871229 0.12407593 -0.07686024 0.32995585 -0.12745789 0.18689959 0.28501254 -0.2956489 0.26981688 0.45740703 -0.14368746 -0.46298808 0.2567269 0.21007162 -0.7821094 -0.038238917 -0.41793373 -0.15450147 -0.29095098 -0.06178388 -0.0035832669 0.19812927 0.25668246 -0.18223037 -0.5524215 0.08807115
249 0.098514825 -0.82989335 -0.63419497 -0.16657084 0.12728405 -0.20463221 -0.06843607 0.067889914 0.12929533 0.031311058 -0.3504599 -0.3328279 -0.18238357 -0.4933753 0.28544837 -0.24629109 -0.5551743 -0.00032130105 -0.29206342 0.3161223 0.10024127 0.24814013 0.14378478 0.2117218 -0.04176209 0.33932698 -0.17264397 0.39497086 0.64988625 -0.1186332 0.14656283 0.12976426 -0.032484613 -0.3359418 0.11362735 -0.37273836 0.38144177 -0.18144259 -0.5658659 0.4185149 0.03541531 0.66348445 -0.06273132 -0.09492818 -0.13151047 -0.26236448 -0.082655355 0.08815531 -0.14720224 0.5001748 -0.20287824 0.10695458 0.21003354 -0.27040642 -0.26484385 0.45647427 -0.36138722 0.055465575 -0.54227936 0.18233107 0.23738678 0.43143752 -0.40308556 -0.5302364 0.12849095 -0.24159358 -0.111833915 -0.013344267 -0.0017021021 0.18294817 -0.070697434 -0.1947163 0.4463305 -0.3813936 0.5260933 -0.0940545 0.11128438 0.55822426 -0.14668849 0.011727193 -0.34671786 0.28269365 -0.16165896 -0.010347393 -0.2750484 0.22481503 -0.041660592 0.2098628 -0.07302785 0.07491955 0.111628026 -0.17716198 0.14581919 -0.06883777 -0.02804849 0.2837382 0.016320478 -0.39863163 -0.20955978 0.24640277 0.25831217 -0.096557274 0.40763116 0.66974527 -0.24226083 0.08519812 0.3523405 -0.087691255 -0.14987452 -0.37962 0.45159408 -0.04965238 -0.42149487 -0.026834289 -0.23774897 0.51892453 -0.54876345 -0.13956363 0.38366818 -0.55783945 0.064331315 -0.3478478 0.16535641 0.5178271 -0.4368957 0.06478973 -0.372371 -0.41547623
68 0.61754996 0.24657021 -0.3951829 0.2158457 0.0001696363 0.2889508 0.13554707 -0.26390657 0.21797872 -0.022119801 0.6070987 0.34616593 -0.11122915 -0.56964576 0.17704988 0.7346935 -0.43105677 -0.26364172 -0.14549635 -0.25545412 -0.06434935 0.7404594 0.36638185 0.09892634 0.20872489 -0.09610295 0.008760017 -0.23407246 0.20064935 -0.111727126 -0.102305084 -0.38694897 0.0739559 0.29857266 -0.5291361 0.10617274 0.045810252 0.12391007 0.19875355 -0.7722104 0.42720905 0.15156236 -0.5603487 -0.034111246 -0.4816068 -0.27583203 0.4986963 0.86089736 -0.33855325 -0.6111662 -0.3067374 0.1940365 0.18284176 -0.16087604 -0.844106 0.08889501 0.7982401 -0.27127904 -0.028206298 0.44468486 0.43877953 0.07649784 0.31477332 -0.42462766 0.0049309786 0.04603524 -0.15058364 0.274778 0.044328928 0.0031225705 -0.14342622 0.12521632 0.3960544 0.13458371 -0.038337756 -0.0026553024 -0.09762618 -0.10527998 0.1566768 0.06935322 -0.12038269 -0.3461691 -0.36608765 0.147414 0.082636364 -0.3365123 -0.036055114 -0.15045255 -0.350975 -0.3479867 -0.14956221 -0.13977684 -0.2874315 -0.26432255 -0.10224042 -0.116914675 0.08931345 0.08183803 0.21112628 0.70126426 0.21133304 -0.19368123 0.18376462 0.32036343 0.05114402 0.44587713 -0.13361955 -0.35966384 -0.13783263 0.024298433 0.5639965 0.054772913 0.18498208 0.17749532 0.15807293 0.26623207 0.2207016 -0.032228477 -0.38502964 -0.5972529 -0.32067463 -0.07735827 0.63253367 0.98262984 0.032796174 -0.68131113 -0.3571507 -0.4128755
193 0.20677076 -0.8293673 -0.41306627 -0.09728663 -0.054582775 -0.45804963 -0.6214588 -0.2880446 0.29696923 0.4550857 -0.139271 0.045521807 0.101629004 0.24159947 0.72546077 -0.7740494 -0.051837146 0.34077394 0.32636493 -0.5993551 -0.29746726 0.238242 0.23037551 0.57090306 0.12865075 -0.03239684 0.15445907 0.36399034 0.052214246 -0.11296329 -0.023238886 0.13604288 0.23491383 -0.22245753 0.2505664 -0.125439 -0.29232007 -0.3578282 0.031392027 0.0106481025 -0.10985993 0.4306957 -0.1985344 -0.1884675 0.00042247758 0.29701722 0.064083315 -0.1364333 0.07403697 -0.24861546 0.19842821 0.464111 -0.09169797 -0.3328197 -0.32846412 -0.20862873 0.21279585 -0.70623106 -0.46710306 -0.2681822 0.23810437 -0.19227992 0.012742902 -0.31214726 -0.34766948 -0.18760473 0.14046414 0.20365591 -0.27270842 -0.15624088 -0.47889343 0.15946327 -0.0016179716 -0.1481752 0.006825315 -0.28645962 -0.037012167 0.43394494 -0.52528864 -0.18934275 0.38552523 0.15227228 0.21288632 0.14643557 -0.13155359 -0.11097714 0.22107048 0.057355147 -0.0668885 0.3690834 0.20912342 -0.22020163 -0.5335801 0.0551691 -0.121406555 -0.004282758 0.4844803 -0.6257595 0.4434296 0.3162746 -0.13638365 -0.10811427 0.38458642 -0.20982462 0.14423306 -0.13626736 0.003962783 -0.2654466 0.24063097 -0.3599865 0.6499443 -0.017669767 -0.38569796 -0.2727877 0.10131217 0.42488903 0.42144555 0.3185341 -0.081107564 -0.11692775 0.03670379 0.4250939 0.016288998 0.16036338 0.23527728 0.08547369 -0.13573134 -0.17113566
222 0.31918955 0.2206736 -1.0846794 0.44618243 0.10647751 0.44121835 0.02980275 -0.1530075 0.12274967 0.12433735 -0.10074316 0.01067282 0.4280959 -0.37356853 0.511878 0.08096482 0.08011417 -0.023347342 -0.24685356 -0.058806285 -0.5554626 0.5538787 -0.19883056 -0.06946714 -0.06428251 -0.09895607 -0.4976637 0.5756169 0.1912028 -0.08751281 -0.1261867 0.23210561 0.06755676 0.18358 -0.11885535 -0.45735997 -0.1105111 -0.36883992 -0.3518409 0.16503736 0.46795774 -0.22571325 -0.02426691 -0.10630708 -0.17273483 0.48571816 0.34211376 0.21426158 0.09253711 -0.16338679 0.027840564 0.06946776 -0.08270706 -0.81498665 -0.080691636 0.50681984 0.1887577 0.054631196 -0.21066321 -0.29843625 0.5446333 0.015442809 -0.7332451 -0.37114567 -0.14052778 -0.6138239 0.19914418 0.07303293 0.26343775 -0.17356043 -0.15497057 -0.061131485 -0.57873 0.00954935 0.03467374 -0.30314514 -0.054956328 0.3140399 0.12936018 0.12759966 0.15159087 0.27089864 -0.15878694 0.1892615 0.46139127 0.04625086 -0.0744712 -0.04381342 -0.14368913 0.36750725 -0.09055372 -0.08272495 -0.5845273 -0.12398322 -0.06484525 0.37467802 -0.14901453 -0.6757357 -0.080412924 0.69190437 0.10574651 0.063780546 0.28568214 0.3872984 -0.23812854 -0.59488654 0.26383072 0.14122096 -0.17839646 -0.49913254 0.14871612 -0.26475158 -0.27155635 -0.043518607 0.020881394 0.28748798 0.1782201 -0.26495025 0.23512681 -0.25710577 0.08459962 -0.024476234 0.4480984 0.9432776 -0.008813643 -0.1534332 -0.14100793 -0.05556392
168 0.2828643 -0.12925969 -0.1476096 0.16107184 -0.6193279 -0.14337865 0.4081618 0.17529793 0.38519803 -0.091380306 0.020341609 0.36586556 0.060798474 -0.41930193 -0.17665105 -0.14581458 -0.020146206 0.33316523 -0.1736149 -0.4485465 -0.16310695 0.8860741 0.47526953 0.11885299 0.2183973 0.20142901 0.057938855 0.23775557 -0.13648745 0.47705436 -0.13076457 -0.0941137 0.22768618 0.5673583 -0.24342991 -0.16974926 -0.08303001 0.38115746 -0.39124322 0.55227387 0.4302228 0.51188624 0.046030868 -0.27193737 0.15042605 -0.078811586 0.10409284 -0.17907833 0.85771453 -0.018645583 -0.114333116 0.3917537 -0.40301248 0.1810399 -0.23415026 0.2705807 -0.17401235 -0.23408115 -0.19528316 0.2758886 0.20948502 -0.067168705 -0.13685864 0.12634401 -0.085462004 -0.18122482 0.58092225 0.20298079 -0.79924804 -0.16546525 -0.10416134 -0.11279061 0.56373036 -0.2191576 -0.38427398 0.14504997 -0.11659213 0.09102963 0.30693 -0.7767787 -0.27783117 0.03979087 -0.07663595 0.3323656 0.13765281 0.3754648 0.092447035 0.19183496 0.109073244 0.3870146 -0.41053838 0.27451462 -0.20161796 -0.21498333 -0.2356192 -0.058784977 0.4210107 -0.3312346 0.5262664 0.12071844 -0.056816638 -0.04233456 0.012791414 0.22685747 0.6199015 0.17834647 0.18972825 -0.041032445 -0.11324845 -0.11598617 0.44924265 0.35538256 0.1797918 0.20447241 0.4641505 0.11870203 -0.05785906 -0.105645955 -0.44449028 -0.34802246 -0.11098622 0.24600765 0.539448 0.17100357 0.0009791061 0.26440606 0.37331656 -0.22677341
51 -0.2054282 -0.27733803 -0.39062762 0.17806663 0.24584807 -0.1013813 0.1452914 -0.51400673 0.325377 -0.2239316 0.04627097 -0.004069573 0.06898061 -0.5256404 0.3315473 -0.008724502 0.084990315 -0.008871478 -0.55838436 -0.37262386 0.11644341 0.17725465 0.1263792 -0.12787674 0.21167873 0.20989305 0.29521778 0.16021599 0.053691458 -0.18844622 -0.011480543 0.1746985 0.106884554 -0.2675053 -0.005226 -0.08236715 -0.011102258 0.19792964 -0.1168899 -0.5028938 0.007118216 0.27917773 -0.08453053 0.35725197 -0.3580473 0.24870084 0.2083748 -0.19921614 -0.20431402 0.039742332 0.28923637 0.26354867 0.27486175 -0.013129266 0.015847882 -0.26380056 0.21767287 -0.18551679 -0.030636186 -0.1486254 0.102823384 -0.5167598 -0.14887428 -0.68821126 -0.05599338 0.53898174 -0.10305451 0.11848563 -0.28444913 -0.39273536 0.41336632 -0.06525731 0.3788932 -0.30591968 0.18230674 -0.40129498 0.1141326 0.19807413 0.46204734 -0.19257218 0.12154099 -0.5807962 0.012439895 -0.026608707 0.30865306 0.32671887 -0.13719483 -0.42611557 -0.17855848 0.32938325 -0.29357627 0.20962368 -0.18953381 -0.28193158 0.07052361 0.42676842 -0.089420155 -0.623825 0.5084891 0.5513402 -0.24442615 -0.023096891 0.64714587 -0.22663769 -0.1041341 -0.046105143 0.16794069 0.18268843 -0.13024183 -0.57228136 0.59538245 0.16825838 0.0064555365 0.26384714 0.13480885 0.36054346 -0.19909523 0.46513355 0.17100945 -0.14719461 0.35139266 0.17187008 0.49777958 -0.0024731716 -0.26009545 0.13224001 -0.21696842 0.04652364
113 0.33059347 0.018719092 -0.8085569 -0.071930714 -0.2412659 0.06978759 -0.21738602 0.17222452 0.52201337 -0.43261534 0.10731285 0.34631595 -0.13156845 0.03193981 -0.4059512 -0.01979234 -0.38842458 -0.25028956 -0.14489563 0.15290844 -0.15963449 -0.32795957 -0.13847227 0.13724303 0.14591911 0.23767151 0.21711433 0.30680245 0.107311994 -0.11832042 -0.1495716 -0.36617723 0.018277837 0.2666466 -0.004426292 0.014598208 -0.28805408 -0.45450467 -0.19638011 -0.34401757 -0.07121755 0.17534493 -0.42008585 -0.071478486 -0.7316003 -0.030565199 0.14366059 0.35621005 -0.19411774 0.08115877 0.2523425 0.2921727 -0.33936536 -0.22302519 -0.3562714 0.6411455 0.021238405 -0.3541968 -0.197815 0.2195487 -0.010301346 0.35448146 -0.41388214 -0.6395081 0.17584942 -0.001896729 -0.09613887 -0.09094633 0.3279125 0.131499 0.6256749 0.09469566 -0.020798868 -0.36627188 0.009928133 0.05798596 0.21522115 0.51633084 0.30062616 -0.7420509 -0.28858185 -0.04207988 0.1525194 0.31196958 0.11503687 -0.05836169 -0.06672251 0.50777775 -0.6786291 0.5426945 -0.096339166 0.06862598 -0.37579802 -0.07984548 -0.49003088 -0.3007025 0.35916153 0.0029703365 0.29332623 0.3488013 -0.31992364 0.46971294 0.39946163 -0.1608992 0.23002334 0.04526142 -0.12796459 0.093787104 -0.091721945 -0.4845322 0.2644131 0.33932763 -0.17018777 0.12730181 -0.22880566 0.23063236 0.24439277 -0.3252455 0.1223252 -0.09087266 -0.4716965 -0.4469637 -0.14071764 0.28206784 -0.4437172 0.08066807 -0.39833775 -0.38747364
287 0.12318637 -0.89665467 -0.7003199 -0.14325522 0.18230647 -0.24598362 -0.09357219 0.09171298 0.14760153 0.010415043 -0.3750778 -0.2663352 -0.22651288 -0.48852733 0.2076982 -0.33869532 -0.6092134 -0.01021497 -0.3045198 0.41324192 0.17133394 0.2560463 0.08563704 0.22329204 -0.10834498 0.27890918 -0.18415152 0.33454284 0.5726612 -0.12395007 0.1356658 0.19240911 -0.12657505 -0.30318344 0.08961319 -0.39094254 0.41090533 -0.13805985 -0.6254249 0.37392107 0.0018342547 0.6552071 -0.10864253 -0.19769289 -0.16586505 -0.24992676 -0.080722176 0.113476396 -0.105361335 0.45294768 -0.25908712 0.12565027 0.13866678 -0.28984636 -0.2786363 0.44815832 -0.3403851 -0.04477949 -0.61737365 0.1683895 0.27484164 0.3861706 -0.34705305 -0.5210195 0.11398814 -0.13969588 -0.20635863 0.08791695 -0.0479258 0.2189955 -0.09846471 -0.10670257 0.3766457 -0.40185174 0.54346424 -0.1080265 0.040035952 0.57620436 -0.2025765 0.027560957 -0.36303926 0.30487257 -0.1795258 -0.041050848 -0.24010122 0.20690922 -0.11241861 0.19797362 -0.105520226 0.08592383 0.069420926 -0.27156886 0.03131138 -0.0028873303 0.020881481 0.31161958 -0.013238099 -0.4117301 -0.26878542 0.22708222 0.2758888 -0.15468453 0.38293046 0.58472276 -0.2675313 0.06860663 0.33793905 -0.099904 -0.17585932 -0.47603476 0.47124583 -0.083851665 -0.5495083 -0.08435969 -0.22393332 0.49268344 -0.5568018 -0.057158668 0.256424 -0.56821513 0.08684477 -0.23838234 0.029853325 0.45012897 -0.42333293 0.06433189 -0.2799416 -0.43783444
343 0.31026858 0.17578141 -1.1185104 0.4673638 0.06596639 0.364738 0.1839508 -0.100524046 0.072387084 0.015371967 0.005370963 0.025654377 0.3492296 -0.32238072 0.5846367 0.060074598 0.1350516 -0.14741044 -0.22674546 -0.18021584 -0.70839846 0.5625308 -0.15499316 -0.11168786 0.0117668165 -0.10622535 -0.58672947 0.58778244 0.25098297 -0.011833528 -0.019442225 0.17088832 0.1334749 0.15093826 -0.03841719 -0.5088805 -0.11165719 -0.36583233 -0.24855644 0.15187272 0.42572737 -0.28086466 -0.016831432 -0.09308623 -0.25808802 0.5149237 0.300419 0.19375601 -0.014496721 -0.13584955 0.016606594 0.11252739 -0.14736491 -0.8390367 -0.1168913 0.44010964 0.14209071 -0.06250371 -0.28638765 -0.24183884 0.52249485 0.070075825 -0.78108776 -0.50733745 -0.17066519 -0.48017043 0.16533425 0.034258697 0.26666233 -0.10916181 -0.21774249 0.0038336038 -0.5510595 -0.009699317 0.01774886 -0.2881667 -0.09182988 0.19837113 0.057031427 0.21332824 0.2926986 0.28523734 -0.11322734 0.13771787 0.41418847 0.034291442 -0.039685562 -0.0462389 -0.16576198 0.37085125 -0.00347123 -0.033594918 -0.5295133 -0.09597435 -0.07647272 0.33518365 -0.15936628 -0.54420394 -0.14327317 0.5943757 0.105401516 -0.050445408 0.24891055 0.42731118 -0.26249295 -0.48182866 0.2262964 0.109895974 -0.1660973 -0.5316274 0.14362864 -0.40056765 -0.3729479 -0.12040835 0.030273294 0.27705726 0.21201082 -0.3232226 0.2148745 -0.18624161 0.086115025 0.070899844 0.4085295 0.97076833 0.06629653 -0.058959085 -0.16563664 -0.08675355
247 0.2923195 0.2907851 -1.1232424 0.55341643 0.1002207 0.4945899 0.055062734 -0.09941651 0.1695976 0.044144865 0.10527859 -0.1023569 0.32843864 -0.3434124 0.59090525 0.09442516 0.043502554 -0.12986931 -0.22392234 -0.12934257 -0.67503536 0.50067395 -0.20855586 -0.028875966 0.03373228 -0.06922871 -0.5386887 0.6587495 0.31134003 0.0004588554 -0.02180324 0.23208159 0.07586465 0.21983537 -0.0011090396 -0.5223753 -0.20826408 -0.33963272 -0.2998323 0.16383588 0.538398 -0.2646343 -0.063635506 -0.05272552 -0.08998883 0.4343165 0.29364035 0.19182427 0.059229307 -0.07478309 -0.048444323 0.1415781 -0.09177677 -0.84545135 -0.09121467 0.46652812 0.24122368 0.04750778 -0.20009051 -0.21634711 0.52902234 0.063378096 -0.7665102 -0.35834423 -0.11357724 -0.6730216 0.20544964 0.059897 0.28748584 -0.078668594 -0.24294528 0.015749348 -0.4482735 -0.0959328 0.08023775 -0.28968734 -0.047008976 0.38787404 0.1571757 0.21793297 0.19682582 0.28949887 -0.23911108 0.16492444 0.41317505 0.08085051 0.04014974 -0.13437416 -0.08109616 0.29100615 -0.022434222 -0.06654381 -0.49994272 0.054287087 -0.065736406 0.40492314 -0.007860589 -0.64885557 -0.091435276 0.57094705 0.06606516 0.054671887 0.23058191 0.42013332 -0.2010824 -0.5325353 0.26104772 0.10002938 -0.1650583 -0.4378916 0.13257119 -0.29902074 -0.27518478 -0.045443557 -0.060588684 0.23310582 0.19301397 -0.3002244 0.25135672 -0.2384828 0.025405817 -0.04493191 0.46104386 0.96885234 0.062625885 -0.13000694 -0.15602644 -0.0980821
122 0.011515887 -0.8431739 -0.38850084 -0.07837198 -0.06576707 -0.48046553 -0.65085036 -0.331398 0.39764935 0.41550943 -0.07606697 0.052418742 0.08080569 0.23854303 0.70380193 -0.84047115 -0.060171366 0.3829279 0.35711598 -0.63777024 -0.25053042 0.2831807 0.30395573 0.57235885 0.20304683 0.05487797 0.20757747 0.376031 0.16454865 -0.01774461 0.04912106 0.120614246 0.26384237 -0.18735562 0.37868237 -0.13139634 -0.31819305 -0.3641905 0.049612727 0.010749588 -0.0039916798 0.48430294 -0.27396122 -0.1875115 0.028898742 0.30021793 0.10606897 -0.11250317 0.049159903 -0.26609597 0.20954372 0.52470285 -0.1338792 -0.36928612 -0.3556634 -0.19103162 0.23864411 -0.639317 -0.45546815 -0.28160498 0.2522503 -0.30141434 0.012101124 -0.2769113 -0.3061929 -0.25328904 0.23795252 0.13142073 -0.3188452 -0.11998902 -0.41847992 0.16392452 0.13955048 -0.18693422 -0.020348532 -0.21322475 0.025498226 0.47154438 -0.5269308 -0.16384332 0.32975712 0.12598786 0.20456517 0.16574824 -0.20698036 -0.15911555 0.3488737 0.110568956 -0.022509523 0.35172528 0.24236722 -0.11125879 -0.4771151 0.08696157 -0.11839949 0.022504581 0.5587936 -0.5744386 0.5284269 0.21443932 -0.096408024 -0.10955189 0.44892904 -0.15079002 0.15033121 -0.11766458 -0.009957199 -0.29875562 0.28576115 -0.32714605 0.6494313 -0.056318037 -0.25643587 -0.050234403 0.1441512 0.3266824 0.41503537 0.31413093 -0.10694046 -0.10243388 0.08492135 0.41511217 0.038402207 0.21403445 0.17106634 0.08185677 -0.10654903 -0.23634835
195 0.111947715 -0.80460507 -0.3106226 -0.0064520286 -0.06740606 -0.49553102 -0.78266406 -0.28285193 0.38570517 0.5543991 -0.25229612 0.0067229983 0.1414222 0.2447245 0.8580189 -0.8081884 -0.045599315 0.36619538 0.34597114 -0.638785 -0.2817365 0.23789085 0.15854795 0.6003775 0.12522282 0.02395709 0.10060408 0.36791828 0.200665 -0.15738346 0.016295603 0.15335605 0.300735 -0.27581438 0.3675694 -0.01546683 -0.4777317 -0.3995438 -0.007005221 -0.08710469 -0.029092724 0.526831 -0.11691544 -0.20998792 0.112849124 0.2678837 0.019867336 -0.060762215 0.06446231 -0.28801435 0.20983401 0.4216963 -0.058518007 -0.38184005 -0.337097 -0.24420054 0.24469942 -0.6420083 -0.41845742 -0.28356418 0.20509307 -0.19853698 -0.0021291336 -0.25953743 -0.32557192 -0.3284155 0.2311528 0.08994496 -0.297385 -0.22035508 -0.40504652 0.18461491 0.16349122 -0.23156278 -0.023699569 -0.22161753 -0.010137658 0.5386438 -0.39146495 -0.19812694 0.2260621 0.054946084 0.0760779 0.19816978 -0.13548458 0.05529387 0.23024708 0.02048972 0.0110139465 0.32264438 0.25025076 -0.13939199 -0.40731066 0.07336755 -0.1289454 0.030268056 0.5012504 -0.61383927 0.45388424 0.18303525 -0.10328302 -0.09473277 0.3555924 -0.23948124 0.15585485 -0.13546728 0.093236186 -0.19791354 0.20828207 -0.38639787 0.6369328 0.062406633 -0.3487959 -0.123592556 0.10400459 0.40372446 0.39289573 0.30246925 -0.1173162 -0.1070892 0.0032743157 0.319479 0.01737475 0.34254777 0.21423061 0.068469465 -0.1471198 -0.21336977
4 -0.18978998 -0.33967522 -0.45435947 0.20202747 0.22342199 0.033897202 0.201619 -0.48439255 0.39369106 -0.18530719 0.0875302 0.02425317 0.009325021 -0.49040386 0.28185454 -0.0027964977 -0.012599642 0.027671972 -0.56518984 -0.35902086 0.08642897 0.18488567 0.16618155 -0.13035868 0.12534636 0.29591852 0.39776036 0.0479027 0.12397008 -0.124764845 -0.007415654 0.18980412 0.05890504 -0.3087407 0.090007536 0.0666912 -0.00024207309 0.18581215 -0.04413705 -0.54543966 0.03212443 0.28094426 -0.13196118 0.33628678 -0.3347135 0.28084105 0.19712344 -0.13567504 -0.17539646 0.0536637 0.26196745 0.33184066 0.35199013 0.0031695813 0.0072976868 -0.30918205 0.19544189 -0.20777404 -0.006005212 -0.15156636 0.118745744 -0.51404554 -0.06920236 -0.6309432 -0.17748101 0.4647493 -0.1086418 0.023731176 -0.25471804 -0.3913759 0.35454786 -0.09745712 0.5534539 -0.39620236 0.31249687 -0.454832 0.19446956 0.34850255 0.4597186 -0.16972795 0.10514334 -0.53325653 0.011445808 -0.071647905 0.3150266 0.33953977 -0.062035386 -0.45571902 -0.13398908 0.31009704 -0.34658706 0.19432154 -0.12019608 -0.13389242 0.025960248 0.49325457 -0.10838455 -0.684987 0.5635894 0.4819205 -0.17449081 -0.015360305 0.5362845 -0.22581051 -0.04844028 -0.023774043 0.14408289 0.09671288 -0.07421169 -0.46411687 0.48189834 0.09628413 0.036368556 0.34168315 0.17727448 0.30501455 -0.2797592 0.48999867 0.16728108 -0.047165193 0.34687343 0.18177217 0.52657676 0.14360373 -0.30790934 0.033129983 -0.20763926 0.06344785
