500 128
211 0.36578187 0.33222115 -0.5846801 0.017324513 -0.003901349 -0.29621604 -0.055134963 -0.26795214 0.16938502 0.26292437 0.12698533 -0.40213573 0.30795982 -0.13179907 -0.11228484 -0.3710737 0.058869828 -0.081474766 0.10439135 -0.15517454 0.093015015 -0.3163522 -0.07626277 -0.08284002 -0.13805372 -0.12953882 0.26233807 -0.0640702 0.20045143 0.048969872 0.4112621 0.12859365 -0.24658565 -0.41083032 0.0729876 0.23506427 -0.15722488 -0.38852373 0.4733461 0.3454046 0.03678467 0.029877098 -0.13880824 0.36825177 -0.3758845 0.12204023 0.22599599 0.03221574 -0.15279643 0.5688815 0.093926676 -0.32474008 0.16707547 -0.17210653 -0.2778625 0.2022854 -0.41475308 -0.27167252 -0.104882605 -0.015740177 -0.15170656 0.049399048 -0.15337217 -0.15033434 0.6519136 0.25811654 0.03274626 -0.041948266 -0.14677827 -0.34250328 -0.03290213 0.39327288 -0.06737298 -0.055260655 -0.5659886 -0.39906147 0.32809317 0.2950801 -0.23362528 -0.2581123 0.014607536 0.13191386 0.5512575 -0.1443394 -0.3482076 0.36788228 0.24621566 -0.5286805 -0.6496541 0.31961736 0.04454456 -0.3026638 0.20681287 -0.1921095 -0.6692255 0.12791592 -0.30563697 -0.35670137 0.0793637 0.08092529 0.47726575 -0.120215975 0.31932482 0.1921325 -0.08884444 -0.16001545 -0.13937058 -0.2326199 -0.1748293 -0.07891522 -0.0173796 -0.074943975 -0.5998906 0.73920065 0.17139995 -0.3421086 -0.2701785 0.09826217 -0.023348054 -0.08575194 0.18236521 -0.20313211 -0.18637545 0.189383 0.6876426 0.4353098 0.050302193 -0.29303566
209 -0.16497223 -0.31762463 -0.35520378 0.13369207 -0.26798633 -0.23463729 0.13075393 -0.083495215 0.14892197 -0.29281935 -0.16434285 -0.060856305 -0.3692695 0.045754224 0.14100039 -0.33687216 -0.22357564 -0.09589301 -0.31016198 0.3572205 0.27211165 0.14936014 -0.09940859 0.13088146 -0.3497952 0.4311046 -0.2114003 -0.08901432 0.2617379 -0.04422416 -0.09413615 0.60163313 0.12770158 0.034495126 0.082980506 -0.0042149127 0.012387112 -0.3429182 0.0015140092 -0.1664585 0.15810636 0.27284476 -0.21967362 0.4280784 0.23731458 -0.30862433 0.03241392 0.18123782 -0.38649416 0.1593952 0.0659026 -0.5338507 0.25163963 -0.11367968 0.34246668 0.27697116 -0.06177297 0.19269435 0.10104689 0.037082307 0.21879153 0.06412608 0.20567948 -0.5226876 0.30046552 0.20293573 -0.4880365 0.094317086 -0.01998681 -0.2833422 0.6545042 0.3254184 -0.08082765 -0.49156037 0.44913012 -0.16508335 0.3184549 0.61878294 0.40160748 -0.49910876 -0.30306023 0.040615723 0.46535718 -0.29853526 0.11862277 0.33398047 0.3220665 -0.09048549 -0.39848724 0.15563454 0.1499771 -0.2698945 0.536868 0.075683385 0.25268885 0.079444654 -0.044582948 -0.16399364 -0.38210773 0.095271096 -0.10079244 -0.068530485 0.38116786 0.20496255 -0.06969338 0.28699932 0.28746092 0.27387846 0.07895732 0.0073879124 -0.32262757 -0.046914242 -0.030897748 0.23460744 0.008358589 0.73053956 -0.07918335 0.32548267 0.2194531 -0.17468865 0.03211538 -0.03537281 -0.07316806 -0.18407217 -0.3909894 0.44336557 0.32202727 -0.69593936
232 0.34395844 0.24170409 -0.5753315 0.10849617 0.041014828 -0.34782943 -0.14929378 -0.2163981 0.072410166 0.13702573 0.24857496 -0.36812457 0.32325783 -0.25916457 -0.16403326 -0.32597256 -0.06100103 0.0066777347 0.020801282 -0.27829424 0.11754153 -0.2120833 -0.09060647 0.039152138 -0.06674252 -0.16109754 0.22431365 0.007861886 0.2455948 0.08048662 0.43541816 0.22231272 -0.22225253 -0.40963042 0.07373247 0.18003418 -0.14657494 -0.36788794 0.31669515 0.18934962 -0.07068059 -0.050976742 -0.15479478 0.34607536 -0.5089798 0.16437379 0.26673195 0.07047454 -0.18268865 0.6741067 0.07118655 -0.29620418 0.18974662 -0.12420764 -0.38861266 0.23050961 -0.4440933 -0.33161718 -0.0964693 -0.054420263 -0.18185459 -0.040612303 -0.10611369 -0.23453008 0.5219055 0.15457033 0.044140674 0.03710282 -0.2117526 -0.348485 -0.12906057 0.51739585 0.08277143 -0.13902135 -0.38172907 -0.47146562 0.23231865 0.23797107 -0.23753908 -0.2973413 0.08912875 0.07998273 0.6069752 -0.2165877 -0.41179425 0.22700767 0.3226646 -0.53914547 -0.5990195 0.27987343 0.07228718 -0.27695772 0.23163205 -0.12628202 -0.6781526 -0.0598318 -0.287332 -0.3197511 0.08795412 0.12269299 0.4760163 -0.14834611 0.23109162 0.21868093 -0.010989998 -0.27089304 -0.19244269 -0.22068025 -0.23247464 -0.00014954884 -0.062960155 -0.12794627 -0.57713294 0.6204415 0.25806668 -0.27659974 -0.18266186 -0.020403495 0.041738518 0.00286667 0.2329019 -0.1835682 -0.29453114 0.09594056 0.6793121 0.3754411 -0.04915225 -0.33555195
219 0.34203783 0.27858105 -0.52636373 0.05478185 0.029594304 -0.33156627 -0.11776932 -0.19991718 0.20481254 0.08320409 0.1766461 -0.3574497 0.3544422 -0.114873 -0.10624661 -0.3376373 0.026656803 0.15212785 0.13440846 -0.33063015 0.08006748 -0.2649786 -0.043690354 -0.017335702 -0.1483636 -0.19936065 0.18756688 0.07780578 0.22365013 0.105217844 0.47358227 0.076403566 -0.17872436 -0.38000175 0.16267247 0.1583164 -0.10989673 -0.39350936 0.21571766 0.30295646 -0.10353882 -0.027963098 -0.023902204 0.43508744 -0.34148887 0.17019723 0.3033036 0.051593695 -0.15493213 0.7795509 0.063075535 -0.204133 0.22157496 -0.0076057883 -0.31115294 0.118877925 -0.50054437 -0.2999404 -0.0018908791 -0.011624146 -0.15001284 0.0072543356 -0.18145788 -0.22572544 0.6089116 0.18816955 0.062908776 0.047448445 -0.06096412 -0.329911 -0.12408988 0.5482368 0.0024730216 -0.15852821 -0.4879 -0.47176233 0.19743384 0.20425862 -0.33394825 -0.27938405 -0.00042530755 0.022864608 0.5007261 -0.140834 -0.3715885 0.21787822 0.22315681 -0.5657443 -0.60612404 0.28242943 -0.019105596 -0.23005614 0.18061304 -0.06266735 -0.6037042 0.037989307 -0.18508372 -0.3552938 0.021803053 0.08997596 0.27182195 -0.25711614 0.30257997 0.292913 -0.11768441 -0.2756117 -0.07867792 -0.16624524 -0.20088512 0.03797836 -0.026453363 -0.09091156 -0.6055068 0.79459816 0.25548106 -0.32636312 -0.1997778 0.0674374 -0.067687415 -0.033862364 0.20074175 -0.23231673 -0.26597893 0.15331095 0.6693545 0.44994736 -0.008037668 -0.32883722
202 0.36434582 0.20436326 -0.5671748 -0.07381888 0.016792998 -0.32780555 -0.08682906 -0.1976373 0.20171188 0.1983868 0.17604902 -0.31367362 0.2744771 -0.10376983 -0.12337636 -0.3963475 0.05445956 -0.009494782 0.19046435 -0.18167141 0.08717198 -0.30311847 -0.060748544 0.04899472 -0.12678634 -0.2573538 0.2781744 -0.06957873 0.21786651 0.13232586 0.44599542 0.12850352 -0.2763174 -0.42051446 -0.0021177542 0.2242185 -0.24531998 -0.43938887 0.31782788 0.25139362 -0.103935055 -0.044253826 -0.13293783 0.32990417 -0.38509047 0.13630012 0.3499004 0.0446472 -0.17689447 0.68015724 0.09706178 -0.2978476 0.16052292 -0.086443804 -0.26870823 0.050325617 -0.42084342 -0.31884247 -0.08247419 -0.022144567 -0.19769202 -0.034898084 -0.25291327 -0.15156284 0.5702102 0.24082421 0.08177299 -0.1226816 -0.13714746 -0.24441439 -0.14320503 0.45060608 0.024900043 -0.18427041 -0.45100334 -0.47417468 0.21466014 0.29948798 -0.3300823 -0.32184803 0.023434583 0.11395157 0.6495789 -0.19648036 -0.34171176 0.3091623 0.26692116 -0.5137566 -0.64509165 0.37494603 0.15127522 -0.393401 0.26919174 -0.14687277 -0.7215925 0.012597287 -0.16424546 -0.37998846 0.15004072 0.05175324 0.35128155 -0.22060715 0.23105186 0.20493838 -0.12958802 -0.21681477 -0.1815501 -0.16791975 -0.18066184 -0.035303414 -0.023041653 -0.080433086 -0.60996383 0.7232987 0.11548767 -0.385364 -0.18646103 0.07797473 0.0019727235 0.001887453 0.26917 -0.25550845 -0.298761 0.15369025 0.69826 0.49210468 0.068431936 -0.38380432
13 -0.1482621 -0.4844096 0.098274484 -0.33555487 0.19599687 -0.21890204 -0.24016023 0.38141385 0.49405622 0.24890178 -0.16693453 -0.1704149 0.33284992 -0.1833772 0.023907717 -0.03719744 -0.054670844 -0.006224139 -0.10975065 -0.26078895 0.27296057 0.2862264 0.36606252 0.32729056 -0.081144765 0.09619517 0.08173472 -0.47242704 -0.06885523 -0.118945144 -0.41806656 0.021302862 -0.055519678 -0.065686055 -0.16882814 0.17748998 -0.31275046 0.0083194915 0.16596305 0.42901805 0.10140412 0.17170076 -0.31421536 0.09044255 -0.2954209 0.20778708 0.24568713 -0.31229022 0.041105904 0.36230138 -0.44411445 0.36746764 0.53514254 0.28720793 0.21628416 -0.40069115 -0.0903645 0.4230799 -0.21320467 0.3373894 0.20313457 -0.40396905 0.059177175 -0.30869034 -0.18170196 -0.23179024 -0.50513744 -0.457981 -0.2817656 -0.15866359 -0.2983662 0.11868206 0.7937691 -0.16959135 0.06656837 -0.42138967 0.0038423615 0.48322615 0.10839702 -0.17142262 0.29164135 -0.275149 0.19161282 0.07558066 0.27012357 0.31641787 -0.036831416 -0.25763762 -0.14953086 0.28547943 0.5394766 0.0864401 -0.31098482 0.040919557 -0.35309535 0.2514582 -0.42484808 -0.48951533 -0.09194908 0.54477376 -0.33706817 0.11082101 0.53747 -0.036171038 -0.09549439 -0.05680866 0.6209782 -0.03222489 -0.10483421 0.3312496 -0.21459632 -0.25867605 0.37247136 0.050875567 0.25435624 -0.059887394 0.014612082 0.07462924 0.0047928607 0.028535746 0.41158688 0.38543853 -0.030279934 0.08737573 0.03932525 0.20125729 -0.025193486 -0.27888855
265 -0.24009389 -0.35350072 0.03501808 -0.20418283 -0.384574 -0.2560178 0.20537612 0.033570558 0.15748832 -0.22579265 0.11488788 -0.17560951 -0.4444948 0.13041313 0.27320763 -0.26604083 -0.08376365 -0.112890564 -0.10026079 -0.21922827 0.31491494 0.41121203 -0.2927617 0.23087709 0.25114113 0.09921636 -0.036151443 -0.21232317 0.009432767 -0.17511354 -0.17011525 0.3081405 0.1449946 0.013318407 0.09404398 -0.24441731 0.40082356 -0.58008796 0.33945966 -0.14670071 0.048231896 0.11984972 0.25371528 0.39323324 -0.15551515 -0.2731705 0.25507766 -0.030653685 -0.026514288 0.14586745 -0.04796413 -1.0122747 0.35804033 -0.1856921 0.2607682 0.5693957 0.068411745 -0.2783561 0.10608661 -0.016219761 0.07822703 0.25659516 -0.056537293 -0.26542863 0.51797 -0.05497316 -0.60641026 0.22381471 0.010641258 -0.10737581 0.2351701 -0.12634544 -0.005849669 -0.6113581 0.23791908 0.09967926 -0.19012088 0.35049626 0.24687487 -0.3814795 0.087928325 0.19169688 0.40417215 -0.20697063 -0.21014391 0.309152 0.40101287 -0.30729032 0.11802818 -0.009609972 0.1414649 -0.62779284 0.07237134 -0.15922312 -0.113479674 0.07860132 0.29981163 -0.080332436 -0.16904123 0.47663134 -0.19197834 -0.18396918 0.38554797 0.2315345 0.11889597 -0.0046790326 0.47380722 0.12394829 0.21802801 0.06460551 -0.21184759 0.2852093 -0.11418102 -0.003298783 -0.4864189 0.5104195 0.10374573 0.26530725 0.12426163 -0.08306647 0.25813517 -0.06409715 0.30588514 -0.42504048 -0.3055059 0.40340745 -0.08429673 -0.6082697
303 0.33444527 0.12757093 -0.23346992 0.3447941 0.011921353 -0.5179709 0.16763166 -0.50650734 -0.17621262 -0.075717896 -0.43284172 0.3324211 -0.7113279 -0.40790933 0.19610035 -0.18640599 0.010073509 -0.31126523 -0.020997291 -0.220671 -0.21588786 0.22842677 -0.09660614 -0.23780352 0.45400858 0.26172414 0.007854525 -0.35117075 -0.026899256 0.06267478 -0.25008982 -0.5536397 -0.25465432 0.15103588 0.06142644 -0.43633598 0.17911603 -0.37287763 -0.026266217 0.12722772 -0.2591228 -0.1806862 0.17949294 0.09610638 -0.17082532 -0.17453624 -0.30251145 -0.11348722 -0.1952526 0.3469878 -0.28534207 0.026696227 0.41397947 0.45982233 0.40724963 0.012841956 -0.080269076 0.06656431 -0.9613644 0.38477102 -0.11419038 -0.49978116 0.25210798 0.18273632 0.061523683 0.19272491 -0.14707348 -0.23579156 -0.36360133 -0.43154702 0.16198973 0.08792493 0.54045993 -0.2815435 -0.046896085 0.21713753 0.046768844 0.47035527 0.13467863 0.20779344 -0.34938556 0.0132968305 0.3007325 -0.2878581 -0.03726759 0.19841145 0.04892651 -0.10893835 -0.16412525 0.34479496 0.17155936 -0.1251315 0.005920994 -0.045662757 -0.3396251 0.38242516 0.47521946 0.04160398 0.46111414 -0.1354025 -0.33793542 -0.2337149 -0.011220461 -0.4633625 0.2554099 -0.2945212 0.1712452 -0.16964865 -0.10246516 0.115740605 0.3174569 0.033709146 -0.32037342 0.1992541 -0.17938259 0.54739165 -0.52268445 -0.1327004 0.19876862 -0.2569562 -0.012455308 0.16215597 0.057018418 -0.25487524 -0.07012217 -0.2785514 -0.38255754 0.25340772
380 0.2816194 -0.23104587 -0.7916602 0.118933484 0.0044460376 -0.22916138 -0.14188202 -0.15674715 -0.12113565 -0.24717656 -0.1583114 -0.2498988 -0.08698338 -0.1871323 0.44328508 -0.38534877 -0.5796037 0.5674069 -0.029085621 -0.46194097 -0.01682201 0.05231302 -0.15291743 -0.057516437 0.40040517 0.38263017 0.15698574 -0.17687261 -0.23390017 -0.16476347 -0.33229804 0.33882698 -0.17674795 0.08799061 0.1008116 0.1326492 0.30490422 0.015977666 -0.5236629 0.36029193 -0.011151975 -0.29090786 0.21385889 -0.10221708 0.22770354 -0.01861897 -0.041760772 0.15160155 0.26354358 0.51276225 0.13639028 0.121231355 0.053646255 0.13035196 0.39079484 -0.011388504 -0.12618195 -0.6784071 -0.18890485 0.17781231 -0.36761636 -0.27473 -0.26572996 0.20896173 -0.15071474 -0.011430001 -0.1939821 -0.2933851 -0.1287847 -0.30024984 0.55169666 0.330323 0.4634622 -0.37853113 0.37847003 -0.16736315 0.08166203 0.8134162 -0.31686106 0.115987144 -0.39819795 0.16686101 0.5078131 0.13377278 0.14171897 -0.39713892 0.59807706 -0.49033025 -0.27877444 0.39225477 -0.17758502 -0.39707273 0.14820486 -0.38357368 -0.2708177 -0.37930706 -0.2893827 -0.12310251 0.0030074392 -0.026306204 0.25501037 -0.09749528 0.052299526 -0.381586 -0.06656154 0.5278606 0.1507874 -0.44559285 0.81018335 -0.062024504 0.38095856 -0.047097728 0.1998751 -0.16272846 0.13506478 0.21766989 -0.10920581 0.29488444 -0.27796757 -0.2972285 0.24788056 0.08451312 -0.03546467 -0.0741761 -0.08378048 0.04179585 -0.03262854 -0.056475207
300 0.34384194 0.20343328 -0.2934356 0.48965383 0.09458423 -0.34000787 -0.017303439 -0.44974402 -0.08528972 -0.095622726 -0.41000006 0.3905988 -0.4980824 -0.4053448 0.3264798 -0.22178137 -0.14622669 -0.27466366 -0.08352835 -0.30731678 -0.15382604 0.23812051 -0.08459718 -0.29464164 0.52286917 0.23585176 -0.044125754 -0.40271863 0.015168335 0.079214334 -0.23512767 -0.6259406 -0.26199952 0.1704836 0.092174724 -0.3777831 0.21564136 -0.27051422 0.0068008215 0.17153856 -0.23140535 -0.14800303 0.19985372 0.07880089 0.015192466 -0.11428379 -0.20959008 -0.09932615 -0.21645534 0.44160616 -0.11585489 0.07511713 0.35463658 0.37564492 0.44378754 -0.11141747 -0.15519586 0.058579337 -0.7782632 0.36984503 -0.15660325 -0.37536624 0.21513437 0.14455499 0.11519633 0.226008 -0.29112867 -0.17348482 -0.29992855 -0.35030958 0.08017482 0.09842613 0.6709137 -0.33900833 -0.09393582 0.2936956 0.08115082 0.47085208 0.18276702 0.022660445 -0.3182437 0.032063387 0.17187192 -0.3247288 -0.02780891 0.13981599 0.12497994 0.017220834 -0.17323032 0.22825573 0.09878669 -0.00045494677 -0.034997586 -0.12316252 -0.36702853 0.39666688 0.54215014 0.007355949 0.5000544 -0.13437696 -0.31868172 -0.20139523 -0.10762138 -0.47679576 0.2778 -0.2118147 0.14422965 -0.3066644 -0.09612664 0.1105583 0.3884668 -0.0656869 -0.29982474 0.12032564 -0.16226785 0.542723 -0.45917428 -0.11020663 0.19585334 -0.20004348 -0.060001604 0.20972899 -0.053220257 -0.39397007 -0.18550068 -0.30603847 -0.37586808 0.24394932
50 0.38286906 0.22484009 -0.22346947 0.14566179 -0.5065241 -0.22587869 0.047511972 -0.07702187 -0.08214066 -0.37956348 0.11955352 -0.19867308 -0.14444122 0.081003994 0.17935476 -0.115385585 -0.26324496 -0.20809668 -0.1084699 -0.11933912 0.120907225 -0.16785564 0.6318201 0.13865627 -0.09556172 0.12377041 -0.087906435 -0.46302426 0.3058779 -0.3785944 0.1421073 0.08837901 -0.03846715 0.098809876 0.5404846 0.0963793 -0.25798166 0.1688758 -0.63035685 -0.1417633 0.029437382 -0.070193686 -0.3362627 0.15595229 0.22913355 -0.30043113 0.10534011 0.17444773 -0.07292424 0.22856835 -0.5572672 -0.37039885 0.38091257 -0.1662651 0.08895759 0.03567998 -0.047820956 0.02781831 -0.2178003 0.173234 -0.101175465 -0.72693276 -0.033762332 -0.63316154 -0.24682885 0.12148125 0.23526582 -0.36581445 0.7423282 0.14748673 0.33495998 0.13914908 0.49665472 0.084933996 -0.3727524 0.015395652 0.026744625 0.0023909865 0.31798962 -0.42557475 0.7502278 0.12885536 0.20666167 0.1403469 0.21508992 0.079760574 0.07976376 -0.25842655 0.1222604 0.33440194 0.08268267 -0.32149738 -0.013869725 0.092460945 -0.52698123 0.5679084 0.08195879 0.005815926 0.14820674 0.37307036 0.3916883 0.016653122 -0.14348377 -0.2911375 -0.01831223 -0.03440178 0.06730895 -0.12170251 0.08780457 0.21532457 -0.3524484 -0.08451047 -0.071174435 0.41400236 -0.61621034 -0.05227894 -0.024304511 -0.23472115 0.28395024 -0.4975424 0.17664532 0.0026037213 -0.14689621 -0.18925518 -0.12024776 0.110382594 -0.38004038 0.38397643
74 -0.15874706 -0.40560216 -0.54773057 -0.28928658 0.050459825 -0.4009916 -0.27585262 0.026461015 0.20394894 -0.14286272 -0.72033334 -0.49797386 0.45130357 -0.4125985 0.13902983 -0.09675276 0.41074252 -0.07821354 0.05478086 -0.2953218 -0.7913186 0.16786821 0.45169634 0.2185928 -0.067330115 0.18034956 -0.31929377 0.1925701 0.14348131 -0.06770059 0.015737742 0.092793256 0.18813528 -0.11588218 -0.29714352 0.27227905 -0.0588454 -0.11102589 -0.028202351 0.58627695 0.24096471 0.18320766 0.14878033 0.22881044 -0.27752513 -0.29244485 0.19689383 -0.031014575 0.48031092 0.23640862 -0.32213795 -0.027140308 0.37973607 0.22055937 0.10653425 -0.2201882 -0.013220235 0.17537215 -0.18685369 0.25365454 -0.15577668 -0.431779 -0.18935075 -0.4185208 -0.06702217 -0.17303205 -0.30118638 -0.23940939 -0.5702566 -0.050476026 0.1079536 0.12958105 0.18259731 -0.10916761 0.4603378 -0.14816214 -0.54411656 0.17853415 0.089069486 -0.15297413 0.2331833 -0.15082832 -0.030344354 0.2926847 0.4669937 0.1831124 -0.03966471 0.20153585 -0.09491643 0.047501095 0.11339641 0.09617332 -0.19176069 -0.14411235 -0.97706574 0.2969271 0.14099988 -0.43610314 -0.07455313 0.15935513 -0.26854026 0.0122216875 0.33605048 0.0769754 -0.049411263 -0.2584712 0.31842768 0.10675481 -0.30138814 -0.008718478 -0.104662925 0.045385383 0.11989291 -0.13735339 0.03333835 -0.056610975 -0.079039924 -0.19398364 -0.16646583 -0.10966225 0.07170986 0.2200767 0.20676243 -0.13329971 -0.34869993 0.31368208 0.007352953 -0.8102615
4 -0.3634622 -0.22392698 -0.72714734 0.107455514 0.1887992 -0.18785399 -0.28957757 -0.48224714 0.15135548 -0.18298359 -0.14823405 0.5781761 -0.1962466 0.4000043 0.003911289 -0.021466617 -0.2676887 -0.00040546982 -0.2923566 -0.19117738 0.16695562 0.0961441 -0.1273423 0.030340787 -0.07342638 0.34578267 -0.52501845 0.17170341 0.37083074 -0.027957976 0.06991391 0.15910603 -0.096035734 -0.15769807 -0.2691054 0.013597323 0.03696853 -0.13955623 -0.20511134 0.2726345 -0.27507305 -0.10521346 0.1219322 0.009913998 -0.1624162 0.44378605 0.14776857 0.1869544 -0.19170332 -0.3572393 -0.21477358 -0.4347953 0.38497478 0.17999233 -0.20594741 -0.46416873 -0.023837557 -0.19028503 -0.41575885 -0.074599445 0.2791215 -0.52376014 -0.3615316 0.5001249 0.18661155 0.34220803 -0.67286843 -0.3853438 0.7284588 0.3311552 0.23913172 0.09865142 0.54845566 -0.06032655 0.22971733 -0.17611738 0.24464975 -0.08177418 -0.060802285 -0.049186774 -0.08279652 0.2552168 -0.10006409 0.14136218 0.5690097 0.49256128 -0.032913893 -0.3200643 -0.08056618 0.43072465 -0.016042031 0.3010557 0.095253155 -0.18158379 -0.6273399 -0.15711123 -0.1653856 0.08437964 0.23101945 0.22564228 0.48946413 0.12058531 -0.23230852 0.043609653 -0.005459243 -0.16535006 0.13330661 0.38438323 0.27741975 -0.16189507 0.23788114 -0.29028234 -0.21487497 0.543952 -0.16777022 0.03551971 -0.16477646 0.0012018676 0.14214405 -0.66704124 0.6213042 -0.49932867 -0.26382044 0.1448406 0.13781624 0.24245012 -0.391863 -0.2001027
258 -0.23112237 -0.44211885 -0.14279702 -0.081835456 -0.4717653 -0.20532289 0.12035747 0.0023170179 -0.00288597 -0.30330828 -0.046049878 -0.11179767 -0.4319532 0.0073525165 0.3063024 -0.28105816 -0.27899513 0.029636726 -0.07554377 0.20972477 0.24745597 0.361227 0.10900216 0.2321531 -0.3167804 0.38936397 -0.106913015 -0.19814442 0.06868483 -0.04627993 -0.20054927 0.5114727 0.14696424 -0.06533696 0.04086595 -0.19351983 -0.04203761 -0.46502665 -0.026390517 -0.37347114 0.25147602 0.17689678 -0.072739825 0.35685247 0.30050784 -0.3107342 0.13106309 0.050673034 -0.12057944 0.3401874 0.01991552 -0.43268785 0.23575754 -0.24206805 0.2042035 0.5088797 -0.17530413 0.0063490747 0.22604199 -0.058859587 0.1264399 -0.061619442 0.18670407 -0.48194838 0.41494524 0.4021519 -0.5110547 0.13900831 0.08524571 -0.25341278 0.42943147 0.31254023 -0.16297503 -0.5380709 0.38198116 -0.19689801 0.3044582 0.59457016 0.26777852 -0.46289247 -0.18682532 0.14674315 0.41852796 -0.11912023 0.20377068 0.497195 0.18666074 -0.029974157 -0.24314958 0.28274968 0.21403842 -0.39185533 0.37692487 0.06521548 0.0017480303 -0.1439977 0.0925361 -0.14686242 -0.29832172 0.18915954 -0.36706793 -0.049841728 0.25763646 0.04751344 -0.22682223 0.23679133 0.4623375 0.17697126 0.16729674 0.11663034 -0.28830305 -0.15103415 -0.099603906 0.16973321 -0.1046015 0.6995134 -0.06968413 0.3591112 0.17942318 -0.18916148 0.28838214 -0.11831031 0.029864032 -0.19629067 -0.24602011 0.3710028 0.18544826 -0.94461095
246 0.31306744 0.20285206 -0.31667736 0.38463598 0.09299317 -0.45974582 0.07339235 -0.4194885 -0.17597091 -0.05295072 -0.3417331 0.50248486 -0.54961103 -0.52554387 0.1890793 -0.14839126 -0.1682392 -0.3101824 -0.14965867 -0.34374928 -0.15574957 0.17899089 -0.045395844 -0.16454898 0.46052077 0.3058824 -0.082906246 -0.41469482 0.09801018 0.06626988 -0.23695032 -0.5094287 -0.17033093 0.20451126 0.08240187 -0.38335472 0.21558931 -0.34252805 0.15438367 0.09063974 -0.20574237 -0.14691772 0.15433012 0.053034473 -0.09191055 -0.09848442 -0.24936359 -0.026652625 -0.275016 0.35700595 -0.23384778 -0.036138676 0.3247739 0.41935882 0.41997856 -0.15196165 -0.13376412 0.048548926 -0.91908824 0.33393046 -0.13127303 -0.42582336 0.18866867 0.09612894 0.16879709 0.09892471 -0.17536128 -0.19930947 -0.43860185 -0.4199781 0.18860029 0.013046742 0.55566835 -0.27243337 -0.0049378383 0.2849673 0.0615041 0.40654868 0.16399965 0.21438144 -0.31912497 0.11574468 0.27873307 -0.39601797 -0.01965716 0.17795087 0.16130634 -0.01776405 -0.09125666 0.32728693 0.18449336 -0.12766454 0.06411939 -0.109155014 -0.4316384 0.42966798 0.5105007 0.080223225 0.51762635 -0.10164676 -0.28532177 -0.3079936 -0.058213502 -0.45758888 0.28649184 -0.20490783 0.10869843 -0.24264799 -0.119706035 0.07266636 0.31442288 0.04183098 -0.27316326 0.06349137 -0.2669932 0.5503393 -0.5203568 -0.065275565 0.080852166 -0.27133563 -0.14880817 0.15017933 0.009445448 -0.34558707 -0.18978763 -0.24654697 -0.29737332 0.27661055
15 -0.30263528 -0.28996554 -0.6310772 0.11214775 0.21197839 -0.21282029 -0.34623292 -0.45464864 0.086849526 -0.1422488 -0.08201482 0.50073445 -0.12764736 0.1923104 0.012648125 0.04118602 -0.20634378 -0.11448984 -0.3843156 -0.1564975 0.23422885 0.04403248 0.059498005 0.056593686 -0.033524323 0.38823554 -0.5260533 0.11030673 0.3667195 -0.11193332 0.21924831 0.12630834 -0.07305452 -0.22801436 -0.38576934 0.01377343 0.14474612 -0.11892808 -0.22304706 0.23805036 -0.13616294 -0.17589927 0.07271447 0.030993542 -0.09088929 0.53180957 0.19898 0.13952059 -0.15155482 -0.3509112 -0.1660953 -0.4550198 0.38258475 0.10592366 -0.25064918 -0.3743089 0.09013249 -0.20804892 -0.51160413 -0.12332923 0.2736261 -0.49902385 -0.51367706 0.4232906 0.14984158 0.3701498 -0.68917 -0.33489987 0.6573776 0.38383982 0.1769224 0.17857459 0.5162266 -0.15451623 0.073193096 -0.1545854 0.26924887 -0.019178333 0.048702147 -0.0055094636 0.02774866 0.29064557 -0.047132585 0.24337536 0.52776337 0.34598002 0.042219125 -0.32332894 -0.035559386 0.40784934 0.042318948 0.18095583 0.075548634 -0.25985557 -0.49946702 -0.18695614 -0.20392984 -0.03846786 0.3209472 0.15285857 0.59218293 0.23691633 -0.27607194 -0.028073186 -0.076123595 -0.15207411 0.20819058 0.30803418 0.23069352 -0.1938567 0.2080504 -0.21614492 -0.3080473 0.5206865 -0.20158198 -0.016999789 -0.20095122 0.05226101 0.29685056 -0.64442575 0.6407442 -0.51580316 -0.2494354 0.041951098 0.07777571 0.11117809 -0.37715298 -0.10114693
268 0.4405182 0.17233066 -0.21893683 0.48558924 0.05358836 -0.46690363 0.044256207 -0.40581074 0.012784968 -0.1258419 -0.43685335 0.4021526 -0.58638203 -0.40707818 0.22017314 -0.18142305 -0.13120039 -0.24566552 -0.09392582 -0.4355914 -0.11964968 0.34467122 -0.10933789 -0.026242739 0.386714 0.16526547 -0.013480715 -0.24283585 -0.0452093 0.08913561 -0.272188 -0.5620227 -0.33277985 0.19969356 -0.024552256 -0.44944143 0.09140274 -0.12071289 -0.09184899 0.20763129 -0.1992128 -0.16846459 0.26975027 0.026629223 -0.09550977 -0.21028717 -0.22995634 -0.104147844 -0.21533212 0.34793246 -0.24262151 0.045276046 0.38679215 0.43562496 0.49376687 -0.05565001 -0.17320563 -0.02195265 -0.8983451 0.40181905 -0.21881054 -0.45726466 0.19999142 0.024882462 0.12883848 0.19328558 -0.20065513 -0.22281852 -0.32018024 -0.32291928 0.165798 0.24964489 0.55444163 -0.1880225 -0.1829064 0.24941812 0.10328843 0.4703281 0.0031292187 0.14273073 -0.28525287 0.06186622 0.2574374 -0.2991134 -0.1130851 0.0631843 0.098370425 -0.12005683 -0.07466724 0.32761285 0.22277573 -0.06586488 -0.021832757 -0.09791946 -0.32788935 0.3972447 0.56448776 0.046715938 0.5210086 -0.12717651 -0.35078663 -0.26570424 -0.10134186 -0.43936992 0.23963706 -0.26399598 0.18235384 -0.27409637 -0.16307919 0.04455048 0.39207003 -0.013234458 -0.27004188 0.15828465 -0.22525446 0.6957663 -0.5517428 -0.0794222 0.19428392 -0.22396086 -0.082953766 0.113588445 0.03517743 -0.35766354 -0.15899996 -0.38449943 -0.42043245 0.2888351
24 0.0121048195 -0.43838257 -0.7478886 -0.13819656 0.12253827 -0.48308834 -0.09024703 -0.11134944 0.2771543 -0.009953523 -0.33211303 -0.7298606 0.545491 -0.56743675 0.14320767 -0.056711834 0.12936807 -0.064935185 -0.09885395 -0.18579467 -0.5401436 0.11684479 0.5880125 0.17032786 -0.110620804 0.23432824 -0.43741298 -0.06509685 0.3524998 -0.3471275 0.24903825 0.039883327 0.23135164 0.036321715 -0.3477227 -0.018907052 0.1666456 0.2718119 -0.12073645 0.51302093 0.48382333 0.09630623 0.41312706 0.21290128 -0.53201824 -0.05779657 -0.06201771 0.012276494 0.6451135 0.016087122 -0.21338686 -0.078646615 0.24310301 0.22397913 0.23846288 0.04037643 0.24762784 -0.046855304 -0.408428 0.36635825 -0.11894528 -0.2161816 -0.26184365 -0.058903746 -0.06476169 -0.18983084 -0.26241237 0.0118629 -0.4523677 0.20574786 0.27181083 0.24717131 0.107872345 -0.19770192 0.2385037 0.11136875 -0.34213415 0.28525883 0.32201108 0.039537337 0.10651309 0.054671638 -0.088924855 0.44729802 0.6259111 0.3954352 -0.10922675 0.28518793 0.12996222 0.052739047 0.060398623 -0.07644633 -0.08036318 -0.06891065 -0.536843 0.17367812 0.041282624 -0.5009873 -0.12817186 -0.0035025151 -0.16902292 -0.02913727 0.29175392 0.22881915 -0.11061873 -0.36856905 0.3358845 -0.0084213335 0.11946255 -0.16490333 -0.18034855 0.006051727 -0.091334045 0.09231043 0.06749777 -0.3237726 -0.06688199 -0.035700325 0.032582194 -0.24114425 0.1023151 0.2908433 0.3276001 -0.21181038 -0.0038248387 0.23971009 -0.23471478 -0.62239414
225 -0.27937657 -0.34314623 0.08587211 -0.30774105 -0.36662397 -0.32357344 0.11703824 0.12611446 0.17139529 -0.21258882 0.125283 -0.19434454 -0.28992885 0.025277922 0.36212516 -0.21531896 0.0058957813 -0.0508757 -0.19752096 -0.24376106 0.22709626 0.4343754 -0.14274615 0.2796006 0.35396308 0.13492054 -0.08880762 -0.4114711 0.041517247 -0.15566398 -0.18929212 0.08719757 0.16385463 0.11022524 0.07551211 -0.21012701 0.34578317 -0.6691217 0.3010672 -0.29757178 -0.0027141455 -0.002127512 0.3045872 0.43462086 -0.011275209 -0.065727964 0.28954726 0.003319461 -0.082720004 0.11670553 -0.116637886 -1.0742797 0.35012156 -0.120409146 0.2908662 0.50344205 0.002374591 -0.20007686 0.14117177 0.066095 0.034071237 0.25639305 -0.063626155 -0.333557 0.49321264 -0.047670692 -0.7711629 0.23121002 0.08928649 -0.216004 0.3777987 -0.073358186 0.003989231 -0.75964385 0.31378564 0.13378583 -0.23988941 0.31633446 0.24527855 -0.45611036 0.088723004 0.19388828 0.45699778 -0.17972259 -0.22595794 0.08933809 0.32016286 -0.3589092 0.09363793 0.036483817 0.13017692 -0.7496326 0.067668326 -0.15410386 -0.04620667 0.018921882 0.32667914 -0.023442049 -0.102008805 0.5013269 -0.26507404 -0.23504588 0.31015563 0.19660181 0.068488486 0.02078771 0.39734015 0.10242993 0.06617349 0.09804842 -0.3496207 0.21254815 -0.10464152 0.10598274 -0.40260196 0.5250876 0.07734807 0.340696 0.045075625 -0.14443232 0.3193891 -0.26753673 0.25779858 -0.4139453 -0.23068637 0.3887855 -0.038616706 -0.618994
248 -0.26283553 -0.33060372 0.047593065 -0.15213916 -0.32785133 -0.27369827 0.16945285 0.12150423 0.25519282 -0.0958305 0.1387522 -0.1847559 -0.4079121 -0.008214149 0.31814894 -0.15927376 0.00593272 -0.09276243 -0.18649668 -0.20917043 0.39301565 0.4878134 -0.291117 0.3142399 0.26448435 0.123687096 -0.07121016 -0.28276664 0.09637214 -0.16878654 -0.23475611 0.14800432 0.115890615 0.10644803 0.06585397 -0.21523124 0.29385215 -0.4788603 0.34501928 -0.28201044 0.124467626 0.08708647 0.3439572 0.44350573 -0.22670208 -0.2708284 0.39011562 0.06488057 -0.084552266 0.09179069 -0.05001059 -0.99992484 0.42203683 -0.1910927 0.13288571 0.5144123 0.08479869 -0.1731511 0.17247434 0.003911961 0.018493295 0.25809368 -0.019199114 -0.3507417 0.5030952 0.07949379 -0.7451129 0.31761432 0.014779263 -0.27266136 0.31795242 0.05380023 -0.024086304 -0.7663327 0.20967683 0.17977338 -0.22699282 0.419597 0.20531157 -0.42963994 0.20157346 0.26864815 0.52324456 -0.28220195 -0.10513078 0.24444558 0.25546128 -0.26558074 0.042097393 0.06933051 0.058781225 -0.6794783 0.11424099 -0.13092709 -0.057274826 0.16839167 0.2949506 0.04123803 -0.1849464 0.4512753 -0.20990446 -0.1394909 0.2452841 0.10201556 0.24076669 0.02823313 0.43363494 0.018772116 0.2151362 0.006122637 -0.14189088 0.15538593 -0.07480433 -0.034900524 -0.5365711 0.47843122 0.06924852 0.17277518 0.093169406 -0.049726382 0.29549968 -0.22123094 0.27423826 -0.4177191 -0.15708491 0.34709206 -0.00699137 -0.56388783
483 0.16343263 -0.09313739 -0.8506214 0.23677357 0.0048122783 -0.14827895 -0.2648261 -0.17332928 0.00449963 -0.059858076 -0.20564735 -0.2567476 0.010181714 -0.19032127 0.438807 -0.44693515 -0.55547535 0.4704293 -0.08988396 -0.4788382 -0.046908177 0.1311165 -0.110152125 -0.1318263 0.4373297 0.28764704 0.050921805 -0.26904842 -0.11317384 -0.117507964 -0.27540767 0.3289527 -0.22001225 0.14432563 -0.026430272 0.12087941 0.1610514 -0.016928893 -0.489439 0.28805104 0.15491393 -0.29212657 0.20492569 0.025478859 0.21976389 -0.16185036 -0.03464823 0.16622867 0.26583737 0.4093214 0.22429833 0.034840196 -0.006949928 0.1146226 0.3801765 0.02632098 -0.19636086 -0.6691881 -0.026332954 0.19527045 -0.35994166 -0.19026834 -0.19897248 0.2034253 -0.07639412 0.07385713 -0.21530555 -0.39893475 -0.23527959 -0.36042437 0.6645464 0.3801518 0.5037291 -0.38132608 0.35040444 -0.17142913 0.09861087 0.9242981 -0.41779253 0.048164945 -0.28060165 0.1081925 0.371744 0.07507113 0.07844692 -0.32948706 0.48228416 -0.48309708 -0.28225777 0.4043961 -0.33013073 -0.39559165 0.03292746 -0.35992908 -0.32462686 -0.32557023 -0.3013218 -0.043573283 0.14428131 -0.113608584 0.26042256 -0.060715556 0.009851719 -0.47395673 -0.012615565 0.506832 0.11632094 -0.47560686 0.77018976 -0.16993089 0.35341996 -0.065444104 0.23674214 -0.22804835 0.1728544 0.15460421 -0.13745078 0.3479847 -0.3648365 -0.38232046 0.14730604 0.08771647 -0.06161671 -0.10318332 -0.13743536 0.061192404 -0.059487972 0.10226459
270 0.2823771 0.28185287 -0.30481738 0.26233602 0.062582314 -0.2694655 -0.02397192 -0.45584747 -0.019992748 -0.09023911 -0.3495873 0.4836171 -0.48016492 -0.39524457 0.29977888 -0.26362607 -0.17910156 -0.49691 -0.10650846 -0.3125533 -0.08831587 0.24230301 -0.18123148 -0.16221863 0.36403534 0.24776255 0.009634863 -0.44569397 0.095816374 0.0640292 -0.2913644 -0.7079106 -0.2246496 0.23514743 0.0361361 -0.5317441 0.111970395 -0.19197813 0.007829166 0.13559702 -0.1683585 0.037273847 0.21370178 0.21866429 -0.19367239 -0.15743025 -0.36874554 -0.13991444 -0.15319991 0.33902544 -0.15562977 0.026426999 0.3550393 0.4673559 0.44975674 -0.024252035 -0.22622867 0.08595658 -0.82594657 0.40145838 -0.18710922 -0.4492689 0.29156795 0.081895255 0.16257112 0.2571288 -0.124723345 -0.2623962 -0.39699945 -0.24785753 0.18891355 0.20580845 0.69503367 -0.33792794 -0.07934615 0.23402566 0.18296696 0.51869625 0.031123558 0.1650247 -0.30368024 0.07944337 0.033908505 -0.26563 -0.030433781 0.16970184 0.11295516 -0.06919657 -0.21229255 0.29383355 0.13850635 -0.020616459 -0.10985607 -0.14073163 -0.23658 0.27567267 0.4828812 0.04441503 0.50680935 -0.1084462 -0.2204645 -0.06842186 -0.12764645 -0.4908478 0.29026988 -0.18755671 0.1410486 -0.30221763 -0.1657352 0.13301453 0.4034475 0.00335319 -0.38495308 0.07322147 -0.1238215 0.48313293 -0.35596454 0.030513601 0.24739978 -0.2984416 0.020422703 0.17504635 -0.01226881 -0.25349393 -0.13957004 -0.31079543 -0.33944297 0.35442856
281 0.2870308 0.095717944 -0.24986383 0.29114956 -0.0040052254 -0.3615467 0.14204487 -0.40116602 -0.10328357 -0.06490511 -0.3864795 0.41029304 -0.59465426 -0.4819205 0.24204747 -0.1652887 -0.10979988 -0.4227586 -0.05845355 -0.35642672 -0.17293915 0.2729732 -0.08805299 -0.107556686 0.28294608 0.36510435 -0.024873529 -0.41366416 0.08468254 -0.027479477 -0.3610143 -0.60460126 -0.29750717 0.12184838 0.18352814 -0.46009552 0.119525954 -0.29703048 0.024867313 0.16902012 -0.24965782 -0.13450024 0.24692644 0.1383942 0.030880312 -0.008841128 -0.32249695 -0.08440437 -0.1719741 0.36181214 -0.16357642 -0.037323494 0.36779952 0.4073173 0.45722696 -0.053794123 -0.27959722 -0.085130766 -0.892441 0.35279247 -0.0867456 -0.420104 0.16397092 0.27429977 0.13265567 0.062408622 -0.19065942 -0.29954493 -0.32388434 -0.3393065 0.16989937 0.102565296 0.55337995 -0.17282471 -0.118057325 0.27274448 0.20614815 0.44339532 0.12451522 0.18321307 -0.32584774 0.20387991 0.2661023 -0.20961797 0.07215978 0.10851945 0.12202364 -0.040836055 -0.24847418 0.26981628 0.13352074 -0.116297014 0.01620571 -0.15274824 -0.26592425 0.4124474 0.51224536 0.058291107 0.4648641 -0.08814265 -0.3320941 -0.09733111 -0.10571428 -0.42458212 0.22796434 -0.23577464 0.15229262 -0.33339727 -0.14024208 0.10335766 0.36935607 0.08669903 -0.23659441 0.119727656 -0.27873302 0.3942564 -0.47638363 -0.045893457 0.15167877 -0.25716382 -0.056087133 0.19240643 -0.009447016 -0.4004263 -0.091477 -0.36418366 -0.32332832 0.32482693
399 0.1616669 -0.1416231 -0.7410414 0.2757528 -0.023942899 -0.24053352 -0.21032906 -0.1373687 -0.14057201 -0.0615224 -0.33179075 -0.29712653 -0.12006588 -0.24982892 0.36360162 -0.3477893 -0.49573824 0.48350984 -0.08484123 -0.3862328 -0.02730486 -0.0018214001 0.076677084 -0.07207773 0.49022898 0.43740717 0.09721246 -0.32826093 -0.19683972 -0.2528018 -0.41082782 0.35174793 -0.2271881 0.09678027 0.092395574 0.11796399 0.24461016 -0.0030169107 -0.55793846 0.30644357 0.017852025 -0.3397791 0.3035961 -0.0712175 0.26603037 0.09173705 0.0972747 0.12562822 0.24280235 0.45783362 0.15509333 0.057185803 -0.039267827 0.12193279 0.47953182 -0.018413663 -0.23458739 -0.6713519 -0.13028589 0.28331056 -0.2329391 -0.22543927 -0.31017107 0.23880246 -0.08624565 -0.065451294 -0.1953389 -0.3307134 -0.044807453 -0.3748251 0.6022353 0.36831978 0.42127886 -0.37358165 0.2101605 -0.18183173 0.122047216 0.7183624 -0.32391095 0.10946322 -0.39104342 0.18492883 0.5595876 0.19921899 0.18221545 -0.36218312 0.5108362 -0.5735513 -0.3648334 0.2826635 -0.3698276 -0.4864976 0.060575534 -0.3482285 -0.22392948 -0.30200526 -0.31632838 -0.17051539 0.06743473 -0.115969844 0.19853877 -0.117980435 0.00478043 -0.45552206 -0.09154401 0.4326788 0.05184962 -0.44974747 0.7964539 -0.09130615 0.42368257 -0.09325175 0.3093854 -0.18886611 0.1595516 0.17694634 -0.16095375 0.3686678 -0.38866797 -0.3420031 0.21853186 0.12972255 -0.05279505 -0.12706923 -0.042048384 0.12718037 0.005612052 0.0150797665
309 -0.033171393 -0.10016933 -0.2957206 0.1760007 0.5867859 -0.19431835 -0.33954594 -0.3958942 -0.051641587 0.33850425 -0.50882405 0.009010909 -0.35111728 -0.1219305 -0.060818817 0.16715735 0.15356943 -0.1693456 0.25191164 -0.17278461 0.044105686 0.015905164 -0.12388783 0.10466945 -0.14066257 0.22627057 -0.0040827985 -0.3299681 0.09216405 -0.23321688 -0.30479255 0.047153186 -0.39358455 0.37726983 0.2470903 -0.2588815 -0.20155722 -0.127121 0.21240267 0.33926916 -0.2730177 -0.32631308 0.39096063 0.33205053 -0.24674937 0.022960095 -0.038276497 -0.12924106 0.221593 0.2351583 -0.15441857 -0.2695021 -0.18709761 0.24204402 0.32537815 -0.3082934 -0.055710673 -0.040500257 0.050606072 0.018320141 -0.31513244 0.028727852 -0.28570518 -0.4350074 0.7511179 0.28573206 -0.46611422 -0.41215304 -0.019223776 0.11838159 0.029789558 0.12112826 0.49215195 0.021829281 0.53252846 -0.09663565 0.4289809 -0.017134765 -0.024957372 -0.088361494 0.38192064 -0.00827084 0.19585744 0.18046959 0.27738497 0.41724345 0.11310162 -0.09142025 0.48678356 0.1388556 0.18315703 -0.44350404 0.2959214 0.21619551 -0.35489082 0.22820741 0.36579287 0.37053502 -0.4707369 -0.3823525 0.4047161 0.13160002 0.13342305 -0.2206389 -0.32694548 0.49381402 -0.47527394 -0.14795251 0.072827585 0.5898889 0.0897581 -0.07214504 -0.048043877 -0.020685304 0.36496708 0.4629527 0.12998068 -0.073736936 0.5476978 0.0333039 0.2578805 -0.084877566 0.028123502 -0.18671663 0.14742178 -0.18796456 -0.37093297 -0.06762149
29 -0.31062227 -0.2535079 -0.736513 0.08730212 0.19549368 -0.15561464 -0.23302403 -0.4399013 0.12539107 -0.02575031 -0.07515525 0.5907282 -0.1455189 0.30599317 -0.1115691 -0.075936325 -0.29351798 -0.08808433 -0.30214062 -0.1087926 0.26044592 0.15375984 -0.15543187 0.10033026 -0.10601529 0.40170187 -0.53579265 0.076232426 0.3575533 -0.17077081 0.064515874 0.22486922 0.07285492 -0.21628833 -0.3374713 -0.067437485 0.0681 -0.16403659 -0.15041472 0.2604208 -0.27040917 0.0331547 0.13759282 0.0491612 -0.058618184 0.593138 0.14982852 0.094411075 -0.24676396 -0.3326917 -0.083254114 -0.47316086 0.38345554 0.10757235 -0.22685029 -0.40476117 0.019409308 -0.21134108 -0.47952083 -0.024395434 0.33841342 -0.47774652 -0.39747953 0.47954592 0.26788944 0.3143159 -0.7256924 -0.3993764 0.5960998 0.38929147 0.3660319 0.1437795 0.5377884 -0.069790795 0.12910497 -0.2519875 0.33596006 -0.01630519 -0.022012142 -0.013527435 0.048580687 0.3868109 -0.1954854 0.17152727 0.641549 0.4584825 0.078748204 -0.24974811 -0.13444951 0.37304544 -0.0888351 0.24361713 0.079975 -0.25213173 -0.58188695 -0.06514636 -0.19802707 0.026752766 0.28945947 0.21393536 0.6362481 0.33083308 -0.17569314 0.052499797 -0.010366244 -0.037216708 0.12859721 0.35501993 0.24518804 -0.14688611 0.20725876 -0.21586496 -0.31293342 0.42581445 -0.22511129 -0.07289583 -0.0874316 0.0075204475 0.22579381 -0.65759045 0.55003303 -0.5214177 -0.28907132 0.04415919 0.10685415 0.12148903 -0.3768044 -0.05387282
277 -0.19967236 -0.37467164 -0.036229122 0.11940681 -0.38356906 -0.37785274 0.11539575 -0.037273604 0.043786492 -0.1191019 -0.036496725 -0.060736127 -0.39523172 -0.034816273 0.25037545 -0.24019559 -0.29876113 -0.065971576 -0.041214835 0.21765621 0.2838829 0.49398077 0.098092005 0.3757953 -0.46325076 0.274334 -0.054106425 -0.2636256 0.04136004 0.06676977 -0.23028928 0.70690894 0.22218366 -0.09475785 0.022825189 -0.25444487 -0.1621448 -0.5278637 0.007098188 -0.28243572 0.14681308 0.17634638 -0.047531996 0.35852852 0.24612404 -0.3075637 0.06439938 -0.08669113 -0.069534115 0.24369702 0.06022386 -0.52686685 0.23190287 -0.26238552 0.20898977 0.6068916 -0.1577849 -0.1075224 0.22463976 -0.034066945 0.21727349 -0.06400059 0.16431132 -0.35691392 0.5066024 0.4444166 -0.3323678 0.16685803 0.065622665 -0.27498633 0.58383536 0.3293944 -0.15995185 -0.49856716 0.20838597 -0.23978463 0.3027065 0.6415582 0.27252787 -0.58265316 -0.21436903 0.1672073 0.39171204 -0.08643888 0.089202255 0.54208237 0.18596654 0.041069195 -0.26421005 0.15495983 0.14766082 -0.34098712 0.44428807 0.023864763 -0.020712644 -0.14131846 0.123214796 -0.08246975 -0.2779508 0.24205624 -0.29565132 -0.07502628 0.41608244 0.06286107 -0.11418143 0.2774315 0.52040935 0.20690319 0.30557877 0.1483112 -0.34865275 0.03178136 0.016997734 0.03146515 -0.11639129 0.6444544 -0.08521308 0.30533907 0.12194594 -0.2110559 0.2352997 -0.18055542 0.017507507 -0.20556177 -0.26993486 0.43717396 0.11405248 -0.74251586
218 -0.25212118 -0.41008538 0.014580987 -0.04554838 -0.42120016 -0.20767194 0.029692909 -0.035992626 0.020873787 -0.39698857 -0.034699384 -0.0816639 -0.3688113 -0.07328615 0.21383704 -0.28075305 -0.28390095 -0.21035197 -0.18054067 0.2375464 0.31911337 0.48475686 0.23710693 0.32871467 -0.2860072 0.44367403 -0.044925146 -0.27592853 0.14305374 -0.009417009 -0.0024345387 0.4891652 0.061924364 -0.04327379 -0.08029923 -0.24740157 -0.08695036 -0.49133053 -0.08645209 -0.50627714 0.25046563 0.10530201 -0.03653383 0.20729335 0.2837753 -0.28800717 0.15163286 0.0055596884 -0.05600194 0.2518395 0.043350425 -0.65183836 0.124010384 -0.19292952 0.29029092 0.5104504 -0.21735011 -0.008308067 0.15572058 -0.013236725 0.10642465 0.022241278 0.13721737 -0.29868022 0.45404765 0.29631528 -0.5072436 0.17077361 0.0696656 -0.24139564 0.53608096 0.34614918 -0.15629584 -0.5445131 0.27855235 -0.23313247 0.34153154 0.69489056 0.38283664 -0.60924315 -0.0942244 0.11211007 0.52776027 -0.15084639 0.018336134 0.3747876 0.15404958 -0.036851138 -0.3275705 0.1587796 0.21405452 -0.37012777 0.40321633 -0.019131709 -0.0037005588 -0.21083735 0.10111851 -0.1566083 -0.16926078 0.13373226 -0.32764125 0.095601805 0.24159904 -0.016679632 -0.1657269 0.2158912 0.3429638 0.14071496 0.20163953 0.20946337 -0.37753397 -0.05070384 -0.019441748 0.08989572 -0.00469695 0.77583444 -0.028774334 0.35346782 0.20663203 -0.18853125 0.32679507 -0.20648213 0.028218122 -0.18808533 -0.24936192 0.38594 0.22105178 -0.8358282
213 -0.27150834 0.20232607 -0.02254403 0.37905625 0.27098086 -0.04374543 -0.4078624 0.22845408 -0.3314095 0.109778084 0.11108538 -0.08662136 0.09829333 0.042471845 0.7111824 -0.13344404 -0.6341916 -0.38781777 0.304603 -0.3636743 -0.15334548 -0.16049638 0.13702472 0.12939575 0.02759518 -0.56551296 -0.37390944 -0.14470486 0.2944286 0.12416835 -0.40009934 0.39765075 -0.016749663 0.35919932 -0.21307792 -0.52039427 0.48330367 -8.3137915e-05 -0.09295356 0.44167927 0.21421294 -0.14800371 0.23547353 0.3863823 0.19156341 0.13757458 0.19590226 0.14952897 -0.31310147 -0.21360298 -0.43547755 -0.43509138 0.015882337 0.20756643 0.26278007 0.55184907 -0.22004488 -0.059414834 -0.34761164 -0.22019382 -0.09238018 0.15542486 0.033577263 -0.17507267 -0.035395663 -0.27484694 -0.45463535 -0.55187684 -0.22894818 -0.011327012 2.0193263e-05 0.11420821 -0.19367552 0.1317162 0.104940325 0.14057072 0.211521 0.24310742 -0.32094282 -0.19924587 0.40602738 0.5904114 -0.012541382 -0.43869683 0.009741009 -0.2751438 -0.2790528 -0.21001656 0.0011687363 0.22096908 -0.1890599 -0.033255804 0.5596644 -0.17129797 -0.484433 0.75798947 -0.13073188 -0.118273824 -0.28808507 0.23235926 -0.19994554 0.19980839 0.3994223 0.009954151 0.20215242 0.049938872 0.24354747 -0.097608134 -0.09801067 0.2441129 0.2905232 0.15721425 -0.23784563 0.34555307 0.15617718 0.016532676 0.19566904 -0.3142633 0.21391514 -0.30488726 0.3877817 -0.15876663 0.14951839 -0.1154259 0.40918776 0.46221867 -0.44969788 -0.55101764
318 -0.0642613 -0.1292097 -0.21474971 0.03349414 0.5638964 -0.31236437 -0.39064437 -0.38039067 -0.26923743 0.2783452 -0.50293165 -0.0044773095 -0.2858098 -0.1341384 -0.13252652 0.1462354 0.07922857 -0.2219429 0.19158156 -0.06662251 0.064867675 0.034491673 -0.01937711 0.11517835 -0.09260824 0.18187585 0.05093606 -0.31791437 0.076919876 -0.30921188 -0.30487162 0.011844907 -0.47089672 0.25693068 0.2154177 -0.11749694 -0.15477854 -0.13840498 0.3811771 0.26685217 -0.21896228 -0.2735962 0.30738288 0.19739613 -0.25342545 0.0938115 -0.07960644 -0.14007345 0.25215647 0.27833915 -0.08936436 -0.2556614 -0.09362377 0.24007769 0.4486668 -0.3744132 -0.040544286 -0.038233574 0.020038992 -0.01611256 -0.33225942 0.12354778 -0.4730191 -0.4034931 0.76622033 0.22813214 -0.535113 -0.3930937 -0.040176366 0.0066373157 -0.029385403 0.07852646 0.5476597 0.020446543 0.46649474 -0.03986683 0.40950963 -0.021777086 -0.04845358 -0.15912445 0.3594048 0.015718738 0.30922565 0.15868704 0.33643013 0.42586598 0.078750364 -0.07033073 0.5219339 0.14511245 0.34991187 -0.4237573 0.29766136 0.13997862 -0.35317174 0.19981614 0.46499148 0.4490832 -0.4099713 -0.2870491 0.47561774 0.102423646 -0.05214211 -0.28153116 -0.26584503 0.3984343 -0.54582024 -0.24960944 0.027405802 0.56083715 0.1922014 -0.16862977 -0.0017913783 -0.08147885 0.24666326 0.47002798 0.09828262 -0.044768162 0.6175028 0.035577625 0.38768584 -0.030433556 0.08008681 -0.26521522 0.17841655 -0.1824711 -0.28092876 -0.020401733
204 -0.504663 0.14155933 0.07522196 0.41562706 0.37047225 -0.064049184 -0.48642677 0.26780492 -0.4826557 0.32458603 -0.12680192 0.057471726 0.26162684 0.04387164 0.6325129 -0.014097025 -0.62052286 -0.5192066 0.14108562 -0.28394312 -0.17651235 -0.0065064477 0.43361422 -0.027804686 0.16316839 -0.48405498 -0.15630853 -0.09394053 0.22847277 0.13980184 -0.642256 0.31131223 -0.06582851 0.09677135 -0.30831134 -0.4503004 0.53244656 -0.123808265 0.08661798 0.6684567 0.31833488 -0.092864 0.28195995 0.24526964 0.07913706 0.22925575 0.4797386 0.20072217 -0.4327234 -0.2793097 -0.51982355 -0.42643765 0.058666393 -0.018969271 0.529762 0.5813054 -0.23116088 -0.05871632 -0.30523932 -0.25179398 -0.12379892 0.10126539 -0.12315134 -0.11797336 -0.055462778 -0.18505962 -0.22414587 -0.68911237 -0.06757516 -0.019035406 0.1210515 0.110063635 -0.25852397 0.09473832 -0.039447233 -0.10547266 0.19115497 0.36840382 -0.22609065 -0.16469689 0.202783 0.41525948 -0.02754188 -0.44677755 -0.19594808 0.016859781 -0.37838468 -0.39973179 0.004898464 0.08491346 -0.06980772 -0.042302758 0.41780874 -0.054590676 -0.27463326 0.632953 -0.28734782 -0.35259593 -0.38017917 0.1945213 -0.050645925 0.047753073 0.20033279 -0.012802608 0.3513273 -0.04785348 0.27509734 -0.20260055 0.16310544 0.1415851 0.22475402 0.11756147 -0.3276672 0.39654377 -0.03321068 0.106748365 0.11038868 -0.51691455 0.40880242 -0.32096562 0.42801502 -0.18704624 0.26461235 0.07460416 0.4573617 0.46589392 -0.3424241 -0.3409359
245 0.15016103 0.14024612 -0.36260822 -0.07164156 0.22595926 -0.24816856 -0.05843578 -0.18592985 -0.11351728 0.3783759 -0.15988564 -0.33874598 0.089269996 -0.24609073 0.02264815 -0.12862037 -0.29780564 0.06517295 0.037789814 -0.32659927 -0.11908909 -0.14715713 -0.21724698 0.026154706 -0.068329535 -0.14223436 0.15053977 0.09346195 0.10765825 0.09291358 0.25352976 0.17748602 0.035846494 -0.060660325 0.21842146 0.057145324 0.0022313362 -0.34015027 0.22148642 0.22368187 -0.15276055 0.09573389 -0.31477264 0.17069829 -0.13590242 -0.16688435 -0.01801813 0.3414355 -0.10795424 0.602616 0.008079044 -0.39999557 0.042904742 -0.26238868 -0.15706037 -0.046646714 -0.4173241 0.086989656 -0.12168722 0.08326578 0.023842055 0.18633045 0.34079546 -0.13551119 0.49213 0.2765642 -0.29690823 0.00043069135 -0.186031 -0.55048364 0.042015556 0.3529539 0.21924756 -0.033140942 -0.77054477 -0.5089774 0.35151973 0.47684485 -0.04282401 0.0061188787 0.15328828 0.18865676 0.34785205 -0.23589319 -0.09077659 0.42528895 0.21099897 -0.51395285 -0.5651455 0.30851954 -0.13538724 -0.2724169 0.14477582 -0.017429326 -0.4643057 0.07233433 -0.18070242 -0.41827723 0.13981469 0.04504924 0.4496285 -0.19200504 0.16385461 0.3281981 -0.31378984 -0.28062177 -0.45034838 -0.13812284 -0.23428003 0.14264709 0.043061845 -0.26987758 -0.67769426 0.90681297 0.07574991 -0.19091503 0.101493135 0.12518388 0.17340858 -0.19943465 -0.236109 -0.27670765 -0.2663587 -0.45546857 0.56640655 0.18390396 -0.057781454 -0.41862082
274 0.02908255 -0.217404 -0.308773 0.11658773 0.5559062 -0.25439745 -0.3471513 -0.3719348 -0.106892824 0.27173626 -0.6096544 0.040080115 -0.3688007 -0.10082622 0.15142155 0.11697819 0.115644746 -0.20775624 0.23847914 -0.057804033 -0.049572162 0.16242656 0.006518486 0.14604615 -0.07374052 0.24334237 -0.023419224 -0.24140437 0.07590634 -0.30503494 -0.35379776 0.1514437 -0.4869483 0.2374464 0.22801012 -0.13469681 -0.21794316 -0.021705348 0.22606352 0.31074664 -0.26971364 -0.31047526 0.35314083 0.20717542 -0.21234326 -0.0009372472 -0.13471282 -0.21917261 0.24781197 0.2937986 -0.14649424 -0.22332852 -0.074550726 0.30119267 0.33703423 -0.3714845 -0.09023259 -0.0014823294 -0.04628347 -0.07400865 -0.3261199 -0.0152899735 -0.3985975 -0.3297968 0.69857657 0.2992443 -0.41177845 -0.36555946 0.042897567 0.113257006 0.043653168 0.15847129 0.45293385 -0.032826 0.46094826 0.043669466 0.35222778 0.1162877 0.06203102 -0.2378688 0.33356756 -0.1108346 0.24181154 0.1839041 0.09058116 0.43483022 0.09537642 -0.10719063 0.5349449 0.10599108 0.3153659 -0.4490085 0.26413304 0.14456007 -0.21458602 0.23913133 0.459083 0.5291947 -0.47550806 -0.34674594 0.3487618 0.14856572 0.069259085 -0.23889604 -0.318744 0.42487064 -0.46610707 -0.043096878 -0.076003395 0.5971032 0.106169544 -0.01702504 -0.114064805 0.01870016 0.45406067 0.52723414 0.14582582 0.028646147 0.53631973 0.144595 0.3710127 -0.0647207 0.0068581593 -0.13924834 0.17608427 -0.1364915 -0.4441314 -0.029164722
144 -0.26537934 -0.36492535 -0.83208287 0.07439152 0.2474487 -0.20424967 -0.40388972 -0.35187095 0.18469998 -0.1408358 -0.10897175 0.48633906 -0.19369061 0.36741304 0.13926227 0.09527409 -0.24055798 -0.09085186 -0.42719528 -0.14964981 0.36960077 0.24741994 0.04800537 -0.034101885 -0.10425645 0.4708919 -0.41528076 0.3335411 0.2417683 -0.092330456 0.118948705 0.13520707 -0.09820567 -0.28859836 -0.2677256 -0.07455566 0.278398 -0.3057941 -0.24817933 0.23007149 -0.2215664 -0.097114295 0.036787756 0.022550436 -0.08300975 0.5348675 0.21261504 0.18216175 -0.10500556 -0.20891091 -0.20395944 -0.51453394 0.2981259 0.2755306 -0.25820118 -0.4135799 0.08711099 -0.28930092 -0.48303828 -0.0666855 0.3030303 -0.49419037 -0.27395865 0.6891534 0.23365207 0.15218684 -0.65055424 -0.20011695 0.7153398 0.32443488 0.2326647 0.12491231 0.6065022 -0.020884553 0.19870837 -0.2531993 0.43277252 0.05172218 -0.01159623 0.0029541657 0.025161112 0.28198805 -0.19500986 0.19987358 0.46401814 0.44164777 -0.0056056483 -0.37999132 -0.021510292 0.4497618 -0.01281588 0.37333554 0.07351306 -0.24115428 -0.67348677 -0.14722146 -0.21134189 -0.04386687 0.4796028 0.20134535 0.47138873 0.35831276 -0.31444344 0.042155877 -0.031940266 -0.30674294 0.16818553 0.50649065 0.17181455 -0.034100473 0.21382007 -0.27468002 -0.23681138 0.48880532 -0.15237617 0.10208961 -0.049205627 0.106969975 0.15258381 -0.79891515 0.56734717 -0.3898934 -0.23371427 0.1430547 0.0010652398 0.14980777 -0.277479 -0.17264253
360 0.3540691 -0.14918332 -0.29194683 0.2804542 0.4070455 -0.46268982 -0.4690148 -0.38082734 -0.11333471 -0.08927078 -0.57988536 -0.028728116 -0.09376304 -0.2929928 0.033027284 0.19635618 0.043226294 -0.16093382 0.27986193 -0.012448394 -0.052435 0.3964579 -0.022516105 -0.016486121 -0.38675514 0.3912493 0.06886204 -0.22245286 0.1837263 -0.60691863 -0.30088726 0.11739975 -0.23000872 0.2470284 0.41682246 -0.06845448 0.12433074 -0.06167977 0.18325698 0.32662168 -0.1295514 -0.23908582 0.47378325 0.58036906 0.005518071 0.26371884 0.24316451 -0.033533804 0.039468125 0.30906206 -0.34579554 -0.11222596 -0.43881646 0.6875155 0.30770335 -0.4157612 0.23529646 0.01869056 0.09082882 0.0011243378 -0.20590188 0.046288863 0.04661256 -0.29528365 0.8060442 0.0382914 -0.20912886 -0.37552583 0.086318605 0.023196898 0.048620213 0.25034508 0.4512486 -0.5036953 0.091119625 -0.015268917 0.46173307 0.22020558 -0.21379597 -0.37997356 0.24649762 -0.06872794 0.25258583 0.31130227 0.26116365 0.529352 -0.04142688 -0.050818343 0.477556 0.36034107 0.57811046 -0.4857378 0.08526547 0.19099411 0.0074430653 0.08367712 0.3110398 0.24530658 -0.18346117 -0.4884987 0.6243804 -0.012051288 0.18864587 0.07032826 -0.48673224 0.25543913 -0.3317102 -0.09107507 -0.15586394 0.546667 0.12583885 -0.33584365 0.06811659 0.087158404 0.5281903 0.28055504 0.31406966 -0.09953063 0.59020454 -0.25953004 0.09550565 -0.14741816 -0.06345709 -0.39521012 -0.17862885 -0.040699765 -0.36781013 -0.31045318
146 -0.15442364 -0.2235829 -0.8507353 0.20366555 0.24199976 -0.19434935 -0.30772623 -0.28136018 0.21206097 -0.15774287 -0.13603982 0.556983 -0.11687245 0.42400947 0.16973034 0.031941745 -0.26833978 0.033871982 -0.33936414 -0.20585854 0.42764437 0.21711475 -0.08663394 0.023873836 -0.061395586 0.4442793 -0.49317017 0.37638247 0.1964765 -0.095957436 0.073144965 0.17464793 0.066665195 -0.28127712 -0.3686667 -0.10156704 0.25324526 -0.34071296 -0.21089803 0.30405188 -0.27390155 -0.065634586 0.04488075 0.08819035 0.021665169 0.57540226 0.13776815 0.16049373 -0.2907113 -0.24702142 -0.16290192 -0.46387246 0.43671966 0.2493314 -0.27903777 -0.5127798 0.09957307 -0.3907017 -0.62894213 -0.09160969 0.3353924 -0.50972176 -0.33630502 0.4841702 0.18753247 0.14484408 -0.7481979 -0.28389242 0.7427658 0.38852182 0.2560037 0.005417896 0.58157796 -0.0581724 0.12215625 -0.32419574 0.4332767 0.0048168865 -0.058347795 0.11745468 -0.041464053 0.25252447 -0.2575308 0.16618262 0.4868526 0.45801216 0.00022148794 -0.33014196 -0.03382972 0.45204133 0.006286448 0.3289413 0.04646174 -0.21263139 -0.7142157 -0.10404569 -0.13949996 -0.10001655 0.4270785 0.15052997 0.43912834 0.16804875 -0.18837494 0.057806704 -0.06547728 -0.24719088 0.09496149 0.42208147 0.31145188 0.020454915 0.30149782 -0.20313464 -0.2338417 0.4279521 -0.22989413 0.03766437 -0.03947603 0.17466213 0.06931071 -0.8202128 0.60425436 -0.4696801 -0.13123776 0.23873721 -0.048100427 0.1997694 -0.32808858 -0.2590974
288 0.13749656 -0.025265496 -0.7116503 0.119286835 0.018207064 -0.22839291 -0.281911 -0.14169939 -0.10451002 0.0019502185 -0.26376364 -0.13704172 -0.049882323 -0.14038596 0.39811084 -0.49626788 -0.5399648 0.6070817 -0.17706707 -0.6011768 0.029066814 0.25090766 -0.16664517 -0.24417606 0.43574145 0.43526846 0.029590506 -0.30395934 -0.2962573 -0.3780085 -0.31822425 0.45030898 -0.25370118 0.28999737 0.107832074 0.093063444 0.2489848 -0.0727907 -0.3119545 0.32830575 0.017623793 -0.4276378 0.28205404 -0.013198534 0.18265472 -0.050842594 0.10552151 0.28099477 0.31330457 0.5553401 0.15808386 -0.08225456 0.07610306 0.16707158 0.35919318 0.14336962 -0.10937393 -0.72657305 -0.040242914 0.091944814 -0.39768147 -0.17197727 -0.34214497 0.2615235 -0.23630981 -0.021323415 -0.23706122 -0.28215384 -0.29234204 -0.41906038 0.6295337 0.22011082 0.36899334 -0.24756765 0.2043343 -0.14002174 0.064216465 0.7888836 -0.46305034 0.030710228 -0.33560959 0.24298227 0.52257466 0.07740157 0.24818099 -0.29662898 0.43113747 -0.43050417 -0.32338902 0.33307135 -0.41641256 -0.48903957 -0.061133936 -0.41809225 -0.30843747 -0.34143654 -0.33808523 0.047765404 0.22045822 0.0074939374 0.19421977 -0.15704861 0.19616182 -0.36595014 -0.12097551 0.6450098 0.19070977 -0.42021117 0.78643066 -0.18239655 0.30157387 -0.14476024 0.21428831 -0.19510339 0.14576967 0.1927494 -0.23150407 0.42433557 -0.3564572 -0.3514291 0.29722488 0.0034331097 -0.11404335 -0.15062468 -0.013789498 0.11608447 -0.056675073 0.0017773084
32 -0.15817812 -0.3508719 -0.74830085 0.06282023 0.28024736 -0.29086748 -0.43749216 -0.41195032 0.2573189 -0.12524123 -0.06501969 0.6332769 -0.23100068 0.4826955 0.1444218 -0.015223586 -0.22951536 -0.12635031 -0.37326956 -0.1965421 0.4236834 0.22601947 -0.1334177 0.023261385 -0.115633145 0.37087885 -0.42082566 0.4338401 0.25521925 -0.17562687 0.14686134 0.26339447 -0.045995977 -0.20768024 -0.35159504 -0.03279027 0.205997 -0.2296114 -0.2222996 0.2948624 -0.27746034 -0.11659451 0.009983206 0.06146848 -0.08234334 0.44935587 0.13209324 0.110007234 -0.2663461 -0.22470242 -0.26005244 -0.4828286 0.37500697 0.10650781 -0.18463236 -0.42610615 0.047357343 -0.2330131 -0.5610248 -0.1354707 0.3143224 -0.568566 -0.32125205 0.6018103 0.07006204 0.26326615 -0.63312554 -0.24344411 0.70008564 0.3271611 0.15860204 -0.009624468 0.61279666 -0.030577296 0.15137139 -0.3010066 0.42802358 0.06512346 -0.034154095 0.020222535 -0.057141174 0.2061287 -0.21453682 0.09780086 0.4235264 0.52049935 -0.07546259 -0.26732814 0.013111255 0.37957227 -0.017063707 0.361931 -0.019579364 -0.16660982 -0.6786992 -0.17644003 -0.16718492 -0.14744242 0.44992912 0.16456255 0.44817892 0.13630958 -0.17896532 0.008614638 -0.16030982 -0.27297562 0.07210675 0.45685825 0.2963128 0.024863036 0.29705304 -0.2419739 -0.25570184 0.47187704 -0.23139776 0.118289724 -0.08557859 0.16258354 0.14509511 -0.7034871 0.5814205 -0.43011525 -0.10141694 0.21515688 0.059156187 0.25815922 -0.28749672 -0.30574435
96 -0.09725886 0.16127884 0.0015929274 -0.18684867 -0.28810117 -0.049230624 -0.34018198 -0.3401967 -0.1266898 -0.13407642 -0.2526133 -0.23393615 -0.2597752 0.29353657 0.16981336 -0.16390601 -0.2190808 -0.14920907 0.1562582 -0.09006849 0.14486916 0.03474958 0.46528324 0.11565604 -0.5608338 -0.061140563 0.1457954 -0.3378371 0.13613562 -0.59827113 0.3633795 0.32183003 -0.24347723 0.00091808586 0.35609996 0.005171404 -0.5012739 0.06983073 -0.35001466 -0.09147115 -0.18581267 0.42169458 0.22372033 0.20107178 0.1251511 -0.11625744 0.31023306 0.04037724 -0.034006048 0.39700326 -0.3794353 -0.15288067 0.32415265 0.16828722 -0.28633156 0.2904997 -0.03045165 -0.15698978 -0.03392813 0.2478741 -0.41703555 -0.6264487 -0.08619862 -0.3375454 -0.21346629 -0.20491946 0.019993134 -0.38045418 0.340543 0.18106931 0.27445304 0.049747165 0.42974094 0.068896316 -0.3584133 -0.091415286 0.02895549 0.06186941 0.288151 -0.2940483 0.33093807 0.2834252 -0.22852626 -0.031103445 -0.01798052 0.3570764 -0.12269218 -0.25228196 0.24079302 0.42157793 -0.096437395 -0.39166358 -0.18308142 -0.021874752 -0.3866353 0.6530579 0.2419769 -0.116615556 0.15927754 0.3347036 0.026464673 0.16614002 0.057763863 -0.5770719 0.30210695 -0.31481543 -0.1731305 -0.37984648 0.46985844 -0.27998137 -0.44100833 0.24909668 -0.489775 0.64990985 -0.42849988 0.07223406 -0.10616543 0.11938698 0.3508686 -0.59182966 0.116847925 0.47514638 -0.25785276 -0.30034617 -0.08272228 0.15520638 -0.09463424 0.3152461
224 -0.62686837 -0.2555222 -0.4399937 0.5326144 -0.38147023 -0.5329367 0.1627179 -0.0389105 0.37042716 -0.046450365 -0.23617752 0.005729594 -0.33423007 0.14018035 0.052775647 -0.30913296 -0.33215615 -0.1329093 -0.14365421 0.097507015 0.4598624 0.20974569 0.27729574 -0.010399827 -0.5725413 0.119413525 -0.03592047 -0.19974717 0.4260814 -0.07400708 0.2175031 0.35676777 0.18764873 -0.17017026 -0.09072128 0.19034763 -0.08537123 -0.105453394 0.08375044 -0.06163283 0.004557995 0.19202274 -0.58265376 0.4732125 0.33116987 -0.23859614 -0.07194485 0.20281696 -0.2448646 0.32313383 -0.08929487 -0.45235032 0.15981844 0.048780806 0.16250251 0.30863303 0.0059301094 0.06367783 -0.08179259 0.18456909 0.31566447 -0.0076445965 0.26886424 -0.40583813 0.32009247 0.3581591 -0.23226282 0.087699264 -0.1296904 -0.19035675 0.64639 0.3443353 -0.37989336 -0.16897833 0.3874662 -0.12774213 0.63309485 0.34933415 0.18855563 -0.14023736 -0.22251822 0.30426955 0.36309952 0.040878482 0.3712529 0.24686874 0.25817448 0.13984029 -0.5633492 0.12816633 0.08926616 -0.12199902 0.5337314 -0.013158758 0.0888536 0.067715205 -0.08118826 -0.09746217 -0.13750169 -0.015947603 -0.1307824 -0.13035041 0.4998489 0.24989651 -0.079162635 0.5098364 0.38233662 0.21071069 0.14408524 0.099862605 -0.0009586487 0.21308164 0.015764033 0.2290648 0.2907861 0.78110445 -0.32260543 0.38776764 0.21788386 -0.05975228 0.09526262 -0.004531913 -0.2670148 -0.12845665 -0.23135936 0.16353895 0.25827014 -0.55494326
264 -0.4789252 0.21732166 0.02587332 0.39803496 0.21918954 -0.174515 -0.42053956 0.21683457 -0.44589174 0.14707328 -0.10383403 0.09835951 0.107589796 -0.0010643621 0.6468243 0.016556498 -0.6867356 -0.35403773 0.14430812 -0.4325578 -0.07510308 -0.18607864 0.32195246 0.11229907 0.14281675 -0.50689715 -0.3232294 -0.071930654 0.3405467 -0.016491603 -0.21578033 0.37549067 -0.06276899 0.4692531 -0.36080548 -0.56848776 0.46028882 0.1508563 0.0624182 0.55593956 0.3092481 -0.28966644 0.30581728 0.3632415 0.06746292 0.08657796 0.38024685 0.21435829 -0.3455387 -0.19776706 -0.5002673 -0.4042337 0.02935221 0.2673286 0.20862561 0.68692493 -0.1615008 -0.15212065 -0.39228854 -0.12949969 -0.29279828 0.12778927 -0.042610526 -0.21574807 -0.011725645 -0.19210276 -0.4000794 -0.5571421 -0.097401604 -0.058423482 0.058700938 -0.0476444 -0.18930104 0.072714776 0.07309215 0.07549048 0.1327748 0.29108945 -0.43004286 -0.17077242 0.29722655 0.40469736 0.0019867767 -0.5254335 -0.012902092 -0.26807007 -0.30306053 -0.18974727 -0.021810938 0.10678674 -0.06926776 -0.03299337 0.5310092 -0.07822052 -0.5742543 0.5921073 -0.14568268 -0.10102891 -0.2857423 0.23753984 -0.18622078 0.013517055 0.3423399 0.023241408 0.20637743 0.0035395778 0.20525643 -0.1629571 -0.12219067 0.28000182 0.38206372 -0.07252625 -0.2287961 0.28678632 0.11998539 0.13404897 0.13989446 -0.41057277 0.1882886 -0.1438547 0.4576781 -0.23724738 0.18788812 -0.08610161 0.4028225 0.48495516 -0.2654198 -0.50247544
302 0.1665811 0.111366116 -0.22689602 -0.0668743 0.18175209 -0.2829398 -0.10313922 -0.050232343 0.04367178 0.3406609 -0.059227232 -0.10468301 0.08499411 -0.2068194 -0.13115388 -0.02737779 -0.23302487 0.017340539 0.035423715 -0.38556495 -0.06582757 -0.0113526415 -0.048270043 0.031070855 -0.018862512 -0.14863738 0.047652476 0.16051823 0.23712504 -0.029991597 0.40855995 0.17150313 -0.028902402 -0.10525236 0.15191706 0.12931734 -0.034919616 -0.16239966 0.33710697 0.28122854 -0.16368814 0.087637514 -0.20585996 0.16982731 -0.12325306 -0.12294585 0.027128931 0.34038797 -0.11165562 0.63713396 -0.13311614 -0.4479461 0.092332825 -0.19743963 -0.23052084 0.057549644 -0.39827397 0.016541477 -0.20963769 0.2233785 -0.029912561 0.20470046 0.21106595 -0.28928107 0.46472147 0.3584983 -0.3966374 -0.031858582 -0.0719216 -0.51515096 0.09473502 0.2964615 0.12307195 -0.044522446 -0.8950192 -0.59553456 0.31719908 0.44457918 -0.07261972 0.012370423 0.097572334 0.18903555 0.3905737 -0.20836006 -0.23395741 0.33639118 0.18145217 -0.41056752 -0.5712951 0.33121482 -0.14221855 -0.39937863 0.15640238 0.019642197 -0.45459056 0.022916418 -0.23907508 -0.45702067 0.10962218 -0.0011714979 0.4158481 -0.32217193 0.042070277 0.35666525 -0.41837722 -0.2268828 -0.48856995 -0.17977239 -0.29253462 0.17121258 0.07552926 -0.22694299 -0.7644825 0.9493018 0.10069972 -0.07839031 0.059535578 0.2645804 0.12424173 -0.13790837 -0.0901766 -0.29391652 -0.3321321 -0.46262744 0.5766416 0.22750343 -0.020401247 -0.40975273
454 0.23375851 -0.19518505 -0.27692005 0.22121127 0.39127403 -0.49768132 -0.384072 -0.3476218 -0.065665185 0.020452028 -0.6601149 0.051547743 -0.105023466 -0.2810496 -0.08073085 0.16558082 0.053789735 -0.28834704 0.2942069 -0.0067505385 -0.04485467 0.4210363 0.027551798 -0.06897663 -0.20193042 0.3766667 -0.016157487 -0.096158594 0.18621081 -0.59172916 -0.30485237 0.088591725 -0.25483364 0.30066955 0.35531217 -0.11940972 0.06052222 -0.09887063 0.29367507 0.34596518 -0.095347196 -0.2934305 0.4453938 0.62605894 0.016076747 0.18870786 0.2431088 -0.0808654 0.13620754 0.16143191 -0.38344526 -0.18073611 -0.4049291 0.5400693 0.18031728 -0.3244981 0.21319906 -0.10684715 0.16483943 -0.056797817 -0.14071742 0.021976445 -0.06421351 -0.30349916 0.8258978 0.06219806 -0.16215777 -0.4783599 0.079242595 2.0431136e-05 0.06563663 0.14757675 0.54991984 -0.40056336 0.04619788 0.03884308 0.40980285 0.15170677 -0.29018557 -0.3815056 0.15164927 -0.07951005 0.2237545 0.42019534 0.26961023 0.6558903 -0.15576047 0.09271498 0.44530484 0.34208226 0.53707254 -0.425222 0.10751871 0.26877442 -0.18517469 0.06971934 0.28624603 0.2788382 -0.12531547 -0.5182842 0.6309399 -0.06064747 0.2670478 -0.037797034 -0.4741891 0.24742527 -0.31499174 -0.23398076 -0.11290365 0.5072754 0.10453048 -0.44076258 0.09718649 0.092794195 0.49986055 0.26411802 0.30531925 -0.07417543 0.59014815 -0.2730733 0.101226754 -0.08692415 -0.06572779 -0.4362887 -0.11321601 0.008881522 -0.430668 -0.16144745
39 0.16992174 -0.023328042 -0.4279785 -0.13129275 -0.28026238 -0.4314957 0.132874 -0.1769893 0.18245369 -0.0777444 0.21325023 -0.0052583897 -0.05785405 0.18754797 0.0989897 0.037234277 -0.45962262 -0.10449242 -0.34120822 -0.18507302 0.32773593 -0.24218129 0.4942674 0.06921469 -0.17299858 0.52947325 -0.03654492 -0.32194328 0.5532243 0.010202571 0.115264274 0.07081035 0.12976983 0.1680935 0.42892364 0.23383576 -0.18305454 0.08407503 -0.5115094 0.0892294 0.23464395 -0.34770936 -0.11328014 0.2693906 -0.14265515 -0.11836518 -0.098540984 0.08743944 -0.12071501 -0.10179993 -0.2710678 -0.48171544 0.055792276 -0.31176034 -0.044634175 0.18482949 -0.14415914 0.2282315 -0.3148941 0.06484389 0.26174876 -0.5470038 -0.3022389 -0.32189593 -0.21038592 0.358902 0.16441163 -0.581107 0.6722092 0.57048464 0.07060718 0.15347815 0.4732815 -0.17237636 -0.31696185 0.1724002 0.1301418 0.0040332656 0.29873353 -0.2813089 0.6311191 0.08476884 0.3237786 0.2759087 0.117968716 -0.022048514 0.3837244 -0.1806427 0.027839141 0.14804704 -0.1305296 0.05890763 0.015759982 -0.037259385 -0.5771319 0.46742412 0.20863338 0.18425417 -0.031207426 0.23450448 0.49100968 0.07736075 0.1331606 -0.15660617 -0.1144817 0.2667529 0.10701318 0.11404267 0.17746675 0.16672164 -0.16177121 -0.030871179 -0.21153648 0.35146675 -0.27245948 -0.10572869 -0.14029336 -0.31219628 0.32528538 -0.61034495 0.3510052 -0.035554387 -0.1849934 -0.0132572055 -0.21650706 -0.022762071 -0.8805906 0.30543554
134 -0.12712593 -0.3822743 -0.7820016 -0.1555809 -0.09119257 -0.41144127 -0.2542658 -0.18589026 0.2534357 -0.08034335 -0.40799475 -0.69297296 0.6283703 -0.45283166 0.017212087 -0.34543848 0.106288634 -0.16193296 -0.05820956 -0.083431065 -0.61225647 0.22361664 0.44407585 0.049559925 -0.042345855 0.19409768 -0.3311825 -0.146054 0.2561797 -0.56460154 0.22133765 0.06543443 0.32912457 -0.02790744 -0.4686772 -0.0027950157 0.19480236 0.3312765 -0.11503877 0.51016575 0.39793342 0.24116656 0.39782247 0.24601011 -0.507431 -0.10427735 -0.071968004 -0.06256147 0.5457172 0.04869435 -0.23867269 -0.25723457 0.23071931 0.1259303 0.28105405 0.16665871 0.17209893 -0.019754393 -0.3431335 0.3266356 -0.12805302 -0.19796044 -0.3567536 -0.07257628 -0.02793959 -0.09794838 -0.18391709 -0.16758178 -0.6489032 0.20552224 0.22860506 0.13549975 0.031499963 -0.17311732 0.19182985 0.11784853 -0.4256057 0.3771195 0.11120185 -0.114468485 0.09738963 0.13911372 -0.2165286 0.38130978 0.60298747 0.49170947 -0.11926682 0.3881427 -0.105237484 -0.11419946 -0.07738605 0.08103774 -0.203888 -0.038053416 -0.63821673 0.27386954 0.16912569 -0.48397005 0.057406783 0.030404648 -0.17966187 0.06542553 0.368744 0.2640017 -0.08071392 -0.31293076 0.25557142 -0.108992 0.026366338 -0.20893481 -0.09788816 -0.10529323 -0.06494046 -0.09409054 0.13331982 -0.39236328 -0.10369931 -0.018651139 0.1423174 -0.17806205 0.17155251 0.38185182 0.328767 -0.21341643 -0.00441744 0.23788457 -0.34708607 -0.63550496
126 -0.106107235 0.12309476 -0.10672925 -0.2354132 -0.28488412 -0.15016173 -0.26682916 -0.3651987 -0.19373739 -0.17033309 -0.2660696 -0.26214802 -0.14588687 0.25460684 0.24803992 -0.17468292 -0.33857313 -0.23095359 0.15038183 -0.10014653 0.1378539 -0.024062622 0.42113113 0.11977509 -0.42760342 -0.13745707 0.1171458 -0.14921252 0.1263357 -0.6002979 0.17262961 0.21044874 -0.24017599 -0.00084637426 0.40530983 -0.0027274287 -0.51841325 0.11649527 -0.38223732 -0.16500476 -0.24732684 0.45288694 0.117260665 0.15230082 0.065640934 -0.07723224 0.3341889 0.008350923 -0.02148249 0.46880624 -0.40153208 -0.16668358 0.32864788 0.21270958 -0.29856464 0.21044609 -0.0098877605 -0.23834331 -0.0876795 0.15716495 -0.35778266 -0.70743775 -0.08428168 -0.4064461 -0.2673615 -0.2603088 0.06026038 -0.3770745 0.36568224 0.19155192 0.30377716 -0.0037425307 0.35591906 0.079064064 -0.30310792 -0.072934 0.082527556 0.07704243 0.34216896 -0.41346648 0.26684588 0.3333979 -0.111035414 -0.022810461 0.054486584 0.4824723 -0.13111658 -0.29366955 0.1684883 0.35239807 -0.0010707122 -0.34715196 -0.10642151 -0.03617934 -0.3230001 0.5496273 0.2943743 -0.12610288 0.238476 0.21789959 0.031807672 0.09510647 -0.047332767 -0.72730076 0.22777393 -0.3180817 -0.16203679 -0.24056984 0.54412454 -0.30788365 -0.5459858 0.17592344 -0.37600383 0.51249254 -0.50983393 0.0852635 0.03881657 0.1852796 0.46049708 -0.4828569 0.22532319 0.487987 -0.33842927 -0.31264505 0.028591216 0.22989136 -0.10798115 0.3004885
45 0.23473787 -0.009099389 -0.4779078 -0.10300536 -0.42765212 -0.44242766 0.09145409 -0.14129779 0.20883903 0.010201365 0.30822918 -0.033529535 0.0051548 0.24744888 0.05584599 0.108115055 -0.37980956 -0.17008722 -0.12596051 -0.13591874 0.23454104 -0.19832171 0.31060374 -0.054713666 -0.17603447 0.47557357 0.04724778 -0.20054173 0.49799916 0.015435697 0.042112686 0.064795785 0.06907492 0.22559385 0.4369595 0.1827611 -0.16654643 0.07991965 -0.591266 0.25638777 0.11117173 -0.31267205 -0.1481214 0.22637734 -0.05582033 -0.027665447 -0.11769579 0.10758136 -0.14175428 -0.078093834 -0.277564 -0.5207306 0.10531473 -0.26789263 0.11416793 -0.01408074 -0.099483095 0.39752892 -0.35328117 0.060227647 0.23969994 -0.47984847 -0.2637947 -0.28298688 -0.17785075 0.39972565 0.1361695 -0.6581072 0.6641926 0.54006904 0.18743414 0.16314851 0.38746303 -0.102827296 -0.21110834 0.102298446 0.21903023 -0.11317598 0.35932985 -0.24970904 0.67212266 0.093697965 0.3317767 0.23087747 0.23564792 -0.078817725 0.35723034 -0.19139636 -0.038184673 0.08154993 -0.058033016 -0.0066713495 0.0017337668 -0.1394195 -0.5763072 0.5583769 0.12366206 0.24515826 -0.045551408 0.2406422 0.51417845 0.11087894 0.12736888 -0.11133709 0.021707667 0.28962454 0.12749866 0.18024108 0.1993517 0.21264388 -0.18516164 0.088432595 -0.23224063 0.3794439 -0.33688188 -0.091603264 -0.105739556 -0.3354545 0.20357722 -0.60950035 0.34733436 -0.078474335 -0.29377136 0.04610056 -0.22060123 0.19639784 -0.6115994 0.2887336
206 0.36810157 0.13778396 -0.049775556 0.5291774 0.40284282 -0.4851305 -0.23372506 -0.5492681 0.01574439 0.19554824 -0.50039345 0.16370058 -0.58762956 -0.31119716 -0.0851048 -0.08934532 -0.25874704 -0.58234626 -0.29600587 -0.40775937 0.1654403 0.33081585 -0.022629041 -0.1991858 0.54991966 0.15183516 -0.2004773 -0.21550342 0.1170274 -0.092838295 0.010943953 -0.4373773 -0.24968083 0.17832182 0.049014293 -0.5344541 -0.18982196 -0.51470286 0.2131811 0.16647786 0.010111289 0.15094724 0.07357556 0.1633246 -0.18016042 -0.036288973 0.063975275 -0.27512142 -0.11428715 0.61319673 0.046980612 -0.1188883 0.34009674 0.3674151 0.3185151 -0.21712486 -0.09701692 0.2499455 -0.2925958 0.56852466 -0.17335908 -0.29031503 0.04578172 0.31150994 0.23342715 -0.11624539 0.039744906 -0.37776318 -0.3505814 -0.054471854 0.118225634 0.33223325 0.29258046 -0.08855734 -0.20300129 0.2284977 0.25588256 0.29144332 0.058405038 -0.10281067 -0.15039241 0.1577293 0.07792422 -0.2693296 0.0054952204 0.20805603 0.18955104 0.10806697 0.14208554 0.2222408 0.0813727 0.13699996 -0.11000528 -0.23579831 0.058811877 0.3520762 0.6029231 0.18648966 0.5979741 0.102577366 -0.24335212 -0.11656015 0.009277522 -0.15335801 0.17832014 0.005631126 -0.027616033 -0.24251829 0.2330796 0.2724843 0.7271007 0.17859861 -0.16608782 -0.15541731 0.031126667 0.5674466 -0.34422678 0.1595993 0.18140519 -0.36406904 0.30747738 -0.06336236 -0.1539888 -0.06077793 0.05105014 -0.46362382 -0.42541948 -0.0040152804
252 0.3227873 -0.05444677 -0.296005 0.17606212 0.37581947 -0.57897055 -0.30434164 -0.3763474 -0.007315249 0.028698899 -0.6084426 0.10324174 -0.08189011 -0.3447376 0.0060580913 0.16574733 0.043741718 -0.1274056 0.30694488 -0.059112806 -0.016682092 0.49549586 -0.09001876 -0.079663076 -0.24899007 0.41013065 -0.030514209 -0.23854221 0.25732923 -0.6910135 -0.45798564 0.17593065 -0.23783113 0.24508047 0.43609136 -0.07934431 -0.09297223 0.03689643 0.34104893 0.30619174 -0.19631515 -0.21510746 0.43743128 0.5004113 -0.0022637427 0.40810543 0.25934494 0.0012493659 -0.050890494 0.22968361 -0.3977146 -0.11988507 -0.4612776 0.6937931 0.30063313 -0.38680702 0.23748524 0.026084896 0.09934043 -0.061989643 -0.15504777 -0.0045546447 -0.027617326 -0.32633123 0.8087009 0.054028902 -0.21124463 -0.4512932 0.07686878 -0.00073268224 0.097729474 0.17742844 0.48659042 -0.44240016 0.11074947 -0.059796084 0.5477187 0.116130486 -0.33481318 -0.3118457 0.21300311 -0.04390173 0.17657728 0.3616145 0.25853854 0.5917923 -0.07480394 0.04645982 0.54556096 0.3485941 0.5286517 -0.46390203 0.02005713 0.17999433 -0.19126962 0.15384598 0.2966682 0.27336338 -0.18431515 -0.43005854 0.62975645 -0.03598584 0.28726822 -0.048806984 -0.35644147 0.30442524 -0.40601507 -0.093430914 -0.09116335 0.51304406 0.108028874 -0.24140531 0.052258268 0.08518655 0.3896317 0.2576226 0.28975847 -0.051996823 0.45808116 -0.24940494 0.06546425 -0.09261736 -0.08461347 -0.2996084 -0.16782682 0.06366324 -0.1724468 -0.15037313
64 0.45148256 -0.16780668 -0.8462288 -0.054060902 0.11358827 -0.38805732 -0.038601503 -0.16391921 0.122131184 -0.08180672 0.061029136 -0.14994504 0.2732962 -0.5244271 0.37086058 0.17501941 -0.15880492 0.1418776 -0.3637823 -0.040640585 0.13193634 0.5722675 -0.10960865 0.30882993 -0.08259888 0.113005094 -0.095181055 -0.4208241 0.16603762 -0.30861634 0.21600863 0.1433643 -0.010486091 0.1968356 -0.09681531 -0.02553753 0.1003479 0.28586543 0.060132816 0.62549484 0.32291985 -0.119820386 -0.008243443 0.17041634 -0.5862152 -0.106718905 -0.26058227 -0.018877769 0.23216493 -0.22133847 0.12759474 0.17031126 0.10957275 0.26477346 0.6850584 -0.19690293 -0.042434033 0.16947407 -0.3772263 0.67401505 0.10234578 -0.047842234 -0.15312487 -0.1172013 0.0260872 -0.10041165 -0.36473933 -0.06313459 -0.08889221 0.17166287 0.61624 0.268065 -0.08679837 -0.08083403 0.28718215 0.037474807 -0.16051178 0.4909446 0.3234152 -0.17088467 0.46008998 0.19123647 -0.19058338 0.60705036 0.5122405 0.7106722 -0.3629707 0.36048192 0.14368008 -0.0906889 -0.119411156 -0.088222235 -0.13619132 -0.104977585 -0.6761113 0.2726966 0.14494473 -0.29728523 -0.25126535 0.10405208 -0.2548539 -0.03321517 0.30505082 0.22882248 0.06017459 -0.38203204 0.11618616 -0.33270028 0.1777649 -0.135297 -0.11968497 -0.004009954 -0.5080052 0.2590247 -0.011242862 -0.6461593 0.11084145 0.241122 -0.022970129 -0.58918744 0.1605302 0.23688973 0.21747607 0.14680268 0.15066433 -0.04792414 -0.072726674 -0.45580325
28 -0.013479082 -0.27155724 -0.7897216 -0.11727076 0.025476236 -0.38399896 -0.055311937 -0.26662618 0.13553739 0.11601438 -0.46399742 -0.6558631 0.70616525 -0.54777676 0.11677301 -0.15176077 0.15140907 -0.01060561 -0.13261089 -0.05650347 -0.55694705 0.195169 0.36920208 0.12895389 -0.12405598 0.2097685 -0.34337962 -0.08109996 0.2939523 -0.39452308 0.05901694 0.094999604 0.19734062 0.020531641 -0.34685928 -0.040425573 0.21188053 0.2760682 -0.060777303 0.43066934 0.41446108 0.10530977 0.3254566 0.2506423 -0.5556017 -0.009713441 -0.06575726 0.03916867 0.5531976 0.038467567 -0.094057985 -0.078889534 0.30772957 0.091043524 0.25769404 0.011526132 0.2245003 -0.026359469 -0.34280562 0.37558827 -0.1125711 -0.22905642 -0.3132586 -0.031718943 -0.022512069 -0.112637125 -0.20584637 0.049770307 -0.5201529 0.2285412 0.31263953 0.21355422 0.089414686 -0.22783983 0.25405508 0.15571262 -0.32593805 0.21949458 0.30830875 -0.032984182 0.11518231 0.08924522 -0.17890091 0.4759723 0.65972835 0.43907738 -0.1385532 0.39485186 -0.08486858 -0.16977388 -0.012565712 -0.04937905 -0.22058047 -0.046078026 -0.5607472 0.22607796 0.15180369 -0.5954723 -0.02345526 0.086653605 -0.24659422 0.032890636 0.28581566 0.08072244 0.034056008 -0.24666964 0.22939812 -0.020967023 0.26166245 -0.1061118 -0.1752894 -0.030836886 -0.19230002 0.10609506 0.045070518 -0.40850002 0.0015953382 0.068486564 0.19454175 -0.17814574 0.26656377 0.27240378 0.21159008 -0.17763782 0.06749814 0.28120923 -0.36890548 -0.6034948
118 0.13956562 0.014783586 -0.35512778 -0.192837 -0.37837315 -0.40717897 0.16626826 -0.31379765 0.022893574 -0.07821662 0.15165292 -0.04248032 -0.00608483 0.18583652 0.14229022 0.10248047 -0.35013774 -0.12722868 -0.29972592 -0.11153874 0.075915225 -0.30826682 0.42569315 0.017251933 -0.26252237 0.676204 -0.029866684 -0.30640632 0.47557953 -0.0040154858 0.082700916 0.14631508 0.13779752 0.28198293 0.5255477 0.15854149 -0.19127938 0.02136688 -0.49106252 0.21131171 0.17495526 -0.4008582 -0.17025311 0.3275598 -0.19593185 0.024964105 -0.12112288 0.08863245 -0.13915552 -0.20346805 -0.37566838 -0.63260645 0.15515749 -0.2625262 0.0070170797 0.17465235 -0.12650521 0.26424024 -0.33595273 0.015593094 0.36992437 -0.58439094 -0.3365712 -0.3453098 -0.07893244 0.3053179 0.13816755 -0.48022005 0.60853875 0.43155238 0.11829856 0.15748939 0.49565315 -0.23860122 -0.28262436 0.10799788 0.14332114 -0.14104544 0.33300772 -0.23928398 0.5519071 0.016265335 0.24862343 0.33986655 0.25090402 -0.08199844 0.36398152 -0.23488271 -0.06928099 0.190058 -0.13587622 0.08285312 0.064147845 -0.18940675 -0.45106545 0.36830768 0.009204364 0.15905474 -0.17613977 0.26165518 0.6626122 0.16066404 0.13752879 -0.23335755 -0.0018283722 0.21515958 0.20694532 0.1865966 0.16698144 0.21816081 -0.12050188 0.092092745 -0.33426076 0.4131377 -0.23697367 -0.02257633 0.008836034 -0.18210413 0.30543065 -0.53423196 0.28043297 -0.062083755 -0.2832925 -0.10681801 -0.14189479 0.004601248 -0.850851 0.3152598
42 -0.26687282 -0.28487432 -0.7410968 0.021580534 0.03751799 -0.2964568 -0.23306903 -0.49439186 0.03698242 -0.0055752043 -0.15077572 0.58603 -0.14337789 0.3552362 -0.050351832 -0.03513413 -0.29555777 -0.093712 -0.38472193 -0.13182645 0.18337528 0.1522916 0.023113238 0.0656981 -0.09895519 0.4672318 -0.50012714 0.23726885 0.31929833 -0.1516131 0.14149727 0.32711273 -0.026574092 -0.20835778 -0.2710279 -0.059316818 0.1302554 -0.19192031 -0.07834229 0.26787564 -0.23636743 -0.13195671 0.07647112 0.16624 -0.09986215 0.5264168 0.22326967 0.06902772 -0.23921786 -0.25215 -0.08282769 -0.43857202 0.37681 0.09059284 -0.22755653 -0.2899474 0.12439642 -0.1441433 -0.51320726 -0.12965862 0.30337098 -0.49212456 -0.5273912 0.4630578 0.13775901 0.402742 -0.54004335 -0.27071393 0.5515982 0.3512684 0.22911778 0.11310174 0.4811838 -0.04913529 0.1425321 -0.18165709 0.24784036 -0.10775307 -0.052045625 -0.0023197534 0.103238635 0.38705295 -0.20963828 0.29919848 0.554951 0.30920902 -0.0241099 -0.120776564 -0.03665795 0.27493587 -0.032600015 0.285674 0.048856813 -0.36234617 -0.5973719 -0.048963673 -0.17744158 -0.012132415 0.29251134 0.24552009 0.6122796 0.29859293 -0.23573677 -0.07687078 -0.03318752 -0.05800452 0.17320761 0.3965639 0.20753472 -0.12986863 0.14303029 -0.08107073 -0.4054998 0.43541524 -0.21610223 -0.031818163 -0.06313898 0.06771076 0.34191036 -0.5777926 0.63402784 -0.4612173 -0.26415208 0.049480613 0.059555624 0.050844163 -0.41467872 -0.14248909
135 0.06282387 -0.14255491 -0.35975087 -0.10024987 -0.32779154 -0.42608434 0.11395817 -0.13874862 0.118167706 0.022953592 0.37337568 0.0018661609 -0.085212216 0.21040517 0.07484312 0.21848655 -0.33790675 -0.19357286 -0.33064744 -0.22981356 0.13042189 -0.33496115 0.5196584 0.037360445 -0.22450992 0.46733186 -0.12369434 -0.23416169 0.5294038 0.16554004 0.16266754 0.07988026 0.05390561 0.21499199 0.48718873 0.18711087 -0.16534394 -0.050859902 -0.5512691 0.21926571 0.2157311 -0.46993124 -0.20766313 0.30644533 -0.18574543 -0.0024971277 -0.017562859 0.03572978 -0.07686924 -0.031895407 -0.26577038 -0.5341336 0.17967317 -0.21625212 0.032543287 0.0074225757 -0.14301042 0.2982036 -0.33009282 0.032372404 0.23166126 -0.52528125 -0.28621092 -0.16790968 -0.10611218 0.33645195 0.14504036 -0.5670969 0.54962385 0.49269852 0.06397097 0.25658974 0.5350573 -0.23515202 -0.21762982 0.11116986 0.15181336 -0.023249486 0.3871402 -0.385189 0.6781672 0.04549145 0.3025301 0.2481512 0.26969463 -0.001817805 0.32981002 -0.22471601 0.068399854 0.22540002 -0.14751495 0.007425393 0.07646244 -0.207194 -0.51295733 0.478253 0.119853616 0.28478187 -0.065346815 0.1420941 0.6751841 0.12618461 0.0076317545 -0.12287654 -0.022541495 0.20960788 0.24054441 0.18276545 0.29614717 0.0409004 -0.3638509 0.1112469 -0.17597848 0.3078252 -0.32921854 -0.1635141 -0.054730717 -0.31469184 0.21170929 -0.62809145 0.29085588 -0.0116274925 -0.21962723 -0.20835337 -0.31408694 0.16839649 -0.8191888 0.33315346
231 0.27209994 -0.02912816 -0.36934847 0.19168958 0.36254877 -0.4827377 -0.37700394 -0.35327953 -0.19586653 -0.03518216 -0.63393396 0.0049352823 0.107179016 -0.32743305 0.020869516 0.25271824 0.06166778 -0.16620484 0.28025407 -0.06054913 -0.1247809 0.49052575 -0.061418217 -0.0281832 -0.26080653 0.35580674 -0.05821333 -0.15415184 0.16242415 -0.5528112 -0.33761808 0.26276568 -0.26300198 0.15650885 0.3101916 -0.090217814 -0.022562578 -0.03416852 0.34155506 0.32106537 -0.18178312 -0.28315878 0.2695613 0.5453523 -0.016443742 0.31994188 0.22814241 0.009075339 0.081233576 0.23112479 -0.23492448 -0.08783443 -0.38570103 0.6503935 0.33891317 -0.47017065 0.21045338 0.009235549 0.09680129 -0.08779508 -0.13383143 0.043958858 -0.008016957 -0.2786483 0.8395793 0.13526781 -0.07382923 -0.34647167 0.09473533 -0.014545117 0.06992727 0.17054442 0.45738778 -0.39372987 0.06502286 -0.0014384256 0.5692411 0.122229524 -0.27679908 -0.466577 0.19530125 -0.06460243 0.15968685 0.36858538 0.2363048 0.66998094 -0.12791495 0.008347301 0.47931746 0.3519219 0.59020245 -0.37925032 0.15515408 0.15729384 -0.06703097 0.13537915 0.3206641 0.27630043 -0.112762034 -0.49333772 0.6919536 -0.06953758 0.23735012 -0.08313532 -0.3702048 0.26654804 -0.13581546 -0.11972911 -0.0934751 0.5307668 0.10896662 -0.3655687 0.020991102 0.02880185 0.43801352 0.29441532 0.3320272 -0.053782176 0.5765745 -0.3777339 0.1290637 -0.10435621 -0.039051715 -0.39787364 -0.26500335 0.047473114 -0.37978354 -0.064719304
147 -0.0043449313 -0.4737031 -0.9276262 0.0007950193 -0.19509974 -0.45135972 0.06802987 -0.24339703 0.1689074 0.13632669 -0.08839557 -0.5317154 0.3893826 -0.4913707 0.31572405 -0.07470603 -0.18827783 0.15218371 -0.37426126 -0.15210381 -0.26800615 0.36683816 0.32026392 0.2489775 -0.015069678 0.08677179 -0.3669365 -0.19151431 0.34398416 -0.27167922 0.04698231 0.1911215 0.051171225 -0.049083624 -0.30528417 0.077571385 -0.015043747 0.41889945 -0.09240097 0.5533962 0.51978403 0.19876121 0.32759902 0.09701995 -0.69265836 0.018350875 -0.07781528 0.0071252305 0.45444536 0.15911941 0.013195058 0.15594296 0.22986922 0.267503 0.5752401 -0.1015295 0.25034502 -0.08611413 -0.43723828 0.31069016 -0.20487387 -0.1805102 -0.19429696 0.05284242 0.06582182 -0.048964337 -0.045841213 0.18935569 -0.46133187 0.105467476 0.39071417 0.27469033 0.08640604 -0.17540202 0.37697977 0.1484817 -0.25821462 0.3504087 0.40046027 -0.053128805 0.21795984 -0.008104712 -0.31826153 0.549484 0.7557906 0.70841557 -0.16350739 0.27792278 0.18896729 -0.118186556 -0.08847071 -0.16161442 0.008011499 -0.10623368 -0.5249472 0.24116093 0.15085024 -0.43131608 -0.17536259 0.037915703 -0.06726972 0.002623885 0.22694811 0.14939016 0.0038970187 -0.47027895 0.21756962 0.052079365 0.2933476 -0.114763245 -0.09906502 0.021285234 -0.27324706 0.17725658 -0.13610184 -0.6398404 0.13947198 0.04546608 0.003927643 -0.25746745 0.21795312 0.32882103 0.26042902 0.008130955 0.058008626 0.24148333 -0.4590722 -0.5561064
261 -0.31721783 -0.46770766 0.019023554 -0.18252751 -0.48410136 -0.30437067 0.24140643 0.13611786 0.12037706 -0.1789594 0.22110629 -0.1794289 -0.3165562 0.033578224 0.34075922 -0.2518238 -0.039145935 -0.19629814 -0.24169175 -0.16631062 0.25487983 0.42847705 -0.33736873 0.38332835 0.2267777 0.10454955 0.07461024 -0.34762248 0.10317565 -0.14871314 -0.25207785 0.24436091 0.08150473 0.018773928 0.050918 -0.178835 0.30863753 -0.6684724 0.4344398 -0.20771478 -0.07779395 0.061778042 0.30115032 0.42700812 -0.10297142 -0.21845964 0.31641644 0.0128005175 -0.12110281 0.16113003 -0.030707536 -1.0631876 0.4544786 -0.16972418 0.26429892 0.2988587 0.035775654 -0.21043982 0.09472306 0.02988031 -0.01794153 0.16685455 -0.071994096 -0.39653784 0.5212431 0.05804441 -0.6103215 0.24668875 -0.08172215 -0.26112294 0.40823483 -0.067283176 -0.027722798 -0.7506223 0.30869985 0.14397582 -0.1849955 0.31092685 0.22682694 -0.47492152 0.11532652 0.24730986 0.3661241 -0.1947987 -0.08961749 0.09586363 0.25702107 -0.26274177 -0.088957645 -0.095512666 0.12649179 -0.690207 0.12652391 -0.2229762 0.02111273 0.11122209 0.3733844 -0.050308857 -0.05901724 0.45227793 -0.13103616 -0.14053017 0.19009933 0.105856135 0.20211656 0.04652678 0.41543198 0.14914276 0.10416254 0.035596877 -0.21074463 0.20992556 -0.17034078 -0.058699973 -0.43528232 0.43252242 0.09844777 0.2883153 0.0898943 -0.12378866 0.30543768 -0.28629988 0.22746606 -0.42832294 -0.25635952 0.39457214 -0.039798446 -0.5948481
41 -0.24858321 -0.368949 -0.81494504 0.11563025 0.10115409 -0.2899902 -0.21648343 -0.46722558 0.105127744 -0.17304221 0.030536806 0.5932413 -0.31205195 0.357547 -0.0026328636 -0.09250024 -0.30857936 -0.12178399 -0.24285021 -0.056971513 0.29749158 0.059426412 0.002871214 0.06648752 -0.09703024 0.39650112 -0.55172414 0.080658406 0.41203952 -0.16296127 -0.02451352 0.14217585 0.0359939 -0.21983212 -0.33133796 -0.024646407 0.17982817 -0.20845357 -0.11620121 0.2696654 -0.28450674 3.9715695e-05 0.23222439 0.09809521 -0.065214194 0.47458443 0.26925078 -0.016602417 -0.18360679 -0.27711695 -0.14078428 -0.41580835 0.44000956 0.12869236 -0.2283391 -0.45937744 0.053603735 -0.19842073 -0.49805525 -0.12996578 0.34117392 -0.5617017 -0.5106689 0.4187295 0.040261798 0.3890874 -0.65124685 -0.17633817 0.56466323 0.25052363 0.16394335 0.115763985 0.5033609 -0.06443931 0.1829582 -0.20488955 0.17835936 -0.10148548 0.010152945 -0.022475678 0.07440152 0.34765413 -0.16012235 0.318067 0.5117095 0.26803905 0.04613893 -0.23785558 -0.059009843 0.2465225 -0.16141774 0.21522361 0.13058871 -0.3060431 -0.5659117 -0.1783002 -0.18374375 -0.032604095 0.25239477 0.22823001 0.6351418 0.2725915 -0.13558482 -0.017995391 -0.048862208 -0.08951527 0.14367619 0.36796412 0.22406974 -0.10078531 0.17880079 -0.13855192 -0.32101673 0.47541967 -0.2752988 -0.041842375 -0.15862045 -0.06666836 0.29608428 -0.5932073 0.63807946 -0.5706724 -0.28750965 0.045393128 0.1276569 0.13827717 -0.36504754 -0.1579282
208 -0.4502394 0.17407346 -0.035097286 0.07732633 0.13117331 0.044176873 -0.14581636 0.37074465 -0.5797328 -0.099293925 -0.0573207 -0.04049582 -0.0057806587 -0.10183081 0.66929096 -0.046014752 -0.48626176 -0.2842979 0.14865954 -0.4874387 -0.2318596 -0.27891594 0.08849395 0.3289593 0.25698486 -0.46467632 -0.4873731 -0.00076558755 0.23164718 -0.1279085 -0.083764166 0.5696574 -0.010026312 0.6878472 -0.043215003 -0.67537165 0.4509826 -0.017834183 0.20553927 -0.005202033 0.36983666 -0.2760291 0.38472706 0.4874167 0.33653006 -0.104171395 -0.004893754 0.19179264 -0.17984709 -0.09935949 -0.2061499 -0.28286693 0.019621613 0.30732465 0.04302281 0.29094025 -0.32082796 -0.20055418 -0.3120338 -0.14202374 0.055219494 0.081125215 0.06962081 -0.3004992 0.026608001 -0.3775509 -0.33212745 -0.2503571 -0.24113318 -0.18550822 0.08550353 -0.040911794 0.03863463 0.04088478 -0.25682586 0.029358167 0.1696587 0.18281682 -0.20205168 -0.41826555 0.43183836 0.42449203 0.15604389 -0.2919911 -0.13330884 -0.1954332 -0.2509448 0.035403587 0.14023514 0.10478785 0.0014736239 -0.17436892 0.5577991 -0.45313603 -0.60181165 0.69829744 0.049825493 -0.011761254 -0.39694273 0.19122495 -0.17431712 0.0740889 0.37896147 -0.16250588 0.06160996 0.21004628 0.3952083 -0.02291615 -0.28452942 0.49648568 0.3537437 -0.034580898 -0.36443472 0.26398888 0.054554023 0.07947304 0.41103202 -0.008611633 0.17797315 -0.41031057 0.6493803 -0.17973003 -0.009511073 -0.08953508 0.39526954 0.61543095 -0.17327495 -0.5085204
62 0.36304498 0.10641434 -0.21667904 0.08401272 -0.4610009 -0.24319029 0.036173955 -0.09634017 -0.035955627 -0.4056619 0.07472665 -0.25849175 -0.12242763 0.101454005 0.07598137 -0.18044591 -0.33338526 -0.2791911 -0.041454993 -0.044164147 0.110748634 -0.09504614 0.57826346 0.12853955 -0.17961474 0.28884456 -0.11651757 -0.39145032 0.40563682 -0.49154508 0.101019226 0.08954616 -0.036046665 0.07058529 0.48798776 0.1178287 -0.1566411 0.17614304 -0.60793823 -0.020990295 -0.09460576 0.0057795546 -0.30619416 0.3425337 0.31682456 -0.32038435 0.026219433 0.10400394 -0.06648745 0.19064716 -0.7111296 -0.5231898 0.44335687 -0.2773 -0.004361779 -0.087480575 0.0028063538 0.15781942 -0.18671548 0.12367429 0.05963663 -0.7060516 -0.18231028 -0.58095974 -0.20264457 0.16849682 0.17072684 -0.31937665 0.66050535 0.1363441 0.3521382 0.12803343 0.5026588 0.1084754 -0.43738037 0.06990474 0.1318713 -0.035373464 0.24913722 -0.41388303 0.6731075 0.27622756 0.114242695 0.16228914 0.11849707 -0.013330805 -0.034614306 -0.09074119 -0.015421831 0.26870975 -0.020448213 -0.22458017 -0.022458155 0.060020942 -0.43659127 0.5587915 0.015094107 0.0377179 0.16744056 0.29674324 0.35232762 0.062258504 -0.123494916 -0.39077774 0.1443985 0.10292692 0.014299933 -0.23299563 0.19302297 0.13740066 -0.28553557 0.005490882 -0.1368079 0.3814565 -0.6103445 -0.048943203 -0.10000677 -0.17284553 0.35832572 -0.52438676 0.08597592 0.040923316 -0.13646904 -0.31109124 -0.095656745 0.10688759 -0.35901356 0.4319466
272 0.1349761 0.13101503 -0.3392833 -0.011076897 0.14873976 -0.30156317 0.025180366 -0.17725691 -0.12882002 0.34917215 -0.12701088 -0.19961165 0.13500072 -0.2584581 -0.010583407 -0.20177616 -0.25283366 0.04017141 0.026718065 -0.46153387 -0.15893655 -0.21859366 -0.16257948 0.089381315 -0.071682654 -0.11154871 0.0016223365 0.1320226 0.23408182 0.15193489 0.25536984 0.22548047 0.065265745 -0.08838245 0.19637953 0.11881135 -0.06937514 -0.23028834 0.31053668 0.26171333 -0.12142293 0.13195935 -0.29442883 0.19092059 -0.093628325 -0.04742646 0.076866105 0.34035528 -0.16210105 0.66668254 -0.1036767 -0.3937284 0.24029239 -0.1514013 -0.087071694 -0.0781762 -0.42846116 0.12633313 -0.14103237 0.14938281 -0.0078613 0.18541646 0.30780765 -0.22944766 0.5624485 0.41306302 -0.23300995 0.12311242 -0.16836466 -0.69184726 -0.06647426 0.38297376 0.28097427 -0.05471503 -0.7705591 -0.56038564 0.2171112 0.39740178 -0.048636757 -0.057810202 0.085438006 0.08561783 0.2478498 -0.15958714 -0.111965396 0.41031346 0.0873686 -0.5376465 -0.53959286 0.21549699 -0.22256854 -0.3236542 0.11551528 -0.019783607 -0.34104759 0.041470986 -0.2616283 -0.4019433 0.108367845 0.050289962 0.48666784 -0.2455653 0.122003615 0.2704087 -0.38254058 -0.27593035 -0.4037146 -0.15307166 -0.22009976 0.09833575 -0.03818618 -0.24864168 -0.66383535 0.8776577 0.11889672 -0.15279211 0.05186999 0.22633612 0.044546008 -0.09576135 -0.0989074 -0.3404623 -0.3079298 -0.4469755 0.5070872 0.20557274 -0.022260934 -0.33731952
238 0.26200208 -0.05825676 -0.3031189 0.29290897 0.47531006 -0.54429597 -0.38663042 -0.46546334 -0.1118858 -0.18030483 -0.6673442 -0.033927184 -0.09603844 -0.32069618 -0.013360231 0.26096016 0.15409832 -0.08836047 0.3468269 -0.0672578 -0.007503663 0.4200322 -0.0325129 0.057459936 -0.4036248 0.33238983 -0.12786934 -0.2958567 0.30586353 -0.626576 -0.37454343 0.10977811 -0.21324818 0.27931482 0.41979185 -0.16200866 0.053014036 0.06496698 0.25893435 0.2698893 -0.084653586 -0.2909943 0.47365966 0.623386 0.07037435 0.24280328 0.22620745 -0.07067699 0.07939955 0.30216214 -0.27180076 -0.09615782 -0.37254483 0.626695 0.27655572 -0.56754124 0.14100327 0.072555 0.12803718 -0.056720074 -0.16154945 -0.0004973524 -0.04129793 -0.3968585 0.74026006 0.15098715 -0.22787714 -0.3907376 0.17587426 0.0006271161 0.0975511 0.16081277 0.49744725 -0.5032243 0.08899335 0.045467425 0.58526456 0.1664341 -0.24386047 -0.36082244 0.22896911 -0.024417512 0.17916155 0.2961201 0.20577379 0.47666964 -0.10223377 0.0008959332 0.4487058 0.29763556 0.5372281 -0.5126056 0.033114657 0.09812772 -0.008658822 0.043509297 0.2505931 0.21736391 -0.19877777 -0.42172974 0.5857791 -0.041146625 0.24312082 -0.050912272 -0.46502632 0.33161145 -0.33792382 -0.13481426 -0.1632587 0.5186329 0.035230853 -0.42789015 0.05735358 0.019047853 0.45700595 0.17698883 0.2515787 -0.072587006 0.5451617 -0.32814327 0.10087592 -0.13022274 -0.012929549 -0.37909865 -0.18678847 0.041577935 -0.29525673 -0.20121801
80 0.061500777 -0.39907825 -0.7005254 0.090082556 -0.050701577 -0.5515685 0.104273155 -0.20578443 0.17426421 -0.110837124 -0.14017427 -0.45978826 0.40984568 -0.5656081 0.197219 -0.21074346 -0.18632682 0.18201274 -0.17680974 -0.039576765 -0.2859687 0.25113058 0.2752151 0.22893076 -0.033008814 0.13091643 -0.5128976 -0.17717312 0.47324315 -0.2544367 -0.056933895 0.15885375 0.113359064 -0.040220976 -0.19422399 0.08853685 0.05566763 0.3697544 -0.08828442 0.5344844 0.43217397 0.18230906 0.39251137 0.09638563 -0.529461 -0.04335077 -0.0154302465 -0.066113494 0.38304305 0.04201032 0.025971286 0.16034776 0.25101665 0.20224087 0.59044516 -0.24961133 0.1572058 -0.010413192 -0.37452078 0.4908328 -0.028592499 -0.22727938 -0.3681658 -0.011088376 -0.054388467 -0.018285127 -0.225777 0.055539172 -0.2987619 0.15085587 0.36407095 0.2654684 0.07360701 -0.2247974 0.22591038 0.14344437 -0.3298167 0.43486345 0.4117136 -0.13999106 0.20422065 0.13493183 -0.24233241 0.5587289 0.6849848 0.58435816 -0.24975619 0.4367173 0.1380072 -0.15565307 -0.09744675 -0.14181314 -0.0968916 -0.100617416 -0.4407377 0.21342452 0.16228601 -0.56912893 -0.17302562 0.15486354 -0.21785536 -0.0953711 0.28866902 0.1921418 -0.048941627 -0.42711756 0.086602435 -0.12953526 0.29507288 -0.15992048 -0.17625049 -0.04609011 -0.24962747 0.14669137 -0.15943648 -0.5607162 0.0063961 0.08728497 0.10465507 -0.23660038 0.15374872 0.23141812 0.2502837 -0.048890978 0.054420475 0.14034313 -0.37245718 -0.65678763
293 -0.49456662 0.24941628 -0.043866232 0.22095759 0.06392762 0.06582718 -0.05711213 0.3906222 -0.64472926 -0.1032091 -0.14408031 -0.14251807 0.041424993 -0.070759624 0.84050786 0.08952698 -0.6297673 -0.3089812 0.18990205 -0.3503911 -0.18057913 -0.29425278 0.22642417 0.3333908 0.15792762 -0.44376832 -0.6249397 0.063212484 0.29016587 -0.015289724 -0.18205929 0.4545363 0.0011519189 0.60734904 -0.019115254 -0.57179344 0.3285755 -0.081337444 0.19853136 0.19003427 0.270901 -0.18659978 0.25874966 0.590022 0.35354725 -0.12174974 0.10906801 0.24436305 -0.18205419 -0.11754637 -0.19216068 -0.29392758 0.026251854 0.2930835 0.07576397 0.22819817 -0.3942092 -0.17788653 -0.29328087 -0.015818194 0.060468033 0.13467054 0.024812091 -0.26804048 0.1492821 -0.33265117 -0.44522953 -0.22965632 -0.22393487 -0.23021351 0.06948048 -0.06947212 0.10296522 0.03795051 -0.19599952 0.014140625 0.11960853 0.13948402 -0.17840834 -0.5181938 0.3895951 0.42642218 0.07802433 -0.28480324 -0.11961543 -0.21642905 -0.2288395 -0.010279176 0.0770489 0.094285235 -0.059161384 -0.087414734 0.6047252 -0.32584807 -0.580804 0.7606641 0.04348917 0.08345609 -0.34808952 0.24827226 -0.112931564 -0.021842616 0.29978526 -0.11956993 0.17958942 0.25548777 0.32441658 -0.07754497 -0.29983053 0.38619944 0.2591019 -0.028857587 -0.24790104 0.22229172 0.020596782 -0.031228935 0.37232804 -0.05657209 0.18655829 -0.38308117 0.6163925 -0.19765557 -0.03779112 -0.1442452 0.3468585 0.6789735 -0.21241727 -0.3990727
321 -0.4295684 0.14320952 -0.04632538 0.4273818 0.22461598 -0.280962 -0.41669595 0.27581036 -0.40161943 0.20911252 0.024633937 -0.009009769 0.10303419 0.0050962456 0.75125843 0.0008283184 -0.7361711 -0.3251359 0.1733078 -0.42328244 -0.22316092 -0.26202002 0.26641065 0.04005266 0.1477601 -0.45469832 -0.29708543 -0.04306648 0.32225716 0.061723813 -0.39368936 0.41888326 0.14199734 0.3630298 -0.25766775 -0.50273114 0.43632358 -0.0121373935 0.05581469 0.5027255 0.24379764 -0.23762533 0.27510417 0.31427753 0.18621288 0.04220081 0.25828022 0.18380775 -0.3775008 -0.13541551 -0.54243225 -0.3590763 0.10291926 0.26263705 0.3208717 0.54307026 -0.21611264 -0.030142706 -0.47540107 -0.24899518 -0.15238895 0.23560819 -0.07907016 -0.3011066 -0.10263177 -0.23385835 -0.48025215 -0.4547792 -0.15899806 -0.07792944 -0.08380909 -0.074961744 -0.2621816 0.09832276 -0.062142543 -0.013379088 0.117810026 0.22910397 -0.33042404 -0.18939458 0.2915614 0.41038337 0.013008009 -0.38765508 -0.050522406 -0.22923808 -0.38931927 -0.22694458 0.03308336 0.06360763 -0.15929382 -0.109580874 0.6160475 -0.14766254 -0.47350702 0.75327593 -0.19145149 -0.12888579 -0.2844903 0.14336976 -0.1414522 0.024172701 0.3153585 -0.06927828 0.2511254 -0.002025639 0.27876845 -0.16708577 0.08536434 0.24707259 0.44303355 -0.008961402 -0.3068269 0.3796944 0.15532708 -0.044583287 0.06864571 -0.37890887 0.13728367 -0.2395847 0.43206924 -0.2632562 0.14149284 -0.13541046 0.44002208 0.5186738 -0.2307308 -0.493665
317 0.24132818 -0.05467941 -0.2538164 0.24088006 0.4030643 -0.5286868 -0.39240468 -0.36449027 -0.110059544 0.12050453 -0.6106911 -0.07409977 -0.019998657 -0.22880378 0.0016206761 0.28152063 0.11576448 -0.110152215 0.1938698 -0.12677042 -0.042069305 0.39594108 -0.029208012 -0.1319803 -0.27230284 0.2790162 -0.03598776 -0.021739025 0.25084847 -0.44965193 -0.39857423 0.18930219 -0.27554065 0.26994666 0.43716055 -0.026854625 0.028096851 -0.059627723 0.37614772 0.3235808 -0.110269256 -0.2884685 0.43307337 0.6736726 0.004865893 0.31952757 0.29750428 -0.02448417 0.07365339 0.22582524 -0.28223845 -0.08207546 -0.4202005 0.5683634 0.20326352 -0.36941668 0.1605385 -0.019009307 0.21504204 -0.046181247 -0.234987 -0.04165105 -0.12402852 -0.3653609 0.8052461 0.16155387 -0.2000966 -0.3879871 0.026344059 0.06472356 0.06059264 0.113358945 0.4743966 -0.48554134 0.111712374 0.051448748 0.52001715 0.11897013 -0.25232533 -0.3540698 0.22381006 -0.09933346 0.14728943 0.35764888 0.29965273 0.6507435 -0.031350836 0.09287511 0.5808664 0.2978426 0.40942007 -0.39734596 0.033507958 0.11896043 -0.1548101 0.11298848 0.29149154 0.30532032 -0.1419579 -0.42815238 0.64602774 -0.063546166 0.3181645 -0.097665556 -0.40419787 0.33210367 -0.2821368 -0.15651377 -0.02645489 0.47332168 0.2107237 -0.37399095 0.03756403 -0.056767 0.467071 0.28401378 0.3472379 -0.029672109 0.60518306 -0.26369065 0.087442055 -0.12756425 -0.063901715 -0.5565546 -0.1973713 -0.07363569 -0.39480254 -0.19302505
311 0.32864508 0.053864308 -0.18316287 0.4664846 0.4552993 -0.44810778 -0.08589739 -0.5456499 -0.17858435 0.11673387 -0.5061811 0.15512586 -0.57157594 -0.4716404 -0.0065620653 -0.10034974 -0.27135256 -0.6460127 -0.30804163 -0.41544452 0.0024796268 0.21600093 -0.08233462 -0.10329804 0.49342492 0.23938586 -0.25018865 -0.07052394 0.15531278 0.12070091 -0.26347438 -0.32169765 -0.3275429 0.0017936891 0.17450951 -0.50113136 -0.22699788 -0.71082413 0.16752037 0.12716399 -0.17657764 0.16942786 -0.045476425 0.17268515 -0.19581161 -0.12098801 0.13413092 -0.30076706 -0.04218584 0.54181916 0.09153875 -0.060804896 0.47339147 0.2890039 0.43720636 -0.41092563 -0.16438223 0.31459686 -0.1760028 0.47600263 -0.1449766 -0.5179153 -0.062240556 0.292785 0.23626852 -0.16674791 0.14710873 -0.27162164 -0.2945711 -0.13572249 0.2050843 0.4227972 0.2857286 -0.148864 -0.026050236 0.30264416 0.24300638 0.26507032 0.078023404 -0.2864669 -0.19733176 0.114673935 0.0687985 -0.25828975 0.010507648 0.083306596 0.2621794 0.08641775 0.09391292 0.2526247 0.029062465 0.2229508 -0.11467159 -0.17173909 0.1666278 0.38623312 0.69147164 0.14601877 0.47204882 0.15440309 -0.25889307 -0.05826337 -0.06766931 -0.30950847 0.27000877 -0.03563912 -0.022300495 -0.18097684 0.3668053 0.38378903 0.6549118 0.19760363 -0.14748137 -0.09848992 0.018758846 0.56054443 -0.30917907 -0.031242965 0.37596214 -0.2866336 0.14725557 -0.088357516 -0.16625975 -0.11811155 0.07539869 -0.44435278 -0.41034296 0.0027671857
239 0.06725738 0.15849255 -0.32820055 -0.047664203 0.1514256 -0.38420385 -0.12311719 -0.023016207 -0.15529886 0.29452857 0.029021338 -0.16376041 0.0627297 -0.16714652 -0.034537252 -0.007900484 -0.17415822 0.030891156 0.12613383 -0.5025804 -0.14804395 -0.14399236 -0.06209224 0.078481 -0.089735255 -0.17573148 0.1184212 0.23190019 0.18310875 0.013120221 0.21449842 0.16115828 -0.0063299797 -0.21185294 0.2024789 0.06977699 0.016783189 -0.38153803 0.2577036 0.25161204 -0.17635423 0.07826654 -0.31006932 0.19939378 -0.08002296 -0.1427026 0.09635693 0.38548645 -0.08777101 0.6325536 0.013547902 -0.2881137 0.14699353 -0.1783252 -0.1998008 0.010636088 -0.3949633 0.0050813765 -0.1384576 0.18091454 -0.035643116 0.07982242 0.27303138 -0.2493773 0.5795328 0.3402924 -0.1487061 0.09154857 -0.17936428 -0.5519988 0.11520341 0.4201935 0.2133282 -0.046431154 -0.7856772 -0.62419415 0.28311852 0.3944103 -0.03262273 -0.0663627 0.11565373 0.09568455 0.21137276 -0.062393248 -0.022207512 0.4536615 0.23112728 -0.46809402 -0.5718906 0.32194218 -0.2441221 -0.3682582 0.13474315 -0.05380477 -0.47587514 -0.025114773 -0.140151 -0.4909709 0.09395356 -0.032349013 0.46999162 -0.29277557 -0.055579685 0.407008 -0.40597424 -0.312498 -0.31421724 -0.08393001 -0.32547683 0.19687109 -0.0077417777 -0.19685216 -0.8179292 0.80752814 0.15080003 -0.044761445 0.17007825 0.20338528 0.16990724 -0.17029192 -0.14242879 -0.26923096 -0.3001212 -0.46933028 0.47295436 0.19126663 -0.1111923 -0.36451864
