500 128
124 -0.24805069 -0.28981414 -0.61548066 0.39589477 -0.065502934 -0.6252312 -0.2673606 0.18956378 -0.0807897 -0.42971185 -0.0301795 0.16437128 -0.0010215852 0.1269334 0.07717542 -0.39798743 -0.14604376 0.3999206 0.29826972 -0.15411268 -0.1718443 0.22473204 0.49528393 0.18255864 -0.114401795 0.2886179 0.13835318 -0.35950777 -0.2236858 0.2649988 0.0305466 0.5692681 0.04566488 -0.27113238 0.36680228 -0.3150158 0.01714783 -0.4341534 0.045097023 0.17148827 -0.017553205 -0.20688322 0.5835043 0.2619953 0.22951545 0.11160244 0.3870384 -0.0901086 -0.0032147944 0.02987635 0.070883796 -0.11441197 0.32533473 0.1137547 -0.2112876 -0.44571754 -0.27087688 -0.25328156 -0.45267174 -0.2247377 0.013761317 -0.0802092 -0.24331036 0.027303142 -0.07669006 -0.07738385 -0.20867385 -0.46959448 -0.11995889 -0.2930149 0.09652445 0.032156087 0.3855036 -0.6321216 -0.16173841 -0.2661136 -0.059674904 0.078162484 0.13042282 -0.06214557 0.031514276 -0.094086275 0.039090235 -0.409734 -0.37134463 0.4189554 0.32880616 -0.28247613 0.2784456 0.10351635 0.32971925 0.088590994 -0.16337864 0.12397297 -0.2864003 4.0091734e-05 -0.17390066 -0.60220724 -0.2983695 0.3154032 -0.35869753 -0.007276709 0.29451084 -0.2417473 0.21134607 -0.19409364 0.07303857 0.15439719 -0.1453092 -0.061272074 -0.16475764 0.30850527 0.23934548 0.010338406 0.15676804 0.0019371491 -0.2731947 0.28862545 -0.2630512 0.2580631 0.14527467 0.25706849 -0.0045544514 0.097386256 -0.6204137 0.12046401 -0.58734983 0.19845957
86 0.3135567 0.22565793 0.031680323 0.32509232 -0.02457896 -0.10119462 -0.3070002 -0.4950343 -0.022240272 0.08581594 -0.28977495 0.15250465 0.10496299 -0.090530775 -0.038884375 -0.26726696 -0.40485922 -0.10558234 -0.11201815 -0.46112716 0.003371987 0.37485301 0.11216021 0.5940236 -0.21870765 -0.41640308 -0.1779415 0.036521733 -0.38532028 -0.18809906 0.27978304 0.09759151 0.4500834 -0.5355214 0.015638357 -0.08316492 0.076987535 -0.070049025 0.47202906 0.09245491 -0.2193911 0.1861364 0.21512708 0.08117049 0.25366879 0.6293281 -0.39398363 0.12980613 -0.2003342 -0.06561655 -0.09203965 0.06893138 0.5044958 0.46862692 0.41733477 0.123295866 0.029636756 -0.13818567 0.029396191 -0.09769208 -0.18037197 -0.091017924 -0.14519256 0.394275 -0.13229379 -0.084749825 -0.06954443 0.4388307 0.088626735 0.34729108 0.09083812 -0.03939601 0.28729606 -0.3898408 0.3561161 0.057759218 0.13878514 0.1605903 -0.22281684 0.40442652 0.22725637 -0.17866775 0.06481852 -0.11345415 -0.08184486 0.2624906 0.36237738 0.24135965 -0.12219149 -0.038134485 0.066734895 0.20158456 -0.121683605 -0.10168529 -0.73069745 0.09608791 0.7597392 -0.68037164 -0.19137725 -0.11604174 -0.034446508 -0.39619866 0.31182143 -0.15153332 -0.19539951 -0.04598896 0.39450774 0.49690986 0.55314624 -0.09667126 0.36967704 0.02462735 -0.13999175 -0.23712586 -0.15777542 -0.041769177 -0.25407326 0.31249952 -0.2738425 -0.53285444 -0.09732639 0.19517258 0.32556757 0.050614987 -0.24726976 0.13737372 0.17324674 -0.04228205
14 -0.21092552 -0.2987472 -0.62559617 0.30245224 0.049238265 -0.6329535 -0.22539636 0.17603928 0.03543214 -0.48922876 -0.14208849 0.0705858 -0.047675494 0.04011149 0.0006900187 -0.39917007 -0.113303445 0.43776444 0.297288 0.00036587438 -0.17774399 0.3639168 0.61694664 0.217244 -0.17551333 0.45372668 0.03457543 -0.47006795 -0.15188463 0.21302469 0.009497548 0.5945233 -0.0018147593 -0.23487379 0.34626523 -0.18948497 0.11848892 -0.37923637 -0.03826836 0.24157953 -0.11098704 -0.10860299 0.6383283 0.39160904 0.1726186 0.09453358 0.41531184 -0.10175744 -0.022166032 -0.020137435 0.044375353 -0.044251032 0.26310316 0.09040613 -0.24219756 -0.4538133 -0.1908963 -0.22187738 -0.50188124 -0.17701802 0.021745555 0.024843402 -0.17669462 0.15215792 -0.08910174 -0.1462954 -0.22154558 -0.45630983 -0.10410975 -0.35438383 0.109427504 0.00038830595 0.28500995 -0.5274777 -0.062376242 -0.22074099 -0.079042666 0.06588659 0.11728356 -0.12628518 0.04768492 -0.10525761 0.025600681 -0.4410576 -0.31246123 0.3986477 0.38797835 -0.2829926 0.28426522 -0.022056283 0.30452386 0.062849216 -0.3177623 0.048963122 -0.32685834 0.109528854 -0.21745823 -0.5674246 -0.2682091 0.22199415 -0.31435597 0.006540838 0.30615142 -0.26473525 0.092214 -0.15295583 0.1416839 0.04424514 -0.067737006 -0.0053042024 -0.11126734 0.32682347 0.18058819 -0.07179301 0.19267102 -0.06315945 -0.29955432 0.22355324 -0.23211046 0.14967938 0.08476288 0.26196977 -0.025442602 0.10609126 -0.51658344 0.002074631 -0.6951253 0.1841126
151 -0.328239 -0.4341477 -0.17515668 0.020687904 0.15752779 0.21407603 -0.02845952 0.64412624 0.36842626 0.038865317 0.20168597 0.008554831 0.09802294 -0.35352713 -0.09552588 -0.046464395 0.30070877 0.072598755 0.071293704 0.28686246 0.29482186 0.2571483 -0.1098907 0.17548545 -0.38322476 0.12078493 0.12980717 -0.26452833 -0.19009648 -0.22354475 0.31556085 -0.27083856 -0.33083346 -0.41137525 -0.062177356 -0.43863943 0.27258623 -0.17710333 0.43651065 0.019302974 0.21588203 0.63575953 0.13872036 0.014186425 -0.8387871 0.10599596 -0.16837654 -0.22903582 -0.26649976 0.46902922 -0.0929282 0.050642386 0.24721171 0.4931737 -0.15190041 -0.3526212 -0.07705771 -0.43575883 -0.08107841 0.06944657 0.061119698 -0.04408336 -0.16113628 -0.15099667 0.07486358 -0.1093606 -0.3391617 -0.13330385 0.24083407 -0.025634943 -0.018432472 0.142262 0.21893261 -0.004159029 -0.115909964 -0.04913405 0.23811479 0.07803606 0.33137798 -0.09007659 0.27847588 0.018791331 0.0730309 0.036579076 0.0030449443 0.139848 0.271618 -0.038097255 -0.09527962 0.10292719 0.1462502 -0.07890174 -0.21707205 -0.02459511 -0.13010822 0.0036147807 0.2821025 -0.9460995 0.38785607 0.5771391 -0.03968822 -0.3798427 0.28255165 -0.2937347 0.017188849 -0.1519091 0.41855043 0.38752028 0.47053105 -0.6953758 0.31032917 0.063873656 0.14006227 -0.20816343 0.03747232 -0.2608249 -0.36264202 -0.12911268 0.07447723 0.11089931 0.11354136 -0.41142818 0.4745105 0.367062 -0.3493031 0.1814306 -0.06799698 -0.60409707
24 0.34035078 0.30073556 0.082132466 0.30922383 0.07917913 0.086474344 -0.28052944 -0.38720977 0.10247816 0.053173445 -0.35784578 0.22988437 0.2027273 -0.088489905 -0.08362143 -0.24162827 -0.40143853 -0.07681068 -0.09595395 -0.46460676 0.0035083573 0.3327498 0.14177988 0.59538364 -0.20467356 -0.3297883 -0.1669998 0.0526004 -0.3376826 -0.19472316 0.37863812 0.05007992 0.4195178 -0.5279282 0.030992828 -0.00246635 0.096995026 -0.029808056 0.3838545 0.115350835 -0.2879817 0.18264481 0.3278009 0.068246484 0.29694238 0.6163101 -0.3112112 0.18704288 -0.14761466 -0.1316452 -0.09861482 -0.026857473 0.42322454 0.53095645 0.47269914 0.08860366 0.13138205 -0.0707779 -0.095496655 -0.14016883 -0.15129925 -0.093457885 -0.129534 0.39720556 -0.12410758 -0.0949561 -0.0822066 0.44029027 0.13159728 0.31977943 0.045003515 0.016819349 0.2111539 -0.2702288 0.34672973 -0.009077128 0.061244674 0.18659426 -0.21749899 0.2890172 0.23184977 -0.20466632 0.08795266 -0.16705734 -0.07167396 0.34270954 0.2769463 0.1535439 0.012659196 -0.07109998 0.0910727 0.14781141 -0.074436136 -0.1649956 -0.65607256 0.03474819 0.8128629 -0.6997509 -0.16467112 -0.15207708 0.01085549 -0.44287965 0.3131215 -0.22857058 -0.3642143 -0.020277936 0.5214848 0.50039625 0.5606849 -0.11632535 0.49930388 0.09565892 -0.08005478 -0.29589668 -0.0963752 -0.027055789 -0.1858156 0.33322704 -0.26082587 -0.634465 -0.07366483 0.13822904 0.29127464 0.1002969 -0.20580293 0.15233253 0.17201643 -0.027425626
159 -0.2714336 0.05755228 0.19021927 0.6007224 0.20950589 0.06774355 -0.34639296 -0.1501544 0.3918589 -0.2166794 0.21959864 0.52495784 0.15882465 0.14235467 0.6950364 -0.44953343 -0.057123717 -0.09176596 -0.17789209 -0.19134547 -0.26196033 0.52485245 0.16537803 0.31327605 -0.13260266 -0.44308743 0.30627167 -0.16744298 -0.025149863 -0.2515667 -0.01605657 -0.31360954 -0.2290264 -0.29877803 -0.05360002 -0.1896257 -0.007167834 0.07419264 -0.18148424 -0.110286705 0.6559592 0.003277007 0.14237659 -0.07145195 0.2403481 0.46798623 0.24290255 -0.113937944 -0.25499803 -0.3170053 0.13271819 0.30225903 -0.12315914 0.2111538 -0.113639124 -0.107136875 0.1834731 -0.23468968 0.3538091 0.19872232 0.11705334 0.32241893 0.091720775 -0.13166903 0.191632 -0.17314005 -0.3552463 -0.4645132 0.048336282 0.05592935 -0.18539163 0.11098312 0.51926637 -0.019563193 -0.030766824 -0.12572972 -0.023670109 0.023883333 0.25132284 -0.22857843 0.4153518 -0.023481632 -0.015588834 -0.53602356 -0.19076952 0.1473264 0.4702242 -0.4512983 -0.37243077 -0.0056880587 0.06244604 -0.051296346 -0.3257362 0.3314799 0.034421597 -0.08907827 0.046006054 -0.4277163 -0.55206585 0.17858881 -0.28797895 -0.6661469 -0.5085765 -0.2502644 0.09044482 0.25404543 -0.530148 -0.08902159 0.20609617 -0.49013683 -0.09057123 0.32059 0.1877133 -0.30707017 0.071819924 -0.14952654 0.24854729 -0.06931621 -0.41714987 -0.52181435 -0.1727557 0.30975512 0.094109684 -0.03878652 0.157511 0.41326225 -0.6161582 -0.18828504
68 -0.2528319 0.033284795 0.1551526 0.6368308 0.2721306 0.027786704 -0.31914485 -0.091405876 0.477712 -0.23691784 0.2743218 0.45475605 0.12676033 0.23096813 0.68914455 -0.41480505 -0.14915887 -0.2967881 -0.20410989 -0.19316344 -0.3154585 0.408688 0.22151159 0.35415685 -0.18266979 -0.48057073 0.23378265 -0.27366436 0.09632478 -0.19857332 0.061815385 -0.17606686 -0.11911008 -0.23981406 0.123310335 -0.22868767 -0.100291796 0.024334693 -0.21201865 -0.09859407 0.5833136 0.13798349 0.23656492 -0.09694606 0.20295459 0.38783792 0.18493372 -0.17440745 -0.1853565 -0.15030006 0.08600225 0.15457748 -0.039000627 0.15703875 -0.18957964 -0.1182716 0.1853622 -0.25766864 0.29358894 0.20325047 0.21661162 0.35947576 0.07439068 -0.19206524 0.15519859 -0.15414919 -0.3428278 -0.3462235 0.075092465 0.028568681 -0.18044142 0.01728404 0.49588764 0.08379487 -0.035166103 -0.23458792 0.02099941 0.0074580596 0.20408255 -0.19687735 0.37885827 -0.12433351 0.020719286 -0.48439512 -0.1708731 0.16175032 0.34815505 -0.46016178 -0.40513793 0.0660274 0.025728486 -0.10280557 -0.38886186 0.419289 0.1742115 0.056274865 -0.056536168 -0.40144637 -0.5336 0.09121224 -0.27043048 -0.5944156 -0.49278274 -0.18846625 -0.022457115 0.1652147 -0.46178606 -0.018347826 0.20803614 -0.49997115 0.14062245 0.35495144 0.08353285 -0.43492097 0.028011631 -0.23050153 0.18399347 -0.070429966 -0.46291527 -0.5120357 -0.14389473 0.4311752 0.10744784 0.009260772 0.226464 0.38684458 -0.58736736 -0.3302877
25 -0.27583382 -0.08534176 0.20432985 0.6782078 0.13341363 -0.07056862 -0.28980654 -0.0753403 0.40243885 -0.3111167 0.3279764 0.5866574 0.06161049 0.27580386 0.72672814 -0.45545435 -0.13451219 -0.19348818 -0.037742455 -0.18557747 -0.35801184 0.44890147 0.29660133 0.3350333 -0.15495846 -0.51382387 0.20355079 -0.30735746 -0.12947196 -0.12675336 0.07866507 -0.11762191 -0.23908901 -0.27853346 -0.00071833975 -0.20904851 -0.15255307 -0.014181451 -0.117542945 -0.2076561 0.60814667 0.061872445 0.06313994 -0.123162046 0.10919241 0.49054065 0.1863017 -0.13614337 -0.21621741 -0.21902293 0.21791215 0.2232116 -0.0005535905 0.216536 -0.25529793 -0.08976923 0.2292032 -0.2295467 0.29623568 0.17689025 0.1589583 0.42139938 0.017921587 -0.13547282 0.16059397 -0.2525374 -0.29214713 -0.33595702 -0.100094005 0.017181741 -0.06278148 0.104973905 0.46228182 0.080435574 -0.030939331 -0.24581341 -0.048296124 -0.03471902 0.18888026 -0.04738689 0.39567888 -0.101632126 -0.0106097 -0.499152 -0.16409472 0.086756624 0.3946724 -0.4629429 -0.450116 0.083460614 0.09402768 -0.1086908 -0.3298919 0.3420557 0.12641138 -0.021828676 0.12331091 -0.38235775 -0.58653784 0.08875847 -0.3324663 -0.7513368 -0.47206244 -0.26185226 0.034542643 0.12492826 -0.5108203 0.010691728 0.16128466 -0.46361908 0.038756214 0.35414305 0.039042395 -0.31577116 -0.002161342 -0.14682493 0.23947927 -0.037861757 -0.51488173 -0.52003413 -0.19644384 0.35422406 0.1322726 -0.0037059386 0.22555791 0.49741146 -0.5991348 -0.26206368
72 -0.3212307 -0.077057794 0.19553219 0.7073612 0.28380162 0.030560512 -0.41877365 -0.05218832 0.4305569 -0.2254954 0.22369048 0.38575694 0.23204574 0.16086598 0.64343774 -0.43220127 -0.13139698 -0.10247376 -0.26509574 -0.1641026 -0.2652232 0.412565 0.27339926 0.3369108 -0.21436962 -0.39341146 0.2821449 -0.26419145 -0.055710375 -0.28154916 -0.06784095 -0.2138292 -0.264816 -0.19046004 0.083514154 -0.18745342 -0.041024975 0.1614362 -0.27022147 -0.13295606 0.6063913 0.025898863 0.1544786 -0.077454984 0.28468663 0.40479338 0.13798915 -0.12139082 -0.22206563 -0.23053768 0.018703712 0.28578764 -0.123446055 0.09913556 -0.18159789 -0.11047861 0.1966443 -0.2237783 0.33726525 0.21685824 0.08290208 0.34808025 0.02911852 -0.114043824 0.12599252 -0.15512706 -0.33199984 -0.45465255 0.09117235 0.09157093 -0.19670925 0.0741089 0.5034795 0.05635632 -0.012141408 -0.098343976 0.06401696 0.0021547133 0.22884914 -0.075284705 0.35818335 -0.1609318 0.07433423 -0.48675603 -0.17944734 0.1426215 0.3624299 -0.48624542 -0.29743394 0.047619864 0.0721995 -0.12315309 -0.33319336 0.42774385 0.099073246 0.033541974 0.009989105 -0.42050776 -0.5409916 0.17287764 -0.30564183 -0.68858236 -0.5314747 -0.26018196 -0.111045614 0.10599939 -0.4609107 -0.0067594443 0.23128332 -0.4873293 0.017106108 0.3226845 0.05686732 -0.41524982 0.10908027 -0.16811141 0.17232305 -0.060300298 -0.48394302 -0.5777898 -0.23975325 0.33749813 0.03512288 -0.050687473 0.13081127 0.38051426 -0.5624164 -0.25703928
155 -0.27668032 -0.22297211 -0.6226459 0.39421353 0.06706955 -0.6239828 -0.1988922 0.121487714 0.041563958 -0.43076962 -0.015595683 0.31493875 0.024476072 0.17401804 0.036339413 -0.51328015 -0.1380667 0.51073295 0.2623261 -0.1087392 -0.25100124 0.29312202 0.5945985 0.1906321 -0.07123904 0.42896166 0.12634201 -0.33974552 -0.14346458 0.2703625 -0.093750484 0.5499879 0.022906752 -0.24090919 0.37244934 -0.2275544 0.12772742 -0.3941251 0.019285448 0.21644883 -0.15489979 -0.062544726 0.57460433 0.3600863 0.102135554 0.012449667 0.3640589 -0.10588304 -0.029688995 -0.024121016 0.08553675 -0.13860719 0.28109893 0.14532298 -0.2282574 -0.36660993 -0.22981182 -0.29510832 -0.49267495 -0.32180429 0.07745032 -0.047066938 -0.28035915 0.008796607 0.019744461 -0.096113145 -0.29643172 -0.3617459 -0.117283575 -0.29512516 0.095764406 0.025329731 0.33443648 -0.49328986 -0.11699061 -0.3603713 -0.036382705 0.08787641 0.17536348 -0.1365044 0.04611309 -0.19867045 0.084533975 -0.4748618 -0.3444716 0.47644266 0.3336103 -0.27762043 0.36571005 0.041426875 0.3142209 0.041329198 -0.26621023 0.03673012 -0.22026879 0.061503008 -0.08800101 -0.5387957 -0.32191446 0.26181617 -0.36826578 -0.05991182 0.29323956 -0.30215278 0.06113885 -0.28079045 0.13040382 0.2037675 -0.14000532 0.01653069 -0.08256149 0.3612635 0.23308611 -0.049446616 0.19776155 0.0170924 -0.30060175 0.23739034 -0.19290878 0.21583652 0.14230397 0.16753793 -0.0678607 0.02110106 -0.55258256 0.07790055 -0.5963157 0.15983398
79 -0.26482344 -0.2364295 -0.55572677 0.30468324 0.15945378 -0.64329475 -0.109095864 0.14554812 -0.05396245 -0.4568533 -0.14947909 0.10058529 -0.10011189 0.0244659 0.048805766 -0.46070886 -0.1935959 0.37171486 0.31865942 -0.086649045 -0.118088454 0.25230885 0.6625807 0.27691463 -0.14523192 0.47740337 0.034382816 -0.36933956 -0.21756576 0.19397202 -0.026395071 0.6560265 0.09621515 -0.2633035 0.3421922 -0.29550633 0.12035226 -0.42436868 -0.003178175 0.2616709 -0.016227549 -0.14708991 0.57586205 0.31529403 0.17325999 0.08879753 0.40014508 -0.13726903 -0.016506458 -0.0050508995 0.080088384 -0.06599325 0.4173545 0.19165298 -0.1346407 -0.4192833 -0.13833919 -0.272004 -0.42941567 -0.161828 0.025040377 -0.07923192 -0.3329218 0.037329156 -0.07381736 0.0033234633 -0.0944655 -0.40062097 -0.16836579 -0.33735046 0.101169474 0.036080383 0.28696543 -0.45665878 -0.1183498 -0.31239793 -0.11408922 0.12538946 0.0549718 -0.14096256 0.003139275 -0.12782025 0.11465066 -0.45660004 -0.35108846 0.29221082 0.24141781 -0.2470749 0.330766 0.102112524 0.3731591 0.073284306 -0.17364082 0.18458915 -0.3157114 0.028362522 -0.13101856 -0.6239379 -0.23199172 0.3797791 -0.2778305 -0.004341327 0.33991417 -0.30427065 0.16293004 -0.17194588 0.0767852 0.17621206 -0.08520288 -0.031227402 -0.17185676 0.28645962 0.20525432 0.05847296 0.15096451 -0.079175204 -0.30036542 0.19693775 -0.2503828 0.26615465 0.12179467 0.15349233 -0.057613667 0.17744431 -0.4992202 0.106706746 -0.64759684 0.08464221
169 -0.46578088 0.31087404 0.22952044 0.046147272 0.2985183 -0.1007083 -0.35548994 -0.33395463 0.19008566 -0.13525487 -0.33038834 0.34480968 -0.25444236 0.34229743 0.028114848 -0.3175834 0.2042675 -0.10373717 0.036468443 0.07174521 0.1941026 0.5581727 0.25561935 0.38162446 -0.015408139 -0.23529406 -0.22150591 -0.2213158 -0.5115897 0.10702424 0.0016962008 0.074728295 0.0581831 0.17728224 0.09558123 -0.2636821 0.47853586 -0.25543997 0.06440497 -0.015661081 0.70697314 0.571786 0.439941 -0.042073354 -0.11358002 -0.106031775 -0.585559 0.08247286 -0.017258557 0.18710245 -0.2760623 0.047337104 0.4219169 -0.0607099 -0.103848055 -0.26693907 0.14871518 -0.2425589 -0.37038124 0.17189474 -0.5565347 -0.009834374 0.11478969 -0.11074903 -0.5533593 0.22054824 -0.31018868 -0.022063656 -0.06526133 -0.27277097 0.023966229 -0.06071036 0.17949055 -0.7006721 -0.23237216 -0.25452578 0.0065319696 0.10064301 0.08038547 -0.0051168813 -0.3665563 -0.38691083 -0.12501523 -0.060239278 0.14439875 0.50301665 0.26075011 0.1759261 -0.35811725 0.08978459 -0.45484498 0.099230416 -0.132186 -0.05907409 -0.17003274 -0.2797715 -0.38640797 -0.64455223 -0.03872095 -0.23794912 -0.2763108 -0.09045711 0.1068615 -0.3555547 -0.224828 0.18817323 0.9268842 0.3582711 -0.1178891 0.15171592 0.1661103 0.0048210244 0.19367848 -0.39365548 0.17398481 -0.4360242 0.09379785 0.044048596 -0.15862992 -0.25213185 0.44435123 0.004655733 0.015715081 0.32364565 -0.116138086 -0.0112545295 0.317743 -0.32430154
80 -0.22018924 -0.20723176 -0.52632326 0.30240393 0.06857403 -0.53287786 -0.3419688 0.12516437 0.018962413 -0.49957553 -0.021900455 0.0785801 0.018747335 0.01734732 -0.043359827 -0.45840436 0.008539394 0.44202018 0.30940267 -0.1475 -0.09585026 0.27306646 0.6123953 0.21310402 -0.27603868 0.47152153 0.15236211 -0.4716052 -0.20850563 0.11657534 0.0655178 0.53684694 0.057777025 -0.25485858 0.44938582 -0.26613605 0.06672244 -0.3902334 -0.021961885 0.26470727 -0.12467693 -0.13178398 0.66610336 0.41385484 0.20954718 0.010995123 0.39471218 -0.14421089 -0.050320916 0.0010899217 -0.029077033 -0.035593342 0.33449572 0.13604432 -0.31966263 -0.51441705 -0.093841 -0.2710387 -0.4112384 -0.20884356 -0.07460409 -0.04550658 -0.23437354 0.10322798 -0.1187102 -0.08499304 -0.1318368 -0.41746938 -0.09624196 -0.32916918 0.14163436 0.07121807 0.39332885 -0.5711124 -0.06991908 -0.20873134 -0.06513458 0.13544324 0.09596836 -0.17187098 0.035375703 -0.06087932 0.044023737 -0.4270557 -0.37435204 0.40707988 0.34955987 -0.30126154 0.33475855 0.0156377 0.31631297 0.05194496 -0.16408165 0.1489049 -0.26590905 0.045280304 -0.16733763 -0.59818125 -0.22791506 0.324157 -0.3118878 -0.033201076 0.18008885 -0.3042775 0.07080463 -0.20569566 0.05029345 0.09457495 -0.2465515 -0.027963046 -0.18821204 0.31532204 0.17352279 0.0071116895 0.15792455 0.03899232 -0.26743904 0.22851343 -0.23874623 0.26471937 0.042835463 0.14862761 0.037819494 0.15205014 -0.5601207 0.009683474 -0.56761515 0.1973157
142 -0.5251118 0.32118374 0.39309856 -0.20360066 0.3167365 -0.08669703 -0.35797068 -0.28965065 0.21510836 -0.108809255 -0.2865942 0.524291 -0.23697637 0.33848423 0.06620366 -0.4025164 0.20951577 -0.096329875 0.07694183 0.011554038 0.19104294 0.5911162 0.3184358 0.39026362 0.11090346 -0.36634785 -0.22575772 -0.17318058 -0.4743292 0.10890654 0.15230389 0.06509628 0.14361756 0.24757656 0.070682265 -0.24948372 0.39723206 -0.26486227 0.20379658 0.10398893 0.6864307 0.47852316 0.35501924 -0.07786607 -0.21767694 -0.1538044 -0.44243544 0.040255554 0.058253787 0.19324838 -0.22544949 0.004641082 0.42864016 -0.076895505 -0.021148767 -0.16680561 0.10225842 -0.22220309 -0.32975242 0.070161454 -0.5319442 -0.0052905562 0.002012744 -0.18505736 -0.55299056 0.27369484 -0.20162186 0.07209297 -0.10659116 -0.28807485 0.03917429 -0.06007109 0.2448687 -0.78737205 -0.3016924 -0.24782915 -0.013985475 0.09921293 0.03441951 -0.1275157 -0.36578968 -0.37197733 -0.15225992 -0.12219163 0.04780595 0.50135225 0.33004886 0.13557132 -0.37636638 0.046528272 -0.5275274 0.10558498 -0.064575195 -0.085488796 -0.1044513 -0.2595027 -0.42252058 -0.6311343 -0.066548094 -0.107669815 -0.2113444 -0.013019696 0.16823545 -0.3951247 -0.13750014 0.102484435 0.88551915 0.40233606 -0.056564096 0.14694764 0.16709118 0.035292704 0.249867 -0.3097468 0.0963756 -0.41396362 0.09148375 0.010921779 -0.08536311 -0.22605346 0.5185881 0.08691138 0.080371976 0.29821035 -0.16426904 0.0606097 0.2756548 -0.25384673
108 0.3361552 0.25724304 0.07360121 0.33786643 0.028621512 -0.06895714 -0.26814994 -0.405974 0.03190411 0.055267118 -0.18880379 0.1582402 0.1004284 -0.1291753 -0.06280944 -0.34308589 -0.3939679 -0.114482 0.06004193 -0.48491096 0.06396177 0.28855026 0.15547746 0.6674524 -0.25660616 -0.34199828 -0.20105009 0.016144317 -0.42733562 -0.11895441 0.3236184 0.08965627 0.4002063 -0.5279664 0.00025895188 -0.10185484 0.022149874 0.0047409334 0.40288734 0.08771285 -0.245132 0.15856393 0.2634131 0.056429677 0.22515154 0.57119775 -0.35687903 0.11333105 -0.12822963 -0.117569216 -0.03552966 0.09147744 0.47382933 0.51990145 0.42183375 0.12377869 0.035951797 -0.12272502 0.029956188 -0.06985291 -0.14080723 -0.11846695 -0.2539282 0.3870217 -0.10096882 -0.008687859 -0.027129212 0.44994038 0.11898378 0.4336961 0.075455666 0.011433318 0.31691277 -0.39210615 0.32992718 0.018890183 0.13740061 0.17315364 -0.29069164 0.3766253 0.22979142 -0.14003327 0.023883086 -0.1471864 -0.06957257 0.26541206 0.29039794 0.17777373 0.02523624 -0.058605105 0.014106816 0.25746194 -0.12385196 -0.05779866 -0.66229 0.045830928 0.8033871 -0.70690334 -0.19078052 -0.1554984 -0.12348736 -0.39921558 0.26587093 -0.13103299 -0.1973943 -0.03377152 0.4845515 0.58973396 0.4770307 -0.09912302 0.3600959 0.10483435 -0.08244917 -0.3301313 -0.13451816 0.045126937 -0.22480266 0.3426062 -0.23724754 -0.53345674 -0.04417824 0.16507512 0.19086367 0.039058704 -0.30068836 0.086584054 0.18911196 -0.059609927
290 -0.20895803 0.009848249 0.15222922 0.5854222 0.15694796 0.06238661 -0.3334904 -0.0341054 0.48191673 -0.18703367 0.28874686 0.41517708 0.06412451 0.15265438 0.6486347 -0.60444754 -0.12104132 -0.1760115 -0.119952805 -0.20472905 -0.26634246 0.36355352 0.31358162 0.24369183 -0.18981561 -0.5296833 0.24856773 -0.35643762 -0.016946064 -0.21575485 0.05506362 -0.12866633 -0.066566594 -0.22042933 -0.010631763 -0.22743794 -0.08208978 0.042521637 -0.2671266 -0.0956097 0.7253149 -0.005828312 0.2058757 -0.0342124 0.28252786 0.49052167 0.2826435 -0.22782212 -0.17852767 -0.16777684 0.15704341 0.2960439 -0.07016067 0.18077128 -0.18472505 -0.1348527 0.13709252 -0.27354696 0.40650836 0.2165846 0.23318392 0.30055565 0.020069713 -0.1381169 0.17064229 -0.14829673 -0.29047012 -0.4184748 0.069483094 0.045933492 -0.1814158 0.05894459 0.63372606 0.06247244 -0.11125629 -0.07890712 -0.02972473 -0.012997983 0.16069348 -0.08319005 0.3136941 -0.15056238 0.05875512 -0.46630946 -0.1126819 0.027479537 0.35994488 -0.4482747 -0.32591778 0.12814604 0.024993943 -0.07486779 -0.3594436 0.40670425 0.09406835 -0.013995171 -0.021758882 -0.36701876 -0.5165708 0.17173317 -0.22831294 -0.63156205 -0.5818135 -0.25597605 0.10242199 0.18420483 -0.4467288 -0.004293758 0.2389263 -0.5095274 0.006151607 0.326928 0.078384735 -0.39493802 0.05560142 -0.10923363 0.25607616 -0.1314378 -0.4949544 -0.53614604 -0.13872552 0.40601388 0.1678317 0.007044992 0.14679912 0.33683792 -0.55850613 -0.2768253
185 -0.32394585 -0.31381777 -0.09225382 0.07772168 0.22137211 0.17942414 0.040501025 0.70405424 0.3200964 -0.05379054 0.24456485 0.09673497 0.021053664 -0.44148174 -0.08714222 -0.09467725 0.29552546 0.054782815 0.2082776 0.28956 0.34448445 0.20560856 -0.07236703 0.06726253 -0.3481779 0.16919844 0.060341798 -0.32837698 -0.2830344 -0.27168828 0.26167387 -0.23098215 -0.3855623 -0.3885847 -0.077024825 -0.5218819 0.32887942 -0.17464457 0.40343583 0.032283768 0.20900448 0.67578226 0.16164492 0.05987502 -0.87847555 0.14909254 -0.18886732 -0.30466256 -0.18291502 0.5028124 -0.11037249 0.07351708 0.35800496 0.51327145 -0.12554874 -0.36612368 -0.10855178 -0.3479638 -0.083419025 0.0026784644 0.05773286 -0.15753654 -0.2539218 -0.1312833 -0.033431936 0.022810783 -0.28146893 -0.048400376 0.19651152 0.049760707 0.016470337 0.14389409 0.06785117 0.07090451 -0.17128244 -0.07402592 0.24155393 0.022843149 0.37747562 -0.054856822 0.24935293 0.020403974 0.07130558 0.00021715152 0.020821827 0.20717011 0.39356735 0.11831449 -0.11090662 0.19636829 0.21241422 -0.103755035 -0.17801875 -0.047592293 -0.040444646 0.0744635 0.2877878 -0.9498346 0.38788155 0.55943644 -0.13715161 -0.38422903 0.2354266 -0.29616356 -0.016419865 -0.3145383 0.2704909 0.3180198 0.44724524 -0.58701855 0.33091637 0.17504309 0.17001815 -0.18769819 -0.029496077 -0.186178 -0.506179 -0.1350294 0.026762547 0.049013615 0.23246849 -0.39667392 0.44050306 0.3360345 -0.4107294 0.2595488 -0.11715631 -0.54114354
97 -0.2566119 -0.0045422604 0.121706225 0.67920136 0.23288226 0.03544839 -0.39021173 -0.091398574 0.4089249 -0.2636615 0.3369651 0.55636185 0.15733328 0.13819051 0.7884396 -0.48437184 -0.0011243711 -0.049100608 -0.1858717 -0.2463704 -0.274606 0.4781255 0.15598652 0.25321734 -0.1658166 -0.4257373 0.30389646 -0.27682602 0.02565059 -0.29296288 0.05301874 -0.328632 -0.27105266 -0.274026 -0.038727902 -0.25445184 0.020937182 -0.03859037 -0.13874772 -0.118413836 0.660452 0.04452152 0.14130808 -0.13096307 0.23328319 0.5267583 0.2277331 -0.2359928 -0.20105518 -0.26800045 0.15516418 0.3243133 -0.07577981 0.20240884 -0.13848712 -0.17892347 0.120592855 -0.20977105 0.27284354 0.18924797 0.15222758 0.36755666 0.04442849 -0.23184478 0.1994862 -0.048270058 -0.3148712 -0.41917896 -0.02661489 0.035574425 -0.17474112 0.0070119807 0.5730785 0.009711507 0.047531314 -0.061027057 -0.082427815 -0.0069295308 0.19117475 -0.09658606 0.32902867 -0.12043032 0.0047391136 -0.48738572 -0.21203052 0.12433011 0.42563558 -0.4485534 -0.22452155 -0.010234413 0.10240775 -0.119434185 -0.3497776 0.38772753 0.11825796 -0.010306048 0.01045924 -0.31676036 -0.5068252 0.09687636 -0.2611353 -0.5842977 -0.49763504 -0.24238315 0.0058821132 0.091139555 -0.48039445 0.025722705 0.22523597 -0.36600882 -0.0018279743 0.3149991 0.11573015 -0.41884014 0.030172905 -0.16603126 0.1902321 -0.051875435 -0.45339522 -0.541525 -0.17900217 0.3954629 0.20506173 -0.1383103 0.18744211 0.42374283 -0.51796037 -0.21460384
94 -0.24224631 -0.26998666 -0.5656654 0.32239679 0.08296362 -0.5923138 -0.27268225 0.17052528 -0.010088165 -0.3146952 -0.02389396 0.16435044 -0.035556503 0.11117196 0.18542434 -0.54168695 -0.16310644 0.38792607 0.24980499 -0.22076091 -0.26557592 0.27830252 0.6175777 0.1908316 -0.18085225 0.46521834 0.1783598 -0.38356298 -0.157594 0.13095015 -0.057931434 0.48086777 0.09991203 -0.25986505 0.29243115 -0.31325513 0.11916044 -0.5028158 0.062402174 0.19269978 -0.106153734 -0.09350133 0.62443256 0.3418298 0.14219858 0.10447124 0.30282256 -0.07757959 0.01850766 -0.03240451 0.029050699 -0.082164496 0.3564432 0.07999153 -0.13683492 -0.38050258 -0.08811845 -0.28970084 -0.5452526 -0.21032147 0.0033198576 -0.051316578 -0.2102905 -0.008647618 -0.01619354 -0.00093708455 -0.15271516 -0.44287252 -0.22981696 -0.21728584 0.1448991 -0.011145338 0.37869063 -0.5206532 -0.151371 -0.28429428 -0.12668766 0.08719822 0.11791532 -0.13447247 0.00286847 -0.09738823 0.052801996 -0.34282315 -0.40008974 0.44616935 0.33319968 -0.27990928 0.4555353 0.09995809 0.35940328 0.0464902 -0.20757855 0.070631154 -0.20353173 0.01835173 -0.20586017 -0.46909815 -0.18054432 0.41049102 -0.28360963 0.0038719457 0.3568707 -0.36871198 0.041687626 -0.21294373 0.13429925 0.15231122 -0.13239658 0.031289697 -0.1952732 0.3479607 0.21188603 0.045955945 0.17551473 -0.011564288 -0.29556936 0.2306096 -0.1641416 0.2787628 0.21414644 0.19371524 0.022046229 0.09996135 -0.48781562 0.06168494 -0.59699494 0.24587072
12 -0.21743459 0.031415977 0.16953762 0.6475361 0.19142298 0.06704113 -0.38329703 -0.080956146 0.47464994 -0.105656505 0.29338947 0.42235962 0.19260891 0.19634038 0.7814448 -0.39912474 -0.092124276 -0.04972411 -0.20673731 -0.20536956 -0.34404752 0.44467124 0.21429554 0.25032148 -0.12215269 -0.47139585 0.21266577 -0.28338644 0.0041375365 -0.25535196 -0.034212235 -0.21995518 -0.20471266 -0.36206433 0.042799097 -0.21262221 0.022408377 0.028434845 -0.27793527 -0.014889702 0.64635414 0.034608576 0.26563936 -0.10586839 0.22242008 0.50257903 0.20964958 -0.17368463 -0.21103136 -0.27741882 0.066143386 0.3420034 0.024339307 0.17973258 -0.17875029 -0.17126825 0.16764641 -0.16922395 0.19797131 0.22287068 0.13746893 0.28244522 0.07778057 -0.11651053 0.13339482 -0.08407797 -0.32675824 -0.4187113 0.048250988 0.027147915 -0.21593836 0.020620836 0.47527066 0.06261522 0.006682539 -0.07683123 -0.029543128 -0.014895209 0.22260419 -0.17380737 0.42921275 0.03372783 0.014260567 -0.47065464 -0.09304205 0.10304872 0.4180277 -0.5419424 -0.30334103 0.09861222 0.10876161 -0.15797623 -0.28392127 0.3545172 0.069240764 0.024238177 0.04121121 -0.336073 -0.49741307 0.18763162 -0.18671212 -0.65525275 -0.52172863 -0.23320702 -0.050431732 0.16622671 -0.5471606 -0.036873214 0.2058846 -0.44222176 0.010057741 0.37450895 0.06606581 -0.39272466 0.04505497 -0.16324124 0.20406367 -0.092075676 -0.55334383 -0.5628501 -0.119059354 0.39220822 0.17015894 -0.056620568 0.18764003 0.3577553 -0.62411577 -0.17504703
183 -0.3454648 -0.30566642 -0.49710733 0.4369587 0.00799908 -0.62324256 -0.24604778 0.10863631 -0.06791492 -0.37610206 -0.06383245 0.11644397 0.014176126 0.06958754 0.1566261 -0.4551498 -0.06598895 0.48143336 0.24531642 -0.04438052 -0.2235432 0.34035495 0.6407373 0.21521379 -0.18551233 0.49998808 0.117174715 -0.3814587 -0.18102075 0.16847712 -0.09586607 0.4723732 0.08511399 -0.21314733 0.30925116 -0.27704224 0.05172111 -0.40712726 0.07754955 0.13848312 -0.034964573 -0.06005566 0.5376768 0.28992042 0.1820801 0.1649419 0.31431177 -0.0018813947 -0.0010477818 0.014177908 0.025949813 -0.010098382 0.3172153 0.16336852 -0.28696677 -0.44695294 -0.1009768 -0.3501703 -0.50984734 -0.21256205 0.010869284 0.01829575 -0.26355916 0.008095142 0.047853503 -0.087330125 -0.1846219 -0.43737802 -0.12617631 -0.23155752 0.11959857 0.13723339 0.37801743 -0.52141225 -0.07392534 -0.26721776 0.009815177 0.07226882 0.13731883 -0.010303436 0.071289286 -0.060860932 0.014896875 -0.3666084 -0.46457636 0.40138143 0.3028866 -0.28912303 0.44252685 0.099817514 0.41135702 0.048632428 -0.23908187 0.011928854 -0.23203397 -0.035473578 -0.16501877 -0.4684279 -0.2554171 0.31478995 -0.3174344 -0.03334975 0.2930342 -0.34249282 0.105558746 -0.17818356 0.21660036 0.18159768 -0.31296223 0.030083235 -0.18724972 0.33833662 0.15975629 -0.018605262 0.22601491 0.003926305 -0.29292962 0.28816324 -0.2374463 0.17338356 0.12525043 0.18852739 -0.051104743 0.13093469 -0.5564153 0.07373039 -0.62844545 0.23423637
107 -0.20290384 -0.34295237 -0.579099 0.37088537 0.0395765 -0.49755734 -0.17754634 0.15315522 0.030782813 -0.33073643 -0.019147465 0.16669339 0.08897407 0.13219613 0.14635798 -0.3609964 -0.12536044 0.42374507 0.32165596 -0.021208195 -0.199919 0.2905466 0.7071438 0.19679832 -0.16511072 0.43756294 0.1672656 -0.43879133 -0.10637138 0.11773187 0.009892911 0.52940696 -0.082375355 -0.3188063 0.29489455 -0.25585592 0.16683848 -0.44241494 0.11784185 0.24539919 -0.10875688 -0.10072516 0.70618945 0.4028234 0.15039797 0.09286794 0.3942418 -0.12790658 0.023860598 -0.059518468 0.018005535 -0.015552432 0.3867558 0.12749428 -0.25409487 -0.5502388 -0.1030664 -0.26517427 -0.54537714 -0.15641654 -0.034115836 -0.1095846 -0.21944237 0.054892384 -0.022013012 -0.040471263 -0.15924379 -0.3640779 -0.20763358 -0.35226613 0.14764343 0.054302573 0.39412674 -0.5326903 -0.09816111 -0.23748253 -0.15282698 0.058730826 0.060516696 -0.19608428 0.0049867537 -0.108344905 0.01584067 -0.3406574 -0.2837614 0.46757853 0.32898104 -0.23869874 0.39380497 -0.033575177 0.3229163 0.027939651 -0.27645272 -0.006302273 -0.22787131 -0.0138703445 -0.18460329 -0.53668034 -0.29541084 0.31043705 -0.29663187 -0.009090103 0.26510522 -0.35807502 0.04602358 -0.16078885 0.14178379 0.012966366 -0.12040991 0.03666075 -0.16964556 0.3599926 0.12409541 -0.03830519 0.15902598 0.04823307 -0.25297728 0.24901871 -0.15941963 0.24018115 0.14888133 0.16015506 0.10474452 0.15131241 -0.42774135 0.020685557 -0.63147295 0.1779171
130 0.44045955 0.27787545 0.1140058 0.26834625 -0.072483584 -0.028463915 -0.36761373 -0.5180468 -0.00219604 0.06872696 -0.25918284 0.24597353 0.15140468 -0.13870448 0.081294134 -0.32528788 -0.31175548 -0.011390017 -0.116470985 -0.4778116 0.0042811264 0.3520516 0.12728728 0.50644594 -0.1968521 -0.27681243 -0.114477776 0.07358724 -0.46773502 -0.25647476 0.3428895 -0.08744123 0.29314667 -0.43877342 -0.095033534 -0.13540944 0.16367868 -0.0682707 0.46129814 0.030197093 -0.24628077 0.054396227 0.28588462 0.13056155 0.23037045 0.63472885 -0.35744148 0.108295195 -0.16353022 -0.097802855 -0.027486047 0.07379785 0.5236649 0.49046528 0.4861161 0.16631049 -0.015534988 -0.15251236 0.06599452 -0.06655247 -0.19634493 -0.16839415 -0.20734687 0.29300094 -0.06970499 -0.027180653 -0.027271476 0.3789819 0.20767385 0.4016926 0.050553173 0.04116391 0.26610884 -0.521862 0.45901036 0.1611187 0.077976964 0.123094186 -0.2767923 0.3841529 0.13080068 -0.19649173 0.023295948 -0.050006922 -0.0603741 0.37547973 0.37298805 0.16830492 -0.026781859 -0.15548648 0.09996185 0.13327701 -0.18731786 -0.16716748 -0.73693204 0.035174787 0.7157141 -0.66528505 -0.19145605 -0.12897664 -0.08449329 -0.39945954 0.28715092 -0.20040266 -0.22075187 -0.010490541 0.48655796 0.42017928 0.5772822 -0.13558409 0.31259674 0.12227383 -0.028172305 -0.30765638 -0.10770885 0.067936346 -0.29469275 0.2992624 -0.18929099 -0.5473142 -0.024899933 0.17343274 0.33521116 0.0059960796 -0.2241063 0.15000635 0.20014268 -0.12706755
10 0.22580121 0.28942207 0.010732037 0.3726519 0.10637092 0.06624451 -0.34359592 -0.28303686 0.007614815 0.057496924 -0.28623736 0.17299789 0.12568678 -0.23697169 -0.025356943 -0.19497201 -0.42062598 0.048547983 -0.09941463 -0.5100105 0.021772971 0.26234803 0.12981544 0.53792715 -0.2974491 -0.43274045 -0.2306654 -0.009723948 -0.46596727 -0.11497981 0.32361114 0.07763388 0.31897977 -0.6186249 -0.06645841 -0.14127278 0.14415807 -0.07077338 0.4260844 0.09192096 -0.17780533 0.1670643 0.33221385 0.13342653 0.2563361 0.71058315 -0.24547583 0.18221301 -0.10460281 -0.10671165 -0.08820047 0.1085813 0.5957806 0.47238374 0.4876858 -0.009498767 0.1589925 -0.04859911 -0.17532758 -0.08703311 -0.13563372 -0.1065603 -0.21670632 0.49472034 -0.2396409 0.048756987 -0.03799781 0.5119141 0.07899167 0.39724252 0.07564883 0.0058273487 0.20916294 -0.27725846 0.3647975 0.12761916 0.0808222 0.08264824 -0.3459066 0.41150543 0.24319154 -0.120157585 0.032598913 -0.15433908 -0.083731666 0.23559919 0.3474908 0.08327286 0.0015742573 0.013822372 0.019584943 0.090786375 -0.0042264923 -0.19042929 -0.6475877 -0.007010487 0.7512675 -0.5193176 -0.052409217 -0.18900041 -0.07338657 -0.38112605 0.25135148 -0.24980226 -0.2513949 -0.13864432 0.48139328 0.47003102 0.51309097 -0.11377273 0.41478 0.0356223 -0.13022494 -0.19460592 -0.13029104 0.041127354 -0.23264696 0.30344233 -0.30769148 -0.6754299 0.023039648 0.2918493 0.28854126 0.032906078 -0.20513842 0.08241011 0.16981559 0.03457079
41 -0.2567113 -0.24248609 -0.5622824 0.23504603 -0.03982885 -0.62740344 -0.23613748 0.05557128 0.034322135 -0.3867404 -0.06410849 0.1373471 -0.09854199 0.18374519 0.16857186 -0.50155514 -0.122615494 0.46267334 0.22437876 -0.18589634 -0.19847372 0.3300708 0.63391006 0.14744659 -0.061201636 0.49437067 0.038007613 -0.4889548 -0.18809652 0.13315268 -0.06898729 0.44957903 0.08667283 -0.27951393 0.30181354 -0.3350301 0.09474459 -0.40384144 0.022003965 0.20947446 -0.02938727 -0.21433046 0.56120384 0.40047404 0.13406679 0.19907476 0.48922136 -0.11654685 0.01997405 -0.029820325 0.02549993 0.02595002 0.34262797 0.18408632 -0.16422036 -0.41198274 -0.16219804 -0.28778034 -0.45330575 -0.15277044 0.058052726 0.013230045 -0.26614067 0.07509776 -0.055935744 -0.051055737 -0.12764317 -0.42888895 -0.15534927 -0.28489205 0.06685695 0.04477802 0.291695 -0.51381665 -0.10339009 -0.23897651 -0.07112995 0.08289184 0.0048023053 -0.21365424 -0.034906436 -0.09706089 0.07952734 -0.34433407 -0.31309846 0.34412345 0.25034285 -0.31075856 0.29548293 0.035118822 0.40223736 -0.0038645978 -0.25993463 -0.039522603 -0.34713867 -0.018072922 -0.13511074 -0.53491557 -0.26887795 0.35298708 -0.31115538 -0.01864996 0.27078584 -0.3119035 0.16811545 -0.18947178 0.15311003 0.02975867 -0.11762618 -0.09405312 -0.20522146 0.2692362 0.20353656 0.062407162 0.16687928 0.05250161 -0.37218148 0.25977835 -0.28826785 0.20438494 0.17112315 0.11066263 0.09193348 0.17121187 -0.58151406 0.07068428 -0.5718866 0.138955
49 -0.4920436 0.4046539 0.20356423 0.028968284 0.29408035 -0.12357302 -0.40117612 -0.31763488 0.27967882 0.0150759 -0.20760049 0.41218957 -0.27804124 0.33223525 0.19442916 -0.303288 0.25089324 -0.08987312 -0.09287959 0.01676586 0.17116183 0.4708051 0.23613498 0.27170703 0.037970766 -0.24487966 -0.20696841 -0.22708216 -0.51238275 0.10848801 0.05135653 0.07494025 0.00843992 0.22987176 0.030703614 -0.28264844 0.5028469 -0.3086538 0.18368483 0.06303209 0.665615 0.46122175 0.3702271 -0.02207301 -0.12792052 -0.09584271 -0.4929945 0.09031302 -0.024525892 0.13995677 -0.219106 0.07763738 0.38424563 -0.012103126 -0.07884802 -0.21081619 0.14603184 -0.27489725 -0.41266727 0.11774236 -0.64321697 0.09541961 0.10145673 -0.17993814 -0.45063385 0.34466505 -0.32517165 -0.036873028 -0.17172806 -0.19883214 0.00043720828 0.023822235 0.23316306 -0.7496427 -0.25882554 -0.25553805 -0.04459155 0.056358445 0.1157135 -0.128967 -0.35476983 -0.28807178 -0.19527884 -0.016169153 0.06575962 0.53017664 0.34234804 0.2566436 -0.36341396 0.07941982 -0.4658544 0.040360786 -0.12945391 -0.14947626 -0.12315292 -0.22997205 -0.40493694 -0.48385257 -0.006270688 -0.14561796 -0.27233973 -0.032131106 0.065368295 -0.3761674 -0.10696312 0.20063268 0.9716966 0.4236007 -0.042790074 0.15865187 0.21933475 0.0916698 0.2595235 -0.38999045 0.17018625 -0.5137192 0.035705157 0.11353331 -0.032067973 -0.35811904 0.61230993 0.10520207 0.03964488 0.2698868 -0.07386141 0.03411291 0.3562972 -0.22519341
43 -0.36925337 -0.3896161 -0.21759742 0.13805437 0.17101264 0.16016762 0.025986053 0.6127507 0.3390336 -0.061347406 0.22655188 0.028117891 0.105856515 -0.4148017 -0.02987774 -0.08088567 0.22427848 0.2225389 0.07414388 0.22114444 0.33846542 0.20019273 -0.12019685 -0.038551547 -0.30854052 0.15030895 0.054068163 -0.22853242 -0.13910061 -0.26661673 0.23861316 -0.30850822 -0.48820114 -0.40526223 -0.23643717 -0.5631067 0.3453599 -0.22078994 0.50921327 -0.008692589 0.26222575 0.5707611 0.12862928 -0.071137756 -0.95020115 0.22228508 -0.22198792 -0.2512802 -0.216092 0.4530322 -0.095149405 0.09009573 0.34803 0.4524059 -0.031278428 -0.31540915 -0.12143192 -0.41005808 -0.10764691 0.14306541 -0.043513734 0.00039890228 -0.2823492 -0.20753813 -0.0020164396 0.11545867 -0.3177389 -0.04136848 0.22352132 0.018075084 0.06372523 0.111968495 0.20586425 0.0016944506 -0.1572936 0.069650374 0.2750945 -0.037617773 0.3353414 -0.015098719 0.35019705 -0.008994367 0.07822392 0.09327035 0.021410884 0.2431423 0.37670767 0.07891473 -0.06021841 0.20089775 0.20823354 -0.16516268 -0.2668652 -0.12882122 -0.120044656 0.0689337 0.18246797 -0.92694753 0.4385363 0.61261266 -0.057109155 -0.3010585 0.3178678 -0.2860617 0.0032334647 -0.28934112 0.3921327 0.2896131 0.46182758 -0.6110928 0.282409 0.14263219 0.1525067 -0.20953327 0.09916908 -0.23615587 -0.49873468 -0.07453569 0.099084936 -9.973964e-05 0.2381296 -0.24532957 0.5775603 0.2685379 -0.43390596 0.2805245 -0.098468766 -0.43069333
91 0.36109692 0.2389859 0.0730827 0.28894478 -0.06581006 -0.049313094 -0.2681431 -0.48278174 -0.03526568 -0.0072773434 -0.3418982 0.19517724 0.07561851 -0.2173272 -0.06518079 -0.30803975 -0.36786202 -0.01495289 -0.016619794 -0.50319296 -0.0038661251 0.37922376 0.14679162 0.5356121 -0.29668725 -0.37454027 -0.18058982 0.09656003 -0.40473327 -0.19588766 0.3286573 -0.010729637 0.3526505 -0.53794736 -0.041901637 -0.12538831 0.17797734 -0.10422717 0.51528704 0.067265615 -0.22032118 0.17809492 0.20685467 0.079817526 0.23313023 0.6681808 -0.38150454 0.12852141 -0.19025183 -0.09510325 -0.02821511 0.09866763 0.41238323 0.4924116 0.4859679 0.100621246 0.039171997 -0.20713788 -0.07157139 -0.06540061 -0.17311358 -0.120719895 -0.16448863 0.3539532 -0.18704799 -0.05655963 -0.07972594 0.42167684 0.097875684 0.34244132 0.15348513 -0.03645695 0.34879583 -0.3592538 0.33370033 0.107410654 0.084583156 0.122115254 -0.20787378 0.3848783 0.2266391 -0.15593559 0.091194645 -0.101179935 -0.047350984 0.32045332 0.3726934 0.1315346 -0.039483253 -0.07347723 0.05089434 0.1171623 -0.13760485 -0.032873083 -0.7312512 0.05848311 0.7508395 -0.49995077 -0.16097866 -0.1337251 -0.12618151 -0.42767245 0.18390463 -0.18416075 -0.2192918 -0.13156664 0.497687 0.44452676 0.59743977 -0.09800489 0.25386605 0.07301714 -0.03782654 -0.28492898 -0.14671876 0.034757737 -0.2952532 0.25655833 -0.29009488 -0.60856223 0.015552666 0.23826212 0.25463453 0.15100835 -0.21121165 0.049011897 0.25342816 0.03047529
202 -0.06552287 0.6379841 -0.30976266 0.3137074 0.4613529 0.11250179 0.48745778 -0.23878257 0.41893393 -0.023854049 -0.27206933 0.39756298 0.48028296 0.008761852 0.017721277 -0.60801274 -0.08421302 0.5748841 -0.065938264 -0.055258416 0.34218875 0.32259345 0.36671552 0.277789 0.26795805 -0.08252393 -0.25101674 -0.037299734 -0.15777735 -0.16750583 -0.11495003 0.1538198 -0.18879625 -0.13992785 0.7941468 -0.014571392 -0.5777598 -0.16950312 0.2453609 -0.055927906 -0.12841651 -0.07848365 0.0072165667 -0.20363013 -0.030133305 0.19627543 0.11950286 -0.25373024 0.05403712 0.14211543 -0.099200904 0.2205748 0.21336472 0.2505007 0.035292402 -0.3583276 0.09603663 -0.22532399 -0.20702732 0.49428445 0.09202383 -0.24161385 -0.052822057 0.018112924 0.14754622 0.20623459 0.40288737 -0.40100375 -0.44460782 0.32912913 0.1303416 -0.18823645 0.08405499 -0.4923215 0.43397626 0.10728637 -0.15533563 -0.2791841 -0.2269239 -0.10678164 0.20484895 0.33352152 -0.46424717 -0.19978574 0.377469 0.15926884 0.60055435 -0.08067505 -0.7317378 0.40862885 -0.38533238 0.3073399 0.1462489 0.01336314 -0.4330498 -0.008878643 -0.23397948 -0.2487749 0.3615349 0.7425787 0.60451615 0.13717283 -0.17217183 -0.20602357 -0.112573266 -0.05895709 0.37833127 0.5725595 0.3491529 -0.060552955 0.15469408 0.15048689 -0.036351994 -0.33204123 0.46341214 -0.47951135 -0.14524695 -0.16654979 0.02627947 0.09905534 -0.16486482 0.35992473 0.21710151 0.16480134 -0.009981189 0.14533524 -0.47718346 0.21401106
4 -0.31612068 -0.49388936 -0.028526423 -0.09872849 0.22154556 -0.25041726 -0.10277993 -0.21177638 0.17407021 -0.011989287 -0.2316438 0.15733948 -0.29210126 -0.22646292 0.20506458 -0.2439014 -0.43441576 -0.24332394 0.4149276 0.17183435 -0.11475264 0.17105006 0.3197966 0.29587898 0.22567219 -0.55246514 0.014606024 0.15078166 0.1748834 0.052722424 0.15061174 -0.38858908 0.4297646 -0.15323031 0.0020199732 -0.17013988 0.035419896 0.09622726 0.29948142 -0.135283 -0.11661925 0.343133 0.03994891 0.22739068 0.2242375 -0.16308703 -0.034028053 0.042279046 0.0067831646 -0.3530212 0.14469558 0.25534683 -0.11118534 -0.104100436 0.13363914 -0.062463574 0.31893155 0.39325878 -0.18835217 0.31108016 -0.087881126 0.03395263 0.41348988 0.10706166 -0.0070287427 0.30593607 -0.14431429 0.376555 0.012412344 -0.2878143 0.040048774 -0.25242087 -0.040242262 -0.06997252 0.19412658 0.38440585 -0.10241884 0.34572744 -0.14649144 -0.2073914 0.14917408 0.17610404 -0.4088865 -0.678375 -0.2982772 -0.38242114 0.8579174 -0.09435204 -0.22555794 -0.1375886 -0.035188597 -0.02210645 -0.0029813875 -0.17894605 -0.2417863 0.06929829 -0.11992574 -0.47988075 0.3025279 0.27505195 0.2994845 -0.21660927 -0.09989938 -0.055941373 -0.49257365 0.09901467 0.42546067 0.40605205 -0.45659894 0.064666174 0.30362123 0.3130905 0.19553168 -0.4626125 0.27339894 0.83155805 0.1641742 0.1614114 0.25551814 -0.14586858 -0.2081736 0.5541895 0.4976135 0.3048248 -0.24945599 0.23882364 -0.4475757 0.037221473
13 0.271149 0.24040432 0.05555455 0.4035855 0.055973526 0.0064973407 -0.33842447 -0.52083206 -0.058032915 0.03828845 -0.43676665 0.15450813 0.12093186 -0.18722177 -0.08326298 -0.23455723 -0.4072013 -0.07967971 -0.11442625 -0.462789 0.0006678103 0.4524819 0.10905113 0.48342416 -0.22194037 -0.38324428 -0.19787216 0.09030689 -0.28695855 -0.12316181 0.21552548 -0.010736539 0.38484657 -0.6261491 -0.036991835 -0.06605365 0.16539659 -0.036298975 0.43269986 0.09273866 -0.25386485 0.13628024 0.19782922 0.06126691 0.27552575 0.61794466 -0.32552212 0.10781379 -0.11747058 -0.07677749 -0.055884764 0.047230586 0.49968815 0.4980525 0.5434056 0.07058251 0.10061007 -0.16910051 -0.0974379 -0.05464014 -0.1234395 -0.18624829 -0.19637041 0.33047768 -0.1723011 -0.10104183 -0.05922335 0.43027303 0.06800132 0.34630254 0.15459442 0.09463657 0.18164353 -0.3441843 0.32311797 0.1359017 0.09634456 0.14633302 -0.21797039 0.29301012 0.19933043 -0.14598289 -0.00035356046 -0.16058084 -0.10942481 0.32978693 0.36130062 0.2126866 -0.03535358 -0.11363668 0.15261286 0.074588165 -0.050082415 -0.22255354 -0.5830095 -0.030835986 0.80233115 -0.7336586 -0.13000713 -0.16847287 -0.031824514 -0.44382498 0.23395385 -0.29373062 -0.23395137 -0.11832919 0.44072154 0.5123825 0.557782 -0.14231506 0.23630863 -0.008894467 -0.0784587 -0.22296551 -0.1592007 0.008172079 -0.2995994 0.2368564 -0.31195623 -0.5553761 -0.16635981 0.20303918 0.31245464 0.03661 -0.27385923 0.07986805 0.17464124 0.03535402
70 -0.20367585 -0.19739974 -0.53152895 0.41244602 0.05099213 -0.59809506 -0.25931486 0.164021 0.00851964 -0.39805752 -0.0857238 0.06322348 0.08820276 0.01504804 0.09304056 -0.40017778 -0.07540027 0.44678357 0.30352238 -0.123557255 -0.19006607 0.26956096 0.7165746 0.16423814 -0.2505388 0.3581323 0.12918717 -0.34543172 -0.18166904 0.17179938 0.032866947 0.6201361 0.01713942 -0.3067126 0.2571925 -0.20938928 0.08209951 -0.44470432 0.050909292 0.23118095 -0.13843882 -0.16641869 0.5990243 0.25218022 0.122748256 0.021119913 0.37617373 -0.13322763 -0.014852001 -0.024416087 0.06969384 -0.018411078 0.38909426 0.16997041 -0.22938773 -0.4157489 -0.09395133 -0.25887963 -0.5078476 -0.21740456 -0.012289135 -0.035091765 -0.27685636 -0.03200981 -0.020313745 -0.035345647 -0.16533709 -0.34573677 -0.08200512 -0.33945966 0.13817911 0.06993517 0.41189152 -0.52737933 -0.15657614 -0.21889307 -0.12541808 0.07941669 0.1635038 -0.17686148 0.08166133 0.0068906406 0.047994364 -0.39824048 -0.35640368 0.44909322 0.29310507 -0.27229252 0.38292557 -0.030332431 0.31368613 -0.020182906 -0.1453789 0.13394049 -0.20685253 -0.011920784 -0.1817592 -0.52563757 -0.28479093 0.3602831 -0.37249324 -0.0046908134 0.27721456 -0.3138231 0.07832867 -0.22089137 0.13985842 0.16114771 -0.14203297 -0.0025448322 -0.2175729 0.42730796 0.31499147 -0.062234774 0.17224763 -0.083468735 -0.22273006 0.1997804 -0.21944815 0.2964309 0.28825995 0.1537025 -0.0393859 0.13680083 -0.39847007 0.066404246 -0.66900784 0.18096189
50 -0.175696 -0.27525288 -0.65958214 0.32703865 0.0837504 -0.6074626 -0.094241075 0.08096056 -0.011937581 -0.3524185 -0.096528046 0.12948298 0.075703934 0.11323047 0.11909513 -0.51102835 -0.05024995 0.39002582 0.1538272 -0.10830736 -0.18175147 0.34188065 0.5112033 0.13684416 -0.12354636 0.3592496 0.2261608 -0.44857457 -0.16986005 0.1503092 0.0025751523 0.4756557 0.090440564 -0.27523297 0.37600216 -0.3437125 0.07933935 -0.49434766 0.17353559 0.18070501 -0.111082345 -0.12726532 0.6665509 0.25423324 0.1269151 0.01428664 0.37610322 -0.08325077 -0.08157383 0.024030076 0.051613193 -0.1056191 0.38185468 0.1117386 -0.15452923 -0.35808676 -0.14585596 -0.26295483 -0.4688888 -0.17674425 -0.022796465 -0.05416668 -0.2689124 -0.022865238 -0.093662515 -0.07733696 -0.22428939 -0.364212 -0.07251597 -0.30841252 0.08657922 0.02340644 0.42837772 -0.54521984 -0.07907351 -0.31118017 -0.0111545 0.13791749 0.14503987 -0.018839201 0.074909575 -0.1289509 0.07437836 -0.37813514 -0.39445254 0.41187423 0.27454963 -0.24828942 0.39629012 0.06319093 0.393184 0.04445337 -0.264191 0.02086373 -0.23675865 0.017597668 -0.168081 -0.55111396 -0.36113828 0.3132729 -0.28355202 0.0028344076 0.35641047 -0.22944477 0.08240555 -0.2015619 0.1272678 0.12155711 -0.19985756 -0.052343808 -0.20297405 0.358662 0.25112978 0.014567892 0.18168259 -0.031516843 -0.36106408 0.31583554 -0.22983737 0.28905952 0.14339562 0.26435262 -0.034488928 0.07371432 -0.49959865 0.10838036 -0.72494406 0.23937747
8 -0.25089774 -0.29737967 -0.5404773 0.39229572 0.037096698 -0.55159354 -0.27040115 0.07576426 0.051582765 -0.27875823 -0.0014212072 0.16307673 -0.020157648 0.012729381 0.036756616 -0.5469206 -0.1518779 0.4937614 0.23197432 -0.10371444 -0.21563667 0.25948936 0.64866614 0.12894449 -0.12944196 0.45600268 0.14477009 -0.43991926 -0.15001169 0.15802938 -0.16414315 0.4989429 0.13251616 -0.24079964 0.39768225 -0.31301427 0.11931367 -0.3662927 0.026371434 0.25155687 -0.12471967 -0.14929134 0.5750241 0.32468146 0.22072522 0.09333435 0.41477624 -0.07410296 0.014729734 -0.03035478 0.008242087 -0.019545956 0.27654028 0.1048105 -0.18004912 -0.36054942 -0.19018403 -0.37344941 -0.45824498 -0.108802944 -0.016134836 -0.074757956 -0.16907845 0.037336495 -0.04837896 -0.012475435 -0.16807672 -0.47042212 -0.19541368 -0.27262723 0.04219441 0.027143937 0.41260666 -0.5413265 -0.030280076 -0.23225969 -0.13040441 0.10046957 0.093103625 -0.17007129 -0.04134917 -0.22389406 0.04747911 -0.4255419 -0.3836399 0.4631279 0.30011746 -0.30368927 0.34374583 -0.03089945 0.3943388 -0.004408134 -0.23940954 -0.014519839 -0.28243282 0.06909107 -0.08984538 -0.4951417 -0.31211206 0.29525033 -0.3528479 -0.041847274 0.22827943 -0.28197244 0.1065196 -0.29199085 0.17400032 0.07406478 -0.09304706 -0.06740276 -0.23250265 0.26468593 0.2341527 0.033578336 0.19699867 0.03586128 -0.34944582 0.2664348 -0.2497471 0.24276447 0.20886627 0.05092748 -0.031304657 0.12647286 -0.60617864 0.007889312 -0.5175597 0.121819444
105 -0.32113522 -0.38979697 -0.19105656 0.091131344 0.23567809 0.16360395 0.08408007 0.60819536 0.30813494 0.09499652 0.12989214 0.042342488 0.064925976 -0.44625178 -0.00087143003 -0.019764835 0.22667848 0.093952164 -0.011707927 0.2662345 0.26211268 0.21742427 -0.051701933 0.10358212 -0.32697588 0.124264546 0.080184385 -0.1911728 -0.08802478 -0.3051253 0.20557313 -0.25899014 -0.3551339 -0.39723814 -0.15052153 -0.41494626 0.29115838 -0.1819641 0.4742423 0.05684782 0.25574782 0.6107608 0.18271516 -0.08943759 -0.8992691 0.13881257 -0.2086953 -0.28122765 -0.187766 0.4738115 -0.100372724 0.10298568 0.3203213 0.4005234 -0.07064615 -0.3376213 -0.1774572 -0.47035137 -0.12764601 0.043111328 -0.0060034925 -0.17476866 -0.23160668 -0.16124469 0.047209937 0.023590436 -0.30685318 -0.0034497776 0.23595956 0.016743721 -0.010105691 0.18986051 0.21788691 -0.042712897 -0.17796367 -0.004418456 0.25671265 0.050347388 0.33798936 -0.13029279 0.32223028 -0.015386351 0.090276755 0.021498013 -0.03828619 0.24870388 0.33686024 0.026381807 -0.070733175 0.117427096 0.20586886 -0.15469114 -0.2008262 -0.03109609 -0.16036753 0.08205535 0.2526608 -0.9173175 0.4112449 0.66682905 -0.14225328 -0.37054464 0.22219644 -0.35657454 0.10488589 -0.19681254 0.34582895 0.26724455 0.47203517 -0.6277803 0.20818211 0.12169488 0.15491915 -0.21283309 0.029436173 -0.20131367 -0.5061388 -0.053059313 0.08439061 0.10813263 0.21306038 -0.3889966 0.432111 0.41588417 -0.38587785 0.1667815 -0.0050653354 -0.48913783
121 -0.09352584 0.60118824 -0.3391711 0.5593484 0.40710977 0.040266976 0.53180504 -0.098757476 0.49487612 0.006774451 -0.24664734 0.36982068 0.48782387 0.08966576 -0.048271734 -0.6244361 -0.015630227 0.53758496 -0.12665693 -0.07066854 0.3998985 0.20072374 0.43115824 0.34953165 0.267388 -0.09327999 -0.047305815 0.05247143 -0.27480996 -0.26827365 -0.10324843 0.21714638 -0.15913293 -0.11481939 0.8568715 -0.01622662 -0.6596739 -0.06876283 0.08607864 -0.07945322 -0.027564961 -0.11577141 -0.020629197 -0.26660725 -0.03567415 0.30934873 0.12930158 -0.22678797 0.026928902 0.17112456 -0.1404486 0.21448389 0.14121655 0.26298052 -0.10024577 -0.3514472 0.06989562 -0.28345874 -0.1752254 0.38716418 0.020617647 -0.1562508 -0.0327871 0.018899659 0.24101211 -0.011892151 0.35333318 -0.4644022 -0.42591742 0.30957267 0.07991499 -0.11492135 0.055641323 -0.56488127 0.38289052 0.009065455 -0.18935335 -0.24289253 -0.122105755 -0.06578389 0.14369257 0.20378038 -0.48594517 -0.19882223 0.40369913 0.30099723 0.56302714 -0.06566769 -0.7903118 0.43626142 -0.42182538 0.34991053 0.24247013 -0.013196712 -0.44502124 -0.015380594 -0.13105612 -0.24443462 0.26999003 0.7508485 0.56513983 0.08599475 -0.10485445 -0.16091625 -0.13988388 -0.05738959 0.3658655 0.5771153 0.2877226 -0.035724677 0.20053898 0.07925782 -0.04885989 -0.315516 0.39567715 -0.34341943 -0.0038181958 0.012893986 0.049439155 0.18303178 -0.1389676 0.15004703 0.23071128 0.2289709 -0.046406355 0.1901337 -0.35756335 0.06405739
69 -0.19426589 0.038841963 0.12169965 0.69394994 0.29491594 0.017579533 -0.3301677 -0.07186277 0.4241783 -0.18551067 0.26918507 0.5179603 0.16943938 0.13309023 0.6706638 -0.41787994 -0.0950769 -0.12382397 -0.21430181 -0.26964402 -0.3284503 0.43087953 0.21023007 0.25982392 -0.23206459 -0.40085796 0.2686884 -0.26388174 0.1384088 -0.28597292 -0.06612302 -0.17251305 -0.09124656 -0.24291734 -0.01519713 -0.28850958 -0.070460424 0.05096699 -0.12457836 -0.02157861 0.65226734 0.09882598 0.15380338 -0.11320283 0.24961567 0.49907097 0.20740826 -0.19476019 -0.24056163 -0.23520547 0.14658937 0.33943692 -0.07375577 0.15348928 -0.10473044 -0.07689625 0.1552179 -0.31120816 0.34967542 0.18591893 0.13548197 0.34721944 0.0385343 -0.21931691 0.17307617 -0.13176994 -0.43466315 -0.43726552 -0.027347587 -0.059677128 -0.1914161 0.07255824 0.5457105 0.04447203 0.0054958905 -0.015421331 -0.037709903 0.0411203 0.24667953 -0.27913374 0.40273455 -0.12096161 -0.012310531 -0.5945355 -0.18309228 0.09661547 0.5385697 -0.39570546 -0.40607545 -0.02295927 0.06851808 -0.1279453 -0.3282488 0.3362651 0.050105095 0.10281914 0.01955444 -0.43718687 -0.5122825 0.15878072 -0.28148407 -0.65488917 -0.5647486 -0.24493513 0.03691727 0.1339119 -0.54524255 0.023205072 0.27940816 -0.39620814 -0.052016914 0.26542303 0.17557582 -0.33806244 0.012092861 -0.16800076 0.25289845 -0.033861794 -0.44634652 -0.50256044 -0.12244476 0.33294478 -0.024815852 -0.03241671 0.24339321 0.32203144 -0.44860753 -0.16915113
89 -0.5159897 0.46086767 0.3022219 -0.108931504 0.3063081 -0.10039231 -0.23273958 -0.23881385 0.18166375 -0.05071485 -0.3492688 0.4734164 -0.24080305 0.30751005 0.053270016 -0.30109257 0.15544932 -0.12047254 0.048242465 0.07738526 0.09785208 0.57302785 0.2868646 0.32733276 -0.021810414 -0.26238817 -0.22722262 -0.18888734 -0.3667628 0.096298166 0.0620048 0.06665702 -0.012013798 0.18664703 0.0021075553 -0.29351392 0.55684626 -0.29122347 0.16426992 0.028300017 0.77824384 0.4571371 0.42635748 0.025772806 -0.046198316 -0.042324126 -0.49950415 0.05805496 0.027600255 0.1559461 -0.14673796 -0.018891342 0.36212534 -0.090650156 -0.0198205 -0.1740741 0.0924483 -0.32996762 -0.45813 0.15560183 -0.5418375 -0.08661033 0.06918277 -0.2185443 -0.5042382 0.29225254 -0.3370521 0.079023875 -0.15465894 -0.24011818 0.040527925 0.008500003 0.31463087 -0.7248725 -0.23987293 -0.19755691 -0.029720893 0.06932945 -0.023135537 -0.17576887 -0.32325742 -0.35786033 -0.12302533 -0.028767528 0.005380296 0.54497707 0.27647045 0.20281973 -0.42222807 -0.0119301705 -0.51851594 -0.0050377487 -0.17508906 -0.1221716 -0.1862235 -0.25756276 -0.50781953 -0.65605927 -0.0859625 -0.1092206 -0.34721756 -0.02639119 0.064812474 -0.47111708 -0.1548211 0.12370809 0.7940704 0.33840147 -0.07112069 0.17382601 0.14097044 0.006314705 0.23916683 -0.38112164 0.20414099 -0.41623983 -0.023833474 0.06425656 -0.04896562 -0.22371629 0.46920836 -0.032863956 -0.0029823808 0.43488145 -0.04082318 -0.02901264 0.3569998 -0.24981178
161 -0.28737316 -0.061857443 0.17374408 0.58973575 0.21379443 -0.016191136 -0.4500713 -0.09228438 0.44922715 -0.17682439 0.29285684 0.43614113 0.13024895 0.06757952 0.71263164 -0.4081969 -0.11129982 -0.024331486 -0.22579679 -0.14656165 -0.2707574 0.45022216 0.23738661 0.2644091 -0.15166505 -0.52923113 0.2602729 -0.2545298 -0.026703522 -0.26059592 -0.065667704 -0.24516444 -0.14127938 -0.23422301 -0.034201708 -0.26178274 0.04180727 -0.01722374 -0.31480622 -0.011578407 0.7039964 -0.003992806 0.18479122 -0.0999656 0.2848725 0.5538797 0.22236718 -0.11175661 -0.18684599 -0.26943463 0.0888929 0.35164312 -0.037761707 0.11519469 -0.11546685 -0.101250604 0.1617136 -0.3009376 0.2872481 0.19163425 0.10695558 0.24688597 0.08636495 -0.111457296 0.1775113 -0.15773 -0.2343734 -0.45963845 -0.039668664 0.047402643 -0.14541331 0.051589567 0.5296855 0.0018596279 0.03219092 -0.0928752 -0.043806627 -0.0290816 0.22707525 -0.11260857 0.30822682 -0.07254574 0.039726045 -0.47224322 -0.16623318 0.12382036 0.3865816 -0.48528424 -0.33270437 0.075684346 0.1177687 -0.118824326 -0.30804256 0.37320095 0.07736824 0.0034023456 -0.009061383 -0.31015366 -0.48687923 0.15847857 -0.2182548 -0.6412996 -0.5219688 -0.23890844 0.035247825 0.10545321 -0.43336746 -0.04685352 0.2492555 -0.43421006 -0.039793935 0.34931555 0.035591997 -0.34143373 0.09466012 -0.17915456 0.16684428 -0.08017519 -0.45663324 -0.5007309 -0.16123857 0.37932786 0.08638283 -0.07722418 0.11423784 0.39074865 -0.65657836 -0.17135693
54 0.23333405 0.22272016 0.07794246 0.28303978 0.044935565 -0.018992323 -0.5273976 -0.48191202 -0.002970955 0.07025028 -0.3131181 0.119806536 0.15836821 -0.21107157 -0.09144627 -0.2079698 -0.36440286 -0.08130644 -0.18030718 -0.42809886 0.07979255 0.3690043 0.1922874 0.5573986 -0.2504232 -0.3508482 -0.18241693 0.035482567 -0.30662107 -0.17861107 0.20383468 -0.008845661 0.4004317 -0.5303811 -0.028262582 -0.017781029 0.13856435 0.045584455 0.4290932 0.1655317 -0.20236841 0.16638823 0.17613621 0.055310603 0.26692247 0.59781665 -0.40006983 0.17788413 -0.20362455 -0.07107609 -0.07843429 0.066634215 0.49723053 0.4182079 0.56636053 0.037404515 0.06833057 -0.1863026 -0.034806773 -0.11136603 -0.17009999 -0.19275022 -0.119942665 0.4480778 -0.1685148 -0.026418203 -0.015943862 0.40647203 0.07267727 0.3977689 0.13596717 0.0044162595 0.24963337 -0.41643104 0.3509979 0.07016389 0.16065945 0.09832774 -0.31539923 0.38231307 0.143095 -0.2196917 0.06962468 -0.07046537 -0.027450576 0.36157656 0.38683417 0.18220714 -0.054209158 -0.0051201573 0.1635175 0.14464083 -0.016926728 -0.1028443 -0.67487377 0.031212715 0.80684155 -0.63120884 -0.15607397 -0.15261318 -0.041442566 -0.46346423 0.2359416 -0.22692011 -0.34101313 -0.09787453 0.498092 0.48778966 0.56421095 -0.1262496 0.2886661 0.04120962 -0.13372196 -0.20507775 -0.09931071 0.023499725 -0.30989727 0.22666335 -0.32628444 -0.60726106 -0.045821395 0.29451528 0.21393196 0.08629476 -0.3862551 0.0673215 0.017805897 0.091680355
120 -0.3496724 -0.3993717 -0.22146949 0.08064577 0.23018853 0.17480516 -0.055348963 0.67028207 0.27639624 0.0007437107 0.16286604 0.0009950737 0.19985323 -0.44781196 -0.016892243 0.0123191755 0.34967723 0.1015309 -0.030045409 0.31375748 0.22210447 0.16008775 -0.0907406 0.097499296 -0.4051001 0.15796378 0.1422642 -0.24403432 -0.111571915 -0.18437852 0.25428975 -0.25814316 -0.32727805 -0.4496267 -0.11996409 -0.5061578 0.34316513 -0.07144899 0.43346274 0.06493506 0.2878683 0.55542076 0.018217254 -0.05864444 -0.75987107 0.1348433 -0.18137397 -0.2253481 -0.20826459 0.5745181 -0.18119654 0.025989508 0.267572 0.43844667 -0.03510473 -0.343363 -0.19666211 -0.42346162 -0.01494685 -0.028876752 0.0255371 -0.1482544 -0.17307645 -0.22579776 0.048942525 0.06591182 -0.39450905 -0.17421179 0.19709629 -0.003747863 -0.03906404 0.1649555 0.10444786 -0.063592434 -0.12570907 0.10094188 0.27406073 0.061218854 0.36663145 -0.1446871 0.24034093 0.055218942 0.056541998 0.036764957 -0.045619506 0.21054067 0.4090798 0.028665233 -0.09181283 0.16820194 0.19695316 -0.14044467 -0.08156267 -0.0067766635 -0.09021742 0.040895395 0.24632321 -0.90563184 0.4334565 0.59576184 -0.072904184 -0.33480015 0.23313822 -0.3711564 -0.0055209263 -0.32899773 0.39522636 0.30770507 0.56390834 -0.63621104 0.22209483 0.079958186 0.16292539 -0.14567256 0.055253576 -0.24010053 -0.46848616 -0.013588264 0.08968661 0.0057148654 0.24363002 -0.35056147 0.43261072 0.30740204 -0.4080625 0.14628455 -0.041437477 -0.5515399
30 -0.21262975 -0.42248163 0.35546437 -0.08478218 0.369368 -0.010349875 0.22083783 -0.005691669 -0.1831584 0.06213828 -0.279607 0.23278488 -0.20504445 -0.23279956 0.3807542 -0.48014373 -0.18122593 -0.154953 0.046801757 0.33959582 0.018659983 0.053456686 0.44747746 0.13398886 0.22670679 -0.045096308 0.38380712 0.22308135 0.32802108 0.016044257 -0.15680291 -0.24915203 0.2605494 -0.20864314 -0.18772918 0.07734079 -0.07700977 0.30607507 0.16901213 -0.13481145 -0.14528348 0.16444328 -0.07403921 0.19424745 0.09544449 -0.06380837 0.2822373 -0.30277082 0.031761322 -0.1747595 -0.15330626 0.061156258 -0.049270928 -0.16807818 -0.20620969 -0.12708299 0.14974433 0.37800813 0.009614499 0.15055473 -0.19715378 0.0076673334 0.16012254 0.194527 0.17485105 0.42166215 -0.1103156 0.2509542 0.3286693 0.07201519 -0.067284554 -0.0976386 -0.1012842 -0.49331427 0.19969699 0.3525102 -0.095904596 0.36455116 -0.30696037 -0.16744193 0.04614184 -0.10367966 -0.3834929 -0.6783849 -0.11889379 0.096374266 0.75495714 -0.08459253 -0.25226995 -0.08705817 0.058855377 0.116067976 0.22820029 0.10922263 -0.3081238 -0.058272824 -0.18085869 -0.58382154 0.13279516 0.34829822 -0.09361552 -0.10950823 -0.25122374 -0.35107046 -0.12718977 0.20429808 0.29967272 0.5845899 -0.45296237 0.2290516 0.39563957 0.11485174 0.052636847 -0.65504825 0.14099024 0.7676638 -0.09725293 0.4383541 0.12116109 -0.19676016 -0.3970626 0.29728216 0.76115197 -0.00998794 -0.15064877 0.23151931 -0.15306048 -0.31493473
71 -0.22605008 -0.061609846 0.13501091 0.6464231 0.20772237 -0.0012792835 -0.36754477 -0.08784902 0.40429863 -0.20385328 0.26319778 0.5052433 0.11312089 0.15151037 0.80430496 -0.5411254 -0.046880137 -0.1368117 -0.33976638 -0.18359096 -0.30244362 0.44478577 0.25923872 0.24650054 -0.20766498 -0.41319877 0.28348798 -0.2748434 -0.011490695 -0.24517818 -0.13862212 -0.20635206 -0.22068636 -0.31078184 -0.05544359 -0.21686278 -0.07607193 -0.03769209 -0.16308579 -0.07668718 0.6011961 0.045886934 0.19692406 -0.0943926 0.2636808 0.53388715 0.21203555 -0.19608061 -0.254365 -0.1642942 0.081730045 0.25102374 0.083020866 0.14405045 -0.21860631 -0.15376338 0.2089298 -0.25626096 0.35459527 0.2610539 0.15529503 0.3637751 0.054990616 -0.16771354 0.17673996 -0.10467563 -0.4005926 -0.43928602 0.077202395 0.060056295 -0.16061777 -0.030499369 0.5043834 0.07059141 0.067814745 0.023460113 -0.012892066 0.0074833054 0.19271918 -0.0772688 0.37918624 -0.11323029 0.005261007 -0.49686676 -0.1620506 0.05688525 0.4466226 -0.4282682 -0.3634975 0.06183622 0.13556144 -0.12515011 -0.35631105 0.37919864 0.09680275 0.032974366 -0.044211574 -0.29137826 -0.5204514 0.1511323 -0.32994834 -0.6403359 -0.53732336 -0.27057946 0.04481536 0.06390975 -0.48344254 -0.013274022 0.2911988 -0.41748703 -0.03270248 0.32021853 0.09791174 -0.3324658 0.0740842 -0.12202436 0.14109148 -0.026773475 -0.4054403 -0.53779995 -0.14954814 0.3562031 0.14964293 -0.048237573 0.25820568 0.3739675 -0.5027641 -0.2862741
209 -0.5476969 0.4603623 0.34180066 0.017932944 0.337014 -0.14785542 -0.46961 -0.27036962 0.21937278 0.011466647 -0.32345286 0.43910706 -0.20454021 0.32346636 0.19163251 -0.30556232 0.38818297 -0.12347984 -0.06111013 0.13555853 0.15520449 0.48622102 0.39231887 0.32024923 0.07975466 -0.37636298 -0.25242585 -0.10356976 -0.5228009 0.09029289 0.044424664 0.12209736 0.0595443 0.16371106 0.10468669 -0.27107593 0.46760502 -0.18926312 0.13785847 0.054499954 0.6113387 0.41079348 0.3276628 -0.019067213 -0.1612514 -0.1541262 -0.47075367 0.09427535 0.004343756 0.28044188 -0.2016857 0.03239241 0.47840038 -0.10601234 -0.103956304 -0.2955018 -0.008625545 -0.28762552 -0.38894358 0.10432241 -0.55398685 -0.10189647 0.07150261 -0.14770907 -0.51251763 0.30984753 -0.29405776 -0.033576064 -0.048912793 -0.27507415 -0.011582888 -0.02721103 0.18095948 -0.7939989 -0.20770466 -0.15070559 -0.026590373 0.015802108 0.13158119 -0.07228362 -0.3919442 -0.35164532 -0.18686515 0.028823985 0.094404384 0.55714166 0.37662277 0.16428196 -0.34551644 0.038811572 -0.4748551 -0.01454914 -0.022732802 -0.106907375 -0.08218332 -0.20033856 -0.3386175 -0.5788444 0.013176957 -0.18344821 -0.31361657 -0.056403186 0.0692378 -0.434701 -0.12858456 0.11672217 0.87808627 0.4032079 -0.012521704 0.14257461 0.077630006 0.015129743 0.26105908 -0.29385406 0.062146924 -0.40073004 0.055362646 0.17432737 -0.0059876256 -0.22539292 0.56797343 0.17702428 0.037306234 0.2682164 -0.21838789 -0.023815602 0.3425178 -0.2951357
115 0.41333747 0.3177955 0.021436311 0.321613 -0.030814346 -0.0787611 -0.3524653 -0.4461169 -0.12647024 -0.015529293 -0.42643788 0.15981284 0.057243563 -0.1783364 -0.052316554 -0.29725686 -0.25081107 -0.050528213 -0.14155355 -0.40998375 -0.060428437 0.38036612 0.089730814 0.52430993 -0.2944232 -0.2915651 -0.07450427 0.15041694 -0.34652886 -0.10705736 0.22515266 0.108149976 0.34096232 -0.550512 -0.011367593 -0.18719667 0.11978726 -0.10517659 0.45141804 -0.012390518 -0.29477185 0.21541005 0.26504824 0.13542874 0.22061841 0.6058081 -0.4010615 0.22654594 -0.20819597 0.0033298247 -0.111578785 0.051474534 0.54782885 0.5185473 0.50742704 0.072715476 0.13058902 -0.20205681 -0.07975948 -0.042193264 -0.12871777 -0.16783795 -0.19961959 0.39942506 -0.16196074 -0.120077915 -0.09089673 0.4140885 0.14766768 0.39115164 0.07959679 -0.05596761 0.20061553 -0.42003763 0.48125625 0.08107148 0.14618537 0.131625 -0.16292126 0.35474622 0.24268942 -0.109682724 -0.035960753 -0.14367299 -0.10495671 0.38641882 0.47216085 0.25777218 -0.09710739 -0.1447897 0.112358004 0.14772773 -0.11572907 -0.09435564 -0.7004552 0.08674625 0.72213656 -0.64444226 -0.15399161 -0.185655 -0.13893455 -0.43397895 0.22011514 -0.21664736 -0.21942472 -0.11822461 0.44481358 0.5097053 0.51675814 -0.09751486 0.3461733 0.021567293 -0.035965174 -0.29589766 -0.095950395 0.022596894 -0.2861331 0.3017397 -0.23557071 -0.59278935 -0.15324874 0.18885675 0.21058704 0.018865827 -0.17878926 0.06771467 0.2773902 0.06352702
100 0.2946727 0.38505334 0.07725142 0.46962634 -0.020724736 -0.13509062 -0.30448702 -0.4844221 0.042597745 0.16696513 -0.29395247 0.18686165 0.16860586 -0.19323877 -0.033977084 -0.2604582 -0.34024417 -0.051715784 -0.1551675 -0.43586203 0.0056978017 0.3301414 0.12637532 0.64115566 -0.2396776 -0.3451711 -0.19922002 0.17588562 -0.4041137 -0.18786414 0.26629725 0.06627422 0.430661 -0.48099196 -0.055947285 -0.03581994 0.11170469 0.033987414 0.35779774 0.104811594 -0.24377336 0.1865467 0.30520228 -0.004651587 0.3019529 0.68170285 -0.33407307 0.24977 -0.109098 -0.10345049 -0.072524354 0.044725895 0.43525863 0.47813222 0.4792622 0.14427972 -0.03275478 -0.10236934 -0.060898602 -0.12520589 -0.16393758 -0.09523594 -0.14120063 0.365177 -0.06260311 -0.022290649 -0.075513296 0.38954332 0.1986767 0.33314094 -0.010467706 0.013847969 0.24836488 -0.37732196 0.37529713 0.060475335 0.14084321 0.15695825 -0.09192637 0.34280273 0.22244295 -0.17937747 -0.020112643 -0.13664685 -0.09759858 0.34363508 0.3029579 0.18741477 0.0121483235 -0.03960211 0.07412945 0.10454915 -0.07817308 -0.11564114 -0.6742432 0.04991506 0.7440568 -0.70010614 -0.19823681 -0.12677811 -0.16417131 -0.44878423 0.22941601 -0.23973532 -0.2190056 -0.028024742 0.45141372 0.5231142 0.54327714 -0.13736932 0.41246638 0.08609598 -0.06155533 -0.27487838 -0.056749936 -0.021618918 -0.26087666 0.38283283 -0.17133218 -0.5564185 -0.031143932 0.13503158 0.2616356 0.0651536 -0.24761657 0.18444009 0.22512798 -0.11877047
242 0.075114496 0.15051186 -0.82308924 0.25880933 -0.27289551 -0.27652162 -0.27024955 0.24655947 0.32509136 -0.54142773 -0.27353597 0.93250966 0.11049121 -0.2381912 0.93214244 -0.41533896 0.009041794 -0.13882647 -0.03823653 0.61113226 0.57478505 0.21391235 0.84537244 -0.01691528 -0.042986047 -0.023010727 0.3061443 -0.5230313 0.16612694 -0.7001023 0.7013744 -0.19047555 0.45171964 -0.044044793 0.18990886 -0.32904682 0.06177641 0.004997559 -0.03685253 0.07270549 -0.5016524 0.14521547 -0.30709943 0.05704879 0.58206123 -0.059208278 -0.18712124 0.26998925 0.1981068 0.32285917 -0.26176327 0.18868443 0.38235992 -0.07975818 0.1743641 -0.042911153 -0.17321754 0.27448592 0.08609093 -0.020121286 -0.5630484 -0.38621542 0.21250746 0.10721188 -0.09848409 0.30101895 -0.18976429 0.3676233 -0.3733402 0.26240936 0.14161484 0.015826734 -0.19689232 0.105702594 0.0026985973 -0.41333154 0.17581402 0.07999161 0.46315482 -0.3949843 0.057429504 0.2615701 0.035372928 -0.5148174 0.0544366 0.3963265 -0.0033194264 0.20191038 -0.18397272 0.11536692 0.13024718 0.27695698 0.009581986 0.13200322 -0.24234712 0.144772 0.2555489 -0.45195892 -0.083428375 0.084655926 -0.40087354 0.06176534 -0.09318615 0.18126379 0.2675718 -0.012849606 -0.055395376 0.3067242 0.1300485 -0.47522056 -0.18258199 0.15717785 -0.06978599 -0.074943975 0.13727467 -0.025724083 0.040659636 0.027324714 -0.30585983 -0.3126702 -0.06529133 0.091144845 0.1675406 -0.006398636 -0.14282922 0.08015912 0.20359942 -0.39794466
15 -0.24566413 0.5385235 -0.2628643 0.5672361 0.48624653 -0.010691005 0.38746843 -0.24515523 0.4364205 -0.012894138 -0.21301621 0.29567456 0.4281998 0.10445567 -0.035540882 -0.70160884 -0.109722845 0.44655383 -0.08851482 -0.016569095 0.44456407 0.16692778 0.37037456 0.31608456 0.24437408 -0.036211345 -0.009849819 -0.019283913 -0.30478704 -0.26274168 -0.25914913 0.31390646 -0.10175692 -0.22135928 0.8528209 -0.1274829 -0.6886944 -0.13329943 0.16793665 -0.223914 -0.18906412 -0.14830285 -0.06870655 -0.24415928 0.097122066 0.15832978 0.089269295 -0.24988055 0.00875784 0.2189026 -0.17045064 0.17124343 0.18236172 0.18093912 -0.055495437 -0.27589795 0.005468457 -0.24310082 -0.08032118 0.38663742 0.056375198 -0.16427469 -0.023101138 -0.007561438 0.14687882 0.15377124 0.39988157 -0.5483514 -0.4631946 0.2686774 0.15793255 -0.17531358 0.014750808 -0.47676936 0.40677217 0.0793527 -0.23635945 -0.3218911 -0.15893732 -0.0604537 0.15437664 0.25878257 -0.448311 -0.06841571 0.40831128 0.2258722 0.35190848 0.006255321 -0.8648696 0.4104471 -0.33109716 0.28400904 0.1854859 0.073573545 -0.4708861 -0.10051723 -0.13354793 -0.40123093 0.2882817 0.73472255 0.6359901 0.104259074 -0.123330995 -0.27811804 -0.21480457 -0.20183821 0.49126732 0.64369535 0.3742177 0.03328448 0.19501391 0.07889718 0.013211171 -0.36420074 0.4698268 -0.36775813 -0.16787222 -0.0035220988 0.03234875 0.1578079 -0.111684375 0.17578374 0.1447675 0.18724936 -0.041539386 0.10828254 -0.43372324 0.07824163
122 -0.18012229 0.00076782337 0.10569921 0.69865865 0.21053804 0.038781796 -0.50158274 0.07260468 0.51117104 -0.29009664 0.28714213 0.45914122 0.1239228 0.19677843 0.7282204 -0.45645717 -0.15724766 -0.25624046 -0.24493372 -0.2537148 -0.4176838 0.45682427 0.19015378 0.19095895 -0.1301786 -0.454255 0.232107 -0.20493041 0.004376524 -0.15430638 -0.11372272 -0.23620398 -0.21067323 -0.34136322 -0.032616265 -0.22612807 -0.040128645 0.0354655 -0.31103066 -0.16191758 0.7711969 -0.07336818 0.101257555 -0.08673006 0.18671037 0.5836153 0.12317537 -0.1897537 -0.22184947 -0.21604362 0.121558554 0.26977843 -0.07956099 0.13060485 -0.14534703 -0.07449016 0.19452465 -0.2549248 0.35112032 0.31797016 0.19703706 0.31643835 0.153348 -0.19240534 0.18444519 -0.105043165 -0.34862486 -0.4845141 -0.07060947 0.03872608 -0.18112786 0.030846968 0.49931479 0.054622095 -0.04414781 -0.13099045 -0.1190083 0.063719295 0.21094571 -0.16031101 0.29653406 -0.0627861 0.056780823 -0.40223876 -0.08484986 0.08496664 0.26343995 -0.44986716 -0.28941736 0.10826858 0.123945884 -0.1693505 -0.27717608 0.3501045 0.04112652 0.03847178 -0.08884017 -0.49510565 -0.5375073 0.15787643 -0.23505256 -0.68197167 -0.44362953 -0.29346052 0.003801574 0.12937234 -0.44342828 0.121936604 0.24054408 -0.5011639 -0.09882402 0.31157047 0.0549644 -0.24409887 0.09615986 -0.1430031 0.09718482 0.0027967824 -0.503338 -0.4743095 -0.2687082 0.25944492 0.22448899 0.06245966 0.08040175 0.3364774 -0.4932154 -0.28204656
58 -0.08028442 0.6932235 -0.20039096 0.4503436 0.4607226 0.034066327 0.38248217 -0.13784103 0.42028853 0.0014817653 -0.29915217 0.194403 0.5711051 0.10654129 0.049752098 -0.6292375 0.006297342 0.4899291 -0.117616296 -0.0009586025 0.2422242 0.29819804 0.4387949 0.46692234 0.2783844 -0.06404546 -0.18253323 0.05272353 -0.30952445 -0.07619093 -0.2131876 0.14448029 -0.18015471 -0.22975382 0.79292244 0.041550055 -0.5456198 0.0017563375 0.08075841 0.026889002 -0.19271466 -0.05497259 -0.0105114905 -0.20499694 -0.0019898333 0.16992612 0.18144515 -0.26001725 0.037199646 0.2148926 -0.14606011 0.2534543 0.14966586 0.21940564 -0.0670445 -0.381051 0.039270684 -0.2666707 -0.23834395 0.34188792 0.079348825 -0.4025855 -0.058142655 -0.04135028 0.1760732 0.08557695 0.37063703 -0.46147147 -0.4780218 0.35170436 0.074204676 -0.16608149 -0.07173351 -0.508777 0.55592114 0.023843193 -0.11215416 -0.25805718 -0.0867649 -0.12927954 0.164681 0.3615595 -0.50098354 -0.1966993 0.44551465 0.33001575 0.61840475 -0.07269728 -0.73938644 0.34621975 -0.32582143 0.22071245 0.2205783 0.14888757 -0.43792966 0.009928218 -0.20785175 -0.21564235 0.28080302 0.70978296 0.5459336 0.092926644 -0.27192658 -0.20172924 -0.23292531 -0.06913572 0.29168636 0.62449706 0.3171386 -0.08940775 0.19403541 0.1945574 -0.023455266 -0.31612414 0.41291377 -0.4836363 -0.17795368 -0.070729986 0.024582513 0.11325558 -0.1274833 0.18660565 0.15599662 0.22424708 -0.11085876 0.16442068 -0.31313384 0.04857254
6 -0.2659579 -0.43862003 -0.12333642 0.05069233 0.23960255 0.12147141 0.0074112 0.61030126 0.3725153 0.19143209 0.09520211 -0.16410919 0.122097895 -0.4205104 -0.08157907 -0.06675833 0.34195414 0.109755225 -0.019976811 0.35675523 0.29978764 0.2807497 -0.029058803 0.15487526 -0.37203324 0.19787158 0.07982934 -0.28473747 -0.21623456 -0.2868291 0.25147888 -0.26664394 -0.392448 -0.33558157 -0.12786146 -0.5107294 0.4276847 -0.17926712 0.4180099 0.07113006 0.19866964 0.6366614 0.16657287 0.034767922 -0.76400393 0.1402154 -0.1864805 -0.2219425 -0.23478013 0.5172754 -0.16206501 0.1318421 0.20907426 0.35863927 -0.14080247 -0.33311132 -0.080172986 -0.43384957 -0.07928464 0.06176729 -0.0432234 -0.089898795 -0.15588139 -0.17039101 0.08700886 -0.06900735 -0.37398514 -0.1852112 0.2848 -0.0072329836 -0.08418446 0.14810845 0.11461027 -0.097071424 -0.045776475 0.107084356 0.28872034 0.028893346 0.42589504 -0.08173519 0.23809436 0.027195184 0.07564974 0.08360545 0.06787603 0.22542089 0.3967406 0.018857237 0.025968127 0.09264405 0.23992322 -0.18868148 -0.26623634 -0.016480556 -0.087116025 0.082140304 0.1692419 -0.9115178 0.40559807 0.6001479 -0.15676065 -0.35130784 0.21795185 -0.37329978 -0.030658312 -0.10283476 0.36510453 0.32678318 0.5145179 -0.6289195 0.23468827 0.1789538 0.11131236 -0.21983668 0.061813332 -0.33002937 -0.4899404 -0.056290034 0.12207351 0.08266453 0.13154517 -0.28112373 0.48054954 0.27695855 -0.3607062 0.21574165 -0.08296175 -0.6389545
92 0.16398656 -0.017180964 -0.9310034 0.23451716 -0.28239772 -0.2258023 -0.20009431 0.28418574 0.27529028 -0.6213451 -0.32082778 0.9191432 0.009276279 -0.21878795 0.8386643 -0.45464805 -0.13269491 -0.104700595 -0.23642547 0.42041057 0.60052586 0.3584102 0.78723097 -0.059414174 -0.037519902 -0.02405802 0.27864656 -0.55615574 0.2259445 -0.7332744 0.6069293 -0.276456 0.4447071 0.103651434 0.17424044 -0.39236143 0.14703347 -0.109387346 0.03694319 0.10324756 -0.4328861 0.20375265 -0.20716159 0.15958217 0.58212316 0.05491579 -0.19970924 0.1925473 0.26988828 0.25237098 -0.29745695 0.274186 0.34928715 -0.18802735 0.3155587 0.07751579 -0.099621795 0.26754943 0.15576456 -0.05022765 -0.53343135 -0.32502425 0.13636331 0.10799938 -0.14527056 0.25607762 -0.14658989 0.36722165 -0.5058337 0.2516364 0.18838619 0.060775794 -0.2921376 0.1784157 0.015687551 -0.33940998 0.19896112 0.1649116 0.39166668 -0.37770757 0.015215193 0.235207 0.10582674 -0.4436756 0.063252755 0.31588024 -0.114679985 0.1880903 -0.20958303 0.07537883 0.09812119 0.20068447 -0.13006829 0.13259818 -0.26763856 0.25523198 0.09182083 -0.45111236 -0.071798965 0.22510453 -0.35174435 0.033177756 -0.10306925 0.12939148 0.31161028 0.0017960201 -0.047482457 0.35472074 0.057422727 -0.534796 -0.17298536 0.18036172 -0.18256828 -0.1236161 0.19487576 -0.045718353 -0.10079213 0.0054022926 -0.35347775 -0.29640236 -0.3103563 0.09132674 0.17634432 -0.053986892 -0.05721348 0.09522333 0.2172993 -0.32740635
114 0.25728387 0.26503336 -0.0053240643 0.41121846 -0.02950638 -0.054470487 -0.33704808 -0.3913109 0.06507614 0.07382932 -0.27614272 0.18658495 0.16816795 -0.1895674 -0.037381 -0.33191335 -0.29162735 -0.054563437 -0.15343952 -0.40370154 0.09740679 0.37195024 0.070456825 0.6297802 -0.17768389 -0.24166252 -0.19737816 0.10544156 -0.34865114 -0.13614193 0.18237998 -0.025503406 0.3337286 -0.4838893 -0.17526631 -0.04398368 0.075269915 -0.029426288 0.3803375 0.12269378 -0.19388613 0.07767149 0.21706176 0.01427453 0.2975959 0.7219185 -0.2843714 0.19103318 -0.17131315 -0.116050065 -0.049256008 0.03185137 0.4855534 0.48430195 0.5541874 0.17936529 -0.023576818 -0.11870471 -0.010565584 -0.1311162 -0.13623819 -0.11976297 -0.18754974 0.29744595 -0.12078578 -0.017582607 -0.13479887 0.29566303 0.10673025 0.30575958 0.036072616 0.025379924 0.20465639 -0.3981363 0.43764445 0.19379136 0.08818855 0.21286705 -0.20708808 0.42321637 0.23925254 -0.14967671 0.008977293 -0.1589239 -0.08131969 0.24335422 0.32562584 0.14282428 -0.016805815 0.030663686 0.053658627 0.1636185 -0.05903804 -0.21458839 -0.7281013 0.038486198 0.7878192 -0.7011373 -0.21815935 -0.2066532 -0.08245928 -0.50222987 0.28451324 -0.27974173 -0.23723367 -0.020500474 0.60629255 0.622607 0.50223976 -0.16281894 0.34515443 0.07221033 -0.09849969 -0.1515736 -0.020084362 0.056554373 -0.2376191 0.38056773 -0.3002492 -0.6688157 -0.06002254 0.17118263 0.18996847 0.018013714 -0.1932426 0.11095331 0.22429313 -0.043996923
302 -0.24121276 -0.31255457 -0.5215579 0.27579036 0.34240317 -0.31533533 0.16856554 -0.13865018 0.32752365 0.20777364 0.18424542 0.40764993 0.090565145 -0.084858954 0.22699764 -0.4587654 -0.18632416 -0.10189556 0.3479802 0.56807226 -0.5226236 -0.18355413 0.7404619 -0.1866082 -0.05498293 -0.15145515 0.05792257 -0.49942648 0.46061045 -0.34149334 0.04278392 0.2908103 -0.051093705 0.10083166 -0.053408407 -0.20897919 0.4267518 -0.23569775 0.5796758 0.20114648 0.009318035 -0.58738124 0.15101407 0.08265664 -0.033132594 0.4348776 0.40266183 0.2436562 -0.041422565 -0.07563913 0.28943187 -0.12893115 -0.15517849 0.35507953 0.3453906 -0.35679883 0.34269363 0.21187235 -0.20747226 0.5503106 -0.26454487 0.27732566 0.2186975 0.029990038 -0.26693982 0.186828 -0.18735676 0.022592397 0.2616593 0.3668443 -0.16306548 0.080024384 -0.3986253 -0.23373216 -0.07843242 0.27840266 0.43444407 0.15463442 0.40979505 0.20772006 -0.22344185 0.1218029 -0.13279438 0.26716983 -0.21535832 0.38878092 0.5359309 0.44143838 0.004633189 0.21317977 -0.09029572 -0.25149158 0.0662045 0.58550215 -0.39260367 0.08643873 0.019625686 -0.33649567 0.12317459 0.13549364 0.71455693 -0.41278964 0.2337827 -0.11079767 -0.28745142 0.092771396 0.019582763 0.7100945 0.08195022 -0.77334225 -0.110559486 -0.21818385 0.029958203 -0.14949064 -0.097343795 -0.09096569 0.078033656 -0.41025668 -0.46023107 -0.2409305 -0.019021098 0.059806164 -0.15389206 0.10236971 -0.36061728 0.097571604 0.5211397 -0.14242204
186 -0.2924533 -0.3766572 -0.18784475 0.09176111 0.18315773 0.15991965 0.033725757 0.6617884 0.2767499 -0.047603544 0.13648613 0.01861638 0.050084636 -0.40687633 -0.04472613 -0.09985073 0.2362758 0.14637697 -0.0002687349 0.15708964 0.22639157 0.28178036 -0.08966777 -0.04238768 -0.35989317 0.06370014 0.11293113 -0.3691916 0.0034316366 -0.28850096 0.17471556 -0.3090908 -0.3377284 -0.39884028 -0.18571784 -0.57180107 0.35634896 -0.26824123 0.4623962 0.015416213 0.22269686 0.60459113 0.10967011 0.025433281 -0.8896183 0.12478379 -0.2077357 -0.2527285 -0.18929027 0.5250659 -0.16486044 0.12836085 0.26966855 0.45195267 0.040651307 -0.31600285 -0.102986455 -0.39948735 -0.15222539 -0.030357672 -0.019135958 -0.18632598 -0.26473773 -0.25828162 -0.029507725 0.051049054 -0.3245713 -0.085901394 0.10534776 0.006842452 -0.007382981 0.1444809 0.11940771 -0.025377091 -0.1557276 0.08141967 0.20044081 0.02396081 0.34797558 -0.1320451 0.21378218 0.037016112 0.104559444 0.0712915 -0.019041497 0.1440569 0.37696934 0.17776789 -0.078794114 0.12286599 0.19430538 -0.12732936 -0.23974869 -0.07378117 -0.12785561 0.07539844 0.23259094 -0.96845037 0.42480874 0.6703636 -0.082775444 -0.33928442 0.26907608 -0.34722716 0.03427037 -0.39016813 0.2784942 0.1932709 0.59269536 -0.64420176 0.26151663 0.14682458 0.18772101 -0.260507 0.033797782 -0.26370475 -0.5957422 -0.09161229 0.027521152 -0.0072779097 0.23352557 -0.4259506 0.48182896 0.3050853 -0.35134056 0.2121474 -0.09005808 -0.43703625
85 0.29282266 0.33493292 -0.009165133 0.39866105 0.037502993 0.028134327 -0.34419376 -0.48536617 -0.009932518 0.022323785 -0.27556518 0.19010572 0.121121444 -0.10345995 0.03609244 -0.3029494 -0.43157518 0.023254288 -0.218565 -0.54594606 -0.0046550524 0.30095357 0.15500374 0.47397822 -0.22005512 -0.33792168 -0.15402254 -0.02536609 -0.36932063 -0.2550995 0.19779411 -0.11709182 0.4207328 -0.5112249 -0.15273924 -0.120744556 0.092631 -0.0707536 0.48455304 0.04865843 -0.1758323 0.19684461 0.362879 0.10669894 0.22576307 0.617226 -0.41506797 0.1731925 -0.13514413 -0.083991334 -0.05179139 0.098731056 0.54688793 0.44531032 0.54109704 0.05966516 0.12643442 -0.12414473 -0.0532715 -0.18476892 -0.20540082 -0.20451616 -0.26218012 0.36099476 -0.10719316 -0.079152614 -0.01306112 0.4649011 0.116837874 0.43985796 0.05555537 0.08274441 0.1514496 -0.297282 0.319973 0.112859994 0.0988928 0.12035005 -0.32838002 0.4090765 0.17859817 -0.16186453 0.09473161 -0.107573025 -0.12318093 0.25164914 0.29667556 0.20647354 0.013117875 -0.00454036 0.026688313 0.13604268 -0.06460122 -0.15177977 -0.6956676 0.034057874 0.7344716 -0.6701349 -0.08940722 -0.048926286 -0.07871156 -0.44198903 0.24088615 -0.31106335 -0.18934987 -0.03291501 0.444252 0.5185621 0.49183074 -0.110871665 0.4148006 0.055640854 -0.10888767 -0.24662282 -0.14159183 -0.010453416 -0.31375542 0.34491852 -0.26569197 -0.55903244 -0.06942775 0.18695971 0.2873519 -0.012303348 -0.3182115 0.13071096 0.2203464 0.11317477
190 -0.110869 0.5989411 -0.40678656 0.46166945 0.522428 -0.04963824 0.43710312 -0.14593159 0.43688914 -0.073946156 -0.27048182 0.29060793 0.5004658 0.105605304 -0.04711525 -0.69479895 -0.06644332 0.55205953 -0.23753165 -0.12125823 0.35551 0.2914822 0.34559858 0.3015001 0.269533 -0.04450003 -0.15633044 -0.00595134 -0.26145262 -0.060840357 -0.27464214 0.22625026 -0.17905611 -0.054256663 0.7234668 0.010690281 -0.5889329 -0.14092442 0.080966316 -0.011958755 -0.032069057 -0.11432141 -0.006872607 -0.27612984 0.054516498 0.2507237 0.22100548 -0.25753805 0.11051799 0.22226764 -0.14034542 0.19312388 0.14614134 0.16771391 0.027099205 -0.2871846 0.15490744 -0.20816918 -0.14613879 0.32140782 0.051011883 -0.17572999 -0.08425011 -0.06855476 0.18242289 0.14540009 0.3255974 -0.42549345 -0.4970541 0.36559778 0.08072442 -0.16346161 -0.048882205 -0.5467564 0.4892354 0.065472275 -0.12556842 -0.1983963 -0.1116112 -0.054030493 0.121156015 0.30732775 -0.46865 -0.25616148 0.41319245 0.25915003 0.49239457 -0.037285578 -0.7160403 0.45532513 -0.3413338 0.2567508 0.16396174 0.08444785 -0.4412094 -0.07681847 -0.2744947 -0.26328334 0.2721885 0.7533975 0.5736712 0.099439435 -0.19791445 -0.23363362 -0.18381825 -0.11982004 0.45148554 0.7170465 0.26655087 -0.060782462 0.19598347 0.20370938 -0.075169966 -0.28265515 0.55899656 -0.44272044 -0.17217039 -0.029550683 0.038186 0.06774877 -0.22669823 0.18010622 0.20681414 0.07554231 0.010925036 0.19734256 -0.3140683 0.12917468
195 -0.43138677 0.40637282 0.39928713 -0.08709821 0.39404434 -0.003496692 -0.30674776 -0.33412445 0.25114435 -0.061161034 -0.30080977 0.39736408 -0.21860783 0.28943107 0.06550165 -0.35111398 0.35308832 -0.010032566 -0.091040656 0.020372592 0.17130353 0.5592514 0.28764564 0.24490325 0.1031018 -0.24120648 -0.27859133 -0.18800631 -0.4740699 0.065610856 0.0736011 0.03706899 0.15684076 0.10392629 0.031753242 -0.2733132 0.57129055 -0.31954774 0.1798496 0.09976796 0.5659544 0.4732841 0.3945505 -0.07893244 -0.08023413 -0.032056365 -0.48758504 0.09607339 -0.015245057 0.1703533 -0.24485955 -0.0035109983 0.51959723 -0.0566649 -0.009300677 -0.2479697 0.15444356 -0.24976717 -0.3357946 0.1618059 -0.6060822 0.024899362 0.09434466 -0.12341589 -0.49028924 0.40023223 -0.3092633 -0.009328871 -0.049571894 -0.2856811 -0.016534261 -0.0576656 0.21339224 -0.7518837 -0.19186515 -0.20046884 -0.04881686 0.09781304 0.14047669 -0.110076606 -0.36539146 -0.34866148 -0.12151794 -0.06491511 0.10399812 0.54412526 0.37663028 0.2704048 -0.32965 0.009191749 -0.43798643 0.019560821 -0.15218452 -0.07067607 -0.12563245 -0.18601876 -0.49390072 -0.5180422 -0.05846813 -0.124872476 -0.32015228 0.017520543 0.12271891 -0.42205533 -0.14773396 0.19241305 0.8205233 0.43534386 -0.045478895 0.27132958 0.13066661 0.0329252 0.22845702 -0.3134836 0.11449172 -0.47911224 0.01596487 0.14739452 0.011130561 -0.25693667 0.4937431 0.19474904 -0.010418485 0.2810429 -0.1352408 0.05034428 0.2094866 -0.17765418
1 -0.45624223 0.37569445 0.33311287 -0.1433226 0.3009601 -0.08731695 -0.38028577 -0.37704417 0.14533976 -0.028757159 -0.311229 0.44149786 -0.15730065 0.314688 0.030123474 -0.30625066 0.16493908 -0.046890017 0.06451084 -0.009497031 0.19060826 0.46056047 0.4222835 0.27463767 0.012289581 -0.25851056 -0.1311186 -0.07244606 -0.3184247 0.13089737 -0.03284679 0.18369208 0.115623906 0.17033859 0.015740553 -0.34282377 0.54779387 -0.22065665 0.19743045 0.0396795 0.6752496 0.4940614 0.33795273 -0.04779949 -0.10450878 -0.15943936 -0.59753925 0.057262152 0.013287106 0.07899854 -0.22506385 0.080226794 0.5042694 -0.046076916 0.0066696787 -0.20651506 0.16269496 -0.32322767 -0.41139662 0.18989769 -0.59150803 -0.14545508 0.06184865 -0.16717483 -0.5370842 0.41923538 -0.26130033 0.10253631 -0.07606775 -0.22269425 0.0031705778 -0.0036256632 0.328883 -0.6692732 -0.3205278 -0.1746683 -0.032252103 0.053191263 -0.0013657345 -0.17004374 -0.37575132 -0.38280934 -0.105823494 -0.0774942 -0.024896815 0.46747154 0.36320066 0.23404469 -0.37915564 0.0017011986 -0.5410592 0.021056877 -0.08085538 -0.09046453 -0.17243856 -0.22855717 -0.46445373 -0.6354689 -0.06209448 -0.058823634 -0.2775222 -0.05873494 0.008516227 -0.473477 -0.086474806 0.1668967 0.79651403 0.38695583 -0.037042987 0.17452373 0.1335303 0.027243728 0.17943491 -0.3809956 0.021881904 -0.43077195 0.037640896 0.07446758 -0.01157569 -0.24924141 0.5448122 0.1495494 0.034076422 0.23476629 -0.040384132 0.01846453 0.2812978 -0.27484626
148 -0.5710845 0.3105894 0.3235565 -0.07938147 0.23988523 -0.15700908 -0.43471834 -0.3225709 0.21290381 -0.0303887 -0.2154444 0.38644204 -0.35393772 0.35029268 0.19051056 -0.3578277 0.21541446 -0.061739333 -0.062553465 0.036426805 0.18208522 0.6288152 0.32072246 0.3382419 0.10503875 -0.3801221 -0.29778248 -0.29568198 -0.44481686 0.1632915 0.037423644 0.03997958 0.012263155 0.20805027 -0.02476289 -0.20746423 0.5344436 -0.32070673 0.20796177 0.06552607 0.6745187 0.48447412 0.3157275 -0.009951375 -0.2237036 -0.10615359 -0.43602633 0.099478856 0.046396744 0.16828194 -0.1457778 0.06439808 0.41228187 -0.09377444 0.04529472 -0.22667783 0.03969327 -0.2998669 -0.5022897 0.18022469 -0.57818633 0.007999956 0.0030998662 -0.1752695 -0.4834765 0.39220467 -0.20103963 0.038586847 -0.12514247 -0.17759673 0.04041076 0.01425457 0.17043753 -0.7049447 -0.19314884 -0.223896 -0.08376903 0.010293466 -0.0326811 -0.080996886 -0.32486275 -0.3206378 -0.14406028 -0.011179235 0.0940399 0.46664152 0.21673173 0.19923185 -0.32180837 0.07868751 -0.46105686 0.0049329028 -0.19911447 -0.15093967 -0.24647485 -0.27956733 -0.3641581 -0.620033 -0.024577115 -0.16266051 -0.21091451 -0.021769995 0.10198408 -0.44746372 -0.016171858 0.17689452 0.8387321 0.34291878 -0.12916523 0.12713344 0.1876153 -0.022214958 0.14112364 -0.367851 0.1737134 -0.48874965 0.019721162 0.049239404 -0.06488723 -0.28624538 0.49998593 0.08511396 0.05566957 0.30726907 -0.10216175 0.003669334 0.2836644 -0.30021265
211 -0.12188613 0.6115776 -0.36388958 0.45247772 0.43187472 0.0018965187 0.5152401 -0.2275523 0.3676726 -0.034277085 -0.3308668 0.3445086 0.45273122 -0.023157833 -0.029535677 -0.66506946 -0.04183433 0.59319097 -0.22001907 -0.110342145 0.3247789 0.34663153 0.3053935 0.31151912 0.18778497 -0.06479428 -0.117947206 0.038438424 -0.35361382 -0.06615897 -0.11438215 0.1876617 -0.25462535 -0.13408266 0.67063296 0.13958973 -0.56497765 -0.11073941 0.06003871 -0.052638743 -0.121777385 -0.0543627 -0.07466464 -0.2399927 0.012893856 0.21498379 0.18595088 -0.19776087 0.08137458 0.18966047 -0.11503966 0.14512862 0.08191806 0.20562045 -0.030144019 -0.2785558 0.09492234 -0.17221436 -0.17913415 0.33295715 0.08874919 -0.08147793 0.030393692 -0.06579718 0.27126122 0.087026305 0.340577 -0.49542996 -0.515513 0.23904665 0.15455194 -0.10359956 -0.04298143 -0.5719798 0.43259823 0.06096254 -0.19229446 -0.24767672 -0.12887284 -0.12819193 0.15141083 0.306791 -0.5112009 -0.15293631 0.36453873 0.2748768 0.57782125 -0.035053294 -0.76920915 0.3928693 -0.3602877 0.2722283 0.14710668 0.018661581 -0.4549441 -0.13233098 -0.29452163 -0.22623952 0.18704267 0.6857459 0.60981613 0.18227603 -0.11077013 -0.20970637 -0.17947808 -0.19047387 0.47571898 0.67347276 0.38852364 -0.11340592 0.21401 0.15946545 0.014228388 -0.40145496 0.48038706 -0.46074933 -0.17721751 -0.11017561 0.045887128 0.025250591 -0.19169149 0.20857714 0.25489244 0.23633468 -0.030807747 0.15388499 -0.3532275 0.051582724
188 -0.2992022 -0.39107516 -0.1791697 0.10288133 0.2521836 0.19829065 0.06149961 0.5592623 0.24721168 0.1521023 0.17191395 -0.08986761 0.121131666 -0.43547958 -0.0061087003 -0.09214879 0.31522322 0.072718896 -0.03810069 0.27185884 0.28521174 0.23995638 -0.13173394 0.20091265 -0.43966314 0.19285117 0.1949876 -0.33042994 -0.18757543 -0.30167028 0.22776978 -0.30839297 -0.37966684 -0.33928502 -0.14826152 -0.4531773 0.29603857 -0.17266071 0.4277652 0.13298342 0.30436432 0.574354 0.19868712 0.09583847 -0.798974 0.14999817 -0.23447996 -0.25738406 -0.2392796 0.45807427 -0.10783896 0.031506516 0.22725825 0.41459402 -0.1262971 -0.36168373 -0.09380637 -0.3950879 -0.10546107 0.067707434 -0.08614733 -0.087311484 -0.11332772 -0.08932439 0.095029466 -0.0533269 -0.4357926 -0.13879742 0.30417383 -0.012053757 0.08763853 0.15886049 0.16974047 -0.13932525 -0.21818309 0.031523436 0.26806173 0.07424191 0.33889925 -0.14914177 0.27470088 0.072091416 0.04515131 0.07037898 -0.09862905 0.2154136 0.5095372 0.048377097 0.02271592 0.29760438 0.13440901 -0.08104995 -0.12566927 -0.061752085 -0.16355702 0.0307705 0.27496296 -0.9209028 0.44864488 0.5642693 -0.091011584 -0.34208992 0.30644226 -0.33792204 0.09674779 -0.2495937 0.32694876 0.24482246 0.47985524 -0.6807242 0.22539398 0.14614739 0.08887971 -0.14430869 -0.052117333 -0.15544811 -0.5393025 -0.03958007 0.13146059 0.11434219 0.14649859 -0.3373582 0.55843824 0.31174123 -0.32429966 0.16381384 -0.0809421 -0.57144845
236 -0.36767298 0.3270357 0.32498065 -0.07885538 0.3506843 -0.09538769 -0.33966142 -0.26728496 0.18873996 -0.04234442 -0.23085439 0.3242205 -0.2007755 0.25619102 0.05743664 -0.3368384 0.29820648 -0.10826777 0.046120714 0.06818339 0.10451798 0.56256735 0.22907785 0.3379908 0.059984665 -0.35107753 -0.28554597 -0.23403592 -0.43911904 0.14077978 0.051862996 0.07136203 0.040995784 0.106131725 -0.05348174 -0.22331657 0.56638324 -0.33791733 0.23417898 0.12283999 0.7651878 0.44056308 0.3635298 -0.03358101 -0.09557292 -0.06841128 -0.5032536 0.080093846 -0.05524364 0.13997999 -0.23506433 0.01699826 0.43852374 -0.15741976 0.056629263 -0.13840996 0.17807195 -0.17649971 -0.3928512 0.1308423 -0.6197275 -0.039176933 0.14730816 -0.18870007 -0.4806551 0.30924323 -0.31270027 -0.065398134 -0.22613788 -0.2547957 0.03826045 -0.06639565 0.1771838 -0.7861637 -0.21020274 -0.24210191 -0.10886077 0.11900074 -0.011285731 -0.08526061 -0.39283884 -0.3437358 -0.07635339 -0.03128541 0.13112509 0.51750576 0.32656094 0.23256835 -0.37454623 0.14713502 -0.5144286 0.08697133 -0.12353726 -0.053468216 -0.09539529 -0.27054715 -0.5037372 -0.6021463 -0.11745747 -0.16756816 -0.23478128 -0.047835644 0.078804076 -0.411838 -0.17251463 0.15721153 0.8640798 0.38406047 -0.09020673 0.18602015 0.09504645 0.09158646 0.21945733 -0.32597765 0.21978198 -0.48123664 -0.016562987 0.05453642 -0.11752961 -0.3197421 0.4333792 0.109450996 0.11782775 0.4074126 -0.14599258 -0.016272165 0.17825732 -0.1748508
154 -0.59133863 0.44943228 0.21488403 -0.13024212 0.27926937 -0.09203495 -0.34711787 -0.18263021 0.19396958 0.09445652 -0.2232661 0.36661804 -0.23557137 0.32819915 0.08531854 -0.31902558 0.22414203 -0.11355748 0.041000854 0.0023669186 0.1617356 0.45756346 0.32164502 0.32336673 -0.012280496 -0.353081 -0.2611259 -0.31392804 -0.34024307 0.038427975 0.0940761 0.1813827 0.095642835 0.14561732 0.04020848 -0.26665297 0.52304846 -0.26060978 0.18877243 0.09003545 0.69556004 0.50928205 0.33802876 0.014735144 -0.019305715 -0.14458005 -0.5162926 0.077387564 0.01698441 0.15084015 -0.17073801 0.118423775 0.4362876 -0.07876442 -0.061724283 -0.23284857 0.13260287 -0.2965376 -0.36974955 0.08810072 -0.5274308 -0.00057691213 0.11334344 -0.14853872 -0.4670517 0.35676965 -0.31326014 0.0930076 -0.20163973 -0.2723083 0.03661441 -0.04005127 0.29665506 -0.66928476 -0.2978637 -0.20431831 -0.03659275 0.029651353 -0.029584583 -0.12822214 -0.3828146 -0.35467124 -0.12822925 -0.026105449 0.080438085 0.44969282 0.2815343 0.2558353 -0.43017572 0.06021224 -0.545932 0.056275282 -0.16962689 -0.17311418 -0.09225408 -0.23473808 -0.3394623 -0.668809 -0.048772193 -0.13737154 -0.27363586 -0.017528193 0.09833857 -0.42729306 -0.17193006 0.15558575 0.92416996 0.36091787 0.023694579 0.17786741 0.17976812 0.05145954 0.18998954 -0.36082262 0.16647807 -0.47857398 0.08850728 0.0066125332 -0.015451897 -0.30018097 0.52321595 0.14377274 0.018926028 0.33957735 -0.11775385 -0.038135037 0.23253179 -0.23799373
226 -0.18379924 0.02558123 0.10780521 0.70918053 0.070422135 -0.04511008 -0.4102311 -0.07371658 0.3770342 -0.22932547 0.2296469 0.34924206 0.09609222 0.12267768 0.74563456 -0.4715218 -0.100355886 -0.19016086 -0.21809196 -0.26437724 -0.22553515 0.40231833 0.20508346 0.21687213 -0.12034876 -0.46891263 0.14764783 -0.18733653 -0.0063005816 -0.26119146 0.034308538 -0.24165532 -0.17521462 -0.1910923 0.013161206 -0.31263655 -0.09349481 0.07846972 -0.27673885 -0.115649216 0.7532285 0.054272845 0.22060572 -0.13108651 0.30723837 0.45848882 0.25228152 -0.13234779 -0.2211828 -0.1652226 0.17573284 0.38490617 -0.004137876 0.1465622 -0.119073 -0.18634902 0.09159243 -0.2232038 0.42314303 0.2752193 0.14187379 0.38192412 0.031384397 -0.17370124 0.16932935 -0.21582331 -0.24801816 -0.4643774 0.103914835 0.05612274 -0.20756903 0.056681875 0.5477845 0.011808285 -0.05525323 -0.092816785 0.069279656 -0.087254405 0.24304353 -0.07052145 0.4273761 -0.02655214 -0.043569613 -0.45704323 -0.14645582 0.09300919 0.43301177 -0.46604452 -0.3316489 0.10907967 0.100816645 -0.11444384 -0.3484467 0.3612375 0.07518905 -0.05294092 -0.043816198 -0.42408392 -0.45363733 0.15250674 -0.25998518 -0.6159026 -0.5267828 -0.23771565 0.1220777 0.25626558 -0.4327139 -0.046958614 0.19001049 -0.53130233 -0.021479229 0.37626898 0.16401185 -0.35247585 0.076785766 -0.15626962 0.2514423 -0.1260148 -0.4104977 -0.49115995 -0.14430535 0.51813847 0.14948018 -0.016067531 0.028894315 0.3982798 -0.5546756 -0.23210622
138 -0.31413737 -0.5410036 -0.19929995 -0.04144722 0.13848662 0.20210838 -0.056936953 0.64758706 0.17736597 0.07062136 0.085286856 -0.123277016 0.067756906 -0.49058646 -0.11316014 -0.0300028 0.28169543 0.07887601 0.022187553 0.16737702 0.28219777 0.30250236 -0.15254308 0.08307532 -0.40539196 0.11281239 0.1321497 -0.3185064 -0.089354664 -0.35266232 0.3788878 -0.30068222 -0.32621557 -0.42167512 -0.10218965 -0.6307098 0.32718587 -0.14867862 0.46920782 0.024676494 0.2660167 0.6117035 0.093560085 -0.010313451 -0.7548557 0.14766079 -0.1662789 -0.29709914 -0.24431421 0.5397485 -0.14867894 0.1747254 0.27252385 0.41208115 -0.03326621 -0.41163033 -0.12874456 -0.44589356 0.028276116 0.062103648 -0.008413026 -0.06440826 -0.13533449 -0.16098964 -0.0024177267 0.0012629837 -0.3610665 -0.17735067 0.22163384 -0.007747668 0.040202104 0.1564112 0.1903302 -0.028463742 -0.18931098 0.09045325 0.30288762 0.028513484 0.25200146 -0.12324167 0.2784861 0.03242469 0.046737418 0.09123494 -0.020862216 0.12878637 0.3777015 -0.030580424 -0.18507394 0.18622561 0.10265356 -0.036591344 -0.16120604 -0.08401117 -0.20058839 0.10114119 0.1873634 -0.94629276 0.4722682 0.6295818 -0.029244239 -0.27546874 0.28256753 -0.35084882 0.05870307 -0.17000678 0.43113407 0.23828568 0.5571932 -0.6837703 0.16458847 0.08985665 0.16327159 -0.09779891 -0.022851812 -0.2615373 -0.4998023 -0.08190884 0.026017003 0.027290154 0.14231905 -0.16640891 0.479306 0.29097503 -0.44404122 0.13251667 -0.14626157 -0.4094281
182 -0.28239006 -0.28024763 -0.6026539 0.32579285 0.37629512 -0.3422887 0.20582789 -0.11400784 0.26441547 0.1971861 0.13384388 0.29240838 0.06148733 -0.15333548 0.13019545 -0.427004 -0.21514459 -0.097220354 0.41457006 0.5026824 -0.4658964 -0.25680265 0.6098314 -0.26636076 -0.06250539 -0.23178871 0.07068488 -0.47214675 0.6516464 -0.37371036 0.102455266 0.33960658 -0.03735804 0.084868215 0.027126692 -0.25610074 0.44562024 -0.16945806 0.5660744 0.19545706 0.061970152 -0.46303657 0.18773896 -0.041061822 -0.028756687 0.33326897 0.4002247 0.21801186 -0.035240453 -0.089169286 0.24451381 -0.007370747 -0.13302155 0.42178327 0.38412422 -0.49570662 0.35483384 0.12001761 -0.18729688 0.48771515 -0.2711709 0.31672317 0.19340664 0.022580443 -0.26307538 0.18041052 -0.15204254 0.070851184 0.22779758 0.39433274 -0.18927982 0.07214656 -0.29166993 -0.23093714 -0.18539149 0.13781625 0.4718572 0.12901099 0.35932782 0.19489159 -0.25803602 -0.0007439178 -0.18724445 0.20515488 -0.24345924 0.46952352 0.55719405 0.5501602 -0.049445078 0.18591166 -0.17397697 -0.1844829 0.09973269 0.61793864 -0.42646936 -0.010128056 0.08892318 -0.36065957 0.04951892 0.085533604 0.7284205 -0.38996723 0.17540011 -0.062623665 -0.29055035 0.15562664 -0.03052667 0.7029062 0.05187713 -0.7693883 -0.0136958985 -0.23527554 0.13645172 -0.2695469 -0.14505544 -0.08377461 0.16045356 -0.44929558 -0.48403746 -0.23830533 -0.03135835 0.08312619 -0.13068292 0.013961515 -0.44808307 0.13689178 0.44970867 -0.111415505
