500 128
89 -0.106130965 -0.0883274 -0.31530097 -0.047387943 -0.016341 0.11271281 0.21062085 -0.22343189 -0.41580632 -0.327893 -0.16009553 0.067165844 -0.087409586 -0.34058797 -0.21985815 -0.15685925 0.25768062 0.023006039 0.029650165 -0.41592443 0.5454659 0.14964533 -0.11635292 0.30849063 0.24159613 -0.3963001 0.22138292 -0.18435016 0.32977632 0.027630895 -0.37283728 -0.19014804 -0.22138342 -0.27620015 0.110928416 -0.14108743 0.3608833 -0.23837072 0.2436059 0.13290925 0.22478452 0.39394432 -0.14672467 -0.056285672 -0.28671607 -0.50319576 -0.36320198 0.00050950365 -0.07093009 -0.41951546 0.32278714 -0.34578848 0.1236561 0.59772676 0.24284981 -0.40823635 -0.088625886 0.07505835 0.06620407 0.34810123 0.33202258 0.17613977 0.06085376 -0.06566127 -0.045831915 0.18071848 -0.48900995 0.25936228 0.007979024 0.0051814727 0.19899397 0.32947835 0.67065805 -0.23946396 0.056254603 -0.041914724 0.14358057 -0.001209415 -0.43625075 -0.19345851 0.16396469 -0.028158668 0.34523278 -0.59495366 0.14020489 -0.013775849 -0.124349885 -0.15010896 -0.002650481 0.08245024 0.059300374 0.32092682 -0.41920516 -0.28711373 -0.2440599 -0.14837927 0.29511756 -0.3622484 -0.36775306 0.4456129 -0.05578042 -0.41003907 -0.14891978 0.22718136 -0.2544821 0.1467707 0.15012479 -0.35078144 0.031792734 0.3658809 0.4870018 -0.4174225 0.27821133 0.6467134 -0.19468649 0.55437726 0.2978958 0.09528092 0.17266417 0.1642356 0.49765095 -0.20230758 -0.04052449 -0.2999423 0.07089746 -0.10315985 -0.15946968 0.22224906
72 -0.35363054 0.3246786 -0.05960926 -0.08099357 -0.05981327 0.20511833 -0.3280523 -0.10568238 0.26978114 -0.009217738 -0.14269172 0.087469734 0.056533396 -0.33801574 0.6176805 0.29567423 -0.012749902 0.05305665 0.061022907 -0.105529696 0.044501346 0.05431766 -0.014015733 0.5160438 -0.15184487 0.25805232 0.37808153 0.10147395 -0.21122354 -0.39246583 0.39118275 0.2029334 0.1334594 0.042767458 0.24430983 0.0881997 -0.014946342 -0.5597987 0.03613398 -0.07067272 0.17470771 0.5725663 -0.09740361 0.20145743 0.47027412 -0.19574286 -0.7266047 -0.4570815 -0.44098946 -0.09682848 -0.4356365 0.33938146 0.3187722 0.40067163 -0.17893727 0.41891024 0.07293904 0.2562918 0.06838758 0.22395925 -0.102467455 -0.33833688 0.23007998 0.038786992 -0.42934564 -0.051728766 -0.084376864 -0.016118411 -0.17929694 0.11608315 -0.19308817 0.1518035 0.45133865 0.17441307 -0.36176214 -0.59561974 -0.033185117 0.22334373 0.07030868 -0.3250884 -0.30370083 -0.10595585 -0.03484221 -0.031010814 0.09432839 0.20172474 -0.25326273 0.028103702 0.021140547 0.21714951 0.47354424 0.6918665 -0.011482712 0.21579821 0.23259094 -0.11625823 -0.2081821 0.032894075 -0.34113333 0.6107351 -0.15193284 -0.3956848 -0.25743368 0.14220876 -0.16076003 0.045801245 0.099912584 0.07640716 -0.16951995 -0.06644204 0.43853953 -0.011868109 -0.06980101 -0.48929524 -0.32023102 0.13224202 0.04685175 -0.030339155 -0.6624815 0.061242748 0.035983957 -0.2438332 0.60909176 0.39893582 -0.06637602 0.0022493352 -0.42478433 0.24560855
174 0.2143051 0.19166912 0.32361308 0.43497926 0.2513486 -0.06599596 -0.0740551 -0.39632457 0.5150985 -0.19713247 0.09661921 -0.15908639 0.113063715 -0.3166172 0.08889156 0.08714449 0.10011298 -0.2951377 -0.11588749 -0.08621947 -0.21051566 0.25530678 0.053990092 0.35010672 0.41527927 0.12255242 -0.31018707 -0.1436319 -0.094310895 -0.29202178 -0.47674263 -0.5739949 -0.23293544 0.19664428 0.019624343 0.17086776 0.053689796 -0.35370508 0.40602726 -0.070521615 0.03551743 -0.0015879472 0.0017438919 0.21893974 -0.11068561 -0.14700435 -0.8089317 0.0345999 0.17090705 -0.022496294 0.1549275 0.2501458 0.06378061 0.21700132 0.36974388 0.3353394 -0.24874748 0.0138217695 0.25786194 -0.039635435 0.0041106828 -0.0040978165 -0.20718136 -0.23620203 -0.09119869 0.33927962 0.09864219 0.15520374 -0.4516948 0.09599371 0.33758673 0.17189392 -0.11353049 -0.05403586 0.362356 -0.34184897 0.40090257 0.39744985 -0.42752606 -0.18260223 -0.14400445 0.009716244 0.14398007 0.08170944 0.07496179 -0.2539858 -0.3074493 -0.3216216 -0.34162426 0.22954455 -0.13198794 0.24808864 0.6734402 -0.10074316 -0.27232617 0.057064496 0.006754531 -0.16691531 -0.044118322 0.5867822 -0.5532194 0.2619385 0.2020654 0.33039904 -0.24661772 0.46603063 -0.2705332 -0.11782527 0.6671185 0.11539745 0.2326359 0.2802393 -0.04616411 -0.19356768 -0.13128805 0.24235931 -0.49979514 0.35833722 -0.08273435 0.034953456 0.2528557 -0.44622687 0.44136918 0.38435823 -0.3254058 0.03029075 0.25018495 0.35730433
195 0.019633308 -0.12261725 0.053534534 -0.0018810382 -0.21523409 -0.110014744 0.12137633 0.2815595 0.28591427 -0.04064823 -0.5464668 -0.086563155 0.08016931 -0.35724774 0.26677492 -0.19259423 -0.24559627 -0.4748641 -0.38811305 -0.25041047 0.12841727 0.45642895 -0.62321657 -0.014379125 -0.3825877 0.20653002 0.24018313 0.16930076 0.16505274 0.1693968 -0.10113264 -0.2867041 0.14785232 -0.06739367 -0.22844099 -0.15133157 0.13203819 -0.30275574 -0.1730587 0.16070963 0.12703602 0.22582616 -0.26458126 -0.36001942 0.08407236 0.1112358 -0.12904537 -0.46460068 -0.54677564 0.35324758 0.06136813 0.4198821 0.16428843 0.48252162 -0.31605864 0.11981737 -0.4147415 0.09292298 0.23803684 -0.13975018 -0.053227033 -0.6231089 0.27344945 -0.2689732 -0.13808037 -0.037070766 -0.41645807 -0.29908708 -0.16716352 -0.02655209 0.21685253 0.1256164 0.58965456 0.27277023 0.897243 0.07871126 0.10642343 0.08084917 -0.1577389 -0.13354415 -0.088093095 0.39898273 0.49384838 -0.21589452 0.27765244 0.26917732 -0.045523647 0.0014090914 0.2999447 0.3451589 0.019381441 -0.13105913 -0.041092157 0.13662915 -0.14277802 0.073199965 0.40267336 -0.60339814 -0.1111408 -0.003749425 -0.20901452 0.026479853 0.08930933 -0.12993325 -0.28616673 0.0010000468 -0.035161883 -0.5537248 -0.0049964115 -0.11418714 0.4515209 0.18843663 -0.07062291 -0.1668616 -0.03872323 -0.3611442 -0.5049162 0.5048776 -0.026920337 -0.19459867 0.21717742 0.03683109 0.3061065 0.22127664 -0.03930234 0.19878261 -0.10855921 0.2876356
148 0.12434747 -0.10623214 0.02803687 -0.042933896 -0.2194393 -0.112707235 0.075133204 0.2844376 0.25728372 -0.08685355 -0.39132398 -0.026925044 0.15383942 -0.3166664 0.27276307 -0.09857372 -0.1653005 -0.2827756 -0.3061664 -0.29397246 0.12522821 0.40395775 -0.58060586 -0.03676344 -0.4200502 0.29167423 0.12488533 0.25225738 0.093931556 0.16555594 -0.19045068 -0.3654617 0.17787214 0.04525276 -0.29393148 -0.32141072 0.042855226 -0.35878378 -0.07061197 0.24112579 0.16617756 0.2079986 -0.2284512 -0.35983622 0.12821172 0.13384184 -0.13372768 -0.49213302 -0.6238937 0.40681645 0.1598354 0.33747643 0.21797386 0.4876652 -0.3366692 0.027582226 -0.36028305 0.09359262 0.12020004 -0.0048411875 -0.06777307 -0.63736796 0.22325519 -0.40451238 -0.053041544 -0.110469274 -0.51805097 -0.3332474 -0.15271705 0.02620235 0.20502271 0.08838628 0.6015453 0.1955405 0.87599367 0.10333411 0.08509246 -0.026388824 -0.17106767 -0.17713326 -0.18677564 0.32598403 0.4941214 -0.21171996 0.37309498 0.40952027 -0.02241188 0.04127319 0.28809774 0.4497939 0.11544788 -0.06647832 0.09473274 0.18463042 -0.3005569 0.044277336 0.38931537 -0.56608963 -0.048818447 0.0075228745 -0.24502534 0.06559554 -0.010631331 -0.110659495 -0.3344151 0.10189421 -0.026841627 -0.55186903 0.12802774 -0.15631048 0.3571152 0.19473383 -0.038278185 -0.13577086 -0.046331502 -0.34398913 -0.5358066 0.5244613 -0.07105482 -0.1482433 0.22406787 0.091488585 0.22270119 0.25248522 0.11576757 0.13264388 -0.12598562 0.21588029
81 0.29532385 0.02632302 0.26401603 0.43466523 0.25573 -0.05407662 -0.095674455 -0.4098161 0.462706 -0.2181813 0.14049493 0.000952543 -0.02702409 -0.38584033 0.04097118 0.061234433 0.14458598 -0.23360482 -0.08395084 -0.08005365 -0.2323657 0.23732753 0.12505504 0.3011603 0.45732147 0.18824314 -0.23356879 -0.028964475 -0.13422194 -0.32602674 -0.46222544 -0.47807965 -0.24602652 0.14837943 -0.0054469844 0.18847851 0.046134748 -0.38167432 0.40006524 -0.06665122 -0.08772792 0.07018336 0.003116863 0.15580092 -0.0888602 -0.15285188 -0.79629844 -0.008433029 0.17257057 -0.09692575 0.1851371 0.24886048 -0.0030363663 0.29452366 0.32066017 0.42423022 -0.17284723 -0.036556233 0.27803162 0.0022706965 -0.02662902 0.021344356 -0.23987134 -0.18086973 -0.07801545 0.39955965 0.047219034 0.13137242 -0.3261773 0.015759896 0.30468926 0.2802161 0.021843575 0.002828356 0.32638523 -0.3313678 0.42453054 0.36677572 -0.44471848 -0.20355627 -0.15339458 0.07835751 0.09787859 0.08685362 0.050452802 -0.22641143 -0.3190933 -0.32312015 -0.31843114 0.27480185 -0.10389129 0.27758932 0.66532093 -0.14963031 -0.2815256 0.058535177 0.084108956 -0.20742877 -0.006995843 0.55694383 -0.62397105 0.2910054 0.22813028 0.4001386 -0.16317499 0.46283188 -0.2464705 -0.18310897 0.69131994 0.088253796 0.15857401 0.26052162 0.020606421 -0.25733677 -0.18218128 0.2695585 -0.46326295 0.3445074 -0.1451483 0.13111527 0.19380853 -0.45155895 0.4184385 0.38515955 -0.30253124 0.006370524 0.2883194 0.3811378
133 0.026170092 -0.16786209 0.019333506 0.065092176 -0.25383478 -0.05402097 -0.060414113 0.22105852 0.31257102 -0.15304834 -0.35456064 -0.013967157 -0.010348599 -0.43950838 0.2609013 -0.21642591 -0.21200433 -0.54939127 -0.41189802 -0.34426406 0.12840743 0.42074135 -0.6350191 0.14943682 -0.35449636 0.2752079 0.25003138 0.307277 0.14227991 0.08453464 -0.017517027 -0.30551627 0.09854728 0.029299669 -0.36780804 -0.28886247 0.08258042 -0.27384815 -0.16707766 0.2728287 0.226179 0.14265285 -0.14420494 -0.45361838 0.040575016 0.042133093 -0.1942386 -0.45745644 -0.6860508 0.3885348 0.11418943 0.40643582 0.18092065 0.49700028 -0.3747121 -0.08766577 -0.44161025 0.10340401 0.13545573 -0.0117911445 -0.09934753 -0.5424757 0.23231435 -0.352319 -0.11283677 -0.07892417 -0.43599355 -0.19422871 -0.20089573 -0.10270771 0.22036213 0.16434848 0.55584157 0.27736548 0.82186836 0.09723067 0.15388055 -0.09405775 -0.1952898 -0.15440954 -0.022941343 0.32077372 0.50843555 -0.16540308 0.31829727 0.3774928 -0.032625128 0.015440427 0.26820642 0.38855663 0.14339559 -0.07732708 0.03741166 0.18859208 -0.21617267 0.07615183 0.34406307 -0.4978511 -0.05993479 -0.057840187 -0.15670921 0.15498142 0.023860237 -0.055245638 -0.21208236 0.009609955 -0.11225908 -0.58644915 0.14672096 -0.19702335 0.33128962 0.21452248 -0.040969428 -0.052606933 0.011221536 -0.42232797 -0.50614136 0.5793517 -0.022798153 -0.082466014 0.216641 0.09691591 0.30035582 0.34732103 -0.07507006 0.122521184 -0.08453042 0.2963612
49 -0.3336133 0.08893303 0.047043018 0.0909315 -0.036787264 0.18042934 -0.37516952 -0.16410913 0.30467978 -0.018342592 -0.044171028 0.22054748 -0.071867816 -0.4893808 0.6048173 0.25836894 -0.02862849 -0.029664433 0.10673529 -0.047728624 0.069486566 0.086341254 -0.008263489 0.49408817 -0.22101 0.22211497 0.30818433 0.07229259 -0.11837969 -0.4175081 0.5075715 0.3060805 0.13941792 0.085480556 0.16234198 0.031459488 -0.07380202 -0.47829115 0.004537253 -0.10451738 0.16107176 0.5451284 0.11573053 0.15952976 0.3757852 -0.25039637 -0.6019393 -0.4073982 -0.44619238 0.022434743 -0.46868846 0.20714425 0.3464362 0.5273932 -0.07842748 0.36078826 -0.020379545 0.30332348 0.07929304 0.24159156 -0.017229117 -0.37356234 0.11203382 -0.0024255123 -0.41142744 -0.057919078 0.011375341 -0.060962476 -0.12850569 0.0870381 -0.22217415 0.06755244 0.3231403 0.16128711 -0.21923645 -0.55436856 0.015588087 0.17459483 0.08348925 -0.28559896 -0.2922843 -0.22634271 -0.06937466 -0.047793914 -0.032493673 0.14182031 -0.23603675 -0.046355277 0.07090496 0.29396462 0.46320382 0.692511 0.007257121 0.2958787 0.28395224 -0.18758821 -0.28405628 0.057225525 -0.3127532 0.6895791 -0.14325437 -0.46985185 -0.32238778 0.13948667 -0.18090786 -0.08283088 0.083997115 -0.057470143 -0.16248658 -0.142988 0.42596197 0.032527916 -0.06580935 -0.34853876 -0.35567382 0.08773497 0.07505605 -0.12914944 -0.76491684 -0.00068696076 0.064676374 -0.27170467 0.6822029 0.4637802 -0.20481557 -0.047477912 -0.29783702 0.26663807
0 -0.31741568 0.16892658 -0.09151487 -0.10066724 -0.09146378 0.15630029 -0.4040084 -0.1780561 0.23195745 -0.021270975 -0.085959956 0.16276006 0.011812198 -0.48053336 0.62127936 0.29362386 0.10427178 0.11671406 0.039163034 -0.11014857 0.014504181 -0.025793044 0.07284269 0.4967552 -0.20439897 0.25730577 0.26988763 0.096243374 -0.18089384 -0.3972023 0.3465664 0.22593607 0.14573549 0.06227972 0.18187776 -0.04322421 -0.10937413 -0.5402419 0.070139304 -0.1276859 0.13175593 0.50375164 0.0055900128 0.13750593 0.460842 -0.16414177 -0.66171205 -0.44839817 -0.5033177 0.041582372 -0.38003424 0.19299398 0.3477887 0.5129846 -0.09131604 0.38349712 -0.012309853 0.2818927 0.03813919 0.2957192 0.07966011 -0.3753744 0.16507809 0.07192878 -0.3987881 -0.052802842 -0.026501644 0.002338619 -0.07997731 0.08007331 -0.18480524 0.10528535 0.32420588 0.16225955 -0.37428427 -0.5109583 -0.090199865 0.17837003 0.086982206 -0.38179222 -0.36346364 -0.19863409 -0.09836934 -0.048980214 0.08013162 0.17573664 -0.24112312 0.087666705 0.06089248 0.2585812 0.48379865 0.7682827 -0.061375592 0.23515241 0.27135026 -0.05581505 -0.29078406 0.107889295 -0.24334571 0.6385281 -0.114126466 -0.35801235 -0.26361865 0.10904278 -0.19773105 0.07101556 0.18044248 0.081637606 -0.18771213 -0.10875294 0.44750673 0.04016178 -0.06973843 -0.41329503 -0.31564608 0.10712977 -0.029146384 -0.0072114104 -0.7162306 0.050927185 0.04886498 -0.31454632 0.6103072 0.45584607 -0.077845186 -0.060038615 -0.37920234 0.40889364
124 0.23664281 0.124407545 0.25343186 0.2861947 0.36764687 -0.07155113 -0.16629386 -0.38574335 0.38225546 -0.28034863 -0.0022949034 -0.08028545 -0.056366 -0.29589522 0.05624299 0.02885962 0.14203987 -0.3010921 -0.21711734 -0.0062545873 -0.22650813 0.17745638 0.047801815 0.44865835 0.29360113 0.18652053 -0.22326484 -0.058098253 -0.118575804 -0.25831664 -0.50175047 -0.5393762 -0.25320414 0.10076271 -0.025391987 0.18461403 0.060017418 -0.5091771 0.36323276 -0.038397826 -0.053327214 -0.062430736 -0.04245628 0.12606852 -0.096014604 -0.12311219 -0.76823664 -0.004670777 0.18108098 -0.04056198 0.30054444 0.29808578 0.07930808 0.3270172 0.32112777 0.3606379 -0.2597048 0.003163354 0.31238505 0.046971094 -0.016956985 0.06607951 -0.2525994 -0.19262613 -0.14034526 0.3811208 0.10434984 0.25413847 -0.27991772 0.037125036 0.40119332 0.24252409 -0.043924745 0.0023603686 0.15665576 -0.30537316 0.3590396 0.42195058 -0.47696862 -0.14912759 -0.011116426 0.057315838 0.09260509 0.10319625 0.09630944 -0.28914025 -0.23725209 -0.26370725 -0.3582785 0.19413456 -0.22313097 0.22640404 0.6721739 -0.099663064 -0.26491532 0.13947116 0.05038023 -0.21964565 0.042465698 0.5736493 -0.520797 0.2536915 0.32650417 0.39862692 -0.16645445 0.4287543 -0.22676161 -0.11298431 0.7475446 0.016482778 0.2043002 0.3101757 -0.0011346106 -0.23255385 -0.147153 0.27345803 -0.58525753 0.4356711 -0.06619043 0.101783596 0.16581896 -0.49694386 0.4158557 0.45213896 -0.3351022 0.0027966942 0.19185846 0.39213175
68 -0.35695642 0.29930642 -0.049991027 0.047709085 -0.1629829 0.10595742 -0.42191654 -0.1342389 0.29960904 -0.05483085 0.0024717245 0.08713981 0.044653434 -0.42439535 0.54267925 0.3441137 -0.019702453 0.18254827 0.024883598 -0.13261244 -0.011864129 -0.10883366 0.04675811 0.55920386 -0.30341166 0.27871037 0.3005275 0.13861045 -0.1805752 -0.22091542 0.35508576 0.16176367 0.10873043 0.17348087 0.07905119 -0.0669774 -0.050972413 -0.648592 0.09368596 0.054695174 0.1159328 0.57660955 0.08640462 0.21882406 0.44653276 -0.1977549 -0.6199561 -0.60178703 -0.40998667 -0.03084201 -0.34684142 0.23223941 0.34818295 0.47639912 -0.13459761 0.3474553 -0.05129204 0.20917772 0.12946212 0.21027248 0.052643098 -0.34022853 0.084374994 -0.015653426 -0.43113586 -0.07304175 -0.09300461 -0.012401194 -0.076882616 0.15680408 -0.15872034 -0.051768124 0.32173142 0.106889494 -0.42955792 -0.465172 -0.018887592 0.08298634 0.052701384 -0.36416253 -0.33492795 -0.2141406 -0.057878282 -0.006674376 0.09092524 0.33304465 -0.21600193 0.04150224 0.06491923 0.25980192 0.41138282 0.7027058 0.05704468 0.21228994 0.2359313 -0.1469678 -0.28895116 0.030183952 -0.31424144 0.65997 -0.16392058 -0.39943776 -0.34781107 0.16385499 -0.291001 -0.007018462 0.17354073 0.06374217 -0.1467816 -0.19525303 0.42034578 -0.062520646 -0.0811387 -0.43091086 -0.33137685 0.043257136 0.064066015 -0.024460519 -0.73848134 -0.024325456 0.16210347 -0.28346783 0.60894626 0.3952783 0.0054449337 -0.08706476 -0.46118408 0.29041028
159 0.322451 -0.12843685 0.30462125 0.23998229 0.13564615 0.24518186 -0.06386654 -0.05080601 0.096658416 -0.36070046 -0.28252983 0.05609477 0.17391792 -0.1591679 0.11658005 0.36152598 -0.39316523 -0.21725719 -0.3767161 0.34050903 -0.17728259 0.13844682 0.04894952 0.7082907 0.19445448 -0.21215428 -0.10127976 -0.149982 -0.03369574 0.067538396 0.1343796 -0.4458865 0.3164605 0.14147206 -0.22946668 -0.21982895 -0.23576199 -0.13456134 0.1944798 -0.01920301 -0.06821923 -0.19083755 0.25397816 -0.39410484 -0.13332959 -0.17078897 -0.24481665 -0.31046373 0.0045987936 0.24610153 -0.008757585 0.34812683 0.10134236 0.24677344 0.37103382 0.083439216 -0.35327232 0.281446 0.19400293 0.5705372 0.58411896 -0.16837627 -0.019944957 -0.26026168 -0.07348761 -0.2351179 -0.037660994 0.37969583 -0.540156 -0.08590598 0.23399684 -0.46622592 0.38599205 0.30842122 -0.2545324 -0.18350115 -0.14606048 0.23262377 -0.61838186 -0.5808125 -0.171388 0.19790454 -0.1257051 -0.10163565 0.14414212 0.26574078 -0.13364485 -0.2741106 -0.010850461 0.19927318 0.17508385 0.17015153 0.085091084 0.05832248 -0.31444946 0.28112176 0.5076698 -0.063426256 0.2786323 -0.038973227 -0.28344706 0.050358314 -0.31930035 0.09234595 -0.4478071 -0.05593822 0.10037304 0.0011727028 0.105966486 0.49629283 0.468621 -0.43606207 -0.28705662 0.10684559 0.034781754 0.4071479 0.5692492 0.77507263 -0.08081036 -0.14775908 0.12951383 -0.2973857 0.46969977 -0.153519 0.32029903 -0.2584365 0.08013862 -0.19916423
42 -0.14239341 0.35683486 -0.09249233 -0.06976447 0.3943237 0.12278905 0.13243905 0.34713435 0.22893992 0.5137764 0.19114433 0.22226751 -0.2348956 -0.12544128 -0.47702393 -0.11009874 -0.26242465 -0.19371457 0.15820107 -0.054108094 0.15299428 0.20225069 -0.5616501 0.5266154 0.3442799 -0.06563639 -0.45371976 0.43813285 0.060871072 0.22278857 0.2376745 0.09751858 0.03343765 -0.28322434 -0.12458444 -0.3943142 0.05606665 -0.27265832 -0.11456427 0.23930125 0.072551206 0.69420594 -0.33490095 0.2557495 0.004587263 0.13380526 -0.60167545 -0.007720617 -0.6056375 0.34028855 0.46927828 -0.3839884 0.138302 0.4284341 -0.0015913473 0.3383577 -0.23671994 0.2053749 -0.16422823 -0.46474597 0.54028404 0.15003887 -0.34491885 -0.13379048 0.09225466 0.25639153 -0.2890827 0.086081214 0.11626713 -0.025966855 -0.016718881 0.35339683 0.72055227 0.12457798 0.012735081 0.3864417 0.37492022 0.06521229 -0.672035 -0.14750813 0.29718336 0.05124936 -0.31298092 0.38212037 0.47970247 -0.25885636 0.07295346 -0.04710668 0.03357673 0.23949994 0.3952959 0.06921801 0.11838043 0.10601249 -0.16450363 0.31564814 -0.07857384 0.12585652 -0.13789141 0.31545502 -0.17097095 0.05102608 -0.18599185 -0.059753686 -0.5171809 -0.0129577955 -0.1922817 -0.119782545 -0.08106615 0.66137046 0.33230883 -0.09736997 -0.073028736 0.37325796 -0.33964318 -0.086547635 -0.1839852 -0.14005268 0.051787402 -0.2555669 -0.10865109 0.11894402 0.17795497 0.05024353 -0.18527626 -0.3625745 -0.2550137 0.46479383
107 -0.1256635 0.31333116 -0.06214012 -0.116508 0.4534199 0.08913977 0.17823358 0.3301804 0.11117792 0.50125873 0.19709581 0.19795033 -0.21083759 -0.2044296 -0.35281026 -0.1505911 -0.16248955 -0.19256443 0.08166582 -0.16457474 0.064750805 0.28845927 -0.49286962 0.48653075 0.38016278 -0.14193742 -0.4923951 0.32567823 0.02228344 0.11309997 0.22497992 -0.009779479 0.12667744 -0.34078714 -0.21549544 -0.39138174 -0.021502303 -0.43569085 -0.08944916 0.098596126 0.119768925 0.7481192 -0.25811815 0.4107549 -0.06462676 0.13238059 -0.64111626 -0.01698217 -0.62948495 0.42751443 0.48892578 -0.4321328 0.1707506 0.38421825 -0.030836105 0.35256115 -0.16448794 0.24441135 -0.10230703 -0.34282038 0.49931273 0.037947748 -0.42475593 -0.18415895 -0.03660696 0.2578914 -0.31447965 0.13184226 0.15271525 -0.085309856 0.006131287 0.42499954 0.6974174 0.078018844 0.13008556 0.4387711 0.44065574 0.053759556 -0.5159423 -0.11656942 0.3844812 0.03978026 -0.36712486 0.38408077 0.51711285 -0.28679273 0.11615881 -0.080656946 0.006533156 0.23992528 0.34956008 -0.05446916 0.06645018 0.115499176 -0.20455107 0.28111726 -0.13347775 -0.0046533043 -0.037642036 0.19039549 -0.17898162 0.03217785 -0.18328962 -0.11786573 -0.52479184 -0.14715932 -0.11071978 -0.07256799 0.03410909 0.6076085 0.30444953 -0.023874883 -0.019695496 0.22962734 -0.28836524 -0.03005972 -0.19418706 -0.2330455 0.114391245 -0.32757923 0.050817627 0.088771746 0.2854532 0.04773451 -0.09248251 -0.35736206 -0.25754893 0.46354386
162 -0.05940781 0.3268184 0.027811436 -0.105769165 0.3926761 0.0990962 0.032316275 0.32925043 0.115520895 0.5729298 0.2736519 0.319923 -0.3072048 -0.18874072 -0.44893974 -0.103809096 -0.23755407 -0.27126044 0.024418164 -0.042860687 0.11132821 0.08145797 -0.5043739 0.48835275 0.30052084 -0.107011616 -0.43997583 0.37389845 0.084697366 0.10241798 0.18265922 0.058726467 0.040724188 -0.30258742 -0.22610295 -0.4057442 -0.07869549 -0.29330388 -0.08326383 0.12647879 0.05458762 0.6917499 -0.27890182 0.2161355 -0.004455916 0.122914724 -0.72580045 -0.010969274 -0.62626725 0.38626787 0.5174526 -0.56612015 0.23095262 0.5035129 0.106720656 0.31515643 -0.24389327 0.21668167 -0.18180631 -0.4493878 0.55393547 0.16505139 -0.37813142 -0.084656924 -0.013741056 0.3087442 -0.29753682 0.08226857 0.18411565 -0.13368264 -0.027342794 0.4069615 0.77368087 0.17500396 0.072090775 0.3210881 0.3429182 0.058947444 -0.5378676 -0.0576981 0.29533973 0.014751471 -0.28557777 0.36238495 0.43337095 -0.23016925 0.18189433 -0.012773812 0.061868593 0.21062201 0.33032635 -0.006656377 0.11682623 0.18484475 -0.049166176 0.3497063 -0.07221912 0.055759557 -0.017042663 0.34404695 -0.16079947 0.07846689 -0.17290945 -0.1344188 -0.51448834 -0.13623199 -0.14509885 0.01347367 -0.025060227 0.62001604 0.32868764 -0.07241106 -0.12533996 0.24040772 -0.31907183 -0.05816164 -0.14605963 -0.17496178 0.052637283 -0.4018796 0.012975483 0.079931214 0.30055845 0.013205046 -0.15922931 -0.29461038 -0.23100619 0.42334807
152 0.21107823 -0.16721027 0.09995799 0.15231267 -0.34256375 -0.06299637 -0.052404176 0.21233541 0.25202626 0.009647433 -0.3564573 -0.09346828 0.08384231 -0.35363227 0.19156888 -0.25262588 -0.22646646 -0.5381547 -0.3935933 -0.28303042 0.1321301 0.46814865 -0.6018854 0.10806061 -0.41109973 0.2719589 0.23751463 0.18585922 0.16576938 0.09588802 -0.20901552 -0.2461934 0.15141748 -0.119349375 -0.22354041 -0.30953616 0.18657912 -0.3989205 -0.24014516 0.26993337 0.07410875 0.1968566 -0.24551548 -0.3941545 0.101014495 0.050230917 -0.08961149 -0.4995813 -0.55340916 0.4779584 0.18930992 0.27258366 0.2031036 0.5678646 -0.31528437 0.02287446 -0.40787143 0.106537655 0.3018269 -0.07899775 0.0034303726 -0.6328417 0.30578053 -0.38798416 0.0032757695 -0.07932693 -0.51667804 -0.28953233 -0.17951316 0.0075690662 0.25954947 0.031017028 0.59680206 0.2599147 0.64482975 0.13021787 -0.037969574 0.05769723 -0.11741579 -0.13856292 -0.069124795 0.36026305 0.52671677 -0.19833481 0.20981827 0.2910121 -0.01660079 0.02888816 0.23890512 0.34078604 0.038689237 -0.19318782 0.07779117 0.22978939 -0.122223005 0.08252896 0.41531485 -0.4741469 -0.03973747 0.07347225 -0.08566594 -0.008451908 0.033697035 -0.15431014 -0.3229121 0.10525174 -0.063130826 -0.56161326 0.03182402 -0.08960205 0.38271907 0.22148612 -0.10002177 -0.18758395 -0.05669032 -0.32699698 -0.55409956 0.5340861 -0.07657399 -0.17220175 0.12018163 0.10413853 0.23028582 0.30611172 -0.0890722 0.09377691 -0.1328216 0.21636473
156 0.17028247 0.106900714 0.31154224 0.44190034 0.32866883 0.11049406 -0.043605253 -0.3500854 0.4590169 -0.12209012 0.13059972 -0.1238521 -0.038000144 -0.3361599 0.15779781 -0.065613724 0.1441014 -0.35442838 -0.08035934 -0.14295359 -0.25498456 0.24258882 0.088663004 0.17194536 0.50014776 0.14109965 -0.24043182 -0.20259254 -0.10491674 -0.26717302 -0.47932526 -0.5414326 -0.22994447 0.13875666 -0.004157198 0.12570746 0.05017181 -0.41331902 0.29984495 -0.021022953 -0.03804365 0.08048501 -0.03592745 0.13863978 -0.100377135 -0.14324269 -0.8685809 -0.031698577 0.17189589 0.022958117 0.2917106 0.26145023 0.05758381 0.2896539 0.30266148 0.37381947 -0.22655928 0.02560135 0.3350793 -0.048683584 -0.049544547 -0.10962398 -0.13125604 -0.3673332 -0.06843724 0.37624374 0.058310486 0.17216256 -0.40335667 0.056230117 0.34039927 0.116685115 -0.0617093 0.005907719 0.3111904 -0.31270188 0.3184657 0.3944206 -0.37398 -0.1194871 -0.15158132 0.10293584 0.08004635 -0.037595432 -0.023169113 -0.31135073 -0.31474715 -0.2975641 -0.3585986 0.22723271 -0.083965436 0.20073457 0.63781434 -0.039473314 -0.23870368 0.15887742 0.04731185 -0.19110367 0.051028274 0.7314813 -0.52593225 0.28161794 0.20848823 0.3537133 -0.11304789 0.46536013 -0.27788612 -0.022910643 0.66318613 0.15498725 0.11670349 0.31992942 -0.08778388 -0.30165198 -0.030317647 0.38163507 -0.45951238 0.28265283 -0.034882147 -0.049232334 0.2748879 -0.40371817 0.49560237 0.28006497 -0.34194392 -0.08368089 0.30159634 0.3295081
79 -0.0932048 -0.11133842 -0.16885486 0.0025424522 -0.04553879 0.0815401 0.30049846 -0.33161542 -0.43605328 -0.3509948 -0.16537558 0.045423634 -0.25151822 -0.41215312 -0.3721668 -0.049292438 0.18685745 -0.018448513 0.09167917 -0.31032285 0.52065456 0.18119372 -0.1097893 0.29657975 0.20390052 -0.35117674 0.1791783 -0.19497687 0.30851632 0.016379787 -0.3018712 -0.103439085 -0.18477048 -0.18375134 0.09201725 -0.30046856 0.36512145 -0.25785637 0.26391038 0.10682185 0.26215413 0.4047982 -0.15703773 -0.12582187 -0.2569783 -0.6708231 -0.42954963 0.04174487 -0.050388172 -0.4298588 0.40150258 -0.39701706 0.18800622 0.67183363 0.33826223 -0.43573934 -0.19977924 0.14597037 0.11560482 0.34942225 0.31484395 0.07355098 0.19262645 -0.23335391 0.034051634 0.038280733 -0.45080364 0.23672172 -0.10069115 -0.08023205 0.12328624 0.33752742 0.66986465 -0.24238451 0.0035196897 -0.08299099 0.12244499 0.01803052 -0.33765256 -0.13943812 0.21355465 -0.114534184 0.38593078 -0.6606974 0.07802747 -0.016505966 -0.12149651 -0.26728144 0.08531315 0.1252717 0.007996803 0.31768018 -0.29307863 -0.23175772 -0.31244004 -0.19766213 0.17869648 -0.38979077 -0.36038157 0.5015786 -9.8273915e-05 -0.4007903 -0.11232126 0.1655907 -0.1921565 0.07193885 0.20198551 -0.36720902 -0.045162644 0.2859676 0.43179992 -0.29582945 0.19858983 0.6293506 -0.20556754 0.5514526 0.33906057 0.08353863 0.13545428 0.061594047 0.59073454 -0.101805136 -0.06023874 -0.3129164 0.040981866 -0.048184406 -0.12696482 0.13583668
209 0.2130039 0.03356154 0.27346328 0.4850117 0.3636231 0.09103887 -0.0003171132 -0.42378357 0.45743826 -0.050830886 0.0991606 -0.09284706 0.02471801 -0.4018974 0.049167145 -0.024113216 0.12767714 -0.36596233 -0.039725758 -0.055037476 -0.27901238 0.34540233 0.014405093 0.27939954 0.5176528 0.08702438 -0.23260976 -0.23683447 -0.08747401 -0.24579075 -0.45356986 -0.4178984 -0.24332547 0.1281409 -0.06690378 0.123563096 0.034752935 -0.43697464 0.38171056 -0.01855716 -0.10065952 0.13738179 0.0037939874 0.17643198 -0.2008786 -0.20791812 -0.810681 0.040870003 0.21127991 -0.02699483 0.18785161 0.16619463 0.044344194 0.3097942 0.4757878 0.31756178 -0.2916586 0.029414319 0.27621514 0.024134554 -0.030265769 -0.062095348 -0.19175045 -0.348616 -0.029304354 0.40165687 0.07127781 0.14166836 -0.3934786 0.011446837 0.31319696 0.21607682 -0.13551249 0.041858725 0.30339932 -0.27241024 0.26668105 0.3929519 -0.36014643 -0.16798812 -0.23910765 0.1233241 0.111904606 0.023859184 0.03640675 -0.2644408 -0.34268245 -0.38005292 -0.38155156 0.3131609 -0.16302761 0.124529645 0.76999724 -0.057985645 -0.29721427 0.09952795 -0.029999722 -0.17456615 0.04165885 0.6745546 -0.53083736 0.22733362 0.13436769 0.40001693 -0.104362115 0.38662747 -0.33975163 -0.07258785 0.61081314 0.13451406 0.14556994 0.20068885 -0.033644017 -0.34004888 -0.085614115 0.3421333 -0.5015059 0.3329836 -0.13757454 0.013197792 0.22227612 -0.42252773 0.36031258 0.372143 -0.38294986 -0.018776696 0.27541608 0.26437327
141 0.35293034 -0.18695015 0.44529024 0.20003211 0.03381453 0.3552978 -0.22128108 0.014866667 0.13547355 -0.23332646 -0.1982151 0.10983892 0.18136495 -0.076808445 0.10078363 0.2651818 -0.41175145 -0.25555107 -0.28988108 0.324718 -0.13615236 0.24839392 0.07942705 0.61836 0.12853038 -0.32344222 -0.21078563 -0.1474053 -0.05675591 0.0142445685 0.088782154 -0.40368974 0.27802843 -0.03846695 -0.2419265 -0.2918679 -0.25145045 -0.11833253 0.2122913 -0.071548656 -0.058533046 -0.23184752 0.23112206 -0.3737329 -0.1454259 -0.13804972 -0.3551006 -0.31195903 -0.093963094 0.29907268 -0.106458284 0.2764863 0.17634471 0.25452167 0.5298587 0.035754915 -0.25463358 0.2159191 0.14304124 0.47321758 0.6575061 -0.18702395 0.06455414 -0.14714096 -0.16061793 -0.051841088 -0.085157864 0.28375855 -0.44535974 -0.095879614 0.19416991 -0.4097598 0.3811781 0.43081483 -0.15227823 -0.26141587 -0.30205157 0.09652802 -0.5435486 -0.5631842 -0.18378825 0.2162988 -0.17224036 -0.06580693 -0.030821124 0.11216946 -0.14667515 -0.25187612 0.000771563 0.15922292 0.16439807 0.20239152 0.08576837 0.01598057 -0.228937 0.31682506 0.5552583 -0.09156138 0.19627361 -0.093151025 -0.37120163 -0.011123178 -0.34973752 0.1979325 -0.44636846 -0.022773903 0.045342084 0.0032750645 0.09974153 0.4611708 0.45929274 -0.4844969 -0.21181977 0.012342427 0.06687363 0.51731527 0.6765131 0.7322364 -0.109135576 -0.041255984 0.14464845 -0.16365245 0.5971917 -0.07733742 0.22206879 -0.16905025 0.3060478 -0.2350671
202 -0.12144052 -0.21780702 -0.2251477 -0.5363672 0.15186799 0.2762339 -0.23196062 0.088512905 0.26914236 0.022306364 0.07967602 -0.29599696 0.118263185 -0.25313786 -0.2865068 0.35893142 0.2723067 -0.006413665 0.063635245 -0.38227773 -0.03696672 0.4252896 -0.31229022 0.4622069 0.5047859 0.22436155 -0.11687151 -0.39711767 0.111785054 -0.22709568 0.1574105 -0.7341177 -0.71195143 -0.5669513 -0.043172166 -0.14235477 -0.17923607 -0.19333154 0.24202797 0.22182879 0.33120376 -0.20588239 0.0014521468 -0.047542002 -0.14782605 0.07594499 -0.080646686 -0.17202203 -0.13122758 0.021653058 0.021600397 -0.21201895 0.14341135 -0.12340267 0.07259647 -0.8169521 -0.438536 0.23653759 -0.48272964 0.12811193 0.33489025 -0.2465732 -0.2145202 0.020780291 0.5916923 0.09272135 0.110892974 0.0897042 -0.32463333 0.26491332 0.016606892 0.13327354 0.28055364 0.1602035 0.12533888 0.20685653 0.058380056 0.56620556 -0.2551874 -0.22302811 0.3975512 0.01525974 -0.17325577 0.12325085 -0.35133007 0.18186985 0.43375546 0.06215142 0.11412993 -0.03766128 -0.14979336 0.29275888 -0.2735344 0.29787114 -0.08129302 0.7965828 0.20524408 -0.640605 0.079340585 0.33616728 -0.54976827 -0.41165674 0.1309207 0.086816885 -0.22855021 -0.19634753 0.14822112 -0.40391365 -0.29908118 0.09621401 0.34351987 0.3567137 0.08954595 -0.37763336 -0.06246302 0.10936669 0.23393586 0.027618023 -0.5033566 0.011177781 0.26653227 -0.16474453 0.44704384 0.20927027 -0.029997082 0.50242627 -0.08425684 0.28006992
102 -0.36763772 0.25618637 -0.10289903 0.07782569 -0.09472591 0.17969418 -0.3899335 -0.09546888 0.3472323 -0.054085337 -0.0048046513 0.056855798 -0.028721826 -0.38830245 0.5149673 0.282491 -0.03322885 0.034364805 0.025772987 -0.07122379 -0.04607367 -0.053104196 0.11386874 0.52707636 -0.25907773 0.2492949 0.3248506 0.029634036 -0.1584268 -0.3489672 0.2236831 0.1606849 0.16603309 0.095039085 0.16045745 -0.093479544 0.030105561 -0.556774 -0.0070506795 -0.0068683284 0.1504684 0.5602199 0.03671886 0.18071423 0.40738592 -0.26799858 -0.53782827 -0.55934 -0.3409946 -0.029185783 -0.40915814 0.23825228 0.38691774 0.58184147 -0.105393894 0.38082144 -0.0075157443 0.16908151 0.1186651 0.27126616 0.11579342 -0.37116143 0.14712586 0.024107138 -0.4589175 0.019732198 -0.0107147945 -0.036092397 -0.059083343 0.11969045 -0.23407966 -0.010967874 0.3380445 0.21347734 -0.308961 -0.5197964 -0.040858623 0.23345532 0.09018114 -0.34125736 -0.28989398 -0.18245943 -0.01665154 0.10482725 -0.016346456 0.19533299 -0.25288272 0.051782317 0.076914616 0.23609918 0.5119886 0.7083511 -0.038723085 0.26250088 0.33056 -0.09486709 -0.18565543 0.003196723 -0.40002716 0.5778297 -0.12008783 -0.3922755 -0.24525127 0.1545229 -0.19189492 0.01790868 0.109811924 0.046745453 -0.18256521 -0.19733965 0.35804904 -0.06478173 -0.11481721 -0.46547613 -0.3935197 0.101681754 0.07039141 -0.078967914 -0.6708004 0.07374203 0.09063977 -0.20683444 0.73314625 0.50842416 -0.11805586 -0.09282107 -0.48755783 0.31860682
71 -0.12843668 0.42666826 -0.049987648 -0.045685727 0.38405 0.016696908 0.11453461 0.37818304 0.19070497 0.5968339 0.22475275 0.1793904 -0.23137206 -0.130387 -0.37478462 -0.17605762 -0.2880135 -0.1768963 0.08702274 -0.0923779 0.07479959 0.12656733 -0.49005705 0.4458247 0.27418548 -0.045155313 -0.44821867 0.2795231 0.019151146 0.14030482 0.07556349 0.053240027 0.06491794 -0.3528929 -0.20369887 -0.46445367 -0.07845285 -0.43852153 -0.048985913 0.23437627 0.03551208 0.6845004 -0.34068337 0.29158956 -0.03756196 0.16461775 -0.6004745 -0.038832482 -0.659761 0.37880516 0.4213375 -0.5088709 0.24242903 0.4217288 0.055766966 0.30197543 -0.22203046 0.16288789 -0.13591675 -0.38360137 0.5689648 0.12460165 -0.4499859 -0.13340874 -0.015996983 0.36197117 -0.23782991 0.06786423 0.16182312 -0.0313989 0.002583854 0.31314984 0.69428307 0.1675695 0.062463112 0.4046996 0.39018303 0.06821738 -0.67154276 -0.15301615 0.21625255 0.019009652 -0.3059343 0.43618053 0.471221 -0.23671617 0.0921097 -0.09420145 0.055295117 0.23771933 0.39404586 -0.0454011 0.094563164 0.13576533 -0.16064915 0.2930616 -0.07579543 0.06755932 -0.041752253 0.27508384 -0.22823727 0.070869155 -0.20783368 -0.11648404 -0.54306906 -0.10902967 -0.17337559 -0.00095028273 0.07494388 0.5312968 0.24208957 -0.15978207 -0.0765195 0.23706348 -0.3614811 -0.12100268 -0.12413802 -0.2408634 0.08572899 -0.2990913 0.028760685 0.1463898 0.2256037 0.081512935 -0.11032888 -0.3484152 -0.32958618 0.44288647
164 -0.10804277 -0.2735935 -0.06758911 -0.4631764 0.16315202 0.18675429 -0.2610049 0.13473436 0.27991533 -0.013796061 0.1394708 -0.23133464 0.07023671 -0.2646571 -0.22309414 0.39615256 0.20563383 0.05725327 0.02672946 -0.390301 -0.13877381 0.38734788 -0.1647989 0.43184286 0.48528925 0.073316135 -0.044759203 -0.41825548 0.1868181 -0.26301762 0.16671269 -0.72927296 -0.72621953 -0.43144056 -0.104370095 -0.20172764 -0.2051508 -0.23924805 0.23643096 0.21938534 0.30748478 -0.023438653 0.06690591 -0.036449283 -0.08297917 0.08418245 -0.08751875 -0.27642024 -0.11559763 0.05861943 -0.01579509 -0.25235835 0.19011466 -0.09118294 -0.037408236 -0.8090149 -0.4433154 0.34890404 -0.5258324 0.07981244 0.35879776 -0.23716395 -0.16396417 0.033842877 0.55004585 0.017889868 0.1734765 0.11863966 -0.31847185 0.250365 0.07609081 0.06310012 0.39316058 0.2098018 0.18360806 0.17682649 0.12634693 0.38058457 -0.32197106 -0.28432178 0.50044924 0.06792785 -0.19834642 0.06890683 -0.4105767 0.17789039 0.39327198 0.013828011 0.0989035 0.06182542 -0.17916714 0.21009228 -0.27360347 0.34843034 -0.13117833 0.733648 0.051622577 -0.69114834 0.09219001 0.3806611 -0.4795576 -0.37019363 0.1915783 0.0699795 -0.15071966 -0.20216593 0.2370403 -0.43077698 -0.2606203 0.008459002 0.24048552 0.44293353 0.15937798 -0.37237448 -0.07623996 0.1967458 0.33441275 0.013968688 -0.50470895 -0.04568055 0.3797596 -0.073853984 0.38280764 0.23801701 0.10877287 0.5574506 -0.015055508 0.24740249
74 -0.38824335 0.13713191 -0.08072798 -0.054067325 -0.045266487 0.23555283 -0.47966322 -0.093128644 0.23104988 0.014295213 0.03963235 0.14660428 -0.0051174047 -0.54643315 0.49510154 0.17789008 0.0838708 0.10227515 0.041883655 -0.1923669 -0.022186425 0.19412786 0.15444069 0.40383527 -0.27493152 0.23940048 0.32195997 0.05979191 -0.22504646 -0.4011512 0.38984844 0.17829977 0.17866045 0.00089246314 0.22402488 -0.07907616 0.015514857 -0.49225837 -0.051207177 -0.0046810005 0.029731434 0.5731532 0.07245745 0.24924156 0.47187752 -0.27836412 -0.69630146 -0.49753112 -0.46253338 0.055387106 -0.40913442 0.19681568 0.37591127 0.52622104 -0.043781016 0.47469044 0.09993046 0.1692746 0.19678156 0.29970726 0.16048507 -0.4437822 0.12995976 0.06729036 -0.43493357 -0.10854384 -0.17728607 -0.07074432 -0.049670186 0.09570496 -0.19954313 0.07721677 0.39896372 0.18496732 -0.5044649 -0.58088785 -0.11454937 0.022314202 0.13709955 -0.3568203 -0.37691838 -0.16439949 -0.13145424 0.016643682 -0.067184314 0.19525358 -0.20160452 0.074620955 0.00032856906 0.2988132 0.41236633 0.6556164 -0.042343058 0.24032265 0.23376076 -0.123112634 -0.25131148 -0.00044766534 -0.25208429 0.592322 -0.12854409 -0.44627333 -0.36652166 0.13534799 -0.1803019 0.08169476 0.11388386 -0.08142212 -0.20894243 -0.05994357 0.46513078 0.14724858 -0.014409056 -0.46746927 -0.13219965 0.057917215 0.044428904 -0.021631692 -0.7241021 -0.041119576 0.04781677 -0.14640218 0.6104716 0.39885673 -0.14807074 -0.16225141 -0.25735855 0.25958633
98 -0.37587377 0.26549235 -0.068951756 -0.06457907 -0.09865697 0.3184318 -0.42003128 -0.013619264 0.22719043 0.036303055 -0.02852212 0.15092438 -0.024783595 -0.42150363 0.5346806 0.2560962 -0.035434633 0.055002823 0.015235728 -0.109725654 -0.0013639082 0.0928245 0.038428254 0.569662 -0.24142492 0.30898154 0.34533408 0.014644122 -0.28729814 -0.24362165 0.34251752 0.26294923 0.030932674 0.09713584 0.19232535 -0.07362496 -0.154291 -0.601673 0.12450435 0.0061158696 0.041941237 0.5609275 -0.08673889 0.15171337 0.40057102 -0.14911167 -0.64412415 -0.53538436 -0.51665485 -0.046611663 -0.33273754 0.26366904 0.42236164 0.48601663 -0.10083873 0.3424109 -0.058987655 0.13229114 0.02827941 0.2911028 0.016385915 -0.34002241 0.17056094 -0.07112137 -0.50088155 0.008505202 -0.08036565 0.00090167305 -0.011035803 0.0472193 -0.22406021 0.048440687 0.30496123 0.13349658 -0.37488732 -0.67680746 -0.10973137 0.23030752 0.085849404 -0.30365017 -0.40146658 -0.16522193 -0.06469123 -0.029134437 0.029856548 0.18761486 -0.23707663 0.13012709 0.011721483 0.28099376 0.4293863 0.64972043 -0.014042216 0.2107311 0.29812393 -0.063789554 -0.25538564 0.05881102 -0.36601096 0.5775273 -0.15018994 -0.39234844 -0.32384244 0.19095811 -0.07650147 -0.0015238245 0.11176743 0.08555673 -0.18159606 -0.17691779 0.5120293 -0.011558879 -0.015932877 -0.5236119 -0.34054455 0.14330995 0.034896564 -0.04499602 -0.61998916 0.04746851 0.05887703 -0.13590018 0.5549455 0.27689564 -0.21287572 -0.10352968 -0.48149598 0.20946424
180 0.11130751 0.17284432 0.26443747 0.3447297 0.17519668 0.06675619 -0.1125405 -0.34450883 0.33657494 -0.025137588 0.16415477 -0.035440195 0.00999443 -0.29317522 0.04481405 -0.0149966935 0.018492177 -0.327425 -0.1731407 0.022195823 -0.30107522 0.19734153 0.0300153 0.35225478 0.457445 0.14536127 -0.27452293 -0.07471812 -0.15991952 -0.22661494 -0.51831716 -0.4790475 -0.2898973 0.12307499 0.006416054 0.14062735 0.05752326 -0.44579154 0.38660836 0.0059277695 -0.10272753 -0.020633668 -0.029693639 0.20158088 -0.07557239 -0.22639677 -0.9326901 -0.14637044 0.123566546 -0.036188897 0.24251358 0.20947292 0.078266665 0.24610971 0.32590008 0.33329317 -0.25624868 -0.036309198 0.21162863 -0.011498962 0.00050199276 -0.015169203 -0.21848977 -0.24187832 -0.08184427 0.30685183 0.026548928 0.24296066 -0.34968626 0.1392532 0.39573538 0.14242655 -0.097344875 -0.0011285048 0.30462402 -0.41217473 0.38313478 0.42235085 -0.46240035 -0.23148912 -0.15692534 0.14332709 0.10511045 0.073594056 0.033421952 -0.24144064 -0.3414747 -0.34258482 -0.29392543 0.22199306 -0.12807618 0.27177244 0.73321724 -0.023828954 -0.31227076 0.14015111 0.057278335 -0.2258266 -0.025730204 0.60818213 -0.52630746 0.27213836 0.20938787 0.40651566 -0.058009375 0.48138282 -0.2445009 -0.085784756 0.71571624 0.012822677 0.13047431 0.25556928 -0.013534162 -0.259806 -0.05282669 0.41511926 -0.48892456 0.33017728 -0.020867504 0.051359527 0.28316587 -0.4286303 0.37101004 0.36639002 -0.35072967 0.0022529836 0.259112 0.23177283
86 0.19655202 -0.027936293 0.18947 0.2766144 0.26300675 -0.012180126 -0.18878095 -0.31066492 0.49699026 -0.15454286 0.103503875 -0.06783041 0.07673534 -0.37463245 0.073561326 0.058115024 0.12771896 -0.25224388 -0.17661235 -0.07443776 -0.3374333 0.33246976 0.24044167 0.2955014 0.3614565 0.1552895 -0.21082395 -0.16606571 -0.17554814 -0.23109733 -0.54090554 -0.54944086 -0.21673547 0.15489502 0.007526101 0.16476825 0.00904835 -0.4880744 0.3212601 -0.026241299 -0.2277844 0.067636095 -0.047491554 0.19283392 -0.07444319 -0.11682491 -0.831702 -0.009223757 0.18132119 -0.070441954 0.23102248 0.24239548 0.090420716 0.3061973 0.41169977 0.4127767 -0.17677541 -0.08632796 0.37902355 0.018246327 0.041835144 0.074632004 -0.26215926 -0.19392052 -0.08520296 0.4838339 0.054086585 0.21301858 -0.30749094 0.0005114281 0.29893827 0.24959153 -0.040767826 -0.028665207 0.16818963 -0.34920165 0.2796805 0.3173888 -0.4766555 -0.17288265 -0.17980744 0.14885356 0.07785735 0.06976485 0.065121256 -0.30624312 -0.30332327 -0.2644005 -0.33488634 0.2713682 -0.15253584 0.1870229 0.68765163 -0.111705214 -0.27214807 0.23072375 0.014818876 -0.24791344 0.043330487 0.6195643 -0.62679 0.24170592 0.1780286 0.35452154 -0.22063458 0.53528684 -0.25838935 -0.14503217 0.6249503 0.11739463 0.2695909 0.31755254 0.088584416 -0.33444965 -0.05397337 0.30574682 -0.4950675 0.358845 -0.067394674 0.053820048 0.21841137 -0.35426673 0.37560743 0.38059136 -0.33374548 0.017278947 0.22071978 0.3352304
99 0.31941223 -0.08722255 0.3913011 0.14684817 0.021133762 0.25487667 -0.24443792 0.051879726 0.056181613 -0.3287351 -0.28917268 0.1617533 0.22179535 0.001719966 0.073261894 0.30549616 -0.36115205 -0.2129587 -0.34777802 0.22054036 -0.057169743 0.18143786 0.104600966 0.70420045 0.13160533 -0.29815352 -0.102829285 -0.005929678 -0.12606192 0.04279347 0.035486475 -0.44406947 0.30831355 0.015464747 -0.12824474 -0.17900096 -0.32476267 -0.2180499 0.13317746 0.025448812 -0.18815914 -0.1371327 0.12200109 -0.32934242 -0.10853179 -0.21561849 -0.38204545 -0.40429068 -0.123322785 0.2217634 -0.045310985 0.261824 0.19168055 0.2785135 0.5049004 0.056931082 -0.2346025 0.21614248 0.2338256 0.590938 0.57432514 -0.2744266 0.050847825 -0.16960564 -0.14277337 -0.16807115 -0.14510651 0.3741858 -0.42939192 -0.124076486 0.2252735 -0.41683584 0.42509556 0.34445742 -0.23888879 -0.2770871 -0.22773251 0.082514726 -0.49616647 -0.5372534 -0.1169614 0.29814136 -0.10147638 -0.115949064 0.027001243 0.20961529 -0.19657172 -0.25230023 -0.026283555 0.0530028 0.1367508 0.17959054 0.05822901 0.0030660369 -0.28003863 0.31548423 0.503803 -0.14228877 0.28854463 -0.16782552 -0.2853946 0.008602868 -0.29301223 0.19040868 -0.41659662 -0.0024995576 0.10239976 -0.039946392 0.08044305 0.4155121 0.44900835 -0.33704016 -0.23735942 0.022529874 0.19204381 0.52215105 0.59118044 0.8199894 -0.054942098 -0.10403234 0.069259845 -0.24338996 0.5141839 -0.1336224 0.3452758 -0.19903481 0.28405213 -0.21891491
56 -0.10376258 0.26770493 -0.04095537 -0.12533465 0.3460093 0.06329386 0.06457539 0.3803991 0.1557504 0.6067546 0.2638302 0.26006117 -0.25700146 -0.10551772 -0.43578374 -0.15349814 -0.3218815 -0.17511031 -0.029045006 -0.08264256 0.05085761 0.10394929 -0.4540929 0.42705235 0.31192768 -0.10045968 -0.50069267 0.3977347 0.080810726 0.25529653 0.09171583 0.010310645 0.062397633 -0.3737208 -0.23360139 -0.3333274 -0.09608469 -0.4277507 -0.14600739 0.15011755 0.028626887 0.70288324 -0.2993147 0.3522052 0.014443736 0.16166545 -0.6980714 -0.06794895 -0.6545337 0.4061428 0.37632263 -0.5327455 0.32190382 0.47791433 0.008768289 0.24107535 -0.16327792 0.10221584 -0.19728476 -0.3807566 0.608224 0.23199031 -0.32304928 -0.007254395 -0.027217079 0.3414031 -0.3018725 0.102691285 0.16946092 0.014481978 0.046597607 0.35339874 0.7559 0.19770052 0.08115586 0.3331849 0.38529524 0.076659374 -0.52012193 -0.15013269 0.29585266 0.07236128 -0.3072761 0.4448683 0.45990667 -0.24626221 0.07194831 -0.11952005 0.10294274 0.21086198 0.32688662 -0.033103358 0.060280934 0.18015546 -0.10623552 0.32307348 -0.10611944 0.09166043 -0.04918558 0.3534687 -0.28214353 0.10948409 -0.16829696 -0.13485916 -0.54853565 -0.090427734 -0.12426322 -0.09219072 0.028803881 0.55416644 0.23491979 -0.15384302 0.0024803078 0.21761057 -0.33496016 -0.015639521 -0.14771278 -0.2983441 0.10068518 -0.25375113 -0.009544126 0.17867354 0.21731493 0.043185268 -0.20757107 -0.25220108 -0.2884559 0.5141926
188 -0.16197792 0.30731916 -0.09212944 -0.1204443 0.43116388 0.083024636 0.13483496 0.36158636 0.1112935 0.5371609 0.18022816 0.26398087 -0.1800812 -0.09335374 -0.3903151 -0.063417085 -0.22727664 -0.1609782 0.06306146 -0.12786171 0.09755962 0.2169225 -0.47661376 0.5372688 0.2968511 -0.22430155 -0.3986336 0.39386612 0.060666922 0.13838737 0.2244317 0.08449031 0.07485304 -0.32277527 -0.20583081 -0.41117185 -0.043540694 -0.48148552 -0.010393723 0.10935218 0.07943691 0.7837124 -0.40258482 0.22909229 -0.055914253 0.15152279 -0.70580673 -0.03998996 -0.7087382 0.30756035 0.54164815 -0.4763738 0.1628243 0.37165877 0.057059996 0.29721475 -0.27545053 0.2689997 -0.119165815 -0.4277039 0.54302037 0.07945149 -0.35504052 -0.076932676 -0.029302077 0.3773409 -0.32081428 0.12347298 0.21424972 -0.09855608 -0.006251499 0.41945913 0.703587 0.13201015 0.14588429 0.34586772 0.35207745 0.011660295 -0.62351614 -0.07588058 0.38447186 0.11007139 -0.31157696 0.4045384 0.48737478 -0.31152427 0.07908085 -0.016573051 0.06371746 0.2386943 0.3710592 -0.01657048 0.1760116 0.10589568 -0.08037911 0.25181857 -0.09430431 0.0587463 -0.13575669 0.23437627 -0.21350518 0.05742202 -0.15599313 -0.029359572 -0.45835447 -0.052879952 -0.13939516 -0.025793362 -0.04837437 0.58769226 0.25364456 -0.13683872 -0.094592325 0.18166812 -0.33672503 -0.07097391 -0.15115955 -0.12377557 0.020120338 -0.23227036 -0.061493494 0.116318665 0.2767131 0.15448059 -0.08431095 -0.32560688 -0.26294014 0.40950447
165 -0.12059991 -0.1969419 -0.014125004 -0.48796237 0.14447427 0.23390117 -0.2214547 0.12742107 0.26820117 -0.032792185 0.035940632 -0.26503542 0.23706855 -0.28152433 -0.10649264 0.38927668 0.24672166 0.0785091 -0.051157244 -0.44909692 -0.099884324 0.36453265 -0.21097267 0.3684338 0.47942692 0.1326071 -0.103379846 -0.36565948 0.18706834 -0.3020919 0.16514242 -0.7122953 -0.8039446 -0.46000525 -0.16688019 -0.104410045 -0.30879453 -0.22757727 0.24683791 0.16323172 0.33357945 -0.016477471 0.051613938 -0.14068305 -0.13815865 0.110626966 -0.1988057 -0.266054 -0.11505545 0.07949047 -0.04317051 -0.23796734 0.17938362 -0.21575724 -0.033656325 -0.7501438 -0.49013868 0.29750764 -0.5773611 0.1237917 0.28537712 -0.078271285 -0.17502277 0.11686931 0.6286618 0.13408175 0.102508545 0.11068972 -0.33507815 0.30218706 0.094621554 0.15298524 0.41084775 0.14589755 0.20937213 0.16879307 0.106082164 0.45857307 -0.26786312 -0.2620164 0.44358253 0.095654555 -0.21506995 0.09352546 -0.34183297 0.16745068 0.4477083 0.02660541 0.121881776 -0.12049603 -0.22175029 0.23600802 -0.35063562 0.2956182 -0.10151107 0.8033927 0.09488823 -0.62876064 0.0017384215 0.36797133 -0.5918699 -0.42681617 0.15294196 0.121529944 -0.21937692 -0.27327734 0.23181228 -0.24797802 -0.29964674 0.06849226 0.2766973 0.2862742 0.106322825 -0.33398324 -0.12756085 0.074443996 0.32129467 -0.0039766827 -0.42877063 -0.063562416 0.32406488 -0.21677345 0.37505773 0.05107746 0.053414658 0.5643866 -0.025430804 0.2840172
134 -0.26264074 0.42177546 0.0031556278 -0.032770935 0.41014233 0.10229678 0.14086005 0.32447767 0.21510647 0.49951854 0.21233933 0.2481599 -0.055316433 -0.22100829 -0.40348157 -0.03807466 -0.15158245 -0.14004253 0.11700318 -0.06350167 0.14628828 0.1593592 -0.61554515 0.44385782 0.2419719 -0.12482098 -0.5185462 0.3677836 -0.055320565 0.2288848 0.17099433 -0.014852987 0.09818377 -0.19932078 -0.25877404 -0.36552843 -0.15177254 -0.33445904 -0.056954637 0.18443443 0.10392783 0.6464244 -0.39591587 0.21368358 -0.076969706 0.2761259 -0.72439003 -0.061245732 -0.7522183 0.34531966 0.43400952 -0.43815944 0.18196417 0.38996696 0.060054127 0.27571085 -0.21054779 0.23591867 -0.22388464 -0.49537373 0.46003485 0.25510356 -0.29389414 -0.08577256 0.039521128 0.30813694 -0.2735021 0.034118325 0.16014564 0.06384512 0.11088701 0.30015758 0.6491482 0.08483064 0.19122207 0.38934776 0.45684943 -0.028388144 -0.6095854 -0.1270195 0.32491606 0.05799668 -0.19512813 0.41424072 0.60432553 -0.21286021 0.15278353 -0.0642183 -0.026767503 0.20210128 0.40530264 -0.020456787 0.09607216 0.11251811 -0.2016066 0.30544814 -0.15839508 0.038991675 -0.085571095 0.16448757 -0.24458016 0.07233404 -0.24056864 -0.12639219 -0.5817647 -0.0999413 -0.18825231 0.051226866 -0.0116838785 0.55252844 0.2737577 -0.15357697 -0.07466473 0.2776783 -0.33555478 -0.07089985 -0.19543082 -0.23649904 0.14446266 -0.3773479 -0.02485034 0.021949407 0.33885238 -0.040168345 -0.02211906 -0.24372834 -0.237225 0.4244514
127 0.18510635 0.15657255 0.27041236 0.40287477 0.3478412 0.1328458 -0.15973848 -0.3983544 0.37838694 -0.16791588 0.07219448 -0.052096922 0.03637885 -0.3072402 0.071233526 -0.02553974 0.16046932 -0.29746497 -0.10315318 -0.06131348 -0.24682243 0.2282063 -0.041578516 0.2817922 0.52719533 0.11036587 -0.1828804 -0.10406593 -0.18620652 -0.21766596 -0.42166173 -0.52904576 -0.20048313 0.16953383 -0.13465677 0.17324503 0.019995715 -0.41100013 0.42162508 -0.058232024 -0.07806895 0.07031584 0.004138442 0.07788802 -0.13722527 -0.20419987 -0.8950107 -0.04977289 0.115207836 -0.06633833 0.25906238 0.29327747 0.037853878 0.2633158 0.4327717 0.4034892 -0.28728485 0.001992985 0.16232562 0.05113618 -0.029751932 0.012382972 -0.24473707 -0.25273195 -0.0029229831 0.38815752 0.051085673 0.14679149 -0.2868343 0.14116293 0.28485218 0.20957045 -0.1483674 0.056339256 0.39077953 -0.32528543 0.3337734 0.4315833 -0.38783655 -0.120572604 -0.17383923 0.11149503 0.023386324 0.07520264 0.15837973 -0.21352085 -0.33489463 -0.2819358 -0.3386202 0.25672254 -0.06916285 0.15366639 0.6962376 -0.1371473 -0.25877106 0.050123774 0.07038661 -0.20391187 -0.06528841 0.5786498 -0.6382154 0.30346552 0.19972952 0.40797514 -0.11371193 0.39304063 -0.32105547 -0.04133975 0.6982404 0.092050724 0.17794634 0.23260589 -0.007983236 -0.31630147 -0.17186075 0.29838657 -0.5299624 0.3917799 -0.083954126 0.08895312 0.21145573 -0.43555033 0.4105236 0.30841756 -0.4548997 -0.02353561 0.25545374 0.3140213
104 -0.18213642 -0.12573972 -0.2569133 0.036704794 -0.033865858 0.079743296 0.27263254 -0.24516603 -0.40758044 -0.35909536 0.0102449395 0.04275666 -0.14224988 -0.4093959 -0.290888 -0.068396606 0.19599125 0.044035643 0.044845287 -0.41642192 0.4978991 0.10761788 -0.16040377 0.3696803 0.16953859 -0.28546724 0.15470567 -0.1607258 0.26982978 0.038527697 -0.36817402 -0.11388697 -0.2522098 -0.02173446 0.02807454 -0.23706964 0.3097931 -0.30454722 0.3929064 0.14555539 0.26406425 0.23464036 -0.09858479 -0.22893447 -0.2446751 -0.6433563 -0.46293166 -0.17214005 -0.13576283 -0.45986786 0.33657485 -0.36347762 0.2171605 0.6353722 0.33501068 -0.46237046 -0.14351583 0.056586087 -0.024049154 0.4438503 0.28822118 0.28817344 0.12812649 -0.16664892 0.10377243 0.10327751 -0.50899255 0.23427407 0.015594208 0.0069549386 0.19540414 0.28883266 0.6573047 -0.22519104 0.06699645 0.046367586 0.16163203 -0.044094834 -0.32132035 -0.20702821 0.20670955 -0.0115080895 0.3408344 -0.548865 0.19315489 0.07911818 -0.08699096 -0.15962 0.059776537 0.090565845 0.08793107 0.3199817 -0.3239533 -0.2890531 -0.33117107 -0.21955873 0.23756039 -0.39084238 -0.41446185 0.47553563 -0.16428064 -0.39632043 -0.2023603 0.16841288 -0.24445672 0.083821006 0.1822302 -0.33418456 0.09679106 0.24713653 0.37971142 -0.47651216 0.2665114 0.6039559 -0.21360348 0.52823424 0.35345247 0.025587872 0.19577776 0.1670198 0.52225685 -0.15180676 -0.056971647 -0.32628605 0.083859414 -0.068335764 -0.14625418 0.048151374
179 -0.398199 0.2736102 -0.09140495 -0.018547991 -0.07258397 0.17836136 -0.29144144 -0.13046461 0.19898342 -0.08673147 -0.099494904 0.13510089 0.044057947 -0.47326133 0.62423307 0.39308295 0.05128535 0.07163538 0.029874673 -0.0535176 0.011244805 0.023697589 0.1517067 0.44087484 -0.19504438 0.22120437 0.33154595 -0.012666905 -0.17961332 -0.3444246 0.423837 0.20664813 0.13494448 0.117575 0.23088452 -0.044151813 -0.17401159 -0.3904026 0.09385261 -0.08792123 0.15904814 0.5250717 0.05635812 0.1760869 0.42405182 -0.21730892 -0.7981187 -0.52886534 -0.5575781 0.0672526 -0.381701 0.3183395 0.450913 0.43642002 -0.08630339 0.4000775 -0.023951957 0.16966328 0.07505126 0.26199692 -0.023901423 -0.3985821 0.11703634 -0.04196204 -0.4178558 -0.008660874 -0.103857815 -0.0896754 -0.043959163 0.121782884 -0.20594649 0.12213141 0.2965709 0.07624569 -0.2237271 -0.53257805 0.018608332 0.18099415 0.10858116 -0.2499967 -0.3358942 -0.20597695 -0.037096336 -0.124442786 0.12911697 0.16936393 -0.27450082 0.13483533 0.025518915 0.27333143 0.5336821 0.6876411 -0.006005272 0.21413271 0.33729628 -0.012775864 -0.20750096 0.11846368 -0.3168257 0.5858138 -0.114956 -0.40178534 -0.33172998 0.14205104 -0.1596264 -0.07413082 0.16608828 0.20403467 -0.26038423 -0.10133727 0.4997904 -0.05383558 -0.19328187 -0.5108078 -0.33210918 0.077811 0.031181412 -0.067409046 -0.56182885 0.058681555 0.138937 -0.21234617 0.74620354 0.322493 -0.20024215 -0.15064041 -0.33969676 0.21507615
158 -0.16303639 -0.058123466 -0.341236 -0.04322124 -0.08334047 0.11598511 0.35804117 -0.15176478 -0.36038882 -0.34969616 -0.0917157 0.018547568 -0.09240993 -0.449241 -0.33429077 -0.115936965 0.2604788 -0.027553774 0.048893075 -0.3589272 0.59160656 0.10631456 -0.21154772 0.33379242 0.11694891 -0.36028165 0.1937806 -0.107535645 0.27436078 0.030955633 -0.32967725 -0.18543282 -0.21118435 -0.24056761 0.037078172 -0.26578254 0.41680586 -0.31227487 0.28429887 0.20807411 0.21132626 0.33442906 -0.19128066 -0.12283818 -0.2969865 -0.6138133 -0.41284326 -0.10636025 -0.17834276 -0.44626456 0.28193873 -0.28909937 0.20440684 0.6591644 0.4233062 -0.52856874 -0.11006421 0.14906818 0.1206876 0.4466103 0.37504593 0.15733755 0.13451226 -0.06753962 0.053039346 0.108236544 -0.43893832 0.18451102 0.031620044 0.023796326 0.22726281 0.28954408 0.59220034 -0.2513324 -0.010386681 -0.014332033 0.16556506 -0.062514745 -0.37475044 -0.15246308 0.192802 -0.035091702 0.32414335 -0.6113165 0.10891334 0.03092227 -0.08846577 -0.2145373 -0.028495096 0.0932785 0.08312986 0.29909813 -0.2660751 -0.2619172 -0.39108405 -0.15213026 0.107713155 -0.3935121 -0.321388 0.30386513 -0.06318314 -0.40760106 -0.1972971 0.19322573 -0.2769949 0.076450735 0.15792185 -0.28649473 -0.051582713 0.26435015 0.4244575 -0.37975177 0.2601832 0.69164944 -0.19386977 0.57707465 0.32499486 0.0713264 0.15953131 0.14100723 0.49789912 -0.22975422 0.047133937 -0.32142827 -0.0153267095 -0.012290024 -0.047952916 0.09573744
169 0.103495784 0.04666948 -0.6714864 -0.08518848 0.111216426 0.013417997 0.18461664 -0.02544498 0.19725275 0.21002696 0.027228327 0.0034913877 0.06666833 0.032328524 0.3690088 -0.1793675 -0.041992884 0.4018447 0.040300157 0.20358221 -0.39644676 0.26623914 0.094090454 -0.045152985 0.36929205 -0.41956612 0.1376382 -0.075654276 0.3364159 0.15238951 0.09431246 0.05418605 -0.0773363 -0.098942146 0.20356911 0.04554506 -0.06029431 -0.22086832 -0.13226892 0.48654503 -0.1610877 0.30665138 -0.23778988 -0.15827799 -0.15691999 0.11968931 0.11780336 -0.1752582 -0.3756826 -0.2036249 -0.058339983 -0.15904117 0.65912765 0.44950926 0.12681039 -0.020706309 -0.035346337 -0.2318944 -0.52940094 0.18618487 0.43858922 -0.028589625 0.0015956623 -0.23970847 0.061261974 0.07432279 -0.5154282 -0.28772908 -0.07668531 -0.09014233 0.043623693 -0.20513126 0.41697097 -0.41874084 0.30034727 -0.8162491 0.27720812 0.14206225 -0.2906333 -0.1367981 0.060868192 -0.22503029 0.2530727 0.34478033 0.1763956 0.15563487 0.5477734 -0.3632869 -0.28468415 -0.1461351 0.10599663 0.4460052 0.24001597 0.51163894 -0.45503715 -0.12717101 0.010405139 -0.2905819 0.008245146 -0.040723287 -0.4155494 -0.25132748 0.056855123 -0.43230036 -0.2278724 0.15931937 0.14490421 0.14851849 0.1377923 -0.2781731 0.20925243 0.14716987 -0.45344663 -0.30839223 0.033914402 0.10981279 0.09466962 -0.16686821 0.18530889 -0.08143813 0.1421806 -0.38169378 0.58198434 -0.012415657 -0.4601198 -0.3417257 0.0566895 0.51196986
31 0.24723291 0.030243142 0.20313135 0.28200814 0.26065433 -0.034253582 -0.1471437 -0.40870637 0.4844868 -0.19536054 0.14753094 -0.10349835 0.04672503 -0.24848522 0.11996702 0.010956625 0.2436558 -0.20737512 -0.13539845 -0.12542127 -0.25551814 0.2145592 0.124632195 0.3736094 0.47535712 0.08182335 -0.20842189 -0.13404272 -0.080508485 -0.30784035 -0.51492727 -0.48371434 -0.2820717 0.20946485 -0.0292706 0.12811512 0.025532827 -0.45861423 0.34672242 0.03920386 -0.078029364 0.118119955 -0.06672992 0.09432334 -0.10438582 -0.2015578 -0.8550715 -0.015748627 0.13192604 -0.1384047 0.23037748 0.18826498 0.1197386 0.34910876 0.4309613 0.38460964 -0.23133276 0.020606602 0.2028362 -0.0066444576 0.028985979 0.050403874 -0.21181144 -0.22260393 -0.09772864 0.46618327 0.06269402 0.16430517 -0.32706067 0.096629485 0.32897347 0.23834105 -0.09180249 -0.018517155 0.37091315 -0.31398547 0.34221217 0.3386574 -0.44181693 -0.16386412 -0.19098395 0.13182682 0.03913579 0.09492004 0.08587121 -0.23156197 -0.38662437 -0.2633018 -0.32722148 0.25624368 -0.123708695 0.17330891 0.7331296 -0.16653426 -0.2787448 0.15313713 -0.04425649 -0.13869403 -0.00801362 0.5218212 -0.5447514 0.38177335 0.23514785 0.41457865 -0.14555281 0.4666006 -0.29321623 -0.019161789 0.62993425 0.09293338 0.1983636 0.23882987 0.04883955 -0.2648574 -0.1332426 0.30341172 -0.5301795 0.4226839 -0.10102289 0.07714333 0.24539188 -0.38254488 0.4004775 0.34218112 -0.37293828 -0.047237664 0.22807826 0.34684217
78 0.0733124 -0.09795332 -0.06016813 0.07508665 -0.22567534 -0.100583285 0.10102874 0.24635376 0.24278641 -0.029010406 -0.41839877 -0.08516866 0.08219804 -0.30341786 0.25282338 -0.23699877 -0.22679625 -0.48583746 -0.3566409 -0.3042107 0.15206969 0.38239557 -0.62245035 -0.0040608724 -0.30945 0.25125158 0.26438335 0.22604199 0.18057124 0.15931349 -0.107106954 -0.2310656 0.05401636 0.02552297 -0.27724293 -0.2841384 0.15665801 -0.30361977 -0.08657366 0.322263 0.1845452 0.15649696 -0.3023291 -0.44575402 0.11469382 -0.03125319 -0.1413573 -0.49057344 -0.69562614 0.42540112 0.0644694 0.46315345 0.2607398 0.41997755 -0.32508394 0.103852496 -0.48002446 0.08935264 0.10350018 0.011596822 0.0047000227 -0.6135611 0.15253192 -0.42542148 0.0026986692 -0.007923793 -0.45863438 -0.256031 -0.23802797 0.049201615 0.2098207 0.14481375 0.5991384 0.25190982 0.84970427 0.08493311 0.0782289 0.09046835 -0.13470612 -0.20573352 -0.114698894 0.4292319 0.39457384 -0.17427313 0.3632843 0.34136936 -0.11560945 0.045108095 0.30446458 0.43179467 0.15284625 -0.1257588 0.074642755 0.17964663 -0.26119703 0.18482146 0.3462617 -0.4748765 -0.11929502 -0.12474439 -0.18888585 0.052091707 0.030410647 -0.066299 -0.23451045 0.08130389 -0.03992184 -0.5193021 0.037654273 -0.1766975 0.40035188 0.15751565 -0.03417549 -0.120020196 -0.06883367 -0.3970613 -0.4405145 0.53962964 -0.029257355 -0.06435123 0.15318847 0.09538871 0.19578618 0.2596181 -0.14053307 0.17661251 -0.067923576 0.23819622
29 0.10356223 -0.060753018 0.027235754 -0.046899356 -0.28669655 0.054278444 -0.08138503 0.27654427 0.32700032 -0.086855285 -0.39772725 -0.09284141 0.11647444 -0.33788007 0.25263804 -0.22203451 -0.20676 -0.46208236 -0.38470605 -0.33764035 0.1423274 0.45199415 -0.6430672 0.05891002 -0.32555208 0.22660767 0.2510427 0.1781289 0.17132722 0.23382303 -0.14910817 -0.21525727 0.04452906 -0.046917245 -0.22498281 -0.20787501 0.12601964 -0.35945106 -0.1539212 0.24516633 0.19533227 0.21230318 -0.29508466 -0.31444052 0.11284268 -0.00125078 -0.1820549 -0.43312457 -0.64744097 0.34974235 0.091298796 0.35892645 0.24518882 0.44488373 -0.24702235 0.12639897 -0.3748297 0.06168357 0.1837856 -0.0069347504 -0.09143892 -0.60620147 0.26232475 -0.40332416 -0.07903101 -0.033706166 -0.48230723 -0.28889462 -0.23836572 -0.057148263 0.21107486 0.10184727 0.54178184 0.19556242 0.93793035 0.07780623 -0.0055232155 0.082612686 -0.10406518 -0.20045084 -0.20618357 0.42589414 0.46734372 -0.17054178 0.2562287 0.4064698 -0.061670598 0.07647015 0.28102946 0.3402891 0.005449385 -0.14525281 -0.009942254 0.12786041 -0.29715642 0.12915844 0.41648948 -0.564794 -0.042538848 -0.12974252 -0.23140931 0.1248472 0.03033093 -0.1281663 -0.30641717 0.024915863 -0.050911307 -0.4629276 0.057044316 -0.07314898 0.3895844 0.19538806 -0.051742274 -0.17379883 0.050544377 -0.38092664 -0.5021667 0.6167199 -0.0072373603 -0.19275275 0.14435045 0.12802854 0.17904742 0.1782751 -0.085127965 0.10403153 -0.13505675 0.2718996
3 0.18413438 0.107080825 0.29805502 0.46592033 0.35990617 0.09821582 -0.12810753 -0.31419277 0.43543297 -0.19965316 0.13427003 -0.05134263 -0.055922244 -0.35270056 0.10599358 -0.099885345 0.19086912 -0.36622587 -0.14269143 -0.061897337 -0.2682757 0.280177 0.06760927 0.3047774 0.38316157 0.123587176 -0.20259029 -0.14174049 -0.14796329 -0.20419386 -0.50349575 -0.4261029 -0.28987232 0.1320601 0.08661734 0.18258269 0.059535317 -0.48189998 0.3929102 -0.03813572 -0.07745734 0.015338084 -0.10222794 0.13509609 -0.15177777 -0.12784964 -0.89728 -0.08819134 0.093251124 0.013179628 0.1621414 0.27904427 0.10125076 0.34533107 0.3381815 0.3459825 -0.3204671 -0.08639607 0.27451062 -0.0026823126 0.07124473 0.023776662 -0.1684531 -0.23110494 -0.03806334 0.42084655 0.08985707 0.22315857 -0.319464 0.008582686 0.34098682 0.16268615 -0.13191043 -0.016267473 0.29943728 -0.36620024 0.3412077 0.4834169 -0.41359317 -0.12728773 -0.076795205 0.08934568 0.093192175 0.029192738 0.025330376 -0.31416878 -0.2951108 -0.28338638 -0.37830085 0.21463588 -0.13274403 0.2673871 0.6620145 -0.11113669 -0.2831154 0.1259574 0.062477157 -0.19519265 0.07996905 0.508921 -0.5398058 0.28622758 0.2704342 0.39361462 -0.1357629 0.44458172 -0.21704586 -0.029283488 0.6493543 0.12769148 0.14861478 0.32963806 -0.047341682 -0.2805146 -0.09890155 0.32764584 -0.48059678 0.318073 -0.07895796 0.062236335 0.15325904 -0.48503113 0.40522784 0.27164474 -0.35703722 -0.05700156 0.32456487 0.39114428
12 -0.4091782 0.21178071 -0.1455726 0.016479377 -0.018891977 0.18902004 -0.39343524 0.037025798 0.32920417 0.045596957 -0.0066857324 0.112161525 -0.034103468 -0.46670133 0.49437907 0.2409575 0.0641566 0.036558162 0.044393495 0.018320814 -0.0590521 -0.03396547 0.041526776 0.5355376 -0.24592276 0.27688107 0.32006097 0.0027510296 -0.19713327 -0.37109894 0.36608168 0.25364324 0.17337151 0.14090644 0.15430695 -0.04825972 -0.060866375 -0.49819663 -0.0011304881 -0.059393212 0.15366751 0.5777827 0.051670577 0.14885104 0.37973815 -0.21706311 -0.6432979 -0.5416323 -0.43960157 0.01669171 -0.46546215 0.3205784 0.39146337 0.58882254 -0.10115836 0.40938598 -0.032589495 0.15244453 0.15375426 0.35560378 0.056867063 -0.31373495 0.24675667 -0.017460128 -0.33853996 -0.009924622 -0.031268243 0.0137622515 -0.05473495 0.114598565 -0.12588564 0.0013350458 0.32605794 0.15204193 -0.34023002 -0.57528454 -0.032702677 0.2693368 0.100425415 -0.27990526 -0.28021437 -0.17573479 -0.0642706 -0.067128435 0.047165718 0.15340278 -0.29094785 0.021131562 0.039805055 0.23856951 0.51250017 0.58138996 -0.011764959 0.3138906 0.23417524 -0.1144032 -0.20331812 0.07985029 -0.24064513 0.533691 -0.09460021 -0.43557972 -0.29984212 0.11712969 -0.2706178 0.08309184 0.16149208 -0.044049084 -0.18231417 -0.12212145 0.45301977 0.06606951 -0.03871265 -0.3566344 -0.3675105 0.118134335 0.0522504 -0.1891867 -0.7008804 0.04421857 0.04348449 -0.22213624 0.5753215 0.4156741 -0.16932456 -0.0438631 -0.45239568 0.37187126
14 0.18561088 -0.05824203 0.04812121 0.08350954 -0.298783 -0.034844104 -0.052829407 0.21732688 0.3280723 -0.2039913 -0.34403667 -0.09173977 0.17392185 -0.33799395 0.31828794 -0.22086903 -0.026208801 -0.524652 -0.35865784 -0.309894 0.09037922 0.41987684 -0.56656843 0.028401248 -0.42714933 0.22962153 0.24675474 0.25544354 0.20081452 0.16758947 -0.14052717 -0.25435072 0.091187105 -0.087133825 -0.27730823 -0.31869328 0.2641139 -0.3545771 -0.14566557 0.3417805 0.25806 0.23639001 -0.3462661 -0.40455416 0.08991351 0.076628976 -0.12293363 -0.49274302 -0.6773391 0.47035623 0.005325901 0.35033435 0.22937596 0.4880244 -0.28259575 0.00941161 -0.46586785 0.11337727 0.1119801 -0.09688898 -0.018743943 -0.54569966 0.31700832 -0.38714117 0.07105176 -0.018208575 -0.45800886 -0.29512596 -0.20799935 -0.04988146 0.21927579 0.13713181 0.50087863 0.26877657 0.833148 0.06008368 0.07312045 0.05728316 -0.13258772 -0.14829816 -0.15447374 0.38571873 0.4552852 -0.15880331 0.3146488 0.3780018 -0.057215545 0.068061806 0.19066843 0.3726353 0.08901386 -0.07160975 0.029619794 0.13915972 -0.29097605 0.12731934 0.36148536 -0.5196841 -0.049720436 -0.058459543 -0.2056237 0.060773443 -0.024350243 -0.1037826 -0.30529547 0.00825587 -0.10194282 -0.54511774 -0.015675176 -0.082813784 0.40646148 0.22243851 -0.01906237 -0.07516403 -0.0020839865 -0.4034221 -0.48832357 0.5570643 -0.013799851 -0.1380895 0.16343601 0.11041068 0.10299985 0.18978295 -0.080007255 0.1391401 -0.1350113 0.26719758
167 0.17588437 0.1253554 0.30726284 0.38315725 0.293747 0.07232266 -0.20083901 -0.49926934 0.39704046 -0.15605466 0.15529595 -0.091886565 0.07904338 -0.21194926 0.119525 0.009667329 0.13792823 -0.25960824 -0.07457414 -0.1432274 -0.116967596 0.13172927 0.1168615 0.31404385 0.35027027 0.18189956 -0.23068534 -0.14116892 -0.1620939 -0.33298808 -0.61692977 -0.5628053 -0.3127325 0.13742179 -0.015510158 0.116580546 0.027935985 -0.47568923 0.35952687 0.09082601 -0.07153369 0.041926548 -0.06694803 0.14145455 0.018196715 -0.19394591 -0.950949 -0.056457415 0.16339532 -0.02130422 0.18153921 0.11805323 0.135987 0.32498902 0.44210863 0.386915 -0.2718 -0.049364794 0.19149926 -0.13407803 0.015173797 0.036197007 -0.20665407 -0.20493776 -0.07232007 0.46301645 -0.011054117 0.08401839 -0.34242818 0.07378165 0.29270878 0.25247756 -0.095592916 0.016888099 0.26811063 -0.2634016 0.31217694 0.37038723 -0.44932863 -0.19151025 -0.15846168 0.15058243 0.053558692 0.14265463 -0.0021718335 -0.24721736 -0.2629885 -0.3017693 -0.30789626 0.20742446 -0.13228284 0.2596333 0.7395515 -0.12359079 -0.22167853 0.19240423 0.08419395 -0.18793498 0.0108342655 0.55361116 -0.6121946 0.30275166 0.20311725 0.34427395 -0.12491756 0.45041537 -0.27110004 -0.031133272 0.7055199 0.07100843 0.19421817 0.20033006 -0.04740897 -0.27252966 -0.076974355 0.29702717 -0.4681999 0.36757436 -0.08912228 0.06239105 0.25799865 -0.43609005 0.38131416 0.30742285 -0.3445295 -0.07134354 0.3607743 0.2363205
8 -0.3271107 0.18502584 -0.18077236 -0.04208436 -0.046039723 0.3364218 -0.4865635 -0.09749273 0.27910322 -0.026637593 0.0026039036 0.161196 0.043375555 -0.3838303 0.5317034 0.28380775 0.014807222 0.14381781 0.07755758 -0.08005061 0.051791172 0.09157973 0.2150819 0.5010118 -0.20637803 0.30458358 0.26202402 0.14214233 -0.16885528 -0.34385985 0.30947423 0.19120066 0.20450234 0.025600962 0.25963935 -0.03563101 -0.03895241 -0.5683025 0.03498602 -0.0047300146 0.118599825 0.64575064 0.00788022 0.1559627 0.48164967 -0.18979073 -0.6885581 -0.43937698 -0.30291882 -0.017541025 -0.44867727 0.26189643 0.38012046 0.50651634 -0.06454238 0.3500238 -0.013225168 0.24560593 -0.0018341497 0.20926227 0.09239034 -0.31699237 0.20994738 0.06887679 -0.37147236 -0.092884734 -0.021705285 -0.1221066 -0.12609343 0.20737739 -0.24438705 0.13637234 0.37275428 0.14577661 -0.30115366 -0.55967385 -0.052874573 0.21999724 0.07936645 -0.31638056 -0.35627303 -0.1995023 0.009783572 0.06544919 -0.07035259 0.19487378 -0.20690064 0.049597837 0.054698583 0.25408965 0.49055564 0.6679679 -0.014615874 0.2062049 0.3594611 -0.11797462 -0.11650907 0.052352495 -0.37651286 0.6522605 -0.21919306 -0.36986843 -0.2937394 0.087831765 -0.07976781 0.053136677 0.062010165 -0.0055957735 -0.21331851 -0.09322131 0.36874124 -0.030624457 0.027093824 -0.4916186 -0.30263174 0.12435317 -0.019437294 -0.13121441 -0.64654964 0.09216529 0.011205984 -0.15665083 0.56234384 0.45429546 -0.14027874 -0.13866107 -0.49276373 0.26982933
20 -0.18180914 0.0088227475 -0.24667387 0.005658843 0.0479557 0.09993673 0.21677285 -0.15718362 -0.42734566 -0.34888056 -0.124409 0.028788071 -0.09849078 -0.32800063 -0.31709683 -0.18259092 0.26963785 0.11134262 0.1190238 -0.3568621 0.5668855 0.09396042 -0.12919596 0.29296917 0.2491655 -0.32105714 0.15543658 -0.17038082 0.28237373 -0.04624631 -0.3472446 -0.12620637 -0.24136841 -0.21829444 0.075428806 -0.14800976 0.40928653 -0.33789968 0.20233816 0.17397325 0.32690877 0.27015486 -0.12516719 -0.088434674 -0.22132537 -0.6430831 -0.4412292 -0.036746416 -0.12217811 -0.45278978 0.293226 -0.3446445 0.20019127 0.5777121 0.31418812 -0.403979 -0.14434525 0.06947907 0.0073786452 0.35257244 0.32816684 0.14570606 0.16940351 -0.10731812 0.013065432 0.07769411 -0.51563776 0.17766552 -0.07990429 0.050492857 0.19645108 0.4373104 0.6798051 -0.20770827 0.14079511 -0.09247257 0.17403956 -0.04556789 -0.39580002 -0.197523 0.16778488 -0.038789496 0.39116076 -0.5782056 0.16234453 0.05053548 -0.13345681 -0.19452576 0.031237733 0.021046216 0.08579155 0.3437289 -0.41635036 -0.3077073 -0.26673228 -0.18032843 0.2570227 -0.35633403 -0.3975731 0.32916918 -0.013762222 -0.3863477 -0.08204587 0.203315 -0.2741139 0.15655799 0.21004373 -0.4032847 0.037950102 0.34200886 0.44050062 -0.35927242 0.25232285 0.7163623 -0.21310729 0.5269732 0.39246303 0.10827192 0.11577796 0.15953681 0.47738537 -0.1914269 -0.07395339 -0.31921118 0.06823324 -0.04389247 -0.112904646 0.2142064
122 0.11661975 0.09264461 0.47985774 0.3413146 0.2758617 0.044565927 -0.1287455 -0.24849692 0.4266331 -0.108694844 0.15040518 -0.041584525 -0.0021148073 -0.3456721 0.07217079 -0.08052066 0.04275021 -0.3565927 -0.20543589 -0.12601183 -0.27985686 0.21086179 0.05437924 0.28782937 0.45491478 0.14370733 -0.37885752 -0.16548266 -0.20522796 -0.36066887 -0.5080837 -0.5218233 -0.3048676 0.2207242 -0.012923006 0.15406692 -0.0034899348 -0.44794077 0.40081322 -0.10945153 -0.16143654 0.06534415 -0.0065467297 0.15763664 -0.09739359 -0.24055542 -0.8859659 -0.0838142 0.07838947 -0.030472713 0.24608219 0.19175586 0.116883956 0.22836149 0.3199657 0.5100826 -0.20106925 -0.06960106 0.24433504 0.04198262 -0.027368644 -0.019897178 -0.21093963 -0.2666231 -0.076188706 0.33302447 0.064434126 0.2385171 -0.35643154 0.016030049 0.3514663 0.1326281 0.014771156 -0.009752516 0.33439448 -0.43646985 0.36087498 0.29148132 -0.358326 -0.21798028 -0.14756969 0.08862892 0.034633253 0.065932244 -0.0038859083 -0.29253 -0.28496608 -0.34072363 -0.3231923 0.21053572 -0.20497729 0.16106029 0.5662668 -0.036935285 -0.33236656 0.09923687 0.031494837 -0.267624 -0.011803909 0.6570034 -0.52077985 0.3127035 0.17345983 0.39343917 -0.13706504 0.42001948 -0.22278756 -0.04917564 0.6890208 -0.012212363 0.13084586 0.37423295 0.032736402 -0.3719739 -0.018611604 0.33915496 -0.4432027 0.2722624 -0.09520426 -0.06200018 0.33902755 -0.3650765 0.45206416 0.371262 -0.329353 0.046970982 0.24908297 0.3077684
2 -0.23529042 -0.10578426 -0.16335927 0.1336326 0.050170083 0.15402243 0.23138043 -0.045779258 -0.3873145 -0.3670695 -0.031180717 0.05733931 -0.30194667 -0.45946425 -0.30558038 -0.042202912 0.18612689 -0.091363125 0.018238433 -0.5359495 0.48570225 0.24865504 -0.09285013 0.22948387 0.13195719 -0.38588834 0.09784958 -0.16181266 0.27576065 0.07049141 -0.3945914 -0.18705234 -0.34826964 -0.03309812 0.07727336 -0.28734443 0.37718022 -0.22576123 0.30343112 0.20103702 0.22596875 0.32910672 -0.053641863 -0.12161702 -0.3626582 -0.69358957 -0.3830958 -0.023401195 -0.1287977 -0.38797337 0.27371117 -0.38125557 0.19871968 0.727681 0.3452492 -0.47876722 -0.17815155 0.07217485 0.07904729 0.39940694 0.3190252 0.23449057 0.07714345 -0.18363807 0.048002854 0.13133949 -0.42068344 0.2858726 0.0010790208 -0.10711577 0.15764235 0.24806869 0.6836112 -0.28798097 0.09650174 -0.06069883 0.122335516 -0.11358485 -0.3661428 -0.18110164 0.099682905 -0.12908597 0.31666526 -0.5807209 0.11254225 0.06199554 -0.051014815 -0.22643077 0.04122835 0.1354304 -0.03047678 0.3758421 -0.36288717 -0.21541014 -0.41599742 -0.17438526 0.01657699 -0.4381887 -0.3334045 0.4895743 -0.12180822 -0.4844881 -0.14973542 0.16515386 -0.24880253 0.04458917 0.18917911 -0.23793654 -0.0050754966 0.20193203 0.346365 -0.34550148 0.19054307 0.705744 -0.10679899 0.46405137 0.30958703 0.09165115 0.10919495 -0.06285568 0.5118832 -0.16265552 -0.02384541 -0.32715324 0.0070578684 -0.096827984 -0.07901307 0.10376137
87 0.2296066 -0.119567215 0.14663337 0.10633793 -0.14490235 -0.052136377 0.0722734 0.3375762 0.2975146 -0.049808912 -0.39993796 -0.04893843 0.21563181 -0.38399503 0.34123778 -0.3116245 -0.277422 -0.4792327 -0.3050191 -0.2889747 0.15326892 0.49551278 -0.64692265 -0.017179485 -0.3730996 0.24877036 0.15881719 0.22569878 0.124137275 0.13467251 -0.27250722 -0.47312814 0.14752856 0.049655996 -0.25159642 -0.28507286 0.18761261 -0.40727562 -0.09673131 0.33004335 0.07337906 0.20445208 -0.3161796 -0.3678511 0.14121623 0.14184648 -0.073841766 -0.59623986 -0.64540374 0.34380552 0.045252815 0.30043456 0.13916682 0.40308595 -0.29217815 0.18750821 -0.48726222 0.21596196 0.0961779 -0.09816641 -0.119672775 -0.42816707 0.14722084 -0.35055792 -0.027027037 -0.10070868 -0.43471366 -0.41763476 -0.23965321 0.038728174 0.1772941 0.12313663 0.57561135 0.11754586 0.7570295 0.027236812 0.14678483 0.08028519 -0.18805005 -0.30894896 -0.2607148 0.33467165 0.44405663 -0.22382286 0.23633884 0.4201038 -0.025317458 -0.00326563 0.15055826 0.40334177 0.08982612 -0.09037265 0.039850093 0.14742203 -0.21143672 -0.019920906 0.23192549 -0.51137185 -0.12160552 -0.23962744 -0.10811999 0.017642824 -0.13956618 -0.058181282 -0.25226882 0.087560885 -0.0018184803 -0.51757777 -0.026092181 -0.17944585 0.532471 0.25167 0.13285121 -0.078168415 -0.09504879 -0.50096226 -0.46586567 0.58593005 -0.19431031 -0.16832602 0.1593063 -0.022144485 0.07679522 0.17821309 0.0145456605 0.0763085 -0.2534415 0.25528726
10 0.3371496 -0.022194024 0.31970268 0.06400143 0.20504698 0.30559176 -0.21540217 0.06113403 0.13404478 -0.40091002 -0.27250424 0.108771466 0.18028986 -0.038228747 0.061291117 0.2188176 -0.37830496 -0.19776504 -0.2390592 0.3654131 -0.073830694 0.049237106 -0.041938897 0.70914304 0.18925802 -0.3061908 -0.11883705 -0.08970448 -0.083887495 0.042662814 0.09000679 -0.48538244 0.23587486 0.086391754 -0.21875173 -0.14827883 -0.279104 -0.18751976 0.2822609 -0.10085071 -0.11807107 -0.1479324 0.115100384 -0.41540846 -0.049917873 -0.17483129 -0.35468453 -0.3663165 -0.04958518 0.14480025 -0.1059397 0.3187026 0.17048353 0.18422386 0.53879756 0.09160255 -0.2895803 0.28030565 0.06987967 0.6419298 0.68187034 -0.2868303 0.08121386 -0.12899199 -0.109963365 -0.084895074 -0.06958785 0.27103558 -0.42101368 -0.090556785 0.14728554 -0.33841807 0.42819697 0.43083498 -0.083837196 -0.24466033 -0.21977128 0.1451769 -0.60578215 -0.58376384 -0.14866056 0.28015715 -0.18762232 -0.07749132 0.021708544 0.21852133 -0.14976533 -0.21813142 -0.015599451 0.08089623 0.19053836 0.19432977 0.047561567 -0.021876058 -0.27204388 0.29594958 0.5544579 -0.18194373 0.21603955 -0.29812065 -0.29789194 0.1635772 -0.23146978 0.13486771 -0.45728618 -0.01744559 0.19389023 0.14423047 0.07031707 0.40949976 0.33671358 -0.38666117 -0.21824972 -0.016690928 0.06684896 0.49743298 0.6238138 0.6714718 -0.11395552 -0.09778704 0.07432813 -0.21162161 0.5408003 -0.14891265 0.3312941 -0.24417391 0.19436094 -0.10340687
225 -0.047447827 -0.5123798 0.33879468 -0.12266161 -0.7036332 0.01648929 0.13685384 -0.5591487 -0.06569989 -0.05790552 -0.13341188 -0.3700644 0.08526916 -0.24757436 0.8580106 -0.23838525 -0.071257114 -0.21345063 0.0044754236 -0.56771713 0.12001353 0.43280926 0.12449529 0.20055474 0.34438226 -0.49793136 0.16602363 -0.5037382 -0.09761811 -0.13909185 -0.036854856 -0.40265322 -0.20157498 -0.12185276 0.39388242 -0.25012973 -0.46473467 -0.13065353 0.4674484 0.36106285 -0.1822788 0.008451086 -0.7153679 -0.16450983 -0.11277253 0.020446751 -0.4973969 -0.26153862 -0.42200637 0.13678114 0.070587896 0.2844081 0.32870165 0.5111301 0.4311001 0.4313317 -0.22710356 0.068884 -0.18815403 0.6796819 0.60644346 -0.42005983 0.03378889 -0.02178699 0.51184905 0.09092497 -0.018027939 -0.039195772 0.16546875 0.11892762 0.19975963 -0.082058355 0.5793387 0.26390412 -0.30107382 0.33509335 0.20768102 0.4025507 -0.27623218 -0.23487437 0.1447744 -0.2869992 0.11920303 -0.31073654 -0.22281747 -0.32377982 0.20137762 -0.0021221903 -0.10153409 -0.031090876 0.018594401 -0.2215884 -0.38126725 -0.19847935 -0.27949208 -0.29889682 0.083320804 -0.66930205 -0.11050655 0.29109585 -0.102492906 0.09957247 0.16497508 -0.23165031 0.008408636 -0.1434083 0.041385964 -0.5572847 -0.10787534 -0.28181043 0.16426699 0.042786215 -0.40701935 0.5076355 -0.09445795 -0.26801962 0.1615768 -0.1853077 -0.23596248 -0.15767537 0.0048462176 -0.10073881 0.1750088 0.09529747 -0.10644286 -0.7291938 -0.48760635 -0.13392717
207 0.18228419 0.07567834 0.3479098 0.47915697 0.18039465 0.07085984 -0.15875071 -0.36702433 0.43423492 -0.24886043 0.0927976 -0.08080748 0.017481439 -0.2976074 0.00347682 -0.061385546 0.106255725 -0.230437 -0.13161016 -0.13031757 -0.09071611 0.1893049 0.06996646 0.22083515 0.40613496 0.11333463 -0.3882717 -0.16344883 -0.12937295 -0.19178718 -0.6296307 -0.5575403 -0.21141969 0.13312034 -0.09156598 0.16970368 0.009597391 -0.46490282 0.33763745 0.048811935 -0.09564215 0.06415769 0.023717873 0.16122307 -0.12479127 -0.22914086 -0.9344193 -0.08968304 0.12717189 -0.04562258 0.18270342 0.22936082 0.102897465 0.29614696 0.46573034 0.42367828 -0.22707441 -0.044586793 0.25955805 -0.0636894 0.056167413 0.005736151 -0.1806495 -0.2050314 -0.08253698 0.49030238 0.122898445 0.11250537 -0.30915797 0.10476077 0.30178356 0.25503504 -0.08833648 0.024026157 0.40992475 -0.24460666 0.32345626 0.31612554 -0.33399993 -0.19884618 -0.14750193 0.085506484 0.016986093 0.11128666 0.12468732 -0.27008557 -0.37035048 -0.3092867 -0.25528798 0.22943836 -0.0663819 0.25019428 0.6964819 -0.12974013 -0.20616841 0.047570303 0.0062779854 -0.19863586 0.02991958 0.632183 -0.6469961 0.34906733 0.2153874 0.34144983 -0.19326697 0.37075216 -0.24802071 -0.022264235 0.70542103 0.1279817 0.11729224 0.25423658 0.016457507 -0.25327393 -0.16068357 0.2708421 -0.45789033 0.33885753 -0.090838075 0.0053181862 0.3172616 -0.48901403 0.42904517 0.35521924 -0.34832883 0.011485147 0.35566995 0.30355132
136 0.4411548 -0.10765691 0.40672517 0.106745034 0.083030716 0.40761688 -0.22754654 0.026458273 0.15308817 -0.37742603 -0.3570157 0.050504494 0.20118195 -0.046564188 0.074488156 0.22484864 -0.4105003 -0.21520081 -0.26075542 0.37799335 -0.059270706 0.23377666 0.04851846 0.6558372 0.20789282 -0.36535314 -0.16427949 -0.10977745 -0.1177238 -0.06384523 0.17278941 -0.39193135 0.32128838 -0.04264785 -0.2161138 -0.1851928 -0.33577096 -0.14537033 0.15619014 -0.10283896 -0.15324071 -0.15638062 0.20403008 -0.41974917 -0.10934938 -0.13148347 -0.44619176 -0.335547 -0.10128154 0.2399076 -0.049632106 0.41095045 0.1426545 0.2394851 0.46504536 0.18140122 -0.294161 0.27129582 0.14644413 0.5369655 0.60030675 -0.15662724 0.120270304 -0.06302845 -0.006413594 -0.13444655 -0.13215742 0.2504885 -0.49286383 -0.12669218 0.15990381 -0.24934837 0.47429228 0.3611146 -0.2583804 -0.27923405 -0.2682187 0.098310225 -0.6022316 -0.5301919 -0.21769004 0.23952709 -0.17685296 -0.11685204 0.031476364 0.1568048 -0.08174502 -0.22070327 -0.040141158 0.092949905 0.182924 0.1675625 0.087143 -0.03835879 -0.26678473 0.30462095 0.531255 -0.11780064 0.18548943 -0.22907606 -0.26580748 0.15324758 -0.2793577 0.16964088 -0.492991 0.044401493 0.068468384 0.08696361 0.04649773 0.49411753 0.43463075 -0.3427526 -0.2046805 0.05574304 0.1125654 0.48902336 0.5830188 0.77751344 -0.05705313 -0.09695231 0.13971774 -0.22915907 0.577366 -0.14845395 0.18475279 -0.13312136 0.25417376 -0.13882522
198 0.16806148 -0.14274593 0.13611783 -0.013490617 -0.26776853 -0.10056804 -0.02175852 0.25710154 0.26899832 -0.06074251 -0.49654827 -0.010221102 0.01920086 -0.2704964 0.20531799 -0.26195356 -0.28515604 -0.44489434 -0.31521946 -0.2428241 0.16224411 0.45897123 -0.527811 0.015879864 -0.26595998 0.22629602 0.0865534 0.22355211 0.12044801 0.08286425 -0.15163627 -0.32622176 0.12095854 -0.112944834 -0.10611066 -0.135356 0.082985625 -0.2513521 -0.22848788 0.25947708 0.19797783 0.17607917 -0.2027547 -0.28162056 0.21142864 0.04179403 -0.23499079 -0.4244071 -0.67495286 0.36874872 0.043225642 0.34306675 0.2544992 0.436289 -0.37500596 0.13835274 -0.41350934 0.09310628 0.12850004 -0.099490024 -0.11585705 -0.55465126 0.32765293 -0.36172885 -0.047742937 -0.0671411 -0.48937035 -0.34641862 -0.24773772 0.005113534 0.21662055 0.20511286 0.74474806 0.3118634 0.85934055 0.040652234 0.12509628 0.088972755 -0.20403062 -0.21364707 -0.08265562 0.38883376 0.41605118 -0.21585786 0.2909869 0.32912147 -0.16652168 0.04811829 0.35035697 0.3604033 0.15844502 -0.107309125 -0.0050021173 0.15020531 -0.16352999 0.08173852 0.42097974 -0.5124805 -0.11131917 -0.11795077 -0.062403183 0.12642933 0.09308082 -0.10011574 -0.32546362 0.111364655 0.017396746 -0.6240965 0.0058539845 -0.0889842 0.33895847 0.2825848 -0.066537194 -0.12883747 -0.007354848 -0.3776209 -0.41417885 0.4826952 -0.06273919 -0.14690769 0.19055107 0.15993863 0.18322957 0.2588759 -0.043460872 0.2431276 -0.02371294 0.2829271
43 -0.3982981 0.2219061 0.0896525 0.07819638 -0.0033301227 0.14968976 -0.44546008 -0.09663174 0.24395192 -0.22378902 -0.05492402 0.13720179 -0.03611749 -0.41566718 0.5262812 0.31509387 0.021035336 0.10176609 0.0935697 -0.06257285 0.07175803 0.07042062 0.0074013625 0.4249137 -0.28233987 0.1909344 0.17498949 0.054951083 -0.20203337 -0.4006304 0.3815626 0.1430818 0.2555986 0.09898764 0.1560825 0.017926252 -0.065911695 -0.5258066 -0.012263117 -0.075787984 0.18154733 0.5330259 0.11885281 0.18939535 0.42939514 -0.23083715 -0.7137345 -0.5379282 -0.49594083 0.093065135 -0.41012055 0.30114308 0.37477222 0.5042353 -0.0983442 0.48190284 0.0036348656 0.2518826 0.057392664 0.2096812 -0.018415917 -0.2595669 0.18918456 0.0867093 -0.50231135 -0.14281891 -0.04643836 -0.1434748 -0.13091168 0.15774669 -0.23074016 0.19662812 0.4330643 0.20241347 -0.29996812 -0.6094377 0.0698542 0.1426233 0.16378048 -0.31223232 -0.2534034 -0.1970724 -0.082317695 0.0415434 0.07552065 0.18063955 -0.27528578 0.061538663 0.053557105 0.23434842 0.54659235 0.7390458 0.019620903 0.2398534 0.30080798 -0.17353173 -0.2583473 0.0031749522 -0.3880787 0.5612602 -0.12605643 -0.38249123 -0.28376305 0.10916577 -0.23593254 -0.10186133 0.16565026 0.039426304 -0.20563066 -0.07463477 0.34154394 0.059275776 -0.017930496 -0.47182393 -0.32370764 0.056341026 0.10155501 -0.1480931 -0.59175724 -0.01153929 0.16115518 -0.23866984 0.6563154 0.42070037 -0.11193746 -0.013853865 -0.33333856 0.19475797
276 0.08765596 0.016947016 -0.02821947 -0.017950624 -0.35789225 0.032754652 -0.28777462 0.23816031 -0.02086729 -0.14962238 -0.5752231 -0.038794316 -0.19186923 0.121045314 -0.15969066 -0.01230895 -0.17326966 0.047503486 0.3238355 0.02920264 0.2319577 0.37867796 -0.8317988 0.14792415 -0.12513869 -0.34268108 0.1625131 -0.32842794 0.13130543 0.32633513 -0.11700748 -0.7325791 0.067398794 0.48102313 -0.012647338 -0.11610378 0.111951515 0.09613884 0.08673346 -0.19818777 -0.059047837 0.32356125 -0.19267221 -0.27959844 0.36074308 -0.219642 -0.24282037 -0.19377686 -0.3869789 -0.23600443 -0.13003358 -0.5810762 -0.16026326 0.05883284 -0.08069264 0.07328201 -0.61901176 0.4408763 -0.34241274 -0.25547078 0.05531975 0.27694342 0.55897 -0.21019843 0.3108168 -0.0649373 -0.15860148 0.053809177 -0.048991285 -0.38211995 0.12222543 0.20941189 0.21066794 0.015114632 0.1819267 0.035182536 0.289565 -0.1509089 0.032168936 -0.15102403 0.029819168 0.081191316 0.11240582 0.17755514 -0.31915128 0.15492365 0.1281403 0.16390978 -0.30676937 -0.15031624 -0.6377049 0.03188019 -0.05388763 0.07541195 0.12999201 0.103231035 0.10579685 -0.10185344 -0.043842517 0.050603013 -0.2213856 -0.32479203 0.08689932 -0.022625191 -0.0170732 0.013235252 -0.14787777 -0.24299571 0.28053465 0.17297666 0.2600187 -0.23356198 0.13917646 -0.64182806 -0.07749687 0.32827544 0.39394617 -0.04086909 -0.025883758 0.09847491 0.43774018 -0.22146311 0.5627685 0.19398522 -0.060158186 -0.574384 0.13397919 0.6026652
64 0.012770848 -0.21041141 0.06889585 -0.036215466 -0.26258442 -0.004529968 -0.02496714 0.37499607 0.30562326 -0.112737015 -0.46138412 -0.120517194 0.12729134 -0.3943674 0.17021678 -0.20721622 -0.22800152 -0.39514008 -0.44306695 -0.28344837 0.2017612 0.5031079 -0.4601051 0.032017127 -0.4349357 0.21682164 0.18484217 0.18577158 0.12102112 0.10320417 -0.16357927 -0.23947752 0.14471382 -0.068142675 -0.30940825 -0.26428327 0.20929547 -0.36386022 -0.15856767 0.24879779 0.11526136 0.26266217 -0.28055295 -0.41406393 0.07775625 0.024492914 -0.1727213 -0.49666065 -0.65391654 0.43279976 0.06772341 0.4153474 0.20488311 0.57246 -0.2401557 0.16619015 -0.5114343 0.11139815 0.23086232 -0.03340587 -0.021909758 -0.5868563 0.21429488 -0.2388248 -0.012085084 -0.14198881 -0.43963477 -0.26560846 -0.27110633 -0.09452972 0.2554733 0.18794304 0.6139787 0.20299801 0.819178 0.10583185 0.12386912 -0.0038467231 -0.07430581 -0.13577132 -0.12492211 0.34880373 0.4042841 -0.12241082 0.23844786 0.30832207 0.053518355 0.015068621 0.28910977 0.4041125 0.008893562 -0.15513396 0.025656007 0.15215883 -0.16160786 0.057625115 0.3624507 -0.5515754 -0.048895203 -0.102931045 -0.18108934 0.07526271 0.009022029 -0.07338737 -0.32468653 0.031335436 -0.10965991 -0.52452254 0.033896927 -0.088161275 0.3962029 0.29386824 0.012208151 -0.26460692 -0.017895967 -0.42204094 -0.52116543 0.48341706 -0.1293559 -0.25417653 0.117506295 0.0686778 0.16036622 0.23828493 0.017026208 0.18511374 -0.11498148 0.25377166
32 -0.13984399 -0.024902912 -0.12518877 -0.011602191 -0.010592826 0.04134245 0.24861984 -0.2545247 -0.38975546 -0.3829569 -0.05611959 0.019975668 -0.15568554 -0.39221868 -0.40103874 -0.09731483 0.21447705 0.01144756 0.12840809 -0.3188407 0.535021 0.11004276 -0.17291766 0.2600962 0.14563371 -0.47378626 0.15448824 -0.22593324 0.28153983 -0.023435785 -0.37447968 -0.17578875 -0.20650844 -0.18584715 0.025720216 -0.20735984 0.42013556 -0.26370808 0.2730172 0.12075958 0.30128616 0.31248412 -0.1153315 -0.06640404 -0.27700254 -0.6166607 -0.39508268 -0.08301469 -0.13025823 -0.41089076 0.2218198 -0.2880166 0.19777784 0.6742097 0.28423995 -0.34808496 -0.1547312 0.08011012 0.10339884 0.4493551 0.32578602 0.2581622 0.14441167 -0.06867546 0.0013120935 0.07190643 -0.46910435 0.19161709 -0.03549071 -0.039064378 0.20986913 0.35474646 0.6387433 -0.15887207 0.08680922 0.021547234 0.19321567 -0.07478157 -0.32260936 -0.26832625 0.19577199 -0.027537424 0.35862607 -0.5916171 0.15395191 0.0016832316 -0.13967228 -0.17783347 0.0012343052 0.14558746 0.061831336 0.31487435 -0.36095044 -0.2842982 -0.34375653 -0.21681875 0.17524567 -0.4557782 -0.45028704 0.33903247 0.0071758134 -0.37885576 -0.1100994 0.20018071 -0.311987 0.085452296 0.14399983 -0.4324756 0.075135216 0.28075206 0.42292762 -0.32440946 0.34415564 0.5986617 -0.24286169 0.52104896 0.31027782 -0.008877983 0.1060057 0.15081207 0.56575054 -0.18168227 -0.043514255 -0.25229496 0.03938539 -0.037383646 -0.08703184 0.18075408
193 0.012478562 -0.26016045 0.056106493 -0.1754332 -0.20528473 0.005242995 -0.051255926 0.33122957 0.27001408 -0.08456351 -0.45529082 -0.12474967 0.07669629 -0.22215943 0.21388955 -0.27708274 -0.2132405 -0.45803666 -0.39185312 -0.29879102 0.101256676 0.38524678 -0.5256054 0.05050274 -0.3190728 0.24851018 0.10191869 0.18267806 0.107922986 0.16848427 -0.2274284 -0.28653365 0.20987478 -0.044911906 -0.220483 -0.2562513 0.14245945 -0.35597998 -0.19140804 0.25148118 0.18498342 0.2786695 -0.31924754 -0.4119226 0.118522406 0.08580943 -0.17916824 -0.44945627 -0.56683934 0.42402592 0.09463124 0.4340847 0.19289938 0.52094793 -0.27062318 0.13896473 -0.5318818 0.09530828 0.17107871 0.04578925 -0.040545247 -0.5660252 0.35175624 -0.30522 0.0030861879 -0.15477279 -0.5034951 -0.321482 -0.22135378 0.035604898 0.23036212 0.16619153 0.6099506 0.25109318 0.88801926 0.08966099 0.06526979 0.12608624 -0.002570374 -0.17043452 -0.15212171 0.42364553 0.47443187 -0.16442911 0.31747323 0.3362234 -0.059694484 0.036590125 0.33643797 0.40587747 0.057920996 -0.06107744 0.03441102 0.21677794 -0.1950501 0.094813794 0.44248092 -0.5275242 -0.05228822 0.012875384 -0.16205715 0.06366399 0.075547755 -0.09002492 -0.2936856 0.08348556 -0.036119737 -0.4725093 0.056878332 -0.055135064 0.29128096 0.18860939 0.03949116 -0.26515222 -0.02599138 -0.3391956 -0.5063296 0.4110169 -0.037018266 -0.12320397 0.12792748 0.096526906 0.09756064 0.20125826 0.020354485 0.15983705 -0.11744237 0.29341438
153 -0.059121456 -0.56909347 0.3663742 -0.13230735 -0.8442621 -0.06441293 0.09223939 -0.50088155 0.059414387 -0.19940017 -0.11143574 -0.50714695 0.06925746 -0.034862086 0.60205287 -0.17397812 -0.06593762 -0.064939775 0.008513923 -0.41956058 0.110241234 0.4033273 0.20847422 0.12880929 0.3268007 -0.6036714 0.017950175 -0.46331093 -0.054773007 -0.16921309 0.04563338 -0.36448753 -0.039126 -0.1783399 0.3710841 -0.1474096 -0.39907315 -0.07761934 0.3226157 0.39011565 -0.039211873 0.04311889 -0.5460791 -0.06339138 -0.1390829 -0.07497778 -0.7275439 -0.3130505 -0.39275607 0.16627263 -0.03341582 0.37569368 0.21639192 0.6455433 0.42245656 0.41986132 -0.33853373 0.009022128 -0.14934379 0.49580407 0.6905836 -0.35941154 0.22507787 0.21178183 0.51562864 0.009869181 -0.043576047 -0.082747646 0.16295467 0.20831227 0.1662805 0.06652582 0.6941364 0.33947587 -0.15020727 0.39853808 0.2871026 0.34013838 -0.10617879 -0.16466688 0.19536087 -0.36195257 0.16351818 -0.2699825 -0.17268127 -0.28123343 0.14809321 0.020251704 0.0045334715 -0.08201875 -0.005304166 -0.06027781 -0.28988636 -0.27494144 -0.24694091 -0.42468572 0.15773189 -0.7327984 -0.1596985 0.3212202 -0.05530222 0.18271774 0.3225646 -0.22071002 -0.10698367 -0.16527072 -0.021160627 -0.5438719 -0.0009612996 -0.17307268 0.042455073 0.023769967 -0.44907916 0.556873 -0.11814957 -0.39072436 0.13952267 -0.20148587 -0.26244846 -0.17721173 0.10141552 -0.1142217 0.22332665 0.12224059 -0.023838954 -0.5159708 -0.43104056 -0.07747107
255 0.26983637 -0.14629966 0.42937905 0.13034642 0.105066136 0.2583062 -0.29496232 0.014426041 0.11880942 -0.42017955 -0.27532202 0.10711504 0.17430305 -0.011875601 0.07988508 0.28829825 -0.27515417 -0.24537602 -0.20949075 0.39373493 -0.1394507 0.13901633 0.005826332 0.6599701 0.1309746 -0.3317001 -0.225897 -0.091917254 -0.12879257 0.016732385 0.12828621 -0.44748944 0.39493203 0.08977688 -0.23524709 -0.17959718 -0.27406538 -0.24686007 0.13659897 -0.082034506 -0.1400967 -0.11162683 0.21797672 -0.37212512 -0.10895066 -0.1609927 -0.36364976 -0.39424288 -0.10160257 0.29421422 -0.13859871 0.39063796 0.17434743 0.32111806 0.4934956 0.1336064 -0.3663672 0.30014783 0.15661392 0.5516179 0.5658919 -0.14435932 0.19260448 -0.15109985 -0.10304166 -0.2106711 -0.09920601 0.3164306 -0.51873165 -0.13604535 0.14167055 -0.35001522 0.377395 0.3300965 -0.1537164 -0.24695382 -0.22141287 0.14957263 -0.47267765 -0.5080716 -0.10483157 0.25489166 -0.15038905 -0.076916106 0.1323292 0.20830357 -0.15947813 -0.24087156 -0.054793153 0.10995642 0.10225467 0.20903876 0.11077623 -0.032670148 -0.29387853 0.2317271 0.48624128 -0.09613151 0.2107933 -0.13702331 -0.271417 0.017580848 -0.270084 0.17550178 -0.48834705 -0.07979886 0.09115143 0.06265497 0.043512225 0.5143216 0.38977128 -0.39275658 -0.18225256 -0.009561729 0.08235658 0.50586075 0.64340615 0.74210495 -0.06976627 -0.07974856 0.16202849 -0.2627669 0.4940669 -0.12344358 0.31874043 -0.12522875 0.23401412 -0.2345902
230 0.2991274 -0.33965197 0.34156537 -0.094700284 0.23795165 0.22936952 -0.02997 -0.3701274 0.059969146 -0.17685723 0.19230847 0.121033266 0.17168762 -0.5161813 -0.39362663 0.54814106 -0.035272297 -0.6714779 -0.4031435 0.3910738 -0.518136 0.35472274 -0.26320717 0.35451853 0.15608887 -0.20428295 0.27456415 0.1664133 0.24328215 -0.07921337 0.43279713 -0.8465658 0.11172876 0.25115177 -0.0033204327 -0.26807815 0.19142368 -0.30007687 -0.35111958 0.44274968 0.21305704 0.4387461 -0.66953474 -0.0038698083 0.2737196 -0.4696119 -0.7191687 0.17788813 -0.556495 -0.20779824 0.220847 -0.2627499 0.14953542 0.41096663 0.058882933 0.3266199 0.08067825 0.5400613 -0.10209567 0.3871492 0.20570251 -0.2770042 0.24907294 -0.32443067 0.004885574 0.052569155 0.40461454 -0.40190113 -0.059041068 0.83104795 -0.0456469 -0.20965032 0.31478542 0.2848125 0.021612857 -0.21834025 -0.03424372 0.08587587 -0.08153322 0.08979428 -0.42097205 -0.32467225 0.034547236 0.5810514 0.029457267 0.34473446 0.30318516 0.24011347 0.060229838 -0.09962449 -0.52331036 0.2177955 -0.36191007 -0.22841366 0.014863131 0.029044196 0.10868062 -0.034010213 0.14772743 -0.2400247 -0.4440273 -0.46244594 0.24724579 0.12230198 -0.3533037 -0.068194434 -0.05618087 0.30712414 0.64499533 0.37090582 0.092730254 -0.3500423 0.27246428 0.12201561 -0.47848094 -0.0824582 0.38675156 -0.3228111 0.005699092 0.07052499 -0.17985564 -0.40009364 0.29214713 -0.11635084 0.28704214 -0.23902127 0.65859634 0.41989523
160 -0.21156448 -0.21877031 -0.12744756 -0.5213942 0.18552288 0.29643628 -0.29645002 0.10676068 0.292009 -0.13756149 0.05974051 -0.29530326 0.11871418 -0.11030175 -0.2656195 0.31032127 0.24831831 0.032055885 0.061641216 -0.45083636 -0.056258053 0.3879605 -0.20090574 0.37125814 0.543144 0.03861493 -0.103048846 -0.2928277 0.14985192 -0.23640743 0.15162429 -0.70664227 -0.77042097 -0.46043235 0.033231325 -0.15266512 -0.22521327 -0.19361892 0.2429566 0.20713988 0.35225034 0.053841528 0.032306995 -0.023886861 -0.1362714 0.082941204 -0.16789724 -0.29304546 -0.095247984 0.058297794 0.025649615 -0.24875578 0.16753535 -0.1464454 0.034512322 -0.7650824 -0.52389514 0.30906716 -0.5931795 0.07535115 0.32050171 -0.20590328 -0.16239831 0.14160393 0.7394634 0.05957721 0.06940512 0.044124864 -0.40720186 0.29733834 -0.019366318 0.11115649 0.4228665 0.11540469 0.26271242 0.095811486 0.15240735 0.57695174 -0.29945293 -0.26556844 0.42810333 0.08169566 -0.19625187 0.07639857 -0.49642685 0.17918192 0.4246605 0.039693013 0.11626423 -0.05792863 -0.1788353 0.29482257 -0.21455087 0.26503214 -0.07705981 0.74843097 0.16900443 -0.6321542 0.03130544 0.32875374 -0.57257485 -0.28423765 0.1563306 0.12181147 -0.20513701 -0.19823033 0.18497036 -0.32981083 -0.3812195 0.16713896 0.26225212 0.37070855 0.10666947 -0.31886238 -0.055182982 0.14175238 0.36811054 0.05816391 -0.47536427 0.000111781155 0.3336995 -0.16667858 0.44255412 0.108388826 0.034480967 0.56302774 -0.03848967 0.2400606
212 -0.12759957 0.34001333 0.011076578 -0.06883222 0.35357773 0.03393506 0.12660544 0.2988083 0.12456636 0.3944011 0.098489136 0.18034291 -0.24657704 -0.20169567 -0.38665885 -0.11253998 -0.24479903 -0.066236235 0.13486496 -0.07723765 0.17429456 0.14199847 -0.5408187 0.48025364 0.2884489 -0.15896428 -0.5299504 0.24827234 0.0705387 0.11800068 0.19374795 -0.03783753 0.15799993 -0.37996167 -0.23570415 -0.305666 -0.014547959 -0.44452155 -0.15664314 0.16329591 0.07493473 0.68354094 -0.26646125 0.3517125 -0.039480995 0.16370237 -0.6408126 -0.077340215 -0.55659294 0.37106264 0.4578365 -0.4645014 0.12418895 0.3984635 0.024306437 0.34260258 -0.28100213 0.2163485 -0.07028333 -0.4481991 0.5185725 0.20726305 -0.38273478 -0.04734434 -0.098830864 0.31576672 -0.2972814 0.07960306 0.13352369 -0.015363038 0.059831697 0.45889178 0.77380484 0.14174458 0.1926124 0.48827326 0.42957902 0.05900292 -0.57939464 -0.14249937 0.40440044 0.10514523 -0.28927177 0.3958579 0.56071824 -0.25815934 0.08319416 -0.09293426 0.056917064 0.16448084 0.2984749 -0.013058398 0.13020582 0.13745062 -0.060166836 0.25839376 -0.08483805 0.0950197 -0.06267715 0.27834153 -0.19026545 -0.005799605 -0.11419098 -0.15747717 -0.61928374 -0.2098721 -0.14207163 -0.022066444 0.05434235 0.68849564 0.26041523 -0.1348548 -0.1136209 0.19851503 -0.4073225 -0.11958449 -0.12786572 -0.23199175 0.07707301 -0.3688101 -0.021330504 0.010255884 0.26337138 0.045248758 0.007314625 -0.29611772 -0.25696278 0.4253474
108 -0.1470726 -0.22879875 -0.14024347 -0.47095102 0.21245687 0.28450942 -0.21912947 0.1492271 0.27576378 -0.01664259 0.012668537 -0.256372 0.12549783 -0.34891155 -0.30480632 0.2897297 0.2415356 0.14042722 -0.09381608 -0.43225628 0.0087599475 0.41459042 -0.26884988 0.3787205 0.5448627 0.24907137 -0.12645595 -0.40929958 0.12406101 -0.2377552 0.12333636 -0.744673 -0.6299953 -0.41450673 -0.14738457 -0.15246622 -0.2639293 -0.26060516 0.259428 0.2002399 0.27066422 0.013856708 0.04748989 -0.13982262 -0.1820169 0.07022485 -0.12777825 -0.31618673 -0.12657154 0.11810208 0.010904267 -0.2754692 0.14934985 -0.20868081 -0.005811042 -0.7877187 -0.5548417 0.30696902 -0.5088111 0.20316982 0.32771876 -0.09296035 -0.27371368 0.08989626 0.57935435 0.048920285 0.26612183 0.11118335 -0.32474846 0.46283585 0.08950273 0.04671962 0.3320203 0.12974612 0.15148585 0.14869696 0.1721671 0.58935994 -0.22347304 -0.20044275 0.4501811 0.026545482 -0.21656969 0.14587851 -0.29488185 0.19210462 0.3095418 -0.016798325 0.14565717 -0.082886875 -0.122232586 0.18554486 -0.31895307 0.2786523 -0.05010446 0.71151555 0.17139383 -0.6038535 0.032067113 0.34140825 -0.58360535 -0.35857242 0.093945056 0.14001626 -0.20083094 -0.23334712 0.20520669 -0.37417272 -0.32626995 0.08633825 0.26506153 0.29520538 0.17171128 -0.38056624 -0.16683449 0.05401639 0.24554715 0.019833792 -0.43971682 -0.04122109 0.33514133 -0.200149 0.35956606 0.18484119 0.09918257 0.5423979 -0.18396528 0.276452
28 -0.3112749 -0.26904973 -0.25311965 -0.58026755 0.3048738 0.34353575 -0.304313 0.113500886 0.124315575 -0.05688453 0.052334316 -0.22424601 0.11529677 -0.24823582 -0.34983933 0.5450697 0.25601798 0.064644754 0.023620594 -0.3403421 -0.14111643 0.2984965 -0.11043598 0.4390326 0.6322216 0.038341608 -0.10774517 -0.3815202 0.15372153 -0.20169817 0.08610076 -0.7004877 -0.7115371 -0.41448814 -0.13300481 -0.18513964 -0.15037847 -0.16338243 0.22761011 0.1963116 0.39023125 -0.0070312913 0.0689269 -0.005551964 -0.07747226 0.13749702 -0.07714277 -0.19982134 -0.2349679 0.080353014 -0.03853763 -0.23011474 0.14578782 -0.14315085 0.050556816 -0.7699299 -0.55259895 0.34801632 -0.5681712 0.13487235 0.32732582 -0.2029574 -0.06502972 0.014335044 0.56962556 -0.0010163476 0.10161402 0.101771936 -0.40038568 0.22233266 0.11439183 0.1324837 0.32406607 0.09366513 0.20796996 0.075441845 0.18649244 0.63331914 -0.2675325 -0.2907509 0.43974197 0.07780665 -0.14088254 0.08013058 -0.32275248 0.21182123 0.35414392 0.07031246 0.08490821 0.093672216 -0.14799775 0.23286648 -0.17475888 0.2493982 -0.07763694 0.76698047 0.049256638 -0.6313074 0.12689945 0.34488994 -0.5005774 -0.27626243 0.11297348 0.088591725 -0.16400637 -0.17776333 0.24565642 -0.356245 -0.3385069 0.064105466 0.3644197 0.42987394 0.12186337 -0.33629534 -0.053621728 0.12228598 0.15531579 -0.041286755 -0.53680974 -0.04639954 0.32289717 -0.263039 0.3138666 0.21925321 0.043436978 0.48278856 -0.10580465 0.19639534
101 -0.1694509 -0.21929458 -0.18188807 -0.42563447 0.29580268 0.2593608 -0.19834717 0.20227078 0.33666962 -0.107740015 0.013487922 -0.31470862 0.18289755 -0.2778319 -0.29705748 0.32501072 0.19884127 0.08227695 -0.08316243 -0.33855253 0.009294461 0.38177544 -0.07159841 0.49715424 0.63969743 0.044317994 -0.10871807 -0.36478952 0.23825498 -0.20477198 0.19518016 -0.74410146 -0.67085016 -0.37849328 -0.081391826 -0.19052082 -0.29849166 -0.13722207 0.21705794 0.17178747 0.3653488 0.05742526 0.105886556 -0.08818525 -0.16777575 0.0840162 -0.10827202 -0.23259479 -0.10820144 0.1154927 -0.102476984 -0.21982358 0.18761909 -0.24150667 -0.015350692 -0.8448529 -0.5170502 0.42990527 -0.59565365 0.1588207 0.25819585 -0.22960126 -0.17928392 0.033383165 0.6653448 -0.08058391 0.23758969 0.014276252 -0.4669707 0.39425236 0.091898605 0.085974485 0.36524606 -0.014054387 0.18968183 0.18267424 0.21305248 0.41784126 -0.27919695 -0.32418618 0.3639921 -0.09196049 -0.22178929 -0.02678829 -0.3844233 0.20551 0.33766055 -0.06080842 0.030504234 -0.0035808706 -0.06986324 0.20937628 -0.23730555 0.34392613 -0.09802058 0.78778166 0.010031406 -0.55693144 0.06729237 0.32557085 -0.5018851 -0.31403297 0.11958713 0.05810675 -0.22152129 -0.20623828 0.17291927 -0.41208628 -0.34499604 0.080173925 0.3485329 0.395974 0.24518608 -0.33629468 -0.12876411 0.09404128 0.23062639 -0.020210356 -0.4499915 -0.029485472 0.42951638 -0.15006529 0.36260918 0.18442014 0.06940814 0.48355523 -0.2043923 0.44032773
