2000 128
483 0.47737828 0.25615594 -0.047463153 0.0363357 -0.32309315 -0.01322365 0.07563769 0.0042323056 0.0785244 0.15858349 -0.1812005 0.0094715 0.11917702 -0.15742604 -0.08931555 -0.37988555 -0.7347156 0.4583656 -0.57764196 0.11600993 0.17561701 -0.0020478729 -0.53349215 0.03208957 0.4227933 -0.7219028 -0.5085553 -0.1378298 0.21292114 0.19698003 0.076495744 -0.2967986 -0.1833176 -0.37741718 -0.14123374 -0.27167296 0.21956247 -0.104705535 -0.24867897 -0.01827038 0.64159805 -0.2153402 -0.04273485 0.0013750837 0.07546544 0.23631766 0.3027531 -0.012854309 0.17934072 0.09006975 0.11122899 0.19425687 0.20175542 0.1929098 -0.40111017 0.007954314 -0.46356452 0.10125277 -0.108879186 0.3627385 0.04403462 0.48215586 0.07781047 -0.13893953 -0.06687926 -0.03830666 -0.021172045 -0.45228788 0.28378975 -0.24961373 -0.20633164 0.09405009 -0.09279626 -0.01736807 0.49890974 -0.24383645 -0.07798233 0.071403176 0.5967283 0.14991297 -0.09356723 0.18241116 0.1432985 0.13714734 0.1503738 0.26597694 -0.17877515 0.19334316 -0.13659485 0.120153815 -0.34901595 0.16101813 -0.09486569 -0.12114704 0.24126533 0.26714683 0.2272464 0.049006797 0.4075789 -0.134988 -0.11061368 -0.19869164 0.081158645 -0.1881378 -0.2986614 0.23388982 0.241863 -0.6385984 -0.22511186 -0.3609697 -0.09256743 0.68706465 0.26683852 -0.0399926 0.40751138 0.07294119 -0.33139294 0.17808601 -0.048532717 -0.20470655 0.41046458 0.033984408 0.13178189 0.22082019 -0.46821475 -0.19323209 0.5660225 0.2187355
249 0.3857596 0.32767025 -0.054492954 -0.020122495 -0.27664104 0.05376412 0.07213876 0.073874876 0.18128599 0.13290821 -0.23155472 -0.048450094 -0.021644609 -0.2309745 -0.12734288 -0.4378239 -0.8101407 0.4853334 -0.60431314 0.11835261 0.19239885 -0.032450728 -0.6028057 0.08498037 0.33648726 -0.6586514 -0.4257716 -0.23046143 0.18169187 0.28787938 0.0706617 -0.21701424 -0.22254118 -0.493807 -0.111679174 -0.32275072 0.24132971 -0.098546386 -0.35246372 0.012172194 0.52671593 -0.25626805 -0.05387971 0.029964559 -0.0061293337 0.19255824 0.28744552 -0.0734478 0.27146664 0.18320005 -0.010873892 0.18393104 0.30247828 0.2524626 -0.48808053 -0.018623896 -0.38090506 0.15670681 -0.039987545 0.39086545 0.06918201 0.52833354 0.039741326 -0.10087107 -0.089028046 -0.036516257 0.0350328 -0.39336652 0.31716207 -0.21308714 -0.25940698 0.12149896 -0.10842112 0.008193069 0.49260652 -0.28556135 -0.04480014 0.12094507 0.48824176 0.19039527 -0.044924628 0.18393524 0.1854434 0.19288707 0.20241347 0.26963055 -0.11115505 0.2550782 -0.17718256 0.08872255 -0.31420305 0.15795673 -0.15916528 -0.14625333 0.22243509 0.2089708 0.18831603 0.03763876 0.38634786 -0.055350736 -0.1443333 -0.16206445 0.092275776 -0.16699108 -0.3773405 0.2693119 0.12870291 -0.5173193 -0.23025848 -0.32794935 -0.03056347 0.634411 0.20895046 -0.07133694 0.3068101 0.13838233 -0.31341335 0.18203823 -0.04048574 -0.12011277 0.40999362 -0.048208173 0.072480135 0.24391893 -0.5587081 -0.22445424 0.65086263 0.22323497
171 0.65518165 0.40015692 0.1011284 0.042973094 -0.118753985 0.4328204 0.011238112 0.10470302 -0.35651144 0.115548596 0.6479913 0.066173136 -0.33996636 -0.37245685 -0.22130483 -0.24399154 0.34777337 0.14518608 -0.14065896 -0.2405061 0.29381543 0.31583765 -0.40368807 0.16452543 0.14086035 -0.82752615 -0.01058623 -0.20168157 0.28582415 -0.024311872 0.082536675 0.042455837 -0.48547307 -0.28550386 -0.2181924 -0.12917529 0.08269965 -0.021483045 -0.51491195 -0.56682706 -0.009690211 0.23666956 0.09516148 0.08425331 -0.05096779 0.08552172 0.2329847 0.119022086 -0.65194243 -0.11155365 0.3105817 0.029021015 0.33132803 0.6631406 0.29739082 0.040484168 -0.19682209 0.0073836516 0.08428077 0.1604595 0.18223424 -0.25118375 -0.016523747 -0.4185598 0.4706714 0.13265035 0.30510104 -0.44255966 0.390245 -0.27056307 -0.30490723 -0.17978312 0.11855271 -0.023005959 0.3618696 0.06445577 0.2456232 -0.17359759 -0.026395496 0.17185451 -0.19059235 -0.21282943 -0.03330464 0.4756189 -0.42390004 0.50613827 0.1927265 0.40926084 -0.563553 0.1911614 0.44055632 -0.10864276 0.23406558 -0.14394736 0.14880201 -0.26493976 0.20278174 -0.04167997 -0.124467455 0.09750892 0.2393788 0.061103903 0.38859057 -0.07173142 -0.0055033024 0.13512659 -0.1604766 -0.13590072 -0.032014977 0.20664565 0.25027952 -0.25988993 0.46854755 -0.2647451 0.024534442 -0.26180732 -0.034142423 -0.016887145 0.34486526 0.10392181 0.14929537 0.5454453 -0.11592195 0.0579785 -0.11827255 -0.5879077 0.0034791462 -0.18733203
66 0.46637294 0.3090193 -0.10190494 0.1119804 -0.33140725 -0.024569266 0.034000993 0.0998973 0.09799725 0.15530722 -0.2505474 0.0027760174 0.10497442 -0.24111982 -0.058350842 -0.30843094 -0.773883 0.45102784 -0.4679612 0.03369291 0.20652027 0.00230004 -0.5850082 0.06581898 0.37792563 -0.6443142 -0.41006586 -0.23715289 0.21220806 0.29002476 0.08040381 -0.2850729 -0.25331438 -0.4559001 -0.07230656 -0.3034956 0.1875373 -0.079949185 -0.33184013 -0.038494747 0.6437705 -0.29348287 -0.019515442 0.12088351 0.0969175 0.15058173 0.34614435 0.01817822 0.2435196 0.12850328 -0.00823079 0.24893442 0.2661336 0.24537908 -0.47961783 0.038926765 -0.3591564 0.12574166 -0.006722742 0.32643163 -0.0709627 0.5844916 0.0650189 -0.19048718 -0.059841104 0.0101314215 -0.083419375 -0.38189223 0.18311875 -0.3084831 -0.12013017 0.084595256 -0.07545506 -0.011419022 0.49762756 -0.33614388 -0.045324434 0.07920207 0.52042484 0.12440187 -0.10555505 0.13960941 0.099547744 0.035289492 0.15424237 0.34720713 -0.10672419 0.20452598 -0.26823628 0.024838088 -0.4282542 0.18487702 -0.092192754 -0.09755447 0.10360077 0.23067413 0.20372191 0.035088677 0.33999678 -0.1298961 -0.05444611 -0.21453217 0.15969776 -0.1654839 -0.2909615 0.28072372 0.20706454 -0.5356316 -0.24749488 -0.27402443 -0.17352024 0.63296247 0.18054944 0.0065859365 0.4472214 0.12104614 -0.3208425 0.06500822 -0.074429475 -0.20732549 0.44857773 -0.018674627 0.108872615 0.22016399 -0.5945408 -0.15036292 0.640761 0.28315297
430 0.5164703 0.25319603 -0.09617893 0.012402923 -0.3973512 0.028935106 0.053761348 0.036174588 0.08074088 0.16114601 -0.20897958 0.061551433 0.059025064 -0.19323556 -0.050861135 -0.47036842 -0.7410453 0.38218743 -0.4766262 0.042913925 0.15209082 -0.005534395 -0.47146276 0.0827161 0.3475234 -0.64449054 -0.446052 -0.16072914 0.20874387 0.24965802 0.20087889 -0.2040469 -0.28138524 -0.29075587 -0.09784031 -0.30147752 0.1392033 -0.09619088 -0.29352763 -0.058461946 0.5594569 -0.28186262 -0.09804023 0.04715155 0.11108671 0.27224177 0.32489175 0.032479916 0.23098086 0.14027333 0.06529107 0.27887547 0.25548327 0.1402248 -0.49361247 0.080998875 -0.53523576 0.034434956 -0.12135812 0.30514613 0.03320918 0.4768618 -0.005517307 -0.19560334 -0.022132533 -0.08024675 -0.07280453 -0.4564478 0.33665618 -0.26871213 -0.17634405 0.06601947 -0.08285813 -0.06322347 0.54877377 -0.3236626 -0.042885836 0.12538125 0.58955234 0.06879899 -0.14339502 0.078220986 0.14018966 0.07161673 0.20206319 0.26304778 -0.114954025 0.26545963 -0.1748274 0.049927983 -0.4019637 0.20871182 -0.17801414 -0.1398406 0.20643078 0.18742758 0.2009562 -0.033012744 0.45459676 -0.095210016 -0.1867977 -0.2508639 0.143274 -0.17669526 -0.29562563 0.1875948 0.18658794 -0.49325982 -0.23841606 -0.28758535 -0.1243178 0.5530807 0.26504388 -0.17155549 0.34811264 0.14355104 -0.43885347 0.16593458 -0.020911435 -0.2367128 0.40060914 -0.04346816 0.08653695 0.22429132 -0.6050098 -0.23243746 0.5971525 0.2585991
520 0.5528699 0.2693159 -0.09897536 0.030927662 -0.32451397 -0.011613135 0.07551984 0.010713826 0.11913394 0.16296035 -0.13691708 0.034510158 -0.010091137 -0.1372778 -0.027166454 -0.3305335 -0.7841437 0.41965568 -0.4163881 0.021084303 0.1582458 -0.031454127 -0.56333286 0.06285435 0.4197923 -0.70623505 -0.4508454 -0.2098274 0.23527633 0.23652723 0.19542517 -0.28899664 -0.21789828 -0.37860063 -0.13143067 -0.4002946 0.24430735 -0.056557663 -0.32758456 -0.026109323 0.5717155 -0.29445425 -0.13412882 0.095797956 0.018483415 0.17622527 0.26080614 0.08418892 0.21201897 0.08281423 0.08498821 0.34989643 0.1699805 0.1871997 -0.5214498 0.07708186 -0.50118256 0.050419707 -0.092013165 0.30461428 0.05583255 0.5592069 -0.02784793 -0.16849019 -0.04568496 0.01825697 -0.12928377 -0.3684248 0.30179158 -0.19176954 -0.21549033 0.15947133 -0.09825215 -0.11635889 0.56007874 -0.3272005 -0.08588556 0.047715776 0.4833528 0.050217554 -0.15178591 0.1658051 0.18735805 0.0685828 0.12991065 0.251099 -0.20707183 0.25574067 -0.18102977 -0.03538377 -0.29406127 0.1427059 -0.06212897 -0.115636215 0.30329627 0.2585236 0.2709609 -0.038048457 0.5525369 -0.085658886 -0.13599469 -0.16032541 0.1269614 -0.20007446 -0.30113938 0.22949806 0.15578644 -0.54798526 -0.31840283 -0.24725011 -0.19864076 0.5900528 0.27948868 -0.061156005 0.33412436 0.16498303 -0.34692898 0.1662384 -0.10147552 -0.24145944 0.38359138 0.0044888887 0.059260752 0.1857797 -0.56113607 -0.19027182 0.5736572 0.287694
167 0.47454864 0.17445442 -0.06794642 0.06075562 -0.3400109 -0.012836003 0.011165696 0.058819912 0.15594019 0.1315178 -0.22774248 -0.0021951536 -0.054877173 -0.19351439 0.03545867 -0.30568984 -0.8210564 0.44920665 -0.5222253 -0.027053762 0.24071889 0.0061380314 -0.5508343 0.044066146 0.39814374 -0.6383609 -0.45005003 -0.2620218 0.123823345 0.2671366 0.17746702 -0.36949298 -0.26551864 -0.341951 -0.1810678 -0.46091938 0.1437436 -0.11467214 -0.20020238 -0.11890785 0.63694 -0.33791378 -0.13146448 0.18446244 0.07550408 0.26902315 0.2629024 0.033779766 0.18461919 0.07747087 0.09031572 0.30013517 0.25078866 0.20731467 -0.4204081 0.0113991415 -0.4049874 0.08565896 0.018450378 0.2810682 -0.01647489 0.53584296 0.033540733 -0.18247658 -0.08008819 -0.01295431 0.028483236 -0.27836433 0.31349573 -0.2588147 -0.17572227 0.040103443 -0.14093001 -0.046039365 0.56119806 -0.28348598 0.018485967 0.075424656 0.57484317 0.09507745 -0.17129378 0.14789726 0.117594786 0.055410527 0.24511777 0.31824163 -0.08159664 0.26555988 -0.12562819 0.039302155 -0.34001333 0.2166877 -0.1222909 -0.050306827 0.22273143 0.32215658 0.29894018 -0.07450665 0.41820392 -0.11057818 -0.18894625 -0.15619795 0.14490542 -0.04106271 -0.34241614 0.21675108 0.25695884 -0.5931799 -0.2528012 -0.28767335 -0.12973937 0.52518034 0.24222599 -0.07148022 0.4371592 0.07417446 -0.36274794 0.18152077 -0.14285542 -0.04268344 0.38198107 0.005984607 0.111928865 0.17680666 -0.47096664 -0.23785852 0.48820224 0.25206104
445 0.5683036 0.3191096 0.08875093 -0.020561662 -0.14315851 0.32159263 -0.04108958 0.12247891 -0.35163793 0.20812723 0.65045077 0.093853205 -0.31306008 -0.5319314 -0.1493358 -0.2523432 0.4525372 0.12997061 -0.16082874 -0.20588675 0.38123074 0.29439428 -0.38728178 0.114722736 0.07771039 -0.7085798 0.04021743 -0.25536072 0.33747923 -0.049493086 0.09540619 -0.101842016 -0.4314958 -0.29620603 -0.21979527 -0.23548493 0.017890535 -0.022605283 -0.5282271 -0.54616666 -0.02843725 0.19930005 0.117101155 0.057005692 -0.09027899 0.122599326 0.24042551 0.11474036 -0.6420602 -0.11056528 0.44313473 -0.044684432 0.24341068 0.7980811 0.34645125 0.0179781 -0.096760094 -0.056711342 0.113073714 0.0948924 0.21382475 -0.22614779 0.1132891 -0.46488068 0.56295437 0.120391496 0.34500343 -0.4296673 0.33130306 -0.3633593 -0.34293026 -0.089380026 -0.02427267 -0.0019338506 0.3216245 0.055613738 0.36026353 -0.07630653 -0.018908115 0.11432955 -0.17054713 -0.16929112 -0.2139967 0.50935763 -0.35332987 0.57972866 0.18061917 0.43676725 -0.45072567 0.3352496 0.3963188 -0.16430207 0.28907418 -0.21415924 0.15071307 -0.29995087 0.26712504 -0.10264415 -0.07864695 0.06606179 0.28634667 0.11141442 0.19779149 -0.07675799 0.0022125007 0.050325226 -0.20607147 -0.1372614 -0.10868246 0.053431585 0.20616475 -0.19201118 0.45289278 -0.30294004 0.08968316 -0.17955123 0.028955339 -0.027271573 0.28687787 0.22886872 0.13931262 0.53225404 -0.1260819 0.034901988 -0.12089227 -0.4701447 -0.025835618 -0.14809032
326 0.38822317 0.3047871 -0.059898302 0.04146191 -0.23518276 0.022584079 0.04535263 0.049974494 0.12016648 0.10126759 -0.1436484 0.05423952 0.029045725 -0.14408241 -0.10111856 -0.3686817 -0.82140464 0.52012223 -0.50745094 -0.017490245 0.13816811 -0.06834835 -0.5979953 0.11958355 0.28993502 -0.7134891 -0.50647366 -0.2801746 0.20591009 0.2283094 0.15069781 -0.17984077 -0.2966454 -0.45180035 -0.16366617 -0.37515664 0.11325693 -0.1880377 -0.40125963 -0.027612766 0.50711673 -0.23511082 -0.101749144 0.10588519 0.10187111 0.21402171 0.2984351 0.005103951 0.25811988 0.061726056 0.0344383 0.3275199 0.22294982 0.1744478 -0.4689268 0.007983994 -0.37045154 0.21222503 -0.10169486 0.24223235 0.02309543 0.5603197 0.14974242 -0.088690154 -0.012705824 -0.067292936 -0.040411886 -0.4103144 0.30304214 -0.29124188 -0.17289719 0.109996565 -0.14421241 0.047345273 0.5444353 -0.25679258 -0.064958975 0.12404998 0.5504165 0.076155424 -0.05147508 0.1962422 0.16273789 0.14034544 0.118930675 0.26539412 -0.0998906 0.18148352 -0.14260781 0.08886126 -0.4012548 0.20416994 -0.08724172 -0.05934338 0.21946314 0.2310777 0.16808559 -0.07030038 0.46417567 -0.015331174 -0.1424465 -0.18155518 0.074718095 -0.23496719 -0.37330273 0.28091958 0.24690354 -0.5210537 -0.16098094 -0.38535884 -0.011786181 0.56975925 0.22509916 -0.09325935 0.34556368 0.055277187 -0.296309 0.1760363 -0.04992515 -0.21123 0.38519192 -0.03905116 0.096780464 0.18680708 -0.4669131 -0.30656466 0.6699001 0.30556932
74 0.55714566 0.30935854 0.09573346 0.15244262 -0.068378806 0.4100303 -0.13192792 0.032674257 -0.28690925 0.063889354 0.6551835 0.039419353 -0.31358382 -0.47324413 -0.14375073 -0.25039676 0.41129667 0.2430247 -0.1636923 -0.13287257 0.3974751 0.29787922 -0.3613657 0.18203908 0.091593914 -0.8031905 0.05752392 -0.30204275 0.32699713 -0.039458968 0.07653877 -0.0025970154 -0.4487727 -0.38838118 -0.29790622 -0.15328255 -0.023033781 0.10399824 -0.5683507 -0.56976277 -0.05464648 0.21357258 0.057710856 0.07857391 -0.07874969 0.1169686 0.30954367 0.14254002 -0.5578271 -0.10438322 0.2780716 0.030975932 0.16683832 0.6703154 0.19392239 -0.027209966 -0.12902571 -0.03854543 0.10979875 0.0892875 0.19440769 -0.17036055 0.09591073 -0.46409363 0.483871 0.0769758 0.43989068 -0.51936036 0.40406215 -0.37424907 -0.2417378 -0.10697064 0.05267162 0.07012285 0.38395432 0.17902295 0.30520308 -0.16610485 -0.0664049 0.20910035 -0.3054433 -0.09548946 -0.04947902 0.3745904 -0.44714966 0.56849974 0.18479921 0.40781614 -0.56914294 0.25344047 0.30313188 -0.12556061 0.32944128 -0.2160791 0.15684384 -0.31551588 0.24485673 -0.050177783 -0.100706376 0.013609069 0.28109592 0.2591197 0.1772074 -0.077029616 0.053539723 0.10114531 -0.17458922 -0.009517001 -0.11813093 0.25837705 0.28276446 -0.2804425 0.39769667 -0.27009118 0.028221542 -0.44180232 0.048268978 -0.099784434 0.27160302 0.0770721 0.07408196 0.6031791 -0.10898454 -0.10476595 -0.053990882 -0.48988697 0.078919254 -0.18067922
475 0.44551507 0.2582769 -0.0917285 0.11571014 -0.3937775 -0.049955476 -0.057270586 -0.027024103 0.1187478 0.16129737 -0.22343482 0.077609956 -0.029363463 -0.1973304 -0.029861381 -0.34900245 -0.7007136 0.40418229 -0.50223225 0.030503275 0.25846416 0.0048705526 -0.6269266 0.06845249 0.4132489 -0.6211132 -0.55811477 -0.19586462 0.2621143 0.22102845 0.17156124 -0.28324166 -0.13345127 -0.37839624 -0.092841774 -0.3469808 0.094772145 -0.0756023 -0.34843454 0.04035247 0.589542 -0.29760006 -0.113250054 0.07935898 0.13540876 0.12361709 0.28117412 -0.021629142 0.28267872 0.08712457 0.12078175 0.2800397 0.16282016 0.20771351 -0.59107566 0.06540535 -0.4963696 0.112581156 -0.050990287 0.2998971 0.10315154 0.49308455 0.074954286 -0.08596949 -0.07852572 -0.020715225 0.016755167 -0.4265243 0.38659585 -0.26821867 -0.25932518 0.167163 -0.13153931 -0.04482032 0.50087005 -0.2560875 -0.082229085 0.09194741 0.46313018 0.09390636 -0.13573234 0.09056057 0.13358994 0.09590881 0.12758526 0.19304714 -0.1110249 0.2586113 -0.09977337 0.10211353 -0.34002218 0.1530281 -0.13335715 -0.09363168 0.20792188 0.17758007 0.30136266 -0.12460604 0.45676485 -0.10014734 -0.12321106 -0.13620465 0.16655947 -0.1790059 -0.38200033 0.138904 0.2144608 -0.50795484 -0.31010064 -0.31941688 -0.08591867 0.61219853 0.20816618 -0.15315193 0.3169274 -0.038031284 -0.31597108 0.15283951 -0.0817038 -0.24816088 0.4513038 -0.038922325 0.1204236 0.23202123 -0.6198642 -0.23762922 0.5706237 0.25293928
175 0.41213998 0.30400187 -0.14049718 -0.036196794 -0.39427242 -0.05617907 0.050380886 0.073972255 0.18199225 0.09387777 -0.25635874 0.06821578 -0.046383392 -0.120648876 0.016962236 -0.3566825 -0.6849944 0.49230817 -0.5508439 0.051182553 0.20917144 -0.012953222 -0.5515483 0.024608975 0.40865207 -0.6929849 -0.3439615 -0.19656858 0.18437828 0.19125149 0.24391438 -0.2989333 -0.31165543 -0.31430885 -0.107357435 -0.33342886 0.18302141 -0.07887497 -0.33868796 -0.07539505 0.5770663 -0.31014293 -0.049870532 0.1624689 0.07392073 0.18215153 0.3506115 0.05424916 0.21537608 0.071922004 0.054672975 0.25077933 0.22732034 0.19913927 -0.54347885 0.049710657 -0.3738552 0.21240984 -0.061796255 0.2959481 0.013301208 0.5815023 0.14224389 -0.17157906 -0.0508889 0.00086459314 0.014278936 -0.32870138 0.30699015 -0.22952351 -0.19533001 0.08075187 -0.10403106 -0.042809967 0.5270125 -0.2711055 0.014895638 0.11179823 0.54279166 0.106256366 -0.08118972 0.19753817 0.19271787 0.10899654 0.17324157 0.33042207 0.0265316 0.25715235 -0.10763249 0.09567728 -0.4143027 0.13061826 -0.0064109266 -0.13826197 0.23263559 0.1909441 0.16275586 -0.053644344 0.465081 -0.066564195 -0.1719626 -0.17318542 0.10118013 -0.120760515 -0.3355213 0.1774867 0.26047057 -0.5889407 -0.19234644 -0.27450633 -0.13301195 0.62656236 0.21173446 -0.12284965 0.3174748 0.01785649 -0.40938333 0.124939404 -0.118187346 -0.2027181 0.40444246 -0.12384222 0.108550705 0.21847132 -0.47714755 -0.29341578 0.58196616 0.22525273
292 0.58414173 0.2732057 0.0064094514 0.071776584 -0.15777431 0.45908064 -0.13940322 0.10192282 -0.36381537 0.07259765 0.6187314 0.044544853 -0.27138963 -0.39458942 -0.13013291 -0.20430796 0.394082 0.24569206 -0.2058632 -0.17729771 0.3669223 0.38036543 -0.39205554 0.15148275 0.13081864 -0.78586674 0.049557254 -0.24313074 0.21934266 -0.14304896 0.07946817 0.03272241 -0.42766434 -0.279885 -0.20904592 -0.10835616 0.005345915 -0.017657235 -0.517117 -0.49228993 0.02614396 0.2297554 0.085570686 -0.016451586 -0.059388146 0.20599294 0.28733483 0.09191452 -0.59743935 -0.022183979 0.4197467 -0.024871351 0.2931431 0.6900915 0.38188803 0.005328511 -0.1722065 -0.018374648 0.11089985 0.14339878 0.19008422 -0.106849074 0.101860076 -0.4002056 0.57774466 0.11443439 0.47290275 -0.4510534 0.5312467 -0.2620849 -0.30204666 -0.19844487 0.106573194 -0.06526601 0.44699043 0.21629597 0.26409182 -0.102955565 -0.08390192 0.12738079 -0.29471663 -0.17864288 -0.0055969623 0.5946813 -0.30743328 0.48518854 0.19604243 0.39739496 -0.4886906 0.32969338 0.38828745 -0.19398044 0.2980367 -0.12850812 0.09155904 -0.30031016 0.25415763 -0.11449901 -0.11178267 0.0798934 0.22795974 0.061232436 0.27070495 -0.055639915 0.024803575 0.12538774 -0.14352305 -0.04349094 0.011597307 0.12804165 0.19244272 -0.18993655 0.4243759 -0.19236703 0.02684337 -0.28217182 0.033954903 0.0042378386 0.20141822 0.059109565 0.1513633 0.5589028 -0.1088224 -0.079932846 -0.13153401 -0.5169081 0.045177374 -0.13038154
59 0.6326623 -0.23089938 -0.43369097 0.3031627 -0.110947 0.03146287 0.09265949 -0.277369 -0.2537446 -0.15551311 -0.013362583 -0.05895335 -0.23080051 -0.11247394 0.18072543 -0.2364844 0.1954613 0.12770389 -0.32676032 0.08839971 -0.18965699 0.17886743 -0.81509256 -0.046641715 0.04800188 -0.0027240135 -0.5635921 -0.60012424 0.1849336 -0.08154935 0.39902228 -0.23680925 -0.14471239 -0.47157308 -0.05854303 0.7427123 -0.047566444 0.24496207 0.35800877 -0.27628595 0.09596697 -0.035688546 -0.40095595 0.25560296 0.6102675 0.064034805 0.08261165 -0.41618592 -0.61583066 -0.1428494 -0.13407788 0.41690788 0.20229326 0.3131127 0.13321938 0.018428937 -0.09335114 0.278837 0.570913 -0.29202166 0.0394117 -0.21021214 0.20444705 -0.2180647 0.32759362 0.066628985 0.37210506 -0.5349121 0.05961189 0.005603401 -0.5300633 0.051625803 0.5156212 0.025577445 0.3420816 -0.46535233 -0.015299275 0.042149812 0.09422384 0.17025028 0.36789796 0.24376531 0.3963615 -0.04129161 -0.010229457 0.273012 0.28093728 0.033400085 -0.041854095 -0.053994402 -0.09861092 0.10469852 0.09211174 0.0772681 -0.2558671 -0.13014789 -0.14689335 0.40088487 -0.24762842 -0.014368886 0.060859285 0.16337122 -0.35758865 -0.33969197 -0.041403655 0.012049943 -0.4942403 -0.14319639 -0.40539888 -0.15386516 -0.18719392 -0.23515874 0.13912064 -0.10886995 -0.0025407355 0.4746455 0.19228868 -0.21476395 0.022030313 0.3705584 -0.14965585 -0.18669155 -0.10869 0.6804592 -0.18653478 -0.55782163 -0.17013112 0.8558891
217 0.5923682 -0.2616723 -0.3752112 0.3177584 -0.39770678 0.122989394 0.19654517 -0.2891689 -0.28439674 -0.035997298 0.11293692 -0.0091674905 -0.24809651 -0.08718761 0.09144973 -0.26928493 0.22650315 0.14579587 -0.3284971 -0.075587295 -0.16377428 0.15208727 -0.7111778 -0.22476046 0.0051562907 -0.057775784 -0.6314564 -0.5509007 0.13929947 0.02057497 0.3634301 -0.28711623 -0.18822818 -0.5072264 0.011285293 0.692852 -0.15482078 0.24903396 0.27195823 -0.29874465 0.1117734 -0.08574533 -0.3269106 0.23585774 0.40319964 0.10113769 0.13984732 -0.48659328 -0.49213752 -0.21656263 -0.13121198 0.2910325 0.1371487 0.32819554 0.0879962 0.10014446 -0.026899796 0.3425882 0.53961635 -0.32916304 -0.056206137 -0.04999716 0.2738345 -0.23915163 0.33590838 0.08861963 0.45264843 -0.5431801 0.0010881083 -0.16958913 -0.5516454 0.10717981 0.43677208 0.037539903 0.31206346 -0.46471235 0.010647433 0.10247754 0.06910897 0.17421229 0.27387282 0.16240844 0.34475043 -0.13070813 0.05064923 0.3144804 0.30895418 0.18387328 0.06005442 -0.069182545 -0.09758916 0.10621249 0.10804276 0.10727519 -0.44238517 -0.097412094 -0.068662606 0.4470833 -0.25479388 0.0088589685 0.13662349 0.1672809 -0.34986117 -0.36296636 0.023020335 0.110050894 -0.5465383 -0.18047456 -0.3215142 -0.06242107 -0.25223225 -0.28141603 0.08681456 -0.13424765 0.0875967 0.47295284 0.2923282 -0.2712527 -0.014279241 0.31798095 -0.23118013 -0.21994339 -0.17504248 0.674413 -0.17258593 -0.5393619 -0.11856553 0.87917906
219 0.49336922 0.27722585 0.10101455 -0.026675776 -0.22994123 0.46195015 -0.10531713 0.15698726 -0.19700015 0.13618462 0.6153322 -0.003594403 -0.3349226 -0.4874513 -0.21654028 -0.1922101 0.28404135 0.17482837 -0.28245282 -0.19816513 0.3629976 0.37877458 -0.36194474 0.0826058 0.20280647 -0.8408679 0.014869738 -0.21541893 0.30203515 -0.027870461 0.022632943 -0.076642625 -0.4138196 -0.30966994 -0.29768085 -0.09337126 0.07705633 0.013151017 -0.45948797 -0.54434836 -0.02790781 0.17882465 0.06383846 0.024404516 -0.03285329 0.17566511 0.28445444 0.029149305 -0.56584656 -0.08915351 0.43328914 -0.08422913 0.36294085 0.7558178 0.2758813 0.04130541 -0.19046573 0.025278447 0.029516865 0.16199024 0.18589135 -0.11949589 0.040956467 -0.47816807 0.511031 0.109099686 0.33626735 -0.52198803 0.4159205 -0.331961 -0.23974285 -0.08112046 0.08800807 0.06530163 0.37000266 0.18818645 0.34431538 -0.16822615 -0.02331502 0.1745532 -0.21775165 -0.19010176 -0.121964894 0.48880672 -0.42272094 0.585394 0.17907895 0.35967365 -0.46061122 0.3785079 0.45824385 -0.12521535 0.18572159 -0.1314673 0.18310398 -0.39934942 0.2867398 -0.1117273 -0.049179394 0.052165266 0.28623948 0.083728686 0.21198295 0.0064119026 0.010924959 0.12829386 -0.21794009 -0.05099245 -0.06013494 0.18658914 0.23711446 -0.25005725 0.42206195 -0.38426566 -0.08123038 -0.2735968 0.040795725 -0.08879389 0.23941886 0.21291594 0.13014136 0.58158374 -0.19049813 -0.12033039 -0.1379254 -0.42097977 -0.034111034 -0.0866111
48 0.5193085 0.35148364 0.08807285 0.043359794 -0.08840549 0.4619341 0.027840773 0.12719779 -0.31923652 0.15989068 0.6116863 0.09253424 -0.31048107 -0.48613915 -0.15046592 -0.3097231 0.39868507 0.20195632 -0.12321704 -0.23627672 0.3913101 0.3190401 -0.30203247 0.17664675 0.13957953 -0.7642484 0.051581156 -0.2022001 0.31258935 -0.048846208 0.07031348 0.008309746 -0.5005996 -0.34831378 -0.29730377 -0.14515024 0.11151554 0.0006069838 -0.509655 -0.49887887 -0.025808755 0.19643293 0.07799755 0.13006374 -0.011794329 0.07291568 0.21364674 0.109823816 -0.63597727 -0.04031395 0.31143138 -0.014759889 0.24965598 0.6625209 0.23832867 0.09832483 -0.10814842 -0.0066966815 0.08495785 0.1381518 0.21566707 -0.15009964 0.13924265 -0.37022626 0.4759936 0.14401332 0.3628951 -0.51838744 0.4416146 -0.27282482 -0.34554502 -0.13025936 0.23089112 0.027042044 0.25024825 0.21704443 0.2584358 -0.12434621 -0.019564705 0.129769 -0.3577768 -0.15586536 -0.109549284 0.47220516 -0.488597 0.5850987 0.2236325 0.42899215 -0.5351835 0.15696819 0.40436524 -0.1324371 0.2617403 -0.21197152 0.20532589 -0.29449576 0.19664079 0.0038049119 -0.11356178 0.14802536 0.22607245 -0.038429588 0.26125863 -0.09977248 0.008201099 0.18964703 -0.1754694 -0.07816094 -0.1079411 0.17454022 0.19658922 -0.22834104 0.45683876 -0.33237377 0.105221495 -0.38616985 0.06584926 -0.025028596 0.319177 0.08054309 0.16296722 0.5031037 -0.12944457 -0.09390531 -0.14602412 -0.55650765 0.019269777 -0.13757005
176 0.4092332 0.26505733 -0.11289352 0.07391055 -0.36355883 -0.05083425 0.08319692 0.08556565 0.14317408 0.13090917 -0.18492197 0.084122255 0.033403095 -0.1448869 -0.04321222 -0.3746634 -0.6847486 0.46214643 -0.5801436 0.0063135223 0.08304677 -0.09166308 -0.5373769 0.09618156 0.34454077 -0.66947454 -0.46567985 -0.19477195 0.24844499 0.27378723 0.16680957 -0.31270337 -0.3045981 -0.4409799 -0.08436543 -0.35196802 0.27647272 -0.013561027 -0.39295173 0.014393141 0.593087 -0.29194516 -0.07797177 0.09631348 0.089629285 0.120796666 0.30938852 0.035712715 0.28678545 0.15572587 0.12671942 0.30642062 0.27589828 0.29855126 -0.38871428 -0.014406869 -0.4067604 0.05646653 -0.09988591 0.3793495 0.053607814 0.5633584 0.009778244 -0.14589791 -0.03043694 -0.12545642 -0.07347677 -0.38763827 0.2658021 -0.43673843 -0.21161786 0.18026568 -0.0891978 0.059700754 0.4436646 -0.3529368 0.08973157 0.10685971 0.54321927 0.09641732 -0.054050628 0.10292439 0.21455358 0.07170467 0.20485881 0.23950237 -0.15606838 0.2071916 -0.19719058 0.018228985 -0.37109837 0.21583717 -0.111952506 -0.065156534 0.2190045 0.20143445 0.25906277 -0.05486457 0.41046393 -0.07937765 -0.038706798 -0.28786805 0.07051383 -0.13130139 -0.28731233 0.33788788 0.1805896 -0.5342421 -0.26233318 -0.2770972 -0.1712446 0.6741195 0.27641326 -0.13355464 0.3301551 0.09232231 -0.24657188 0.23418416 -0.03641179 -0.2562111 0.36379933 -0.06447669 0.023576085 0.14429629 -0.51525515 -0.277811 0.6214404 0.23273292
425 0.57634264 0.27728286 -0.04345506 0.03948301 -0.4038931 0.09663869 0.011096705 0.014198118 0.13452475 0.10383713 -0.25025064 0.08063364 0.07125044 -0.19582754 -0.13922419 -0.38181233 -0.74548197 0.4496818 -0.6155628 0.0008221699 0.16432035 -0.04049725 -0.48977813 0.07535603 0.42741948 -0.7866716 -0.3614859 -0.14192739 0.1348911 0.26873055 0.047053706 -0.32511798 -0.18019065 -0.30587792 -0.078634836 -0.25776252 0.22022742 -0.09381661 -0.28903508 0.020907696 0.5740982 -0.217912 -0.0839623 0.033049516 0.0772668 0.15708227 0.3489701 -0.07904721 0.22214572 0.124158755 0.05187274 0.19159885 0.2463182 0.16112456 -0.4833566 -0.012406959 -0.27437866 0.20016119 -0.13630483 0.35354418 -0.005783198 0.55834717 0.11871785 -0.054351978 -0.111278586 0.055124454 -0.047076944 -0.3853985 0.2686759 -0.2597125 -0.17507997 0.09995619 0.0033136916 -0.002627732 0.39776927 -0.20764586 -0.02087319 0.045718607 0.6247684 0.14896812 -0.018160487 0.121230215 0.18073809 0.13161862 0.2020543 0.29140738 -0.14772575 0.2419124 -0.21148513 0.063237496 -0.3989704 0.13622452 -0.036519032 -0.11335834 0.18589658 0.19050585 0.15024714 0.04452938 0.42526808 -0.104928635 -0.12960993 -0.15011795 0.12591 -0.18340343 -0.3513123 0.27755606 0.25913993 -0.6650085 -0.24874711 -0.38553497 -0.048608188 0.55064803 0.24287683 -0.12081651 0.33908042 0.08892182 -0.33562282 0.28238654 -0.0936028 -0.23351097 0.4120879 -0.084083684 0.06732267 0.18329498 -0.6321399 -0.33622903 0.599991 0.174767
372 0.6486459 0.4029226 0.122452036 0.050445534 -0.22278345 0.35112906 -0.02508957 -0.031164698 -0.32095003 0.029530667 0.57301587 0.027316805 -0.31642777 -0.4642456 -0.11500859 -0.16758645 0.43721926 0.25461152 -0.117419004 -0.28724405 0.22406842 0.22926179 -0.36403918 0.1325964 0.019805096 -0.8086759 0.11089037 -0.34519348 0.48541218 -0.13151255 0.070172116 -0.02571529 -0.41680112 -0.29866213 -0.15505108 -0.14470474 0.1194909 0.05900391 -0.5455532 -0.45623282 0.0395834 0.2827293 0.12905788 0.1114072 0.0080978675 0.13408956 0.20453618 0.17474188 -0.61127305 -0.10118256 0.32717133 0.012765478 0.33108896 0.7439902 0.32813975 0.061744668 -0.15489101 -0.05013923 0.12135451 0.1279137 0.20933083 -0.13518889 0.08953207 -0.39863735 0.49791318 0.13400729 0.38588026 -0.42144525 0.50692767 -0.34037438 -0.28809506 -0.09870836 0.15444806 0.0129283955 0.31381595 0.16427991 0.33220133 -0.11156113 -0.044095248 0.18487112 -0.20032229 -0.26176393 -0.08374695 0.50500065 -0.3835014 0.5079823 0.09896559 0.45555547 -0.5382662 0.32594448 0.46640152 -0.052914422 0.2886361 -0.22648367 0.12058959 -0.3315378 0.22793342 -0.030883763 -0.050327346 0.07000436 0.36664698 0.057424504 0.2696215 0.0026548095 -0.0071664816 0.038857166 -0.2186798 -0.024132166 -0.0645214 0.23159184 0.16149575 -0.2601399 0.5016248 -0.3856474 -0.093580335 -0.2505924 0.05846265 0.085965835 0.20952821 0.11468949 0.24668875 0.50647384 -0.1633924 0.00064915715 -0.17131709 -0.4781495 -0.037271224 -0.18589726
381 0.47158915 0.20347889 0.062210873 0.052066628 -0.30870175 -0.060032964 0.04496229 -0.07039951 0.17898121 0.12390291 -0.22966352 0.050636802 -0.12452245 -0.18331327 0.11040431 -0.31094295 -0.760692 0.47457328 -0.5302067 0.069635384 0.17887942 -0.022022445 -0.65484154 0.07184917 0.3205438 -0.7639375 -0.4244174 -0.2623378 0.23909207 0.25730175 0.1814021 -0.22696103 -0.21017094 -0.38854438 -0.07830545 -0.37029272 0.19369575 -0.11899932 -0.3018571 -0.085161895 0.52669126 -0.23914443 -0.087376624 0.19033824 0.018972775 0.15873021 0.35878667 0.06828084 0.28278354 0.04132658 0.051765483 0.25890806 0.19911923 0.21236141 -0.45847607 0.03387298 -0.42923316 0.09242369 -0.02379024 0.42606017 0.038663175 0.57005954 -0.020901702 -0.12901445 -0.11026767 -0.03448444 -0.04760568 -0.38564026 0.34003574 -0.29963094 -0.253436 0.11070465 -0.13789901 0.010080418 0.5036875 -0.2782072 -0.028860385 0.023146195 0.5193829 0.06982208 -0.100190036 0.1424626 0.16011 0.17664316 0.14780177 0.2815667 -0.13256298 0.33830208 -0.098475054 0.04655809 -0.431745 0.1405512 -0.04268909 -0.010355807 0.1261447 0.17696661 0.22989666 -0.028780565 0.45306382 -0.14308691 -0.12665766 -0.12196528 0.07789673 -0.21794242 -0.34591153 0.15796888 0.20177676 -0.5500179 -0.18033472 -0.2698191 -0.1478968 0.68202794 0.14593747 -0.012098687 0.36873496 0.111202806 -0.3173947 0.1463889 -0.12744625 -0.15109514 0.38561615 0.012999553 0.104780376 0.21415547 -0.580355 -0.2705944 0.5236749 0.21808851
218 0.47959358 0.29235923 -0.111218594 0.09578089 -0.30083397 0.043955155 0.006358169 0.101464435 0.07552543 0.09421592 -0.17301755 0.03980743 0.021774722 -0.1249147 -0.09899931 -0.3587775 -0.7052595 0.58494204 -0.5952795 0.18330342 0.18287426 -0.021315934 -0.5794792 0.08545401 0.36663663 -0.62504685 -0.47127992 -0.19831629 0.23185937 0.15861228 0.116024025 -0.24000637 -0.2294649 -0.36557597 -0.08337912 -0.34930757 0.13000774 -0.0804243 -0.25766057 -0.027695753 0.55618256 -0.2376235 -0.005541886 0.050272584 0.018518591 0.1926432 0.23513225 0.034809668 0.12555417 0.18886979 0.030184444 0.30486915 0.20258476 0.15031493 -0.42075557 0.046944633 -0.39937696 0.16011797 -0.11230673 0.3218712 0.030158987 0.58619815 0.02187231 -0.21857095 -0.096543096 -0.03992458 0.100186475 -0.3718658 0.3349024 -0.22236729 -0.18542217 0.018173655 0.0147132585 -0.046828564 0.5503511 -0.19694588 -0.060585786 0.12410955 0.5615672 0.06631969 -0.12607001 0.10214811 0.26423177 0.10273805 0.23904799 0.23387459 -0.15181068 0.20405127 -0.096724875 0.0014652965 -0.42278802 0.13435349 -0.011738673 -0.10224323 0.24888986 0.18636571 0.25517958 -0.00582325 0.46603584 -0.119393796 -0.16196293 -0.16159602 0.22140253 -0.19750467 -0.260874 0.25864536 0.20630246 -0.5059971 -0.11002512 -0.31282055 -0.18424623 0.6922355 0.248908 -0.11074549 0.35468602 0.097272344 -0.4054888 0.21639661 -0.17315513 -0.18131945 0.42518938 -0.07813652 0.114898115 0.16900907 -0.6044903 -0.28683716 0.49452317 0.18556614
180 0.07810383 0.33756217 0.019439977 0.21776898 0.021652397 -0.064594716 -0.12069856 -0.3011921 -0.28934836 0.21006729 -0.12990977 0.087945014 -0.15291038 -0.09616738 0.04264026 -0.85444313 -0.053540397 -0.40862584 -0.49722847 -0.39787185 0.11737162 -0.18809506 0.04083248 0.029193044 -0.019871216 0.049501106 0.1250096 -0.28933272 -0.32611477 -0.15603319 0.34656635 0.10780701 0.24305485 -0.17287423 -0.5475655 0.7476778 -0.10265861 0.10633528 0.60971564 0.12994158 0.09991212 0.06089431 -0.57162 -0.19004358 -0.22161064 -0.33842012 -0.45134202 0.07963084 -0.22536619 0.16579399 -0.05804498 0.67112076 0.2606541 0.12428571 -0.15059109 0.11783348 -0.040337317 -0.1897029 -0.08863951 0.2701501 -0.12745403 -0.02923708 0.09016191 -0.17596395 -0.045375846 0.4579674 0.31934807 0.119488254 -0.43475962 -0.33333462 -0.0845514 0.120875046 -0.3659937 -0.07980338 0.56180507 0.30455726 0.3094888 0.18099709 -0.095291995 -0.06631939 -0.13705924 -0.07022389 0.5659735 -0.062285546 0.26010746 0.20276016 0.14504436 0.21594597 -0.76722634 0.57338136 0.3906459 0.26917693 -0.14666873 -0.04697506 -0.032896858 -0.22796173 0.37880307 -0.07403505 0.27343595 0.3050413 0.39173037 0.024723163 -0.032271963 -0.68994725 0.1899221 0.060606 0.4197092 -0.18122019 0.36385036 0.08166229 -0.58085084 0.13759626 -0.12354662 0.14708109 -0.356635 0.29030344 0.49091098 -0.66570204 -0.067910925 -0.34248134 0.19271415 -0.1594416 0.019568708 0.22591846 0.053093445 -0.47198668 -0.100541115 -0.107358135
638 0.5660111 0.18729214 -0.21819735 0.39717823 -0.38658682 0.06406822 0.10096255 -0.33574498 -0.29928496 -0.08348644 0.21650615 -0.10791787 -0.08596476 -0.61546654 -0.20020145 -0.28388235 -0.2157681 0.4306514 0.045185298 0.66158247 0.134725 0.61235934 0.12699024 0.049979754 0.2562271 0.32524 0.01936969 -0.09547486 -0.22149228 0.35923448 0.19622724 0.07548196 0.07374044 0.34102306 -0.4000236 0.31635693 -0.18200776 -0.06243642 -0.15619028 -0.41438904 -0.19174819 -0.24241084 -0.2789655 -0.20852661 -0.034761224 0.27604023 0.09192083 -0.3498748 0.29185453 -0.22300544 -0.11320053 0.07009267 -0.24812362 -0.08995957 -0.2013315 0.17083955 -0.16442247 0.25423568 0.4275323 0.25467908 -0.06757605 0.044733737 1.054778 0.11670596 -0.1077158 -0.16614462 0.028629709 0.01774905 0.009635337 -0.4724644 -0.025777936 0.34938526 0.013698939 -0.044698246 0.2180797 -0.13937245 0.64350384 -0.1751918 0.04243428 -0.27857885 0.20745413 -0.39942583 -0.022472687 -0.014597827 0.18495172 -0.28621194 0.19311096 0.071199395 -0.7213687 -0.1732935 0.122785516 0.26256374 0.16319339 -0.5388565 0.1682696 -0.12568858 0.05141671 -0.23320407 0.451118 1.1297445 0.16072223 0.011213895 -0.24097414 -0.2600016 -0.3789166 0.2532816 -0.18591093 -0.008398777 0.4078403 -0.20719622 -0.37332425 0.6141015 0.04468259 0.28265336 0.26269335 0.39907044 0.08044201 0.19714454 0.37687793 0.29517585 0.038375624 -0.17572841 0.10716911 0.24608552 -0.02922883 0.08498026 -0.40706763 -0.061968643
75 0.62570447 0.33985627 -0.14897864 -0.16970944 0.17570522 0.22396351 0.11161331 0.21331248 -0.34595352 0.13174629 -0.30952168 -0.03129687 -0.22273545 -0.05072988 0.06677852 -0.37724894 -0.51383615 -0.15679409 -0.21600775 -0.124969736 0.2236064 0.13216434 -0.3315923 -0.11838772 0.12821692 0.48986244 -0.04112486 0.2946691 -0.023355965 0.18150374 0.24240753 0.1416202 0.14377496 -0.09132726 -0.07751975 0.3536793 -0.08349014 0.42889166 0.31365085 -0.035296287 -0.45995274 0.50256544 -0.15271673 0.5403241 -0.120380186 0.40152273 0.4624281 0.055524845 0.2896879 -0.22695644 -0.18708208 0.23233365 0.6006481 0.438966 0.29029977 0.5234021 0.34856394 0.036178224 -0.4044504 -0.532932 0.63586944 0.43083695 0.93721324 -0.33761287 -0.5732266 -0.3783991 -0.060014673 -0.60995066 -0.073906705 0.0707375 0.010086957 -0.48789775 -0.5810576 -0.010276294 0.2519831 0.08047338 -0.12592609 -0.17280245 0.08991578 0.101701304 -0.01606924 -0.44042498 0.40195003 0.10577048 -0.30786413 -0.13646336 0.11127021 0.2780482 -0.61452025 -0.18386313 0.4943185 0.4571291 0.39934993 0.49192843 -0.1548683 -0.120878525 0.24106276 -0.39515564 -0.10403378 -0.122273594 0.005320523 0.14805518 0.052444328 0.03370367 -0.11456738 0.041007176 -0.18873341 0.14963774 -0.35187864 -0.12802038 -0.15022908 0.36732736 0.13674262 -0.39345682 0.011965807 0.11263545 0.10107704 0.24155828 0.22946012 0.08380032 -0.22919106 -0.13270599 -0.18893908 0.26992485 0.24085273 -0.09403638 0.11820152 -0.34634274
223 0.5036319 0.20411825 0.05318574 0.04577938 -0.14620882 0.44081667 -0.067348495 0.064103894 -0.2965758 0.17458855 0.45354697 0.011133607 -0.35932502 -0.51897967 -0.21707776 -0.22916575 0.41758907 0.26216412 -0.17967305 -0.23229489 0.36856434 0.35532412 -0.45709455 0.1992026 0.15139163 -0.79296094 0.017791592 -0.3158606 0.34312406 -0.09844336 0.0069820327 -0.08521758 -0.44281337 -0.34548134 -0.19663258 -0.11340679 0.014465206 -0.02120367 -0.56940854 -0.535041 0.022247184 0.2274276 0.12327862 0.11112791 -0.1019112 0.19199504 0.16037154 0.21950069 -0.5494462 -0.07626188 0.39207286 -0.06374588 0.32422456 0.71079516 0.22081116 -0.045156088 -0.22023934 -0.044096157 0.11291981 0.11992667 0.29253823 -0.09557155 0.17717369 -0.45004848 0.41632614 0.12989321 0.36237773 -0.45113286 0.38761342 -0.32356575 -0.2389174 -0.20832545 0.07773118 0.06701138 0.28120193 0.24362749 0.31935328 -0.08360331 0.010063101 0.28632933 -0.15291141 -0.12973908 -0.14567769 0.5446622 -0.42903316 0.5775708 0.22068472 0.3752823 -0.5329045 0.27497923 0.3613904 -0.13550197 0.27478844 -0.19178307 0.17967671 -0.43558156 0.25361085 -0.050607845 -0.087785326 0.12204568 0.37713414 0.062510885 0.14570644 -0.116167344 0.0347637 0.14716211 -0.13129283 -0.13297534 -0.046585165 0.23386991 0.17560202 -0.35170707 0.5034329 -0.23695138 -0.09941886 -0.36841753 0.0029920507 0.03664496 0.3035556 0.04093625 0.16023576 0.4840496 -0.19467239 -0.053030476 -0.010350509 -0.46396005 0.04734233 -0.12986182
120 0.653575 0.29764932 0.15032244 0.07814412 -0.16953188 0.43923286 -0.011072725 0.19643573 -0.46920553 0.073273815 0.6249742 0.060571015 -0.37534553 -0.4965164 -0.33549285 -0.14657137 0.41622108 0.17032799 -0.15509236 -0.22821309 0.3831121 0.29598004 -0.33558154 0.11603332 0.07171951 -0.77286315 -0.09801998 -0.29091382 0.2360767 -0.14420493 0.08137872 -0.026276447 -0.5147504 -0.24198465 -0.1666998 -0.15755107 0.02343105 0.09948873 -0.6610801 -0.4844916 -0.06809633 0.2627401 0.17856255 0.025127914 -0.14082222 0.09050838 0.23419914 0.15243998 -0.6294339 -0.058815118 0.3923595 -0.067895554 0.37890482 0.6140855 0.31424245 -0.013909941 -0.13311644 -0.0888996 0.11677896 0.14154823 0.30418125 -0.2304313 0.08569582 -0.3906993 0.41058898 0.17862722 0.35631222 -0.42402846 0.41094068 -0.28589472 -0.3391803 -0.2163358 0.030601738 -0.014960712 0.30798864 0.112960555 0.30206764 0.028917773 -0.031665098 0.027614556 -0.27276728 -0.30728447 -0.018950265 0.48515728 -0.4721723 0.48145288 0.07523828 0.4457598 -0.50348306 0.2935714 0.39452046 -0.07193714 0.26099336 -0.124115236 0.21765994 -0.34618306 0.26757547 -0.08963526 -0.011820711 0.032749124 0.21549654 0.032802064 0.2603116 -0.0651062 -0.16618918 0.20278169 -0.20337619 -0.1271059 -0.028228343 0.12811553 0.22218323 -0.35000905 0.46434197 -0.280764 0.04204035 -0.21293388 0.021406928 -0.0027089599 0.2995393 -0.0051900595 0.14485055 0.47956488 -0.16452746 -0.003497833 -0.043200828 -0.5575417 -0.07382302 -0.07574059
200 0.22483124 0.21490598 0.020553937 0.15218696 -0.0070883613 -0.03852009 -0.15615271 -0.15283619 -0.37252164 0.08347242 -0.0009813556 0.16826198 -0.041371364 -0.03331216 -0.14530206 -0.8383621 0.10751763 -0.37835333 -0.5773803 -0.33589694 0.24057634 -0.19673426 0.09668402 0.05977424 0.015610966 0.13298841 0.13555636 -0.30808112 -0.39881936 -0.18081844 0.30378485 0.17434475 0.15785345 -0.2115479 -0.46858543 0.6430073 -0.11330539 0.037089802 0.63625395 0.13246565 0.06712701 -0.06031896 -0.5291425 -0.11566745 -0.24260667 -0.22853673 -0.47602776 0.10829975 -0.22154497 0.1891515 -0.010556228 0.5351567 0.33296755 0.13433011 -0.036213603 0.09750272 -0.034153722 -0.08153977 -0.06430152 0.14166436 -0.12610085 -0.08402335 0.11639761 -0.23028187 -0.108537495 0.44506988 0.23568434 0.24324355 -0.39548874 -0.24581498 -0.101090975 0.12446885 -0.42257142 -0.07426799 0.6276378 0.31110126 0.39232153 0.19245133 -0.06479783 -0.1373356 -0.18970846 -0.02108725 0.4822292 -0.17712852 0.30750278 0.269699 0.14489198 0.13101354 -0.76885843 0.585715 0.45499697 0.2099188 -0.09481076 0.10880795 -0.06407599 -0.28011414 0.40604073 -0.060802866 0.25599268 0.3260796 0.37945378 0.1306724 -0.15920831 -0.65713054 0.14157397 0.049638167 0.4296395 -0.32645535 0.3300384 0.054678302 -0.59202254 0.17878306 -0.110569805 0.1823519 -0.37806755 0.31418142 0.5025203 -0.71650594 -0.1386894 -0.38189796 0.17024921 -0.2147785 0.10360904 0.17356347 0.00842259 -0.52939373 0.0026881215 -0.009299404
245 0.7104556 -0.3461177 -0.38788238 0.28207082 -0.19718258 0.12201547 0.09507855 -0.308923 -0.36538917 -0.21787664 0.086361036 0.037968736 -0.24076197 -0.07321137 0.013415003 -0.23133929 0.27981216 0.21631466 -0.4353262 0.081426464 -0.0394386 0.17429446 -0.7272763 -0.13355845 0.16201605 -0.17081669 -0.6431914 -0.47630608 0.12768997 -0.078062296 0.48007107 -0.1655136 -0.08614419 -0.5237572 -0.06244583 0.6332429 -0.11822138 0.29089206 0.34418255 -0.13651845 0.007721925 -0.05826371 -0.40186307 0.18872292 0.5196205 0.12301367 0.10754959 -0.53294086 -0.48344108 -0.25801623 -0.1436153 0.30626833 0.24429078 0.12628795 0.11177489 0.13161571 0.017226703 0.24500899 0.59231615 -0.3099695 0.0004299092 -0.07213873 0.32797685 -0.12898095 0.3337168 0.16830571 0.4040834 -0.4796846 0.14667176 -0.17230731 -0.556896 -0.11303168 0.5151083 -0.008671091 0.30401677 -0.3419793 -0.11323117 0.060066923 0.047006376 0.15209161 0.30408424 0.20233373 0.3471929 -0.07345469 0.09359855 0.261702 0.30214894 0.0172877 0.057545196 2.9646195e-05 -0.09406227 0.12769984 0.1076467 0.23550026 -0.22633485 -0.1286073 -0.1127824 0.39192146 -0.28479946 0.05987524 0.031881772 0.1412706 -0.34502217 -0.46150315 -0.11645689 0.234521 -0.52880824 -0.20076653 -0.29316047 -0.15566812 -0.20448038 -0.35784468 0.22948457 -0.03989921 0.08990606 0.43066475 0.14405112 -0.22490074 0.050204933 0.21482013 -0.17865756 -0.13999772 -0.22657669 0.5857275 -0.123212785 -0.6347926 -0.091398925 0.85731083
319 0.55209506 0.24969323 -0.07361116 0.099973164 -0.3172948 -0.005210407 -0.021588195 0.006495749 0.04970454 0.06961854 -0.2222647 0.016007625 -0.029138606 -0.21710147 -0.04957766 -0.27215615 -0.7294783 0.5363648 -0.5938765 0.026345212 0.07026783 -0.044892196 -0.52401555 0.04176497 0.39192656 -0.754385 -0.48687804 -0.17449293 0.16834886 0.28213465 0.105836585 -0.27655938 -0.16892731 -0.38238516 -0.13501438 -0.34024295 0.2220485 -0.05399389 -0.30213302 -0.026189715 0.49213427 -0.2592131 -0.077487975 0.1377205 -0.016889567 0.18116425 0.25202897 0.06251597 0.26859915 0.11194505 0.0704151 0.26998544 0.18361531 0.13646933 -0.43209702 0.034341525 -0.42176637 0.18775098 -0.094109 0.26663128 0.06965132 0.55036825 0.025188431 -0.11781844 -0.13957112 -0.11044227 -0.041163016 -0.34526455 0.25058848 -0.2143177 -0.17906359 -0.03528509 -0.011034085 -0.041129287 0.51574475 -0.26863012 -0.011720648 0.15760466 0.5242564 0.07683555 -0.13184446 0.11115913 0.24814484 0.092890725 0.2098499 0.29075322 -0.11728415 0.24647784 -0.13797629 0.03207871 -0.39283848 0.13634142 -0.07695808 -0.05951668 0.27719784 0.27423027 0.22020005 -0.0012085659 0.54685843 -0.07205842 -0.19879843 -0.09099792 0.17141269 -0.24200608 -0.40797657 0.1832344 0.26343474 -0.5932106 -0.3174914 -0.31722668 -0.12180474 0.55369836 0.29884714 -0.13328634 0.27416727 -0.014593247 -0.31166157 0.18607822 -0.06990549 -0.25814682 0.35315153 -0.10688506 0.04521834 0.10007483 -0.43563297 -0.32375053 0.55436265 0.19881868
220 0.4952968 0.26525724 -0.22436668 -0.22006921 0.30327594 0.18660508 0.084848456 0.16861358 -0.20259808 0.11426714 -0.38036284 -0.022906177 -0.09780911 0.08482126 0.013348245 -0.44022468 -0.6444385 -0.21105686 -0.26581448 -0.0839129 0.32771492 0.030054076 -0.43920574 -0.11141474 0.119571686 0.4359229 -0.12285295 0.20418091 0.010243509 0.043647807 0.26112384 0.056048583 0.16259351 0.027213484 -0.20384789 0.33079076 -0.090978205 0.28957033 0.31104332 -0.026355997 -0.4729831 0.41666326 -0.12207284 0.5581068 -0.19267866 0.3127168 0.41379678 0.010084545 0.24240957 -0.21176122 -0.17474146 0.23135087 0.57836014 0.6001273 0.28939795 0.46035 0.3900266 0.05122184 -0.41649395 -0.56202257 0.7038134 0.47340608 0.94752103 -0.359484 -0.63132983 -0.41680354 0.10629504 -0.5818588 0.041180525 0.04856947 0.029233404 -0.4875956 -0.49359953 -0.019851573 0.17861536 0.06942633 -0.0768288 -0.13080932 0.20511484 0.11309074 -0.009991164 -0.3741457 0.2856131 0.14628784 -0.23044357 -0.15221377 0.14751615 0.17253633 -0.7329781 -0.16990699 0.6644605 0.44056126 0.22391097 0.41937506 -0.24874677 -0.10183236 0.25876704 -0.30069995 -0.18281947 -0.08481245 0.004612775 0.11395011 0.23986788 0.09795916 0.11128094 -0.004141475 -0.20178476 0.048315004 -0.41629907 -0.0377957 -0.25994816 0.35389864 0.0027659745 -0.4252973 0.060027637 0.1124533 -0.03115226 0.3301822 0.10104702 0.27094227 -0.22411782 -0.072689965 -0.13535249 0.26555473 0.28088593 -0.09405576 0.05103935 -0.32040232
328 0.5459878 0.20750587 0.20425941 0.02850977 -0.09564519 0.49795407 -0.018777527 0.11111859 -0.2789434 0.064812414 0.6226761 0.011766627 -0.37298942 -0.5602547 -0.20084034 -0.28477925 0.35927388 0.2900587 -0.095388204 -0.3255136 0.42594436 0.24426043 -0.40531117 0.07551599 0.17270267 -0.77149504 -0.059536558 -0.26276466 0.33143637 -0.058356334 0.01340765 0.03934116 -0.4559452 -0.29095626 -0.1755947 -0.15153487 0.071235165 0.014349644 -0.59343904 -0.5404351 0.02504372 0.16027014 0.06327954 0.16206934 0.0011799242 0.15227616 0.25797153 0.1552623 -0.60069317 -0.03247444 0.24802779 -0.006144227 0.27330044 0.7142666 0.21941097 0.008040653 -0.079259 0.07866002 0.06436514 0.122921415 0.282856 -0.12638783 0.12647106 -0.4622196 0.5283494 0.16701515 0.36965305 -0.36808482 0.34693876 -0.30663452 -0.31914437 -0.19516107 0.1235148 -0.025781788 0.22568142 0.24825831 0.2217267 -0.067104094 0.004458356 0.20923232 -0.22678192 -0.10426882 -0.11404455 0.5341949 -0.34468028 0.49520338 0.17821476 0.41241872 -0.54067373 0.307319 0.44552374 -0.108473025 0.18876147 -0.187652 0.19106321 -0.35530445 0.30012596 -0.12575719 -0.0736863 0.19200355 0.34751028 0.036493823 0.26824397 -0.12135915 -0.03137534 0.009131763 -0.2738503 -0.2350787 -0.03546045 0.2286224 0.17145151 -0.3576811 0.40221766 -0.30787382 -0.066687636 -0.35076293 -0.03729803 -0.04292649 0.22884543 0.19328177 0.104250014 0.54929596 -0.17715093 -0.0048707835 -0.16947399 -0.49680296 -0.12143831 -0.12333343
23 0.61231154 0.2297516 0.16985293 -0.031118337 -0.006291208 0.33704758 -0.0996568 0.08965087 -0.3165994 0.13743934 0.6350874 0.107061505 -0.37538368 -0.5352177 -0.20289828 -0.27494457 0.3837503 0.28891987 -0.14935346 -0.24651973 0.47552237 0.3212712 -0.4632958 0.214531 0.14505659 -0.7932377 0.0077737174 -0.2449246 0.3374497 -0.16845834 0.08023295 -0.007936139 -0.4252936 -0.14705265 -0.20452107 -0.1530272 0.107855424 -0.10625188 -0.48044628 -0.5831858 -0.019617377 0.2715571 0.04469777 0.16716377 -0.03288389 0.07327164 0.16353752 0.07375834 -0.5313294 -0.09288315 0.30284747 -0.12645897 0.29896998 0.7257625 0.18652456 -0.028417364 -0.047676366 0.08878743 0.17215839 0.22114015 0.2754675 -0.2633329 0.13631202 -0.32282284 0.43056357 0.09642741 0.4176441 -0.4831619 0.5051376 -0.21157844 -0.39594263 -0.17785996 0.016232522 0.07141929 0.37164703 0.19956166 0.25687608 -0.14353065 -0.09044659 0.11122784 -0.28139442 -0.16340303 -0.13244623 0.46244922 -0.46957377 0.5373839 0.17146689 0.46120897 -0.5309668 0.39207372 0.4588964 -0.14067343 0.21329671 -0.06760134 0.20843826 -0.24438044 0.29276228 -0.046058655 -0.02028359 0.09311401 0.2996644 0.10748709 0.36747244 -0.020159518 -0.024949653 0.075643264 -0.1597428 -0.22805704 -0.059113555 0.1807109 0.21926807 -0.29766005 0.43325645 -0.2586379 -0.024195379 -0.34011087 0.05494562 -0.105918966 0.30348685 0.12875442 0.13197023 0.509906 -0.14780638 0.006262928 -0.15047799 -0.56987286 -0.007699812 -0.1183057
82 0.6790179 0.32507348 0.060400836 -0.042445388 -0.18458585 0.40289965 0.009294518 0.08703924 -0.29678488 0.18068026 0.6224152 0.07594372 -0.1538893 -0.5375714 -0.28869843 -0.13554074 0.42890066 0.3374633 -0.19091949 -0.14876811 0.3955748 0.30439234 -0.3785277 0.15694523 0.08418895 -0.8184185 0.029542204 -0.2396569 0.39646178 -0.16406383 0.13860579 0.036972042 -0.44332787 -0.26514688 -0.26863575 -0.19118166 0.06359401 0.015882717 -0.50760216 -0.5109956 0.03970809 0.3022037 0.1528168 0.11785762 -0.21720132 0.061545804 0.060506187 0.027812416 -0.6145093 -0.049930815 0.43765354 -0.024046356 0.22780171 0.63476497 0.28326067 0.1046663 -0.13576269 0.08658218 0.14128862 0.123806305 0.15871638 -0.21467763 0.21238327 -0.35159793 0.421185 0.12968054 0.39411965 -0.45172873 0.39065054 -0.3343769 -0.2650941 -0.100656 0.16683498 -0.032761533 0.4363915 0.23657608 0.36153972 -0.12933461 -0.010149476 0.16533831 -0.26983643 -0.13866864 0.016468337 0.46408042 -0.40412322 0.4960975 0.2533618 0.40466592 -0.4131522 0.32119092 0.3807826 0.0021848374 0.27429545 -0.11163139 0.16268425 -0.39769515 0.30111313 -0.14999111 -0.113365166 0.10648235 0.27029374 0.115711406 0.2296463 -0.11431172 0.028784607 0.15577956 -0.11857474 -0.06230448 -0.14515471 0.10433746 0.2677378 -0.37005898 0.54788035 -0.31073296 -0.07111218 -0.2937425 -0.029212086 -0.14019626 0.26885644 0.10539442 0.14671303 0.52755976 -0.18637645 -0.06941962 -0.051197186 -0.45390403 0.01895078 -0.1445941
63 0.64619297 0.3613318 -0.16321626 -0.28540492 0.11994627 0.10579517 0.16704002 0.15863483 -0.2022998 0.086682685 -0.29341227 0.0359694 -0.11747315 -0.109128855 0.11945791 -0.28734547 -0.45646158 -0.20581393 -0.17631182 -0.12599736 0.23799166 0.17917345 -0.40528283 -0.22451125 0.076544836 0.47810927 -0.014746356 0.2970856 0.029397374 0.2006707 0.22787717 0.21687406 0.10149865 -0.0649322 -0.14047368 0.24109976 -0.09389625 0.43633965 0.22204986 0.0103713125 -0.50784916 0.529508 -0.115974136 0.56399274 -0.10087062 0.447934 0.43795094 0.056256346 0.33294907 -0.19606116 -0.12619859 0.2812714 0.5136251 0.5400816 0.27121574 0.45201102 0.37632278 -0.04102439 -0.3842819 -0.5062457 0.5820776 0.3108786 0.915959 -0.25268418 -0.56818444 -0.3806097 0.111929394 -0.59070843 0.04244404 0.047792334 0.0005604563 -0.57049805 -0.6364207 -0.07702142 0.24997197 0.015146938 -0.06932087 -0.17460632 0.09861402 0.077795014 -0.028588785 -0.45546743 0.30862823 0.09602745 -0.26186392 -0.17892034 0.15028156 0.26133582 -0.68437785 -0.15693982 0.580636 0.48099825 0.28961074 0.4709668 -0.22004129 -0.13199551 0.24591175 -0.3265856 -0.15955505 -0.010443843 0.087850705 0.111572415 0.059857987 0.026380023 -0.07340552 -0.015128408 -0.2020651 0.045303755 -0.402029 -0.18548407 -0.22648561 0.42318892 0.11985751 -0.40306008 -0.005209503 0.12927367 0.036618147 0.25615203 0.24306364 0.11513769 -0.15135963 -0.19742958 -0.14284575 0.20726663 0.2862168 -0.105774984 0.09437232 -0.35160193
335 0.68412226 -0.24765325 -0.43854854 0.35359132 -0.2144351 0.027110174 0.07662252 -0.28256524 -0.27956846 -0.13940611 -0.034269813 -0.0010018816 -0.16931996 -0.12315808 0.03412179 -0.26172242 0.22948161 0.07998042 -0.3531844 0.07414201 -0.1255428 0.2126921 -0.7493863 -0.12571068 -0.030052498 -0.04319109 -0.60706323 -0.5150422 0.17677662 -0.009166306 0.5489831 -0.23138922 -0.08218342 -0.45134652 -0.10789229 0.6198855 -0.15959899 0.30894098 0.19633952 -0.23147312 0.031112181 -0.07144712 -0.3714081 0.19298203 0.5268853 0.12231438 0.07810676 -0.49439678 -0.55461204 -0.17688306 -0.13136204 0.31470403 0.18043555 0.24986193 0.14295472 0.037091587 -0.035306092 0.2655101 0.5985395 -0.29103708 0.020922542 -0.20613529 0.29692182 -0.074211195 0.33093658 0.068401225 0.4775628 -0.46983492 0.21300957 -0.094771065 -0.6152303 -0.055473242 0.47431654 0.09122158 0.22244938 -0.37169045 -0.099443145 0.020469954 0.17709433 0.19451632 0.27232453 0.2332617 0.3110665 -0.034722656 0.05839635 0.26310745 0.23704484 0.06145268 0.016824212 0.086616285 -0.058665074 0.121608175 0.10847557 0.21403034 -0.29502913 -0.07308082 -0.076200895 0.3487908 -0.27603415 0.055385567 0.1674409 0.20403291 -0.2617702 -0.38197136 -0.051511835 0.16457862 -0.57809335 -0.15154225 -0.34723923 -0.16087931 -0.32087287 -0.33425468 0.15644726 -0.12748814 0.046655014 0.50364274 0.23807444 -0.2604744 0.075636595 0.18948913 -0.16356283 -0.10599321 -0.08476554 0.69319546 -0.13228938 -0.6030984 -0.16651492 0.835645
437 0.8965484 0.36504558 -0.3906297 0.48991328 -0.1630991 -0.0375421 0.45852235 0.56246126 0.04174402 -0.31561294 -0.37294757 0.19747305 -0.46347672 -0.3079031 -0.3125987 -0.51794064 0.38316846 0.17482996 -0.42238578 -0.2915531 -0.08158133 -0.26552424 -0.12707108 0.11189136 -0.1992798 0.10611086 -0.011931608 -0.58730304 -0.32175094 0.27009803 0.3432612 -0.13942043 0.36123574 -0.09398269 0.1842684 0.12242451 -0.2399489 -0.038677238 0.28254646 -0.08681495 -0.03137628 0.2686906 -0.63715845 0.27526334 -0.44751254 -0.11354705 -0.0117283035 0.3484773 0.2208418 -0.3144954 0.1703997 -0.42795047 -0.044153992 0.08665848 0.16386884 -0.21976662 -0.028923972 -0.03205956 -0.08041172 0.2805204 0.34033328 0.15596773 0.36945105 0.06462685 0.20646682 0.2501087 0.42601573 -0.5204499 -0.34510317 0.2419711 0.17384991 0.73521644 0.118812926 -0.2181186 0.10361644 0.15011257 -0.09009705 -0.57280463 0.60946167 -0.28034884 0.51647276 -0.095968574 0.007001952 0.13598731 0.018212909 0.10110796 -0.07087492 -0.24784884 -0.03611517 -0.0062614456 0.45675868 0.28357136 -0.18863903 0.067747824 0.053518664 0.49868357 0.17155528 -0.30956787 0.112844534 0.38274536 -0.17314827 -0.34437537 0.053020123 0.016352424 -0.29691362 0.36549753 0.0065177246 0.2594279 0.099655226 0.29144463 0.15793505 0.4113362 0.050988596 -0.13646919 0.16341726 -0.24033868 -0.03324001 -0.4859826 -0.2106054 0.030744018 0.09772996 0.21162164 -0.20075682 -0.3905309 -0.13978763 -0.16222548 0.13686356 0.29032576
513 0.47243053 0.28961435 -0.040571712 0.013975232 -0.27912635 -0.056136545 0.04367757 0.03728608 0.171333 0.14704873 -0.22401327 0.14731807 -0.0069363015 -0.23611765 -0.06748971 -0.29393047 -0.6949832 0.45327958 -0.46565312 0.04449395 0.16975574 -0.06851933 -0.66212535 0.07237469 0.30444518 -0.58515817 -0.38558614 -0.22217055 0.23397663 0.09664921 0.1570776 -0.30612898 -0.2071769 -0.39554635 -0.2213306 -0.42386618 0.2030218 -0.047525506 -0.42930093 0.032304812 0.5901723 -0.30516577 -0.018565618 0.06298043 -0.0038335246 0.056469668 0.3702566 0.049312662 0.21939841 0.06908085 0.07332735 0.22426054 0.13615975 0.28047612 -0.50962645 0.023068536 -0.42582786 0.18167359 -0.042320292 0.3656869 0.05736047 0.5369734 0.10796864 -0.036858525 -0.05004008 -0.035503674 -0.03702282 -0.3245475 0.29799873 -0.23357911 -0.2616614 0.10079138 -0.20793533 0.041778143 0.6270607 -0.21389292 -0.021268042 0.15387115 0.52975154 0.2035979 -0.14877218 0.16932464 0.15607435 0.06143301 0.16409728 0.31202564 -0.14310318 0.29704395 -0.15172909 0.009965816 -0.2798285 0.123676166 -0.033945154 -0.1346288 0.19264011 0.21703339 0.29506978 -0.043153368 0.49818498 -0.19662444 -0.17176479 -0.19395657 0.11906693 -0.22246993 -0.3253469 0.24331596 0.14088862 -0.61765474 -0.23250009 -0.31943655 -0.14165695 0.644898 0.2874713 -0.110060945 0.34189755 0.14701663 -0.34766975 0.10107856 -0.0522485 -0.18532693 0.36520794 -0.042746384 0.07521921 0.12821451 -0.5724245 -0.24977095 0.5332579 0.2782844
229 0.56649804 0.23282334 -0.19660306 0.5013703 -0.424604 0.20171851 0.07420538 -0.30365765 -0.29883114 -0.056586016 0.2629628 -0.12392376 -0.15113737 -0.5306489 -0.13980022 -0.1849888 -0.2979905 0.3792396 0.027270274 0.73262763 0.12865107 0.511853 0.025913132 0.06820171 0.2712526 0.33614653 -0.03912854 -0.16281585 -0.15510002 0.24261387 0.115074195 0.0926733 -0.122773945 0.32509288 -0.51578885 0.33983806 -0.12148112 -0.08663734 -0.21302944 -0.5533546 -0.16796686 -0.30662557 -0.31087658 -0.19030017 -0.17380153 0.35196948 0.15911399 -0.35444584 0.19387065 -0.290615 -0.15508188 0.111380085 -0.3542943 -0.06703743 -0.33385316 0.24904893 -0.078218795 0.31121388 0.3879558 0.16113143 -0.0721453 0.07397425 0.90727055 0.094254516 -0.12613873 -0.19655453 0.030102232 -0.0033553154 -0.034200475 -0.43740276 0.055329207 0.34085798 -0.050201897 -0.02114802 0.22797528 -0.19655302 0.5177411 -0.088324934 0.12854327 -0.39798865 0.20812537 -0.3646913 -0.07811248 -0.10098801 0.19675818 -0.44037402 0.15012835 -0.08180543 -0.7977768 -0.22605945 0.20306784 0.2871777 0.16160637 -0.5195265 0.04954216 -0.044037174 0.18416435 -0.23361513 0.4497055 1.1137373 0.17175263 -0.12771717 -0.2798485 -0.109913886 -0.38941896 0.15841076 -0.14969888 -0.024403319 0.31887564 -0.1940336 -0.33563304 0.54922545 -0.07109096 0.32734394 0.13806449 0.28046522 0.15109637 0.1665511 0.23605011 0.38372862 0.12253725 -0.1311726 0.13849097 0.18843989 0.024057765 0.15062732 -0.46551374 -0.021906035
201 0.4592368 0.24372572 -0.08203782 0.12472017 -0.3722543 -0.0056927255 -0.027086316 0.076435216 0.14228867 0.24601738 -0.27723116 0.13103561 0.1090345 -0.13856299 0.0395683 -0.34519818 -0.78222746 0.49365395 -0.5631655 0.077522054 0.2444903 0.06804115 -0.65091723 0.002083849 0.4442097 -0.71192074 -0.50383705 -0.24589227 0.13909642 0.24134089 0.04033356 -0.19231977 -0.30112213 -0.29490125 -0.18676694 -0.37666538 0.20689513 -0.029833047 -0.33624056 0.044138916 0.46768984 -0.15934585 -0.17413662 0.1699608 -0.0077940486 0.16595955 0.30625182 -0.07008945 0.29360723 0.11061483 0.0133056855 0.18400833 0.14345662 0.14716864 -0.4613558 -0.047852438 -0.43984923 0.16033757 -0.11894037 0.3092753 0.05084743 0.407188 0.09581021 -0.13811588 -0.08848018 -0.059880883 -0.07990985 -0.39429197 0.3849997 -0.26093808 -0.2264364 0.037542358 -0.16370392 -0.07346442 0.52771294 -0.34475696 -0.03573323 0.15805821 0.55596673 0.1305409 -0.020735573 0.19406965 0.17438327 0.13571516 0.15836635 0.37620354 -0.08431945 0.19410546 -0.19147745 0.050825737 -0.3969828 0.18547867 -0.096777365 -0.057616483 0.16685984 0.20797418 0.3355384 0.0057646814 0.47675905 -0.057936143 -0.18352003 -0.11047226 0.13100569 -0.2123682 -0.3660328 0.16473268 0.27010348 -0.56107354 -0.2834829 -0.33133274 -0.09760501 0.52853554 0.22589095 -0.078782715 0.37429297 0.05379204 -0.32771486 0.06680504 0.013522957 -0.22334255 0.39302075 -0.05081966 -0.0033431966 0.10853485 -0.5305037 -0.2715273 0.6334675 0.28500062
237 0.884081 0.35270774 -0.4092047 0.47881684 -0.06503394 0.05892001 0.47554287 0.54125667 -0.037055623 -0.28792143 -0.34772652 0.20521857 -0.47931057 -0.22075486 -0.18913949 -0.46304747 0.36299017 0.20432992 -0.46056932 -0.17774165 -0.13423942 -0.2993915 -0.20928727 0.1336636 -0.17242308 0.14277305 -0.10242987 -0.59354895 -0.27501464 0.24106686 0.4411768 -0.19605365 0.45834008 -0.15871954 0.24489631 0.16059782 -0.25600535 -0.04733172 0.27234253 -0.021026343 0.15851587 0.28809968 -0.5617866 0.2954631 -0.4741197 -0.039944492 0.03572407 0.3891516 0.27669135 -0.38590267 0.18442194 -0.34498945 -0.08769375 0.16163583 0.11555764 -0.32651597 -0.05515101 -0.048134204 -0.03893856 0.25099787 0.3824295 0.18308985 0.2365351 0.084149525 0.16699083 0.1929316 0.48468283 -0.49265426 -0.32185876 0.31957105 0.15018876 0.6353429 0.034357272 -0.2907083 0.044687558 0.19394444 -0.16163218 -0.48171654 0.60129964 -0.34465584 0.49232286 -0.08510829 -0.0118932575 0.19610503 -0.04097882 0.11566941 -0.04339732 -0.22492161 -0.08117133 -0.072957665 0.5435426 0.2951599 -0.25959602 -0.0432379 -0.019574337 0.50809425 0.30612645 -0.25156453 0.042449683 0.44550383 -0.13595714 -0.36818945 0.04404275 0.023962596 -0.34660757 0.27253723 -0.026730416 0.1827152 0.1275646 0.2623803 0.19076607 0.29100993 -0.064361654 -0.15290038 0.013334468 -0.17596471 -0.124080375 -0.48550102 -0.18364711 0.13000931 0.17035474 0.22855881 -0.12428911 -0.31492633 -0.022005485 -0.030629389 0.09411684 0.24229272
184 0.5029543 0.19024312 -0.16439083 0.5201597 -0.44722733 0.091515556 0.044808216 -0.3022659 -0.32555363 -0.1187443 0.32359248 -0.22982539 -0.13198775 -0.51023054 -0.15610409 -0.3333534 -0.22192588 0.43564177 -0.03919491 0.7579511 0.16480862 0.60309005 -0.052293763 0.08748389 0.2573024 0.30902585 -0.015919728 -0.1355368 -0.2670964 0.26014692 0.023757514 0.13507895 -0.0070226155 0.26035693 -0.4558219 0.3675697 -0.17655489 -0.17901137 -0.13879347 -0.59001607 -0.12610291 -0.27063012 -0.2621233 -0.15766317 -0.17723902 0.3336148 0.12502967 -0.2954243 0.26870617 -0.23838843 -0.13517517 0.041375067 -0.29698703 -0.02214014 -0.17238504 0.1966604 -0.16536404 0.3430548 0.44446775 0.25049293 0.02329556 0.0699285 0.9520821 0.09456327 -0.10939425 -0.32642677 0.08702527 0.07889497 0.044795934 -0.40862626 0.015584119 0.33089036 -0.025189377 -0.1716272 0.2592272 -0.2746668 0.5645302 -0.10934794 0.076212324 -0.34006166 0.25131157 -0.3312386 -0.053960316 -0.049910553 0.18919781 -0.33704662 0.19241564 -0.02303631 -0.8011528 -0.22773047 0.13711171 0.22926725 0.24685791 -0.61887896 0.03856828 -0.06254229 0.17403568 -0.31088272 0.4010779 1.1867138 0.19628234 -0.019181855 -0.23879078 -0.17153144 -0.33839613 0.09051901 -0.15772562 -0.037460517 0.342576 -0.26859203 -0.3056993 0.5203371 -0.0863044 0.29369554 0.051391125 0.37339324 0.12531058 0.19931051 0.21808825 0.34607944 0.18832739 -0.17658882 0.11947729 0.19196388 0.030141175 0.25190148 -0.33518428 -0.09594686
267 0.12820193 0.4294725 -0.02533478 0.16600558 -0.07710739 -0.10228994 -0.21445832 -0.27294856 -0.32090044 0.11719386 -0.10143421 0.11570396 -0.06078509 0.031681243 0.010565342 -0.8253463 0.025407229 -0.40248922 -0.61497813 -0.3691798 0.11271539 -0.2860373 0.06753693 0.059264135 0.039898492 -0.043290865 0.11493247 -0.33606333 -0.3656387 -0.24628963 0.3795601 0.13828999 0.21872523 -0.10693966 -0.4603525 0.602982 -0.1432042 0.095775634 0.5815588 0.11073759 0.20396227 0.0043885754 -0.5216343 -0.07267186 -0.23049057 -0.28307647 -0.41145974 0.050301075 -0.14298947 0.13125275 -0.003557058 0.5653559 0.26680547 0.19726643 -0.14505059 0.10333698 0.07025002 -0.15193401 -0.09949592 0.19163367 -0.03666052 -0.0648697 0.06450889 -0.2157981 -0.140317 0.56740797 0.18007232 0.20562842 -0.41801307 -0.2534647 -0.17832801 -0.011121798 -0.33059672 -0.14914611 0.50256556 0.30357698 0.41128063 0.108053796 -0.16030863 -0.072122574 -0.08469625 0.049287908 0.57869005 -0.09869804 0.15362728 0.18432498 0.15997577 0.19324112 -0.81286496 0.561268 0.48451152 0.12324211 -0.18088162 -0.04920642 -0.13253593 -0.2229111 0.42971018 0.02883966 0.25702277 0.41175526 0.32460046 0.04775457 -0.18841244 -0.5849326 0.19044933 -0.025978649 0.3157134 -0.32964697 0.26401713 -0.011101798 -0.5955817 0.12544645 -0.15473795 0.19137979 -0.51328397 0.28603652 0.600229 -0.66527283 -0.039414942 -0.3204203 0.20957135 -0.1427137 -0.008387921 0.17308961 0.082368806 -0.36159015 0.04230628 0.057512954
565 0.38658533 -0.2027512 0.0668652 0.40598765 0.21892343 -0.071048036 0.17605706 0.02393907 0.20762657 -0.0065436787 -0.1933212 -0.10087439 -0.46402192 -0.43181217 -0.34370846 -0.122985154 -0.16606998 0.038515687 0.15966986 0.15216528 -0.37968776 0.2987912 0.33456734 0.6413098 0.63168746 -0.105008185 -0.31146106 0.007762402 -0.14937992 -0.18529038 0.14158463 0.08789593 0.18754801 0.054401595 -0.28519168 -0.08575027 -0.41378677 -0.008257121 -0.31785607 0.09970175 -0.2193419 0.43181148 -0.60522 0.36081305 -0.37914675 -0.07782721 -0.31171805 -0.350529 -0.21579503 -0.91097397 -0.050775193 -0.23763576 0.7009488 0.8371503 -0.008128106 0.19167309 0.28312004 -0.01911981 0.03676159 0.054670624 0.26661423 -0.0036597054 0.41377386 -0.29346004 -0.24936491 0.03886937 0.43335688 -0.02737051 -0.049258728 -0.1353799 -0.18220544 -0.014048971 -0.16279094 -0.14419153 -0.105667576 0.26176533 0.12293683 -0.41829184 0.09162428 0.24762915 -0.09765734 -0.19941339 0.14740466 -0.52703637 0.1915644 0.1267206 0.40231198 -0.095210105 -0.70233136 -0.103833154 -0.025770122 0.17637734 -0.60372156 -0.29664913 -0.20940259 0.71216184 0.17516038 -0.4406779 0.70592 0.33864704 -0.050888095 -0.31637484 -0.5933836 0.04788567 -0.0988089 -0.0018927957 0.012386778 0.320135 0.58209467 -0.19633447 0.046276987 0.04823003 0.14229852 0.057172853 -0.25011295 0.19817601 -0.18056832 0.0010535652 -0.24941358 -0.35918087 0.29812437 -0.20440727 -0.08390706 0.4389667 -0.2607845 0.12551941 -0.1949624 0.0938038
531 0.43004727 0.17809491 -0.022760633 0.108708546 -0.4771562 0.07121621 0.042327944 0.039944127 0.13269094 0.13634422 -0.22925551 0.14140384 0.13504742 -0.2548339 -0.024405248 -0.2996964 -0.6844512 0.39454043 -0.5238607 0.056540374 0.21238008 -0.13869089 -0.6196303 -0.034094628 0.28511694 -0.6331026 -0.5628218 -0.22791833 0.2167919 0.3569576 0.13240045 -0.27720842 -0.2675321 -0.43692216 -0.15387976 -0.37251794 0.16361962 -0.018191027 -0.349406 -0.045606144 0.535861 -0.2768021 -0.121147424 0.2321267 -0.002110768 0.14870317 0.2578967 -0.003400029 0.31560814 0.02011096 0.10196703 0.21710536 0.17135905 0.3021334 -0.4327848 0.013325266 -0.5266863 0.08886413 -0.047291968 0.30566433 0.032274555 0.5565886 -0.02902206 -0.119235955 -0.059222333 -0.043808017 -0.08897984 -0.34962165 0.26707265 -0.25773072 -0.2735162 0.024811925 -0.10976356 -0.03140875 0.5274142 -0.39961398 -0.079708025 0.15258849 0.4411866 0.09717589 -0.10554971 0.100607134 0.013741938 0.07955479 0.204264 0.3212365 -0.100994185 0.28231263 -0.20885234 -0.07354529 -0.4087157 0.20563236 -0.07698107 -0.121636644 0.2671807 0.27014104 0.32238817 -0.06008721 0.38246205 -0.0140993865 -0.10874414 -0.29833815 0.060365055 -0.12548123 -0.27854395 0.20752405 0.19814298 -0.6969194 -0.21931517 -0.28783405 -0.1843287 0.47290254 0.278596 -0.09635221 0.30025536 0.05964776 -0.35537258 0.10296842 -0.07484777 -0.28709316 0.44444335 0.06373988 0.09165845 0.23892796 -0.45669866 -0.116903804 0.61750174 0.18958338
226 0.5681648 0.22301754 -0.27428004 0.42282793 -0.38526195 0.0495834 0.022195924 -0.33787182 -0.35710472 -0.066861324 0.29860413 -0.16381001 -0.17157988 -0.46130502 -0.19095755 -0.3758576 -0.26792845 0.3515613 0.013846228 0.8233154 0.09474697 0.4759581 0.038613793 0.06372841 0.37591365 0.35012844 -0.041899256 -0.089090474 -0.26376036 0.32535818 0.09809697 0.061967075 0.03513495 0.31849384 -0.42676413 0.32552853 -0.09580149 -0.10961696 -0.21539009 -0.4786008 -0.14473976 -0.3332362 -0.17113982 -0.19137089 -0.24312393 0.2860534 0.18035866 -0.25425923 0.20901187 -0.3648925 -0.060976706 0.08227995 -0.3474825 0.08686161 -0.31658933 0.34400597 -0.065744035 0.39252087 0.46763477 0.18586251 -0.1467584 -0.0068237935 0.8993767 0.085592315 -0.17378473 -0.2275415 0.07066806 0.11482389 -0.10031651 -0.3398341 0.029023055 0.32850143 0.02536728 -0.14191908 0.3131808 -0.20199622 0.59018624 -0.014954397 0.09821967 -0.25628147 0.18780762 -0.3754836 -0.009370125 -0.114254855 0.15990996 -0.4287496 0.2446512 0.031785667 -0.79148304 -0.3143219 0.24671318 0.2392623 0.25406745 -0.5915901 0.087086774 -0.044413175 0.087133564 -0.2563063 0.4563272 1.124919 0.11495561 0.021634305 -0.18814304 -0.22702563 -0.4383865 0.06362181 -0.16675228 0.008200532 0.29054126 -0.18101716 -0.26339713 0.63014054 -0.06515705 0.32359326 0.18874459 0.27478343 0.068403 0.067692265 0.30884808 0.3773029 0.19378184 -0.04720259 0.11278501 0.16272597 0.00949621 0.07181146 -0.4770194 -0.13321249
316 0.5088775 0.31469303 -0.124515295 0.06171918 -0.31981578 0.0023502489 -0.048740316 -0.014637724 0.14929767 0.17467467 -0.33008707 -0.044539873 -0.011983982 -0.15941244 -0.022032073 -0.39825395 -0.82517886 0.47793958 -0.526977 0.0882797 0.14145651 -0.061674256 -0.5681487 0.07798437 0.38723758 -0.696206 -0.36298826 -0.31515753 0.23342459 0.16514644 0.12606993 -0.33696502 -0.2756333 -0.30483022 -0.09139361 -0.40514803 0.21578453 -0.089445196 -0.34238884 0.011012925 0.6534336 -0.26924938 -0.015454198 0.080269605 0.03632494 0.12726204 0.24220087 0.051201515 0.16266787 0.029682783 0.0023637605 0.27846438 0.17808709 0.18312448 -0.46959916 0.00048459842 -0.30798882 0.09270996 0.02591947 0.25004318 0.09817774 0.44868657 0.09832385 -0.129261 -0.043624114 -0.011777481 -0.026532222 -0.3887178 0.23373203 -0.26551506 -0.22205499 0.046855718 -0.013856272 -0.04969379 0.5382684 -0.3358798 0.07578824 0.1219441 0.5366471 0.13937083 -0.1023462 0.190096 0.25155208 0.09373158 0.14862925 0.23180442 -0.20641986 0.23535088 -0.10702809 0.1081554 -0.40825453 0.15426975 -0.16772865 -0.14852548 0.24585213 0.26468447 0.31280065 -0.061464906 0.3725586 -0.15488294 -0.16260871 -0.1394662 0.18093136 -0.19120833 -0.3869854 0.23992635 0.30260652 -0.4872153 -0.30978656 -0.37158108 -0.117419325 0.651206 0.2569945 -0.11459321 0.2941266 0.001562749 -0.2714345 0.14689864 -0.031059232 -0.2455579 0.3648566 0.009039125 0.048135404 0.18994768 -0.551045 -0.16253197 0.5784727 0.28603017
311 0.63862747 0.17008048 -0.22421558 0.3116145 -0.34009108 0.11548856 0.055981457 -0.19476458 -0.2987047 -0.123838745 0.25166336 -0.17204154 -0.21333665 -0.5261883 -0.055293906 -0.36315438 -0.18288466 0.44783947 0.08848512 0.776705 0.13654327 0.42125255 0.016033094 0.095663674 0.1578776 0.33985424 -0.0064464333 -0.14466353 -0.31428075 0.26540166 0.19201712 0.13083047 -0.054943815 0.29593933 -0.43320522 0.31907386 -0.07869162 -0.0847711 -0.19106343 -0.52326447 -0.248239 -0.19244818 -0.174085 -0.1639755 -0.15762423 0.25785464 0.16451082 -0.2559719 0.29358748 -0.23820156 -0.1746293 0.14065003 -0.2708367 -0.04511131 -0.2267546 0.19982168 -0.1468888 0.30078432 0.4064946 0.18339302 -0.039718017 0.09050031 0.8606165 0.2082655 -0.18006095 -0.27773 0.15525877 -0.026781421 0.07400183 -0.37092102 -0.10028555 0.31514853 0.057791248 -0.15173067 0.22569339 -0.13142604 0.6934959 0.0032660482 0.065691136 -0.29050165 0.10328558 -0.35706562 -0.0088217445 -0.10242062 0.16591865 -0.3822626 0.22665094 -0.012532322 -0.7580216 -0.3085664 0.18604094 0.3159391 0.17332886 -0.6221709 0.23398978 -0.091341645 0.07132389 -0.17888634 0.37514755 1.2029064 0.2860833 -0.072181575 -0.2879727 -0.16203475 -0.36159602 0.27041084 -0.18744461 0.0035194033 0.33245337 -0.1824625 -0.3813809 0.59587455 0.011522594 0.29814065 0.15471603 0.3852876 0.0702192 0.23997048 0.3986063 0.38263845 0.18848744 -0.28490353 0.18570922 0.20102309 0.009924865 0.1952841 -0.3975048 0.013919436
121 0.6255896 0.27343562 0.05043532 0.016649764 -0.25888222 0.4424863 0.025884721 0.08990724 -0.28685254 0.24455565 0.6895176 0.14411397 -0.33802277 -0.3944738 -0.17345455 -0.14063093 0.39436617 0.21242315 -0.120199166 -0.21475352 0.4488934 0.30896968 -0.37918863 0.055144034 0.11322591 -0.83305717 -0.048266113 -0.26982242 0.38585198 -0.08470031 0.10740576 -0.058712833 -0.33927357 -0.24948752 -0.1954246 -0.085720405 0.03210708 0.061137322 -0.5451429 -0.5150451 -0.044701356 0.26043802 0.036671482 0.015263672 -0.16477846 0.1495955 0.23315251 0.044958267 -0.6544539 -0.13677905 0.33028373 0.022796692 0.29754096 0.77400565 0.21445403 0.029643474 -0.13293862 -0.046433832 0.070665926 0.11215724 0.13142152 -0.1883878 0.10331632 -0.45861775 0.50431097 0.199894 0.35494035 -0.39543232 0.39898285 -0.30705705 -0.27120203 -0.18731052 0.13092111 0.022636458 0.3741471 0.21374457 0.27969137 -0.094877 -0.08329384 0.14918347 -0.2095567 -0.1339098 -0.06979646 0.49007574 -0.37213132 0.5507037 0.21887033 0.37457687 -0.5244254 0.21092698 0.34400734 -0.1258614 0.21816388 -0.2630925 0.10704988 -0.32176283 0.2650305 -0.11191536 -0.14854018 0.06378361 0.3574378 0.05906178 0.23989663 -0.054867752 0.13173799 0.063724466 -0.23797436 -0.12953001 -0.09420358 0.1253883 0.16612953 -0.29483062 0.45481676 -0.31678063 -0.029781425 -0.39557967 -0.030165851 -0.002612779 0.30481437 0.1603184 0.25613943 0.55535203 -0.17160048 -0.11638309 -0.07991729 -0.43645376 -0.09718536 -0.2298454
436 0.5770297 0.24274376 -0.16368996 0.371271 -0.47431448 0.041676167 0.12709466 -0.3061506 -0.30366462 -0.020696074 0.20840524 -0.16903327 -0.20767373 -0.46679237 -0.17511156 -0.33522874 -0.24634607 0.395079 0.09644771 0.8534346 0.12799893 0.47462693 0.03752247 0.15794708 0.2069699 0.24925677 -0.0010589813 -0.10218393 -0.21359302 0.28837305 0.10116144 0.11580516 0.013949223 0.28083074 -0.46595293 0.30284134 -0.104983516 -0.08130341 -0.23932311 -0.5851684 -0.12162306 -0.26396832 -0.23930405 -0.25093338 -0.22623588 0.34496793 0.17586444 -0.24964178 0.26875347 -0.23905772 -0.08560465 0.09911915 -0.2862489 0.0066961353 -0.23786399 0.19856992 -0.08810274 0.31724662 0.44902372 0.16925064 -0.09636483 0.037093554 0.91447306 0.21335661 -0.2258805 -0.19770335 0.012013167 0.019545358 -0.09223988 -0.38990465 0.008166189 0.43187132 -0.021583544 -0.15637343 0.31116116 -0.247089 0.6223937 -0.09450592 0.051258694 -0.32530674 0.16923031 -0.29244682 -0.017738977 -0.058829535 0.14463359 -0.3823865 0.1970209 -0.08360286 -0.77533674 -0.239937 0.1786339 0.25183982 0.18268816 -0.6006659 0.0715399 -0.1522765 0.07455678 -0.23414382 0.33765724 1.1320311 0.18223381 -0.09111955 -0.29434836 -0.14043887 -0.3712852 0.16914868 -0.2368264 -0.032135047 0.26930693 -0.19568175 -0.3459839 0.64327294 -0.039552577 0.22526237 0.11630916 0.32464626 0.10645575 0.20008358 0.23839152 0.30510548 0.107909314 -0.2056401 0.16585365 0.22496177 0.020036735 0.085522994 -0.38442606 -0.03851435
368 0.7158973 -0.2769345 -0.4533886 0.2425493 -0.32192144 0.1333347 0.16689725 -0.2751741 -0.37176126 -0.11410191 -0.01674234 -0.06146884 -0.20296383 -0.09696456 0.12617335 -0.288273 0.21192835 0.064077474 -0.38046485 0.06469448 -0.13430615 0.13641973 -0.83203626 -0.18516308 0.06344032 -0.12657826 -0.6175554 -0.5803281 0.070826694 -0.18305254 0.4315596 -0.20346701 -0.28827727 -0.45377785 -0.08760829 0.67468864 -0.18197402 0.25009277 0.31198746 -0.22023204 0.047847126 -0.04368005 -0.34832025 0.25538823 0.44791222 0.13951382 0.10597511 -0.36158538 -0.55689406 -0.28428242 -0.13360278 0.30042356 0.09868121 0.20805165 0.17470674 0.09998015 -0.041102417 0.25886825 0.59351283 -0.37534162 0.061895963 -0.20978324 0.33838058 -0.18704782 0.29076403 0.13823071 0.39956948 -0.40285614 0.07824309 -0.14057596 -0.4296208 -0.06434169 0.64579755 0.112709 0.21046595 -0.44843203 -0.15858333 0.1765629 0.15957037 0.15231274 0.16490065 0.26757094 0.3734056 -0.085603446 0.06964804 0.35104915 0.3732359 0.005260442 -0.027702764 -0.056109037 -0.1392211 0.030418199 0.030424904 0.13047358 -0.39392576 -0.053925484 0.019586008 0.46415755 -0.2188945 -0.027730118 0.048563708 0.17649053 -0.24537836 -0.40947744 0.024435302 0.089614324 -0.5921935 -0.25836074 -0.29155797 -0.2076355 -0.27294683 -0.21317557 0.09310396 -0.12585697 -0.014832702 0.40173334 0.17131016 -0.22132201 0.09016742 0.22283076 -0.11302687 -0.11706844 -0.09667543 0.56221217 -0.08337367 -0.5950181 -0.11134451 0.8441114
656 0.57200724 0.19406565 -0.20425017 0.3219304 -0.33884096 0.10514866 0.023709502 -0.28235045 -0.32252762 0.0038306974 0.22948168 -0.064701006 -0.2861101 -0.52026016 -0.22708169 -0.43899515 -0.25362265 0.32891393 0.07785819 0.83595854 0.096517526 0.49601522 0.0004921131 0.02806731 0.33446425 0.2841591 -0.05248879 -0.15249357 -0.18982579 0.24391611 0.177471 0.04071916 0.024713326 0.3410206 -0.39584142 0.343258 -0.04250883 -0.076800704 -0.24830797 -0.4077629 -0.1266247 -0.40518883 -0.24231541 -0.16352661 -0.22546716 0.26590386 0.15490304 -0.22957914 0.3746303 -0.20054692 -0.07139607 0.052000314 -0.30953208 -0.01296716 -0.19674176 0.29451162 -0.11187352 0.29841882 0.5059095 0.22455959 -0.12308786 0.06095511 0.9679955 0.28601968 -0.17214087 -0.22913328 0.18028283 0.039793685 0.015134735 -0.40602785 0.065417334 0.39701036 0.011085017 -0.03396517 0.24327822 -0.2286194 0.50333214 0.025084373 0.095733106 -0.310911 0.17108151 -0.268914 -0.025704982 -0.08808021 0.17724305 -0.3631889 0.31079128 0.005638178 -0.8311802 -0.16342202 0.20238684 0.27424777 0.18062137 -0.52562815 0.18681821 -0.13454728 0.14251135 -0.22014166 0.3570203 1.1262497 0.15471411 -0.18854593 -0.24004918 -0.17614254 -0.31974587 0.20601508 -0.2444338 -0.05281667 0.34818786 -0.18983436 -0.30979723 0.56086296 -0.01891399 0.22313258 0.23321252 0.40478113 0.117051184 0.15742616 0.28500873 0.3388058 0.15309954 -0.26753747 0.1102115 0.1669712 0.07973808 0.1703893 -0.5273461 -0.04019696
271 0.57420033 0.38651907 0.011684912 0.075699486 -0.20333539 0.49980733 -0.051578138 0.09194547 -0.32163954 0.24995409 0.51403064 -0.01638083 -0.37055784 -0.49100843 -0.18185888 -0.26740736 0.31738827 0.16779634 -0.2294455 -0.23315933 0.43199039 0.35297525 -0.415029 0.22285233 0.10687143 -0.7865677 -0.0145800905 -0.20709834 0.37745312 -0.16576973 0.1085403 -0.03971261 -0.44851944 -0.24891612 -0.20844293 -0.23134734 -0.02434449 -0.051385902 -0.5565934 -0.4990921 0.035720572 0.24582666 0.16904175 0.1603006 -0.15052758 0.110628776 0.19894883 0.016334195 -0.5873217 -0.05570449 0.38319537 0.03991234 0.2663949 0.66117346 0.31434354 0.025522139 -0.14856452 -0.056443248 0.08914759 0.13013765 0.25840464 -0.1944087 0.08786814 -0.40816438 0.47215822 0.1826875 0.37135136 -0.40781355 0.4310062 -0.3014235 -0.25222686 -0.15094587 0.15238616 -0.06411254 0.25762215 0.15978609 0.24842755 0.06066747 -0.062313315 0.090628915 -0.31950176 -0.20137054 -0.10568618 0.5085234 -0.44109866 0.5699742 0.22190441 0.43031165 -0.44610643 0.21643697 0.40547553 -0.08238232 0.2745878 -0.095841 0.1437497 -0.3794549 0.31248608 -0.118633255 -0.02937083 0.08728047 0.26403123 0.051695805 0.336492 -0.033219334 0.021024795 0.10533108 -0.2795438 -0.13988625 -0.019277986 0.16160876 0.17084336 -0.31099653 0.46420243 -0.2807774 0.07126666 -0.2920957 -0.047885053 0.029394107 0.30874106 0.19485094 0.2315252 0.43735826 -0.16979201 -0.0021140974 -0.032312658 -0.5391585 0.0043919436 -0.15576045
244 0.50668234 -0.17754292 0.17041524 0.32820877 0.19523734 0.01815686 0.1690447 0.015442741 0.16271527 0.0067701736 -0.14099783 -0.16546085 -0.43595016 -0.54365176 -0.34094176 -0.15724564 -0.13813137 -0.050044343 0.1959252 0.107494034 -0.37592593 0.3026171 0.45019925 0.53073984 0.58613765 -0.13936795 -0.32520887 -0.07907623 -0.04285912 -0.17086029 0.11247227 0.09176159 0.12602288 0.01865521 -0.22278012 -0.0066703726 -0.45553103 -0.08827597 -0.30305693 0.18164377 -0.27203792 0.4131798 -0.4304468 0.42375112 -0.36051527 -0.16882966 -0.29597664 -0.22504395 -0.19877976 -0.860623 -0.08477632 -0.27465624 0.72648084 0.69826293 0.041442588 0.39164644 0.3090349 0.041867536 0.08106662 -0.0065658535 0.24470013 0.0026754215 0.37024632 -0.23895916 -0.2703933 -0.018588988 0.46799722 -0.065978855 -0.07370087 -0.24528317 -0.23496915 0.069793135 -0.11747913 -0.17126869 -0.09719591 0.3216161 0.07957367 -0.32825246 0.11388747 0.15650693 -0.11896124 -0.2021939 0.19994983 -0.5430851 0.22198375 0.13383701 0.46528614 0.09543312 -0.69933075 -0.07992344 -0.021410432 0.23650827 -0.59379387 -0.36322483 -0.1581736 0.6297945 0.19375 -0.29555833 0.68122447 0.31763813 -0.10187381 -0.3308785 -0.6157512 0.07113389 -0.0735859 -0.09276138 0.07385285 0.31080103 0.6400719 -0.20994018 0.09655294 0.03766256 0.11807691 -0.07585626 -0.12201353 0.22016123 -0.19680388 0.00246034 -0.30851504 -0.3194352 0.34003243 -0.32285458 -0.0042795353 0.45511192 -0.45246005 0.16218479 -0.1037307 -0.0032632616
262 0.97056437 0.30939665 -0.42563513 0.31030327 -0.13415566 0.10555362 0.4476301 0.5158038 -0.13001756 -0.26659322 -0.3766361 0.17892313 -0.45526284 -0.30675867 -0.20819637 -0.4979639 0.46004185 0.13885032 -0.45021936 -0.26710522 -0.07667079 -0.38080716 -0.10501454 0.04315444 -0.15331732 0.103685744 -0.08729121 -0.5643047 -0.31771776 0.28836346 0.42120218 -0.23271547 0.3881359 -0.15392826 0.17396943 0.14559603 -0.35579538 -0.058349058 0.20057747 -0.010131803 0.044175506 0.2838274 -0.49557427 0.37712088 -0.42444956 -0.08699262 0.10225269 0.32171738 0.35682514 -0.40344325 0.28855696 -0.41210222 -0.12389581 0.102875344 0.1437641 -0.2487694 -0.0067141117 -0.044778965 -0.12592293 0.3119902 0.3642452 0.13177979 0.3098457 0.15383756 0.106178075 0.27360356 0.5325732 -0.5242665 -0.36083403 0.17592517 0.21614389 0.61114573 0.047140636 -0.26806286 -0.014556072 0.1396793 -0.14609568 -0.36888385 0.5818135 -0.29110968 0.5401022 -0.13036963 -0.046181448 0.25406143 -0.07296684 0.19622254 0.013853519 -0.20461403 -0.10819985 -0.13468616 0.45563725 0.33283567 -0.21953616 -0.107643954 -0.08165164 0.4253305 0.21998699 -0.28147703 0.019793764 0.41195226 -0.100480914 -0.5127777 0.023787387 0.008355466 -0.4067511 0.39734814 0.021642681 0.15976769 0.08040924 0.23977731 0.17335512 0.27717948 0.0128529435 -0.16112433 0.13401222 -0.08798506 -0.034806903 -0.4596719 -0.27464902 0.025083303 0.1382673 0.16467518 -0.22257578 -0.3951048 -0.039860927 0.00912349 0.0744948 0.2753894
295 0.17845626 0.2870451 -0.013177893 0.13967288 -0.010845182 0.108457014 -0.13799013 -0.27871397 -0.29591677 0.12677176 -0.0979647 0.19023073 -0.13918436 -0.05736812 -0.09860255 -0.7741092 0.12364394 -0.5148848 -0.53336436 -0.3663213 0.21785782 -0.23888971 0.04313102 0.02826966 0.005245103 0.014513983 0.10714127 -0.3790808 -0.3264849 -0.1551426 0.30904338 0.18034957 0.14071639 -0.14496054 -0.5162132 0.68930835 -0.16161945 0.17992915 0.68466437 0.118964374 0.043509938 -0.05940423 -0.4448496 -0.044731557 -0.2208158 -0.3618549 -0.49975908 0.05106634 -0.111256465 0.10468399 -0.028137093 0.62091535 0.26548317 0.20346805 -0.17988996 0.17382309 -0.07330522 -0.10233649 -0.07348604 0.15655383 -0.24932133 -0.08367679 0.13473995 -0.15945677 -0.16658907 0.5231661 0.3026626 0.18350556 -0.4043598 -0.2086764 -0.16562669 0.070486635 -0.38867342 -0.08970849 0.6201798 0.3261766 0.36295852 0.33156186 -0.06583038 -0.0987445 -0.2520885 -0.049444675 0.58423316 -0.12983027 0.3009448 0.26884156 0.20776442 0.18643907 -0.71747625 0.47035593 0.447342 0.24039128 -0.13661805 0.030660015 0.055242907 -0.23585957 0.41095418 -0.06699433 0.28082997 0.32566085 0.4298604 0.10094183 -0.14944763 -0.5921659 0.19372322 0.08280402 0.33568007 -0.27609473 0.3077916 0.04555828 -0.52066255 0.1961967 -0.10853457 0.19763692 -0.4316055 0.28334993 0.53768575 -0.6301071 -0.03342721 -0.23874106 0.33806118 -0.23717783 0.05208196 0.13602519 0.13537814 -0.45592406 0.11000071 0.07835213
327 0.94399434 0.3449645 -0.41279554 0.34430426 -0.081613876 0.03635951 0.4469817 0.53348106 -0.066378355 -0.33453858 -0.32011545 0.22687332 -0.5648554 -0.25248265 -0.17387204 -0.42822304 0.4137633 0.18690659 -0.43597162 -0.2847825 -0.061109647 -0.28187743 -0.17283762 0.06963252 -0.06575357 0.14532098 -0.021796959 -0.51584524 -0.18326502 0.31626666 0.45214623 -0.16880918 0.44185367 -0.14595518 0.124751195 0.14153099 -0.20264722 -0.12525183 0.24409787 -0.048753906 0.007084321 0.21888411 -0.43415263 0.41797858 -0.4711544 -0.07453091 0.03694035 0.35436007 0.2786405 -0.41792598 0.17453459 -0.37122145 -0.13899292 0.16017142 0.112543896 -0.25210282 0.013184301 -0.07855492 -0.014954568 0.2629541 0.3130479 0.14568387 0.32531837 0.14279959 0.13605614 0.29767957 0.6411608 -0.5188205 -0.23086038 0.30049637 0.32757717 0.73103386 0.0731574 -0.23687936 0.07526271 0.19670185 -0.21594171 -0.5069204 0.5792291 -0.37356162 0.52498746 -0.06663207 -0.052345026 0.23565246 0.02333153 0.2019574 -0.032733932 -0.123301096 -0.09092306 -0.07109227 0.435683 0.23083119 -0.20625709 -0.07692742 -0.12178339 0.39294338 0.26681653 -0.34749475 0.10527417 0.34166214 -0.13492985 -0.36937043 0.059896253 0.10093577 -0.28400213 0.37006122 -0.0053734556 0.06895041 0.0756598 0.24102929 0.15999596 0.36803973 -0.07971798 -0.08774232 0.068034284 -0.115948975 -0.11284121 -0.5259677 -0.29623199 0.15307143 0.202091 0.17705205 -0.08153871 -0.38256592 -0.03799938 -0.028753791 0.09792729 0.29413596
156 0.14701368 0.30556485 -0.04932461 0.23457798 -0.078798056 0.051604424 -0.11534241 -0.27147874 -0.38878134 0.18858284 -0.09665698 0.17727172 -0.07999482 -0.0371356 -0.054576196 -0.84497845 -0.009400646 -0.4981202 -0.59030473 -0.23910409 0.22823925 -0.35697088 0.012249338 0.05803827 0.030629678 0.14779925 0.16014288 -0.33247188 -0.35475242 -0.15140115 0.36841318 0.1688813 0.10435732 -0.16237466 -0.5725987 0.6757706 -0.1298119 0.12982 0.50813395 0.09346585 0.06705507 -0.116279215 -0.45607397 -0.08251305 -0.23249428 -0.3111283 -0.35934582 -0.020179076 -0.17031726 0.13805105 -5.858538e-05 0.5448249 0.29681253 0.18770199 -0.13754468 0.066846274 -0.003556837 -0.21685907 -0.09132357 0.083207674 -0.10888455 -0.14364804 0.07522412 -0.14868496 -0.15145211 0.52972454 0.2542227 0.18753417 -0.3606989 -0.23654076 -0.120725304 -0.005309429 -0.37198737 -0.11595721 0.5870488 0.2914849 0.27977356 0.30617258 -0.13830931 -0.2586015 -0.27031973 0.07208576 0.54875696 -0.23491582 0.21918365 0.31160423 0.17171507 0.22813061 -0.7567171 0.47009522 0.44022062 0.17823538 -0.07452415 0.008367993 -0.08950202 -0.25525236 0.4666462 -0.03628107 0.2804102 0.3097239 0.4201558 -0.0058771223 -0.14521697 -0.5031235 0.20028715 -0.008062209 0.3693976 -0.31044403 0.40232095 0.071407445 -0.48060727 0.24649715 -0.1404 0.11835549 -0.37374857 0.24553417 0.56018096 -0.7576574 -0.12020516 -0.3078126 0.22086802 -0.17222196 0.1821139 0.022020383 0.06483963 -0.44867146 0.0494693 0.033439655
345 0.61787075 -0.25046137 -0.42627284 0.24208863 -0.2590088 0.16060117 0.07331683 -0.3450327 -0.328738 -0.21246926 0.057851 -0.027289394 -0.19948573 -0.11288691 0.14815608 -0.2844 0.22977965 0.068784416 -0.41134483 0.05347708 -0.11201132 0.24351622 -0.73116606 -0.1716805 0.020318516 -0.10033203 -0.6613292 -0.5311612 0.24497908 -0.17455487 0.4567856 -0.18024132 -0.086300336 -0.4856489 -0.028783176 0.58807236 -0.20391199 0.25671846 0.2659556 -0.13328339 0.03251923 -0.072821125 -0.4026998 0.3078621 0.42080355 0.13474798 0.15351431 -0.4984652 -0.41703406 -0.27160415 -0.16266678 0.3513291 0.12609927 0.30695757 0.06770093 0.085097596 -0.020743437 0.100950904 0.6301118 -0.33938554 -0.011991759 -0.10885158 0.3716589 -0.1880625 0.34387547 0.22782046 0.44754273 -0.43708345 0.14719374 -0.11159024 -0.53374296 -0.038983714 0.45904458 0.02377487 0.30643564 -0.36121848 -0.0642767 0.11132197 0.16634567 0.08150875 0.26957047 0.33196482 0.4307447 -0.13887417 -0.030022055 0.26301727 0.3102573 0.16007629 0.037340436 0.02457619 -0.16713007 0.079922676 0.18702091 0.19025184 -0.2993364 -0.17083463 -0.05566318 0.48670053 -0.25084835 0.042206485 0.15419304 0.15624042 -0.3982768 -0.35838005 -0.089916654 0.11634439 -0.629034 -0.25024202 -0.32121307 -0.24059065 -0.19813703 -0.25010827 0.12442483 -0.11939978 0.06443264 0.41440818 0.12893946 -0.26068327 0.055581123 0.39183038 -0.12775478 -0.09329037 -0.112903595 0.63524526 -0.10718372 -0.5911602 -0.12452623 0.776259
516 0.58585644 0.32472456 -0.22421539 -0.23231067 0.1700529 0.21055914 0.08343244 0.09539985 -0.20611387 0.060384147 -0.29172558 -0.066729926 -0.14098139 -0.009934762 0.1721108 -0.34011492 -0.5451552 -0.16664565 -0.20840994 0.04246319 0.25256354 0.21971332 -0.42152125 -0.047520153 0.15496507 0.383821 -0.08203039 0.23610024 0.026022954 0.19248126 0.17306502 0.17721589 0.2058572 -0.11076043 -0.16596955 0.35589787 -0.13960174 0.29393706 0.3181187 -0.007999679 -0.43185937 0.5317874 -0.12820753 0.5139218 -0.14006093 0.37689498 0.44678283 0.14894682 0.185594 -0.20007864 -0.118012525 0.29138556 0.55084145 0.56300235 0.33714676 0.49445358 0.42531317 0.10415032 -0.42897278 -0.50439173 0.62971777 0.36296257 0.80632573 -0.33668488 -0.55950266 -0.5302938 -0.00040824246 -0.60606194 0.046847947 0.030946016 0.0757052 -0.5113462 -0.5703712 -0.043348294 0.35526478 0.14679694 -0.2494553 -0.21581231 0.17383915 0.050454017 0.026747163 -0.47730598 0.4750557 0.17029814 -0.2637607 -0.27949578 0.22744249 0.1485146 -0.6164758 -0.22841679 0.49374154 0.39284983 0.27330333 0.3441539 -0.21901982 -0.16619268 0.2649781 -0.34971696 -0.22978261 -0.10338462 -0.10298616 0.17538907 0.07321123 0.051209852 -0.014252613 0.029632276 -0.11041546 0.057545975 -0.32626158 -0.13611332 -0.15665042 0.3828266 0.0059518768 -0.40066656 -0.04754146 0.07928972 0.06917575 0.23277117 0.088487275 0.15075792 -0.28808936 -0.123865 -0.061547395 0.2014629 0.25718784 -0.08640951 0.11279323 -0.4177113
41 0.64110744 -0.274415 -0.40155637 0.35932708 -0.21532068 0.10310783 0.13473935 -0.3424897 -0.3103599 -0.19260445 0.062732235 -0.11572352 -0.26052105 -0.061033875 0.045524027 -0.19703673 0.21018827 0.10564537 -0.41728273 0.070683084 -0.008578852 0.25151753 -0.7738084 -0.08806568 0.095948584 -0.14299865 -0.65743065 -0.5274701 0.11021943 -0.097128384 0.53213817 -0.22575147 -0.0681479 -0.46929014 -0.15728137 0.6612461 -0.03176337 0.12651765 0.3678514 -0.2397617 0.13774446 -0.118559845 -0.37640455 0.2624691 0.4401851 0.08247507 0.08829058 -0.24416561 -0.56151706 -0.212971 -0.15830669 0.23911476 0.091338895 0.35617843 0.240078 0.054875594 0.053040564 0.28363392 0.6361841 -0.3883293 0.03943393 -0.10964414 0.2797239 -0.19161978 0.35673952 0.21399464 0.42222038 -0.34246117 -0.005935914 -0.13470319 -0.56906027 0.018465554 0.5533193 0.070341945 0.4163377 -0.42953566 -0.05763086 0.00891576 0.152503 0.09038488 0.24205941 0.30364913 0.40495703 -0.17179422 0.01039658 0.31585166 0.2780712 0.026375737 0.089993626 -0.0127689475 -0.15664053 -0.03716475 0.1862445 0.1929688 -0.26089203 -0.13301614 -0.04149446 0.3708734 -0.29163328 -0.03761242 0.14094232 0.23804595 -0.26327136 -0.33372882 -0.089494206 0.11046802 -0.57396233 -0.23493616 -0.25263065 -0.24889693 -0.24515606 -0.26505423 0.14816034 -0.04261193 0.061416432 0.49548334 0.2593657 -0.23090379 -0.052327234 0.30936676 -0.28708908 -0.19390693 -0.108401 0.59159446 -0.06982465 -0.57327396 -0.08935523 0.901184
337 0.5606797 0.35776612 -0.13130315 -0.21452099 0.2320734 0.2921091 0.1484781 0.15471116 -0.25147924 0.10287265 -0.3274787 -0.04972773 -0.20320089 0.035460204 0.14116414 -0.31106627 -0.4798183 -0.252824 -0.13369054 -0.12818468 0.19567524 0.22466888 -0.3796537 -0.076813266 0.2127262 0.38228935 -0.046355214 0.31785822 0.014254061 0.16520059 0.26909477 0.12228086 0.15820248 0.012787878 -0.19170393 0.31058174 -0.08301053 0.30849952 0.2972488 -0.020647151 -0.43044102 0.39296514 -0.17028674 0.583721 -0.010400478 0.40056288 0.45567977 0.23082352 0.30227223 -0.23307218 -0.16345727 0.2755968 0.61598897 0.63759136 0.25151053 0.5147197 0.28640872 0.05516114 -0.43830565 -0.62856925 0.57738715 0.41884193 0.899102 -0.3049999 -0.5212392 -0.3957123 -0.093703896 -0.58502626 -0.091916814 -0.046657365 -0.015648082 -0.49699852 -0.5848774 0.043017425 0.39765236 0.100775845 -0.10235405 -0.23174658 0.12801026 -0.017338427 -0.014075692 -0.40510502 0.45365486 0.14081909 -0.3640205 -0.21145965 0.14158951 0.16502272 -0.668971 -0.13223572 0.5407449 0.35802042 0.34304672 0.39324328 -0.23075263 -0.14003621 0.23886943 -0.38768503 -0.11460774 -0.050191298 -0.03900099 0.07656547 -0.00034477306 -0.00963469 -0.0064588706 0.018800985 -0.19776234 0.14467987 -0.2936147 -0.044432074 -0.12610504 0.43853933 0.009934909 -0.4079123 0.061868876 0.08835152 0.014194593 0.31495976 0.18866386 0.24388927 -0.24012539 -0.12139755 -0.12776516 0.2850212 0.25951672 -0.08849959 0.17293577 -0.30528542
24 0.8502975 0.29436395 -0.4571334 0.4214904 -0.004170404 -0.021589968 0.42903277 0.5706513 -0.02778257 -0.23553777 -0.313272 0.24171732 -0.5140602 -0.23565423 -0.17229797 -0.47468922 0.36413515 0.18866125 -0.43268436 -0.16077596 -0.06578418 -0.3025443 -0.18909848 0.14252082 -0.18357414 0.14729491 -0.14904201 -0.6005661 -0.37244326 0.27837428 0.4439025 -0.123140514 0.3801227 -0.07610558 0.27813208 0.20652378 -0.2903274 -0.15971135 0.25165096 0.0023701808 0.0019232667 0.27428323 -0.49728206 0.39543745 -0.4696509 -0.08082189 0.019340582 0.34631866 0.2686321 -0.32621846 0.18759729 -0.4133633 -0.08793468 0.24047163 0.124424115 -0.24961199 -0.04823128 -0.09380326 0.092232175 0.269561 0.40600932 0.20065928 0.36743897 0.12969466 0.13816246 0.28645205 0.5204207 -0.5232751 -0.40698448 0.23172596 0.1725604 0.6797895 0.030401707 -0.12881221 0.09473005 0.28295675 -0.19802655 -0.42645893 0.5521257 -0.3594901 0.5315095 -0.10190651 -0.059255086 0.15846597 -0.0954773 0.089536995 -0.023795366 -0.14440687 -0.14042057 -0.13135728 0.42056295 0.15277246 -0.23216788 -0.04395738 -0.05284804 0.49415585 0.21583006 -0.20869537 0.1327602 0.36549625 -0.13085614 -0.5923471 0.055508893 0.06348438 -0.352276 0.32136723 0.022376195 0.08968767 0.08228213 0.24943739 0.21051557 0.33403155 -0.102386184 -0.11199936 0.12232268 -0.21468176 -0.13891853 -0.58316135 -0.15685141 0.11768743 0.19740476 0.21020061 -0.1465452 -0.3584802 -0.08602597 -0.102066405 0.099933766 0.20417927
574 0.4472705 0.20571412 -0.14345606 0.036242153 -0.3758985 0.041898496 0.014764536 -0.07132074 0.12048143 0.25662118 -0.24088496 0.11453676 0.0020748917 -0.17889269 0.07568569 -0.2784991 -0.7091987 0.43207002 -0.4152161 0.124092825 0.15587376 0.15541148 -0.60569257 0.14431529 0.38766658 -0.7227997 -0.36000758 -0.29659176 0.2784845 0.27732787 0.13421215 -0.2331526 -0.21763656 -0.38896093 -0.083151065 -0.40070194 0.24027166 -0.11541604 -0.23925537 -0.078040965 0.6165251 -0.29267773 -0.087088935 0.1763086 0.14044163 0.2125424 0.30793947 0.17869703 0.22648323 0.021939034 0.13002145 0.2717831 0.20150638 0.22302379 -0.41521016 0.11215848 -0.47344914 0.10062249 -0.0731991 0.3371645 0.051817503 0.543291 -0.015927965 -0.079804 -0.050275594 -0.089673765 -0.16950989 -0.4947752 0.24152796 -0.30223027 -0.2748757 0.16860767 -0.06800911 0.04832055 0.5210827 -0.26158693 -0.096042946 0.067348056 0.5320729 -0.023277555 -0.096205145 0.1307154 0.18244705 0.17224047 0.13084014 0.26385337 -0.09808904 0.4157321 -0.18648036 0.036484856 -0.5041411 0.14930032 -0.107762665 -0.12195512 0.19521484 0.19887981 0.25382593 -0.054463696 0.46887046 -0.10277594 -0.19832946 -0.19680108 0.13491261 -0.36484066 -0.28357008 0.30322352 0.3002865 -0.5215436 -0.2265997 -0.32053754 -0.18160142 0.67677844 0.27761912 -0.11186051 0.28565824 0.070498295 -0.25258568 0.13068248 -0.084266216 -0.19608736 0.3168115 -0.15679727 0.040704735 0.13288404 -0.52312696 -0.23524134 0.5856112 0.26866344
569 0.6611423 0.38191888 -0.16701028 -0.3047239 0.14376213 0.24341944 0.13276733 0.089628436 -0.2830464 0.12154133 -0.21723181 0.01625057 -0.122703165 -0.06400984 0.108450465 -0.2948401 -0.4901002 -0.32382107 -0.21102999 -0.08381013 0.17799678 0.24239567 -0.4687309 -0.121733055 0.16369618 0.379751 -0.11661694 0.20823924 -0.009405256 0.1453946 0.18325 0.26092562 0.22740652 -0.008323197 -0.18055423 0.39797845 -0.10446015 0.2959757 0.26395717 0.050257843 -0.48931164 0.49402997 -0.17689699 0.54532087 -0.06803507 0.31710306 0.4748964 0.10503692 0.14168963 -0.24566384 -0.25002128 0.17461771 0.4772937 0.52498883 0.2806239 0.4855882 0.38444358 0.0872365 -0.4095674 -0.48695278 0.60187596 0.42410427 0.79187787 -0.19834018 -0.6055438 -0.38565755 -0.00041299258 -0.56709564 -0.06548657 0.099542744 -0.033373866 -0.6025416 -0.55807465 -0.028300302 0.44636977 0.09749889 -0.334894 -0.18736911 0.17591406 0.04326812 -0.03666424 -0.55874366 0.43921515 0.17659077 -0.29778805 -0.20618744 0.21967942 0.13599461 -0.68615764 -0.24665913 0.59159917 0.45773834 0.24272132 0.4359421 -0.18565886 -0.053943906 0.25931656 -0.34845337 -0.1173084 -0.14074102 0.041328456 0.12598059 0.17900041 0.11752534 -0.038304742 -0.009520498 -0.18828705 0.05324461 -0.3780241 -0.14101179 -0.21847953 0.39522684 -0.020219274 -0.37267482 -0.00014798061 0.1479915 -0.05511454 0.26170832 0.15204036 0.23082004 -0.3261335 -0.020073153 -0.035694566 0.17283401 0.267755 0.040178064 0.112861946 -0.4054208
134 0.46233603 0.28344607 -0.07178248 0.009831811 -0.4187051 0.03914644 0.047301188 0.009221438 0.034306675 0.23322998 -0.21068867 0.011529487 0.083447 -0.15756018 -0.11345502 -0.28347757 -0.7684084 0.47391886 -0.58526343 0.04005651 0.2998547 0.028318446 -0.5118994 0.15586305 0.49700633 -0.6737841 -0.47185558 -0.21113501 0.26959696 0.22574817 0.06743259 -0.12938195 -0.19424504 -0.49883887 -0.15896027 -0.27936503 0.16665223 -0.08517106 -0.27878532 0.050991844 0.46414232 -0.22289237 -0.06481753 -0.03204321 0.048097335 0.15102878 0.28654248 0.0013303822 0.19348007 0.15680626 0.035283793 0.15818048 0.26995546 0.14575085 -0.5250104 0.025584577 -0.3249603 0.13651255 -0.017042702 0.3586283 0.0042952667 0.5341982 0.08720527 -0.15274781 -0.11362141 0.05067535 -0.022858186 -0.4727019 0.3067007 -0.27352825 -0.15153 0.17784522 -0.044468835 0.07780603 0.5946837 -0.29027298 -0.020874718 -0.028975252 0.5869071 0.024104604 -0.05468052 0.16501705 0.14249931 0.13933118 0.1714158 0.3051975 -0.101919904 0.26384252 -0.2037375 0.01047874 -0.5135238 0.13420641 -0.1072 -0.1531161 0.26722425 0.10873075 0.23967882 0.008976223 0.3853874 -0.16648228 -0.20860727 -0.18385786 0.11180305 -0.13211185 -0.40296438 0.2962053 0.33750653 -0.48044273 -0.27411968 -0.30409557 -0.112515606 0.6153574 0.18977188 -0.07078893 0.35926253 0.09507192 -0.27118543 0.16590352 -0.06200941 -0.24186125 0.42249036 -0.025869777 0.14369826 0.1554052 -0.5587218 -0.21210814 0.5884183 0.22778341
76 0.65356797 -0.34335616 -0.39988983 0.34867045 -0.34538737 0.17524275 0.11967072 -0.35442555 -0.36099795 -0.058886725 0.06782386 0.0942625 -0.21634282 -0.102273144 0.13407843 -0.27016398 0.2940822 0.048982814 -0.24955384 0.027585851 -0.20157412 0.26908368 -0.77722335 -0.056899983 0.02266155 -0.06645038 -0.5169356 -0.51058733 0.17968002 0.038675718 0.3699248 -0.15340771 -0.015381077 -0.5417082 -0.009541413 0.768897 -0.16409309 0.273947 0.26713607 -0.16677378 0.09873137 -0.121043816 -0.38569766 0.2605412 0.47290334 0.018737854 0.20948076 -0.4911315 -0.56997323 -0.21215807 -0.21130179 0.32386157 0.14246097 0.31371045 0.116953805 0.045344945 -0.038046073 0.3823988 0.54374826 -0.35917613 -0.016539983 -0.076175176 0.1926822 -0.114600524 0.29053774 0.21015033 0.37087178 -0.47323185 0.13226008 -0.18853246 -0.5678207 -0.012557331 0.46250552 -0.0012139174 0.34110203 -0.41954345 -0.14910117 0.061168175 0.072821036 0.12760897 0.2030491 0.2870858 0.34109434 0.025576862 0.043728665 0.39074984 0.3044164 0.03917918 -0.029745862 -0.0808884 -0.13571738 0.0742146 0.05143879 0.105714105 -0.3533218 -0.10185807 0.013399423 0.39085144 -0.23316523 0.01498339 0.02296862 0.07212673 -0.4142671 -0.36204425 -0.08673608 0.081456356 -0.62514794 -0.2900349 -0.29141313 -0.12577184 -0.18243736 -0.3094167 0.15552682 -0.09158238 -0.019207168 0.4252711 0.21631129 -0.2545199 0.06801576 0.2378761 -0.36732104 -0.15185605 -0.036861554 0.5834652 -0.10819229 -0.5311273 -0.070005745 0.80036175
13 0.6047508 0.3507974 0.06357714 0.099564314 -0.12895486 0.4589726 0.053105455 0.033992603 -0.3540991 0.17796253 0.63148373 0.06874569 -0.40102544 -0.5123324 -0.1567061 -0.07678929 0.34568763 0.17167747 -0.15424588 -0.22038731 0.32599828 0.34506118 -0.39950716 0.18473771 0.16425808 -0.8849927 0.002943087 -0.1743573 0.3042919 -0.049770027 0.11150416 0.045969725 -0.422082 -0.28583008 -0.1742573 -0.16019979 0.07931029 -0.09389695 -0.47338793 -0.53884697 0.072611816 0.18983436 0.22544421 -0.030038664 -0.08952293 0.14588381 0.18472035 0.113826975 -0.59545106 -0.07736431 0.32063654 -0.1371321 0.35428396 0.6475465 0.15543064 0.058163654 -0.08805868 -0.08013477 0.0757745 0.22975338 0.17281657 -0.13348192 0.00393723 -0.31197202 0.41092098 0.24990658 0.3199608 -0.5126345 0.4510842 -0.2841753 -0.32383236 -0.19633012 0.05376108 0.03203905 0.38386977 0.22916642 0.19575073 -0.07947417 -0.061439727 0.1448516 -0.2081749 -0.19417085 -0.071969874 0.52529395 -0.4666604 0.48819545 0.17809437 0.43439034 -0.6285149 0.1665958 0.3848724 -0.12866446 0.2935361 -0.1757955 0.13113753 -0.33200762 0.19444513 -0.06495125 -0.042842135 0.05490267 0.34388405 0.066196315 0.27446595 -0.06913186 0.0007460449 0.23996116 -0.23772998 -0.16832428 -0.033841617 0.16611381 0.29349574 -0.42370003 0.35268024 -0.19244522 0.014969338 -0.27029207 0.032805454 -0.044234365 0.23096393 0.07338728 0.1657674 0.50138235 -0.20811512 -0.020410938 -0.12365659 -0.54801583 -0.07091474 -0.11211243
