512 128
322 -0.3820506 -0.64155763 -0.36884183 -0.32765713 0.894863 0.11542538 -0.26915193 0.43869644 -0.0897416 0.26469782 -0.17892079 0.091151126 -0.17139386 -0.0017931974 -0.24962965 -0.37581617 -0.5709775 -0.32842994 0.48131576 -0.495683 0.032728065 -0.13802354 -0.2505717 -0.37241682 0.34063697 -0.12370166 -0.13187622 -0.20515496 -0.001717187 0.27166787 -0.009074052 0.25154233 -0.39012858 -0.19384183 -0.29699996 0.31585085 -0.124785915 0.07399676 0.20291609 -0.3770395 -0.34101266 0.63683254 -0.2551884 -0.16116439 -0.5868628 0.2428218 -0.034795392 -0.4091738 0.041548856 -0.23159741 0.24625006 0.0028517325 -0.6792387 0.2579534 0.56600034 0.18198156 -0.2286037 0.09698832 -0.21510123 -0.14416246 0.48351744 -0.45226082 -0.29176953 0.12830019 -0.00849356 0.43206704 -0.2104423 0.12061641 0.16303493 0.09211474 0.36658397 0.15205818 0.083545454 0.28311536 -0.006749126 -0.27636135 0.0061256676 -0.40217558 -0.4826252 0.059415612 0.017621977 0.35180005 -0.038345903 0.4989054 -0.19893701 -0.33835322 0.40345618 0.15525384 0.40475664 0.8700637 0.536746 -0.10333737 -0.39883628 0.0049603293 -0.4524314 0.39583927 0.21098143 -0.370604 0.7526549 0.25789803 -0.4942807 0.17692104 0.20244125 -0.07010519 0.10903025 0.07997903 0.62025446 0.54704195 -0.007238557 0.14512016 0.6673193 0.5651855 -0.82879895 0.2664711 -0.12918538 0.19046137 -0.0806711 -0.3967545 -0.013847608 0.3101835 0.009058944 -0.31922153 0.3886323 -0.31534207 -0.25993627 0.2321361 -0.6043846 -0.37148523
108 -0.17192088 -0.55632555 -0.5283889 0.010348533 0.11614936 -0.083938174 -0.520852 0.024753977 0.3699832 -0.17470692 -0.1994231 0.3720436 -0.4189217 -0.3837445 0.1634127 -0.7773777 -0.35116795 -0.41248968 0.07475884 0.23428664 -0.10928533 0.39724013 0.23165755 0.0033190714 0.06762844 0.17223121 -0.16123347 0.21154997 0.1593764 -0.43359607 -0.009973849 0.03648225 -0.3318909 -0.09204887 0.13039495 0.20273212 0.14522584 0.0018046311 -0.13004872 0.0553918 0.2799512 0.11079122 -0.23857659 0.21185568 -0.3042408 0.25523823 -0.22956017 0.3619007 0.29974684 -0.3815711 0.30994582 -0.35739154 0.022083484 0.41744137 -0.0019923227 -0.21706069 0.16532944 -0.044918764 -0.13543701 0.24901335 -0.27706805 -0.22921655 0.1266804 0.36683986 -0.05764107 0.088334635 -0.15930474 0.039314177 -0.14975832 -0.32408452 0.08218986 0.28878498 0.26388714 -0.53506595 -0.3861496 0.2630824 0.45642295 0.28365502 -0.05993236 -0.12310135 -0.39619988 0.30209374 -0.008285157 -0.3936005 -0.117471226 -0.26619595 0.4457412 -0.21157822 -0.04319903 0.11845923 0.22530293 -0.13085121 -0.25388184 0.22356269 0.015407199 0.20984864 -0.4233197 -0.21280298 0.317942 -0.29855022 -0.15316145 -0.3386183 -0.3279019 -0.12736155 -0.041778024 -0.28107864 -0.026177378 0.4035742 0.05899628 -0.019988792 0.18526219 0.5140023 0.1351839 0.017209165 0.15786079 0.25296938 -0.4338652 0.3477181 0.045515366 0.10766986 -0.7516492 -0.5074014 0.39410597 0.59917104 -0.39209726 0.1482559 -0.64712745 -0.13013458
192 0.16800424 -0.017293787 -0.19713725 0.019494914 0.15169933 -0.38765162 0.097663 -0.23192531 0.12826785 0.023686623 -0.066857405 0.34669077 0.07613378 -0.34068462 -0.08601723 -0.6975111 -0.36052462 0.17041683 0.025940714 -0.07498769 -0.09011017 0.25729722 0.05980497 -0.135531 -0.3384362 0.32784423 -0.14183484 0.05353916 -0.11630581 0.27926686 0.09388966 -0.0027764463 -0.23602898 0.04135603 0.03946565 -0.26332158 0.004728606 -0.2151355 0.037734345 -0.09536703 0.2709835 0.33655477 0.08410902 -0.49237207 0.22028227 -0.7473424 -0.090983674 -0.38791862 -0.17940985 -0.2569351 -0.31436172 -0.2506335 -0.20686738 0.020238511 0.39378688 -0.17293055 -0.0060120244 0.18102092 0.033266418 0.25284317 0.37921944 -0.52493674 -0.13355859 0.31135714 -0.39690349 -0.16895308 0.084874414 -0.037406757 -0.24583848 0.5033691 0.34125835 -0.125136 0.16981666 -0.42715842 -0.12292406 0.091965154 0.19635765 0.26053303 0.15919746 -0.1779024 -0.028694678 -0.86968315 -0.19318275 0.24288587 0.12615761 -0.07213025 0.17619058 -0.071765274 -0.3656038 0.37503242 -0.014772082 0.36306518 -0.5719974 -0.7476043 0.41060865 0.07981496 -0.2681305 -0.42859024 0.38780358 -0.37498316 -0.39836356 -0.24564655 0.009653233 0.14869677 0.07950646 -0.36778796 0.122041374 -0.0097256815 -0.079696864 -0.046833266 -0.2380984 -0.05384031 -0.04489898 0.11654159 0.005470075 0.07721314 0.36956725 -0.45916894 -0.31509393 -0.2252476 -0.22014517 0.16331068 0.18367513 -0.42394897 -0.03161608 0.3266123 -0.46230006 -0.2598173
208 0.11952682 -0.3104955 -0.36020052 0.29767022 0.2225666 -0.27633074 0.031002123 -0.36356947 0.36382186 -0.1465599 -0.037574474 0.28236446 0.03625154 -0.18632823 -0.16620742 -0.6858963 -0.32147187 -0.131556 -0.036105234 -0.30470318 -0.08199814 0.17118199 -0.093231976 -0.0043254904 -0.051935587 0.2083525 -0.006482256 0.35656214 -0.08061994 0.19753596 -0.06570363 0.04993706 -0.173478 0.10837082 0.017875612 -0.15578854 0.09022878 -0.06640148 0.29443154 -0.1832971 0.053502068 0.37400943 0.07070505 -0.48768693 0.22661982 -0.4339124 0.019148223 -0.25939366 -0.34510872 -0.27081105 -0.12992899 -0.27563465 -0.40946236 0.20472382 0.32238558 -0.024510292 0.038948994 0.09673895 0.01902658 0.36116827 0.33332542 -0.44167235 -0.1526508 0.38204676 -0.27868417 -0.38066003 0.2097698 0.14544448 -0.24421236 0.24988505 0.48181218 -0.19211172 -0.033542346 -0.31699243 -0.1452561 0.37543207 0.21526787 0.38860714 -0.017626986 -0.177975 0.1274971 -0.84930193 -0.34181035 0.40015522 0.17617476 -0.15453026 0.07443824 0.18762508 -0.58216876 0.23353216 -0.17619237 0.30583286 -0.69414294 -0.9483252 0.379684 0.147873 -0.29155537 -0.24141854 0.2239327 -0.637191 -0.43271223 -0.17259774 0.01539836 0.021403303 -0.0076626926 -0.28814206 -0.2243264 -0.25547805 -0.17199403 -0.23279594 -0.16247647 0.06774363 0.036897976 0.045188546 0.0040015 0.105686866 0.49598587 -0.49994814 -0.15471609 -0.24329595 -0.33355245 0.09750809 0.2011869 -0.34317595 0.016082874 0.52503353 -0.23807994 -0.25964904
15 0.3989353 -0.098290004 0.3876233 -0.13302074 0.12325124 0.0796193 0.26738894 -0.03681876 0.30593672 -0.30001247 -0.1374496 -0.010085606 0.11518619 -0.5853661 -0.17465489 -0.2171543 -0.43657675 -0.05640806 0.12686501 0.37275368 0.08187064 0.04162561 0.33992368 -0.41858888 -0.13036826 0.43082535 -0.27392977 -0.27831057 0.30041444 0.23266712 0.14762142 -0.09578443 -0.52998453 -0.08618171 0.039293073 -0.0063702893 -0.2763587 -0.26395926 0.32491568 -0.18704034 -0.038732912 -0.33015588 -0.37044668 0.24201435 0.1592893 0.10659792 -0.13423435 0.14994997 0.26125732 0.26848152 0.19763318 0.011517458 -0.64699054 -0.074800566 -0.29603007 -0.4407132 0.27619714 0.36969987 -0.22628166 0.1600642 0.22052784 0.23472051 0.12681614 0.3494613 0.23218891 0.36968082 -0.14246069 0.25463974 0.29125178 0.7358021 0.013725897 0.28862125 -0.3353901 -0.29908863 -0.06350657 0.56882674 0.036460858 0.20364192 0.3311439 0.5562772 0.06115508 0.044035155 0.42615992 0.13986403 -0.053059645 -0.6092768 0.12205526 -0.012469569 0.08561329 -0.04118862 0.15665048 -0.028064307 -0.29989266 -0.43281898 -0.46508265 0.7498801 -0.12040736 0.15530087 0.727105 -0.28506032 -0.41613862 0.04406877 -0.28772047 -0.119562976 0.22610463 -0.24769083 -0.046606593 0.52899826 -0.2596561 0.32092172 0.39490047 0.59809786 -0.5470569 -0.14761493 -0.19230178 0.07411762 0.16486873 -0.012766797 -0.66653633 0.18610916 -0.0045813876 -0.33553216 0.5496423 -0.039678477 -0.5710344 0.47891453 0.37920496 0.027802132
159 0.07474229 -0.13865958 -0.06182919 0.26836097 -0.05623868 -0.06544707 -0.030123794 0.21795669 0.060186487 0.37723625 -0.60820127 0.09906194 0.07134512 0.0586025 -0.17629312 -0.15249601 -0.17754656 -0.23149985 -0.19472557 -0.12647524 0.20063412 0.008550492 0.4999329 0.22078961 -0.047676742 0.23670864 0.23735367 0.04106851 -0.09633168 0.13974628 -0.16051947 -0.10747381 -0.29146472 -0.09993866 -0.010306643 0.22538598 -0.10023265 0.058507096 -0.35284135 0.4450056 0.39570642 -0.067104176 0.08042862 -0.2828514 -0.26564744 -0.24364854 -0.05629731 0.11293809 -0.014788795 -0.34504157 -0.68887275 0.20624515 0.22237569 0.17703585 0.186257 -0.019668207 0.2746095 0.24301964 -0.5370183 0.34863284 0.41521323 -0.1303456 -0.3307632 0.32539862 -0.05440778 -0.2927896 -0.319469 0.43453845 0.20720395 -0.2676971 0.59187454 0.17305155 0.3162874 0.066258244 0.16679116 0.8217297 0.07677605 0.33029953 0.11252168 -0.41621196 0.20787203 0.2910418 0.07485912 -0.28066504 0.19423644 0.2075072 -0.011368703 -0.30203116 0.51540244 -0.35558417 0.2185048 0.36883056 0.13473983 0.16608281 -0.37636822 0.48044336 -0.21242188 -0.024131946 0.31086606 0.14458086 -0.7040149 0.10176223 0.07140752 -0.7676833 0.08554566 -0.23324344 -0.105953924 0.09098192 -0.25676873 -0.4701074 -0.14585721 0.39080024 -0.7504323 -0.1117521 0.32677662 -0.57995844 -0.11990745 0.2338181 -0.25689635 -0.02456279 -0.036835812 -0.3861775 0.25434098 0.6746852 -0.75093836 0.35321006 -0.1346733 -0.30803922
19 -0.20433047 -0.0070596733 -0.16240926 0.002823374 0.162082 -0.1161222 -0.64319265 0.1032766 0.081546955 0.1332456 0.1376524 0.5819569 -0.1735823 0.09860721 -0.29282215 -0.08156554 -0.09013464 -0.5391056 -0.14136797 0.04952005 0.10957757 0.40196615 -0.46533033 -0.036945645 -0.3716554 0.3867026 0.28696564 0.32411364 0.10061156 -0.40693262 -0.16433884 -0.33901757 0.037122313 -0.590114 -0.051821504 -0.24556413 -0.15654328 0.24759547 0.49146387 0.18503603 0.3918976 0.20257397 -0.5143482 -0.22374769 0.28293765 -0.6167554 -0.055340163 -0.10857974 0.21111955 0.18535788 0.1506268 -0.16574223 0.057984974 0.15214434 0.42742077 -0.379565 -0.3999052 0.10718331 0.09872043 0.4708995 0.30363342 -0.47755453 -0.25174436 0.022001676 0.32545388 -0.22005577 0.15716308 0.018231649 0.030968612 0.13812786 -0.09220723 0.6612445 -0.22517341 0.16135798 0.04869587 0.18868299 -0.2180909 0.19080596 -0.51800925 -0.3153136 0.0836923 0.19117352 0.056582134 -0.19031918 -0.24421817 0.01717872 -0.07979737 0.12779878 0.18128629 0.030187704 0.12452372 0.30350646 -0.42903247 -0.282398 -0.27096626 0.048670925 -0.26179308 -0.26234818 0.3199347 -0.07031417 -0.36655352 0.29101813 -0.77186215 0.10665501 0.34138522 -0.3016192 0.06158248 0.006840143 0.002342297 -0.45299286 0.074303746 0.11215662 0.076014265 -0.2480947 0.2780424 0.29243687 -0.33866856 0.30805534 -0.037509587 -0.32719862 0.2937226 -0.36441308 -0.19953434 0.092576124 -0.28060418 0.23443143 0.29921842 -0.25009376
167 -0.086208574 -0.71646065 -0.5889507 0.07850774 0.032156024 -0.3523351 -0.32223716 -0.0050204084 0.42551503 -0.32451013 -0.17985535 0.30319732 -0.33301237 -0.47176674 0.34771708 -0.7394527 -0.30269268 -0.2844987 0.10015479 0.26810086 -0.18684147 0.32195798 0.38002557 0.083258346 0.014265946 0.14072664 -0.19002257 0.08475102 0.092725456 -0.3377538 0.056207478 -0.11829258 -0.07412289 -0.17168224 0.2087605 0.25741178 0.10699771 -0.047352783 0.008398812 0.063553385 0.26354194 0.30179843 -0.30079934 0.16053206 -0.20795025 0.12999423 -0.17642058 0.17197077 0.2536632 -0.20169814 0.22856155 -0.58930755 0.034308422 0.3369439 0.035278127 -0.1310095 0.030053277 -0.09887216 -0.021653857 0.41649675 -0.23921794 -0.18478543 -0.055834156 0.42137575 -0.03029578 0.06498034 -0.19347064 -0.058925115 -0.16968873 -0.36260885 0.083633415 0.2783435 0.21861526 -0.5495263 -0.38451946 0.120259136 0.4300408 0.36165205 -0.10876015 -0.16975623 -0.5542192 0.24478877 0.12243814 -0.35371456 -0.35441893 -0.23107517 0.39991027 -0.25352827 -0.021697115 0.102917306 0.18599378 0.03327953 -0.2354044 0.21534367 -0.0032577517 0.3144653 -0.3956216 -0.23685774 0.35787988 -0.32205674 -0.16020104 -0.17485464 -0.35495147 -0.08736513 0.11278042 -0.16366768 0.1399249 0.543421 0.057724815 -0.05850676 0.13028985 0.45998657 -0.048993275 -0.11157174 0.27131438 0.19803509 -0.4168545 0.2604093 0.10787888 0.14017777 -0.6163987 -0.48721224 0.29697987 0.75246376 -0.52593833 -0.015110497 -0.6718077 -0.023742506
83 0.11668723 -0.10894877 0.30298698 0.07038326 -0.13556406 0.7430509 -0.030507674 -0.82842755 0.56579787 0.34096155 0.058867797 0.28388694 0.2966324 0.1299838 0.01579443 -0.07084175 -0.619123 -0.043335438 0.14647715 0.09551816 -0.08370685 0.37820408 -0.074944064 -0.55968034 0.3739866 0.11218889 0.33269936 0.19215807 -0.5482653 -0.36159438 -0.21999644 0.39663744 -0.45217738 0.33689493 -0.11336889 -0.83822644 0.23884751 0.1016041 0.10568957 0.044256404 0.27745923 0.038459614 -0.24633045 -0.44550428 -0.016488818 -0.20109501 -0.10950529 -0.05119117 0.13510203 0.059214715 0.1746667 0.10271085 0.002172769 -0.28835738 -0.24623184 0.098921545 -0.12028369 0.15443046 -0.37147444 0.19593486 0.39402634 -0.33165565 -0.43684262 -0.078999706 -0.019071043 -0.2330942 -0.025245769 0.07317361 -0.45229766 0.24736017 0.8032144 0.15591113 -0.015708124 -0.033403143 -0.61191833 0.27472687 -0.017705979 -0.10414028 0.1602485 0.2236549 -0.29244563 -0.15113436 0.47942457 -0.07705925 -0.13219455 -0.24970524 -0.013027725 -0.011320764 0.2003197 0.25866964 0.25951996 0.16707751 0.08502451 -0.02084985 -0.08383063 0.33089307 -0.29810098 -0.28440922 -0.17980416 -0.09368634 -0.05018762 -0.08578392 -0.28104603 -0.61540204 0.13560545 0.06011026 -0.11771212 0.736449 -0.10479193 0.21890686 -0.16236074 0.55537 -0.34977892 -0.18373229 0.14137425 0.2985851 0.3203739 -0.18973461 0.01862881 -0.058833245 0.328938 -0.2392253 -0.031171247 0.36666638 -0.81714475 0.11150774 -0.372281 0.08719397
115 -0.026614392 0.7607448 0.025580939 0.6627643 -0.009838398 -0.33163866 0.114266716 -0.22444677 -0.14856926 0.46512643 -0.15068316 0.23797838 -0.1457204 -0.5171882 -0.4338129 -0.39001665 -0.41577697 -0.6500324 0.066425905 -0.06462194 0.044197224 0.29513493 0.026197415 -0.056111276 0.5655009 0.12136822 0.5213961 0.3098856 0.5830372 0.32179734 -0.0042048916 -0.2867149 -0.32886183 -0.5041137 0.024957502 0.40867424 0.3899411 -0.29878134 0.17379653 0.02417591 0.5112671 0.39441985 -0.08833696 0.03486927 0.20098358 -0.19159557 0.11813451 0.36603892 0.06378216 -0.14688928 0.015724538 -0.36665395 0.031444535 -0.26190978 0.28885475 0.10816458 0.17483898 -0.06468684 -0.03557585 -0.3209903 0.5427134 -0.37698528 -0.1957698 -0.0057459036 0.17528428 -0.028475119 -0.679319 0.6654496 -0.055273484 -0.120063975 0.28811455 0.188872 -0.08798688 0.20636027 -0.034501467 0.4582603 0.7148079 0.272378 0.46915346 0.04475778 0.019033449 -0.086681776 0.10418474 0.20077899 0.05517272 -0.25661907 -0.06553883 0.44650063 -0.18474701 0.13037696 0.29802912 0.11629059 -0.0070058876 -0.2853982 0.093726255 0.016768847 -0.6012784 0.25695089 0.06674044 -0.23024952 -0.1540015 0.124240436 -0.14994563 -0.7077845 -0.6050296 -0.40178633 -0.16499731 -0.41147244 0.54559505 -0.20905583 0.50135255 0.5355324 -0.91256815 0.39874807 0.29818106 0.1130727 -0.26245117 -0.28197044 0.08267757 0.04467764 0.1611699 -0.3897842 -0.039255127 0.34145603 0.032220315 -0.2133593 -0.039882705 -0.03733356
182 0.37312594 -0.5150265 -0.32820988 -0.011832414 0.23043367 0.054400425 -0.6072223 -0.42421615 0.117744125 0.42905694 -0.3469635 -0.15133117 -0.2202359 -0.020109091 -0.095542476 -0.70343184 -0.12773904 0.21739607 0.050094884 0.115934104 0.12442692 0.44961527 -0.6505177 0.12997726 0.19179727 0.010139027 0.19721471 0.09431408 -0.05690164 -0.0122487685 0.17083128 -0.0143126715 -0.04904092 -0.124355085 -0.30501428 0.32752618 0.10168501 0.6425983 -0.016085528 0.21018407 0.079803094 -0.27275696 -0.7719688 -0.0425638 -0.1604392 -0.2715011 -0.04270517 0.34260324 0.17142527 -0.33914024 0.04085629 -0.20122953 0.12629499 0.25652924 0.58884424 0.0859285 0.45423645 -0.087169826 -0.07539486 0.023946546 0.4290288 -0.34796447 -0.6779266 0.122835204 0.3469434 -0.17327449 0.2498387 -0.28370503 -0.29983518 -0.30909324 0.13795115 0.4921701 0.5147892 -0.44342005 0.25845566 0.28096834 0.24932043 0.04871374 0.53848517 -0.013884411 -0.28879473 -0.31796348 -0.4083325 0.19761167 0.05660416 -0.14752422 0.07787249 0.025863158 -0.6124866 -0.08355389 0.5500102 -0.18131171 0.03307717 -0.008786075 -0.30289537 0.7680436 -0.35406277 -0.7225789 0.21112815 0.03295487 -0.37960854 -0.010582625 0.25304624 0.18138857 0.27296978 0.20517655 0.5875003 0.07817964 0.39984688 0.20353687 -0.19022831 0.29158667 -0.13488418 0.10032325 0.82284534 -0.03335443 -0.108366355 0.28016028 -0.76107746 -0.047627937 0.22635679 -0.07548705 -0.068457715 -0.27259916 0.028698934 -0.119131014 0.38943782 -0.10264025
131 0.24261841 -0.17126095 -0.25755784 0.14074962 0.067346476 -0.41751572 0.16075233 -0.32659468 0.22044681 -0.22200972 -0.128397 0.41359764 -0.07230693 -0.32316002 -0.14403081 -0.740816 -0.3077823 0.043484643 -0.049207684 -0.25451556 -0.091339685 0.19175869 -0.22939168 0.05547748 -0.26387742 0.24987279 -0.15140691 0.33138636 -0.056628734 0.22203983 0.0134608885 0.025648283 -0.1761488 0.11910431 -0.05696869 -0.18202756 0.2821799 -0.040259644 0.29243615 -0.1451737 0.29310298 0.3736403 -0.018199863 -0.5796292 0.3658292 -0.6575554 -0.052123196 -0.21679793 -0.3355967 -0.3542579 -0.11983185 -0.45024619 -0.38035107 0.12374356 0.22011934 -0.1302975 0.04263906 0.19912075 0.11543194 0.29517975 0.38386837 -0.4585171 -0.16327444 0.43442854 -0.3129266 -0.38739392 0.08913996 0.22871748 -0.3181544 0.4033148 0.48608255 -0.18705083 0.0091324 -0.19005284 -0.12697789 0.24203387 0.09172515 0.30923843 0.08687508 -0.30226442 0.13412914 -0.82765794 -0.36969775 0.4055616 0.26102364 -0.059602313 0.058151696 0.0070308163 -0.47871962 0.20826022 -0.12457941 0.434272 -0.5863913 -0.98006886 0.34995645 0.1133896 -0.32846257 -0.2576749 0.23364095 -0.68287027 -0.4512687 -0.30909562 0.058983784 0.10236109 -0.017816598 -0.22725509 -0.09808643 -0.08444348 -0.21261159 -0.09576812 -0.07627959 0.030672915 -0.10364221 0.12800226 0.04365072 0.12174254 0.40805385 -0.54906905 -0.08926593 -0.31032363 -0.25529248 0.09594773 0.19932272 -0.33026335 -0.06539891 0.39347288 -0.28118145 -0.20044914
271 0.3861603 -0.47230574 -0.41123894 -0.07629245 -0.012153062 -0.11348382 -0.6012684 -0.38339522 0.1571498 0.3617246 -0.36748704 -0.10635277 -0.24342456 0.07182707 -0.07268354 -0.7319346 -0.34658077 0.24354212 0.14447601 0.2014727 0.16310413 0.52241385 -0.4972362 0.08560697 0.27022427 0.10846445 0.31175315 -0.014355862 -0.097632654 -0.013125391 0.20098974 -0.07784287 -0.15058243 -0.032536585 -0.3576026 0.41333455 0.020033134 0.6597431 -0.009815481 0.21496582 -0.05886079 -0.29935566 -0.8051042 -0.12723957 -0.01438791 -0.37087545 0.119564794 0.24785791 0.26447847 -0.33925545 0.08424181 -0.3787358 0.011297004 0.30347487 0.62163633 0.23514804 0.31837478 0.07837866 -0.007365041 0.11910657 0.5007139 -0.36278158 -0.6591906 0.047254723 0.2828475 -0.14932562 0.2286953 -0.30781856 -0.25662175 -0.18850896 0.21027692 0.4280722 0.37397945 -0.37001875 0.22313593 0.17808533 0.22790033 0.14691679 0.57887644 0.0047253156 -0.25115597 -0.33869568 -0.33833125 0.26468846 -0.06627722 -0.18573414 0.18823004 0.17032072 -0.5911539 -0.042218827 0.5114539 -0.17987698 -0.14979436 0.21117069 -0.30828795 0.7157703 -0.3083432 -0.6799066 0.23069383 0.0955581 -0.37078464 0.10621227 0.34481427 0.20481443 0.28089535 0.23115797 0.6324799 -0.04806853 0.47565955 0.0783632 -0.12676542 0.32283407 -0.060582165 -0.014007715 0.7662712 0.0045492393 -0.053453073 0.30387294 -0.62473345 -0.15821119 0.24417247 -0.051944032 -0.040679455 -0.0969618 0.010538147 -0.24879986 0.38525143 -0.15607858
136 -0.036016285 -0.6139886 -0.46816218 -0.05967569 0.76300323 0.2370236 -0.29984096 -0.30315965 0.13845225 0.3370147 -0.4629022 -0.1667092 0.08946223 -0.16536011 0.05979421 -0.17588651 -0.063452885 -0.32932028 0.26756978 -0.2847161 -0.25821012 -0.13686143 -0.54513127 -0.04557213 -0.026125679 -0.43182358 -0.4810559 -0.05855552 -0.16001466 0.0795266 -0.10060343 0.6562577 -0.023894785 -0.113345884 -0.19657005 0.35390133 0.11061024 -0.12083461 0.19378372 -0.089780554 -0.35643455 0.55147177 -0.20469555 -0.42201948 -0.31708956 -0.07699647 0.17534807 -0.3371682 -0.25647897 -0.10286386 0.23961268 -0.04488703 -0.15113103 0.1327391 0.2556314 -0.22925091 -0.31672132 0.28269792 0.021693388 0.0811641 0.35998806 -0.11138839 -0.25070792 0.46552932 -0.112597525 0.37924832 -0.17021716 0.12129651 0.19267525 0.05752383 0.33095396 0.121792 0.21278483 0.107740514 0.06911579 -0.073575 -0.0854153 -0.29253337 -0.5711994 0.09965923 -0.13219328 0.35635445 -0.47309667 0.30509427 -0.13238786 -0.22350857 0.45396888 -0.23952642 0.48594958 0.63053495 0.75192684 0.19132642 -0.21376571 -0.4863292 -0.2702 0.39412314 -0.012271331 -0.5719451 0.64763033 0.076948784 -0.6493574 0.069501 0.37456742 -0.24891154 -0.33956018 0.08709824 0.27624747 0.48742497 -0.1486611 0.22634186 0.26859206 0.35947675 -0.7455097 0.12266029 0.0019580652 0.18933366 -0.034543775 -0.14118178 -0.001489345 0.30189914 -0.23209393 -0.21509741 0.14978486 -0.11544246 -0.25432345 0.55013543 -0.03723901 -0.28894404
146 0.07936148 -0.1494507 -0.15224853 0.2738223 -0.1072169 -0.11721155 -0.011715564 0.25019383 -0.023230609 0.3646856 -0.7393356 0.2702418 0.0062334416 0.04217421 -0.13862559 -0.12199043 -0.22632267 -0.3036065 -0.24389833 0.02781144 0.15354055 0.053604007 0.4881143 0.24973232 0.09072105 0.305758 0.3843426 0.071196675 -0.076384045 0.030455071 -0.16284016 -0.1469598 -0.30593574 -0.09684331 -0.08633481 0.23387791 -0.12754382 0.06717485 -0.36641124 0.28269032 0.33144256 -0.042124968 0.04043228 -0.38949513 -0.3023501 -0.26803336 0.009925107 0.051662102 -0.11386956 -0.3144141 -0.49619904 0.16617514 0.25921637 0.20430657 0.008194332 -0.0013229578 0.2733061 0.25686094 -0.5076682 0.26448473 0.24477975 -0.13462235 -0.15761632 0.24090917 -0.00085418404 -0.31507382 -0.356314 0.4812905 0.29072526 -0.17292672 0.6122929 0.12614074 0.26671913 0.1384858 0.22374603 0.78959376 0.18087879 0.3221807 0.09370621 -0.4271921 0.24121693 0.33201396 0.04559055 -0.31918734 0.19084129 0.27878943 0.053586204 -0.33391416 0.4909171 -0.31623387 0.20451048 0.34712997 0.18407497 0.07778233 -0.41125298 0.4878801 -0.212355 0.08895094 0.32200414 0.2082314 -0.655927 0.11209157 0.14354293 -0.7181155 0.07035046 -0.18104829 -0.11573371 0.028437978 -0.2083038 -0.3633409 -0.118423484 0.3917367 -0.8268765 -0.20137538 0.19820938 -0.57889223 0.0047847545 0.102561325 -0.1963097 0.010317902 0.077050455 -0.4142076 0.24705388 0.72453666 -0.8129755 0.38039735 -0.08345999 -0.40311086
361 0.5045685 -0.42981198 -0.38795343 -0.024745006 0.103961155 0.08470811 -0.64769685 -0.3249406 0.18555261 0.44187626 -0.29628453 -0.045796137 -0.3183669 -0.0018311199 0.032999147 -0.6015792 -0.32214892 0.20416246 0.16161275 0.11367506 0.028864566 0.4592236 -0.40459156 0.15121005 0.27600062 0.07010224 0.18822733 0.10974978 -0.1163875 -0.0073261806 0.21288088 -0.15078428 -0.16401735 -0.091775514 -0.35628256 0.35350212 0.0047659306 0.6425996 -0.031774655 0.114573136 -0.029660266 -0.19900896 -0.80184156 -0.106381424 -0.08919893 -0.23076127 -0.07556762 0.2851018 0.24302225 -0.31670162 0.04326823 -0.30660185 0.072110675 0.24358499 0.6282859 0.08843203 0.4553332 0.012172565 0.001092958 0.088854514 0.45410806 -0.41906056 -0.65670687 0.076039776 0.33905742 -0.027165584 0.112954475 -0.36445805 -0.40164018 -0.12929168 0.22276269 0.50686294 0.31770962 -0.34460586 0.2693598 0.26658782 0.23985134 -0.046564914 0.5321633 0.026732942 -0.22402786 -0.2777727 -0.43375647 0.28484097 -0.04960027 -0.32281762 -0.067171834 0.13846587 -0.59038603 -0.16891989 0.45362335 -0.12993963 0.0005320108 0.03692123 -0.16805036 0.81543374 -0.37477466 -0.63799614 0.29911396 0.095332645 -0.41468188 0.05106759 0.26649398 0.26965344 0.36519417 0.27970362 0.7345945 0.038563848 0.57891 0.1797249 -0.1567656 0.2974217 -0.14426339 0.15670644 0.81849355 -0.06045365 -0.16059962 0.36865148 -0.71568626 -0.17580016 0.28331253 -0.04016607 -0.09027159 -0.15443903 0.052244425 -0.26833937 0.28829154 -0.12695603
180 0.14799808 -0.26439407 0.35642648 0.027356109 -0.17166565 0.76311994 0.013466786 -0.89832723 0.693652 0.08956361 0.08046258 0.2742014 0.27675724 0.3471012 -0.052230686 -0.27805227 -0.40569597 0.11394251 0.23180693 0.15689836 -0.22159721 0.3124415 -0.043154895 -0.674441 0.3761342 0.36940357 0.15127221 0.1859128 -0.5201356 -0.16460794 -0.09835099 0.5301871 -0.37775332 0.18944643 -0.14593612 -0.7995952 0.408931 -0.12303994 0.08351184 0.04693345 0.13710536 0.070307314 -0.19884749 -0.48541862 0.15634215 -0.30871192 0.06105038 -0.03888761 0.034144107 -0.009158745 0.32168728 -0.05589234 -0.11863497 -0.31152904 -0.40005594 -0.035096847 -0.12958193 0.30937552 -0.26320127 0.35875413 0.40124708 -0.1671501 -0.3607877 0.18752217 0.012087662 -0.23709911 -0.08083336 0.31099215 -0.29833087 0.019888205 0.7044141 0.08353499 -0.009263256 0.091320165 -0.6631319 0.15032582 0.040351603 0.030221673 0.12586036 0.23621516 -0.11760274 -0.0896833 0.5994276 -0.07132586 -0.3041124 -0.16766219 0.106684685 0.07719717 0.15859611 0.3104083 0.28516012 0.26052567 -0.035676967 -0.10079255 -0.0150372 0.48838192 -0.30748585 -0.3940355 -0.22424072 -0.14209558 2.598855e-05 -0.0150596835 -0.17910647 -0.6078105 -0.05611937 0.04259121 -0.21404974 0.5189918 -0.23262875 -0.029269746 -0.17363617 0.63862026 -0.36170974 -0.387983 0.19736262 0.41725406 0.101692975 -0.14277472 0.06199883 -0.1377347 0.4101175 -0.3076181 -0.16699351 0.33058876 -0.976911 0.16471218 -0.19176024 -0.021864243
41 -0.26060188 -0.5252199 -0.48031887 -0.17620616 0.7277829 0.2202714 -0.24736501 -0.43420297 0.055144083 0.22961865 -0.26107025 -0.23795806 0.063652135 -0.2244702 0.029256422 -0.25381327 0.14677416 -0.33190158 0.20100737 -0.34740818 -0.26456356 -0.26629904 -0.4155088 -0.0009152816 -0.10290355 -0.540186 -0.4820447 -0.20097776 -0.22668776 0.010393124 -0.29963273 0.6397229 -0.045909222 -0.1475853 -0.22447906 0.37237844 0.10233374 -0.056111157 0.15645802 -0.29130498 -0.35780498 0.42333677 -0.31522697 -0.3516344 -0.33317822 -0.28533387 0.10016168 -0.44919676 -0.20711543 -0.087396376 0.18484758 -0.061524544 -0.02060678 -0.024121461 0.49407634 -0.26496056 -0.3515224 0.23417328 -0.18476598 0.06168706 0.31266466 -0.1482466 -0.2683491 0.4615267 -0.16280161 0.4603109 -0.119048335 -0.043426987 0.09898513 -0.037074007 0.30015576 0.12975465 0.13977568 0.10752492 0.16924997 -0.057539336 -0.15479322 -0.22521526 -0.61068827 0.11675234 -0.20953277 0.44099963 -0.47349715 0.28456283 -0.23274885 -0.17047511 0.5333673 -0.03792055 0.39107266 0.6021645 0.75881445 0.34155706 -0.39276898 -0.53288263 -0.24389775 0.43286386 0.06877909 -0.5822261 0.7443829 -0.0075183543 -0.70701444 0.21274537 0.4286465 -0.43932506 -0.26760095 0.029146077 0.42637932 0.57414395 -0.07963778 0.20335767 0.22581643 0.3088159 -0.69245833 0.28333843 0.088222116 0.16636837 -0.031218017 -0.10908626 -0.15903483 0.35300857 -0.22216225 -0.27637658 0.13632391 0.09699137 -0.25625524 0.48099408 -0.032685656 -0.4066758
126 0.033306435 -0.2603695 0.33288667 0.11028517 -0.24424945 0.8275503 0.05399723 -0.7205472 0.5671478 0.1699828 -0.0214097 0.255191 0.31446204 0.21700913 0.020836819 -0.03877962 -0.6098107 0.08032561 0.1194146 0.14488707 -0.120411605 0.38524058 0.017064596 -0.5142099 0.31213555 0.22199717 0.26361814 0.30519253 -0.35067794 -0.20709437 -0.21043652 0.40442994 -0.36849615 0.34774137 -0.0705275 -0.8042721 0.3043414 0.10884784 0.077441946 0.029614594 0.30271876 0.16217399 -0.22745505 -0.4617751 0.005075947 -0.19555712 -0.09265157 -0.113682345 -0.059031375 -0.057272352 0.27758947 -0.082808524 -0.09500161 -0.25106463 -0.28010806 0.12521051 -0.14753504 0.22656849 -0.18447775 0.275867 0.4446357 -0.35129696 -0.4440511 0.07613608 0.014594132 -0.29348102 -0.15025748 0.181362 -0.3796961 0.07960738 0.80011296 0.07382796 -0.050881676 0.006731767 -0.69920886 0.24060094 0.08780801 -0.04184485 0.07694595 0.23747909 -0.21413328 -0.109541565 0.57256025 -0.041496277 -0.28447178 -0.3115318 -0.01040814 0.03801433 0.13797888 0.25551435 0.26942554 0.23584267 0.03832782 -0.19603972 -0.04657773 0.39476132 -0.25421464 -0.3756069 -0.1848788 -0.10961556 -0.07813646 -0.029383477 -0.29826087 -0.5411505 0.027772877 0.07114111 -0.10995908 0.671134 -0.2057266 0.18700172 -0.14732799 0.5798659 -0.34445575 -0.2535947 0.17506604 0.54120654 0.30320767 -0.21706101 0.08290745 -0.027205346 0.45004538 -0.38334703 -0.13806942 0.24823819 -0.930349 0.15122434 -0.30046806 0.02098553
338 -0.05260863 0.1093262 0.12949692 -0.018770313 -0.21751419 0.35229456 -0.086576656 -0.3884203 0.38345808 -0.012651444 0.037151136 -0.2529978 -0.46066082 -0.2625203 0.03942513 -0.5765123 -0.13303879 -0.054208662 0.4904991 -0.05289209 0.07861221 0.02692057 0.015077068 -0.12694712 0.34217033 -0.013991283 -0.17708042 -0.22414452 0.11418563 -0.25786498 -0.031382225 0.053304177 -0.88025385 0.3790124 0.3591009 -0.46075398 -0.18247923 -0.17505191 0.63167036 0.06755409 0.6210972 -0.016328793 -0.22446741 -0.19781277 -0.0137569 0.17108712 0.24569245 -0.42997417 0.019060513 0.50203806 -0.26586816 -0.24361391 -0.054445047 -0.085271545 0.4971977 -0.26072466 -0.1973587 0.5235356 0.16553874 -0.11492915 0.4063558 -0.82487553 -0.41352254 0.30565515 0.17985985 -0.13274576 0.20268841 -0.23588702 -0.04658551 -0.21928744 0.15305188 0.18968415 0.12603846 -0.2176529 0.3737884 -0.3177891 -0.028114839 -0.28009653 0.58589613 -0.037393484 0.3663979 -0.059727132 -0.042961754 -0.22939911 0.50765926 -0.24811213 0.2308397 0.030181222 -0.3257905 -0.23871778 0.405262 -0.43368736 0.3295193 -0.46290883 -0.07275072 0.33092058 -0.63704646 -0.28413656 0.14228524 0.027473677 -0.33895266 -0.30368304 -0.4843344 -0.15814605 0.011062571 0.37872484 -0.5094599 -0.12930211 -0.1311212 0.054571703 0.19870459 0.16750738 -0.58833563 -0.4208286 0.110829845 -0.17287287 -0.06618975 -0.16999795 -0.09993772 -0.18018876 -0.18563889 -0.32636636 0.03977709 0.1956525 -0.4544826 0.3682458 -0.10634712 0.46840394
73 -0.14938614 -0.0946019 -0.23323566 -0.03948865 0.26535413 0.105467096 -0.5896122 0.10515395 0.07003436 0.19409469 -0.19763893 0.4727198 -0.14755315 0.08090338 0.012130224 0.0061714733 -0.2551529 -0.5866022 -0.13074058 -0.18035498 0.13076816 0.28222513 -0.22894603 -0.006430231 -0.34628466 0.43638217 0.35440466 0.2576565 0.10397749 -0.25390765 -0.117762215 -0.095128745 0.08716746 -0.5282401 0.056377474 -0.3106682 -0.34268758 0.14791076 0.35691056 0.19066034 0.38840836 0.12286705 -0.4784245 -0.12205779 0.32824355 -0.54949784 0.042209674 -0.10985031 0.27410656 0.26082802 0.13804068 -0.22106138 0.2874276 0.15544441 0.17590037 -0.39183983 -0.31603104 0.05517256 0.14296074 0.27065375 0.38850594 -0.39897275 -0.11307163 -0.15004286 0.27877495 -0.10869195 0.05814307 -0.10138896 0.100948706 0.38582182 0.18254733 0.5804746 -0.21951012 -0.0054951073 -0.11182535 0.19944353 -0.08027879 0.0760137 -0.37515852 -0.111970745 0.21546327 0.1698406 0.037900526 -0.26588532 -0.4469155 -0.07366669 -0.13099729 0.14849931 0.05262463 -0.13704011 0.08771698 0.32143524 -0.5128812 -0.29055303 -0.08728042 0.1066081 -0.16584708 -0.2767677 0.18058522 0.25240737 -0.38093507 0.3711259 -0.4784075 0.2090556 0.24025854 -0.5366963 0.13033739 -0.28378758 0.06332168 -0.53465384 0.016622346 0.08052685 -0.14515759 -0.20242327 0.12155863 0.36310726 -0.5578545 0.56340456 0.062288597 -0.39069715 0.1047703 -0.4791327 -0.19096954 -0.0104909055 -0.37056714 0.077300124 0.13225462 -0.26427472
335 -0.34961852 0.058411445 0.051824268 0.04862444 -0.015877204 0.24576508 -0.113134876 -0.5455251 0.21902794 -0.019275375 -0.077787966 -0.2689574 -0.48879576 -0.3651199 -0.078985706 -0.79043734 -0.22944187 -0.12034613 0.56057364 -0.025040237 -0.10308161 0.0022707947 -0.14674655 -0.16751702 0.2675615 0.025607336 -0.20642535 -0.23194095 -0.057629112 -0.42144042 -0.11397379 0.16059805 -0.7452794 0.38277298 0.22762294 -0.54695344 -0.20123516 -0.018908998 0.5503573 -0.00074614584 0.69098836 -0.16901268 -0.12122431 -0.2438831 -0.025631633 0.118095405 0.3156022 -0.43675828 -0.14838989 0.420996 -0.047102645 -0.3076439 0.13202861 -0.051082503 0.42666757 -0.18568924 -0.21079671 0.44250914 0.15553334 -0.11746409 0.38719055 -0.68389034 -0.32859176 0.23072624 0.079805344 -0.010862121 0.16297822 -0.21347938 0.05835581 -0.20967884 0.13262495 0.26024365 0.04331706 -0.37623668 0.47356102 -0.24476738 0.039880566 -0.13504525 0.67813575 -0.22908212 0.35409686 0.0896562 0.14910561 -0.08834817 0.44202945 -0.12936401 0.50203174 -0.21923508 -0.3371738 -0.07857698 0.4099299 -0.6170207 0.33956805 -0.36358494 0.044600375 0.25840846 -0.5415924 -0.17778511 0.247418 0.005897009 -0.28057945 -0.36364362 -0.27563456 -0.1771836 0.009828104 0.26141798 -0.4995831 -0.32616737 -0.08971752 -0.022460748 0.20639187 0.09950104 -0.50481546 -0.47140214 0.024782829 -0.10634244 -0.0853527 -0.2361533 -0.34343693 -0.025581274 0.042443413 -0.36246127 -0.019174794 0.19526362 -0.39295083 0.35560378 -0.08443465 0.49751213
89 0.06610001 -0.18389261 -0.6436531 0.21986817 0.7995751 0.82707566 -0.18217906 0.41884947 0.02526987 0.22130583 0.38559446 -0.04798962 -0.63570106 -0.24905013 -0.301128 -0.6782775 -0.7065945 -0.56974244 -0.060570426 -0.41747501 0.25896522 0.62166417 -0.04571258 0.19191557 0.1485008 -0.0105666155 0.20342512 -0.24485952 -0.19964994 -0.121095076 0.21012135 0.15725048 -0.21671534 0.15229708 0.04990122 -0.010794649 -0.016921079 0.041120585 0.19907412 -0.3314847 -0.15984483 0.23790224 -0.26666486 -0.53467953 0.09344298 -0.9531796 -0.36258006 0.28378156 0.008407062 -0.10147849 -0.5371501 -0.4248256 -0.65449643 -0.45525557 0.18328907 -0.24317057 0.5629116 -0.2212028 0.30279744 0.018109577 -0.33278903 0.17808706 -0.5688867 0.53590715 -0.054114282 0.20324257 -0.33246475 0.1376709 0.015502691 0.47012398 0.5036564 0.11121534 0.3639772 -0.53124285 0.011554942 0.119157195 -0.113321915 0.5461793 -0.019970154 0.016884115 -0.23439404 -0.23872048 0.015290677 -0.07610001 -0.51492673 0.124074645 0.080963045 -0.050072897 0.122082196 0.5682779 0.32100403 0.35389403 0.20699644 -0.7011923 0.34999716 0.27513498 -0.06545714 -0.2576805 0.535407 0.0027436176 -0.14285766 0.03379704 -0.34683016 -0.06061665 0.48229745 -0.04232999 0.21718955 -0.057538487 0.49344334 -0.17742988 0.0069261007 -0.19104877 0.03191834 -0.46342826 -0.16356145 -0.5097367 0.38241282 -0.22992352 0.16155681 0.28400427 0.2745367 0.08399318 -0.28963855 0.4000641 -0.37360853 0.21975894 0.2338208 0.81490225
124 -0.04598512 -0.7026274 -0.3528704 0.11204712 0.2863643 -0.21924224 -0.33630827 0.048221245 0.20024218 -0.29620454 -0.26069188 0.36426815 -0.2632312 -0.46682778 -0.08772549 -0.6351453 -0.2230611 -0.37736377 -0.10001071 0.0667553 -0.050314058 0.24780059 0.25844324 -0.14935084 -0.09846456 0.09154967 -0.245079 0.22487761 0.20436324 -0.04050874 -0.06746781 0.14508621 -0.0670535 -0.1514483 0.2707272 0.15975371 0.23207343 -0.25581902 -0.029494796 -0.14775328 0.3177234 0.26852074 -0.28930846 0.16864303 -0.3771933 0.12127879 -0.16050169 0.42731375 0.4150424 -0.2843131 0.30954915 -0.54105633 -0.20382984 0.41183466 -0.13362254 -0.22258739 0.155348 -0.11901901 -0.101668894 0.13573809 -0.26053667 -0.07958705 0.0023956161 0.26032996 0.056515068 -0.02731239 -0.3197913 -0.03469465 -0.19985141 -0.32416108 -0.04453417 0.46916053 0.4332727 -0.56370133 -0.4583328 0.046348043 0.30666175 0.2610817 0.081073865 0.073873855 -0.3519235 0.14474972 -0.22051458 -0.54004055 -0.03734988 -0.16368486 0.39705542 -0.1697991 -0.19407524 0.08923608 0.17892891 0.025256623 -0.19208187 0.3283109 -0.08683743 0.27699634 -0.47144544 -0.4109976 0.28382757 -0.15823872 -0.20322719 -0.341045 -0.33870986 -0.006294212 0.014489939 -0.21103829 -0.0381989 0.341898 0.21681595 -0.09463708 0.32137176 0.4450651 0.013700624 -0.123894446 0.24504028 0.13446166 -0.41392392 0.36241382 0.11957209 -0.009061193 -0.54050064 -0.71536976 0.26346484 0.5989132 -0.7133066 -0.014367051 -0.7740766 0.100752056
145 0.4913488 -0.074022494 0.19116697 -0.2019378 0.063045554 0.08064336 -0.08783749 -0.17326584 0.5468526 -0.33948058 -0.12294014 -0.083406374 0.069305725 -0.68999165 0.03856477 -0.401173 -0.4201393 -0.10464743 0.02501721 0.43858805 -0.0011407321 0.026100418 0.27696788 -0.4660427 -0.30166247 0.53436935 -0.21039893 -0.25952515 0.28916308 0.29723683 0.044511322 -0.051718317 -0.66358566 -0.12707256 -0.11302343 0.16162874 -0.19274405 -0.22158289 0.29664242 0.001689442 -0.030129967 -0.43775228 -0.36808035 0.3385552 0.16179864 0.1894932 -0.10716661 0.028232401 0.3762972 0.3921353 -0.03047612 -0.08113041 -0.52842784 -0.19570175 -0.20379353 -0.41726056 0.072870255 0.29642358 -0.0723566 0.12541527 0.21587674 0.12166239 0.20091173 0.49174127 0.23972222 0.49569508 -0.25234607 0.4278031 0.42916453 0.8335775 0.09100018 -0.013510304 -0.3754441 -0.288798 -0.010077378 0.6272643 -0.07341554 0.18484929 0.28079498 0.6265074 -0.17461231 0.118705064 0.24782673 0.17690764 -0.08399293 -0.7004263 0.10987856 -0.2180794 0.22497213 -0.09175632 0.26670012 0.03588679 -0.26954722 -0.5819657 -0.3707762 0.660962 -0.24874248 0.11230482 0.591116 0.09832257 -0.3335548 0.010718714 -0.21010865 -0.14398652 0.025029682 -0.25049663 0.021377249 0.61055905 -0.40460336 0.3374491 0.36878806 0.50299656 -0.5917789 -0.023275428 -0.068276115 -0.15428054 0.1885529 -0.10125872 -0.35042262 0.22581509 -0.03716034 -0.21683958 0.6138623 0.0032513472 -0.35449973 0.4623503 0.3788565 0.13978745
370 -0.051825244 -0.22025554 0.29990518 0.13963239 -0.017112512 0.7317812 0.073733956 -0.8299616 0.484975 0.22934176 -0.11510669 0.26751187 0.39902112 0.18419424 0.03020572 -0.26325744 -0.59488827 -0.13010497 0.21955788 0.1181931 -0.15792556 0.20342536 -0.07594141 -0.5019786 0.29491878 0.038815804 0.30414292 0.19548275 -0.49322885 -0.4426937 -0.26356262 0.37222543 -0.31346637 0.248984 -0.15792269 -0.7925951 0.2988233 0.25545907 0.16118304 -0.025146823 0.33680344 0.06943687 -0.20299818 -0.50860035 -0.053299867 -0.22057477 -0.07869037 -0.13176788 -0.07496041 -0.016674835 0.34951892 0.0078065833 0.048050154 -0.25907144 -0.32513905 0.12154447 -0.11057322 0.019975556 -0.34659478 0.19849429 0.3219868 -0.33565935 -0.4333966 -0.068190895 0.008257157 -0.18777533 -0.09747143 0.049563866 -0.50399595 0.23010042 0.8278374 0.26164675 -0.082842685 0.08375029 -0.59543115 0.11999676 0.101016805 -0.0077798855 0.24143212 0.13880107 -0.36251703 -0.14512588 0.5397257 -0.12095122 -0.16885029 -0.099326774 0.1438923 -0.063100494 0.17007199 0.3931684 0.102218404 0.16791151 -0.04410707 0.07916558 -0.1012097 0.35047 -0.28537273 -0.25097063 -0.08882254 -0.09206869 -0.10041458 -0.11141362 -0.21989708 -0.5900761 0.07634491 -0.09113567 -0.019785343 0.5800491 -0.10989105 0.16712327 -0.17502238 0.48342475 -0.3094482 -0.15124002 0.055699274 0.3822404 0.3578216 -0.17439823 0.07478309 0.00019089851 0.5179111 -0.316676 0.0075838882 0.36309707 -0.9531874 0.092676274 -0.38494423 0.018149998
349 -0.459166 -0.31042606 -0.26135337 -0.06942703 0.37562796 -0.34351775 0.09939257 -0.36512715 0.1752116 0.2572563 -0.1777781 0.27805436 0.22414826 -0.4098009 -0.08045232 -0.32866228 -0.41211265 -0.392654 -0.113533475 0.13501224 -0.2185871 0.10975811 0.046632197 -0.15404934 -0.49013743 -0.062415943 0.122835144 0.153938 0.32244635 -0.28782618 -0.12638314 0.114645585 -0.37409756 -0.01949454 0.13126251 -0.18354774 -0.30576023 -0.29804578 0.2938878 -0.5382212 -0.34789023 -0.6788209 -0.20607963 -0.4791275 0.37459916 -0.33648074 -0.24667707 0.28208202 0.100206144 0.20944346 -0.18824215 0.38879097 -0.6578693 -0.13179483 0.34445834 0.18016699 0.55389965 0.32680005 0.03139334 -0.26091853 0.823724 0.18534029 -0.4022185 0.094369695 0.34245417 -0.17434752 -0.6253519 -0.7009757 -0.30330178 -0.7056438 0.32987383 0.21613964 -0.07706892 0.0013524476 0.45779586 0.019993728 0.4163311 -0.20641096 -0.06568051 -0.23340645 -0.2639118 -0.59432346 0.14724796 -0.34779793 0.24754119 0.1725048 0.4947837 0.041224837 -0.7919712 -0.4407584 0.020707699 0.08731976 0.37069476 -0.2754818 -0.66971856 0.96635073 -0.25890175 -0.34256795 0.11669218 0.1422955 -0.04761741 -0.088868655 -0.06297758 0.11171605 -0.31493077 -0.16481118 0.2727306 0.45008874 0.043263067 -0.3626927 -0.0200781 -0.37843344 -0.62965685 0.021218682 0.16847037 -0.0012787924 -0.15671057 -0.3452095 -0.013292374 -0.5452494 0.09411537 -0.5385658 -0.055752363 -0.21080148 0.1365444 -0.012207736 0.78998876 -0.3175644
240 0.2369684 -0.10182383 -0.08878953 0.23782767 0.30938753 -0.08221623 -0.8687494 0.1947973 0.05524932 0.23327968 -0.21380754 0.23475407 -0.19443198 -0.20655912 -0.612044 -0.30057272 -0.62361526 -0.8102572 -0.3791134 0.2430034 0.679603 0.61064756 -0.73991156 0.011794001 -0.44124544 0.48530504 0.44892514 0.39811233 0.25126815 -0.3691417 -0.020979788 -0.3580916 -0.038673848 -0.38577688 -0.009960486 -0.20730916 -0.089133084 0.50012416 0.21540861 0.119895555 0.21338841 0.09352716 -0.3184874 -0.26510194 0.28519836 -0.06466638 -0.040586192 -0.26067835 -0.09814104 0.089871846 0.12613948 0.24844433 0.2721578 0.09507646 0.111240566 -0.40828407 -0.30620036 -0.06926706 -0.17324066 0.25072712 0.13361867 -0.47908968 -0.17281602 0.03140422 0.4866538 -0.19704008 0.6752108 -0.17979044 -0.24021734 -0.35349587 -0.25512058 0.601395 -0.47704807 0.32941106 -0.019614097 0.25951874 -0.22607102 -0.0028258057 -0.66428983 -0.39575216 0.4567419 0.27152744 0.50521535 -0.22956042 -0.45487693 0.017478378 -0.16359515 0.1954559 0.06770379 -0.052663296 0.15784709 0.11753166 -0.3801934 -0.1098525 -0.18091372 0.2802428 -0.4330577 -0.41858745 0.30968153 -0.09769002 -0.5037812 -0.06061942 -1.1311632 0.17053126 0.3936491 -0.5637257 0.06944209 -0.098195374 0.025752619 -0.45805636 -0.05095268 0.3008337 -0.06181683 -0.33269054 0.12519613 0.43209356 -0.21473339 0.39452946 -0.12584977 0.11276363 -0.025929987 -0.4626734 -0.13915081 0.020501694 -0.45996943 0.35780013 -0.12071987 -0.3216821
4 0.19717568 -0.16387567 -0.24423037 0.3251568 0.28159875 -0.42985892 0.19689672 -0.29325292 0.24568233 -0.09796019 -0.26502123 0.3909432 -0.020910023 -0.26740578 0.13186423 -0.6603455 -0.4960779 -0.24409504 0.14580423 -0.27426916 -0.23833624 0.07216793 -0.2505462 0.021393286 0.21124388 0.17333663 -0.21253733 0.30608222 0.13295867 -0.15579553 -0.11327707 0.33668184 -0.033038482 -0.06926275 0.037470978 -0.15643352 0.27715665 0.052415416 0.30001125 -0.08453829 0.14962873 0.38968465 0.19274428 -0.47629517 0.35724312 -0.5427765 -0.014199621 -0.035894588 -0.3175916 -0.30354637 -0.08731173 -0.47127867 -0.27499282 0.26426625 0.09974746 -0.22245975 0.07883143 -0.08557522 0.11639893 0.31363204 0.4229434 -0.3415057 -0.16105072 0.34798008 -0.20218301 -0.34594977 0.019937431 0.42933977 -0.20605671 0.41861922 0.604086 -0.16734578 0.1472514 -0.16125864 -0.2619456 0.4436573 0.11712971 0.3234837 -0.0009094003 -0.14889549 0.16626024 -0.71890485 -0.32165855 0.34045988 0.32091004 -0.18832551 -0.05207901 -0.002098761 -0.4360881 0.16009001 -0.24700496 0.280095 -0.7491301 -0.88854134 0.5022357 0.23486258 -0.3014627 -0.10905857 0.22710253 -0.44960085 -0.49179766 -0.20724815 0.20610403 0.027101215 0.004377867 -0.25826192 -0.0052300845 -0.30721977 -0.21920054 -0.10102319 -0.14932886 -0.02158706 -0.049624387 0.08455368 -0.09239018 0.054943725 0.31410754 -0.49349782 0.045713365 -0.11873282 -0.21462156 0.22146937 0.12384682 -0.42865694 0.07674444 0.43731025 -0.30634502 -0.24565518
332 0.51732355 -0.48477215 -0.25965464 -0.050478857 0.10847489 0.094297424 -0.38075575 -0.26426172 -0.09130142 0.47004285 -0.58778924 -0.029023824 -0.24911185 -0.07565924 0.061759748 -0.70326096 -0.3313625 0.14917165 0.05293206 0.0469684 0.15535225 0.4408046 -0.7130663 0.26988468 0.269321 -0.07903912 0.21492901 0.20825146 0.10479288 -0.077541545 0.29986194 -0.0426725 -0.03112324 -0.19007841 -0.30285212 0.31497198 0.14771701 0.70378315 -0.062076602 0.096184745 0.016046228 -0.11126231 -0.79503167 -0.005018518 -0.16682798 -0.19303788 -0.02148884 0.4176933 0.31938735 -0.2966472 0.14910038 -0.3628441 0.054036386 0.23507965 0.4791484 0.051858567 0.4608378 -0.18421538 -0.07422912 -0.067050576 0.48872548 -0.400316 -0.79611295 0.021106657 0.449495 -0.11130649 0.16237277 -0.3451689 -0.4052768 -0.008932262 0.2683238 0.58228093 0.42532054 -0.29058346 0.260303 0.2145809 0.08096451 -0.116862535 0.59266216 0.15727286 -0.29025957 -0.33571658 -0.5334235 0.1907096 0.032395467 -0.27414775 -0.13351649 0.12823738 -0.57336384 -0.16924292 0.23122282 -0.1405624 -0.0024326239 -0.10323711 -0.17675103 0.74468726 -0.42997655 -0.6683417 0.26516023 0.20923735 -0.42215028 -0.016896792 0.25399953 0.26902735 0.42683554 0.23156303 0.621011 0.12977134 0.5112842 0.15317228 -0.08572193 0.22988708 -0.19573544 0.11607179 0.6838483 -0.114388965 -0.21696086 0.40662384 -0.7316542 -0.17620635 0.31722122 -0.10393593 0.013336256 -0.04837763 -0.07227785 -0.2788534 0.1946812 -0.10007999
200 -0.16807629 -0.61393815 0.09494278 -0.086169764 -0.15906861 -0.50863266 -0.40264285 -0.36497286 -0.2660574 0.030143725 -0.4127954 0.1160626 -0.19759107 0.36297277 -0.06859511 -0.41311842 -0.11048738 -0.28904876 -0.33697498 -0.016579747 0.56679684 0.2052585 -0.28847784 -0.37008348 0.36378658 -0.121312514 -0.09407528 0.28831002 -0.12588236 -0.16452546 -0.19202524 -0.14834727 -0.10597035 -0.54352605 -0.23043989 0.17425644 0.21624377 0.14807872 0.37783533 0.32532322 0.51033914 -0.13083269 0.19721512 -0.33310473 -0.09246059 -0.7332061 -0.1323834 0.21852812 0.91616786 0.1664916 -0.4890527 0.38672864 0.095581174 -0.11164855 0.3273133 0.37871864 0.64581126 -0.31363347 -0.29609862 -0.07738433 0.51003647 0.3529421 -0.6160322 -0.11597698 -0.2307489 0.32316074 -0.7931223 0.10284133 -0.4546186 -0.07177964 0.078923374 0.1210947 -0.4306991 -0.73590904 -0.22990529 -0.025460338 0.805614 -0.5548002 -0.1485606 -0.09050389 0.37660298 -0.059133947 -0.18448737 -0.1717174 0.24981771 0.14052491 0.3719471 0.48272446 -0.23577012 0.11582753 0.31392577 -0.3295121 -0.21686395 -0.4817723 -0.19542241 0.66078323 0.15565169 -0.43571255 -0.422318 -0.008398528 -0.3200926 0.0084195845 -0.14701736 -0.16379112 0.5511812 0.46506128 -0.15590763 0.4063113 -0.17461908 0.24935186 0.20887709 0.2908627 -0.28961346 -0.79054016 0.40729758 0.13793746 0.032648765 0.51327074 -0.012208692 -0.3392198 0.6866199 -0.24989425 0.5295717 -0.18117768 -0.6299641 0.7989165 0.23655447 -0.14948653
217 0.27069452 0.038284093 -0.2127367 0.07411606 0.25651762 -0.0032119697 -0.7608635 0.1433732 -0.006931637 0.0070473873 -0.24836917 0.19392648 -0.083333634 -0.094386935 -0.32365236 -0.4131977 -0.41315055 -0.6057998 -0.24844469 0.18232864 0.28150207 0.59366393 -0.6229819 0.29485226 -0.592609 0.54959685 0.42199352 0.30468333 0.22477722 -0.16500731 -0.018318819 -0.38610518 0.048954364 -0.5294916 -0.26735538 -0.34140348 -0.1764625 0.39467603 0.47035697 0.019982748 0.16159561 0.26010308 -0.49098295 -0.18957044 0.45249048 -0.4568507 0.15207997 -0.26850477 -0.10271213 0.17075114 0.3229023 -0.22270782 0.28198162 0.17755319 0.12916532 -0.26032236 -0.58363086 0.12768094 -0.1639975 0.34671634 0.27251893 -0.2577674 -0.052469756 0.06299523 0.22066107 -0.13755214 0.28106868 -0.21785723 -0.091976225 -0.18137768 -0.13449687 0.5127512 -0.33641046 0.2125141 0.002441787 0.16380195 -0.23955518 0.14800952 -0.46658188 -0.20363636 0.24717058 0.20958973 0.32445613 -0.20548995 -0.82947665 0.1488202 -0.17217538 0.1453859 -0.038575295 -0.07620089 -0.013525255 0.21066122 -0.55129886 -0.25661123 0.002942658 0.32652128 -0.26330903 -0.52701557 0.41733894 -0.09146386 -0.58934987 0.21859042 -0.7217264 0.004100362 0.22496243 -0.4744744 -0.075126536 -0.17945372 0.08350769 -0.5471161 -0.10226414 0.26358783 0.04687759 -0.19187814 0.3200349 0.29055446 -0.29442924 0.39249447 -0.02629485 0.04569487 0.09464197 -0.6533298 -0.1128926 0.26328018 -0.65549237 0.1373965 -0.08178258 -0.24210268
51 -0.25895533 -0.20643392 -0.19525415 -0.04000019 0.28521544 0.073985815 -0.52053785 -0.0066327034 0.18825029 0.106741175 0.35195464 0.5957863 -0.37838492 -0.28662455 0.05927675 -0.060298827 -0.37059283 -0.21952598 -0.32109728 -0.18578991 -0.06965274 0.6298449 -0.10110973 -0.3726474 -0.27426958 0.22271658 0.30393794 0.2813244 0.053362664 0.05684329 -0.21267374 -0.15752088 -0.17736249 -0.28049472 -0.13010259 -0.23432724 -0.4743465 0.18246488 0.47209468 0.25007722 0.23666266 0.24125664 -0.42350566 0.23757076 0.09693178 -0.5583928 0.033077992 -0.31430426 0.54050547 0.44190025 0.04857998 -0.23616536 0.107886195 0.33231866 0.16965239 -0.07888206 -0.54562795 0.09106684 0.14337106 0.13283089 0.44354662 -0.29936448 -0.25896025 -0.037562415 0.19212449 -0.09728292 -0.28495765 -0.2170929 0.09007557 0.6957588 0.20820731 0.41084692 -0.19465292 -0.37349284 0.0759872 0.27065292 -0.11257472 0.31583107 -0.39409167 -0.2336951 -0.009056595 0.19536982 -0.13892342 0.015882466 -0.09416357 -0.047217935 0.2891228 -0.34532288 0.015524557 -0.27133128 0.12988527 0.51764 -0.089705504 -0.312644 -0.1644067 -0.34737015 0.11230301 -0.053190872 0.066428125 0.03882168 -0.3693312 0.72005594 -0.21226577 0.410237 0.037606936 -0.6264615 0.090750426 -0.24426359 0.022690825 -0.4518224 -0.016869128 0.3637105 -0.5431725 -0.27024844 0.26656437 0.14233136 -0.4251974 0.42731333 0.15863964 -0.4647446 0.0005387922 -0.3823294 -0.13125576 -0.012767109 -0.026363568 0.10665528 0.39953992 -0.45449933
193 0.018198732 -0.21542522 0.16800159 0.76869154 0.4738506 -0.3070979 0.30486614 0.287415 -0.2924555 -0.016632678 -0.5466139 0.25433388 -0.071951084 -0.4851615 -0.23913446 -0.29222834 -0.8736661 -0.67260975 -0.18874937 -0.29598305 0.28704357 0.34954298 -0.19081675 -0.023784503 -0.018252196 -0.006876519 0.11703728 0.09416659 0.13301347 0.2627411 -0.44643176 0.30457386 -0.027948288 0.10945485 0.0707542 0.052067626 -0.19842009 0.048340864 -0.08837513 -0.81013566 -0.5400153 0.19237535 0.19022028 -0.48935246 0.12254115 -0.20349811 0.61760646 -0.10088784 -0.24621715 0.14636031 0.2697811 -0.3636843 -0.350496 0.52920884 0.12764718 -0.34568468 -0.13701326 -0.11997824 -0.3555916 -0.12863766 0.69175804 -0.08640337 -0.32384446 -0.041631564 -0.16896188 -0.15710795 -0.33770227 -0.12584376 0.23601739 -0.048811924 0.52243155 -0.009511767 0.34233952 -0.33338338 -0.3136338 0.23951016 -0.13102095 0.18108971 -0.32383004 0.7673535 0.23749416 -0.047469184 -0.31833944 -0.09247887 -0.1350129 0.08846577 0.2677082 0.13855273 -0.44476864 0.064089805 -0.08378114 0.06252969 -0.4349593 -0.6180712 -0.04780857 0.475784 -0.007680675 -0.115376845 0.12217852 -0.37199044 -0.5978073 0.33599785 0.79410696 -0.3324059 -0.67487365 0.108842954 -0.07653484 0.18734352 0.13335675 0.11311026 -0.30730778 0.5105943 -0.45663777 0.14957105 0.19912633 0.1889551 0.36709574 -0.27427867 -0.20442393 0.08556273 -0.1679026 0.12355733 0.09328702 -0.27240655 0.10310279 0.3439749 0.09101268 -0.43562427
293 0.09324001 -0.088174686 -0.14864847 0.2738474 -0.046203025 -0.12797084 -0.025696374 0.12518552 0.056267638 0.4068532 -0.6147862 0.15107715 0.05490262 0.1466384 -0.08935059 -0.21998142 -0.2726699 -0.31738746 -0.060890462 -0.08219707 0.13479504 -0.089028835 0.43806577 0.17967658 0.12509634 0.25446144 0.27409053 -0.010264906 0.0147990985 -0.038011704 -0.2077212 -0.033768438 -0.35776857 -0.16970734 -0.115904674 0.2072252 -0.1803382 -0.05885444 -0.44248715 0.38887924 0.4165834 -0.13757037 0.13148241 -0.3060141 -0.18525547 -0.30606714 0.0073650703 0.110331774 -0.041285526 -0.3490798 -0.67441285 0.13792782 0.29889995 0.19724064 0.16901155 -0.07192033 0.33980656 0.297086 -0.51091886 0.26234752 0.41811466 -0.05909968 -0.1997232 0.2933932 -0.098874256 -0.20145795 -0.28017724 0.3741234 0.16333902 -0.17666635 0.5355849 0.17381765 0.2892131 0.14998145 0.16344488 0.73649627 0.12488396 0.26224452 0.089187615 -0.45448282 0.28777316 0.25406566 0.18078141 -0.34624657 0.17685886 0.2987071 -0.004275335 -0.21906167 0.4839432 -0.37204024 0.19889602 0.291294 0.14822653 0.19170944 -0.27137387 0.4391955 -0.19751245 -0.015489648 0.39539385 0.14983268 -0.77332634 0.18826593 0.08940816 -0.76033956 0.10402548 -0.3165669 -0.043728247 0.03943137 -0.24654195 -0.4413375 -0.20225966 0.3312563 -0.7709546 -0.14532045 0.23832239 -0.6895738 -0.043325417 0.21278197 -0.24162105 -0.089269 -0.10211274 -0.36829638 0.28739658 0.7344975 -0.79302084 0.33371672 -0.18082833 -0.3595415
30 0.022212192 0.52244025 0.07992983 0.5905906 0.013338945 -0.28254294 0.117526494 -0.5559252 -0.07360695 0.4157176 -0.022639487 0.18937045 -0.055787202 -0.44887558 -0.45041266 -0.67696905 -0.114141494 -0.56111854 0.22723159 0.013739858 -0.03836212 0.025610592 -0.14711219 -0.08944469 0.6096918 0.14388984 0.47162503 0.42162347 0.48761457 0.07390149 0.06910303 -0.19474556 -0.054611813 -0.49633837 0.15442467 0.35308617 0.4244046 -0.17334443 0.2658876 0.12969923 0.60836804 0.49715725 -0.009137213 -0.019391183 0.20199935 -0.22925389 0.10349476 0.29486862 -0.014751886 -0.09008219 -0.0032615338 -0.21842605 0.11208819 -0.37220827 0.28999653 0.0340397 0.3105293 -0.20444967 -0.020478776 -0.34909672 0.4627309 -0.33128637 -0.1779978 0.12910704 0.249994 -0.16670765 -0.6529515 0.7202045 -0.06510192 -0.09859722 0.25307518 0.4601495 -0.21502653 0.037240572 -0.07134267 0.40426317 0.5731788 0.3043836 0.3357092 -0.07760941 -0.04398501 0.0065098964 0.14074443 0.16999583 0.15784821 -0.12664798 0.050520364 0.33065167 0.012388298 0.19272028 0.23069698 0.11026142 -0.19873023 -0.17742157 0.094009876 -0.012795734 -0.6582762 0.23229422 0.10049993 -0.2077028 -0.1624546 0.06939635 -0.25742045 -0.6224962 -0.5328863 -0.44966185 -0.07698972 -0.28167546 0.41297573 -0.32309183 0.44013956 0.5323762 -0.9524604 0.27769086 0.21206006 0.07404023 -0.35300785 -0.106707774 -0.1082802 0.13459694 0.23207746 -0.2624267 -0.13370925 0.20042066 0.011399553 -0.058704123 0.10591802 -0.04135787
359 0.032043837 -0.2373361 -0.66610897 0.20101866 0.8345989 0.84112686 -0.19119051 0.37680176 0.114649475 0.23521772 0.35606325 0.084473655 -0.7534758 -0.28296205 -0.1653916 -0.6134545 -0.5552205 -0.6331377 -0.02758894 -0.31853592 0.21139042 0.57048386 -0.08226204 0.14010386 0.24732399 0.027806697 0.28394017 -0.24480258 -0.07321066 -0.12015579 0.16118532 0.19309583 -0.2733013 0.054761007 0.060532 -0.062401414 0.059410643 -0.073111095 0.16271974 -0.2876941 -0.081330866 0.16150576 -0.28127736 -0.6159803 0.16290107 -0.9431263 -0.33137435 0.36196548 -0.0048514837 -0.0508006 -0.5071839 -0.3841507 -0.60577947 -0.52677333 0.04966154 -0.24485338 0.6025458 -0.22148381 0.34602696 -0.11176767 -0.29050088 0.14849609 -0.51811165 0.6237398 0.05374167 0.17416297 -0.28622139 0.2261 0.041076347 0.57488674 0.50748855 0.11412956 0.35715365 -0.3661886 0.08745977 0.19896671 -0.11058211 0.49093357 -0.039231174 0.0156791 -0.25143242 -0.27509835 0.13984978 -0.14135781 -0.4113777 0.16178909 -0.026236014 -0.0483482 0.1620334 0.5721861 0.3271654 0.35680982 0.28682613 -0.7153729 0.33337238 0.21188499 -0.21345009 -0.26472303 0.4049102 0.041792635 -0.065375306 -0.0077294325 -0.3789535 -0.005835144 0.3908832 -0.23146632 0.28100595 0.009307468 0.38061 -0.093994714 0.026169213 -0.20663851 0.031609803 -0.3194848 -0.1682639 -0.55030537 0.3868664 -0.27956954 0.13513586 0.36125228 0.18795887 0.13553372 -0.2566649 0.42036965 -0.34489805 0.26589182 0.20978858 0.8275137
22 0.43859592 -0.07692775 0.3800531 -0.18781336 0.24393138 0.022587758 0.06761772 -0.042088717 0.27187556 -0.26953265 -0.25264835 -0.0319557 0.02130763 -0.7232593 -0.081291735 -0.35080117 -0.48034486 -0.15109646 -0.0824115 0.4550325 0.08658962 0.10731872 0.25048065 -0.40381566 -0.24322978 0.4000248 -0.10621721 -0.2886379 0.28510842 0.09382691 0.071745336 -0.18134546 -0.5202526 -0.19120651 -0.093121104 -0.0669486 -0.38296202 -0.31286302 0.32163966 -0.25491914 -0.016594546 -0.35900462 -0.46768844 0.18621616 0.18912385 0.19268955 0.040648334 -0.041154183 0.30055937 0.27722338 0.3453151 -0.069790736 -0.4295589 -0.065380245 -0.31043229 -0.37105885 0.28216374 0.18042299 -0.272139 -0.013343218 0.060554985 0.2550804 0.15010512 0.25798082 0.25933003 0.38176656 -0.29517186 0.2095126 0.25751776 0.8031434 0.06286125 0.33054698 -0.39510134 -0.24319908 0.09061261 0.58116037 0.02271717 0.18991101 0.45384577 0.53371054 -0.084880464 0.19774316 0.40884134 0.21802591 -0.037404723 -0.5608237 0.12432111 -0.2587122 0.13487552 -0.013722929 0.3055679 -0.0881955 -0.2837129 -0.34735072 -0.42411003 0.5997206 -0.13492441 0.26698405 0.62669533 -0.24126701 -0.40967807 0.03094947 -0.21919437 -0.07325798 0.18880863 -0.40713847 0.047596857 0.53574413 -0.30435434 0.46506533 0.30427977 0.5276472 -0.63380045 -0.120053045 -0.2487744 0.023035033 0.2983827 -0.21758041 -0.72950315 0.25655892 0.043805104 -0.34341848 0.6087309 -0.104181275 -0.5545122 0.3933677 0.33719116 0.12736495
279 0.10005315 -0.22764187 0.3536042 0.11276283 -0.025989395 0.79778546 -0.043048214 -0.9800516 0.53308547 0.0531974 0.06650619 0.27515116 0.29317236 0.24397556 0.02698547 -0.12955967 -0.5519093 0.15742086 0.10180908 0.1429511 -0.26719674 0.3746982 -0.18024652 -0.51866734 0.3656406 0.26095858 0.21642257 0.23775296 -0.44693616 -0.24268195 -0.2666176 0.39078042 -0.32330775 0.13847618 -0.19766657 -0.76918 0.3713994 -0.03267748 0.13882466 0.05874102 0.24058482 0.12346876 -0.13541856 -0.37075076 0.17264858 -0.21977109 0.060120888 -0.053441666 -0.10970799 -0.023737159 0.29421338 -0.03024695 -0.08463249 -0.2181866 -0.3206904 0.115521796 -0.1455162 0.23554102 -0.15328051 0.31358385 0.48047593 -0.18395999 -0.35299823 0.060890775 -0.013200246 -0.27830395 -0.11710327 0.20557275 -0.31765243 0.0075615356 0.61195445 0.10384908 0.0106045855 0.034690693 -0.49933708 0.22911432 0.030955577 0.009379905 0.19807169 0.20847876 -0.23008811 -0.09412427 0.564733 -0.0009186058 -0.2532494 -0.21856394 0.09464356 -0.068097614 0.14122799 0.36300436 0.27484557 0.25428224 0.110793255 -0.14007185 -5.2206397e-05 0.2749557 -0.24025214 -0.44525614 -0.19965391 -0.26906857 -0.06852843 -0.057109535 -0.30113587 -0.60781497 -0.108575515 -0.04080305 -0.20988615 0.6152722 -0.13877691 0.11334975 -0.11359407 0.6252259 -0.45542464 -0.32327524 0.19411974 0.4149992 0.37692356 -0.33404732 0.06752365 -0.08254644 0.5748811 -0.44962087 -0.14070787 0.28678384 -1.0015107 0.2156773 -0.22884671 0.081827685
413 -0.37099865 -0.15128635 -0.28850093 -0.05455639 0.26007557 -0.491402 0.06525047 -0.12787619 0.13204505 0.27530208 -0.300619 0.19077429 0.09428927 -0.3442771 -0.0070404857 -0.23674485 -0.5433175 -0.36738506 -0.089904405 0.14072329 -0.104643136 0.23915377 0.13385995 -0.21978334 -0.52523273 -0.22098917 0.176084 0.21156862 0.43485558 -0.09892439 -0.05833071 -0.009432075 -0.41056058 -0.08106488 0.13287513 -0.12334593 -0.23199362 -0.39147446 0.2953553 -0.3388093 -0.24360766 -0.6559052 -0.24809673 -0.48284194 0.40398228 -0.2888018 -0.24598075 0.36917943 0.074998565 0.27556917 -0.17602788 0.30278164 -0.80862164 -0.092084385 0.45500177 0.3024179 0.3860741 0.30253148 0.20908247 -0.17328514 0.8270661 -0.017978359 -0.5495476 0.14510754 0.3925016 -0.115161896 -0.5695812 -0.74211377 -0.4016568 -0.5341943 0.3394456 0.047756683 -0.049192738 0.09736603 0.49092045 -0.08346234 0.29553136 -0.2932045 -0.007522242 -0.11502848 -0.22343004 -0.7410885 0.20310928 -0.2795068 0.21667396 0.12693031 0.30224398 0.12834473 -0.72527057 -0.36657688 -0.1068491 0.1449489 0.39017054 -0.38325322 -0.79547584 0.89719963 -0.21502021 -0.42243084 0.08025773 0.0254904 -0.04333752 -0.07435524 -0.032061532 0.11743687 -0.31613016 -0.14570734 0.26042762 0.4848387 -0.071497805 -0.25686517 0.07330471 -0.29242614 -0.6287274 -0.006550778 0.31434482 0.065444425 -0.13309269 -0.38225213 0.06201137 -0.60242486 0.09322055 -0.56421316 0.03515442 -0.0035873733 0.19520047 -0.16214037 0.6893312 -0.23027715
350 -0.41904518 -0.3663328 -0.26704705 0.34177017 0.2572741 -0.30768386 0.1998615 0.03890243 -0.095181555 -0.3596584 0.18000415 -0.056446634 -0.4856518 -0.5306094 -0.26950893 -0.23050718 -0.35767493 -0.28903756 -0.21641909 0.1533455 0.7176877 0.18554132 -0.2795191 -0.0037786085 0.42729923 -0.046668123 0.17160587 -0.21238878 0.35851142 0.022589004 0.24399982 -0.32072118 -0.53689486 -0.3283294 0.06303038 -0.27305532 0.5545154 -0.23092188 0.31648302 0.6785659 -0.104163654 -0.005838015 0.08770366 -0.12622431 -0.010556692 0.04256695 -0.21931353 0.0104634045 0.34794053 0.27508637 -0.24996419 -0.023671491 -0.29450697 0.41228598 0.086151846 -0.049285613 -0.5044835 -0.14215876 -0.21924484 -0.022184787 -0.5079989 -0.32656318 -0.235729 0.09579088 0.19005375 0.2884873 -0.46523523 -0.26619086 -0.47582972 -0.011325926 0.6092591 -0.18984254 0.36071765 -0.0824594 -0.07128443 0.5907171 0.35970014 0.25303143 -0.058848534 -0.043345947 0.12426383 -0.06305519 0.25608766 0.089440845 0.099493474 -0.11392078 0.24786748 0.38068855 0.24816854 0.39683574 0.32539093 0.2820021 -0.10334568 0.3594291 -0.2372553 0.2335959 -0.06545662 -0.2860444 0.30075333 0.3278106 -0.2752533 -0.15865077 0.059991047 -0.007282962 -0.00999107 0.088316694 0.6961842 0.19137838 -0.43537575 0.024311455 0.2935435 -0.015408574 -0.52656937 0.21184318 0.13745396 0.10152088 -0.1805773 -0.21024047 0.2035963 -0.23579133 0.31120226 0.090223074 0.017167712 -0.19728646 -0.42274383 0.04394633 0.36163485 0.2855812
171 -0.026653254 -0.2577035 -0.6031655 0.3742026 0.85105 1.0023063 -0.14620513 0.39423046 0.18614027 0.14749861 0.47958112 0.010251959 -0.6991932 -0.33088902 -0.30715343 -0.50039965 -0.7156752 -0.5888949 -0.0654528 -0.40618512 0.31715485 0.6420018 0.048910562 0.10453966 0.21770944 -0.029385889 0.19471057 -0.2772498 -0.19472751 -0.057937384 0.20533404 0.16987936 -0.2893739 0.20702633 0.079728276 -0.022742588 -0.051156055 0.00089223054 0.11378574 -0.29796046 -0.095203176 0.20378146 -0.29542205 -0.57445025 0.05009869 -0.7952292 -0.48413646 0.39747575 0.0010286635 -0.21927847 -0.52938515 -0.25239173 -0.653278 -0.40635636 0.15977855 -0.14601211 0.611317 -0.15640704 0.22766913 -0.07694861 -0.3021424 0.08789388 -0.49087352 0.52223176 0.08539622 0.23214698 -0.2615109 0.22555678 0.02835829 0.43774125 0.4020911 0.16300498 0.2631972 -0.43651968 0.036254015 0.20131008 -0.17493531 0.48065987 -0.041481305 0.068635896 -0.16014181 -0.26942068 0.11879165 -0.118774764 -0.48612353 0.08068365 -0.05013015 0.07565231 0.06283325 0.5551027 0.34055436 0.29103324 0.2616072 -0.6172087 0.37373164 0.24160351 -0.18787426 -0.28422105 0.51382667 0.0545974 -0.26896393 0.017929528 -0.46132064 -0.0072375312 0.5150704 -0.12100413 0.20453273 -0.06425477 0.46008974 -0.15235774 0.023756571 -0.13372763 0.086455226 -0.46364933 -0.08730073 -0.5581669 0.3732897 -0.13258748 0.22713384 0.24392575 0.24127509 0.17560197 -0.2640556 0.39186123 -0.30241874 0.25322706 0.18725732 0.761938
231 -0.07504359 -0.70485234 -0.26838073 0.2582811 0.22277433 -0.1987418 0.18012251 -0.006703656 -0.124232076 -0.6368289 0.16486579 0.28694862 -0.7631129 -0.5880359 -0.02487649 -0.13664585 -0.26755488 -0.5759671 -0.2705944 -0.17815667 0.47037244 0.38765204 -0.2954569 0.05217681 0.30865562 0.26007548 0.08524233 -0.115171775 0.40203556 -0.0066405567 0.06599675 -0.4694745 -0.18306147 -0.22729051 -0.18076152 -0.2969319 0.53913313 -0.106483266 0.225197 0.6426649 -0.11117649 -0.08125666 0.16400546 0.037471995 0.30133417 0.15112606 -0.13254797 -0.12313505 0.21591212 0.34940645 -0.074651934 -0.32798457 -0.2964074 0.34003106 0.09909899 -0.02251457 -0.42239252 0.09874663 -0.17988274 -0.17625831 -0.09290084 0.070805945 -0.0089888 0.14237586 0.042990234 0.45697185 -0.39478278 -0.14545909 -0.45544922 -0.02364295 0.64176685 -0.44532087 0.70076394 -0.17827353 0.07064857 0.207832 0.2434039 0.27513587 0.4425312 0.21296956 0.048069973 0.091046564 0.2689041 0.071119815 -0.23038982 0.01197308 0.08529011 0.3903993 0.09160825 0.41859636 0.07362349 0.23300642 0.15109867 -0.15710029 -0.090844326 0.24091019 0.0075956453 -0.3316903 0.50377244 0.29152998 -0.1509818 -0.034567732 0.2146573 -0.20807715 -0.069585875 0.4297882 0.22648944 -0.20092596 -0.23266986 -0.44790545 0.43475622 0.106042095 -0.32711598 0.2488809 0.21631221 -0.20635104 -0.44962728 0.3037704 0.30429086 -0.20748506 0.1715612 -0.051005177 0.06543376 -0.07409045 -0.6824382 -0.11416174 0.21947531 0.41249236
62 -0.13478506 -0.156271 -0.08553387 0.18370256 0.44090635 -0.08671387 -0.57000554 0.055206537 0.03058298 0.106614485 -0.005584219 0.69652915 -0.4696798 -0.26410675 0.041490786 0.020151535 -0.5585644 -0.32195985 -0.10195494 -0.11755422 -0.1382678 0.58641297 -0.27889454 -0.2389508 -0.09463329 0.20769686 0.31216863 0.045892175 0.09749659 -0.06945968 -0.084417 -0.17751996 0.11112027 -0.26500583 0.05320432 -0.14870799 -0.3846476 -0.08120237 0.4489285 0.022360256 0.19963816 0.136906 -0.34050554 0.21293207 0.09133721 -0.59226304 0.055781 0.059446692 0.34804136 0.403616 0.20231234 -0.15209803 0.05010717 0.3719838 -0.054912105 -0.058658294 -0.52572083 0.3161648 0.21297286 0.18687434 0.41656128 -0.17908531 -0.11342751 -0.2617546 0.046014156 -0.26327047 -0.13518767 -0.23868726 0.080613956 0.52372015 0.08596137 0.3826865 -0.2807927 -0.32015064 -0.13144793 0.1947652 -0.1452126 0.18015718 -0.20421073 -0.21629594 0.15151392 0.108645916 -0.0737473 -0.0055096303 -0.116263054 0.08300528 0.21837711 -0.43191767 0.06305969 0.051139515 -0.026049932 0.30795777 -0.22246744 -0.43826887 -0.18721132 -0.18442811 0.08531725 -0.07915345 0.20969704 0.03978728 -0.31281143 0.5945806 -0.39270413 0.34885558 -0.066029176 -0.48427835 0.12896468 -0.3465938 0.083190605 -0.39420336 0.034904126 0.444964 -0.5061221 -0.39760828 0.26050535 0.2516208 -0.47244546 0.31358424 0.1064532 -0.67543644 0.34620744 -0.35958004 -0.2249953 0.07704204 -0.20563342 0.067350686 0.5703932 -0.36438438
164 0.08047188 0.021760589 0.02530634 0.3214963 0.45197222 -0.011885505 -0.15622954 0.2871964 0.3718576 0.4181059 -0.037704367 0.74015933 0.0074007655 -0.45563394 0.040886838 0.26812875 -0.22404231 -1.1934154 0.27438197 -0.22320735 0.15281108 0.25902927 -0.55661154 -0.51831853 -0.07876714 0.6117418 0.3213412 -0.23656218 -0.13958706 -0.29343018 -0.38967013 0.05011003 -0.1993665 -0.24348986 -0.030736567 -0.116406895 0.04956679 -0.34630176 0.1876895 0.29097098 0.3583542 -0.026935434 -0.37642267 0.2513793 -0.15656832 -0.51906765 0.022133717 -0.029302387 0.24443689 0.20370117 -0.33623195 -0.24585392 -0.0094626555 -0.6125458 -0.35023516 0.29282013 0.03211692 0.4431084 -0.13453779 -0.10495745 0.31296274 0.15919189 -0.51750565 0.7614316 -0.5097344 -0.14709936 -0.04565941 -0.53899926 0.2634007 0.2588837 0.40527993 0.12703896 -0.5805201 -0.61804557 -0.038751196 -0.12589674 0.2009252 0.24946557 0.22061945 -0.16182534 -0.24257532 0.16367155 0.0052820076 0.033875827 0.26286155 -0.6122152 0.48584557 0.045863174 0.22841804 -0.35248357 -0.38043457 0.13708322 -0.2739552 -0.2440361 0.43946826 0.20050572 0.088474825 -0.26083717 0.48004588 0.3023975 -0.14498089 0.45829698 0.26914302 0.1204559 0.42333007 0.1416884 -0.24213646 0.35423294 -0.7290135 -0.17517063 -0.5459454 0.2053468 -0.51439565 0.059781116 0.050422117 0.100946896 0.023390558 -0.34120637 -0.6642754 -0.14833914 0.035245296 -0.13028163 -0.0932266 0.14228874 -0.44151777 0.13148484 0.3110313 0.34450406
496 -0.34173226 -0.0577817 -0.1605189 -0.13866091 0.44437644 -0.08576463 -0.6539091 0.14907412 0.002100053 -0.13229944 -0.022657631 0.5293384 -0.35299456 -0.04136213 -0.22370972 0.021727243 -0.18297088 -0.29721752 -0.18779354 -0.03610825 -0.011517563 0.52234703 -0.38927618 -0.033332884 -0.12972517 0.25605232 0.29537055 0.11590304 0.14949147 -0.4296677 -0.025831569 0.020234983 0.15779221 -0.7504806 0.16178334 -0.21410275 -0.16047072 0.027025042 0.54407376 0.21658082 0.54179347 0.25117373 -0.629781 -0.09055547 0.23310767 -0.74190766 0.14788139 0.22317854 0.2996408 0.3654055 0.10566514 0.036847804 0.0056811934 0.20379262 0.122421585 -0.2734845 -0.3754107 0.0039379364 0.16119131 0.3046989 0.28277653 -0.2702193 -0.16153727 -0.2186718 0.30719763 -0.42243472 -0.119752705 0.022980811 0.39678058 0.19992916 0.13664183 0.65855736 0.056127984 -0.12427024 0.09236471 0.31919554 -0.1250014 0.24790215 -0.22526938 -0.2730113 0.06255415 0.108386114 -0.1773525 -0.279184 0.036260694 0.08250257 0.06878699 -0.2433454 0.3594494 0.013582521 -0.005907714 0.26249328 -0.37478435 -0.5376146 -0.38203767 -0.19727862 -0.0043697036 -0.22560893 0.09224225 0.041497968 -0.32879066 0.34894845 -0.5363705 0.35032478 0.045882147 -0.60004526 0.11995266 -0.27821624 -0.0836089 -0.4817915 0.13315648 0.3650965 -0.21493804 -0.34993288 0.22168289 0.4250674 -0.5425608 0.1632053 0.20994869 -0.44027585 0.26834464 -0.5669725 -0.177864 0.009155245 -0.2156739 0.3192085 0.6182624 -0.3762026
285 -0.1835695 -0.038718376 0.012186624 0.08715657 -0.22619183 0.08210051 -0.24516676 -0.46966043 0.31454027 -0.037779413 -0.07406568 -0.34657553 -0.48934135 -0.4216405 -0.08786941 -0.64587027 -0.21582624 -0.1872201 0.34377387 -0.041202445 -0.032922838 -0.007924775 -0.12318929 -0.24472149 0.32495695 -0.1286941 -0.063500404 -0.24574058 -0.08904332 -0.28054163 -0.28838626 0.09505454 -0.7373903 0.28255543 0.21126562 -0.4398857 -0.12993042 -0.10094886 0.6088788 0.077984914 0.45795318 -0.034717627 -0.24436474 -0.18973842 0.0052053235 0.08581996 0.32580194 -0.42373362 0.026854083 0.5199711 -0.2204977 -0.23405072 -0.069021314 -0.11341949 0.40264678 -0.070970565 -0.46281412 0.40736082 0.13891985 -0.17590477 0.32561073 -0.6819638 -0.40566698 0.32314202 0.1473569 -0.18164513 0.21158771 -0.23273313 0.17477521 -0.28479153 0.13779959 0.06384179 0.12294021 -0.44349012 0.48079583 -0.19888783 -0.28116533 -0.028807255 0.66725343 -0.04528204 0.15775771 -0.034753256 -0.0427136 -0.051528864 0.36814094 -0.2532814 0.44618407 -0.14984202 -0.48480457 -0.24245413 0.2520734 -0.6199168 0.41061902 -0.3517026 -0.026301468 0.1820686 -0.5975137 -0.30406985 0.124417484 0.10992239 -0.34211943 -0.38199472 -0.25691825 -0.24655786 0.059996393 0.27061743 -0.5820043 -0.36072484 0.0025514765 -0.036639117 0.21680075 -0.03525772 -0.4459598 -0.4796811 0.21235965 -0.1965413 0.19530946 -0.24448986 -0.16367634 -0.14251015 -0.008414648 -0.41440147 0.04046029 0.23246527 -0.43041363 0.40179268 -0.08843735 0.41291043
213 0.0147040915 -0.032654233 0.0141007295 0.48065937 0.31135443 0.03766607 -0.10882008 0.19082515 0.6316802 0.35824823 0.14744914 0.64497447 0.030703522 -0.53448975 0.08350777 0.12349749 -0.31987217 -1.1463739 0.2516683 -0.1971387 0.20401336 0.23118731 -0.6032519 -0.40967828 0.021213068 0.31981033 0.28603467 -0.12334162 -0.030265145 -0.2777519 -0.5158224 -0.005131645 -0.14302269 -0.1910149 -0.14991401 -0.040776398 0.046716876 -0.17429215 0.10705122 0.39203787 0.380376 0.039510533 -0.47771952 0.40743434 -0.43569428 -0.49495035 -0.09582957 -0.039700203 0.22393672 0.23562461 -0.48666993 -0.14154123 0.04222588 -0.57495105 -0.25204325 0.41159236 -0.18116303 0.474171 -0.028758863 -0.036766354 0.35164323 0.05023392 -0.48669294 0.6069348 -0.35816333 -0.17864768 0.056809112 -0.6325089 0.20471707 0.484521 0.39858574 0.08197235 -0.42054865 -0.32359946 0.053032517 -0.0010355682 0.30036336 0.11042046 0.24691696 -0.25855786 -0.4848396 -0.0013482295 -0.052794036 0.10084517 0.35937893 -0.5859299 0.4178235 -0.055957373 0.51012045 -0.38330007 -0.32431728 0.22536355 -0.120019905 -0.32381424 0.24916483 0.16376579 0.1714707 -0.16243179 0.43315843 0.33225507 -0.11707747 0.530878 0.13965452 0.10101018 0.39533186 -0.097805426 -0.12728092 0.34090304 -0.7285287 -0.04943788 -0.40643653 0.24150817 -0.5224258 0.21564627 -0.03386976 -0.007337703 0.0024462387 -0.31936115 -0.3926685 -0.25138363 0.046918724 -0.22712623 0.10050212 0.1984941 -0.4094346 0.02624447 0.21703564 0.346242
68 0.1931644 -0.21946947 -0.21246259 0.21995533 0.23534545 -0.32524928 0.20388114 -0.29161152 0.31803378 -0.110183455 -0.22081439 0.3130138 0.012577262 -0.24272919 0.026014669 -0.60731107 -0.30866644 -0.01581622 -0.10593178 -0.18075438 -0.035562113 0.18431662 -0.075209744 0.021083534 -0.16455263 0.17204244 -0.1247986 0.35204333 0.038551122 0.24607724 0.0009265245 0.117161065 -0.2581161 -0.04265019 0.022271367 -0.19070867 0.09486428 -0.15881352 0.21079488 -0.22898702 0.26560697 0.44294485 -0.0031665603 -0.41897175 0.27725855 -0.49405447 -0.013599381 -0.18416326 -0.2743534 -0.27483705 -0.097022876 -0.28735805 -0.34276125 0.04755091 0.27059415 -0.1450878 0.13525888 0.09299831 0.0684343 0.28605717 0.3755105 -0.5030517 -0.2294289 0.36597443 -0.21874125 -0.39748526 0.12479416 0.15847628 -0.1758088 0.41166863 0.5389749 -0.067039855 0.04947502 -0.22676091 -0.09449673 0.3167578 0.17515834 0.2924508 0.057134535 -0.12926677 0.058859177 -0.7972512 -0.3109287 0.34282488 0.24303192 -0.16404164 -0.14971772 -0.021498216 -0.50584066 0.2110904 -0.20116036 0.37057027 -0.6304345 -0.9382791 0.39199156 0.074511014 -0.3428809 -0.3343329 0.05274181 -0.40201116 -0.38526967 -0.16674758 -0.057116054 0.23428762 0.10259346 -0.37686917 -0.06753592 -0.03810894 -0.22667071 -0.058994215 -0.10328713 -0.039596803 -0.08431017 0.16029355 0.0092139905 -0.026283 0.44870272 -0.60852605 -0.08040438 -0.076427124 -0.22272778 0.049385656 0.19919178 -0.47100872 -0.08842427 0.4868078 -0.49379006 -0.17218138
110 0.04072136 -0.20707847 -0.0027690683 0.2796322 0.0045709275 -0.040946405 -0.08902551 0.19250381 -0.0040450105 0.29465085 -0.60997444 0.012030766 0.050729893 0.12124192 -0.14382426 -0.08472783 -0.26125705 -0.323023 -0.2721335 -0.14221585 0.38660815 0.04158397 0.61346817 0.28891233 -0.09940494 0.13702852 0.2632935 0.05356701 -0.012694387 0.10843079 -0.15883644 -0.15670992 -0.4689758 0.06331532 -0.029073725 0.18485935 -0.12893626 0.12817188 -0.3569671 0.34350562 0.30784425 -0.12861246 0.08749655 -0.18674047 -0.37503183 -0.13511157 -0.09391329 0.117800444 -0.09298922 -0.3352012 -0.7151162 0.29557735 0.22096486 0.16341315 0.15896392 0.07238184 0.2688618 0.3057211 -0.5701134 0.32352033 0.35002896 -0.19072704 -0.25299376 0.20640308 -0.039325707 -0.23889905 -0.28325605 0.40887195 0.2328182 -0.23657534 0.6694958 0.075185 0.2373383 0.12868264 0.04857057 0.71592146 0.1135911 0.22965021 0.10183645 -0.41930804 0.20738475 0.2846591 0.0729511 -0.33683735 0.10438268 0.21797702 -0.065949604 -0.27048084 0.35624614 -0.29906037 0.15071398 0.2856923 0.1374116 0.07637171 -0.2991769 0.52770525 -0.18977804 0.03150216 0.3695167 0.18704258 -0.6715787 0.050761364 0.038368475 -0.80777276 0.12298487 -0.21980792 -0.05562168 -0.043803457 -0.12884915 -0.4014446 -0.028533349 0.39975783 -0.8992692 -0.090691976 0.21218172 -0.6104115 -0.109915 0.20477366 -0.15923281 -0.068085425 -0.026282934 -0.4759783 0.323362 0.708291 -0.8350227 0.26211265 -0.20869231 -0.28244573
168 -0.14819211 -0.18984103 -0.1330955 0.22907826 0.4468057 0.01062779 -0.64593095 0.01770008 -0.027613994 0.11820289 0.15410769 0.6621307 -0.43592316 -0.339487 0.110033005 -0.06575903 -0.35408556 -0.40405962 -0.061684433 -0.09778456 -0.003918251 0.5333897 -0.15736987 -0.09500856 -0.24907336 0.20370741 0.24870118 0.1428668 0.10466697 -0.036160488 -0.08036761 -0.19471988 -0.007329023 -0.3790997 0.031218525 -0.20002611 -0.40603602 -0.014542424 0.4663541 0.07404408 0.4210837 0.18720411 -0.26851574 0.09634895 0.05802713 -0.6519508 0.010081112 -0.061795663 0.435769 0.5042495 0.14528467 -0.16588223 0.12678368 0.27238265 0.07188049 -0.097641625 -0.39255166 0.3103992 0.17954646 0.12182597 0.37821078 -0.17541142 -0.2261772 -0.21992701 0.10833429 -0.29205325 -0.117149845 -0.28901103 -0.051461548 0.48233587 0.053811997 0.4687249 -0.2224874 -0.27409014 -0.055109344 0.1616754 -0.09324922 0.21682611 -0.20266593 -0.18655415 0.083109535 0.20384723 -0.112640746 -0.08515429 -0.079420246 0.06349152 0.13632828 -0.41200298 0.12383585 -0.036068045 0.019967167 0.32462293 -0.20559056 -0.3707449 -0.20560129 -0.24269547 0.07183244 -0.0018576349 0.23659778 0.1322994 -0.27163655 0.61538506 -0.3847872 0.37723172 -0.062165856 -0.58577514 0.0619288 -0.25382644 0.031469196 -0.36714286 0.06916095 0.38224724 -0.37440965 -0.30636173 0.24110201 0.19094482 -0.30378795 0.3421919 0.11390584 -0.43019128 0.29733333 -0.40513358 -0.17929791 -0.15237032 -0.12273854 0.052335948 0.51424927 -0.27786803
331 0.17054975 0.109392405 -0.17961892 0.028985538 0.35336617 0.1996366 -0.7705892 0.16950318 -0.09539544 0.019161155 -0.2611695 0.14385632 -0.17722423 -0.017271852 -0.23952381 -0.25667644 -0.46450654 -0.71608734 -0.3933083 0.24474157 0.31722876 0.568171 -0.47357124 0.31927833 -0.6895309 0.43516374 0.47514042 0.35230777 0.23707297 -0.20452307 -0.14012253 -0.42746413 0.13419895 -0.3807863 -0.3135774 -0.39671803 -0.291763 0.4467514 0.43325323 0.105570644 0.22579607 0.19481695 -0.4585418 -0.050150204 0.37039992 -0.26717404 0.19122714 -0.250685 -0.29671517 0.16845953 0.22644547 -0.20037958 0.33174103 0.024303941 0.17664027 -0.23307745 -0.5030318 -0.013653965 -0.19254985 0.31824508 0.2101015 -0.41462973 0.004042713 -0.12948285 0.27941626 -0.06120031 0.13476115 -0.13221651 0.006752896 -0.0397964 -0.015264367 0.5671073 -0.27250546 0.12060378 0.027127603 0.2671508 -0.25491008 0.2524679 -0.32037982 -0.0961693 0.17548664 0.16795842 0.15207897 -0.21347064 -0.7884661 0.17598172 -0.32072976 0.12136934 -0.1356558 -0.11421559 -0.14177468 0.17520183 -0.6714589 -0.32439494 -0.124050535 0.26797366 -0.2568038 -0.44647205 0.33203635 -0.03734955 -0.6776006 0.20077592 -0.62656975 -0.041568216 0.33679727 -0.42590678 0.19259322 -0.12868088 0.06875296 -0.35538498 0.043422453 0.0962541 -0.19559817 -0.11897964 0.21176733 0.30010656 -0.3585704 0.30022645 0.100714676 -0.010107176 0.15296687 -0.63303745 -0.10223584 0.2610782 -0.6565782 -0.019603677 -0.14677875 -0.20274176
499 -0.43129888 -0.6023931 0.008565193 0.081214726 0.48173153 0.29755875 0.36513793 -0.2058628 -0.24654752 -0.39115608 0.4831164 0.55072874 -0.64451146 -0.84965706 0.15964672 -0.32669866 -0.08459574 -0.2841008 -0.5094128 0.02061659 0.5886327 0.48334515 -0.16161871 0.20327848 0.22483455 0.15594712 -0.037472095 -0.103616565 0.33514196 -0.14815682 0.17091955 -0.40262234 -0.15327114 -0.26347455 0.042301018 -0.4039803 0.6893546 0.15870339 0.3514631 0.5318797 0.14919765 -0.2251404 0.3857266 0.12166043 0.19728275 0.24923544 -0.44490504 0.016682828 -0.023569558 0.31398413 -0.017243786 0.12144225 -0.2708512 0.28579175 0.11395643 -0.1368318 -0.27215677 -0.07611091 -0.2727396 -0.28224352 0.025350709 0.015524454 -0.051443104 0.23146538 0.013205081 0.22560808 -0.26714876 0.028224815 -0.42216206 -0.4534148 0.25021031 -0.2568791 0.9186607 -0.40819788 0.21016331 0.37838104 0.14458407 0.3930107 0.27925682 0.2598946 0.07519925 0.41151 -0.07326259 -0.015045583 0.16556025 -0.027119972 0.25494757 0.31855345 0.13421081 0.35558364 -0.005311363 0.22987036 0.12741502 -0.53523844 -0.09026798 0.3143606 0.024840597 -0.26641968 0.514001 0.26826933 -0.4708522 -0.24089651 0.13935886 -0.105611734 -0.17709658 0.46262777 -0.09832016 -0.19020951 -0.51840746 -0.2809822 0.4119348 0.18970717 -0.30330452 0.26508275 0.22284572 -0.23201895 -0.323783 0.29341495 0.22233774 0.18117152 0.38014147 -0.26350486 0.027270617 -0.17150763 -0.6931116 0.30394813 0.3519577 0.32660642
252 -0.023323389 -0.57851064 -0.60846484 0.0077967946 0.1459748 -0.25812006 -0.51787364 -0.04265047 0.36341926 -0.27335387 -0.24275401 0.17696823 -0.43657333 -0.42617026 0.21383148 -0.69682443 -0.32329708 -0.3952526 -0.078152284 0.37506983 -0.13913693 0.3387339 0.3478932 0.017151434 -0.10200009 0.016742641 -0.04946462 0.1550156 0.16469958 -0.1927529 -0.0437051 -0.045227382 -0.14683792 -0.19778627 0.14762585 0.18297072 0.22624144 -0.28100374 -0.041874774 0.06358062 0.28200945 0.18295039 -0.36518478 0.21711378 -0.3227072 0.13278256 -0.05784898 0.24854061 0.28316784 -0.144597 0.16713034 -0.55375373 -0.04099042 0.23018415 -0.01805171 -0.045154963 0.068968706 -0.11393061 -0.13992101 0.34510452 -0.24101241 -0.14129369 -0.026944326 0.31772158 0.08130484 -0.0013985587 -0.15448943 0.00515495 -0.024840284 -0.39260343 0.17434455 0.26391447 0.3590724 -0.5403235 -0.4292148 0.1564326 0.28255153 0.3838262 -0.0068518636 0.029477159 -0.58242196 0.2062537 0.006460438 -0.42446014 -0.2685084 -0.22267865 0.33485013 -0.24856621 -0.2321133 0.045940597 0.11064855 -0.026280265 -0.20869167 0.22558074 -0.17524184 0.1531631 -0.39939687 -0.3140908 0.2550459 -0.31635904 -0.12218943 -0.17278238 -0.33899403 7.127426e-05 0.12438199 -0.20047046 0.1285669 0.51434207 0.008751608 0.026101325 0.20454785 0.43836373 -0.10149526 -0.02153249 0.38171408 0.23303871 -0.35166302 0.11071071 0.20087786 0.07266293 -0.7486216 -0.5291833 0.24662468 0.68872136 -0.48534268 -0.071470894 -0.68536377 0.009525091
382 -0.4220648 -0.18344781 -0.40177545 0.22194284 0.24509217 -0.051199965 0.32447907 0.027350048 -0.13765235 -0.3791384 0.2505082 -0.016003307 -0.23030773 -0.38923848 -0.30269673 -0.21170929 -0.14034335 -0.34029892 -0.17728756 0.13636364 0.5603873 0.08322884 -0.32211012 0.09766788 0.3941956 0.006325129 0.38807452 -0.17846617 0.5166472 -0.038925692 0.22503403 -0.20300435 -0.61552 -0.32868418 -0.041668907 -0.35472134 0.46754962 -0.34535304 0.43643135 0.5614539 -0.16290843 -0.0012739423 0.14054856 -0.09208179 0.009606461 -0.2797837 -0.15239294 -0.21601142 0.21208073 0.25889888 -0.26452562 -0.10637525 -0.22257671 0.4363102 -0.017954089 -0.11751744 -0.24513732 -0.1345748 -0.2643138 -0.08206976 -0.49170843 -0.3169049 -0.22776349 0.12151092 0.07371261 0.35372284 -0.5374658 -0.38032746 -0.45732176 0.04472675 0.51161 -0.077433735 0.32791093 -0.050634388 -0.13067564 0.47295734 0.49121517 0.38820812 -0.07130479 0.07101364 0.06851221 -0.20977381 0.18901347 -0.0605719 0.007667309 0.06392825 0.44054723 0.43735576 0.098767035 0.50137246 0.44368693 0.4080754 -0.23701863 0.47331414 -0.07633118 0.26388147 0.08620544 -0.39721385 0.49174434 0.2732073 -0.2805451 -0.10689751 0.1263384 0.05621529 -0.15692009 0.011999513 0.8844843 0.3373748 -0.37931445 0.105865784 0.29037294 -0.13621034 -0.6671455 0.17875871 -0.014849598 -0.04559938 -0.18601203 -0.12922844 0.21651039 -0.26637185 0.24262434 -0.021429373 0.07847086 -0.15064912 -0.6048601 0.0413168 0.5141524 0.39487514
71 0.3530551 -0.23094244 -0.1545213 0.26301715 0.2915095 0.14054859 -0.78308576 0.124320276 0.13899729 0.34003347 -0.0018396227 0.35838026 -0.23716827 -0.0056892266 -0.44305748 -0.060776066 -0.41027334 -0.6591503 -0.28799748 0.3024405 0.60516924 0.6283802 -0.5737834 0.14594893 -0.45789257 0.55652595 0.40039283 0.40308565 0.21055016 -0.2019055 -0.015020247 -0.41411108 -0.035897166 -0.33718315 0.08706002 -0.33431944 -0.24159367 0.26519144 0.26464367 0.11925739 0.19040401 0.073290095 -0.3435196 -0.2512679 0.35454082 -0.15064928 -0.16495539 -0.25401694 -0.1907355 0.18187764 0.025980392 0.27348244 0.12151162 0.03862818 0.18807007 -0.4724244 -0.23512648 0.19669817 -0.17503977 0.29251662 0.19536392 -0.44961908 -0.052942578 0.14695759 0.51571983 -0.17821816 0.6261554 -0.13450941 -0.22958171 -0.32651368 -0.39558187 0.5767946 -0.42261487 0.21025193 -0.027163852 0.2885258 -0.17539182 0.018535566 -0.7615275 -0.32096615 0.481658 0.15846278 0.4909617 -0.36579984 -0.6146008 -0.03773225 -0.25640708 0.46195295 -0.1214953 -0.11508694 0.079191916 0.20195141 -0.351707 -0.34780672 -0.13423684 0.40763888 -0.50776154 -0.4136477 0.3503665 -0.26274374 -0.6313919 0.10969739 -1.0901338 0.055135388 0.327476 -0.49784246 -0.031390104 -0.03791148 0.12709595 -0.51460576 -0.09242995 0.3330366 -0.12135231 -0.26414394 0.2003487 0.45849165 -0.1972026 0.4232253 -0.1373585 -0.0011974951 -0.23001051 -0.50750464 -0.24994606 -0.010298314 -0.43758345 0.3196891 -0.15073153 -0.3887982
290 0.009444696 -0.61613363 -0.5327302 -0.087750375 0.22127552 -0.06374543 -0.47754368 -0.04715296 0.18657029 -0.2565337 -0.15502569 0.34321818 -0.43678612 -0.39520603 0.17279467 -0.67127335 -0.35239065 -0.35611188 -0.08552132 0.30625808 -0.056165166 0.31264883 0.1575584 -0.009102322 -0.14784847 0.13437358 -0.14266205 0.24449962 0.18283843 -0.24430397 -0.023515532 0.01766168 -0.08395974 0.016665036 0.24731287 0.13369913 0.1595142 -0.1505113 0.020173151 0.13711303 0.34943545 0.22973673 -0.15449423 0.30865368 -0.3726283 0.25174388 -0.32528585 0.30891055 0.12354745 -0.2246849 0.27868643 -0.44010353 -0.182939 0.34406337 -0.0048344084 -0.16198665 0.13951528 -0.10404387 -0.10982172 0.20943758 -0.29139143 -0.195712 0.14774454 0.34990203 0.15103436 0.029536115 -0.14053577 0.0063628843 -0.16329837 -0.21371187 -0.00525915 0.43689314 0.37200758 -0.5696241 -0.29955482 0.20444939 0.23439384 0.3537075 -0.07561349 -0.051567506 -0.46183518 0.1255587 -0.19857338 -0.4605336 -0.0164326 -0.12937301 0.40872747 -0.27723667 -0.14848866 0.12178672 0.04210341 0.16669858 -0.1346924 0.24065207 -0.17830133 0.16674398 -0.37256548 -0.2271616 0.35408092 -0.29539126 -0.25914267 -0.27968252 -0.37666115 0.0091281785 0.16163266 -0.27422285 -0.03613555 0.5356665 0.053817615 -0.015586955 0.39646178 0.5338579 -0.23004805 -0.056585267 0.19064543 0.090041935 -0.4140686 0.305915 0.117460325 0.08045166 -0.66945416 -0.5982551 0.28142986 0.7104001 -0.53114855 0.017166719 -0.7408405 -0.050831936
153 0.16049622 -0.18544267 -0.015093626 0.29585573 0.0926133 -0.01540851 -0.11944497 0.11286678 0.1374387 0.38621494 -0.5539657 0.09973233 0.11209227 0.18209401 -0.09883479 -0.06439777 -0.15749463 -0.23123801 -0.1716731 -0.09078112 0.26587334 0.05027313 0.5486919 0.1601349 -0.027208067 0.16883434 0.21674903 -0.02558941 -0.090850994 0.0816132 -0.2719657 0.05770515 -0.47198778 -0.1103951 -0.02600929 0.13965566 -0.12080037 -0.08267268 -0.40139166 0.39467847 0.32853326 -0.10776929 0.030364743 -0.1667048 -0.35973325 -0.27490166 -0.05950361 0.187895 -0.05806411 -0.26870182 -0.7146399 0.24923916 0.19677928 0.16077776 0.18276122 -0.07473513 0.29703337 0.30798692 -0.54664004 0.35887915 0.32317504 -0.09245403 -0.25774485 0.33700946 -0.11360119 -0.2629008 -0.28591806 0.4455533 0.24770749 -0.25957283 0.4975292 0.18274498 0.3643415 0.05463384 0.14371113 0.7535361 0.15961845 0.34773082 0.08053394 -0.39538577 0.2641705 0.27034214 0.11303685 -0.36377975 0.16814232 0.2928206 -0.02803996 -0.26396185 0.40108293 -0.285615 0.21680993 0.28092444 0.23305216 0.14336653 -0.31961992 0.42953226 -0.22015592 -0.0030914056 0.34870148 0.11957157 -0.76840717 0.1427201 -0.0050355378 -0.8084206 0.04948637 -0.32943252 -0.042606737 -0.08447004 -0.16475421 -0.47598615 -0.14774834 0.3597426 -0.75625765 -0.06484903 0.36771777 -0.6981301 -0.1403431 0.28563255 -0.2636279 -0.109166585 -0.09870965 -0.4167755 0.2868784 0.6635472 -0.7324618 0.35630178 -0.11596845 -0.37454113
464 -0.36972284 -0.4903714 -0.29202566 -0.5195286 0.63605136 0.23658885 -0.06975893 0.71481913 -0.24516375 0.3960403 -0.10004778 0.12279115 -0.20186087 0.08243598 -0.1825044 -0.2301804 -0.6717323 -0.14995958 0.4017879 -0.4345393 0.13810758 0.024463939 -0.21800154 -0.2968399 0.34107956 -0.19559674 -0.12958805 -0.23299135 -0.010931813 0.3770755 -0.003914152 0.22504172 -0.27349797 -0.12396774 -0.30581298 0.34949788 -0.10879696 0.1336265 0.47255722 -0.25777537 -0.30043104 0.6913048 -0.29606855 -0.090470366 -0.671553 0.09919034 -0.31550586 -0.33980256 -0.06775265 -0.25683233 0.25544518 -0.24914765 -0.9038381 0.38881186 0.5743135 0.21583025 -0.29092866 0.12761538 -0.18174675 -0.088413104 0.45419967 -0.5543332 -0.3421714 0.29784527 0.06070318 0.42594644 -0.23672087 0.17867024 0.08172728 0.05843437 0.20668899 0.17547488 0.09939667 0.29010475 0.015547065 -0.1702273 0.018627323 -0.23199224 -0.5780637 0.08040038 0.05522636 0.15729624 -0.13199309 0.49466777 -0.2016718 -0.28065866 0.40645102 0.21288241 0.25538695 0.8671695 0.53683406 0.13895096 -0.28453726 -0.0528923 -0.4890194 0.41212505 0.22863373 -0.4370529 0.80159366 0.11881661 -0.6263622 0.24257118 0.06843716 0.00676863 0.16000628 0.18115874 0.58375114 0.84652966 -0.021727901 0.24732724 0.77314585 0.6339913 -1.0036308 0.17570986 -0.057215106 0.14864798 -0.05655651 -0.50160766 0.06986294 0.25774604 0.22922893 -0.33758128 0.33883944 -0.17397986 -0.20021515 0.13153426 -0.5184474 -0.3565075
122 -0.11771364 0.5295934 0.10599897 0.48020822 -0.1751152 -0.10019198 0.11296791 -0.29980394 -0.10489888 0.3853117 0.07712259 0.27980143 -0.12461214 -0.30445874 -0.50298643 -0.5819813 -0.2141501 -0.6115265 0.19817671 -0.08868931 0.02324654 0.13898964 0.031500477 0.033929694 0.6533417 0.24822438 0.37391794 0.5653101 0.40624434 0.026487917 -0.014264482 -0.22618827 -0.1048656 -0.41023123 0.07986885 0.43420374 0.3525232 0.032595176 0.25575548 0.06964052 0.49851102 0.51314366 -0.0144840125 0.02919831 0.2515061 -0.35355568 -0.013060568 0.29412234 -0.0011821216 -0.21314633 -0.07816634 -0.41420424 0.088348664 -0.3425102 0.28709906 -0.019776076 0.34863976 -0.1381598 -0.018398296 -0.22973785 0.5126728 -0.29384473 -0.18203387 0.15415059 0.14858781 -0.13866954 -0.74665403 0.64960945 -0.019174334 -0.2208522 0.2978322 0.408023 -0.20740217 -0.008784612 -0.19053382 0.4051497 0.75700444 0.2989561 0.31498486 -0.041904204 0.094704516 0.012528349 0.18217239 0.25062415 0.031473003 -0.1614673 0.14868207 0.39886817 -0.17687714 0.19801645 0.32785565 0.10535931 -0.12021407 -0.29805452 0.33961505 0.11443979 -0.66406834 0.29257086 0.09910285 -0.29672977 -0.082074754 0.07071702 -0.15750769 -0.64663184 -0.5310163 -0.23386706 -0.22203763 -0.35897556 0.39479056 -0.3714253 0.4694529 0.54960036 -0.9746052 0.27248585 0.11299981 0.15857434 -0.54305196 -0.037167013 0.0097746765 0.06550405 0.28610793 -0.2335884 -0.23368135 0.109701104 -0.0061387895 -0.049264804 0.2473995 -0.033778083
123 -0.35766757 -0.37470847 -0.069516845 0.09546986 0.09077073 0.17192571 0.360979 0.16059221 -0.05344793 -0.37113777 0.363989 0.15075248 -0.3696775 -0.5546999 -0.10793982 -0.22159122 0.16482046 -0.22734366 -0.21769996 0.13635656 0.5538902 0.13218884 -0.06848598 -0.0002913893 0.28978193 0.049674153 0.11744175 -0.11633228 0.39231682 -0.050611813 0.29142407 -0.049584664 -0.3314607 -0.21344389 0.18261623 -0.5017663 0.65483344 -0.15826404 0.3217604 0.76719695 -0.019987723 0.044898506 0.23747268 -0.004266528 0.17545341 0.08915426 -0.19256394 -0.06695085 0.13088761 0.35580018 -0.06481011 -0.10278481 -0.29741824 0.23488066 0.022771435 -0.2856138 -0.3761369 -0.1397813 -0.2850804 -0.21415803 -0.21642688 -0.19253561 -0.22387916 0.3449572 0.21324655 0.28353235 -0.46567976 -0.06908456 -0.41937548 -0.2500963 0.4573924 -0.11969967 0.6971907 -0.25035867 0.017875215 0.4608115 0.29847726 0.33434513 0.15614279 0.21463352 0.16396935 -0.06943765 0.013588998 -0.077488095 0.0644674 -0.023328127 0.2707612 0.55588156 0.043604396 0.155094 0.082003914 0.26920158 -0.1119395 -0.11215181 -0.018179173 0.42074126 -0.08616464 -0.38184935 0.24759273 0.3865793 -0.4733295 -0.15699887 0.108419694 0.011681586 0.007509728 0.28846487 0.21875066 -0.10178586 -0.5247595 -0.1590697 0.3085012 0.042340685 -0.43053722 0.06899975 0.15438081 -0.021068776 -0.4645783 0.32708666 0.20641899 -0.057389192 0.1900546 -0.10985289 -0.034709666 -0.11860196 -0.63410205 0.14250594 0.43225455 0.3290642
379 -0.041093506 0.46430632 0.23632121 0.6691568 -0.06938813 -0.3390836 -0.030560104 -0.251944 -0.10394159 0.22883578 -0.0043770242 0.21741031 -0.13525073 -0.45601034 -0.3837642 -0.5072002 -0.31409043 -0.587452 0.020768117 -0.08128179 -0.0072177486 0.2753472 0.07944897 0.047494836 0.58798957 0.16250877 0.38528883 0.49802628 0.36539745 0.15811706 -0.05997395 -0.3586399 -0.11555476 -0.48082364 0.03288709 0.39503145 0.3607924 0.05062514 0.26751456 -0.005856116 0.60331887 0.5513324 -0.027189998 -0.030211743 0.32467526 -0.32914895 0.0395331 0.16736282 0.022314548 -0.19724451 -0.18034051 -0.33266592 0.07266009 -0.32610995 0.398341 0.18825635 0.28920656 -0.18148096 -0.06377308 -0.11550751 0.55301815 -0.29663274 -0.22328033 -0.015862526 0.19216679 -0.1204538 -0.88071364 0.774735 0.042245604 -0.20075813 0.33310533 0.37154096 -0.17613584 0.06872066 -0.09156103 0.35257357 0.53551686 0.3585829 0.41350457 0.018922005 -0.07342983 0.08326034 0.2042012 0.20211273 0.035535257 -0.20933919 -0.006948192 0.28136194 -0.2858806 0.2110151 0.269369 0.013659931 -0.13191937 -0.21182841 0.20450176 -0.02003961 -0.7056464 0.342099 -0.002772105 -0.39502895 -0.12673314 0.106849566 -0.2069438 -0.6679542 -0.51415366 -0.19312514 -0.14722544 -0.3810214 0.5469345 -0.3066755 0.48524454 0.5723556 -0.93510807 0.37397227 0.2907362 0.1663845 -0.35695234 -0.23559341 0.064965606 0.061866317 0.33861226 -0.33786556 -0.1585318 0.1220115 -0.044799782 -0.1282796 0.062552735 0.050111298
174 -0.040556993 -0.6334271 -0.47950423 0.0069438634 0.17940116 -0.015030968 -0.4304131 0.011024402 0.33544567 -0.34136447 -0.14750464 0.2855595 -0.323636 -0.37077346 0.2118798 -0.62109095 -0.26080915 -0.3258525 0.019596936 0.15606493 -0.033227544 0.30723858 0.32400548 0.049740832 -0.057959612 0.18362434 -0.17467807 0.18694137 0.11141795 -0.12739813 -0.02990853 -0.020782042 -0.1835356 -0.17113054 0.22964023 0.07239391 0.07594674 -0.24470294 -0.025864514 0.033335626 0.30560833 0.2650773 -0.3416253 0.22801183 -0.25167596 0.2384149 -0.14059609 0.32948256 0.20278186 -0.13651691 0.24048005 -0.36328122 -0.11506998 0.32591793 -0.07310678 -0.16836725 0.13049184 -0.037984226 -0.18346778 0.22315595 -0.23879799 -0.1134588 0.07151733 0.3224635 0.09179877 0.09947996 -0.26737776 -0.00793852 -0.10699614 -0.36519557 0.01993408 0.32772163 0.38329738 -0.63396055 -0.3202706 0.21331559 0.4160834 0.24936363 0.013852327 -0.02494483 -0.4954735 0.09440071 -0.02989808 -0.50212187 -0.1703168 -0.22692908 0.29719117 -0.1478496 -0.17418826 0.10501615 0.09400394 -0.055788785 -0.16485684 0.19129929 -0.07194068 0.24513058 -0.36700815 -0.2933937 0.20976444 -0.35024107 -0.2016626 -0.2580483 -0.3174339 -0.045479357 0.10298409 -0.3183954 0.027588213 0.5040611 0.09622228 0.07829413 0.17641687 0.56466776 -0.0664376 -0.06576933 0.23096998 0.21442567 -0.40732628 0.33453462 0.11061115 0.08397294 -0.7702459 -0.6227092 0.34698212 0.6111489 -0.5334403 -0.037245773 -0.72359324 0.06542389
459 -0.08330941 -0.585162 -0.014327596 0.08799039 0.123549126 -0.054617073 0.30610517 -0.05251369 -0.27868214 -0.51907474 0.3299222 0.73025805 -0.62389076 -0.67813075 0.13589461 -0.56434304 0.21996455 -0.4820431 -0.42666408 -0.083265424 0.49034467 0.34898117 -0.29865602 0.0928622 0.09086842 0.281842 -0.083268695 -0.062573105 0.52870446 -0.141322 0.0625732 -0.23387639 -0.17191325 -0.22960131 0.10010177 -0.33069283 0.6845484 0.06267517 0.46436098 0.48002857 0.028490644 -0.13277927 0.25315702 0.105428316 0.1958781 0.05503383 -0.27895334 -0.032687496 0.21311936 0.49905837 0.03725521 -0.121082835 -0.2375804 0.18565649 -0.055777796 -0.19133502 -0.30217665 -0.04118256 -0.16319445 -0.30226916 -0.0015021798 0.067458645 -0.113988616 0.23992838 0.15895621 0.27643836 -0.27275854 -0.071424946 -0.3506348 -0.08415774 0.44665626 -0.23313239 0.86109877 -0.0763588 0.16796914 0.236285 0.45647216 0.36663985 0.22307423 0.18766783 -0.011767663 0.3096617 -0.015459258 -0.25286546 0.050758947 0.05191892 0.44671947 0.48331106 0.09288486 0.4676941 0.1379634 0.26743773 0.22839773 -0.42223608 0.0717492 0.46749708 -0.055331476 -0.19298038 0.3439201 0.52642345 -0.15601827 -0.20591111 0.24928269 -0.10702196 -0.13836823 0.41843128 0.07888696 -0.36512583 -0.12068724 -0.39309603 0.42221934 -0.004748965 -0.32768008 0.1956221 0.05480803 -0.31977943 -0.45096296 0.4063931 0.28528383 0.024122486 0.29612663 -0.32233882 0.0076340823 -0.07228125 -0.83119476 0.12834165 0.37764502 0.32706523
96 0.10261506 -0.13851894 -0.044370774 -0.31133428 0.22911616 -0.32439634 -0.3029341 0.045760922 0.029909939 -0.078247726 -0.19547582 0.63257414 0.034840446 -0.35713342 -0.03890105 -0.87266344 0.038883466 0.22451821 -0.5484778 0.040146053 0.16556084 0.42655084 0.047285788 -0.53847486 -0.37355274 0.9259982 -0.09190309 -0.08632027 -0.28799877 0.22467992 0.25327274 0.139085 -0.23656689 -0.21554612 -0.117827155 -0.24500126 -0.12112492 -0.26099962 -0.36008036 0.00486431 -0.027288351 0.20170997 -0.12196939 -0.40204296 0.12835206 -0.48030156 -0.04184489 -0.3247307 -0.032584373 -0.1960349 -0.18855524 0.12418432 0.024950411 -0.07227602 0.24632072 -0.1349042 -0.1089545 0.23894916 -0.20966278 -0.16207734 0.48849115 -0.7086327 -0.06387005 0.33098933 -0.06865935 -0.2640608 0.09926607 -0.25672364 -0.28414664 0.17662534 0.2895396 0.20690367 0.39788345 -0.28197697 0.49461108 -0.0386823 0.2412306 -0.19694921 0.08982474 0.012393502 -0.16094129 -0.7711978 -0.079079464 0.1388439 -0.046662025 0.20804048 0.3492452 0.11382872 0.079004176 0.39473745 0.07754921 -0.026566045 -0.17410895 -0.7727868 0.23452598 0.101855524 -0.5080253 -0.49203128 0.45274442 0.09747008 -0.23043886 -0.51874256 -0.17812179 0.12470518 0.20249292 -0.36607987 0.22418329 0.64161927 -0.35244864 -0.2608005 -0.29689822 -0.12346655 0.009007825 -0.21139802 -0.48763087 -0.1994042 -0.018537164 -0.23561306 -0.4196232 -0.284468 -0.11776487 -0.013254977 0.23890941 -0.18837258 -0.097490475 0.42094734 -0.2936208 -0.21219532
150 -0.06883662 -0.6133836 -0.45870906 0.009959485 0.18313727 -0.12112634 -0.39643 -0.109457284 0.21810006 -0.20635353 -0.16638412 0.31950185 -0.4180427 -0.39116395 -0.10840175 -0.6801975 -0.3828952 -0.38763052 -0.0047008884 0.18743314 -0.07163611 0.31345454 0.2403335 -0.08037703 0.027153563 0.13163827 -0.18410654 0.22833978 0.12886243 -0.14120974 -0.09288345 0.058504548 -0.15951338 -0.005307714 0.23849687 0.17613076 0.23614645 -0.1626192 -0.012176882 -0.03232114 0.325016 0.20379299 -0.1668854 0.23070218 -0.3148888 0.12508611 -0.24674779 0.29808933 0.20465195 -0.3394171 0.24147074 -0.46990988 -0.23809223 0.43643308 0.0022041136 -0.24440932 0.063091196 0.031274587 -0.11287222 0.29184708 -0.2623107 -0.1730996 0.09219919 0.28201583 -0.002956149 0.079209365 -0.1508602 -0.09281728 -0.15557034 -0.43717837 -0.036625788 0.4477627 0.35929352 -0.6071031 -0.4247665 0.12812042 0.24534857 0.34324813 -0.010681616 -0.0056333677 -0.3566016 0.2647865 -0.18222 -0.43758187 -0.06919567 -0.22108139 0.5305632 -0.18954134 -0.1500229 0.11502051 0.17610547 0.07199865 -0.18491551 0.44831428 -0.13479044 0.18309574 -0.32458904 -0.40589297 0.41003186 -0.37742487 -0.22520955 -0.2883774 -0.33869815 0.00042035608 0.10058327 -0.1640162 -0.006949351 0.44595745 0.16846564 -0.13936603 0.32457513 0.52111864 0.0041040787 -0.036690857 0.24220744 0.2262156 -0.3802658 0.37744704 0.12093095 -0.014300418 -0.63930994 -0.60584766 0.23231396 0.5591855 -0.5211856 0.026580177 -0.70803094 -0.050226495
45 0.42211065 0.018869387 0.33000615 -0.1852493 0.03588003 0.31835026 0.045436446 -0.066263035 0.41011226 -0.2805597 0.026519394 -0.029547753 0.15075392 -0.60880405 -0.003917363 -0.39824194 -0.42423764 -0.043346632 0.0023577504 0.5189422 0.24742034 0.078179196 0.29993364 -0.30024308 -0.4247987 0.48916116 -0.20271325 -0.17847809 0.2448299 0.3722153 0.022938086 -0.21696559 -0.58624125 0.020626184 -0.037365224 0.13915151 -0.31183043 -0.12320209 0.48976332 -0.017447313 0.05017578 -0.38584217 -0.36518523 0.29191393 0.07981588 0.14497897 -0.20921977 0.058754403 0.2598444 0.42061958 -0.00970972 -0.07944447 -0.650993 -0.15634075 -0.26775348 -0.41985807 0.096821845 0.2700141 -0.1404125 0.058979847 0.16629182 0.044965163 0.15709831 0.5153032 0.343544 0.4963217 -0.25067928 0.24375057 0.34463844 0.7586735 -0.035193842 0.15221839 -0.37040448 -0.3408252 -0.08278323 0.7074419 -0.0502292 0.24376316 0.20629726 0.7825154 -0.1907614 0.0754093 0.19140714 0.15415113 -0.17911471 -0.607345 0.177379 -0.18003547 0.11311181 -0.08869824 0.26528108 0.16157055 -0.24772692 -0.6142146 -0.33687818 0.7604975 -0.18460251 0.1253517 0.55460143 -0.07294086 -0.45335644 0.010751152 -0.28412607 -0.016408162 0.13493437 -0.299415 -0.04687168 0.73711354 -0.38819328 0.5437608 0.33547422 0.58317876 -0.7166943 -0.07812061 -0.14599146 -0.11805525 0.27561224 -0.08211982 -0.39036873 0.30440813 -0.017628472 -0.34468332 0.6351324 0.08807689 -0.42811832 0.47102287 0.37606123 0.18605497
354 -0.13399765 -0.17064911 0.023035249 0.39418706 0.49607557 -0.17657012 -0.3176026 0.06725876 0.2897044 0.4222294 0.26660928 0.6458541 -0.40919086 -0.531106 -0.22242199 -0.14494792 -0.54103434 -0.3204834 -0.120247774 -0.024620231 -0.14425687 0.6901694 -0.11386039 -0.41169226 -0.015708901 0.108388774 0.18434352 0.18416592 0.12188774 -0.06366589 -0.2611226 -0.16423872 -0.07726736 0.008632012 -0.010729947 -0.27328113 -0.60664845 0.046512496 0.29789084 -0.32200018 0.036308706 0.21946874 -0.47196278 0.32582012 -0.109913856 -0.43355694 0.054144595 -0.10957676 0.35046205 0.28212562 0.22471121 -0.18064375 0.1403556 0.28246403 -0.08377209 -0.093013994 -0.543411 0.41220155 0.17117132 0.014485373 0.16868383 -0.12971868 0.034992676 -0.09740554 -0.106532566 -0.20285504 -0.29042736 -0.38943872 0.14441103 0.72134817 0.030783812 0.30768904 -0.32940716 -0.41007414 -0.24692982 0.15942512 0.18964341 0.20582175 -0.2986018 -0.31882426 0.07503337 0.11903194 -0.08244243 0.15717867 -0.114957824 0.0967305 0.4231474 -0.39451933 -0.09295313 -0.005200883 0.0010268902 0.31621358 -0.21429342 -0.3580358 0.13888942 -0.065416835 0.060691472 0.040118713 0.25738004 0.21095172 -0.43328276 0.7652608 -0.2553294 0.3913691 -0.032353893 -0.4526355 0.3859512 -0.510343 0.07527067 -0.34346816 -0.03782901 0.38599297 -0.50632423 -0.28002605 0.29771075 0.05464754 -0.5393672 0.4472254 0.2764028 -0.78794897 0.2421254 -0.3639747 -0.16095407 -0.19804658 -0.27005142 0.050448135 0.6126347 -0.6007924
