512 128
199 0.07192963 0.08774916 -0.19277835 0.29446268 -0.11454584 0.13769832 -0.11509959 0.5657307 0.18762675 0.3552885 0.3527889 -0.095717296 0.051150315 0.17897871 -0.2013616 0.038505964 0.11299476 0.00029378966 -0.38189694 0.060767714 -0.34690398 -0.76919967 0.047030088 0.19304438 -0.8272163 -0.3984402 0.14487207 -0.11584748 -0.18872282 -0.38026926 0.19259241 0.030790629 0.35348713 -0.03264118 0.21161823 -0.03689286 0.033919558 -0.17656946 -0.13100547 0.30614606 0.6546542 0.06213986 0.16773614 -0.14122336 0.07828701 0.25036314 -0.56271124 -0.029447416 -0.023077251 0.19402672 0.084083654 -0.35939485 -0.119216144 -0.3151507 -0.22158863 0.3686576 -0.056423627 0.03117333 -0.0981818 -0.24257831 -0.08138935 -0.9069549 -0.08105927 0.29772994 -0.12833565 0.042642094 0.1652089 -0.2536911 0.26631847 0.13115087 -0.31351787 -0.21461321 0.059390105 0.5516071 0.44010377 0.32445726 -0.16901721 0.13611436 -0.032449655 -0.34560347 0.48169604 0.46017182 -0.2692216 -0.2151634 0.046609495 0.08131981 -0.08708216 0.20071833 0.08888043 0.15914953 0.29135486 0.15277945 -0.27423957 -0.1213268 0.4928612 -0.15529816 0.2885861 -0.42345172 -0.3019253 -0.20944221 -0.55865914 0.08487949 -0.0020008646 0.003384106 -0.09431659 -0.2831959 -0.027784042 0.14555591 0.61893183 0.29084948 0.075474404 -0.0048486423 0.10813296 0.27497163 0.07275475 -0.66000724 -0.07113655 -0.39759046 -0.43387717 -0.012952487 -0.46631017 0.07398753 0.45962662 -0.12986109 0.25735486 0.31816807 -0.53179425 -0.02012645
282 -0.49769178 -0.35839805 0.02169365 -0.093286626 -0.117417224 0.28406963 -0.772465 0.05483482 0.47496718 -0.06370608 -0.18380661 0.12698813 -0.3393668 -0.3855666 -0.4946451 -0.014253874 0.58322614 -0.12747815 -0.07771205 0.23759237 -0.2950464 -0.18945488 -0.27236623 0.007665672 -0.20461857 -0.18115649 0.16289502 0.34766015 -0.64926296 -0.20708396 -0.38103917 0.2256263 0.023434447 -0.5887486 0.4867587 0.022907428 0.27652207 -0.33925223 -0.5621284 0.1740673 0.20231918 0.12447507 0.07016131 0.12936014 -0.9079307 -0.121546365 -0.58777624 0.39259169 -0.15973753 0.33388385 0.078415506 0.59057516 -0.041003857 -0.10550705 -0.27995062 0.19113156 -0.06435769 -0.38700953 -0.57517034 -0.14803249 0.16161342 -0.06939471 -0.20406874 0.71441233 -0.03918737 0.20115286 0.26296008 -0.14845622 -0.05026233 -0.1575543 0.16374059 -0.05773668 0.1987624 -0.27524316 0.2493242 0.110784985 -0.58590543 0.7965666 -0.012215034 0.22019859 -0.23398207 0.06678874 -0.27532312 0.1328547 -0.09484375 -0.26551217 -0.42128962 0.08757127 -0.3079406 0.32933894 0.46200123 -0.13714172 -0.7230485 -0.76131886 -0.019887438 0.22366309 0.022021942 -0.28592837 0.18130733 -0.12520114 -0.23222518 0.23464626 0.12671503 -0.036282383 -0.058675412 -0.26082683 0.009550667 -0.047017813 -0.44713742 -0.17737082 -0.027546585 0.24815318 -0.064913824 0.038009565 0.060876332 -0.19963817 -0.2342281 -0.063002996 0.17978323 -0.21997464 -0.49962172 -0.41242504 0.25212175 0.019507343 -0.2732982 0.31821546 -0.39744496 -0.06922614
228 0.1293989 -0.13228302 -0.3886381 -0.4663934 0.47688714 -0.08332583 -0.53586996 0.29061761 0.80042756 0.44024047 -0.6488573 0.25799626 -0.28635696 -0.20124638 -0.049882885 0.69638014 0.4295776 0.12078907 -0.100108325 0.519649 0.5253721 -0.11698154 -0.31735712 -0.13433412 -0.018159308 0.06269822 0.5013753 0.13442482 0.3542153 0.22116902 0.54144704 -0.06316094 -0.14412482 -0.36519453 0.011915653 0.1141733 -0.050228346 0.2070348 0.12730382 -0.50795203 -0.61289924 0.21346076 -0.026095394 0.08686676 -0.26070043 -0.14377779 0.10650069 0.11356095 -0.014389037 -0.44891688 -0.28348312 0.22970305 0.2729461 0.091556795 -0.15685599 -0.16702187 0.047241434 -0.07664799 0.20204464 -0.03686911 0.404624 -0.41349488 0.2633143 -0.34748337 -0.21269217 -0.3101705 -0.053704742 -0.46019113 -0.22227958 0.092112824 -0.29030365 -0.11116812 0.1710708 0.2838695 0.26116753 0.25781977 -0.5359142 0.31278935 0.2603608 0.08989935 0.30983654 0.19525774 -0.33046874 0.48668212 -0.4660441 0.10980916 -0.3850215 -0.076087154 0.28109044 -0.2891388 -0.15943398 -0.25892532 0.10924276 0.1519405 0.005040241 0.35495526 0.72782797 -0.3444485 0.024962785 0.3788656 -0.4712649 0.033209182 0.5473463 -0.2308321 -0.31120074 -0.7013766 0.15368073 0.22345196 0.13816328 0.28799427 0.08802952 -0.1990591 0.017228981 -0.18913662 0.049120612 0.21510103 -0.29684958 0.003446906 0.05587221 -0.6952275 -0.2705391 0.26922616 0.3207258 0.13499683 -0.013198494 -0.0117938565 0.15248296 -0.5279218
221 -0.28804645 0.09046046 -0.65327877 0.030313333 0.79542744 0.26107106 -0.3570953 0.28131396 0.44853398 0.71779174 -0.17589423 0.17924918 0.03248185 -0.1988103 0.52420247 0.6205285 -0.065930076 0.23545967 -0.0807592 -0.4660402 -0.083728515 0.19337718 -0.31318465 0.18613538 -0.53536284 -0.059972808 0.16776693 0.013941353 -0.13302517 -0.10817429 0.50375473 0.1984467 0.56174976 -0.49878478 0.09685553 -0.023259688 0.46860704 -0.007098364 -0.3304257 0.39256388 -0.15054354 0.57801825 -0.21245718 0.7870275 -0.18175712 0.37288624 0.10181297 -0.09583699 0.045926336 -0.46352968 -0.23115745 0.06864083 -0.029615015 -0.12758318 -0.7728229 0.3255968 0.110271394 0.14799611 -0.10024901 -0.19290562 0.6026094 -0.08859235 -0.28878468 0.20579277 0.02572124 0.36889482 -0.18776174 -0.3368939 0.2540025 0.34245354 0.11382504 -0.06384502 0.40681913 0.26770693 0.21751292 -0.51431715 0.24336338 -0.27186576 0.27062836 0.13367373 -0.39457673 0.12386422 0.056415796 -0.14958477 -0.057819713 -0.08119247 0.33803073 -0.20502807 -0.28308386 0.31251466 0.2772066 -0.07808541 0.010873872 -0.2830914 -0.13608468 0.06418486 -0.05939194 -0.21353133 -0.27248976 0.020053828 -0.45090413 -0.37933832 0.026452579 0.094810456 -0.13972603 0.4295381 0.04459143 -0.7429631 0.093031034 0.7151872 0.62765014 -0.20695339 -0.38853696 0.4811439 0.20259205 0.35455695 -0.07773376 -0.5396388 0.21315697 -0.20063531 -0.080534644 -0.17555271 0.20779507 -0.09026437 0.031480398 0.055150732 -0.39921334 -0.37425262
164 0.20552638 -0.19346131 -0.37682423 -0.56462115 0.5145534 -0.051334456 -0.58780485 0.18407188 0.85156924 0.37832364 -0.6981194 0.17131191 -0.3338837 -0.25960228 0.12187208 0.7274224 0.4428188 0.06761166 -0.19395144 0.4059407 0.60670614 -0.16366823 -0.2135269 -0.25401843 0.06706552 0.0137518365 0.42332605 0.15231685 0.32608783 0.1417157 0.6267924 -0.029272342 -0.23110965 -0.5320048 -0.013012081 0.1884028 -0.018950285 0.2409171 0.24724403 -0.50804114 -0.52168846 0.28559673 -0.18625163 0.093458876 -0.27815688 -0.03199298 0.22326507 0.24145922 0.032004926 -0.34404892 -0.28961653 0.23854265 0.17392129 0.032435097 -0.10859576 -0.23986919 -0.031552542 -0.10773849 0.16284858 -0.09976751 0.31164604 -0.4073105 0.240539 -0.2499754 -0.15470368 -0.3284556 -0.0047900556 -0.4315382 -0.11440599 0.14969978 -0.36815473 -0.07194819 0.122569546 0.24013408 0.20454422 0.19344349 -0.6306524 0.3472332 0.29529232 0.058855712 0.30392352 0.26848814 -0.31385338 0.52006197 -0.42959183 0.26754573 -0.22344375 -0.0001696151 0.2720558 -0.36075625 -0.20659785 -0.20526035 0.20524195 0.1725259 0.06318654 0.2957992 0.80027854 -0.41540998 0.22884652 0.31717739 -0.5623121 0.041261893 0.5648666 -0.31209093 -0.26827917 -0.7834461 0.19541629 0.07477778 0.13188057 0.3457137 0.008804296 -0.07874492 -0.0074946657 -0.21754062 0.034072064 0.075722314 -0.21061765 -0.049659766 -0.039396957 -0.7378893 -0.42480883 0.2254633 0.44443244 0.28875986 -0.038534526 0.11097985 0.18440804 -0.53616583
322 0.10382749 -0.19709277 -0.49525476 -0.3433886 0.40703544 -0.058455996 -0.5089479 0.08134226 0.7020861 0.4187075 -0.61080754 0.13699895 -0.2088477 -0.34143847 0.035801094 0.6972162 0.40757337 0.100690834 -0.14641601 0.4519007 0.5254332 -0.007445824 -0.33435786 -0.10494709 0.001292985 0.016829425 0.453714 0.26028094 0.3293924 0.088521615 0.63095146 -0.06859185 -0.19821769 -0.4088269 0.038332693 0.19321126 0.018768743 0.28707427 0.18197604 -0.5841733 -0.5627706 0.15975666 -0.062916435 0.07029058 -0.27922347 -0.09223743 0.2001049 0.09643181 -0.0072150193 -0.3416987 -0.24814259 0.2847733 0.18241207 0.08296122 -0.062090192 -0.21959044 0.14168428 -0.16250283 0.12121256 -0.097484395 0.44409883 -0.44681016 0.22431725 -0.20377986 -0.12643532 -0.2604272 -0.01949021 -0.47851586 -0.25373772 0.08471274 -0.26584914 -0.111930706 0.05811222 0.3689551 0.2766114 0.32969752 -0.5334792 0.38179654 0.3058028 -0.013593796 0.35606152 0.17754315 -0.4274772 0.49768606 -0.4543851 0.18853593 -0.38412467 -0.015634494 0.31527779 -0.3901468 -0.1541468 -0.18537354 0.22486348 0.17021471 0.055740014 0.4190405 0.744434 -0.36980546 0.14140378 0.30798483 -0.4731963 -0.027855197 0.55913603 -0.28359818 -0.28226754 -0.64512753 0.10369058 0.17727253 0.076266125 0.32828945 -0.008870066 -0.14959559 -0.0632306 -0.1746607 0.029783955 0.20042847 -0.25478372 -0.0069044586 -0.0062476736 -0.6599777 -0.38383713 0.28377864 0.3409337 0.10229642 -0.019970628 -0.018100832 0.16097498 -0.60222596
10 0.042163417 -0.4082593 0.0791508 0.061472 0.3923471 -0.4054485 0.03380753 0.5576703 0.54658276 0.18330896 0.79206944 -0.22585534 0.18930906 0.11554958 -0.058276456 0.04312166 -0.21399817 -0.476956 -0.28581452 -0.26396534 -0.08181538 -0.18606415 0.49497268 0.24017686 -0.21673146 -0.1074409 -0.016766863 0.19923928 0.035455313 -0.20359415 0.10441063 -0.2902422 -0.41508123 -0.092108786 -0.07169082 -0.4910787 0.8533266 -0.02151429 -0.60702926 0.103684135 -0.25762436 -0.12589574 0.007863026 0.08559843 0.094734825 -0.25013408 -0.065424815 -0.11489094 0.27214187 -0.37676573 -0.26573297 -0.3194418 0.29462928 0.17440481 -0.25711235 -0.0096235685 -0.383048 -0.6436326 -0.0008068078 -0.26480165 0.12795651 0.23282577 -0.15229088 0.3971529 -0.22230466 -0.053223528 0.14702952 -0.22979616 0.14833404 -0.15054154 -0.44665945 -0.4242504 0.17265078 0.22953276 0.28835016 0.5216447 -0.27086404 -0.13633117 -0.26603958 0.5378801 0.056291964 0.019820554 -0.54139256 0.534461 -0.1832028 -0.070446946 -0.26561502 -0.15739487 -0.17875421 -0.07542918 0.16656144 -0.5613237 0.0029971714 0.18269499 0.20873292 0.41341683 0.18213719 -0.14998746 0.17937586 0.06923897 -0.12957726 -0.45776126 -0.05065557 -0.08054102 -0.274716 -0.24735968 0.5393701 0.33301315 -0.2370693 0.42312482 0.600477 -0.0656075 0.35414416 0.06298905 -0.026787758 -0.37493798 -0.12153064 -0.02985191 0.097411916 -0.043636486 -0.22179551 -0.03462873 0.022449488 -0.7525916 0.31142488 -0.16071065 0.046743013 -0.52126133
215 -0.077302076 -0.20665199 -0.13509673 0.7607052 0.4324214 0.49760708 -0.15663299 0.013276487 0.1254258 0.23004726 0.22897722 0.044494048 -0.11591884 0.20448332 0.42437795 0.15562026 -0.14191274 -0.49449953 -0.459384 -0.27433306 -0.51984704 -0.2156315 0.110100746 0.03327073 0.043597486 0.23899092 0.7922264 0.21240893 -0.30395284 -0.14543118 -0.52797115 0.39223158 0.23894845 -0.1708112 0.50090057 -0.17185476 0.035421446 0.23438618 0.06691288 -0.29283816 -0.36069196 0.08520265 0.42280784 0.3481346 0.0069547794 -0.16527383 0.14556666 0.113408 -0.07541507 -0.24512677 -0.44270936 -0.12323011 -0.46876496 0.16717611 -0.21203353 -0.07712985 0.40022823 -0.24660987 -0.010245335 -0.26534462 0.38174132 -0.031755224 0.29713443 0.12466792 -0.25379458 -0.1932454 0.08812128 0.08859136 -0.12698011 0.26201057 0.06083318 0.021381099 0.093773834 0.25965852 0.04096133 -0.09954412 0.049769465 0.5471739 0.13677338 0.03691506 0.05707315 -0.009675088 -0.26821074 -0.3816306 0.008054714 0.05201395 -0.21825314 -0.12332173 0.055850953 0.01998028 0.48365653 0.3627151 -0.043355644 0.073557876 0.6448697 0.25840753 0.32991612 -0.4755099 0.35600203 0.18263298 0.25737232 0.0970752 -0.032504916 -0.111369826 -0.15722173 -0.17815903 0.43390915 0.17705345 0.12678054 0.29496223 0.045861986 0.07742461 -0.576268 -0.13274024 0.07182235 -0.2206874 -0.09166539 -0.2684284 0.18524797 -0.5306664 0.3549763 -0.08536544 0.34021905 -0.25880942 -0.19515228 -0.4975488 -0.11735857 0.21645978
77 -0.008973332 -0.3992059 -0.15519558 -0.3408263 -0.24089305 -0.17029703 0.005244609 0.7519901 0.20378624 0.46312362 0.19253063 -0.34670943 0.098290846 -0.0024547828 0.44400886 -0.09307729 0.29585516 -0.09088421 -0.40196735 0.68632644 -0.0894477 -0.10825515 -0.09448831 -0.010698707 0.12409535 -0.26420406 -0.047986377 0.29652205 -0.06775903 -0.00968694 -0.12688145 0.45568353 0.30917478 -0.36874112 0.38130933 -0.10936282 -0.44048008 0.0580046 -0.14957356 0.037885334 -0.6707287 0.4997555 -0.31034893 0.010508225 -0.47079116 -0.14391509 0.042509746 0.083169155 0.20477134 -0.24343725 -0.3561471 0.21349564 0.20192006 0.5347736 -0.17403679 0.054393023 0.21377595 -0.31524432 -0.100667894 -0.1345776 0.6500176 0.003538146 -0.13275188 0.09297747 0.21796398 0.20176888 0.13944766 -0.4060003 -0.027932558 0.16828965 0.23005198 -0.09697123 -0.22149038 -0.24658285 0.35992926 0.23329769 0.041555878 0.31858903 -0.65968156 -0.22636989 0.49533176 -0.3532967 0.18477269 -0.16136041 0.7109857 -0.19895989 -0.26883933 -0.27625775 -0.1239851 0.1306633 0.42430678 -0.17100061 -0.07245172 0.08420484 -0.099669196 0.31874508 0.14040105 -0.32957458 -0.035885263 -0.31109285 -0.49512902 -0.010731695 0.5197315 0.21394159 0.047163747 -0.3593862 0.10689694 0.5634207 0.44815943 -0.43883118 0.30642474 -0.02318258 -0.4201242 -0.15179601 0.07000894 -0.037096456 -0.11740229 -0.53367275 0.39699674 -0.47590464 -0.14676428 -0.3287293 0.48634833 -0.20473443 0.30867642 0.14898711 -0.17800935 0.041737422
82 0.12053055 -0.21151437 -0.3338543 -0.08253723 -0.15439513 0.16258895 -0.22401792 -0.13454616 -0.2355522 0.19507378 -0.13660805 0.13283414 -0.04127963 -0.36647752 0.61165255 0.24142516 -0.09463069 -0.3671701 -0.34811464 0.7424328 0.092872195 -0.025668025 0.42946666 -0.15657698 -0.21294326 -0.1828969 0.10090951 0.64963216 -0.21853288 -0.35061172 -0.005933787 0.7278621 0.41309455 -0.44783804 0.05259208 -0.01838814 -0.04352872 0.07237098 -0.37704685 -0.32161915 0.12447796 0.34420907 0.24536556 0.13467115 -0.12756929 -0.8399113 -0.013818882 0.1706207 0.072142765 -0.46325606 -0.25875443 0.09340102 0.060243845 -0.019635241 0.058011264 0.20527895 -0.008351502 0.22096388 0.23706695 0.37737072 -0.085713305 0.054300994 0.2704848 -0.2715566 -0.077892855 -0.07452073 0.058566786 0.22021955 -0.00818212 0.053597227 -0.21302603 -0.566403 0.4863902 0.20020983 -0.52097785 0.39280587 -0.23388036 0.23869221 0.16415738 0.43972754 0.053030297 -0.027317086 -0.7612267 0.3988548 0.06939904 -0.13887838 -0.42490274 0.11560387 -0.27552864 -0.47667125 -0.22652435 0.034982633 -0.050338224 -0.39740548 0.2863818 0.107743025 0.37743795 -0.59967434 -0.0612278 0.09941316 -0.40943474 0.010584936 0.5759959 0.1670682 -0.4068764 -0.6130363 -0.19496544 -0.18181126 -0.42675975 0.3065511 0.49806237 -0.5509298 -0.018356355 0.068206444 -0.19464816 -0.36028156 -0.10204709 0.23066156 -0.42306164 -0.41163725 -0.85256547 -0.2889864 0.3802326 -0.20101622 0.6596416 -0.026394073 0.25177848 -0.5345988
328 -0.17204365 0.11936554 0.36075512 0.30657318 -0.37691763 -0.10786148 -0.471656 0.14815839 0.34083968 0.25294447 -0.19873525 -0.64312226 -0.5459868 -0.62116843 0.32511312 -0.15626541 0.37903735 -0.14019223 -0.4732176 -0.2927895 -0.30348593 -0.09994948 0.33818245 -0.30759344 -0.37365592 -0.573641 -0.284811 0.24071875 -0.49063504 -0.74427336 0.5195931 -0.3784752 -0.14738324 -0.88815814 0.22910231 -0.023139108 -0.12904261 0.33616784 -0.32616782 0.22360809 -0.055480156 -0.05290155 -0.28794402 0.45721585 0.5637487 0.19639567 -0.35165456 0.3174099 -0.77313447 -0.37535545 0.046711467 0.3395926 -0.33465046 0.4771436 -0.64237946 0.1371517 -0.7387822 0.11909933 -0.031503476 0.45636523 0.31681353 0.053317335 -0.08357644 0.11754205 0.12710442 -0.96929246 0.42478186 -0.21160503 -0.15536056 0.45805773 0.0072100214 0.1694727 -0.08304986 -0.06086657 0.041405696 0.19085772 0.12581158 0.25107145 0.30967686 -0.1123179 0.3107638 0.19987231 -0.17494157 0.4829916 0.0156090995 0.24520528 -0.38343722 -0.39234236 0.7917065 -0.33190766 0.48925743 0.21042068 -0.082501106 0.03734104 0.45250776 0.47874492 0.084806256 0.009544235 -0.035249628 -0.06516404 -0.41505176 0.0835181 -0.19492261 -0.029895931 0.18882883 0.25032896 -0.1317079 -0.27553985 -0.11747176 0.04909853 0.32208723 -0.034205962 0.04184011 -0.47544762 0.25930068 -0.29550958 -0.12469656 0.070892386 0.56686926 -0.6068445 0.43644053 0.5842432 0.5249734 -0.097155534 -0.27969143 -0.2485739 0.1424322 -0.4172963
426 -0.03876237 -0.12305233 -0.28048453 0.6025046 0.50482094 0.40695968 -0.29043904 -0.06508804 0.28121266 -0.0067846235 -0.033181544 0.17885175 -0.2399261 0.33486772 0.684368 0.24795003 -0.21152937 -0.112011515 -0.39646775 -0.39300385 -0.44657466 -0.30330628 0.15161057 -0.061792623 0.076437026 0.1234696 0.6911104 -0.101504214 -0.2953872 -0.2329132 -0.41293505 0.30342928 0.39898118 -0.34019557 0.54236984 -0.24116744 0.10241674 0.33092135 -0.007020241 -0.08991749 -0.33126432 0.025850486 0.43812257 0.31159776 -0.04007581 -0.21355492 0.14055498 0.20673923 0.011395156 -0.1900747 -0.51769596 -0.09531155 -0.5316086 0.009492066 -0.1376205 0.065814145 0.48082447 -0.23828611 0.017850608 -0.30724728 0.32362705 -0.05556397 0.26802915 0.044634927 -0.18732612 -0.081611656 0.09296922 -0.033749983 -0.07084094 0.34058255 0.094988264 0.033377606 0.06102869 0.33175322 0.047941364 -0.18559289 -0.1447898 0.54513884 0.2642362 0.032500178 0.102016345 0.016190197 -0.23261628 -0.3359273 0.04039567 0.1475899 -0.14157018 -0.17045346 -0.0038358124 0.14543512 0.4759156 0.43922415 -0.09594844 -0.015961885 0.57225966 0.27793118 0.27564776 -0.32055196 0.34651506 0.1885586 0.4155021 0.036831126 -0.16165699 0.015094251 -0.15240443 -0.20527652 0.60401726 0.1451395 0.21442604 0.42729622 -0.17692755 0.19868587 -0.57047 -0.13036698 0.09115427 -0.49068537 -0.119694844 -0.46128467 0.142524 -0.6908557 0.50689304 0.30176926 0.35512865 -0.2007849 -0.07370097 -0.46955782 -0.016179413 -0.054872166
46 0.1525893 0.14642824 0.0911103 0.16753116 -0.15716587 0.3106229 0.04111288 0.4684648 0.03859538 0.3209112 0.43003052 -0.013710944 0.093538724 0.13643922 -0.18865888 0.06493403 0.08390244 -0.06535725 -0.42674744 -0.051157862 -0.26709202 -0.6946946 0.014527921 0.15645383 -0.72550136 -0.4804334 0.0043598907 0.017852305 -0.24690948 -0.37338048 0.39887297 0.0088450685 0.3224725 -0.0691179 0.22618258 -0.0069624693 0.092484795 -0.13185722 -0.14813742 0.33484787 0.6160181 0.0978742 0.055091213 -0.16908671 -0.027107554 0.20267957 -0.5827725 0.12368693 -0.0560049 0.17609121 0.11234292 -0.3227376 -0.12965971 -0.2983319 -0.18560736 0.3858231 0.10528268 -0.007158866 -0.10923597 -0.19098012 0.044010635 -0.7708005 -0.039714567 0.37707943 -0.15245536 -0.07508052 0.13290747 -0.34752402 0.29822767 0.15385638 -0.28423786 -0.2577844 0.10371488 0.514483 0.4268105 0.23609984 -0.26205212 0.29265496 0.0024643939 -0.32175156 0.61437464 0.472814 -0.25121364 -0.25982812 0.06635125 0.056097746 -0.07958569 0.12911329 0.05625063 0.08606799 0.291753 0.21290515 -0.2695047 -0.049383115 0.47554043 -0.2654488 0.3622915 -0.5063907 -0.15999131 -0.24589725 -0.64241564 0.10988795 0.008256614 -0.0046847053 0.03631338 -0.3552172 -0.010446614 0.06806441 0.75487584 0.39310828 0.081301145 0.10609461 0.067818105 0.28018352 -0.029205678 -0.4876812 -0.09367107 -0.4815261 -0.42572686 -0.029180974 -0.31392276 -0.04767251 0.44729325 -0.10226155 0.18056144 0.3549017 -0.5905114 -0.0035983585
72 -0.5608335 -0.22967128 -0.005941861 -0.14692274 -0.18106262 0.23792171 -0.7437943 0.06169691 0.49882996 0.12646537 0.008657736 0.049645077 -0.28481445 -0.34674954 -0.5228477 -0.119589664 0.3442468 0.035541184 0.1974918 0.18258888 -0.32783073 -0.1053621 -0.21142232 0.12180222 -0.042829648 -0.26269352 -0.05956641 0.18805376 -0.5915281 -0.246933 -0.27923223 0.14206968 0.05272283 -0.69085807 0.5603179 -0.021154355 0.26846272 -0.24082184 -0.6275382 0.16262883 0.042133126 0.2757686 0.040134355 0.032130595 -0.8022451 -0.13618462 -0.55621594 0.4296479 -0.1712008 0.33438334 -0.11650978 0.51740074 -0.1740449 -0.16679126 -0.32014638 0.20636982 -0.09585581 -0.30060238 -0.5594942 -0.2581589 0.24145566 -0.088570535 -0.16779247 0.7405125 -0.075378016 0.1001834 0.24954279 -0.2133246 -0.09139145 -0.1339815 0.08714609 -0.14415276 0.15982597 -0.16740912 0.29023826 0.009430442 -0.5539452 0.6570729 0.080589235 0.24614565 -0.19951144 -0.040170137 -0.3931869 -0.06283691 -0.13986377 -0.3559813 -0.29833028 0.048357885 -0.26937592 0.45876077 0.31983492 -0.06677802 -0.7477255 -0.8639993 0.09568951 0.34591967 0.06729706 -0.21419498 0.018093389 -0.11292969 -0.2967208 0.39654726 0.17869937 -0.24277514 0.045896497 -0.41962034 -0.02157575 0.046942744 -0.3421583 -0.3478579 -0.09171076 0.22086258 -0.21394734 -0.08134132 0.14660394 -0.26908585 -0.14648744 0.081839785 0.1892671 -0.122155085 -0.5538604 -0.3835705 0.33014962 -0.015602711 -0.26394033 0.20089816 -0.43326187 0.04270151
25 -0.032451183 -0.045099773 -0.479499 -0.29786444 0.19980653 -0.053293895 -0.36687443 -0.012171758 0.1780705 0.5894303 -0.45121074 0.090552785 -0.24293275 -0.083748005 -0.18359451 0.4578631 0.2650558 -0.09493321 -0.01894695 0.5414619 0.3024908 -0.28410816 0.020934282 -0.04575752 -0.1770389 -0.08134346 0.30132523 0.12203279 0.280412 0.09036539 0.3357322 0.04142523 -0.03990453 -0.41473398 0.015103612 0.15142606 0.11968958 0.15038991 0.018048886 -0.11288893 -0.4745159 0.15710412 -0.08681102 -0.184571 -0.26334602 -0.23976508 0.16772579 0.26358083 -0.06238563 -0.46960622 -0.39807338 0.31930193 0.38688597 0.12771828 0.1105982 -0.18777347 0.12218876 0.05293613 0.049736578 0.1179019 0.39309958 -0.35701334 0.4578763 -0.37085927 -0.1673586 -0.26414007 -0.02608459 -0.35520157 -0.1797964 0.07775555 -0.14881285 -0.29143986 0.14863634 0.260891 0.07225217 0.26361102 -0.3900159 0.30754334 0.31599686 0.06027263 0.19617797 0.07339213 -0.3683938 0.56147546 -0.4429416 0.033939116 -0.35295147 -0.21919416 0.22065704 -0.44684696 -0.16114451 -0.13653134 0.25531915 0.0675918 0.11288216 0.20273678 0.6028617 -0.29306367 0.078116186 0.35715157 -0.5909988 0.13083906 0.35105565 -0.3779053 -0.21592264 -0.71720433 0.14026438 0.09528196 0.09716502 0.28210455 0.09715347 -0.36220556 -0.20860034 -0.15050569 -0.045780487 0.06595765 0.077833824 0.030070174 0.023210293 -0.55413926 -0.40968123 0.33204877 0.44683152 -0.0684765 0.036033414 0.008266247 0.07305888 -0.58943874
250 -0.6309036 0.6072457 -0.0016864277 0.35909352 -0.09280796 -0.27172035 0.060597535 -0.0126815 -0.024566008 0.4747861 0.31570092 0.1630846 -0.22348113 -0.2856473 0.16620934 -0.31397352 0.28377235 -0.046269264 0.19112715 -0.03250339 -0.19995227 0.44499367 0.4351747 0.8603823 0.30279353 -0.22707427 -0.017016295 -0.03175979 -0.66719556 -0.2881444 0.117671184 0.6256887 0.54797196 0.103433006 -0.10796627 -0.29288366 -0.19881296 -0.6511736 0.16462438 -0.34614998 0.14555728 0.44692495 0.9067756 0.09142647 -0.028988002 -0.40332144 -0.0539274 0.20280515 0.49574253 0.01350693 0.17069802 0.16651085 -0.17421235 0.0021505284 -0.13789117 -0.1590006 0.23820646 -0.1208022 0.25848022 -0.31061286 0.2498265 -0.18085226 0.014416513 0.14919071 -0.10618574 0.068121895 0.06119923 0.1552875 -0.43532345 0.2649051 0.22060293 0.081111066 0.275534 0.12974185 0.24013722 0.47264913 0.24463454 0.3666485 -0.53658724 0.00744401 0.19212039 -0.079307765 0.018961444 -0.0932502 -0.15406616 0.23443052 -0.0115413 -0.20044589 -0.05442564 0.5688718 0.2982795 -0.16476198 -0.040835876 -0.1395834 -0.01718809 0.60331815 0.1270111 -0.3760748 0.06650885 -0.10717693 -0.6258011 -0.95193684 0.4782298 0.072466694 -0.32253984 -0.21392787 0.4096117 -0.04925491 0.34901989 0.6143766 0.54955107 0.058434878 -0.50162065 -0.051962607 -0.42969272 0.13042466 -0.2278494 -0.13838443 0.5850527 -0.218837 -0.16095684 -0.2833296 0.889185 -0.52140105 0.19347197 0.9566191 -0.5250263 -0.40419334
139 0.14790149 -0.18492503 -0.40018257 -0.13182636 -0.14859517 0.11505256 -0.26824653 -0.19402212 -0.13275926 0.06548437 -0.2130033 0.075394884 -0.07412772 -0.23245823 0.5342494 0.3830652 -0.21321829 -0.35498515 -0.21897195 0.67026675 -0.007948918 -0.030828202 0.46261126 -0.17935449 -0.28030285 -0.12422817 0.056575283 0.5912258 -0.2270988 -0.3439421 0.002133793 0.6568253 0.4506984 -0.56227255 0.101815745 -0.018938566 -0.029668972 -0.15917376 -0.40686402 -0.34591466 -0.045457773 0.3568599 0.23918825 0.09061513 -0.09542422 -0.8192488 0.039524447 0.14540306 0.11059247 -0.5003952 -0.27192718 0.17220572 0.0057587293 0.04105811 0.012991427 0.18525553 -0.10636492 0.12057509 0.38408095 0.4396508 -0.16873758 0.08292718 0.11962389 -0.21909094 -0.19422981 -0.083980925 0.031976413 0.23097624 0.056964207 0.15568602 -0.16158201 -0.57457876 0.5839603 0.24682945 -0.5469642 0.4582425 -0.21279328 0.21295638 0.113202214 0.5938763 0.022947416 -0.041902125 -0.7482925 0.3717201 -0.03166914 -0.15032257 -0.49678576 0.06581921 -0.29753166 -0.39098024 -0.14185873 -0.024856025 -0.08990488 -0.42305347 0.24980883 0.22446673 0.44829255 -0.48708493 -0.057735976 0.0902737 -0.42411813 0.054131858 0.580982 0.07775195 -0.34973076 -0.6008195 -0.11387323 -0.18497303 -0.32422405 0.18147908 0.5176216 -0.57268226 0.09626135 -0.08464584 -0.1409495 -0.40316424 -0.07791625 0.1939658 -0.43179095 -0.38188323 -0.8472415 -0.33139342 0.37587416 -0.15066248 0.58610594 -0.089881234 0.30056405 -0.5431513
402 -0.5612689 0.43321708 -0.04628226 -0.5124438 0.83263427 -0.311213 -0.06017883 0.03228973 0.07812629 0.41188264 0.2514073 0.34575745 0.3299514 -0.40134552 0.03702035 -0.057831135 0.74351424 -0.9922692 -0.104251474 0.120857514 0.17181467 -0.32788512 0.10250779 0.58025634 0.2693838 -0.42181185 -0.34751633 -0.11957151 -0.056765437 0.41260388 -0.40025067 -0.088182814 0.005231775 -0.74039656 0.08856316 -0.17621367 0.12776123 0.9432318 -0.04542277 -0.41554582 0.29418242 0.49212417 0.1796996 0.01033295 0.13034095 0.07544398 -0.015063585 -0.2234469 -0.21914189 -0.16651313 0.7371238 -0.12047515 -0.60285157 0.17365284 -0.6001053 -0.05788399 -0.056381464 -0.4465524 -0.6323201 0.06950659 -0.15824787 0.34668124 -0.027419288 -0.141257 -0.015668048 -0.38162223 0.25567952 -0.5629866 0.12768726 0.4281597 0.15097488 0.19455165 -0.2768233 0.49727783 -0.16124508 0.13197184 -0.3085156 0.3934939 -0.19436555 0.15214512 -0.24320357 -0.07476057 -0.22131683 0.4955919 0.09859713 -0.1772548 -0.66446006 -0.033249807 0.099108055 0.372492 -0.56513435 0.32915518 0.17694539 -0.4350044 0.33730948 0.019279921 0.015274395 -0.2750098 -0.106369026 -0.072465315 -0.7817394 -0.13184476 0.25329405 0.28621754 -0.1649781 0.23560712 0.51286453 0.360529 0.65542763 0.07825743 0.60572344 -0.25763085 -0.044802856 -0.2215537 0.009816356 -0.53307617 -0.2572158 0.105169214 0.28920448 0.05976789 0.18955079 -0.13315532 0.64052737 -0.5588657 0.4008769 0.21211134 -0.117224954 -0.3711182
106 -0.4869473 -0.34039247 -0.019704062 -0.07396202 -0.16405968 0.33833626 -0.7210416 -0.09959611 0.3811432 0.045973703 -0.09979087 -0.002821089 -0.3512466 -0.3853476 -0.53863966 -0.07562914 0.5312783 -0.16982505 -0.023198698 0.07319854 -0.27809998 -0.15228215 -0.32556054 0.20132273 -0.20581323 -0.16531396 0.023889612 0.4480211 -0.6530333 -0.22004102 -0.34563637 0.19958653 -0.11984786 -0.5143721 0.5809138 0.16616373 0.3672858 -0.21804288 -0.412465 0.10284351 0.117647305 0.16530935 -0.10503761 0.09991849 -0.9095599 -0.07000156 -0.511027 0.33769095 -0.14135085 0.2924254 0.008855941 0.5150846 -0.08166779 -0.17347491 -0.2176438 0.1910423 0.025336156 -0.31740278 -0.4822954 -0.22617692 0.30277422 -0.096547455 -0.18809922 0.6902636 -0.0026277653 0.19847491 0.28463694 -0.10962985 -0.11439042 -0.1872788 0.1514796 -0.14291708 0.13083303 -0.19201435 0.19467062 0.104572766 -0.65873414 0.7837384 0.050198253 0.1409167 -0.1795557 0.039251506 -0.31749725 0.030839676 -0.07294884 -0.32299924 -0.377606 0.16121863 -0.3215452 0.34351057 0.50359863 -0.12282009 -0.71483374 -0.89596677 0.09823114 0.2646778 0.03086531 -0.41576383 0.16555071 -0.28667837 -0.16593657 0.28340507 0.19145848 -0.13373813 0.033770096 -0.3698058 0.034286905 0.055289753 -0.42999652 -0.22851011 0.059531525 0.24208316 -0.20859206 -0.008815521 0.13423364 -0.21383333 -0.25561795 0.005869533 0.14497775 -0.13534726 -0.6316449 -0.43884274 0.237155 0.034286942 -0.17319271 0.2423578 -0.2159501 -0.18357101
197 -0.06977292 -0.3461675 0.08938579 0.0003713074 0.20120916 -0.071665876 -0.18473084 0.44315395 0.18318242 0.0753111 -0.14541405 0.17875214 0.28131 -0.18723717 -0.041007243 0.4042781 -0.011860177 -0.5986214 -0.4198536 0.16262613 0.084664725 -0.012649417 0.48912758 0.27207163 0.42817605 -0.47061536 0.049074944 -0.06980116 -0.089751855 0.080248386 -0.09610268 0.13125393 0.37741625 -0.3368973 0.15936401 0.2180723 0.75654954 -0.28301144 -0.091550976 0.58542365 0.6439573 0.06893015 -0.21010636 0.1883779 0.019906184 0.21998629 -0.23115675 0.0902786 0.22279353 -0.32713255 -0.24454759 -0.2161331 -0.12732181 0.0543462 -0.4882617 -0.1252672 -0.063207544 0.5535503 0.33892268 0.09585386 0.5812681 -0.09528243 0.3759157 0.30387348 -0.07960908 0.20199762 0.1324317 0.17945065 -0.14510612 0.26392266 -0.18520433 -0.42646948 0.10972118 0.047407493 -0.15470634 0.0033811133 -0.46234173 0.4062804 0.19561489 -0.031569097 0.24561705 0.023513725 0.24665153 0.33947036 -0.38020465 0.08966307 -0.17686246 -0.22610766 0.47103325 0.16508874 0.3600806 0.1528418 -0.33315516 -0.7371848 0.10653626 0.24159874 0.09955118 -0.12823157 -0.04385864 0.032347344 0.09077082 -0.49483222 0.62794834 -0.091350876 -1.0432987 -0.07107856 0.07300502 0.24428135 -0.3303086 -0.10200716 -0.26308227 -0.119279616 -0.33276096 -0.05435367 0.03485557 -0.34449017 0.2838852 -0.23259245 0.3658887 -0.03095332 0.09338915 0.33218503 0.00029981465 -0.33472285 -0.15909664 0.3539848 -0.51146454 0.4333582
202 0.11463631 -0.36286673 -0.19286416 -0.2703124 -0.16698585 -0.22587664 0.11670756 0.7626388 0.2962404 0.40282926 0.12876835 -0.37407 0.034937505 0.060427465 0.38782942 -0.08639401 0.30546618 -0.111547716 -0.28896782 0.743232 -0.12582798 -0.11926416 -0.0075775604 -0.12843667 0.11230296 -0.27772993 0.12387338 0.3110031 -0.09276261 -0.13949037 -0.044117182 0.556042 0.19814137 -0.496664 0.37184113 -0.122628145 -0.417751 -0.040071275 -0.21533641 0.003123648 -0.59891874 0.38679093 -0.32299897 0.055084858 -0.5365035 -0.20655285 0.14286742 0.02396281 0.21080793 -0.04422994 -0.33731514 0.18802644 0.2204523 0.54071146 -0.18284078 -0.01290364 0.15444212 -0.43019918 0.010785665 -0.101831555 0.51193815 0.06368271 -0.16533557 0.01660638 0.16527377 0.24834503 0.08835835 -0.4024726 0.0708493 0.3656315 0.23309508 -0.0064307377 -0.21261956 -0.18750936 0.38751405 0.33230484 0.04343291 0.33632165 -0.7106696 -0.13567801 0.4966848 -0.41206482 0.26251286 -0.167459 0.6344752 -0.15295961 -0.24292089 -0.16870902 -0.19058275 0.0758636 0.43468356 -0.1779362 -0.056876563 0.15895918 -0.13998483 0.4681119 0.23348054 -0.37608734 -0.056130126 -0.20936069 -0.38138324 0.03702915 0.5288589 0.20962636 0.011230088 -0.422451 0.17460626 0.48012266 0.36603478 -0.44123903 0.30855808 0.033989515 -0.32279652 -0.18431197 0.05091308 -0.07199729 -0.11647403 -0.42844737 0.3459654 -0.47427928 -0.051180746 -0.2819644 0.59463626 -0.26135787 0.29511502 0.14923404 -0.11445492 -0.035990726
54 -0.5297098 0.48097655 0.007058729 -0.44785562 0.7080376 -0.24910456 -0.027221313 0.11797259 0.102235526 0.5257873 0.23976925 0.3057264 0.34194535 -0.4254633 -0.040298697 -0.067842685 0.67433053 -1.0082209 0.07758138 0.23821661 0.16487022 -0.36798373 0.14262392 0.69535965 0.3037425 -0.52050835 -0.24242562 -0.14199579 -0.16946578 0.31957203 -0.39629096 -0.13696176 -0.12619045 -0.8434747 0.04865235 -0.08643124 0.17378144 1.0416789 -0.0887611 -0.4128036 0.27674708 0.35654587 0.23951775 0.10461892 0.2191395 -0.036760032 -0.01450026 -0.25691077 -0.13979132 -0.015255998 0.82935566 -0.21363987 -0.5421181 0.14174125 -0.57252073 -0.11152658 0.06311866 -0.4635212 -0.55808914 0.09365945 -0.13314188 0.2883703 -0.017549967 -0.2479516 0.03037802 -0.44642198 0.29764304 -0.5200431 0.11781386 0.44346654 0.18958358 0.20613989 -0.3552559 0.5840675 -0.054256096 0.18366969 -0.18798018 0.42388713 -0.15824425 0.10498723 -0.19541955 -0.10970414 -0.42294905 0.43743622 0.039865475 -0.25858912 -0.6115302 0.012923883 0.10893148 0.4370831 -0.395546 0.30265817 0.12304319 -0.41967684 0.39573833 0.11608476 -0.16570304 -0.3446187 -0.1247769 0.013743291 -0.6775737 -0.16148365 0.34779775 0.1997207 -0.14083987 0.21522014 0.5037138 0.38011914 0.5815933 0.14566363 0.58756673 -0.17431816 -0.11683155 -0.17076917 -0.059259556 -0.49972984 -0.2226696 0.3056092 0.4228633 0.12222719 0.27429235 0.004229482 0.6650784 -0.67090786 0.4252 0.19053546 -0.15953574 -0.33197805
61 0.20976639 0.25577188 -0.008305153 0.15469505 -0.13563393 0.28434008 0.06781246 0.44002712 0.1857353 0.28607184 0.2984406 0.10941262 0.11435084 0.16484475 -0.22785506 0.10207457 0.16188014 0.08853561 -0.38968164 -0.11996945 -0.37599364 -0.6603888 -0.0026426993 0.18485893 -0.76929796 -0.52892613 0.002266006 -0.12107881 -0.14456871 -0.44017965 0.36933556 0.035190288 0.26827618 -0.086052544 0.23218392 -0.07707635 0.038547803 -0.32764885 -0.13420895 0.3157453 0.5755687 0.13805863 0.03892207 -0.17390628 -0.059492007 0.13110398 -0.5439283 -0.012712819 0.049801346 0.12829451 0.12686148 -0.3570272 -0.06435335 -0.23470943 -0.15595302 0.24775054 0.00506485 -0.1253708 -0.08369229 -0.21359187 -0.14585619 -0.741974 -0.17335159 0.27035668 -0.2081127 0.09992987 0.15250295 -0.19174363 0.35863772 0.25768995 -0.26252213 -0.19289418 0.0869913 0.51363987 0.3484041 0.34341735 -0.28440094 0.23372786 0.09911617 -0.13883157 0.60572594 0.4593164 -0.28661707 -0.27412248 0.04797243 0.08488825 -0.013439082 0.16142352 0.06677533 0.14572772 0.24209835 0.12998654 -0.35283646 -0.07828689 0.4256158 -0.20667394 0.47281858 -0.50219446 -0.16208097 -0.23128937 -0.7402041 0.046950996 -0.030350925 0.008366654 -0.08682538 -0.42456087 0.032247473 0.092146724 0.7696877 0.40676877 0.16155852 0.030010397 0.10399864 0.18860477 0.05976938 -0.64122534 -0.067009345 -0.4699938 -0.4432446 0.048018698 -0.3989202 -0.021820452 0.44984758 -0.11173698 0.2996095 0.24169075 -0.48150703 0.035942663
60 0.183789 0.18578967 -0.058586046 0.21987456 -0.1724471 0.22359227 -0.08772966 0.5623202 0.07115228 0.3799309 0.18515567 -0.051736545 0.1194403 0.32807273 -0.25711206 0.23352686 0.17610113 -0.023920815 -0.2693005 -0.08308701 -0.39363718 -0.74320984 0.04469065 0.3027133 -0.5821534 -0.46486422 0.16587898 -0.010705418 -0.119393915 -0.29357183 0.24131332 0.01087397 0.44202206 -0.05232745 0.2641345 -0.05407421 -0.02926336 -0.19736873 -0.14683788 0.45748904 0.5649121 -0.006377008 0.033112753 -0.12651503 0.051308054 0.21504824 -0.5833014 -0.024943734 0.10160266 0.17572524 0.14725213 -0.39947298 -0.18645449 -0.275699 -0.10396707 0.32685527 0.098913625 -0.18083675 -0.1478332 -0.15289819 0.023350298 -0.8598768 0.017376514 0.1310089 -0.19777223 -0.02476054 0.072402894 -0.21986201 0.41090873 0.12493288 -0.41949683 -0.12221589 0.0029901299 0.5580965 0.35539922 0.32282954 -0.1377167 0.35002488 0.087366074 -0.2020447 0.6821565 0.3924 -0.25571474 -0.2680142 -0.005214116 -0.009944273 -0.15425704 0.10896015 0.057522647 0.12887554 0.32329816 0.1332655 -0.34747753 -0.08181416 0.39913982 -0.2869284 0.3190264 -0.44246456 -0.13433224 -0.37352982 -0.52356243 -0.011971633 -0.13787067 -0.06605324 -0.011977295 -0.3242388 0.14452055 0.0533799 0.66593546 0.3636314 0.21043774 0.017778248 0.1846663 0.27962685 -0.08335362 -0.64211106 -0.0079424465 -0.44123712 -0.35980582 0.14173232 -0.36728117 0.10625395 0.5306881 -0.167143 0.3758364 0.28926158 -0.4895082 -0.05481616
268 -0.46768305 -0.36976212 0.08570077 -0.19443676 -0.14081508 0.23234397 -0.79374397 0.12453421 0.5560901 0.030985476 0.04561269 0.051797587 -0.23702815 -0.37853873 -0.4796154 -0.07283301 0.42787445 -0.036713235 0.016486224 0.18444714 -0.3574997 -0.081262246 -0.32401127 0.16111602 -0.06137862 -0.1903568 0.06303664 0.23958601 -0.5869775 -0.17271587 -0.26079455 0.20667219 -0.0028581403 -0.6044334 0.55353224 0.0280977 0.2715377 -0.26519996 -0.5833827 -6.1118655e-05 0.07074965 0.3110454 0.11615083 0.18485822 -0.82751864 -0.10860922 -0.46155128 0.32808995 -0.06255285 0.21969776 -0.043565888 0.46591094 -0.21433966 -0.17292923 -0.3436379 0.19959605 -0.034786742 -0.30901158 -0.54335535 -0.3029456 0.25995702 -0.0565129 -0.18969263 0.614325 -0.161429 0.22397125 0.19061376 -0.17435183 -0.09820126 -0.09379512 0.05575539 -0.122097544 0.19244158 -0.16448364 0.2918674 0.01678876 -0.46844143 0.7202238 0.07310907 0.28949264 -0.24193807 -0.056266364 -0.34404805 -0.010228809 -0.10110167 -0.300571 -0.44765922 0.20010526 -0.2970999 0.43690223 0.32813704 -0.14738178 -0.81060386 -0.9191423 0.07719808 0.36131558 0.14427768 -0.2281481 0.029460264 -0.2910616 -0.1627482 0.3244473 0.18490349 -0.13149117 -0.00849014 -0.3506865 0.03655401 0.04444572 -0.42109504 -0.27797976 -0.09094413 0.1992867 -0.05709628 -0.008700952 0.09104481 -0.1921111 -0.2519655 0.062844716 0.075494744 -0.09488666 -0.60060555 -0.45431834 0.19495852 0.10461468 -0.23366915 0.2142819 -0.2871881 -0.025505729
263 0.14468639 -0.027582346 -0.4444831 0.25570115 0.35809663 -0.10445908 0.148286 -0.2512462 -0.04271281 0.16561785 -0.22937477 0.10002629 -0.121035755 -0.2454952 0.47222033 -0.20617098 0.3554466 -0.43586397 -0.30768353 0.35929805 0.08616572 -0.20708187 0.5026837 0.42427793 0.50211084 0.36230284 -0.04320658 -0.38709018 -0.26628944 -0.02876151 0.25258097 -0.59954363 0.20438968 0.31190202 0.68050903 0.574408 0.257486 -0.03528547 -0.14398651 0.10815471 0.36282384 0.53680784 -0.15802328 0.9216362 -0.3705416 0.095799014 -0.40732577 -0.19092222 0.044220813 -0.048507698 -0.29064456 0.06689238 0.4212209 0.5081231 -0.3749109 -0.24589923 -0.45576844 0.010822027 -0.25126663 0.018268509 0.3302437 -0.459385 -0.44186026 0.10013608 0.29835665 0.42158607 0.18342412 -0.07922836 -0.85032696 0.009294399 -0.72736317 0.3701491 -0.021972902 0.08630476 0.2554105 0.23785965 0.09835626 0.6211389 0.45677778 0.096384436 0.07559939 -0.13184631 -0.44072333 0.17392851 0.3488789 -0.25212434 0.22329059 -0.447205 -0.16474986 0.07829985 0.19266936 0.2667342 -0.5838928 0.10421943 0.021232849 -0.113694206 -0.13627227 -0.44215056 0.18080698 -0.10638155 -0.3773005 0.30667445 0.32259625 -0.32396868 -0.27379626 -0.0130453855 0.18305185 0.64888436 0.39259562 0.35619128 0.13752262 -0.19451727 -0.004796461 -0.0045577004 0.2351399 -0.54236543 -0.08036566 0.18033013 -0.0663074 -0.03033431 0.15405068 0.22409198 0.38797593 0.0756716 0.5122662 0.08329108 -0.3594559 -0.42986667
313 -0.221366 0.3085717 -0.5415405 0.13521664 0.6197489 0.11165843 -0.3036507 0.32928008 0.40439653 0.7174685 -0.181499 0.3407195 0.09749099 -0.2838094 0.5448781 0.6479119 0.3290614 0.1782801 -0.15597677 -0.7125046 -0.0043661343 0.040452495 -0.26192406 0.3315137 -0.4679004 -0.049111437 0.22239771 0.16484314 -0.19793157 -0.13899994 0.35025203 0.030665087 0.5323118 -0.5271607 0.21228272 0.13661271 0.3716572 -0.044822372 -0.30315053 0.2984913 0.07751852 0.41248706 -0.47804117 0.8084605 -0.042690095 0.32766977 0.121630676 -0.19356728 0.06452078 -0.2999747 -0.09887434 0.20665888 -0.009214059 -0.1948701 -0.59652346 0.24077995 0.25102475 0.12964517 -0.022185456 -0.20185466 0.67885256 -0.06190436 -0.30886757 -0.13628705 0.17300761 0.3203321 -0.1455086 -0.26096618 0.24719828 0.46276656 -0.040564105 -0.14876784 0.08157223 0.41036734 -0.030558864 -0.28278872 0.2951128 -0.22566874 0.3247823 0.14441971 -0.48193377 0.025534334 0.15091878 0.03174133 -0.06356481 -0.20068549 0.35415995 -0.4104718 -0.4428453 -0.026430199 0.40423366 -0.20934463 -0.18543403 -0.11606859 -0.034347087 0.13916719 -0.29998872 -0.438134 -0.2618291 -0.07815662 -0.30207163 -0.39557394 -0.006027945 0.24147917 -0.17720988 0.17629446 0.04317696 -0.68812054 -0.012592249 0.4511841 0.5471119 -0.42409724 -0.23835851 0.54965794 0.11782003 0.18183596 -0.2531717 -0.6375595 0.14537226 -0.30977196 -0.1752389 0.008687145 0.19902511 -0.12883545 0.29200092 0.07081758 -0.3216875 -0.26003742
277 -0.54708356 -0.2652702 0.08941265 -0.16203162 -0.2535537 0.29689422 -0.75498056 0.12117609 0.3663293 -0.005392389 0.014865508 0.053079646 -0.2738463 -0.25964314 -0.59824675 -0.13385811 0.44472978 -0.09813548 0.064126626 0.19360965 -0.25143704 -0.0882681 -0.16502823 0.10976014 -0.121774375 -0.2646039 0.07805206 0.3274271 -0.51896113 -0.25077584 -0.2977907 0.19385314 -0.053653985 -0.64747304 0.5341561 -0.062810674 0.35406134 -0.2003873 -0.56951064 0.10401579 0.121960446 0.3232745 -0.048517708 0.18966426 -0.91279167 -0.13807309 -0.51360697 0.30961445 -0.05270986 0.3558999 -0.07828305 0.49615 -0.17901969 -0.17423333 -0.23655516 0.18726884 -0.09313221 -0.27507818 -0.5070037 -0.25526994 0.2856896 -0.09117762 -0.14562754 0.51211935 -0.07452738 0.2079915 0.17051329 -0.28676522 0.017198648 -0.15985277 0.09184515 -0.010248286 0.09328126 -0.19181079 0.26681322 0.013643355 -0.56607866 0.6780673 0.08735276 0.2517367 -0.17421462 0.027754957 -0.3526696 0.029545393 -0.12899083 -0.35484833 -0.33409882 0.17762728 -0.2634037 0.47649556 0.4475193 -0.14769585 -0.7050041 -0.89189696 0.06260631 0.18158823 0.022588015 -0.30473602 0.03570269 -0.26797128 -0.24051085 0.36022648 0.08536121 -0.26748604 0.122153796 -0.3777173 0.1160191 -0.0730256 -0.39180678 -0.21294178 0.002947969 0.23128617 -0.14972536 -0.0019704492 0.18139675 -0.2586068 -0.047048837 0.03014006 0.26516435 -0.16211942 -0.6080509 -0.36656758 0.33400276 0.06331937 -0.16207418 0.19995198 -0.29165184 -0.052975226
148 0.184302 -0.081354514 -0.15688851 0.0044735433 0.06805556 0.072526015 -0.030851707 -0.26225755 -0.06420348 0.63038933 -0.123459354 -0.12760197 -0.30584186 -0.10518195 0.3607616 0.40455985 -0.019263081 -0.31823066 -0.07238877 0.6364521 0.38223198 -0.16397794 0.23681985 0.1785515 -0.064126715 -0.0058559505 0.2375349 0.31251547 0.09513532 -0.27233207 -0.10324927 0.69389653 0.22842875 -0.37151822 0.1119744 -0.07952229 0.11213308 0.018511305 -0.37199423 -0.018494707 0.061287 0.2889556 0.2641624 -0.26744458 0.031033002 -0.5191744 0.16431732 0.171463 0.0581854 -0.7361443 -0.12865514 0.060733434 0.21998928 0.121528395 0.3452381 0.07091069 -0.021886272 0.11213707 -0.03221623 0.23252265 -0.058191065 -0.051111933 0.0068018655 -0.23231377 -0.11080831 -0.15435722 0.046239734 -0.07985045 -0.15225676 0.073829815 0.1354637 -0.28232524 0.3967834 -0.08919033 -0.28350776 0.14334336 -0.073609896 0.2630201 0.35804307 0.59773487 0.106964834 0.07875773 -0.4240922 0.35583973 0.10491582 -0.06234736 -0.6021595 -0.0039273826 0.08007974 -0.25172886 -0.18257998 -0.032171 -0.19500525 -0.07409382 0.19100697 0.0120976865 0.48240227 -0.4260778 -0.19444416 -0.025002765 -0.5128404 0.40106076 0.3636453 -0.07098992 -0.27813724 -0.6423869 0.03591576 -0.05486079 -0.06972087 0.20593472 0.4835749 -0.6981941 0.04917504 -0.16111334 -0.119243085 -0.4670759 0.14315648 -0.059239138 -0.38380477 -0.5553709 -0.57153296 0.03475069 0.20050137 0.03392638 0.3828335 0.08310706 -0.027139448 -0.6335841
421 -0.0142702805 0.07488691 -0.15423068 0.72804195 0.6905666 0.35051313 -0.39012116 -0.12088221 0.12989569 0.065514736 0.02658932 0.21918292 -0.17032002 0.34905773 0.49442327 0.3038497 -0.10026705 -0.15253417 -0.29998133 -0.306123 -0.4830557 -0.30213577 0.36139256 -0.010576768 -0.023590377 0.12506802 0.56906086 -0.073944926 -0.2711654 -0.025119849 -0.5105633 0.22707519 0.38227096 -0.36418968 0.65450215 -0.16425398 -0.0050494284 0.27248028 -0.06200003 0.02761841 -0.39456305 -0.2080176 0.4451131 0.44168228 -0.12399798 -0.19705352 0.09912067 0.2002078 0.10854674 -0.3568658 -0.6490933 0.03881885 -0.587263 0.054169618 -0.19055152 0.3185683 0.38930076 -0.48225257 -0.020641891 -0.3637512 0.36632636 0.01810379 0.14765437 0.17690359 -0.27273104 -0.16396126 -0.13176253 0.0075572655 -0.08675068 0.42332795 0.16679429 0.08527259 -0.010064408 0.24887511 -0.124327056 -0.07336247 -0.24284028 0.40565482 0.35025954 0.07494786 0.15357675 -0.036475454 0.07422386 -0.48289448 -0.13223338 0.027760627 0.013990368 -0.14120913 -0.09750268 -0.029636543 0.35429892 0.48793274 -0.04348625 -0.03529444 0.5786959 0.27916384 0.4566235 -0.4287496 0.44892803 0.14489992 0.33995625 -0.027922148 -0.062354155 0.009004062 -0.20863739 -0.37148276 0.7100506 0.13055272 0.026970427 0.4553679 -0.07721591 0.09082331 -0.7805819 -0.16267082 0.12654646 -0.45073915 -0.17238209 -0.6162627 0.06477934 -0.72419274 0.40049773 0.2946587 0.32505462 -0.21706936 -0.16838565 -0.5646886 0.04743175 -0.05525247
179 -0.027764661 0.0009149836 -0.16308853 0.6369556 0.44164166 0.18884872 -0.07996629 0.024033213 0.21317765 0.049613804 0.0435964 0.09887622 -0.20556058 0.40120435 0.48945004 0.20125942 -0.2571566 -0.29605523 -0.2683834 -0.2581589 -0.23605637 -0.24386656 0.25739732 0.030501356 0.21957774 0.17416918 0.79913074 -0.12086886 -0.21540098 -0.18796848 -0.5159207 0.6304437 0.41214424 -0.47066852 0.43388963 -0.3343327 -0.017900879 0.14407928 -0.036079653 -0.051073093 -0.36837962 -0.08301472 0.1855236 0.38832262 0.23733786 -0.20222622 0.04751691 0.18255167 0.02210439 -0.040147156 -0.6463037 -0.21406488 -0.5491431 0.08226451 -0.28064194 0.039805967 0.32717305 -0.18677033 0.057377566 -0.19238184 0.19293322 -0.015115942 0.11081043 -0.019209335 -0.21888192 -0.013600997 0.20092797 0.083881855 0.079521134 0.43989816 -0.0064662504 0.15176357 0.21617272 0.19254853 0.004320313 -0.105130605 -0.007281042 0.63554734 0.30975917 0.071305215 0.07841939 0.14730904 -0.33990932 -0.4701219 -0.21648633 -0.062373407 -0.15488271 -0.00909335 0.0873401 0.26899722 0.57349914 0.41226706 -0.15488765 -0.14630753 0.54614013 0.0920569 0.32880783 -0.40968767 0.37258375 0.17663628 0.36417988 0.044720512 -0.09302023 -0.07412529 0.029699631 -0.26980996 0.46973148 0.08789153 0.073992915 0.28250656 0.09209814 0.09707082 -0.46228987 -0.18990779 0.19381396 -0.46111867 -0.09678602 -0.24442472 0.20475908 -0.58257693 0.28492904 -0.06266732 0.23605523 -0.12590602 -0.05752858 -0.51025194 -0.12406858 -0.052045524
432 -0.17312185 0.09549765 0.36277434 0.40607837 -0.16252717 -0.24394791 -0.7023957 0.26711303 0.39602062 0.38202348 -0.33320472 -0.6056989 -0.5081464 -0.47465894 0.35478514 -0.1641822 0.2991763 -0.10583305 -0.47194475 -0.30661842 -0.43020487 -0.1914073 0.61146 -0.16259363 -0.3860322 -0.67065 -0.2614507 0.12830752 -0.43719128 -0.7467161 0.54439884 -0.33567944 -0.1802685 -0.7889051 0.21008588 -0.05084828 -0.028326655 0.20423776 -0.2135255 0.30903172 -0.14668351 -0.01998584 -0.25715214 0.36605084 0.6149742 0.24168828 -0.26536757 0.11896259 -0.59069216 -0.33856377 0.118249565 0.42993227 -0.38591138 0.42605108 -0.48090684 0.19646198 -0.92901146 0.09410419 -0.0017272092 0.5657392 0.24780242 0.042793248 -0.15235116 -0.013686892 0.1714177 -0.97863126 0.21659048 -0.15520053 -0.017724281 0.5298499 -0.078302436 0.28885925 -0.2013598 -0.14325152 0.019581765 0.28265318 0.20795137 0.2615359 0.37387207 -0.031609267 0.27050942 0.13479783 -0.09273188 0.50217533 -0.033042967 0.22743215 -0.40761274 -0.39383668 0.76507074 -0.30037642 0.57180697 0.14831482 -0.15946467 -0.06853689 0.45117453 0.3733076 0.018100895 -0.05111724 -0.16796957 -0.11915059 -0.33604497 0.12062067 -0.226539 -0.09862962 0.11820699 0.18014394 -0.1689547 -0.42368144 -0.1396136 -0.09090948 0.40178365 -0.16067693 0.19323549 -0.53474194 0.30704427 -0.36116776 -0.17669562 0.08767138 0.44109273 -0.6957709 0.38826844 0.6342509 0.71795255 -0.09904572 -0.36055106 -0.3199601 0.115486786 -0.34599704
283 0.04601529 -0.37169674 -0.230497 -0.37155995 -0.16522613 -0.25208256 -0.09267051 0.87563354 0.3927427 0.18030305 0.09045971 -0.27432278 -0.014789278 0.10297954 0.61826754 -0.058204684 0.1959893 -0.048694436 -0.31639135 0.7072442 -0.044739332 -0.08978842 0.09395959 -0.102292106 0.12631692 -0.19244695 -0.03312562 0.18060209 -0.008289295 0.049132343 -0.0677987 0.4312508 0.43543506 -0.48065624 0.46482617 -0.21939194 -0.51308626 -0.06251987 -0.19861278 -0.057885997 -0.57849616 0.66167605 -0.34386194 0.0021447088 -0.4970365 -0.24249223 0.06385459 0.1432774 0.31263414 -0.04342656 -0.4398967 0.19773948 0.0914169 0.44831285 -0.27435896 0.025892649 0.02294375 -0.2841653 0.01509521 -0.14086947 0.45818666 -0.03837979 -0.09765315 -0.09335661 0.129452 0.20597939 0.12127548 -0.35201243 0.11147957 0.3904812 0.13139407 -0.0646003 -0.13574962 -0.22936796 0.30737892 0.2768887 0.10104762 0.35649362 -0.6516731 -0.22965075 0.42120218 -0.30401614 0.26553884 -0.013332669 0.6383556 -0.13568872 -0.23395348 -0.11554081 -0.15514694 0.24031761 0.32096663 -0.2740344 -0.05286093 -0.041570697 -0.15348671 0.34300628 0.10890594 -0.38658673 -0.03378964 -0.31685498 -0.3643527 -0.04414907 0.3973803 0.11365907 0.10409014 -0.42694584 0.05163217 0.38547924 0.37461558 -0.56592524 0.2679802 0.024714211 -0.3419898 -0.2113717 0.1140157 -0.177518 -0.05910146 -0.46210122 0.36324513 -0.48303968 -0.25710928 -0.3604056 0.66006434 -0.18327092 0.33487022 0.23895527 -0.11956631 0.040498227
162 0.10853729 -0.4004111 0.2246782 -0.041605495 0.27775273 -0.1559697 -0.40570444 0.6071368 0.25931463 0.45835072 0.035980955 -0.1264524 0.13509585 -0.27338982 0.04008878 0.026533319 -0.27576247 -0.3699735 -0.30066603 -0.45198455 0.05911442 -0.20505963 0.37348786 0.61211056 -0.2530749 -0.610065 -0.3051119 0.4245545 -0.06586806 -0.6372288 0.4403472 -0.35615203 -0.3308892 -0.40095648 -0.019447021 -0.086055696 0.044331174 -0.001751581 -0.5779996 -0.15682724 0.17466483 -0.035694294 0.048625637 -0.20512794 0.17007278 -0.19497028 -0.087456904 -0.37706512 0.17002706 0.099301726 0.11158889 0.08946025 -0.15849382 0.344881 -0.027513763 -0.008706697 -0.39515236 -0.4076654 -0.11263115 0.10060123 0.49831632 0.14593329 0.03851431 0.086741984 0.11838143 -0.146373 -0.17363398 0.17861946 -0.23497735 -0.11346798 -0.57136595 -0.06299422 0.16854914 0.28324783 0.28480175 0.02479113 -0.13874608 -0.029002562 -0.15452075 0.16509148 0.044974532 0.01253482 -0.43517107 0.49269053 0.04125616 -0.13714622 -0.0005443232 0.050244782 -0.21446688 -0.21732318 -0.14744426 0.09564143 -0.2989328 0.09616565 -0.30586094 0.31228897 0.28298 -0.20479119 0.1961592 -0.29453143 0.22874498 -0.048603367 0.09609856 -0.2443831 0.020452248 -0.11637507 0.39642695 0.25956035 -0.18685196 0.3150373 0.42447242 -0.026316104 -0.024415126 -0.046604186 -0.32969776 0.11605335 0.42704278 -0.13409317 -0.085273094 -0.45979622 0.07078322 -0.15070046 0.17165777 -0.39362133 0.1492079 0.06884858 0.09693822 -0.50868857
157 0.22362521 0.20040132 -0.082290106 0.24612008 -0.20786345 0.2761164 0.0023556151 0.48620874 0.07363005 0.32809263 0.28446263 0.0076985983 -0.0075931605 0.16758044 -0.14114456 0.10213776 0.157619 0.06906211 -0.20220912 0.08221968 -0.31428814 -0.70663035 0.064173624 0.22844261 -0.6711172 -0.52849317 0.04872262 0.03846634 -0.31848451 -0.43461215 0.44192314 0.0695955 0.28899428 -0.13285337 0.20439664 -0.0044023767 0.06557135 -0.33719158 -0.22120214 0.46331146 0.57560986 0.04479629 0.10866896 -0.17242713 0.07358284 0.15980527 -0.4618598 -0.054668214 0.036410753 0.14738517 0.28952742 -0.43106684 -0.101129144 -0.27518478 -0.18990609 0.1902878 0.09878593 -0.09613374 -0.052107837 -0.19487125 -0.064015895 -0.79872054 -0.054962475 0.20232634 -0.14647071 -0.0004345733 0.09592658 -0.32290742 0.4631527 0.33055001 -0.31336072 -0.24319057 0.05950167 0.5202322 0.38128316 0.30359846 -0.23175628 0.39203128 0.05106169 -0.16039002 0.58779186 0.37591308 -0.23786378 -0.323442 0.13401435 0.108718134 -0.032846253 0.1562512 0.07348891 0.07449033 0.31791323 0.12785387 -0.37891 0.016452018 0.34488297 -0.13555191 0.37221625 -0.39141396 -0.2354719 -0.2650432 -0.5227605 0.11713378 -0.1250106 0.018941594 -0.050472494 -0.39204842 0.08748455 0.08283043 0.7635565 0.3058763 0.114059836 0.006327053 0.28932682 0.12722105 -0.044798885 -0.6797657 -0.09568698 -0.43476555 -0.47280103 0.08451422 -0.36178288 0.12438566 0.5697162 -0.120942615 0.25921836 0.32133615 -0.54138345 -0.012727146
281 0.18959841 -0.29569533 -0.5467579 -0.4646607 0.44630444 -0.17070459 -0.62410533 0.16729246 0.643757 0.47357768 -0.64369935 0.10178205 -0.33965188 -0.2907779 0.00606332 0.6576761 0.40202698 0.10517982 -0.06337771 0.5272476 0.4778572 -0.20534042 -0.2632743 -0.1243171 -0.05267381 -0.054878253 0.39019388 0.2926898 0.24116354 0.05982777 0.60187715 0.04730867 -0.15938875 -0.48328984 -0.06902003 0.23317386 0.028244073 0.19567348 0.1494688 -0.44190973 -0.6624801 0.09014541 -0.14756043 0.042066246 -0.19455367 -0.089383125 0.25119567 0.17652306 0.023804966 -0.3457355 -0.23510852 0.2608263 0.31031573 0.08213281 -0.10098739 -0.22390674 0.13330266 -0.034785297 0.1734127 -0.039784994 0.324018 -0.35518986 0.11680297 -0.23112828 -0.13537464 -0.31203324 -0.08082047 -0.40918478 -0.152095 0.22443473 -0.29049838 -0.18607458 0.18205565 0.38436514 0.165984 0.2875513 -0.53755265 0.3476066 0.34368575 0.07128896 0.13289256 0.15352686 -0.47300246 0.5316465 -0.40473548 0.21751809 -0.32334504 -0.16444847 0.2523855 -0.39290893 -0.099317074 -0.19532804 0.199605 0.1008892 0.017843623 0.34846014 0.77666247 -0.26765606 0.1597785 0.34562513 -0.42049876 0.08119367 0.49454552 -0.30933696 -0.2320868 -0.6728554 0.0565124 0.07685558 0.14812982 0.29864767 0.055511776 -0.17981066 0.046061996 -0.21233563 -0.01257714 0.08625585 -0.20394182 -0.029558115 -0.06412272 -0.6987171 -0.25402302 0.20746544 0.42218035 0.009792457 -0.03033925 -0.019167867 0.0021261321 -0.60710156
174 -0.38599962 -0.47113237 -0.01694854 -0.14007789 -0.10883799 0.3940719 -0.80340165 0.12407122 0.48279917 0.00029290927 -0.011272326 -0.012487314 -0.31360132 -0.383823 -0.4977209 -0.18422349 0.4877694 -0.0695443 0.09461739 0.13689528 -0.3463663 -0.15610991 -0.3625238 0.16748475 -0.01872467 -0.19387898 0.05434457 0.30518118 -0.6757953 -0.2479665 -0.31738523 0.2514665 -0.11545154 -0.58740735 0.3882601 0.017953647 0.3505646 -0.3188962 -0.49453455 0.08157138 0.1865196 0.25094095 0.13643607 0.072089106 -0.84928393 -0.015932199 -0.44594753 0.33562085 -0.10823453 0.32368606 0.009634565 0.476539 -0.024769926 -0.17534235 -0.3804928 0.11896669 -0.02445531 -0.30417788 -0.53207386 -0.23322797 0.232923 -0.061121605 -0.18372786 0.7336433 -0.084181175 0.2125996 0.24154818 -0.27650282 -0.0177262 -0.06211564 0.21940623 -0.10335659 0.14524338 -0.12953882 0.26628616 0.06076346 -0.5458819 0.67091644 0.09293441 0.21983872 -0.33656743 0.018828742 -0.34214336 0.011826887 -0.02910155 -0.31134295 -0.4002105 0.15451208 -0.30190864 0.29820472 0.40063345 -0.11081514 -0.73499334 -0.9084132 0.109579846 0.36960548 0.07874452 -0.369354 0.0806561 -0.15712534 -0.11367701 0.38316363 0.15780015 -0.041432593 -0.014142388 -0.31258628 0.06844675 0.022597974 -0.3364735 -0.18831925 -0.09609677 0.23227742 -0.118239574 -0.03787713 0.15548803 -0.26897097 -0.23729452 -0.045415152 0.115475826 -0.136137 -0.44403854 -0.4672606 0.3170412 -0.03210731 -0.25283068 0.33862656 -0.43637708 -0.07671277
439 0.14628653 -0.06841647 -0.24340476 0.6566586 0.6661417 0.3979508 -0.27373284 -0.22078207 0.2342286 0.21380785 0.0069819386 0.33729112 -0.23811927 0.38413596 0.46245283 0.22256108 -0.21153775 -0.10161266 -0.42249724 -0.33749488 -0.33748913 -0.25469145 0.21239738 0.10803919 -0.096755385 0.105123386 0.5111985 0.046144016 -0.35077882 -0.19530374 -0.44758323 0.24081293 0.34333703 -0.4009953 0.56718785 0.015289797 -0.043238416 0.31209338 -0.03007238 -0.018942151 -0.25662923 -0.2189391 0.49134022 0.28461543 -0.10593402 -0.27998668 -0.024230143 0.3362298 0.06990596 -0.24186817 -0.6164352 0.06250062 -0.4914238 -0.05087757 -0.17197083 0.17753614 0.4314718 -0.40079296 -0.0728269 -0.2870085 0.34638235 0.067895934 0.16890688 0.15253624 -0.19140223 -0.15481456 -0.15959735 0.08405914 -0.15487848 0.34536126 0.23887789 0.0748546 0.023279997 0.33906013 -0.15467337 -0.023581116 -0.2959916 0.37464458 0.29543215 -0.043526255 0.077135235 -0.09872608 -0.15436551 -0.4585913 -0.11497523 0.05161679 -0.081435576 -0.20875587 -0.09289497 0.04702238 0.35005474 0.5800183 -0.10431943 -0.0043971534 0.685962 0.46160826 0.42918777 -0.32005692 0.5678095 0.2340082 0.31986526 -0.08313169 -0.1050701 0.13657345 -0.24202707 -0.26736236 0.7322926 0.15421303 0.09500401 0.6054004 0.00044411718 0.20850417 -0.8564784 -0.13525826 0.04916887 -0.4439557 -0.16931604 -0.5781733 0.0138805015 -0.71209455 0.47507155 0.39911917 0.37994808 -0.2690569 -0.12148139 -0.5930179 0.07334331 -0.10310072
175 -0.03088114 -0.38405317 0.3919655 -0.041070357 0.18191466 -0.15075342 -0.15539652 0.3692546 0.326835 0.18662019 -0.00591495 0.2566598 0.13316159 -0.10619473 -0.23954405 0.5674059 -0.11071815 -0.45681676 -0.36390302 0.1195888 0.04539927 -0.119566105 0.5496976 0.30928475 0.4061497 -0.2137751 0.101935975 0.02753545 -0.059202123 -0.11415116 -0.03380771 0.28288645 0.3178137 -0.35506183 0.14921238 0.5167213 0.6802867 -0.5450538 -0.06028751 0.4320717 0.70028406 0.14446956 -0.06909745 0.26139867 -0.14189698 0.11212112 -0.16437009 0.002897567 0.30813158 -0.53045094 -0.17123997 -0.3196285 0.043718915 -0.1253728 -0.2566183 -0.024664184 -0.11966891 0.54796195 0.38438112 -0.07392642 0.4570045 -0.02359732 0.2561518 0.24236141 -0.13799353 0.19878173 -0.0069852145 0.06517579 -0.28713697 0.2762912 -0.11564376 -0.1632479 0.09651894 0.1272449 -0.25090197 0.027335193 -0.4982784 0.29646167 0.10210193 0.10276884 0.27215293 0.027591027 0.28326687 0.36157885 -0.27806342 0.08546776 0.01778259 -0.027420247 0.39576045 0.16884358 0.55552477 0.07537489 -0.401418 -0.65548116 0.0035432386 0.12368315 0.16226827 0.056295376 -0.08911423 0.018244717 0.15865543 -0.2751488 0.62640804 -0.15908659 -0.92524904 -0.25911915 0.20170458 0.18124513 -0.19156711 0.16687222 0.019996248 -0.067927055 -0.53309953 -0.18776764 -0.07897672 -0.22637235 0.08955328 -0.30132866 0.31683305 -0.10224888 0.10348062 0.23886926 -0.22600447 -0.26370996 0.1389773 0.3064873 -0.4221604 0.18534912
410 -0.02271222 -0.054951064 -0.21175694 0.7045526 0.49147433 0.3457788 -0.18858579 -0.20688182 0.13390876 0.0081464 -0.022403989 0.11489819 -0.17125885 0.31843662 0.54881275 0.17600296 -0.15162893 0.030929254 -0.40375277 -0.21870828 -0.36051697 -0.25781572 0.23731858 -0.114175364 -0.23287363 0.13083649 0.45867807 0.11105359 -0.2651173 -0.23603871 -0.4210305 0.17872047 0.29466933 -0.3472958 0.5852267 -0.039465677 0.07491381 0.2853759 0.18168342 -0.1572792 -0.4033512 -0.27190772 0.32519025 0.4797882 -0.21918017 -0.18337062 0.25699064 0.29571682 -0.02342324 -0.40295234 -0.5904731 0.0047813146 -0.45729187 -0.04810144 -0.17302053 0.20234759 0.63727987 -0.33891234 0.12015037 -0.63142264 0.23001392 0.075284764 0.17997253 0.14179403 -0.3227494 -0.12268433 -0.036131784 -0.052824304 -0.29918644 0.28170475 0.10765567 0.18000609 -0.08800318 0.3458965 -0.14076988 -0.15856908 -0.31497943 0.53964806 0.24158639 0.060135733 0.16996565 0.055228684 -0.13509633 -0.44015655 -0.1523546 0.21233998 0.01743763 -0.25581855 -0.11523702 0.11686951 0.38395053 0.5127123 -0.09360559 -0.1820261 0.6146182 0.30866593 0.37625688 -0.415008 0.48854524 0.058829144 0.43943238 -0.17021713 -0.056979515 -0.034617897 -0.3265662 -0.39131021 0.81937414 0.2824653 0.14281821 0.6064194 -0.04549015 -0.043340385 -0.75766224 -0.1456798 0.0965993 -0.40507197 -0.33093193 -0.49771467 0.08326718 -0.6535924 0.40028653 0.19217171 0.3390473 -0.27857435 0.036661007 -0.62881476 0.32810456 -0.15314451
239 -0.31100717 0.052794214 -0.37792975 -0.13735035 0.39577028 -0.4742336 0.207358 -0.020493373 -0.28334385 0.75915736 -0.040119905 -0.82510114 0.27559608 -0.6711158 0.23303927 0.24906148 0.4854361 -0.11046812 0.4332925 -0.62999153 0.21803495 -0.34171513 0.03085953 -0.07052869 -0.6780053 0.050954595 -0.015803423 0.4353566 -0.062612005 -0.38314438 0.060651 0.3567128 0.54918 -0.74098545 -0.18903378 -0.20531826 -0.11609239 -0.221007 -0.108980164 0.29265013 -0.21166167 0.2830095 0.42787635 0.28076205 0.2660716 -0.146934 -0.28368512 0.39349127 -0.21308717 -0.031058377 -0.075255066 -0.28218585 -0.30507538 -0.12933111 -0.6098198 -0.6388948 0.02015726 -0.12533541 0.10768926 -0.03689361 0.37297967 -0.60822815 0.28728658 0.20521636 -0.11419179 0.05168303 -0.17724903 -0.1320251 -0.12704355 0.10588607 -0.6667664 0.42018533 0.25418335 -0.111313745 -0.014671029 0.08921114 0.017225457 0.4696744 0.5233844 -0.045764815 0.7070761 -0.24707115 0.05769246 -0.31686035 0.1767395 0.1024919 -0.056761574 0.23928677 0.13599552 -0.04508844 0.037287693 -0.19162968 -0.5978763 0.0615787 -0.014436517 0.22072479 0.48707172 -0.6005299 0.037191167 0.10238478 0.21690862 0.1279527 -0.076138005 -0.18796764 -0.18725233 -0.33162636 0.030700352 -0.15564969 0.11685522 0.14122963 0.3572696 0.093381755 -0.09349417 0.44592905 0.28240588 0.2672802 -0.55741173 0.20459014 0.33228865 -0.3992519 -0.04292373 -0.29936185 -0.079921775 0.06277773 0.10261672 -0.37116286 -0.3557087 0.37276366
155 -0.9147255 -0.39021805 -0.25697565 -0.2679857 0.4020982 0.092946745 -0.29460937 0.16960256 0.20146684 0.039267726 -0.11155114 0.103690974 -0.38101026 -0.39057994 0.16551869 -0.04257332 0.20187502 -0.56188786 -0.683828 -0.1742604 -0.5458424 -0.41214085 0.41631052 0.11652416 -0.6292862 -0.21060649 0.1266427 -0.17551714 -0.51707333 -0.49912673 -0.08233793 0.3708449 0.18118347 -0.48469374 -0.15735625 0.09591889 0.17921199 -0.63402355 -0.001606408 -0.15228227 0.25763348 0.45394048 -0.100283116 0.025998913 -0.2788992 0.26089135 -0.13790609 0.34201548 0.1835778 0.1503814 -0.055899456 -0.037780486 0.12642142 0.37904555 -0.22223489 0.23915626 -0.15198341 0.07417709 -0.61589843 -0.638699 0.15438384 0.15060148 -0.8016862 -0.22236744 -0.496005 0.19539401 0.0060941647 -0.594581 0.112127565 0.16694985 -0.062174533 -0.56081736 -0.072927095 -0.012788899 -0.35808653 0.5611008 -0.38575718 0.70074314 -0.0809335 -0.291616 0.34007564 -0.38796476 -0.09801184 0.27040103 0.027598107 -0.043268256 -0.3677685 -0.1743144 -0.38643008 0.44043362 0.48482007 0.02975903 -0.86017054 -0.5709181 -0.031563964 0.15582286 0.29733223 -0.47208714 -0.075773284 0.12714839 -0.33077505 0.0022270042 -0.48031968 0.15451656 0.4172756 -0.3310554 0.7686114 -0.43633235 -0.10918312 -0.25981572 -0.029208634 -0.43948114 0.11924904 0.31419367 -0.37679455 0.0727758 -0.5611794 0.10228089 0.08430726 0.2127962 -0.3247755 0.10199443 0.042451326 0.28133965 0.04775581 0.12251134 0.07274875 0.05414729
222 -0.08369913 -0.24398446 -0.13020569 0.6647451 0.58299947 0.43675932 -0.37032977 0.16753076 0.361713 0.30157778 0.109969385 -0.07645225 -0.05871744 0.22742952 0.565696 0.14937778 -0.21285002 -0.27865508 -0.35770458 -0.18716343 -0.3827957 -0.18804377 0.24623623 -0.0482525 0.036360398 0.10911483 0.75132823 0.114961095 -0.28181306 -0.18923832 -0.38061386 0.46039057 0.29905763 -0.28412795 0.47394642 -0.15256372 0.08174899 0.29564807 0.11140792 -0.22553469 -0.2998046 -0.088444725 0.4505746 0.36275932 0.0199722 -0.16069527 0.119511336 0.14492775 0.18557113 -0.13617234 -0.40740782 -0.1972586 -0.49454466 0.06182591 -0.15084378 -0.12181405 0.30920437 -0.13664427 0.020369995 -0.26735628 0.29529402 -0.040037837 0.2983607 0.0092765195 -0.20666689 -0.047456544 -0.04628788 0.0952444 -0.047214415 0.30292368 -0.015167313 -0.017870089 0.026221141 0.26089138 -0.035817713 0.04550684 0.026113695 0.4958879 0.14715725 0.018582411 -0.033360474 -0.086214915 -0.27898768 -0.2926085 -0.037287354 0.039263826 -0.16087207 -0.13171403 0.004706405 0.0669322 0.6315578 0.30138978 -0.033986166 0.047096197 0.72344565 0.121092685 0.24081048 -0.39972776 0.38759512 0.21374731 0.4933122 0.068404205 -0.05929345 -0.18652429 -0.15079647 -0.22259864 0.34560728 0.074787416 0.07769563 0.33280894 0.024442231 0.11049452 -0.38677183 -0.19494875 0.03792865 -0.38412198 -0.10952448 -0.14849494 0.107756294 -0.6692705 0.396234 -0.024034012 0.45022783 -0.18636669 -0.23701516 -0.54986525 -0.182081 0.19108391
14 -0.03506495 -0.20642339 -0.13083272 -0.2080107 0.47825027 -0.0037486746 -0.39141375 0.49621904 0.62449604 0.38709614 -1.0260832 0.26034933 -0.26228 -0.3359026 -0.16206296 0.47676134 0.58103305 0.17833427 -0.45858604 0.47881618 0.006303258 0.096717045 -0.08798486 0.06588653 -0.019172389 -0.0009298647 0.3682227 0.24077803 0.3668138 0.09967747 0.51121867 0.2193263 -0.038335897 -0.62184566 -0.018856047 -0.21987225 -0.24693151 -0.06277171 -0.01973294 -0.22045465 -0.13789977 0.047640435 0.025582638 0.3988912 0.0013893186 0.2852741 0.061494082 0.15906678 -0.3194527 -0.43090203 -0.38817003 0.1826345 0.43508875 0.4035146 -0.20582996 -0.47643867 -0.41256392 0.17678782 -0.17402552 -0.027231507 -0.1519849 -0.34669656 0.09052409 -0.29545614 -0.42858648 -0.12779866 0.110995404 -0.37068495 -0.09731098 0.10664445 -0.2667091 0.3246312 -0.04937808 0.18464816 0.16438138 0.6210699 0.19857177 0.10156949 0.10993512 -0.20163026 0.02054639 0.12880221 -0.5098094 0.8238824 -0.098187156 -0.09823749 -0.38048878 0.0892464 0.2084449 -0.05900203 0.09784111 -0.039413135 0.15023276 -0.09955957 0.14490531 0.2267851 0.38654327 0.20741922 0.30095083 0.19052155 -0.3844105 0.0016353003 0.0918392 -0.60417277 0.0096105635 -0.45318902 -0.10220661 -0.27906016 0.26979387 0.24792597 -0.1111772 -0.50453657 -0.12934794 -0.20514439 0.1703745 -0.095206164 0.16997612 0.052989166 0.12988488 -0.39596105 -0.017712839 -0.020390434 0.49398735 0.008836486 -0.29057267 -0.2496494 -0.17979383 -0.34940594
280 0.07905708 -0.43067402 -0.25314486 -0.21673907 -0.14739126 -0.18875997 0.052340157 0.75147307 0.17783307 0.63949126 0.22976881 -0.41157228 0.15956493 0.097233884 0.3719183 -0.02539442 0.15015793 -0.16809334 -0.37325937 0.69206023 -0.2097219 -0.24384904 0.21242861 -0.07533399 0.088314705 -0.31328553 -0.02239863 0.33669928 -0.11576096 -0.074627936 0.015089267 0.5627347 0.20416296 -0.4275908 0.37381706 -0.0815843 -0.41915444 -0.07611506 -0.1358262 0.10434116 -0.6968578 0.39319134 -0.4166366 -0.073620245 -0.509065 -0.18189725 0.126288 0.06892695 0.22099389 -0.10354821 -0.3171267 0.24568032 0.23418233 0.46091425 -0.13791196 0.011794021 0.107889615 -0.28605226 -0.07581635 -0.16636308 0.6409277 0.014226534 -0.067704044 -0.010456908 0.23672976 0.119718604 0.05454087 -0.44713542 0.10672671 0.26951483 0.20195366 0.01665354 -0.25204918 -0.20275053 0.42223114 0.2564575 0.1504047 0.25467247 -0.68699723 -0.17825387 0.40571854 -0.40620726 0.18959084 -0.173614 0.70669526 -0.2018995 -0.17561907 -0.24514124 -0.22081558 0.101853274 0.5094957 -0.1682623 0.016552534 0.10216473 -0.08933973 0.3130541 0.12637395 -0.31950358 -0.051191874 -0.2737224 -0.46179456 0.07970772 0.52392375 0.053173847 0.0080389185 -0.53440267 0.12702571 0.42110124 0.441859 -0.4561286 0.29923242 -0.0066206288 -0.39400968 -0.22011825 0.08225042 -0.09343382 -0.03340316 -0.40813604 0.35179737 -0.56334865 -0.17719117 -0.31642044 0.7536046 -0.20208803 0.17532074 0.0899508 -0.15884438 0.07603822
288 0.35506016 0.038045753 0.22010773 0.13234816 0.12410553 0.2820668 0.1259813 -0.19370991 -0.07696508 0.6012154 -0.1745618 -0.04645097 -0.5060856 -0.0017155649 0.21162228 0.23907182 -0.18766102 -0.28416526 0.28389108 0.8486119 0.5745158 -0.45410737 0.05609909 0.25332275 0.00036990477 -0.11055433 0.26469103 0.2933489 -0.049976025 -0.07678338 -0.299048 0.47940764 0.29129088 -0.63992774 -0.044321187 -0.21586412 0.25808978 0.17969054 -0.43353862 0.27876976 0.20223553 0.56282145 0.4237456 -0.21337761 0.051710453 -0.28747424 0.29399666 0.26775458 -0.09728908 -0.72583383 -0.22132298 -0.30576319 0.30972758 0.15317303 0.06594411 -0.050060406 0.1265516 0.26081535 0.004258382 0.13277932 -0.0555283 -0.26838356 0.207174 -0.072786935 -0.100347646 -0.31463394 0.009137067 -0.30246457 -0.3609387 0.048479456 0.2274258 -0.26867452 0.64725965 -0.2298001 -0.0753614 -0.21145539 -0.0648668 0.5195795 0.36608738 0.3106765 0.24679859 0.2040331 -0.5231841 0.41626126 0.3121224 0.22069968 -0.6353925 -0.07164649 0.2984234 0.11415132 -0.36168993 0.18808292 -0.10479013 -0.116252325 0.071585834 0.043305423 0.44679064 -0.4613857 -0.14043397 0.16398591 -0.26121 0.46955374 0.37713358 -0.17711401 -0.028562834 -0.49956274 0.1510324 -0.005832629 0.11418874 0.062118217 0.30078366 -0.7822625 0.16453987 -0.32627225 -0.05747111 -0.4354018 0.41704652 -0.028141934 -0.46444523 -0.90927047 -0.04672872 0.051381517 0.48797306 -0.13976419 0.11804086 0.3249232 -0.1603302 -0.77481556
125 0.35594168 0.22697632 -0.03811802 0.35588747 0.119642936 -0.43494254 -0.009271981 0.08125373 0.8019668 0.14643018 0.15060425 0.28181094 0.25362188 0.16014895 -0.04516365 -0.04955901 0.8665838 -0.09063063 -0.16392677 0.19184336 0.06645646 -0.5320212 0.40082294 0.16623338 0.076312035 -0.01007525 -0.0041695163 0.07221338 -0.6233883 -0.53089184 0.38564157 0.060457878 0.5089549 -0.39181954 0.46231508 -0.15045983 0.072207235 -0.14036275 -0.1335861 -0.1067419 -0.08403443 -0.03644806 -0.09591845 0.04707844 0.038931634 0.0098603815 -0.19815159 0.53921634 -0.37071648 -0.256473 -0.21407092 0.10470968 -0.59280634 -0.116385676 -0.42951357 -0.080309644 0.29252037 -0.17736973 0.5164978 0.27007124 0.49181908 0.097752884 -0.1598513 0.75550425 0.29543367 -0.13093315 -0.07418684 -0.58415663 -0.18507767 0.13262941 -0.058366813 0.082270496 -0.3900162 0.026400551 0.095363036 0.285394 0.0075996495 0.5697688 -0.05952578 0.13829044 -0.65625274 -0.06035103 -0.27351788 0.82765555 -0.011307497 0.37591565 0.24551754 0.048621196 0.2854983 0.08014716 -0.28457305 0.35220668 -0.18703245 -0.110298105 0.3946709 -0.23062657 -0.38328832 -0.3952575 -0.09151567 -0.48857364 0.29422146 0.017336706 0.2019138 0.14271356 -0.16742083 -0.33456343 0.051790345 0.17296371 0.7371668 0.02368216 -0.023202097 -0.14134689 0.08148655 -0.101541504 0.15684132 0.002286771 -0.18993464 -0.5426579 0.7674468 -0.21463726 0.0057118568 -0.31558645 0.2017844 -0.09768654 0.5148489 -0.31215093 0.35764986 -0.30335292
309 -0.030251015 -0.02753876 -0.2619261 0.65680724 0.5782309 0.31185862 -0.19262695 -0.24715787 0.086659595 0.06279034 0.0033926575 0.23896506 -0.1914229 0.18148321 0.6217542 0.2268157 -0.1655819 -0.07206764 -0.38625172 -0.36642182 -0.29918677 -0.26827365 0.33006713 -0.1457417 -0.182277 0.10271153 0.5698956 -0.06271537 -0.26907402 -0.13933334 -0.4228966 0.17420758 0.39502147 -0.4333832 0.63853306 -0.0964108 0.012110427 0.2692657 -0.017924948 0.042157117 -0.35889214 -0.23375201 0.28012466 0.4395267 -0.14898632 -0.20261228 0.13462852 0.27612272 -0.031016955 -0.2132589 -0.661001 0.1786763 -0.5983163 -0.10577735 -0.13587943 0.26081857 0.5550224 -0.32829058 0.05058192 -0.47295165 0.30514985 0.08466098 0.13432333 0.1331679 -0.21779367 -0.1366542 0.020046374 -0.027568262 -0.20690727 0.35007098 0.09145304 0.09942581 -0.08915781 0.29791516 -0.11573329 -0.09789987 -0.3554578 0.5530569 0.30679476 -0.058580674 0.11328223 -0.008401947 -0.08881263 -0.50580114 -0.106804416 0.10297812 0.004145549 -0.18572225 -0.20902851 -0.024620255 0.20297372 0.5747778 -0.029301664 -0.10992972 0.6637789 0.3591547 0.40647525 -0.37239987 0.5588904 0.14214551 0.36121255 -0.09893434 0.012091304 0.10528799 -0.3223029 -0.3163315 0.8009075 0.1794458 0.095858365 0.62140036 -0.23209307 0.21943058 -0.80661815 -0.07705475 0.19753487 -0.55333376 -0.22361965 -0.56808805 0.08491569 -0.7041972 0.32285634 0.34882212 0.45242277 -0.20578751 -0.16787443 -0.5209374 0.20680757 -0.13191232
334 0.020024726 -0.44113672 0.29860407 -0.011576496 0.20355473 -0.14788792 -0.09943539 0.26030183 0.1712724 0.27669615 0.011882449 0.18775885 0.055101965 -0.20876805 -0.34556857 0.63343656 -0.07281174 -0.43654457 -0.39817807 0.029175764 0.10138363 -0.15371908 0.49495628 0.220324 0.2618138 -0.18636374 0.10012511 0.17917368 -0.056363944 -0.073879905 -0.02653724 0.2595362 0.3583401 -0.3837007 0.13988976 0.51561326 0.69564795 -0.58343613 -0.0797449 0.37133515 0.66442406 0.08632355 -0.1463621 0.2494578 -0.10010375 0.030249177 -0.17122522 0.045930814 0.20751487 -0.4450059 -0.044877745 -0.28247377 -0.07285383 -0.18454282 -0.19742519 -0.12870575 -0.13067435 0.46099725 0.4128953 -0.03725668 0.35987982 0.10294921 0.1377304 0.32960126 -0.047945995 0.28666562 -0.08570436 0.24294779 -0.38357916 0.23632982 -0.07752336 -0.16934791 0.061012313 0.0068608006 -0.31720087 -0.03635658 -0.58481807 0.33310014 0.08587181 0.09252288 0.29350877 -0.050480284 0.4113534 0.30032223 -0.36176422 0.11788342 -0.0022188993 -0.08852508 0.5341907 0.16240238 0.38279453 0.16378132 -0.45968816 -0.674874 -0.13159858 0.22521977 0.31779855 0.04855962 0.003834109 -0.012898826 0.07909576 -0.23392718 0.6852351 -0.11356033 -0.8144934 -0.16573514 0.17164522 0.26759544 -0.20199318 0.24660492 0.103284985 -0.08044174 -0.46942934 -0.22201766 -0.055025373 -0.19833633 -0.033407792 -0.33586618 0.39237872 -0.25702927 0.18088453 0.28177127 -0.25112584 -0.25110787 0.08921575 0.294993 -0.42810988 0.046785723
48 -0.18351936 -0.18764988 0.26369727 -0.07510675 0.12321537 -0.24995545 -0.29346192 0.41595975 -0.114501506 0.20185977 -0.3013319 -0.0029223883 0.065119006 -0.17344648 -0.10157601 -0.010495035 -0.09713796 -0.29557163 -0.2813721 -0.30842012 -0.12027234 -0.11101668 0.09020437 0.51771235 -0.45614162 -0.6626932 -0.31081808 0.11902621 -0.14411493 -0.2819829 0.28548953 -0.35673738 -0.24071032 -0.60518867 -0.039410226 -0.1592221 -0.010147175 0.13466164 -0.6820498 0.083804235 0.30916274 -0.015110095 0.06029652 0.010043407 0.110668756 -0.08133626 -0.35465422 -0.49800083 -0.12129562 0.12253366 -0.06746989 0.0943062 -0.19730912 0.46716943 -0.12792633 0.31791988 -0.6751718 -0.2951448 -0.032172978 0.41060573 0.3202147 -0.11510609 -0.017855603 0.06371502 -0.119058676 -0.12306941 -0.20442016 0.10974447 -0.17948674 0.0076797046 -0.39862525 0.02560769 0.30459645 0.088259004 0.34378117 -0.012013107 -0.08795428 -0.054349896 -0.14029893 -0.3083506 0.2521648 0.2709417 -0.10950048 0.5002209 0.09913587 0.07149622 -0.029344318 0.21079142 0.17789213 -0.15205587 -0.11667578 0.44104773 -0.21153887 0.0049503827 -0.33643436 0.2835206 0.515384 -0.38800436 0.19428045 -0.41359982 0.13887751 -0.17771128 0.1314768 -0.14411393 0.008572802 0.1348225 0.44752434 0.40579534 -0.038569972 0.2744467 0.40154317 -0.4033427 -0.2756231 -0.031121671 -0.09033081 0.20171379 0.33796132 -0.3193344 0.047327988 -0.5284859 0.3446902 -0.2661583 0.1937197 -0.34734723 -0.047050767 -0.045419227 0.20652841 -0.65351313
102 0.07195997 0.13047068 -0.026089843 0.19173852 -0.08415421 0.14289606 0.020023204 0.5782713 0.24509399 0.31391826 0.28769436 -0.07150331 0.048249487 0.17612496 -0.32312566 0.10768033 0.13351151 0.07007146 -0.39396417 -0.022288471 -0.29790998 -0.7110556 0.07754157 0.09124334 -0.7571134 -0.42370936 0.064303376 -0.12900378 -0.23133573 -0.3895538 0.19509254 0.16613202 0.29043958 -0.101612866 0.15925251 -0.09745857 0.016251648 -0.18825504 -0.2011339 0.41610745 0.76272845 -0.007868766 0.0843908 -0.12482168 -0.067622736 0.12115464 -0.5041601 9.196963e-05 -0.021116404 0.17188987 0.089186974 -0.28361824 0.022329481 -0.3136715 -0.13872376 0.28296793 -0.046259306 0.005765177 -0.07999085 -0.12777238 -0.117949985 -0.7854963 -0.08599004 0.33551198 -0.08795413 0.0034728106 0.18531635 -0.24485315 0.25219423 0.19932334 -0.36944658 -0.13306417 0.07663505 0.48464313 0.4588291 0.40168598 -0.17889127 0.24536881 -0.099131145 -0.275912 0.5469608 0.44688758 -0.2258128 -0.18621348 0.1179159 0.081912026 0.048982367 0.08361307 0.08158207 0.11257616 0.39544225 0.19971745 -0.26347187 -0.045724556 0.5563117 -0.31910092 0.24136344 -0.4890062 -0.18959227 -0.23444188 -0.6867601 0.09140323 0.04949748 -0.024482097 -0.15134025 -0.39955327 -0.025557257 0.09738215 0.78963566 0.4649218 0.1398537 -0.0017786247 0.12711996 0.33445573 0.032311514 -0.64392763 -0.046466243 -0.41964957 -0.39189503 0.09505829 -0.23258866 0.06331926 0.50397336 -0.123241924 0.21223469 0.33842614 -0.5960124 -0.03193608
17 0.012122473 -0.5150045 0.06548375 0.17927845 0.0691943 -0.37353918 0.16684486 0.60889435 0.5538461 0.028760403 0.4853614 0.14311494 0.021836556 0.35476485 -0.057929017 -0.21689373 -0.18952227 -0.22877467 -0.25255305 -0.035100244 -0.0015758385 -0.29931733 0.7024524 0.18784775 -0.09779381 -0.15316775 0.045003917 -0.030522462 0.14928608 -0.15878662 0.020544486 -0.4353998 -0.1268975 -0.4080951 -0.12862661 -0.824863 1.0045286 0.047106884 -0.64680016 0.32934597 -0.377056 0.0736254 -0.003241735 0.17921719 0.17815891 -0.1723714 -0.17632869 0.025900308 0.24052395 -0.20242794 -0.28037822 -0.3755994 -0.0050724023 0.040501185 -0.25511777 -0.17861706 -0.43473622 -0.5382635 -0.058385197 -0.26516312 0.21094628 0.2724345 -0.2240768 0.3180876 -0.17290649 0.10669252 -0.024999296 -0.15430586 0.4141673 -0.22156084 -0.47410035 -0.43112296 0.1255326 0.04489043 0.19740164 0.47894815 -0.3236484 -0.14445546 0.03992406 0.35591048 0.05839871 0.06447708 -0.62413555 0.72313017 -0.2343689 0.10782456 -0.09981918 -0.11470773 0.100726865 0.19403578 0.15188001 -0.4210342 -0.032314148 0.027033234 0.26974615 0.2338638 0.023819836 -0.159147 0.23927002 0.1537456 -0.2535491 -0.4737918 -0.23422612 -0.07604306 -0.11197183 -0.3470257 0.6015863 0.13847168 -0.39441302 0.34037295 0.5260507 -0.032897692 0.36448598 0.0721673 0.12611364 -0.49389917 -0.08575056 -0.062786914 0.16376363 -0.15410028 -0.32717076 0.10755491 0.17812085 -0.7069832 0.24485873 -0.23505436 -0.17378162 -0.19006254
327 0.04071023 -0.37159035 -0.021005679 -0.09700532 0.36298633 -0.009099575 -0.2481368 0.3353867 0.25648332 0.16098386 -0.15462986 0.24213779 0.26040986 -0.051220033 -0.12789388 0.643686 -0.059858102 -0.3881298 -0.45436627 0.102648154 -0.073565915 -0.18713777 0.4147406 0.18798363 0.25959975 -0.19752604 0.21778521 -0.018633176 -0.067569084 -0.09944326 -0.11528896 0.19207485 0.46466935 -0.28782666 0.14161056 0.4215641 0.43233302 -0.6262807 -0.1672521 0.46441853 0.8546622 -0.038110707 -0.03590399 0.13786021 -0.12469202 0.16180228 -0.33954388 -0.08661338 0.3063996 -0.3600929 0.0057410523 -0.21320122 -0.22418189 -0.17825015 -0.17304611 -0.05713135 -0.10080376 0.49202865 0.35101432 0.18711258 0.32562295 0.16808593 0.2941006 0.3223858 -0.07910383 0.37169433 -0.10076274 0.1476017 -0.37749237 0.16701292 -0.17046028 -0.21889448 0.060513064 0.010403566 -0.32701147 -0.019125978 -0.59092844 0.39547694 0.049742445 0.16942455 0.1779858 -0.073200166 0.4737814 0.34711286 -0.2513322 0.091352396 0.024896938 -0.15918446 0.5044762 0.15876853 0.2901716 0.09391439 -0.45964798 -0.68820125 -0.22531255 0.22599103 0.38516238 0.08133863 -0.13568947 -0.055750743 -0.049015608 -0.23199128 0.787323 -0.14018245 -0.84145695 -0.18956907 0.24482697 0.19285174 -0.22451346 0.14623936 0.020985883 -0.27795696 -0.5770185 -0.21884914 0.008618004 -0.34594092 0.019803403 -0.32775456 0.44154456 -0.24618454 0.18138336 0.34368178 -0.31914568 -0.2119522 0.014042302 0.31218907 -0.5710051 0.12692215
397 0.120013766 -0.28231502 -0.5325621 7.22347e-05 0.052206893 0.12916932 -0.27567175 -0.036367282 -0.25556985 0.38345513 -0.2907434 0.121909134 -0.032452215 -0.25283396 0.46598396 0.3924241 -0.22620797 -0.39845878 -0.21874942 0.7930385 0.091442816 0.00069246977 0.51025826 -0.15113904 -0.33340713 -0.21982703 0.091901064 0.6401148 -0.15147401 -0.2904684 -0.091829926 0.7672834 0.4415983 -0.52081454 0.053554635 -0.024354443 0.017985003 -0.027751286 -0.4494915 -0.1451882 0.11565828 0.14330448 0.20318183 -0.005373176 -0.15339595 -0.84339774 0.050603494 0.1543418 0.027798833 -0.4731591 -0.3020922 0.16667154 0.030541409 -0.019640958 0.13994205 0.110175446 -0.08737056 0.11936244 0.2776723 0.5357362 -0.17924598 -0.06886186 0.25125128 -0.2010067 -0.020757742 -0.044432897 -0.106086425 0.26712 0.0073585855 -0.004330315 -0.15540968 -0.42381632 0.4464993 0.18759257 -0.52839166 0.5596257 -0.1884778 0.21599345 0.07665893 0.38304386 -0.029182138 -0.1717605 -0.6781326 0.29246333 -0.0039762133 -0.14357448 -0.34416395 0.09818091 -0.28151378 -0.40141588 -0.20674752 0.066198386 -0.008816708 -0.3635369 0.20880033 0.15306617 0.35727498 -0.44928074 -0.0022570607 -0.030077118 -0.32840657 0.112216584 0.50949293 -0.020123143 -0.2811704 -0.51319844 -0.23748127 -0.22353832 -0.36448073 0.21014436 0.53559786 -0.65758604 0.041039 0.06727244 -0.20493367 -0.39896888 0.0038419538 0.2489262 -0.40635824 -0.38531032 -0.7702885 -0.28226483 0.5752135 -0.20708403 0.47941193 -0.12838244 0.16798571 -0.4630368
269 0.038309563 -0.38206348 -0.19199203 -0.33114144 -0.16119498 -0.1518931 -0.043786425 0.84409726 0.23905262 0.4160282 0.0023525187 -0.3077438 0.040200602 -0.06884788 0.5510131 -0.011019115 0.16327423 -0.04771318 -0.19029608 0.6651908 -0.10451264 -0.21167211 0.010598815 -0.079541534 0.1854215 -0.25116828 -0.004670143 0.106557205 -0.0884423 -0.113253556 -0.121833466 0.53001434 0.20272805 -0.5623424 0.38423452 -0.08789596 -0.5175187 0.093230516 -0.20153017 0.03972784 -0.63683635 0.51663196 -0.31315976 -0.09213725 -0.31847596 -0.2119158 0.09943862 0.10433274 0.28771502 0.034691304 -0.2777341 0.13932717 -0.040997274 0.38282907 -0.15388867 -0.08455654 0.19780618 -0.30251566 -0.10141898 0.016598795 0.5596288 -0.02216782 0.010514806 -0.021149507 0.29905027 0.20322302 0.106166795 -0.3438527 0.08306891 0.30402255 0.14271799 -0.0020504785 -0.21823668 -0.19620158 0.4411542 0.16572343 0.08332736 0.41762477 -0.5266379 -0.33636394 0.3853196 -0.43166405 0.16423118 -0.055648495 0.7075005 -0.10139887 -0.0977416 -0.10332641 -0.1264098 0.17092139 0.39756387 -0.21237762 -0.17128642 0.13411312 -0.26179284 0.45524108 0.13521367 -0.48713115 -0.038049906 -0.29524896 -0.35181868 -0.018293183 0.5521679 0.19133338 0.05926219 -0.39620647 0.14622974 0.40077317 0.34703293 -0.5127824 0.29757422 0.09860381 -0.46313772 -0.21448407 -0.032872774 -0.1106842 0.025653297 -0.33558854 0.40383 -0.4921735 -0.104544915 -0.28560045 0.6311381 -0.15663226 0.342331 0.26007354 -0.22209369 -0.0066476283
159 -0.7616819 0.5553685 -0.063949786 0.4258136 0.010046296 -0.2848131 -0.036587212 0.14104193 -0.1620071 0.6093837 0.16902494 0.28323677 -0.12944356 -0.4022613 0.18052173 -0.15287015 0.33907202 -0.09982343 0.12731805 -0.10860145 -0.18878974 0.53300893 0.48670447 0.7856794 0.3565119 -0.3197122 -0.10329407 -0.021461157 -0.7310045 -0.20476134 0.14924473 0.61131674 0.60131705 0.28005058 -0.11173555 -0.3142393 -0.18491805 -0.52194524 0.16892765 -0.26019394 0.26670924 0.42621383 0.79825395 0.030702278 -0.04623685 -0.39500982 0.050552312 0.19430144 0.34299 -0.01207121 0.19982678 0.16586842 -0.25222224 0.010844922 -0.05648731 -0.1866388 0.27939034 -0.20375589 0.16922018 -0.1971076 0.28438407 -0.28307223 0.13194084 0.16583383 0.027943345 0.1069142 0.0542765 0.18553132 -0.41910067 0.061005026 0.1448219 0.14272687 0.11068995 0.014254502 0.25322095 0.4332965 0.24740791 0.3817137 -0.4600124 0.032161027 0.21281527 -0.20643333 0.037859138 -0.1022452 -0.1469276 0.28159863 0.030552203 -0.20917802 -0.058496803 0.5868849 0.19331537 -0.042756498 -0.047286548 -0.17241822 -0.09527665 0.46712545 0.13989285 -0.41587362 -0.0066151926 -0.23252392 -0.6445533 -0.8171643 0.5723218 -0.012201684 -0.34197345 -0.22319102 0.37142122 -0.09230439 0.27773556 0.52683127 0.46583903 -0.10490741 -0.4762581 0.060779143 -0.47340214 0.20151648 -0.15032238 -0.04258521 0.5215072 -0.37017938 -0.06321731 -0.2204196 0.9958144 -0.41756052 0.081333354 0.96296173 -0.56286097 -0.2885319
349 -0.32907763 -0.0020596685 -0.52513087 0.09733189 0.7012758 0.26167825 -0.32688564 0.3417637 0.4559324 0.65330696 -0.123989224 0.33736932 0.01191151 -0.27110428 0.43759346 0.4350796 0.05617799 0.32360306 -0.09887801 -0.69754755 -0.103444 0.2095541 -0.28533345 0.24877197 -0.33110222 -0.09137176 0.13350393 0.17794524 -0.21943809 -0.13592699 0.43639895 0.024787119 0.44322667 -0.5563718 0.038289394 0.031430937 0.44567725 0.039644778 -0.33122084 0.44679195 0.034095086 0.4849575 -0.32602698 0.7604204 -0.22437762 0.36890545 0.18336223 -0.25281763 -0.004992559 -0.4902502 -0.16657124 0.19789095 0.08508471 -0.25158796 -0.46209976 0.26700103 0.23003039 0.25444654 -0.068720035 -0.29254565 0.63917315 -0.017405577 -0.06307874 0.045225713 0.2135537 0.36724293 -0.19042842 -0.2489247 0.13382997 0.23800734 -0.023714446 -0.23491375 0.2106837 0.27805358 0.057852264 -0.39496222 0.19835861 -0.28078908 0.21769542 0.1994229 -0.42890444 0.06616122 0.09675581 -0.1405619 0.10787702 -0.16573715 0.48272136 -0.35364807 -0.39672267 -0.036664937 0.2984327 -0.09371507 -0.065663084 -0.19621094 0.11615688 0.07609318 -0.24877837 -0.4241764 -0.2448468 -0.025114099 -0.39147598 -0.2951712 0.012713773 0.21119152 -0.1849427 0.18483223 0.09366122 -0.7169383 0.061512742 0.7109788 0.57381576 -0.36865535 -0.4064713 0.63023937 0.28966302 0.22730993 -0.1347088 -0.6189357 0.21833259 -0.343135 -0.10238423 -0.031102864 0.3599648 -0.19293644 0.09168197 0.022451267 -0.329248 -0.14141674
214 -0.6983039 0.4892853 -0.05385142 0.38442358 0.030013375 -0.29990843 -0.05666663 0.121000186 -0.13261904 0.69500315 0.1298666 0.1932889 -0.17307125 -0.41841477 0.11107847 -0.18005636 0.28771746 -0.05000063 0.1477157 0.02522492 -0.1861514 0.49042663 0.41967624 0.82955277 0.30676416 -0.32513443 0.07820714 -0.0008508145 -0.68262625 -0.26697615 0.0913498 0.6793028 0.4709898 0.17199433 -0.115980834 -0.20361055 -0.16119775 -0.5490215 0.24363142 -0.31235665 0.25084102 0.19085675 0.8442334 0.008106872 -0.015017335 -0.3581742 0.07183529 0.13543923 0.42007422 -0.020629592 0.25580436 0.16280235 -0.27021673 -0.020612802 -0.06187852 -0.21219163 0.24816933 -0.13855928 0.1640029 -0.25884223 0.27656895 -0.2659059 0.07132691 0.11021255 0.025601782 0.1423209 -0.021431414 0.14076559 -0.43423653 0.08151301 0.15897432 0.23348354 0.14486684 0.06974791 0.2721032 0.4515262 0.28409347 0.35392398 -0.48516944 -0.02306024 0.1459337 -0.20325999 -0.027294079 -0.17842737 -0.07643748 0.26673487 0.044355273 -0.13639125 -0.086939625 0.6074569 0.26760998 -0.10130861 -0.07200229 -0.14713535 -0.07211391 0.5331004 0.1498893 -0.4002135 0.036352437 -0.17917638 -0.61391914 -0.8468069 0.54122293 -0.013777839 -0.37599453 -0.20738189 0.467839 -0.0717951 0.27396518 0.6081123 0.587064 -0.035600416 -0.46239066 0.042513017 -0.4269235 0.1572058 -0.16420731 0.024956767 0.56812996 -0.3088668 -0.12904723 -0.29795402 1.0033134 -0.41633585 0.14535165 0.88766044 -0.551128 -0.31037444
110 0.1892187 0.14923969 -0.09167645 0.43208423 0.2890386 -0.4840125 0.13047394 0.30419013 0.8086004 0.27183327 0.17825517 0.39062515 0.3906476 0.35169566 -0.1284589 -0.06799807 0.6604102 -0.05841649 -0.10252832 0.4272028 0.05676953 -0.41629487 0.37294015 0.3943241 -0.2537887 -0.07965947 0.17495874 0.046292894 -0.6339559 -0.42572638 0.2992697 0.34638435 0.5731575 -0.2800001 0.3998684 -0.083635285 0.24572659 -0.05198383 -0.062688164 0.025533333 -0.22008763 0.06703675 -0.08152402 0.046222143 0.07620794 0.039587177 -0.19998406 0.32433274 -0.3528414 -0.25947854 -0.21946546 -0.07166018 -0.6315468 -0.16417527 -0.44461867 0.023908991 0.17676868 -0.1574067 0.57040983 0.23689619 0.41823453 -0.16334158 -0.2403525 0.68556815 0.106208555 -0.069430865 -0.17350562 -0.5783817 -0.11754905 0.024237216 -0.12467704 0.2811659 -0.40459836 -0.021620791 0.29297486 0.11932899 0.2106961 0.633252 -0.12486657 0.10677602 -0.50835186 0.12120493 -0.34911898 0.6858471 0.048663475 0.48475736 0.20774172 0.25529662 0.31502816 0.36588475 -0.19620791 0.39243165 -0.21661535 -0.15739425 0.26693067 -0.31312603 -0.4134647 -0.19020824 -0.15113384 -0.5492758 0.35625085 0.09825182 0.2063569 -0.06632116 -0.16459684 -0.12818827 0.08147251 0.2216904 0.71053743 0.06525055 -0.04763202 -0.43116054 -0.044080965 -0.21075927 0.18732746 0.18764226 -0.056063626 -0.5445606 0.68204767 -0.19668217 -0.09911426 -0.46187246 0.21637575 -0.006750601 0.2559347 -0.4835948 0.42433542 -0.30797085
359 0.21833414 -0.10530211 -0.7542994 0.296209 0.5271463 -0.23917562 0.11691711 -0.15917093 -0.04257878 -0.15213582 0.04092019 0.039388016 -0.18808277 0.08484137 0.58708245 -0.17505716 0.15803799 -0.31185216 -0.2451746 0.30203298 0.12634626 -0.07784924 0.5451843 0.40624854 0.4879755 0.41700852 0.047350492 -0.30662793 -0.28404152 0.009612014 0.34075117 -0.4886037 0.24020141 0.2323756 0.52296305 0.37733355 0.399141 -0.11113532 -0.16151194 0.22365363 0.23551264 0.5699631 -0.28398666 0.97313255 -0.34905156 0.15898089 -0.36136466 -0.08479556 0.138025 -0.018945392 -0.5214537 -0.17585526 0.2974 0.45235428 -0.4782575 -0.0576315 -0.7465686 0.12489888 -0.080722384 -0.08250324 0.1385096 -0.61765856 -0.4802293 0.12714235 0.19259237 0.37900284 -0.06728806 -0.4167052 -0.58869433 0.08629456 -0.64317983 0.47643265 0.08703257 0.10870583 0.30397072 0.21270956 0.099402875 0.3948585 0.41118082 0.15713921 0.18255588 -0.08093786 -0.37283766 -0.01927943 0.09118966 -0.18674412 0.19980015 -0.21780668 0.05021689 0.28979865 -0.015333219 0.16530912 -0.3917716 -0.20657288 -0.053706955 -0.03507639 0.08337996 -0.23023407 -0.023665959 -0.13733637 -0.3698481 0.2197187 0.40605554 -0.5345918 0.023270149 -0.009768306 0.29175287 0.4759182 0.5602108 0.24065329 0.13136525 -0.24392019 0.086614765 -0.20201783 0.37405512 -0.68437904 -0.00899917 0.24939252 -0.031982195 -0.105533324 0.11662091 0.11359173 0.50488627 -0.0022560963 0.54523855 0.16151565 -0.41354546 -0.44386068
352 0.1895719 -0.24944332 -0.4221374 -0.28473797 0.44004747 -0.06824463 -0.4616687 0.252007 0.61043626 0.66297066 -0.5868296 0.10199571 -0.10506441 -0.29013833 -0.01787526 0.5986641 0.5947456 0.016524816 -0.31437442 0.51646715 0.46227115 0.007865158 -0.34020624 -0.116823636 0.01947162 -0.06256089 0.58529925 0.33366352 0.3514044 0.08304332 0.64622974 0.10693688 -0.3619019 -0.35776618 -0.0072670155 0.25404865 0.21414605 0.20875032 0.2884147 -0.45101896 -0.4215606 0.05066034 -0.21205491 0.060371567 -0.35696447 0.051884454 0.14433277 0.11339701 -0.06976527 -0.50259066 -0.2754662 0.2097656 0.26526195 0.19846335 -0.07158283 -0.27727532 -0.01561375 -0.132671 0.0060499473 -0.108739205 0.4240861 -0.4664962 0.17272517 -0.19773111 -0.14368509 -0.0667281 -0.05052764 -0.46763304 -0.15229048 -0.02353373 -0.27060568 0.08252063 -0.088434726 0.22568609 0.31717068 0.33017302 -0.41585526 0.2167405 0.2395678 -0.042183593 0.26064503 0.1444373 -0.40728632 0.41227847 -0.43432596 0.2381612 -0.36643374 -0.0030783617 0.27371892 -0.33579877 -0.047977597 -0.14006081 0.21943012 0.0929748 0.14902627 0.359645 0.8271529 -0.24318206 0.1725609 0.2974426 -0.5357419 0.03782769 0.5313074 -0.25285056 -0.32406452 -0.65572375 0.10148025 0.11563583 0.1475278 0.3300015 0.064763375 -0.23456739 0.01887197 -0.30576688 0.0744434 0.17487592 -0.26519427 0.059061307 -0.10511524 -0.64763397 -0.27758378 0.18228407 0.4437861 0.21254607 -0.0942822 -0.10511491 0.16940108 -0.6243386
111 -0.063907705 -0.098499835 -0.29674742 0.643365 0.4730926 0.19241025 -0.16467816 0.20743427 0.22857839 0.21208508 0.023877796 -0.04211466 -0.07697454 0.29297346 0.4613294 0.1566902 -0.16253614 -0.23496312 -0.30190355 -0.2586646 -0.07919059 -0.060556993 0.32893458 -0.008643341 0.10073315 0.035238724 0.6146053 0.06818806 -0.06828784 -0.32388288 -0.5475956 0.5089664 0.43074802 -0.5229097 0.46401685 -0.36206552 -0.1401775 0.23549685 0.04585229 -0.09030949 -0.33341885 -0.12062736 0.14139363 0.25602815 0.11792371 -0.20138727 0.09050611 0.1835383 0.11605858 -0.08015559 -0.53807086 -0.14823182 -0.5649814 0.23883958 -0.2130232 -0.0038524345 0.378527 -0.25656992 0.15750843 -0.2634082 0.27180034 -0.097464904 0.10924716 -0.108040124 -0.20378086 -0.048692647 -0.0002856718 0.14666729 -0.048254415 0.326272 0.031148542 0.26822302 0.113779075 0.2333663 -0.06973846 -0.22725384 -0.20131622 0.6300116 0.3301214 0.17904495 0.0058182324 0.2105225 -0.3146979 -0.52801174 -0.26411518 0.11863907 -0.025312666 -0.2542017 -0.012250417 0.35700625 0.43625927 0.5147447 -0.15740235 -0.23225194 0.5960228 0.03669996 0.37328127 -0.44618723 0.2863264 0.17442994 0.3215608 0.081009515 -0.18888447 -0.25288737 -0.03426876 -0.31574064 0.37649637 0.043527316 0.04631924 0.27802408 0.00926373 0.008143087 -0.45217308 -0.14009152 0.1885587 -0.5710409 0.006312149 -0.1961339 0.1339847 -0.58398706 0.42432016 0.039884396 0.36774373 -0.10219858 -0.1562324 -0.53172046 0.10794824 0.1471139
374 -0.019437166 -0.16142574 -0.42548397 0.6810609 0.67616874 0.3178312 -0.28181735 -0.1404779 0.1428185 0.19210115 -0.043238737 0.19205892 -0.24288775 0.30527082 0.5534584 0.332226 -0.21984363 -0.08990752 -0.4871478 -0.25916824 -0.47412708 -0.28808555 0.2166927 -0.051954195 -0.15407825 0.16264713 0.5306715 -0.081554525 -0.26799437 -0.23141265 -0.5165033 0.25080734 0.37897626 -0.41693753 0.55396503 -0.08755948 0.014757757 0.21520442 -0.074066326 -0.012538819 -0.30619678 -0.23099776 0.35877898 0.343223 -0.018538412 -0.20794341 0.0907806 0.3219352 -0.09035832 -0.22757144 -0.63795984 0.089938715 -0.5420961 -0.09784496 -0.06564892 0.13775815 0.40370393 -0.3376904 -0.03544288 -0.29028314 0.20994927 0.028450325 0.23572539 0.118727535 -0.18385749 -0.05390658 -0.055240646 0.08269796 -0.21472144 0.30108738 0.14809142 0.109442346 0.06460056 0.29176256 -0.00453138 -0.046209082 -0.22488779 0.4434619 0.24582142 -0.09312222 -0.0055960272 -0.1255952 -0.14476395 -0.39831582 -0.08491239 0.11347511 -0.05135101 -0.16267328 -0.07534748 0.07165641 0.37599617 0.55369556 -0.09142832 -0.009730098 0.6917117 0.41369295 0.41938686 -0.32053828 0.57590175 0.22552162 0.32775053 -0.064407684 -0.12322256 0.09113714 -0.2318868 -0.17752352 0.6404174 0.096571155 0.09866684 0.6013658 -0.054063447 0.10719544 -0.7919484 -0.117377155 0.08401943 -0.42596373 -0.106522374 -0.46151543 0.08572944 -0.737605 0.47497457 0.29727837 0.46891794 -0.22230385 -0.15045384 -0.58500147 0.105343916 -0.11459983
248 0.25196776 -0.024700318 -0.52110845 0.21699336 0.46911955 -0.15111594 0.2927341 -0.39307973 -0.04499047 0.11959691 -0.08605801 0.06522522 -0.22294109 -0.048298977 0.40402678 -0.21040699 0.009270463 -0.35062292 -0.20497619 0.37928087 0.08739024 -0.18485567 0.5288232 0.34684068 0.4782552 0.4335761 -0.06491771 -0.26850012 -0.13871418 0.010121978 0.50560105 -0.65805215 0.18950894 0.0333475 0.6723089 0.5545841 0.41599715 -0.16686033 -0.18401968 0.1009901 0.36075467 0.6176699 -0.21880491 0.8976748 -0.36088583 0.08809803 -0.45747885 -0.003417647 -0.16398886 0.080156855 -0.42148346 -0.07796665 0.33433115 0.50453836 -0.488569 -0.23022744 -0.68138564 0.1328422 -0.08045236 -0.11594617 0.3100983 -0.40014866 -0.47096038 0.27878243 0.20617248 0.25306648 -0.10967214 -0.17738184 -0.6618475 0.15965965 -0.54492235 0.3204799 0.03919094 0.19119537 0.27235243 0.097920425 0.01885003 0.4369882 0.3286914 0.11114463 0.2226561 -0.25487423 -0.35155484 0.09817648 0.30972165 -0.16649005 0.23981176 -0.4694335 -0.036520425 0.139561 0.06282417 0.2696503 -0.46040642 0.057105135 -0.08691194 0.077482715 0.1288593 -0.31390098 0.13723482 -0.03493385 -0.3928537 0.36346316 0.3361094 -0.5179657 -0.0035108388 -0.16397218 0.3233199 0.58703554 0.48323187 0.16157033 0.20288196 -0.0437084 -0.0066660075 -0.071839504 0.083573446 -0.5531702 -0.025065491 0.19753245 -0.054241322 -0.20903078 0.15589966 0.25177437 0.4837991 -0.11746331 0.509965 0.07972658 -0.37063617 -0.2798393
333 0.40319777 0.09744561 -0.008316843 0.2244161 0.3466603 -0.46293923 -0.017102724 0.2492765 0.7676142 0.16871406 0.02137712 0.30461177 0.30209276 0.18308182 -0.00010666686 0.041607585 0.8236929 -0.032827664 -0.31640208 0.27311438 0.0685053 -0.35219342 0.34184515 0.14736652 0.09059586 -0.05310835 0.0025036014 0.05346718 -0.5507202 -0.5445228 0.34737 0.14267352 0.6060216 -0.4342348 0.54997647 -0.3611199 -0.07131503 -0.22639892 -0.32892212 -0.10880425 0.034374002 -0.13896851 0.15404531 0.0029949457 -0.061310712 -0.010331957 -0.27698895 0.6275957 -0.38895223 -0.25566572 -0.24052787 0.2111528 -0.6773822 0.008908698 -0.35157102 -0.0011055616 0.36243168 -0.26100987 0.40045038 0.3474246 0.44516712 0.16191109 -0.12334469 0.9091917 0.24588846 -0.09925688 -0.18102524 -0.62456 -0.15821394 0.033489756 -0.011081916 0.09406444 -0.40219006 -0.02568156 0.091732144 0.31024462 -0.10877406 0.4464274 -0.14619133 0.1497023 -0.73466176 -0.1008149 -0.11654724 0.82052624 -0.0770955 0.26795813 0.2195845 0.109693825 0.30872506 0.13864835 -0.35505095 0.3718344 -0.17785564 -0.10336488 0.3542454 -0.3112587 -0.37313557 -0.282488 -0.15877408 -0.58018625 0.19822596 0.038759414 0.18850459 0.08456416 0.0761849 -0.18745364 0.03849746 0.104379125 0.8178855 0.11269349 0.012323929 -0.19585775 0.03299745 0.056877192 0.11634142 0.056183606 -0.083298944 -0.64906466 0.7888909 -0.2425393 0.17638284 -0.31968847 0.0895077 -0.10583396 0.331174 -0.302506 0.14058694 -0.20953768
35 -0.438282 -0.30925453 0.030622171 -0.2214996 -0.045035068 0.37456977 -0.7196445 0.029917436 0.5625941 -0.085694335 -0.09868058 0.08831919 -0.36759025 -0.31226653 -0.5482396 -0.20181444 0.3766502 -0.08721821 0.100456804 0.3293299 -0.24736562 -0.26121962 -0.18445447 0.14245677 -0.19172911 -0.24974562 0.070170484 0.27551496 -0.6192869 -0.23886643 -0.30515718 0.38471594 0.06268921 -0.76421905 0.43976346 -0.010324369 0.32955796 -0.23837441 -0.60779136 0.2132042 0.13699828 0.33239788 0.1823413 0.103233285 -0.86268765 -0.21957639 -0.50292075 0.29064897 -0.12434909 0.43534663 0.050606955 0.4271726 -0.12428591 -0.1650923 -0.32512537 0.09602832 -0.15018915 -0.22565266 -0.46336576 -0.15404108 0.20451938 -0.08984805 -0.117891066 0.6203418 0.05724346 0.14255157 0.04801474 -0.1794672 -0.083542794 -0.051802386 0.21327174 -0.01727838 0.24888933 -0.13885768 0.26105818 0.041984398 -0.49640098 0.75833035 -0.039033696 0.21456505 -0.19801262 -0.0015717208 -0.30341 -0.016005741 -0.033315863 -0.26290447 -0.31326655 0.15244678 -0.2627306 0.41612372 0.36563832 -0.11145752 -0.69760484 -0.8532326 -0.10872991 0.34198686 -0.031135917 -0.19855832 0.0035543586 -0.13657744 -0.12611285 0.38972178 0.16147569 -0.25137728 0.06381517 -0.348925 0.026930835 -0.04332789 -0.32216147 -0.30661786 -0.025334895 0.3332996 -0.19260624 -0.07467389 0.11785213 -0.21094862 -0.034774207 0.06751172 0.26935607 -0.17619357 -0.5165892 -0.41124198 0.4061778 -0.037219193 -0.259084 0.26862815 -0.3912261 0.05659027
416 -0.6600994 0.2301553 -0.05602521 -0.45075023 0.8257862 -0.43766406 -0.14126615 0.05981865 0.26102948 0.57931316 0.35154852 0.27266482 0.31744125 -0.5063048 0.029726505 0.023456639 0.61620575 -0.970499 0.02374335 0.22844991 0.13256548 -0.43066874 0.23884787 0.59659517 0.22447225 -0.3686618 -0.33020544 -0.050574806 -0.20302638 0.27923325 -0.40085286 -0.08403107 0.04188955 -0.798275 0.0616875 -0.07984461 0.08646575 0.8210894 -0.05227611 -0.38984185 0.23203057 0.39004478 0.2209883 0.05296346 0.19447672 0.001969206 0.06954716 -0.19604734 -0.23228362 -0.102357455 0.86563814 -0.097896434 -0.5446587 0.03757603 -0.48448166 -0.08649987 -0.029210769 -0.41517287 -0.64526105 0.046260502 -0.2694514 0.40074703 -0.04456699 -0.16215912 0.073527835 -0.36306092 0.25873268 -0.5527168 0.07319238 0.425666 0.2411378 0.27235764 -0.22442918 0.44846618 -0.14266154 0.17870203 -0.18947123 0.44192296 -0.22803259 0.11850953 -0.27137935 -0.13837397 -0.3200649 0.42085972 0.089184195 -0.15740806 -0.5906672 0.0070250966 0.068353996 0.40156206 -0.5017818 0.37769416 0.13835588 -0.34779137 0.35074532 -0.04945215 -0.08919002 -0.16516544 -0.108117566 0.037996445 -0.784688 -0.0716336 0.22014621 0.2185447 -0.1623523 0.32742655 0.4039518 0.25188795 0.56817925 0.1774812 0.66796744 -0.23334558 -0.0058254763 -0.21982662 -0.0456426 -0.6112088 -0.3602417 0.27642524 0.3014671 -0.00418098 0.21367362 -0.068864174 0.7975616 -0.6242178 0.41879794 0.19869128 -0.2200755 -0.3461451
62 0.21802276 0.1967463 0.04859638 0.20194839 -0.15178412 0.12544 0.023904826 0.4480325 0.1645996 0.40586445 0.3730372 -0.114853844 0.09013027 0.29700586 -0.41523045 -0.001427382 0.13568223 0.014877004 -0.24153605 -0.006342455 -0.371586 -0.7983946 -0.012972791 0.29538813 -0.7308979 -0.4606336 0.27900878 0.051779155 -0.13862267 -0.48627487 0.17407033 0.022587711 0.32335284 -0.17144042 0.2527855 0.07241467 0.06618617 -0.21675438 -0.13998988 0.32779577 0.5851745 -0.115656435 0.20614985 -0.025863092 -0.006991067 0.19823751 -0.54339373 -0.030816995 0.057704877 0.09997182 0.081346855 -0.42162848 -0.12484562 -0.26558122 -0.18028629 0.27568623 0.04697046 -0.07383439 -0.06644041 -0.18272206 -0.019693036 -0.87110376 -0.033090007 0.20528081 -0.22246817 0.055857856 0.031993773 -0.29954377 0.29688612 0.22022107 -0.42328992 -0.1257202 0.08807077 0.61610705 0.37917235 0.30930117 -0.12761547 0.2694533 0.052354522 -0.17377649 0.64318347 0.3544925 -0.22527178 -0.40979925 -0.01575294 0.031771515 -0.057521548 0.10576237 0.044317454 0.11305958 0.2530142 0.101178385 -0.33101162 0.023021441 0.3807233 -0.15750936 0.36965427 -0.35178137 -0.20370993 -0.15531509 -0.61264086 -0.013688866 -0.042214002 0.012366862 0.02175105 -0.34806687 0.13150783 0.17120746 0.65966916 0.32838854 0.16763096 0.0014849098 0.09389823 0.19673954 -0.087496206 -0.5872491 -0.15742129 -0.35284773 -0.34743845 0.06725041 -0.39284414 0.08205623 0.41962624 -0.2927494 0.47487542 0.3006998 -0.55675745 -0.1333645
