512 128
1 -0.37377694 -0.3591917 0.20614678 -0.20229273 0.029130243 -0.17534408 -0.3220165 0.06839567 0.36906746 0.06281908 -0.2485147 -0.046043158 -0.23913781 0.27422243 0.08051773 -0.15998614 0.048681706 0.089245014 0.40963414 -0.24741979 0.050944846 -0.05862555 0.323962 0.6385975 0.46422645 0.029370306 -0.20669219 -0.20401885 0.41575438 -0.410033 0.5656518 0.105120435 -0.019838333 -0.08439603 0.28020662 -0.21614648 -0.25989413 0.043804538 0.099684924 -0.18444778 0.30268013 0.21429372 0.096697435 -0.07047445 -0.16628179 0.24848121 0.13458411 -0.13406363 0.42938986 0.06028005 0.040765908 0.05866805 -0.44368958 -0.087296136 0.23474957 -0.17526685 -0.5628826 0.10463458 -0.34495366 -0.2966561 0.1732529 -0.16779548 -0.12641747 0.268761 -0.15307957 0.4765467 -0.123278774 -0.25833282 0.1578803 -0.41529626 -0.10030337 0.118974224 0.2877957 -0.34756443 0.09233849 -0.14145903 -0.07143721 -0.06572481 -0.06458643 -0.23965043 0.30899662 -0.14221455 0.059404746 -0.1972564 -0.5240515 -0.3606208 0.00030704698 -0.06994134 0.4516016 0.2054797 0.3510235 -0.5212914 0.2657195 -0.046040826 0.008712014 0.28605905 -0.3227341 -0.24777251 -0.17880112 0.17326257 -0.18199304 0.58420503 0.031699248 -0.13149652 0.06504337 0.036276404 0.19711176 0.3077989 -0.11687033 -0.08094267 -0.22553028 -0.052969545 -0.5019378 -0.44547215 0.28204006 -0.060408782 -0.49678916 0.214122 -0.034116004 -0.38937652 0.21440998 -0.27552363 0.33039814 -0.07660367 -0.39224613 0.20130928 -0.49123082 -0.19428612
25 -0.3779625 -0.093234636 0.07802626 -0.29229948 -0.039487597 -0.3212413 -0.4517857 -0.0030955204 0.31525013 0.02486869 -0.31985968 -0.3315762 -0.32207775 0.2958997 -0.01963198 -0.22350147 0.11942398 -0.14868826 0.42642283 -0.27182645 -0.18214223 -0.052087493 0.4434601 0.66420335 0.26809403 -0.010334154 -0.14499503 -0.10307972 0.011910188 -0.3307648 0.6114856 0.009600432 0.06917344 -0.29911682 0.09407481 -0.11097548 -0.51936424 0.23108764 -0.030270113 -0.026007852 0.22763231 0.4222986 0.34432587 -0.058742773 0.17931369 0.51532257 0.1898715 0.11661383 0.46645135 0.16963665 -0.28560612 0.19701092 -0.40967393 -0.13479269 0.14408961 -0.025483716 -0.52577937 0.0909322 -0.29627222 -0.25906014 0.055727646 -0.17571722 -0.20504841 0.26604366 -0.05564749 0.42621428 -0.008202649 -0.3025976 0.161264 -0.40187198 -0.065452196 0.07018675 0.3342092 -0.095632315 0.37128076 -0.21190892 -0.018762033 0.03611254 0.11949243 -0.16209602 0.2237955 -0.13232183 0.030831804 -0.20069179 -0.6472762 -0.20349413 -0.07364323 -0.0462722 0.2625623 0.25607622 0.2733524 -0.36428666 0.14013079 -0.050686214 0.049223516 0.24523607 -0.4046468 -0.26748523 -0.26752818 0.011829675 -0.3405826 0.5054894 -0.12963994 -0.048493646 -0.014486277 -0.103490435 0.10321609 0.4049024 -0.015042323 0.12544157 -0.31418014 -0.092917845 -0.42019898 -0.28244928 0.4172259 -0.097873464 -0.19965415 0.051399335 -0.21937639 -0.45343387 0.012562527 -0.22777674 0.25927514 -0.22542736 -0.41370505 0.19540833 -0.6516742 -0.13874733
59 -0.054645885 -0.26092905 0.15595292 0.21556003 -0.21082993 -0.10134901 0.050652128 -0.4353907 -0.26232946 -0.4132397 -0.12415901 -0.18300945 0.6670576 -0.4529836 -0.08303187 -0.6495426 0.5564423 0.013038132 -0.05015483 -0.07479386 -0.049181055 0.0156033365 -0.058746196 0.05554187 0.5843926 0.27603045 -0.41478252 -0.09278311 -0.26471242 0.40599406 -0.37654045 -0.12179745 0.045029957 -0.2440106 -0.13327941 -0.017762147 0.23345134 -0.14597772 -0.008138411 0.22930525 -0.1473369 0.26526463 0.22554663 0.5682089 0.23825642 0.12745273 -0.10688189 0.025334936 -0.3426932 0.12224535 0.08121303 0.023483163 0.01691164 0.06595303 0.06461217 0.15506417 -0.084532134 -0.06731921 0.0108602615 -0.051027622 -0.14301921 0.08881361 -0.088327184 -0.31829786 0.30664095 0.4351071 0.04898666 -0.09779613 -0.7091745 -0.17222723 0.1898039 0.4423462 0.2009021 -0.3028142 0.6488093 -0.25913304 0.14634685 0.18852115 -0.008283368 0.059017994 0.10270447 -0.07931239 0.07867759 -0.58371514 -0.123442814 -0.07631345 0.8814084 -0.35525814 -0.3523213 -0.0056201513 0.21643163 -0.14014675 0.6341474 -0.2450883 -0.31734246 -0.25591233 -0.42293164 -0.51484334 0.28436178 0.7690162 0.21875441 -0.30997247 0.3796896 -0.06199528 -0.32332498 0.20598479 0.13514659 0.29462242 0.19348331 0.23578304 0.2538526 -0.101783864 -0.014324379 0.29178464 0.07797256 -0.05614783 -0.37653384 0.096096866 -0.07548309 -0.0139077585 0.19805604 -0.3415018 0.1541608 0.06391177 -0.39382887 -0.14638989 0.19848576 -0.12664984
120 -0.003854282 -0.24775529 -0.13202634 0.07103246 -0.07463927 -0.18504798 -0.20681477 0.41557178 0.0704387 -0.046852157 -0.0044526164 -0.20100975 -0.1987073 -0.17475085 0.30945477 -0.6477937 0.018435726 0.30710018 0.26925853 -0.17724198 -0.15225123 -0.10820159 -0.39719766 -0.013232438 0.5382719 -0.0003197605 -0.09764835 0.07800052 -0.27099234 0.08196636 0.24166223 -0.19854116 0.20925412 -0.31246108 -0.13897672 -0.18464996 -0.38016486 -0.30764538 -0.42173782 0.13226072 -0.40556732 0.49600604 -0.03365732 0.30469343 0.032522712 0.25132817 -0.06885007 0.17859806 0.08983557 0.7175182 0.12800354 0.2525889 -0.29996857 -0.086064 -0.020898174 0.35519263 -0.48463032 -0.20013455 -0.38230744 0.123905726 -0.23232397 -0.08857386 -0.19989637 -0.17499702 -0.0084418515 -0.1497075 -0.01208321 -0.31129447 -0.05323711 0.1988882 -0.13341574 0.4826404 -0.23327951 -0.096087664 0.07629303 -0.48394167 -0.013435544 -0.20646638 -0.31052276 -0.4951783 -0.8423624 -0.1444567 0.12097086 0.19540888 -0.2551222 -0.020849176 -0.12731281 0.15998186 -0.4606693 0.096352495 0.20211539 -0.05376246 -0.458877 0.24907532 -0.09365232 0.4163077 -0.089662194 0.005049393 0.62073857 -0.74110496 -0.27491105 -0.23201229 0.29466167 0.3509401 0.070647106 0.048188422 -0.057438966 0.20817488 0.08150602 0.100109816 -0.068790026 -0.24459484 -0.5877415 -0.31497395 0.19725293 -0.077445775 -0.59984696 0.22514936 -0.015374041 -0.17113698 -0.09339781 -0.32604128 -0.06018496 0.26370227 0.01227085 0.24731381 -0.11311594 -0.5542083
33 -0.6400009 -0.25113067 0.020604184 -0.24444734 -0.05810029 -0.20074065 -0.52192676 -0.0890705 0.29838696 0.036329985 -0.2603095 -0.11277053 -0.305587 0.22356789 0.06562479 -0.21151417 0.07836063 -0.09696379 0.34788626 -0.32599932 -0.12989622 -0.07016254 0.33920667 0.5769782 0.27154586 -0.023072701 0.059634656 -0.14401019 0.048155956 -0.333308 0.46087205 0.069233544 -0.06446967 -0.38948596 0.04327285 -0.034897916 -0.4499738 0.0934985 0.018252907 -0.085043035 0.14492989 0.4109926 0.52259517 0.0063578645 0.09453842 0.55442065 0.16540575 0.06892166 0.49883848 0.15289855 -0.19460066 0.28820708 -0.47181255 -0.08348805 0.12406649 0.01824838 -0.5180378 0.082063064 -0.1828196 -0.28201824 0.090038605 -0.10042063 -0.22324918 0.23950212 -0.077232346 0.32850885 -0.11093225 -0.34256652 0.25862315 -0.37710783 -0.062209267 0.029321639 0.18548562 -0.16702056 0.3443771 -0.17162004 0.021025298 -0.0008877164 0.0971813 -0.031266287 0.22844943 -0.11237629 0.064211994 -0.2864065 -0.582681 -0.2066401 -0.07157012 -0.10796473 0.3093623 0.39070114 0.34801844 -0.31460565 0.15752788 -0.053944916 0.069123976 0.20983598 -0.29417732 -0.33272856 -0.25713873 0.1122482 -0.34082565 0.55078596 -0.23221539 -0.14445813 0.03368527 -0.20281231 0.1855259 0.307544 0.0010675379 0.118928075 -0.3736036 -0.112287164 -0.56467885 -0.310995 0.22105247 -0.16581486 -0.21909514 -0.016013257 -0.26730156 -0.46773136 0.079328425 -0.035623923 0.25196826 -0.084906176 -0.3849825 0.19532016 -0.5552249 -0.1590401
223 -0.054311436 -0.52781045 -0.060210403 0.07555359 -0.13979451 -0.10070523 0.2027891 -0.2556949 -0.23687719 -0.3166081 -0.376514 -0.2749351 0.62875533 -0.29187092 0.018992454 -0.9189131 0.46142003 -0.10932594 0.1912541 -0.44976416 0.059410673 -0.26070812 -0.21013878 0.43814322 0.25654277 0.48691344 -0.51210374 -0.087248415 -0.0745641 -0.056782164 -0.31301618 0.06476944 0.16011305 -0.38199058 0.06452085 -0.06971432 0.0044373823 -0.36354598 0.23577926 0.036563754 0.07996072 0.16888343 0.40106395 0.30883542 0.41482708 0.058959603 -0.35049662 -0.03518238 -0.391395 0.09567663 -0.049811017 -0.016540471 -0.05706802 0.2806954 -0.009784559 0.15654011 0.026411928 -0.1428904 0.15076889 0.21052635 -0.62808204 0.21278238 0.14488442 0.20957829 0.12208096 0.6419927 -0.14746816 -0.43334284 -0.6189853 -0.014989198 -0.00034007462 0.36441323 0.29843575 -0.07308799 0.503757 -0.3125542 0.023374755 0.5119359 -0.17444646 0.07152815 -0.040932838 0.15260586 0.08414385 -0.33284277 -0.08143016 -0.079394124 0.8799391 -0.29824552 -0.29032925 -0.103587195 0.008083636 -0.09112456 0.63282377 -0.234001 -0.3494885 -0.27183262 -0.4855886 -0.9335138 0.22167192 0.6947297 0.13428982 -0.25379524 0.44394302 -0.36895233 -0.40982434 0.18766858 0.15429683 0.6264128 -0.01970446 0.17065093 0.3533647 -0.16551322 -0.026428279 -0.07668258 0.050068203 0.06762805 -0.33049586 -0.14676341 -0.20172146 -0.091482155 0.06144119 -0.3734982 0.37884405 -0.1892399 -0.40101022 -0.076626845 0.27654216 -0.006676567
429 0.04349874 -0.39176437 0.04692404 0.12567128 -0.097430214 -0.06318767 -0.04708461 -0.27733496 -0.2546101 -0.14215943 -0.2580284 -0.16595389 0.4783508 -0.32759207 0.010230093 -0.8420455 0.5575319 -0.0026150604 -0.018313233 -0.067017846 -0.072844535 -0.032036003 -0.07604237 0.38491604 0.36242965 0.2528606 -0.37010616 -0.12467872 -0.12294656 0.099454075 -0.39457276 0.026906643 0.014101863 -0.40887123 0.113773905 -0.0917785 0.22644612 -0.23226336 0.11374599 0.11442275 0.021710407 0.24860895 0.4075055 0.55857146 0.2350055 0.14895485 -0.30654925 0.019385906 -0.4532735 0.15489936 0.08727432 -0.0017374475 -0.008177627 0.043837905 0.15028986 0.21074803 -0.0288568 0.029768728 0.039736506 0.051135745 -0.25470528 0.2517883 -0.021385346 -0.042163447 0.23152427 0.57205385 -0.10550412 -0.33423087 -0.6919896 -0.09864357 0.13218796 0.37329406 0.28900734 -0.16012241 0.6194874 -0.25489888 0.08074078 0.32712463 -0.20435849 0.16725346 0.017612375 0.07896816 0.11106691 -0.44932017 -0.2060414 -0.024492972 1.105276 -0.28811157 -0.29856473 -0.12727045 0.0051412475 -0.22403938 0.6631345 -0.26691908 -0.3220026 -0.14819917 -0.45318443 -0.6501771 0.13886084 0.65209293 0.19591977 -0.3817429 0.4630633 -0.12124988 -0.31833115 0.086015925 0.12434274 0.4110704 0.075917415 0.29916018 0.16514885 -0.109889835 -0.011281478 0.10328596 0.21037802 -0.04838147 -0.3145588 -0.052938707 0.08434231 -0.03912765 0.29524106 -0.3825613 0.19109662 -0.22880253 -0.32687363 -0.20620856 0.36191973 -0.01987566
226 -0.40132818 -0.11684106 -0.05317927 0.40696126 0.3026914 -0.0008254256 -0.035378225 -0.3227154 -0.38067046 -0.3374278 0.14004548 -0.044713575 0.38248602 0.10860357 -0.19389918 -0.206771 0.250232 0.15644561 0.33835906 0.15145196 0.010410341 -0.1439491 0.23935954 0.0010823278 0.752131 0.046864502 -0.2737369 -0.25006157 0.0352568 -0.2953762 -0.12642156 0.7096114 0.18579501 -0.38030353 0.21889754 -0.2848333 -0.32402325 -0.67846763 -0.31829306 -0.16522591 0.6238047 0.13375677 -0.06935602 0.36221606 0.5143289 0.44038898 -0.4943681 -0.33484524 0.22866577 0.5509188 0.35726118 -0.1804245 0.55190676 -0.22686145 0.25810865 0.34897545 -0.5333074 -0.11282424 -0.2032047 -0.015736084 0.4000737 0.32213113 -0.0817773 -0.1956572 -0.122446366 -0.6663464 0.06614334 -0.22834185 0.07190258 0.1321182 -0.22928233 0.26991898 -0.009852983 -0.16462772 0.22679491 -0.783878 -0.123244785 0.07093371 0.09944964 -0.0041310205 0.23189616 0.452904 0.314812 0.052184265 0.46288043 -0.15293889 0.16489981 0.29161108 -0.09135141 0.30242446 -0.001197586 -0.13052069 -0.19618158 0.019748544 0.075462595 -0.3188755 -0.6190346 0.00825379 -0.36098143 0.55338055 -0.27256107 0.10157481 0.83587426 -0.20970689 -0.8406692 -0.3944632 -0.25004962 0.621129 -0.1185786 0.06527507 0.3885352 -0.55563873 -0.49217972 0.077341504 0.0251519 -0.2436115 -0.10571719 -0.4017736 -0.24397117 -0.15595135 0.0035660388 0.1510817 -0.59491336 0.120094374 -0.6091113 0.5808381 -0.29788548 0.20611976
422 -0.2634214 0.411277 0.22436771 0.31481838 1.0595716 0.3362296 0.24054466 -0.51171345 0.06545073 0.49538648 0.6636675 -0.2827723 0.46496472 0.018841056 -0.14662234 0.14113106 -0.1910561 -0.028625153 0.23523185 -0.022324748 -0.3004599 0.45385796 0.3482291 0.2621299 0.77725315 0.16087177 0.069858484 0.28437373 -0.06399441 -0.09409065 0.33042872 0.021130504 -0.020965206 -0.66270214 0.5434374 -0.3389194 -0.18478966 -0.08544105 -0.21855754 -0.035335742 0.21685635 0.5027151 0.06779372 0.27695316 0.012001175 0.08843672 0.004310887 -0.12676181 0.6860238 0.44632116 0.44543335 -0.296144 -0.56219184 0.3775536 -0.4183687 0.31992355 -0.19269925 0.03160038 0.13945664 -0.781193 -0.019655176 -0.0014908537 -0.23220906 -0.08417865 0.24225533 0.54352087 0.558417 -1.1370716 0.07701446 -0.055136304 -0.21925984 0.5790832 0.54484296 0.07988258 0.37821543 -0.21955563 -0.038163584 -0.26051542 -0.15672074 0.86260325 -0.16317266 -0.28402534 -0.27094573 0.014899335 0.012245712 -0.31358722 -0.007181887 -0.9508923 0.77294093 0.3324961 0.07446965 -0.15175879 -0.4387488 0.08355713 0.29695308 0.058402296 -0.6357365 -0.12807459 0.29233852 -0.046215367 0.0025202276 0.14179656 0.22860077 -0.19843721 -0.15800203 -0.1081943 -0.24935661 0.30788362 -0.09277016 0.5730391 0.22025855 -0.0012840726 0.1752659 0.05851485 0.3417075 0.38038504 -0.045118738 -0.031351775 0.8479007 -0.061712734 -0.0929252 0.02876317 0.48936617 0.02828763 0.06553062 -0.05534763 0.35188058 -0.55538774
100 0.24161969 0.02376282 0.20806056 0.24769296 -0.055558957 0.40441874 -0.15232484 0.036550965 0.4029225 0.08274542 -0.11242819 0.01072634 -0.44384578 -0.46347862 0.03734292 0.19435069 0.503329 0.3943827 -0.2837354 0.20417908 -0.45854697 0.40404013 0.33066377 -0.043531645 -0.1855484 -0.31475052 -0.17903866 0.24922459 -0.12970671 0.28065297 0.29222295 0.05883858 0.46117043 -0.54726624 -0.04089169 -0.065330155 -0.12967807 0.43030125 0.3463437 -0.31770882 0.3782446 0.77172136 -0.24404708 0.612864 0.08049668 0.68836075 -0.18537138 0.1529021 0.25694814 0.26058772 0.3945409 0.19231984 0.55337745 0.6254718 -0.56229305 0.16136692 -0.24789707 -0.2946708 -0.51868033 -0.529388 -0.1291753 -0.28612107 -0.25914475 -0.2279383 0.05527397 0.50335795 -0.032215476 -0.012011345 0.16079116 -0.062363192 -0.052436404 0.6748291 0.6387849 -0.16716056 0.15776493 -0.20482711 0.10695834 -0.09956574 0.4981265 0.5816727 -0.32275894 -0.19895978 -0.55863607 -0.13744989 0.0490002 -0.02529904 0.081971146 -0.023188375 0.22722639 0.4663712 0.5015534 0.4948908 0.41450927 0.07422319 -0.179156 0.2274703 -0.13899614 -0.60518414 0.07882258 0.2894963 -0.016835544 0.45856538 0.16021399 -0.3571267 0.06508136 -0.4475709 -0.26751164 0.53978854 0.81200033 0.7259332 -0.13455498 0.24488184 -0.21366438 0.014634723 -0.08623725 0.49457297 -0.31326705 0.5848003 -0.25453627 0.172828 0.3508251 0.03323494 -0.23054059 0.050781235 -0.6815395 0.36784357 0.29528907 -0.09433533
11 -0.16968651 -0.3879491 -0.046498597 -0.077798605 0.10259266 -0.18144813 -0.31072575 0.26173303 0.40746358 -0.19822834 -0.30163243 -0.15454704 -0.22925971 0.15367213 0.35825157 -0.1896162 0.14532517 0.0034330904 0.30984962 -0.2500078 0.15735853 -0.07076608 0.22323854 0.491321 0.25731 0.20276466 -0.29945147 -0.30744356 0.47595176 -0.3516245 0.3076062 0.10614322 -0.29438937 0.01253234 0.17873491 -0.02819397 -0.053502176 -0.09396529 -0.018001143 -0.048985187 0.32783362 0.32870537 0.02586005 0.15092403 -0.37516752 0.24943864 0.11428467 -0.039548304 0.3486111 0.15009534 0.22573566 0.13203377 -0.59782916 -0.12404785 0.14194754 -0.3417732 -0.46501794 0.28074136 -0.47858083 -0.1569668 0.31726858 -0.14202955 -0.1969197 0.2645648 -0.17485967 0.48210293 0.0051840367 -0.50202966 0.3145477 -0.4567832 -0.2948551 0.38341087 0.12937628 -0.3219881 0.08953842 -0.024562212 0.010262719 -0.056808516 -0.09367152 -0.32737485 0.47048095 0.033250246 0.18223321 0.08728652 -0.5931358 -0.22892447 0.0031319272 -0.010835394 0.56327987 0.27334246 0.49677366 -0.53184396 0.03882613 0.023927743 0.08674726 0.52606237 -0.3306189 -0.14736217 -0.10093147 0.33440697 -0.34713745 0.54278934 0.1418817 -0.14236766 -0.04786094 0.0019499903 0.20320086 0.09749007 -0.03595999 -0.2010921 -0.030590883 -0.103413865 -0.6677842 -0.5840508 0.33234587 -0.067826495 -0.75762945 0.18242027 0.08335936 -0.3463692 0.03165527 -0.3700973 0.31152403 -0.28701258 -0.43776292 0.1245291 -0.5189841 -0.3168137
295 0.6192888 -0.16699584 0.15968715 0.36395726 -0.24232244 -0.30075842 -0.42865077 0.006060551 -0.071548775 0.8680576 -0.3507515 0.07386384 -0.30333477 -0.17560115 -0.4996611 0.016470963 0.094490595 -0.034037173 -0.34891573 0.08311041 0.2245827 0.18175822 0.11993222 0.01962764 0.07423177 -0.27674377 -0.029418154 0.052850615 -0.028944444 0.10240498 0.40881434 0.6283066 0.6163182 -0.44923484 0.11993718 0.053577013 -0.016725587 -0.4690972 0.092816405 -0.20305367 0.023235146 0.53350794 -0.16132845 0.31299344 -0.36430162 0.41767347 -0.21535155 -0.031594325 0.45962304 0.28184542 0.55945575 0.29642895 0.46301514 0.37439704 -0.019979957 0.5670927 -0.111550644 -0.4972261 0.145985 -0.1527228 0.0684784 0.066067725 -0.9211731 -0.17128171 0.15732402 0.06735734 0.12192294 -0.3067176 -0.008301126 -0.2760314 -0.16695131 -0.3876043 -0.0755893 -0.56271625 0.34723237 -0.100669816 0.21773076 0.18895337 -0.025241513 -0.07317932 -0.17346106 0.08749902 0.2512311 -0.60209817 -0.104014546 -0.034837894 0.1518415 -0.10468559 0.079259366 -0.02405366 0.14133091 0.28421718 0.0028513316 0.061493114 0.5175783 -0.39844522 -0.37560773 -0.0770587 0.06601489 0.109907225 0.1618521 -0.27047187 0.49322498 -0.398906 -0.49386075 0.2267991 -0.023678558 -0.19110046 -0.18343444 -0.17171364 0.4413112 -0.2325582 -0.33577377 -0.29195222 0.34409732 0.44781926 -0.5418657 0.016605321 -0.02486673 0.13683929 -0.47346422 0.3317281 -0.08111081 -0.29863057 -0.2968503 0.34778395 -0.010193522 -0.120064504
54 -0.43670905 -0.2545695 -0.093292534 0.3222559 0.30071142 0.013461451 0.03837631 -0.20205623 -0.3318287 -0.32900944 0.08391763 0.06035448 0.2678916 0.12276264 -0.25052795 -0.24836005 0.31919196 0.21149534 0.43222755 0.009817134 -0.059763987 -0.06625626 0.1311421 0.1385304 0.768522 0.095158674 -0.2834661 -0.08854097 0.042912763 -0.36461425 -0.0127064325 0.6929227 0.17137533 -0.34665635 0.25568897 -0.25683296 -0.2820633 -0.5817564 -0.24249919 -0.2085554 0.65314174 0.035509296 -0.14745842 0.20876525 0.65899605 0.3950097 -0.44445887 -0.23319735 0.24238907 0.49983943 0.09774873 -0.15933922 0.5743768 -0.10711734 0.22208318 0.31931493 -0.53167295 -0.16872048 -0.25277027 -0.08434603 0.32897976 0.323727 -0.023252264 -0.13343073 -0.104466364 -0.6757987 0.08487776 -0.29571256 0.07457249 0.18282565 -0.21279952 0.19684486 0.11995858 -0.13185786 0.26653418 -0.76618296 -0.19696316 0.09786028 -0.018680748 0.07355634 0.101734966 0.45083925 0.3008811 0.06733821 0.5374292 -0.14454278 0.14766844 0.354214 -0.23749883 0.2872453 0.047302026 -0.059574846 -0.18354137 0.034540635 -0.15797505 -0.2811943 -0.6255231 0.043856885 -0.50313437 0.5925462 -0.25129777 0.09307504 0.83353204 -0.3079232 -0.9612105 -0.4176818 -0.24149542 0.7025339 -0.3046057 0.1382579 0.29057056 -0.5294071 -0.6241559 0.011792403 0.09430516 -0.07919115 -0.055528864 -0.3275384 -0.29591215 -0.14942585 -0.07458052 0.24628781 -0.5558625 0.08396697 -0.6472938 0.55200464 -0.31778386 0.2462411
145 -0.17113058 -0.6197554 0.027123386 0.031881623 0.13093427 -0.21953325 -0.21526071 0.17856815 0.2750033 -0.008113149 -0.3372276 -0.27303597 -0.17710836 0.03643731 0.11463059 -0.22796345 0.090076864 0.06043376 0.066731505 -0.31020886 0.24094418 0.06721246 0.21051405 0.47299716 0.2398485 0.12923802 -0.027883051 -0.38836297 0.3794414 -0.33540758 0.34042522 0.18573485 -0.32274967 -0.10935761 0.30547008 -0.09460988 -0.014879861 0.04432028 0.039666824 0.09452543 0.2844716 0.26068312 -0.030400502 0.2544812 -0.2906678 0.13550335 0.11305165 -0.18164065 0.40199813 -0.0063109724 0.12450249 -0.01835919 -0.43432412 -0.21204776 0.34421518 -0.3554635 -0.49074173 0.4024865 -0.51119214 -0.3115109 0.38567263 -0.1353843 -0.22244868 0.24849619 -0.1692863 0.42820242 0.019667642 -0.28224882 0.38704294 -0.5528461 -0.31274912 0.42986917 0.23483625 -0.40071946 0.1295497 -0.05554309 -0.0047538104 -0.040470783 0.0482742 -0.17447372 0.41260073 0.04018332 0.037865356 0.071110584 -0.42039508 -0.31750703 -0.14185189 -0.16112447 0.5718532 0.18028878 0.42610434 -0.53479403 0.20706634 -0.038979176 -0.011782682 0.47803378 -0.25078234 -0.0018667474 -0.10219239 0.3088206 -0.32603425 0.47447273 0.18035248 -0.04828838 0.029100997 0.046373483 0.1328456 0.15451097 -0.034531794 -0.15248848 -0.09059755 -0.06531576 -0.62359804 -0.5966893 0.30594066 -0.080247745 -0.7661859 0.27942687 0.03886657 -0.2816272 0.07455111 -0.31869814 0.3352667 -0.25889784 -0.39893624 0.23022513 -0.48722056 -0.2928553
450 -0.030788412 -0.3995733 -0.33658656 -0.29490367 -0.23031005 -0.010246374 0.13763788 0.22924006 0.054987375 -0.15059288 -0.07975467 -0.043965094 0.07192686 -0.06086509 0.06913241 -0.306421 -0.17146885 0.22862194 0.061991487 -0.3635682 0.0164884 -0.0784717 -0.42912832 0.13311107 0.16612427 0.13680087 0.14402133 0.12953587 -0.37891015 0.20404445 0.29256055 -0.12959936 0.2937063 -0.18174303 -0.074315526 -0.17147024 -0.42845297 -0.52050674 -0.1543611 0.07568785 -0.51841885 0.5743619 0.21638459 0.08839958 -0.1443489 0.19357015 -0.16744848 0.21900156 -0.06878502 0.4220589 0.29823163 0.109365985 -0.22832008 0.13670164 0.07528245 0.59524155 -0.58145094 -0.071493536 -0.0929475 -0.12971196 -0.4404673 -0.10049839 0.08257702 0.08318322 -0.10321618 0.11237289 -0.17250094 -0.5186725 -0.21862583 0.048463985 -0.18514308 0.34530762 -0.40860486 -0.005788444 0.012990961 -0.76539046 0.034784026 0.013675139 -0.097746976 -0.21079372 -0.8033736 -0.386962 -0.18355905 0.20282376 -0.12154018 0.039006475 -0.1167861 0.27643633 -0.5681688 0.016214544 -0.1221461 0.26736546 -0.11983965 0.29046822 -0.14555465 0.083815455 -0.25896606 -0.331655 0.5794329 -0.5812901 -0.4365394 -0.12705167 0.41211283 0.2298396 0.31004703 -0.19377905 -0.1722144 0.2900248 -0.5877669 0.025991974 0.09081033 -0.3692757 -0.5772542 -0.424901 0.049601234 -0.083456054 -0.36647892 0.10220994 -0.11212925 -0.24520946 -0.42869022 -0.3374148 0.1736146 0.44363186 -0.15596819 0.41285136 -0.22643988 -0.9791959
181 -0.062457703 -0.20988537 -0.4118227 0.24155195 0.448637 -0.073609665 0.032597687 -0.011745041 0.21680953 -0.4337277 0.05063588 -0.14073776 0.10908335 -0.68931466 0.25845215 -0.22805376 -0.13819128 -0.107317396 -0.52936727 0.18863367 -0.14270772 -0.1834435 0.15298262 0.19686866 -0.5463949 0.11603638 0.26386452 -0.45662278 -0.068193644 -0.22911517 0.28986448 0.28692847 -0.1768592 -0.3672509 0.2753969 -0.1528837 0.2994536 -0.0056805084 0.039248265 -0.19652262 0.12686172 -0.17642345 0.29444247 -0.010685557 0.07141999 -0.040282827 0.26839402 -0.13788477 0.3457665 0.2574202 0.34348458 0.019403297 0.4901952 0.2329741 0.24524722 0.021267572 -0.33793998 -0.1200929 -0.001262886 0.18416761 -0.37639952 -0.54502106 -0.5662081 -0.2620821 0.39048663 0.102746725 0.13169096 -0.3405478 -0.39175153 0.03321308 0.097933985 0.1291966 0.07122793 0.020716242 -0.05428804 -0.0045797 0.2943997 0.3486835 -0.22487666 -0.11815568 -0.2498159 -0.25341013 -0.18404849 -0.021771511 0.18825631 0.16712329 0.017921444 0.10570496 -0.2984338 0.8769828 0.532526 -0.25306815 0.06717291 0.35700506 0.39586735 -0.22856337 0.06518178 -0.37844422 0.43630034 -0.350973 0.5433825 -0.33128157 0.15305147 -0.30345646 -0.5992719 -0.57925904 0.0686426 0.27000466 -0.076840125 0.49021468 0.3006352 -0.17387737 -0.3321815 -0.2421639 0.40681213 0.410647 -0.29955772 -0.009587662 -0.3855792 -0.33988884 0.0715137 -0.09594153 0.10691752 0.6076834 -0.09657584 0.13901092 -0.35117882 -0.08112719
44 -0.5673532 -0.29124913 0.05385705 -0.18838152 -0.16700768 -0.29581854 -0.6193025 -0.01802284 0.15347393 0.13302702 -0.265463 -0.083235376 -0.23749535 0.17978197 0.028637132 -0.15481374 0.10790026 -0.17364168 0.4842218 -0.35713553 -0.1757787 -0.08092158 0.2530966 0.68933713 0.3458939 0.08700435 0.03686027 -0.20203851 0.072106905 -0.2998614 0.48087138 -0.10731271 0.09718762 -0.36896145 -0.12800665 0.06489362 -0.6011484 0.12888657 -0.21412061 -0.095890686 0.11022563 0.25473428 0.3456054 0.06049176 0.21963799 0.40088868 0.16588694 0.11780969 0.38918468 0.12748915 -0.05269382 0.24342026 -0.41775662 -0.07166285 0.09830582 0.09090311 -0.6677249 0.005002326 -0.2949002 -0.26945964 -0.10456672 -0.13948531 -0.31451565 0.20349315 -0.077649094 0.32975397 -0.204746 -0.3166996 0.20446463 -0.4658304 -0.10852813 0.064285316 0.2669088 -0.26365513 0.2827156 -0.20302205 -0.022504304 -0.14477769 0.19820493 0.054957848 0.20046689 -0.2252753 0.09037442 -0.24170707 -0.6520747 -0.19907638 -0.14173356 -0.19864327 0.28047878 0.36632234 0.3810027 -0.27785066 0.17307734 -0.0448238 0.06203408 0.12651044 -0.26088172 -0.2747245 -0.26493302 0.130853 -0.48680466 0.6520904 -0.2818457 -0.037718415 -0.09692996 -0.15400614 0.070848815 0.41389543 -0.039622925 0.15664834 -0.40305665 -0.033100843 -0.3525603 -0.17695932 0.1599644 0.05526935 -0.20047377 -0.070959136 -0.19381703 -0.3899324 0.052993417 -0.055245496 0.27024698 -0.0042291707 -0.43264875 0.06452224 -0.5614843 -0.20720361
27 -0.2881507 -0.18937607 -0.4321305 -0.5206091 0.045345876 0.12019106 -0.23852496 0.020821655 -0.23666935 -0.12789406 0.07201486 0.2834805 -0.04595508 0.25272664 -0.31319094 -0.25268176 0.3072351 0.2190853 -0.3534623 -0.16240202 -0.0020396735 0.3403077 -0.08333554 -0.13212225 0.28370026 -0.15633658 0.119716264 0.28491038 -0.18469965 0.3306493 0.22785445 0.025977263 0.40882862 -0.0035024234 0.13102198 -0.21042407 -0.09546198 -0.4778241 0.17569838 0.28494567 -0.24795443 0.51779395 0.17456397 0.5400805 -0.23427603 0.2948763 0.22266792 0.11770704 -0.16162196 0.25199467 0.28504068 -0.10203096 -0.069745064 0.07481781 0.39955187 0.51703054 -0.5340612 -0.22043416 -0.23490879 0.2352184 -0.2933124 -0.14891197 -0.3708698 -0.08354556 -0.4975155 -0.21471447 0.21189609 -0.50066394 -0.38507482 -0.07351936 -0.04133771 0.16818422 -0.118163474 -0.1019492 0.18517931 -0.41142672 0.30515444 -0.3334606 -0.19759254 0.028418949 -0.6464693 -0.5567773 -0.7476942 0.21879697 -0.09188282 0.20923439 0.19824998 0.14512871 -0.6155155 0.21637693 -0.15138857 0.03172526 0.0030814027 0.09963989 0.11231057 0.095001034 -0.22584213 -0.44991186 0.50500196 -0.15654454 -0.3567619 -0.02444259 0.43819186 0.18569078 0.7389569 -0.32937157 0.31256872 0.47968924 -0.397929 -0.13237363 0.24461737 -0.52741945 -0.5092485 0.053205352 0.27941427 0.31224364 -0.44945043 0.12254099 0.041721802 -0.36756486 -0.45181507 -0.23567216 0.104716904 0.5733561 -0.3636023 0.20889546 -0.0073942225 -0.75424683
216 0.023284547 -0.53712153 -0.7220604 0.3143174 0.03806416 0.02108217 -0.36504698 -0.0776339 -0.016591497 0.7887729 -0.16134475 -0.21945027 0.46194443 0.6491121 0.036923498 0.6256288 0.10818612 -0.2879944 -0.47926116 0.3460825 0.22058628 -0.13090296 0.2452805 0.6524523 0.31906417 0.25333664 0.0201977 -0.13776442 -0.7098386 0.4798267 0.5769505 0.25876504 0.02703797 -0.58962584 0.63369167 0.32430735 0.10649922 -0.2358785 -0.38084462 -0.09428123 0.5324426 0.67891455 0.15230183 0.51883894 -0.008171365 -0.3451283 -0.46892232 -0.16606547 0.04329487 0.087231696 0.24232548 0.15735799 0.24480785 0.42229488 -0.44584554 -0.4000915 0.16601284 0.45779264 -0.410995 0.5759006 0.026135003 0.059520587 -0.37831804 -0.4126857 -0.22166318 0.14831847 0.04145011 -0.4173705 -0.48406655 0.5253399 -0.0032263366 0.63107395 0.12220873 0.17593656 0.17758292 -0.113874696 0.45579958 0.2762093 0.11847232 0.008933796 0.07148991 -0.41580066 -0.3379108 -0.40952682 0.22749135 -0.4072513 0.1190086 0.42846793 0.00691189 0.11183936 -0.015003463 0.4445112 0.08701301 0.42740506 -0.025040133 0.7526987 -0.28014067 0.027900929 0.06224634 0.5746699 0.15022352 0.11474721 0.3020458 -0.06940911 -0.2821593 0.2498556 0.42377412 0.5817066 -0.5416738 0.41760918 0.27887136 -0.25138146 -0.43020877 -0.16153952 -0.024306308 -0.031701777 -0.2557411 -0.3197231 0.18813065 -0.2661865 -0.04430665 -0.37430087 0.18389592 0.2815566 0.07471538 0.410064 0.10059362 -0.5614394
211 0.06477142 -0.4541456 -0.012109312 0.0076378346 -0.20844555 -0.07970613 0.093317606 -0.28221557 -0.35971135 -0.3431635 -0.45475933 -0.39967704 0.5769688 -0.35636336 0.04441352 -0.9282649 0.5997148 -0.08933376 0.17720021 -0.3090242 -0.07562266 -0.21620694 -0.110309936 0.59656554 0.30825037 0.37987837 -0.48038405 0.009257336 -0.050396122 0.025840085 -0.32082278 -0.00808425 0.15373987 -0.4262226 0.032938126 -0.24565883 0.07599532 -0.32974556 0.25154725 0.045908265 0.11986811 0.22990318 0.48651594 0.40520042 0.38314912 0.015620631 -0.21130808 -0.050905894 -0.3735977 0.16854607 -0.120260306 0.003935936 0.029547578 0.18463361 0.019374348 0.14489509 -0.052962735 -0.20176591 0.120527014 0.24984498 -0.3420991 0.16947754 -0.030919287 0.22345409 0.20583595 0.79294074 -0.07626145 -0.44171286 -0.62804806 0.069005206 0.08370997 0.3401246 0.25248033 0.0055568805 0.35186934 -0.29570222 0.028612688 0.50993556 -0.2957869 -0.07312567 -0.12473572 0.15438847 -0.12678425 -0.4608913 -0.16625684 -0.026075192 0.9706091 -0.31188136 -0.1859734 -0.20162433 0.023022987 -0.05775068 0.5864784 -0.2098095 -0.34926945 -0.41572806 -0.4044564 -0.8570058 0.088605 0.7352513 0.07813049 -0.24582349 0.3889318 -0.31222138 -0.32004702 0.10752384 0.23083372 0.7321997 0.04474924 0.18646684 0.29028967 -0.17464589 0.024863843 0.10619687 0.20575494 0.035529118 -0.44401807 -0.19827276 -0.15082729 -0.0755393 0.0634266 -0.46881282 0.4004187 -0.24687763 -0.36908472 0.0024308045 0.38760757 0.01660722
206 -0.434442 0.038710993 0.18156657 0.4345493 -0.015371416 -0.0838412 -0.4414503 0.09458717 -0.4169692 0.45324248 0.10621984 0.32787234 -0.24509722 -0.72301483 0.51304144 -0.13861974 0.28301132 0.2647391 -0.25553718 -0.12921752 0.24009067 -0.053909063 -0.01635429 0.746171 0.08008314 -0.14916344 -0.02171096 -0.4489004 -0.29906604 -0.1845699 0.44455457 0.11518573 0.32636347 -0.33567312 0.24486771 0.21129957 -0.037060104 -1.1634147 -0.5227994 0.26126498 0.39648402 0.37601376 -0.11520804 0.46261236 0.014925122 0.17378478 -0.23025043 -0.14664157 0.053166594 -0.2464066 -0.06724472 -0.5455691 0.50171936 0.46027023 0.14289297 0.3641619 -0.4078221 -0.48455876 0.049081367 0.23858908 0.22783639 -0.11618491 -0.08616145 0.2747921 0.033936426 0.5129322 0.34202263 -0.66637135 -0.42069563 0.40246615 -0.01204014 0.24216758 0.29509467 -0.09992844 0.29301956 -0.17880026 0.03623252 -0.08112172 0.30405912 -0.32816607 0.08054064 0.05057287 0.21956971 -0.40556818 0.31317937 0.25932133 0.14017148 -0.007447469 -0.036848772 -0.63730913 0.48435995 0.12776032 -0.38275388 -0.38608098 0.42381608 0.010740081 0.022755709 -0.59412426 0.55618197 0.040539984 -0.6177779 0.00015461407 0.042935945 -0.103834115 -0.2503981 -0.2650997 0.2806392 0.49810988 0.1118637 0.3304221 -0.026431978 -0.17478293 0.30314478 -0.3451511 0.18298222 -0.23732327 0.2659196 -0.3893535 -0.42783755 -0.7092609 0.1430445 -0.17407845 0.050961386 0.1241575 0.101267956 0.2346908 0.14965975 -0.6526468
103 -0.49115434 0.018987076 0.6226663 0.4011632 0.43174765 0.008391752 0.24370342 0.21503177 -0.42633045 -0.27884686 0.2778029 -0.7018017 0.017304856 -0.31645614 0.28999403 -0.29243484 0.8200553 0.51614404 0.05112067 -0.22688186 0.6028423 0.07809527 -0.33116382 0.337964 -0.6690359 -0.107174784 0.4229838 0.13144861 -0.064630665 0.21266861 0.07890438 0.37516347 -0.009645268 -0.28891462 0.730813 -0.53605103 -0.21672814 0.12387644 -0.17143461 0.00074509 -0.00926145 -0.014019588 0.6207704 0.42507547 0.20595758 0.0019423208 -0.051319636 0.057222746 0.10300989 0.15881957 0.6175328 0.5643089 0.0017001667 -0.16082 -0.3727237 0.74388736 -0.6530652 -0.59788334 -0.5858895 -0.014093822 -0.734652 0.2564772 -0.011798846 0.0006882593 -0.31600454 0.373482 0.79839075 -0.4231405 -0.10421949 -0.02896903 -0.5477021 -0.095671155 0.06727859 -0.059086863 0.28483832 -0.1272253 0.042761277 -0.05967283 -0.5537936 0.14362946 -0.122514606 0.022863405 -0.02021245 0.024194587 -0.28155813 -0.4499072 0.26488087 -0.3233704 0.1651081 0.24138494 -0.8291158 -0.16210838 0.10325031 -0.17467022 0.81969726 -0.49906105 -0.28647116 0.013469068 0.4065102 0.22327365 -0.2004612 -0.110750616 0.3477692 -0.09892363 -0.12633795 -0.035555623 0.10391655 0.24294196 -0.143147 0.20280442 0.62515515 -0.38050142 -0.26937544 0.13870683 0.08638197 -0.060281977 -0.45141047 0.19103397 -0.18595704 -0.0016217805 0.28475395 0.09056359 0.7331266 0.20853455 -0.35800636 0.26567575 0.03657448 -0.11728207
408 -0.047445197 -0.27942985 -0.18027674 -0.36246487 -0.1366138 -0.015402378 0.23064455 0.24469227 0.115384884 -0.18480921 -0.07962768 -0.09726644 -0.07543672 -0.03349783 0.18180221 -0.30317652 -0.06121686 0.21019705 -0.009859729 -0.23685189 -0.17283224 -0.02823844 -0.42518395 0.040472835 0.30357423 -0.003179672 0.16496103 0.10660494 -0.22267045 0.20133066 0.23931484 -0.07718212 0.24131405 -0.21327212 0.020036962 -0.2808744 -0.39163426 -0.52140063 -0.01728764 0.08687863 -0.46364045 0.41592726 0.24044561 0.19924402 0.04615142 0.21302553 -0.0483188 0.16860797 -0.05158057 0.44502398 0.29249063 0.13603252 -0.30246013 0.14025109 0.08332006 0.4703264 -0.63692504 -0.036119487 -0.24435952 -0.18844055 -0.28658125 -0.064696945 0.036651943 -0.07033761 -0.12069244 0.05137951 -0.09969475 -0.43884727 -0.28764018 0.020889895 -0.0784981 0.21191631 -0.43029198 0.0593467 0.063853726 -0.59886336 -0.00026877705 -0.014364223 -0.18032165 -0.41064337 -0.75060946 -0.3466184 -0.14674512 0.09200595 -0.17541072 0.028710356 -0.09336403 0.340111 -0.5232881 -0.07172452 0.008535713 0.20965584 -0.14743425 0.27555838 -0.26464066 0.17427602 -0.34152564 -0.43130258 0.4920883 -0.60408443 -0.40974912 -0.02961549 0.4621678 0.14737673 0.3488367 -0.23526627 0.032852095 0.2698144 -0.47030678 -0.049943194 -0.031259622 -0.43545085 -0.5770774 -0.4468549 0.3369027 -0.09105255 -0.46676934 0.21474676 -0.13508435 -0.2612745 -0.48548684 -0.30740866 0.048172142 0.48735335 -0.03872733 0.32051465 -0.089543775 -0.9677726
199 -0.3655747 -0.10293929 -0.104473844 0.5298589 0.17034231 0.002405568 -0.025515426 -0.12437226 -0.4800393 -0.29872927 0.26932842 -0.03121477 0.29201987 0.070052564 -0.144072 -0.30941296 0.28122965 0.15283187 0.3152901 0.305132 -0.08754969 -0.055270158 0.2423778 0.10455513 0.78517026 0.012007346 -0.03858255 -0.27077845 -0.039915808 -0.3561731 -0.039448764 0.7557358 0.1325848 -0.46002784 0.19041418 -0.16972055 -0.3006256 -0.50491124 -0.2950409 -0.15507175 0.6512659 0.06296949 -0.07258765 0.30718246 0.48975927 0.4407079 -0.4705125 -0.25769854 0.221587 0.5520952 0.14064269 -0.12774168 0.43007538 -0.22749317 0.33637017 0.44733483 -0.54751676 -0.09029049 -0.2788472 -0.11121272 0.37650082 0.3466342 0.036838893 -0.10365094 0.0037409475 -0.67712694 0.134498 -0.39609548 0.16044877 0.18569158 -0.19085479 0.16256537 0.059151277 -0.028977184 0.16777977 -0.8544976 -0.1482591 0.13704836 0.09453266 0.06871471 0.0809352 0.46569225 0.2542788 -0.036027756 0.37433562 -0.06971777 0.068997 0.33677575 -0.10762048 0.3389967 0.011365934 -0.045744367 -0.25169957 0.07142827 -0.009687465 -0.35834357 -0.72912776 0.025147973 -0.43143305 0.5809394 -0.2560594 0.12458051 0.7882377 -0.13105792 -0.75064194 -0.517347 -0.21123503 0.61538535 -0.20671402 0.10282844 0.14650671 -0.49584013 -0.5190086 -0.061209753 0.11628841 -0.26603436 -0.047255002 -0.37939397 -0.17312866 -0.1625068 0.11824457 0.1375347 -0.6117048 0.13241425 -0.7077055 0.48024413 -0.29385212 0.1486005
352 -0.4502966 -0.082423545 -0.41838044 -0.46105742 -0.040551957 0.12284292 -0.29450098 -0.10249962 -0.13886341 -0.104321964 0.12157685 0.21931022 -0.0020149946 0.31302783 -0.36382243 -0.26659688 0.29757866 0.25483713 -0.28954524 -0.25821152 -0.0832751 0.28204256 0.01567387 -0.03031515 0.27956444 -0.15905032 -0.07171118 0.28036118 -0.1426312 0.32316875 0.24541193 0.0032165346 0.44321564 -0.13147455 0.17149872 -0.32787734 -0.118935786 -0.4437358 0.18899779 0.16471751 -0.30706808 0.52016664 0.09383521 0.4185085 -0.29034042 0.29984775 0.20142221 0.11321272 -0.16816339 0.33311233 0.4088761 -0.045494493 -0.12124494 0.22861439 0.3300531 0.38859653 -0.5556031 -0.38816768 -0.055521972 0.34638113 -0.42290166 -0.06438599 -0.3035312 -0.0890871 -0.51337105 -0.15839155 0.1831161 -0.5217704 -0.31799373 -0.004607232 -0.11025459 0.21955648 -0.2791198 -0.09803821 0.107735105 -0.45203832 0.3794647 -0.29476655 -0.1081978 -0.05104429 -0.74718785 -0.5744454 -0.7164927 0.13918784 -0.073469326 0.13682902 0.15916242 0.20217167 -0.51716745 0.29539755 -0.17991887 0.021693708 0.14990759 0.01891434 0.1712895 -0.023950055 -0.17105986 -0.44744867 0.58356154 -0.21573813 -0.19370973 0.050275728 0.399648 0.08333945 0.7603413 -0.45044267 0.26383016 0.5342831 -0.2822473 -0.09231044 0.19517367 -0.5824814 -0.5220399 0.091621175 0.20143966 0.34011233 -0.399798 0.012896231 0.15372103 -0.41025576 -0.3417109 -0.24879357 0.21336284 0.57358164 -0.13727139 0.15591729 -0.00066710607 -0.6962194
35 0.016725663 -0.10416518 -0.31650412 -0.2114888 -0.123468585 -0.09503472 -0.24843062 0.14118299 -0.27040353 -0.11529412 0.03138718 0.078433156 -0.06672968 -0.068074726 -0.22387958 -0.39071178 0.04730753 0.39653865 -0.09622662 -0.35618314 -0.16458158 0.2542813 -0.17162926 0.072757326 0.50136137 -0.12856852 0.036205024 0.25815338 -0.18437852 0.30105206 0.27986872 -0.088419236 0.14084841 -0.18550327 -0.033649124 -0.3491266 -0.13345446 -0.34023184 -0.10033737 -0.083933905 -0.22931887 0.48067975 0.17954683 0.5777423 -0.23872589 0.049103696 -0.027198436 0.07728324 -0.16494223 0.22607821 0.47593078 0.052264564 -0.2040338 -0.043814953 0.37926722 0.5625944 -0.51184803 -0.041390263 -0.3105167 0.223736 -0.41578487 -0.023400348 -0.07646056 -0.26183465 -0.34193063 -0.0010983312 -0.0775002 -0.26313317 -0.25554493 -0.038894344 -0.153683 0.45327136 -0.40541506 3.4855468e-05 0.3059325 -0.35093763 0.23587061 -0.269835 -0.2547747 -0.2246697 -0.62659156 -0.40546444 -0.26237732 0.19403297 -0.16777654 0.20546268 -0.06710138 0.1490831 -0.82361656 0.1525441 -0.24818787 -0.013327619 -0.1956158 0.19857094 0.070531234 0.21461035 -0.092290886 -0.40066883 0.6503725 -0.50775504 -0.17964289 -0.0020832657 0.3653295 0.13922785 0.40109873 -0.61129624 0.1841645 0.30314067 -0.16172987 -0.04201778 0.18461545 -0.5180811 -0.65607035 -0.056316428 0.32716176 -0.11196994 -0.58507186 0.15902263 0.09643806 -0.16363119 -0.25239667 -0.22436723 -0.18073116 0.40502417 0.048379358 0.23495787 0.056536302 -0.56898665
218 -0.44131175 -0.25251305 -0.1177557 0.5441426 0.35077122 -0.07026675 0.15842311 -0.21997213 -0.40668148 -0.45873404 0.055570338 -0.08775901 0.5049539 0.03853495 -0.374182 -0.21792856 0.34823397 0.25989747 0.3674346 0.037064087 0.0011298311 -0.1030568 0.18242532 -0.034353837 0.6953237 0.12698297 -0.26260346 -0.058281567 0.015235554 -0.3721591 -0.047837235 0.6623148 0.22710125 -0.35611567 0.241967 -0.2086936 -0.428361 -0.64992726 -0.2525647 -0.3280979 0.59272486 0.14328605 -0.030005697 0.17962076 0.6567519 0.32004142 -0.33048907 -0.42411965 0.34694383 0.5566756 0.18632413 -0.17964642 0.47792202 0.041111674 0.22908135 0.23294991 -0.43629876 -0.15686707 -0.18931583 -0.14905277 0.51348186 0.19434474 0.025593862 -0.18025135 -0.17354678 -0.73305243 -0.02321846 -0.28407818 0.092106536 0.18913332 -0.30669025 0.25398043 0.010958375 -0.14153701 0.28220937 -0.77699095 -0.094155565 0.117288016 -0.0052327258 -0.092037745 0.23264953 0.40396938 0.28937313 0.028573107 0.4589834 -0.12646379 0.13549414 0.28978997 -0.25581887 0.21415651 0.053259015 -0.090938285 -0.27755213 0.116475664 0.14933613 -0.2790191 -0.5773537 -0.010326948 -0.37177205 0.6696844 -0.22042055 0.2188001 0.91594505 -0.37134242 -0.95274866 -0.5008243 -0.1228727 0.7241134 -0.041831214 0.0010451362 0.2798203 -0.60616124 -0.5865817 -0.013210449 -0.024682926 -0.18323572 -0.2183997 -0.2214946 -0.24763548 -0.1346892 -0.039829053 0.099001125 -0.57160646 0.1037357 -0.6932825 0.57944036 -0.24460742 0.21399185
94 -0.110036775 -0.62572056 0.25470358 -0.0617837 -0.08895143 -0.0025783936 0.078513026 -0.112629294 0.44630146 -0.42737573 -0.31384754 -0.10164161 0.02084631 0.04133703 -0.28661162 -0.10573863 0.19730793 0.1489161 -0.107482284 -0.021675639 -0.13292375 0.3775438 -0.19827574 0.6006234 0.42817461 0.356449 0.2509711 -0.060996547 -0.34573647 0.49114463 0.26469734 -0.023178315 0.11639842 -0.12575145 -0.0020172189 -0.37347868 -0.11188258 -0.50856495 -0.31811962 -0.07213308 0.0469459 0.38882345 0.41394657 -0.19003585 -0.032332264 -0.41787592 -0.32127094 0.03960644 0.092055865 0.3855415 0.25264028 -0.1510023 0.42953378 0.45301554 -0.015290053 -0.13298006 -0.3216866 0.18269882 0.0026735861 -0.025242044 0.24624904 -0.3264214 -0.08723593 -0.33449745 0.058926452 -0.2687104 0.33660793 -0.31088555 -0.5450671 -0.23004358 -0.2394229 -0.115109205 0.49003395 0.17740935 0.60713685 -0.058119085 0.014141141 -0.108899795 0.10582373 -0.056498185 -0.38895068 0.18038982 -0.19305961 -0.18233924 -0.2682298 0.16497767 0.078705415 -0.3024345 0.2106165 0.27866554 -0.1795168 -0.0439068 -0.40720826 0.282589 0.5806071 0.44157398 0.11771665 0.15363616 0.15175822 -0.044207558 0.1362176 -0.3111879 -0.14439394 -0.22776163 -0.3278739 -0.32680082 -0.33463943 -0.0010097816 -0.09527482 -0.071799695 -0.13570468 0.3870694 -0.16045292 -0.182623 0.06751282 0.4536525 -0.330308 -0.02166159 -0.25789586 0.036767587 0.11564543 0.19606884 0.37254006 0.44432387 -0.81296575 -0.14177315 0.022468816 0.7080726
149 -0.0284086 -0.18873505 -0.6540265 0.26386833 0.046214443 -0.056467924 -0.340165 -0.1054387 0.038989272 0.6710594 -0.16414334 -0.2541414 0.5514951 0.6442303 0.12569246 0.5998922 -0.07698694 -0.26978534 -0.39677188 0.29887366 0.1659626 -0.20778398 0.18211895 0.7073632 0.36721677 0.22226256 -0.08327984 -0.07384284 -0.6141586 0.47096637 0.8034405 0.14079332 0.06077648 -0.5513851 0.5409944 0.18389095 0.015650982 -0.20443097 -0.36344802 -0.16957708 0.6171928 0.71940994 0.16276895 0.40933523 0.053083796 -0.4664718 -0.4829899 -0.07003293 0.059073534 0.08722219 0.30680358 0.15913375 0.2651861 0.47664604 -0.41125196 -0.42156732 0.26853955 0.4437108 -0.3236934 0.6287233 -0.0687913 0.08840271 -0.27824876 -0.3856941 -0.13703865 0.2612192 -0.03805606 -0.38897774 -0.41386634 0.5364459 -0.07618666 0.6098189 0.0070557264 0.23600805 0.108920306 -0.1439162 0.50458825 0.34930924 0.15570456 -0.11587417 0.18277845 -0.42262116 -0.3639083 -0.27499026 0.2542061 -0.41952226 0.23218255 0.52601284 0.025552575 0.082691275 -0.17756982 0.43887016 0.06882055 0.53518116 0.07227361 0.65633637 -0.55179113 -0.12390851 0.0998877 0.5644453 0.11347255 0.10067955 0.3581908 -0.23431103 -0.17968425 0.28903654 0.36053103 0.5740735 -0.56297684 0.36997586 0.3920576 -0.3835372 -0.40058362 -0.24241963 0.09509627 0.024540901 -0.39675373 -0.23729903 0.17911611 -0.23243241 -0.09421949 -0.40459016 0.21034794 0.25391525 0.15811281 0.4475035 0.16382222 -0.5783972
201 0.07382713 -0.36740378 0.08610621 -0.13386205 -0.11005694 -0.3158271 -0.30634597 0.37467143 0.109935135 0.08380533 -0.045783903 -0.38977537 -0.13636075 -0.12789427 0.27949974 -0.797728 -0.13520813 0.30305907 0.26464447 0.017137155 -0.30840063 -0.1765909 -0.42651513 -0.08057818 0.52435 -0.06253763 -0.18222342 0.11104137 -0.3146615 0.061626375 0.45026878 -0.29129922 0.33873826 -0.57432514 0.018801803 -0.33564055 -0.38842002 -0.38476056 -0.4591663 0.19922623 -0.32375053 0.51541835 -0.20966873 0.31091094 0.07897239 0.256445 -0.1289522 0.19638921 0.18594898 0.6801779 0.18301107 0.07105762 -0.06848567 -0.13076736 0.0809262 0.27828664 -0.4781802 -0.15412417 -0.4483262 -0.076438315 -0.25045636 -0.0852822 -0.1992333 -0.1586689 -0.086941086 -0.090426445 0.09422238 -0.043521468 -0.22012399 0.09881545 -0.21896161 0.51914287 -0.09076343 -0.28478858 0.090717934 -0.4221365 -0.084574305 -0.39488935 -0.31071323 -0.44078693 -0.8652516 -0.13530304 0.13897693 0.0120456815 -0.11721129 -0.2031477 -0.12659869 0.1145075 -0.44977337 0.10887969 0.14650743 -0.18859223 -0.27538875 0.22330856 -0.10639067 0.34751526 -0.11552568 0.058568314 0.496716 -0.884767 -0.26690978 -0.22057329 0.35713533 0.55343854 0.12790719 0.13165261 -0.2792663 0.25982645 0.111327566 0.08191308 -0.18817724 -0.2604843 -0.3123536 -0.14160047 0.4252876 0.018905241 -0.47440943 0.2757617 -0.077547826 -0.026053581 -0.051365316 -0.23131584 -0.12610787 0.14464621 0.11056122 0.2632554 -0.19284867 -0.46765628
255 -0.20903014 -0.20912066 -0.24610655 0.1750885 0.35664302 0.09851412 -0.18431918 -0.15100394 0.05129659 -0.30644995 -0.05726005 -0.21198307 0.20359704 -0.5410956 0.43528342 -0.25468194 -0.08193842 0.08536727 -0.27136755 0.09861719 -0.09258937 -0.07207682 0.07388035 0.36850756 -0.53746086 0.08229993 0.1547513 -0.44942564 -0.12477129 -0.18131234 0.52662855 0.1994876 -0.063436635 -0.2562301 0.19301279 -0.08119381 0.51166457 -0.24072455 0.24743402 0.022589866 0.52723056 -0.42055053 0.14026345 -0.03705182 -0.057172276 0.046094686 0.30183402 -0.14956546 0.46117067 0.24528114 0.3773654 -0.04081902 0.5590516 0.24756306 0.34415695 0.108096406 -0.14074762 -0.25773332 -0.0047293147 0.15624827 -0.36837286 -0.6310178 -0.7442132 -0.22004868 0.6169655 0.21215081 -0.079004325 -0.41581953 -0.5102782 0.07733562 0.37255368 0.21793987 0.16819401 -0.023822501 -0.10869724 0.06370615 0.12038974 0.23189184 -0.22699887 0.022898741 -0.3887089 -0.20261598 0.09988048 0.18669415 0.11250322 -0.1194778 -0.1955649 0.0067549613 -0.2423933 0.8317224 0.57336134 -0.24709122 0.041330043 0.5645692 0.31009778 -0.06347767 -0.22720651 -0.29024473 0.19788386 -0.24793549 0.40235013 -0.35777378 0.15166593 -0.1371588 -0.40131515 -0.30822983 -0.17126009 0.11943488 -0.13604154 0.4150902 0.41146857 -0.18334305 -0.23650484 -0.11454473 0.6569037 0.51961595 -0.1982611 0.0008173374 -0.3526201 -0.20151612 0.009911741 -0.040610388 0.0892325 0.5252966 0.034570903 0.15851483 -0.27926853 -0.12350783
474 0.026517542 -0.29925683 0.25733688 -0.067281835 -0.078285776 -0.21047199 0.2698178 -0.37542 -0.046437398 -0.27180085 -0.48751414 -0.6172793 -0.029632501 -0.14493433 -0.0050860844 0.0051974007 0.48594633 0.7461581 -0.25707665 0.1577363 0.06680212 -0.0008340323 -0.35685837 0.77300197 0.26853472 -0.1467496 -0.045607653 -0.29294133 -0.2939666 0.5035318 0.48193258 -0.06368059 0.065022 -0.18851201 0.2609371 -0.019820822 -0.3186391 -0.8125659 -0.1359109 -0.10361308 -0.004925865 0.3611839 -0.013014142 -0.68930346 -0.16210945 0.04676191 -0.41395792 0.031250484 -0.2721394 0.5660195 0.14014854 -0.11657634 0.098593295 0.20110637 -0.05998651 -0.1737295 -0.6950604 -0.10145979 -0.08851447 -0.30315986 0.17875595 -0.40356705 -0.082698055 -0.19022633 0.11613571 -0.033583127 0.39440235 -0.0036767684 -0.57507104 -0.77732503 0.05015765 0.07522628 0.84793645 0.06055841 1.0670246 -0.30396125 0.09654781 -0.00013248036 -0.24561694 -0.17230275 -0.26995313 0.112831466 0.14617121 -0.02325251 -0.2922382 0.44976437 -0.0457717 0.23422194 0.4395885 0.2015316 0.0860416 0.068690985 -0.23688592 0.112509705 0.22264002 0.7660333 -0.037899718 0.3517549 0.007929034 -0.082384415 -0.12121324 -0.28441107 0.17010471 -0.12333555 -0.527109 -0.10365375 -0.32147905 -0.421101 0.19011536 0.044474695 0.16511565 0.29108468 -0.41961807 0.20802943 0.07483583 0.25544646 0.06654993 -0.06814248 0.16094647 -0.14125901 0.60790867 -0.035832115 -0.02112329 0.5063066 -0.84891796 -0.1674391 -0.08592125 0.3850884
276 -0.23639816 -0.3902828 0.06507525 -0.07571731 0.03679825 -0.33292297 -0.32349133 0.077490956 0.25226417 -0.10032276 -0.392715 0.01977944 -0.09190634 0.06745939 0.12016227 -0.14712512 0.013389254 -0.029793344 0.34733847 -0.53806984 0.021721415 -0.01562526 0.33117348 0.6382996 0.17003098 0.09841819 -0.15124127 -0.21801448 0.46596244 -0.31683138 0.52372426 -0.04240965 -0.35045972 -0.15368308 0.23464404 -0.06754266 -0.1706929 -0.11486501 0.09728921 -0.10708407 0.45488775 0.36391607 0.20367408 -0.040205974 -0.19332789 0.16650371 0.14540276 -0.074079305 0.47170308 0.06889379 0.20579748 -0.006671725 -0.48554018 -0.21648934 0.30876085 -0.29886732 -0.55506545 0.37480786 -0.54941934 -0.27567044 0.26925617 -0.14422154 -0.24598727 0.23093084 -0.25325435 0.66741997 -0.13501725 -0.361401 0.28079724 -0.48483643 -0.21523054 0.3289502 0.10742935 -0.2171987 0.0416912 0.036363423 -0.099409364 -0.10226882 -0.042206366 -0.20568821 0.5256569 -0.047986355 0.20428646 0.104932144 -0.46042013 -0.4080095 -0.04665673 -0.056591224 0.38545653 0.21975303 0.34246457 -0.5143095 0.30163494 -0.07214948 0.01323529 0.5334221 -0.37844464 -0.1814095 -0.12192721 0.22445099 -0.36031404 0.59837383 0.08345881 -0.2265128 -0.019337267 -0.100262485 0.057734005 0.12023823 -0.048710138 -0.07066479 -0.12440863 -0.1403003 -0.7349386 -0.46036103 0.51634216 -0.00057716755 -0.81069607 0.4044098 0.014264098 -0.15483005 0.023251222 -0.27342826 0.20368132 -0.30063942 -0.4913474 0.18274765 -0.5507248 -0.27633092
469 0.2144339 -0.2775373 0.33982515 -0.12881546 -0.16328558 -0.098732285 0.24100922 -0.41342404 0.02966337 -0.31257024 -0.59693354 -0.485709 0.03224022 -0.24670993 -0.11809725 -0.08124274 0.6200571 0.8086811 -0.28917038 -0.06911617 0.32208222 0.20735118 -0.3655339 0.6582867 0.13444225 -0.1677012 -0.13278948 -0.1593688 -0.38617486 0.4194291 0.35153303 0.047021244 0.22547844 -0.10823232 0.16420473 -0.10557217 -0.38200143 -0.64126354 -0.25798082 -0.11037996 0.05107375 0.45912713 0.03067583 -0.39056125 -0.11829158 0.020584982 -0.26759025 0.15372382 -0.3095876 0.6459254 0.14115065 -0.29497972 0.027523557 0.18390365 0.0660944 -0.069264755 -0.43707106 -0.088339694 -0.061556768 -0.18624558 0.25160885 -0.51000744 -0.034617625 -0.27353296 0.15610707 -0.1199092 0.37857187 -0.19764934 -0.40264907 -0.4549767 0.005669217 0.23720269 0.7637485 0.0364453 0.9080092 -0.24387853 0.16305476 0.09073689 -0.20374583 -0.12367277 -0.37251082 0.17071846 0.13333566 0.045918744 -0.35550562 0.48253596 -0.18936436 0.17543584 0.41162363 0.2478822 0.23621085 -0.09403024 -0.34012982 0.19119294 0.3518471 0.9835792 0.075550325 0.41293502 -0.025005775 -0.015873171 -0.1920594 -0.22796886 0.11544225 -0.15911585 -0.4256066 -0.09502851 -0.21353021 -0.3483241 0.10013598 -0.09603992 -0.034969237 0.33723524 -0.39619645 0.0015111684 0.029608764 0.2534415 -0.064125426 -0.15181844 0.22577712 -0.056216866 0.7714677 -0.11439433 0.15135264 0.50897336 -0.87246394 -0.20805763 -0.0101996325 0.5740325
359 -0.112084 0.20480943 0.049249385 0.27216655 -0.031353585 -0.00967087 -0.072299734 -0.116941094 -0.33621636 -0.1881384 0.28098884 -0.380694 0.24390632 0.035825357 0.31137538 -0.0754682 -0.03027298 0.11735079 -0.30117992 -0.48716834 -0.264981 0.35337588 -0.34369975 0.18108214 0.19994646 -0.028887628 0.092793554 -0.13510317 -0.011990426 0.2504962 0.06092391 -0.003972902 0.42299378 0.5241984 0.36747327 0.4860398 -0.095065065 -0.28231034 0.22140357 0.3258168 0.09734521 0.012352493 0.1650221 0.2687457 0.32533604 0.1723113 0.15244679 -0.31136337 0.067015685 0.3462649 0.22778298 -0.30850625 -0.05126512 -0.38675714 -0.06997928 -0.27733752 -0.40388057 -0.016743997 0.1265476 -0.24089997 0.15675028 -0.25615612 -0.63822985 -0.28941527 0.4214371 0.20357686 0.3828687 -0.10749687 -0.30815178 0.34120637 -0.090415195 0.50127643 -0.1440344 -0.24886206 0.1152521 -0.561796 0.2287891 -0.124001704 0.12828937 0.12293128 -0.28138092 0.03425961 0.0869873 -1.0626912 -0.89422536 -0.755634 0.124816015 -0.18767916 -0.047132313 0.0902826 0.048928708 0.31456122 0.3244806 0.16900471 -0.25472406 0.2338898 -0.6485187 0.016347174 -0.23007612 0.4486861 0.24160784 -0.04043172 -0.28143668 -0.45357588 0.2546394 0.13481987 0.022852728 0.40441725 0.3110828 0.53120434 -0.51473045 -0.081210464 -0.054507844 -0.38646504 0.3832899 -0.16903412 -0.64453775 0.17028324 -0.5713884 -0.22356394 -0.2628065 -0.14281483 -0.23231225 -0.076886855 -0.36626855 -0.14473358 0.07599482 0.06752268
283 -0.13327359 0.072581686 0.15673581 -0.12051242 0.37158233 -0.6243233 -0.46289372 -0.33987448 0.13367593 0.24878542 -0.32672453 -0.22023973 -0.17716034 -0.15822275 0.058148522 -0.27906498 -0.19675766 0.6281576 -0.09948133 -0.3872114 0.106711276 0.16921437 0.12587333 -0.055265114 0.18829505 -0.0920119 -0.1774988 -0.13745694 -0.24441077 0.16652691 0.21350594 -0.033410076 0.08684851 -0.35916454 0.34293452 0.16556269 0.21533836 -0.32844755 -0.04029674 0.24348447 -0.10333161 0.24544382 0.011146321 0.026518496 -0.2603055 -0.62545824 -0.41135404 0.58344287 0.010706366 0.2244301 0.17592143 -0.2578624 0.6598335 -0.45388567 -0.80157423 0.19498698 -0.53288585 0.21329878 -0.52568424 -0.25168854 0.014090935 -0.6020571 0.5668013 -0.22860657 0.29883924 0.74030834 -0.08468434 0.0051902723 -0.15054794 0.30844763 -0.12968595 0.05687631 0.76422364 -0.1911951 0.11590805 -0.09979031 0.48032936 0.14697286 -0.4084925 0.13622059 -0.39296347 0.13957953 0.14169437 -0.5835615 -0.060568724 -0.29515672 0.050277416 0.27782798 0.68898433 -0.47091228 0.45557675 0.37071148 -0.20115267 0.5766157 0.027423907 -0.2612625 0.053875316 -0.24955997 0.04820119 -0.1126152 -0.30278817 -0.097236924 0.2865768 0.10165625 -0.41145587 -0.4357518 0.10579338 0.17603566 -0.5053191 0.7588291 0.47413543 -0.036656156 -0.4997403 -0.25261104 0.29033583 0.23308861 -0.07887017 0.1396273 0.0073589007 -0.38328928 0.07425899 0.3256661 0.62609696 0.21369743 -0.038262192 -0.15771526 0.12323179 0.07071078
57 0.11997466 -0.09976633 -0.19838792 0.17113587 0.27183536 -0.3073037 -0.18903773 0.13651457 -0.030927034 -0.15225185 -0.092034325 -0.35884148 0.07068059 -0.5883345 0.055856932 -0.4539384 -0.024882462 0.1399949 -0.21113609 0.13896391 0.028411096 -0.06869101 0.15219514 0.39636564 -0.6680767 0.054312438 0.31332234 -0.44722438 -0.09708572 -0.17285547 0.46592492 0.261926 -0.070411585 -0.29678243 0.2732085 -0.0050722216 0.13139544 -0.05301364 -0.0004680421 -0.24488504 0.42292285 -0.37886187 0.5446614 0.01780764 -0.08340689 -0.010127929 0.39531347 0.011698745 0.35517153 0.10325602 0.5455558 -0.011236162 0.5355333 0.027626984 0.33585402 0.0754435 -0.20552675 -0.109994546 0.03063252 0.25376496 -0.53715515 -0.8570194 -0.56024927 -0.16747235 0.60173196 0.2676326 0.11970819 -0.5422156 -0.49125332 0.1422385 0.06977456 0.33790886 0.2510866 -0.012491249 -0.13171916 -0.095752835 0.20110002 0.21248645 -0.10800568 0.024106782 -0.4166699 -0.24183841 0.14755261 0.060134046 0.036834657 -0.05418845 -0.22145034 0.06928113 -0.18844388 0.8271774 0.71191186 -0.17639971 0.101948194 0.4718471 0.3226446 0.07931234 -0.07234756 -0.40994617 0.40270844 -0.27268568 0.21790096 -0.36097467 0.063775085 -0.07291811 -0.4423111 -0.20032819 -0.17352027 0.20791516 -0.322694 0.5008337 0.019371374 -0.25066411 -0.11885858 0.09326399 0.6300852 0.25448805 -0.057623044 -0.09762218 -0.38007453 -0.027768506 0.3022153 -0.16125055 -0.20994465 0.49373755 0.16024211 -0.19364558 -0.3479796 -0.016883295
113 0.17452088 -0.07376327 0.16057317 0.09666367 0.0803966 0.5388935 -0.022099305 0.02620237 0.43889806 -0.009678803 -0.13979058 0.051113274 -0.4470278 -0.28405127 -0.047673836 0.22231552 0.42330077 0.347932 -0.15713845 0.086130574 -0.47716928 0.44470763 0.334633 -0.06895062 -0.07979472 -0.25769117 -0.1303973 0.31778958 -0.01799385 0.27620137 0.25553086 0.119898796 0.4188547 -0.50591254 0.06662582 -0.13489763 -0.20741537 0.5778369 0.39774737 -0.3107608 0.5026357 0.8450182 -0.094757095 0.5505919 0.19056879 0.604501 -0.19745916 0.22031161 0.3366252 0.3742191 0.34756514 0.2231563 0.61012685 0.5600161 -0.5426771 0.31725737 -0.24821614 -0.17990673 -0.5522556 -0.6528061 -0.12266174 -0.32370538 -0.22744985 -0.2263558 0.14360332 0.5446954 -0.08629617 -0.06846176 0.111611165 0.0060658394 -0.09278225 0.59163326 0.69500446 -0.043902207 0.11834488 -0.24202065 -0.044764876 -0.032660343 0.47067624 0.61911356 -0.29794872 -0.25598 -0.56015587 -0.0021233293 0.14540438 -0.045242634 0.21706511 -0.034586214 0.14643656 0.32992527 0.4759423 0.4323779 0.38810426 0.13138689 -0.20808084 0.24283457 -0.12422284 -0.6376793 0.08231834 0.1986745 -0.049098644 0.35111034 0.28916982 -0.3272766 0.03451387 -0.42661276 -0.29740825 0.5172281 0.6211918 0.66196185 -0.11276706 0.19582199 -0.3531662 -0.07088371 -0.05177031 0.45378742 -0.3555117 0.54918116 -0.44779137 0.2433757 0.22939765 -0.010869768 -0.328737 -0.024611622 -0.64777637 0.4985196 0.17288993 -0.16708252
300 0.72194 -0.21635783 0.30684903 0.49614963 -0.4244567 -0.2223964 -0.38956392 0.12497422 -0.23251548 0.9734585 -0.3392229 0.079428 -0.33195916 -0.015793746 -0.46874684 0.09777094 0.049488474 -0.030167101 -0.36622554 -0.09489086 0.35782808 0.15814322 0.08594192 -0.07224172 0.10843234 -0.3573124 0.03709517 0.032278933 0.115408644 0.18071939 0.40803093 0.5894778 0.5704724 -0.42193875 0.22017848 0.16026732 -0.13883822 -0.46941942 0.19598168 -0.27490985 0.10176849 0.5521272 0.104011945 0.35513034 -0.38948905 0.32674098 -0.23745592 -0.016710114 0.44644803 0.30524117 0.60208786 0.19390512 0.4505509 0.28482765 0.025368819 0.5500656 -0.057118583 -0.37775865 0.21760911 -0.118347004 -0.023379015 -0.019603474 -0.8432138 -0.22573999 0.1264293 0.20750414 0.08660193 -0.47160378 -0.0072333477 -0.2958369 -0.057783376 -0.2514611 -0.0995003 -0.51105016 0.3042244 -0.064947754 0.06496942 0.11229987 0.042007957 -0.082741305 -0.22111723 0.028596472 0.3024326 -0.4060429 -0.09571738 0.046659652 -0.06711049 -0.13144968 0.079580724 -0.028217055 0.05008518 0.30962884 -0.027354289 0.05203992 0.5846005 -0.2068175 -0.36861852 -0.18253621 0.023018239 -0.10775128 0.011357927 -0.38072008 0.36809868 -0.36985666 -0.49003062 0.12530431 -0.08853727 -0.21087998 -0.31992465 -0.12882555 0.26871893 -0.3476615 -0.3444372 -0.20299245 0.48869532 0.2820562 -0.5612729 0.13691278 -0.10323178 0.18596902 -0.39198923 0.2374872 -0.16157737 -0.30970427 -0.27674562 0.3337586 0.028824328 -0.16874567
131 0.5774183 -0.059037328 0.14005694 0.26214254 -0.2310816 -0.37420124 -0.384738 -0.028435668 -0.32575408 0.95253986 -0.29676712 0.059262462 -0.23435025 0.031173922 -0.5217493 0.20228854 0.11969527 0.09547575 -0.37774667 -0.047820825 0.22082089 -0.106785215 0.06227996 0.10567954 0.051392395 -0.54736584 0.3307007 0.14147487 -0.019632714 0.19441271 0.59649205 0.62872916 0.48010486 -0.41805473 0.22827178 0.2647989 -0.17182614 -0.6624658 -0.04836339 -0.28374073 -0.17071028 0.43241197 -0.042682435 0.4501743 -0.3834211 0.42710638 -0.26928425 -0.14576867 0.3323881 0.09240892 0.6870278 0.1508344 0.37801751 0.3975997 0.04535267 0.5186639 -0.15866098 -0.4608453 0.05566375 -0.3324413 0.030158453 0.14099416 -0.959616 -0.20940131 0.16037355 0.05189538 0.105761364 -0.24499354 -0.2048042 -0.25932425 -0.17709914 -0.21281138 -0.08568768 -0.5450351 0.28017807 -0.04939939 0.18298118 0.1860832 -0.059248675 0.044380456 -0.04680425 -0.16589278 0.2743152 -0.55931646 0.027908588 0.18079723 0.11310139 -0.1381721 0.17632782 0.14782423 0.1605122 0.41353238 -0.07745886 -0.017866354 0.23612553 -0.4511755 -0.42223847 -0.038898487 0.021734212 0.036151823 0.11277204 -0.2348285 0.24901825 -0.5724406 -0.51866484 0.12652653 0.015271805 -0.23089053 -0.15376857 0.06816413 0.15644997 -0.21359795 -0.2636502 -0.16469578 0.39795423 0.34504893 -0.5424603 0.19950062 0.04774144 0.14476971 -0.22850505 0.36581317 -0.2898933 -0.3481728 -0.2609504 0.36536744 -0.10617617 -0.32024997
197 -0.44331756 -0.011835828 0.1940345 0.41588697 0.002793528 -0.10805976 -0.30440307 0.029917145 -0.39718768 0.31967598 -0.067752674 0.5572804 -0.1765464 -0.7252118 0.44612214 -0.20307386 0.27096564 0.17338866 -0.18523565 -0.1572182 0.23214714 -0.1431211 -0.0243208 0.6329556 0.05689996 -0.14670604 -0.043004397 -0.30556422 -0.24681783 -0.22416076 0.43318138 0.08589569 0.23674399 -0.27807227 0.3126567 0.1798736 0.0014431607 -1.1590041 -0.4341995 0.29119915 0.34684414 0.41482863 -0.028905518 0.37958163 0.06889817 0.0846869 -0.25054416 -0.10992737 0.03169542 -0.24663486 -0.093147054 -0.5961705 0.59075516 0.49685603 0.062398944 0.38408282 -0.38763887 -0.41376722 0.08866144 0.2654581 0.25563216 -0.16425881 -0.16046964 0.23993851 -0.013727984 0.5298324 0.41122526 -0.6371379 -0.34472644 0.44394264 -0.15296008 0.25560704 0.24922629 -0.082060084 0.32743323 -0.17960232 -0.048804224 -0.2638898 0.28317806 -0.3367936 0.22884458 0.11157944 0.1643858 -0.47424653 0.33769813 0.1939135 0.23519705 -0.06806177 0.031863198 -0.60465544 0.41141224 0.1754166 -0.25523818 -0.5357375 0.5523959 0.027432406 -0.02108438 -0.53806126 0.56722176 0.06644449 -0.51072466 0.05896512 0.21800481 -0.27680054 -0.34120908 -0.26458022 0.27045095 0.57885766 0.11789367 0.26425123 -0.044770718 -0.166404 0.27697405 -0.45000467 0.11848861 -0.123937406 0.21135007 -0.36701462 -0.36357057 -0.77863514 0.11370544 -0.17669949 -0.00032877887 0.062193546 0.054924928 0.22536953 0.047102734 -0.64791155
284 0.17617871 -0.06433593 -0.30465522 0.16163917 0.13461143 -0.097378895 -0.14878422 0.033375688 0.06407336 -0.39934573 -0.14757563 -0.29998967 0.19558369 -0.58163023 0.037773095 -0.47208637 0.046468075 0.1969144 -0.1612087 0.058026064 0.15420856 -0.07373643 0.046708707 0.32600293 -0.6664406 0.03009792 0.24441199 -0.30770597 -0.19289154 -0.14454593 0.48303595 0.40027887 -0.080057815 -0.29672396 0.26777032 0.008903412 0.21763568 -0.018201385 -0.003265956 -0.11706203 0.4273217 -0.3763358 0.3957503 -0.03812543 -0.14026874 0.04729738 0.38373592 0.036536314 0.23094228 0.13966013 0.44190907 -0.020098431 0.4995737 0.036373775 0.26933938 -0.036711596 -0.11550943 -0.21738264 0.029089592 0.33776063 -0.51763284 -0.72969323 -0.5810596 -0.19941562 0.670014 0.23798104 0.100503616 -0.49335364 -0.37657255 0.18616122 0.06846451 0.3135799 0.22909896 -0.06641913 -0.18784212 -0.031775948 0.2746564 0.21274503 -0.02882002 0.0031635975 -0.29421157 -0.22459657 0.08099289 0.008157483 0.0975421 0.0074061854 -0.20305257 0.13295369 -0.15565884 0.97572976 0.7648704 -0.21103041 0.032363445 0.4446014 0.3026619 -0.06714586 -0.13907467 -0.39080265 0.35809866 -0.22816084 0.25982577 -0.37392414 0.08181963 -0.15910648 -0.51077104 -0.18602099 -0.05263853 0.23247814 -0.28584045 0.4389504 0.18781295 -0.22956257 -0.18668748 -0.1043249 0.53110814 0.342547 -0.123105206 -0.05486736 -0.3874733 -0.16323373 0.27320874 -0.13744752 -0.026443921 0.4505272 0.1237165 -0.07249014 -0.44193262 -0.032096114
290 -0.21502222 -0.25696322 -0.3728247 -0.5014412 -0.013632675 0.22710218 -0.21376675 -0.047659878 -0.10178781 -0.17531016 0.036639422 0.24807067 0.009303063 0.27951267 -0.4342162 -0.25481188 0.28190255 0.10941695 -0.2852966 -0.35307696 -0.037584428 0.4515495 -0.07145878 -0.042259067 0.3293436 -0.09691122 -0.07980826 0.35697067 -0.22340915 0.33172086 0.25319517 0.08912615 0.4098624 -0.22909887 0.2543856 -0.29097933 0.0071139988 -0.4801067 0.15550767 0.37599963 -0.27177808 0.52306455 0.12453385 0.5098873 -0.141864 0.22226088 0.22703995 0.21407543 -0.1989602 0.2292313 0.30033043 -0.13486904 -0.041138086 0.24275348 0.35662776 0.38291594 -0.5990913 -0.26827678 -0.1463586 0.25102586 -0.39297944 -0.058402825 -0.46653014 -0.16328034 -0.58308977 -0.19101834 0.24844198 -0.44237828 -0.32081458 -0.012063655 -0.08035446 0.18163559 -0.19770277 -0.08650845 0.2202198 -0.3682349 0.28154087 -0.40332636 -0.17167982 -0.056616176 -0.7233779 -0.3907544 -0.7459706 0.2666165 -0.03700423 0.18608923 0.04325983 0.30515593 -0.64608854 0.18323351 -0.15520544 0.12643532 0.105575606 -0.037191726 0.037719797 0.04183947 -0.13615896 -0.5088353 0.4598502 -0.24344909 -0.18617128 -0.003828575 0.53188443 0.09727013 0.576911 -0.44299996 0.29331714 0.49002454 -0.37374568 -0.12332586 0.1816121 -0.56737316 -0.50615007 0.088842556 0.34486726 0.3071242 -0.3794768 0.09233767 -0.03156898 -0.380288 -0.50263834 -0.08738576 0.1255534 0.52043754 -0.20448656 0.30068782 -0.08114118 -0.79130715
62 -0.021234604 -0.30696943 0.18011084 -0.11700238 -0.0048005236 -0.09191762 -0.0451214 -0.133814 0.32595223 -0.39303935 -0.27350274 -0.012862965 -0.17044522 0.12653187 -0.22930647 -0.04482878 0.27106687 0.64337766 -0.051472988 -0.047281552 -0.07334535 0.106009595 -0.35411453 0.54141647 0.61364865 0.07813382 0.14578551 0.0031067368 -0.2359184 0.52150637 0.44589418 -0.022129891 -0.050778706 0.02195138 0.21303982 -0.25892574 -0.1218072 -0.7660852 -0.18127312 0.0023735894 0.027771639 -0.03967074 0.296633 -0.34642908 -0.12261364 -0.28217518 -0.5900337 -0.16073434 -0.12711486 -0.07835092 0.4239973 -0.01356611 0.4548327 0.4913753 -0.025154203 -0.3230551 -0.50056547 0.009236484 -0.032238964 -0.03781032 -0.031737342 0.10135863 -0.23975752 -0.14729048 -0.024875369 -0.19130386 0.22843185 -0.059775934 -0.70028675 -0.36124822 -0.4185439 -0.09592323 0.5816403 -0.030325605 0.62827814 -0.055226218 -0.1726636 -0.3987952 0.019621959 -0.3002094 -0.21857662 0.13969694 0.06933655 -0.07289846 -0.19869277 0.1939301 0.041272204 0.0010633037 0.34375203 0.5016557 -0.29683837 0.10560506 -0.4992501 0.3493518 0.3313377 0.471238 -0.157533 -0.018023029 0.18249099 -0.24227282 -0.020905301 -0.32898828 -0.035678815 -0.21462108 -0.39324167 -0.2189469 -0.23375529 0.03491745 0.08500276 0.07770698 -0.13856828 0.442654 0.13216645 -0.15707839 0.30954912 0.40132755 -0.39721498 0.15129134 -0.34246883 -0.142644 0.30152094 0.3351723 0.2627431 0.4285901 -0.66758853 -0.10193255 0.023200056 0.22924013
30 0.017031197 -0.11320747 -0.56911063 0.13368869 0.39892027 -0.095270656 0.05303006 -0.0387219 0.117535524 -0.50166035 -0.09313601 -0.23329337 0.14731763 -0.7472377 0.24972121 -0.37488517 -0.17192674 -0.033949748 -0.53750664 0.19579278 -0.2263144 -0.13953571 0.12332509 0.13363117 -0.5135477 0.09958613 0.34425187 -0.40432242 -0.112122044 -0.3395709 0.36911076 0.38607407 -0.124635875 -0.28340432 0.27343827 -0.180453 0.3497503 0.07016868 0.09110687 -0.15833637 0.22519468 -0.13847613 0.28654155 -0.06591205 -0.06495149 0.018185966 0.24024591 -0.086031355 0.21994758 0.2527637 0.31803888 -0.010126643 0.5413496 0.25915053 0.27752694 -0.061648875 -0.20952424 -0.038236942 -0.02836619 0.18972754 -0.27934563 -0.56664604 -0.4260476 -0.23396397 0.45327038 0.108820766 0.16505398 -0.37329262 -0.29844666 0.047159586 0.030599501 0.21279936 0.06647496 0.07250007 -0.10104506 -0.052234977 0.29589307 0.40087023 -0.20279545 -0.108171664 -0.18547624 -0.2538398 -0.29716706 -0.0888702 0.19052516 0.15925181 -0.031544924 0.20025317 -0.26997727 0.8537693 0.57114893 -0.3485455 -0.033181842 0.45617145 0.47952706 -0.17361897 -0.023534572 -0.42624575 0.3507913 -0.3983375 0.4330193 -0.30482748 0.26676634 -0.38120878 -0.44658375 -0.5919699 0.10217444 0.3250891 -0.11001463 0.37974384 0.33784434 -0.21671335 -0.31456515 -0.3855906 0.48920178 0.4196925 -0.32454357 -0.021001413 -0.40549636 -0.38259363 0.072930716 -0.18490556 0.07831917 0.46575278 -0.039102763 0.117409736 -0.40937173 -0.1185415
187 -0.4698485 -0.033048213 0.5263974 0.22800615 0.47773603 0.03930466 0.17743851 0.15045962 -0.45276776 -0.21596277 0.20503937 -0.49577588 0.035618704 -0.2911569 0.2206205 -0.22566375 0.6988806 0.46846592 0.18756644 -0.37510616 0.5378782 0.20246206 -0.24603619 0.41241023 -0.76565754 -0.06571177 0.26902503 0.23265192 -0.09353659 0.28481916 0.1207829 0.4246373 -0.08502737 -0.21711212 0.793597 -0.5709977 -0.111746706 -0.053038333 -0.1464911 -0.053479765 0.102531806 0.02863708 0.7608888 0.34677476 0.23650427 -0.1014501 -0.023659766 0.12037073 0.19286337 0.020518035 0.59361136 0.44339013 -0.05317712 -0.1232312 -0.37277627 0.63904464 -0.77322346 -0.53163546 -0.595462 -0.026210696 -0.6866752 0.34939808 0.016685111 0.0393605 -0.29080006 0.46974027 0.6802964 -0.60134333 -0.27031082 -0.08175995 -0.47587153 -0.018003426 -0.044915956 0.07629022 0.32017663 -0.047132548 -0.021472713 -0.07541894 -0.58136266 0.20531979 -0.030666558 0.028597683 0.0064064944 0.10598537 -0.15834348 -0.52803636 0.3426618 -0.3232643 0.13540278 0.23530346 -0.92123306 -0.17066692 0.11836867 -0.16521902 0.66975784 -0.4464096 -0.37379366 -0.004205734 0.2812774 0.35431936 -0.1742437 -0.09506224 0.25804108 -0.24999349 -0.28128234 -0.11962262 0.035566993 0.19643912 -0.29267126 0.24313119 0.6576293 -0.43529055 -0.26221666 0.16818549 0.04607786 -0.057974916 -0.35683584 0.2915565 -0.2628794 0.03850096 0.2330422 0.10617505 0.66473746 0.12106495 -0.28438392 0.3189246 -0.025196807 -0.10071178
331 -0.37051865 0.033800006 0.6647817 0.19330487 0.41328767 -0.050116293 0.27296436 0.26148337 -0.4459928 -0.2605558 0.17457663 -0.6096315 0.011428536 -0.32311198 0.20707688 -0.28423798 0.6103562 0.49968356 0.15008058 -0.37359342 0.4905152 0.027731147 -0.31454486 0.34331563 -0.69599324 -0.079556726 0.28129244 0.17686976 -0.08676444 0.22839153 0.1814625 0.4255044 0.046619456 -0.23379022 0.76679134 -0.5781526 -0.21154778 -0.010530283 -0.17624564 -0.14226864 -0.0063463426 -0.017306507 0.5943121 0.34376585 0.23768908 -0.1487027 -0.033888496 0.0575473 0.121944875 0.043837186 0.4940034 0.45608827 0.07593926 -0.08444598 -0.4309976 0.6628012 -0.7127554 -0.532024 -0.57669467 -0.016007781 -0.7304545 0.4269618 0.06671001 0.012346936 -0.44428778 0.4627307 0.7363338 -0.43672165 -0.19816038 -0.09521447 -0.52766013 -0.01635995 0.0701304 -0.13810065 0.33480263 -0.08126272 -0.042746753 -0.10210715 -0.51826435 0.1185292 -0.025540141 -0.045278013 -0.034325812 -0.0142633775 -0.2535109 -0.43855712 0.19884959 -0.36333 0.14435613 0.30395573 -0.8880705 -0.10530123 0.089244425 -0.22338891 0.82870096 -0.46967763 -0.38009295 -0.044462577 0.3127072 0.32363668 -0.21422452 -0.030465877 0.31868076 -0.2292551 -0.26480204 -0.083927326 0.042301156 0.29113504 -0.17076775 0.21176589 0.70227456 -0.39658418 -0.21765801 0.2158105 0.1523611 -0.111706845 -0.3624724 0.22531554 -0.2488445 -0.032801572 0.26526394 0.12064406 0.759054 0.23924339 -0.2654578 0.30315045 0.029718572 -0.1398064
170 -0.5222589 -0.029804543 0.63988173 0.3532771 0.45440686 0.020740174 0.097728886 0.1271125 -0.454221 -0.3085012 0.3052248 -0.6847478 0.025974542 -0.18693657 0.1577644 -0.2584596 0.8491615 0.48429447 0.17080474 -0.3613455 0.6176902 0.10525377 -0.31110716 0.40770397 -0.6712846 -0.06832627 0.31702596 0.14840238 -0.1335894 0.1874706 0.095009446 0.38076308 -0.056553822 -0.31868452 0.75709105 -0.49214068 -0.102056876 -0.039984744 -0.16182797 0.10851491 0.15077604 -0.13275649 0.695815 0.37900302 0.17899822 0.027141815 -0.12452558 0.12296459 0.09302471 -0.0011125382 0.7017042 0.55416554 0.037829537 -0.09950032 -0.40533808 0.6721529 -0.65803057 -0.56842613 -0.5636901 -0.038319774 -0.71776 0.28558806 0.0113328565 0.051506914 -0.33439046 0.41610244 0.82204336 -0.50052065 -0.22256088 -0.045046683 -0.5251918 -0.08155913 0.0022896528 0.010969773 0.23923688 -0.066859365 0.08271041 -0.059595868 -0.5793806 0.15149945 -0.031476364 0.027892983 0.014459611 0.119110376 -0.20626137 -0.53570145 0.28107488 -0.19940533 0.15748385 0.14455344 -0.81432885 -0.11284991 0.17815538 -0.18316647 0.7164649 -0.5137159 -0.3025707 -0.07545008 0.30901673 0.13096344 -0.1310469 -0.15619037 0.45969525 0.007421476 -0.14779185 -0.046532523 0.060400523 0.20835 -0.1978486 0.19682589 0.6580679 -0.31675947 -0.1461681 0.17718036 0.06628715 -0.10102302 -0.39706582 0.10884605 -0.25081274 -0.0403335 0.19282885 0.14272545 0.74331206 0.107990734 -0.39005387 0.3834126 0.011402361 -0.18344131
230 -0.19122821 -0.27805325 0.26672912 -0.09103536 -0.07486218 0.0650697 -0.16229619 -0.1297407 0.7968234 -0.3359636 -0.39172372 -0.07198426 -0.06391058 0.35369754 -0.121990845 -0.38077325 0.13222164 0.023729876 0.032434672 0.050372534 -0.1687845 0.33205473 -0.391343 0.6629007 0.456081 0.23456015 0.3686254 -0.2091966 -0.16517389 0.23881035 0.3191331 0.13356307 0.14270066 -0.19397172 0.21399812 -0.29976138 -0.1341115 -0.574411 -0.388327 0.13843827 0.2623877 0.091322675 0.3929159 0.0360169 -0.18734314 -0.39937454 -0.513528 0.1624769 0.047090974 0.08168145 0.46926114 -0.19269459 0.6843979 0.486268 -0.029129554 -0.06860881 -0.2701639 0.43673804 -0.23781908 -0.09208322 0.109262675 -0.14765307 -0.13009351 -0.48669428 0.26881352 -0.4478303 0.37239587 -0.32393125 -0.5221492 -0.31053886 -0.50930357 0.01576937 0.3212032 0.061935272 0.48734233 -0.26660678 0.10582494 -0.27118254 0.14929573 -0.050196826 -0.44330505 0.106475994 -0.20975728 -0.31315207 -0.2752208 0.1602091 0.11793816 -0.035367697 0.1615777 0.5328477 -0.36515158 -0.046531178 -0.38330925 0.3094132 0.4342867 0.30180845 -0.0036238946 -0.009199842 0.37615156 0.037673507 0.22248954 -0.40965644 0.03855491 -0.052356612 -0.03131289 -0.21671793 -0.3611518 -0.028470594 -0.2232659 -0.17868549 -0.34915787 0.21791238 -0.043966115 -0.15229689 -0.020759284 0.4000004 -0.08859608 -0.066393554 -0.30483618 -0.012511574 0.43928057 0.2977885 0.18610342 0.15816362 -0.5316841 -0.24112599 -0.0132537475 0.2994735
231 -0.03653606 0.007986869 -0.39915648 0.28047785 0.42717925 0.08891094 0.0041352296 -0.060616802 0.19463755 -0.5988277 -0.09823135 -0.120355904 0.09907762 -0.6541193 0.3201542 -0.4037389 0.011752172 -0.030680941 -0.5294763 0.12599587 -0.27710554 -0.08990441 0.07580175 0.1727369 -0.39013737 -0.0048276656 0.2870564 -0.44516984 -0.17078266 -0.3287259 0.3837169 0.48183668 -0.18057396 -0.38954842 0.33788675 -0.23051374 0.4305788 -0.034111556 0.10735795 -0.03978907 0.27781174 -0.28860834 0.1675744 -0.020451255 0.030603975 -0.016637933 0.24751177 0.0066103465 0.29203486 0.33315226 0.3309907 0.016611928 0.56902903 0.2788039 0.25923336 -0.051764064 -0.23444518 -0.19759662 0.025830103 0.17106158 -0.33004168 -0.3586773 -0.48210874 -0.34700605 0.49668527 0.12381728 0.034716453 -0.23396556 -0.30722705 0.027091056 0.08980438 0.15016769 0.05013052 0.020779157 -0.06828341 0.10396696 0.28867415 0.36152437 -0.054079242 -0.20025714 -0.1631769 -0.22529772 -0.21210437 -0.13965319 0.20724955 0.13782533 0.009300525 0.1858775 -0.2942422 0.8558184 0.53709936 -0.4173794 0.027224254 0.3467901 0.46182796 -0.20936379 -0.100490816 -0.4310187 0.3157353 -0.32974008 0.49195457 -0.3017255 0.26537773 -0.24897683 -0.5394403 -0.40798047 0.1488182 0.2540263 -0.08911251 0.30646878 0.40287036 -0.20855728 -0.32151252 -0.2819228 0.52918947 0.38436952 -0.27361783 -0.04215021 -0.40317768 -0.4289246 0.13446502 -0.114335746 0.16501105 0.45176795 0.14157778 0.07444701 -0.34895936 -0.15217873
294 -0.13614225 0.09795837 0.075274326 0.00032417948 0.11298901 -0.6249646 -0.4510786 -0.3056674 0.23986268 0.30233896 -0.28818563 -0.15257059 -0.16815662 -0.2068115 0.006297477 -0.29906473 -0.2081235 0.5264419 -0.100854225 -0.28150314 0.0073968647 0.27629578 0.11607964 0.08726086 0.11866223 -0.11153387 -0.057784155 -0.10583404 -0.30296987 0.15925558 0.1859947 0.009067688 0.0438629 -0.39329237 0.39335036 0.2813928 0.25377643 -0.3135471 -0.12730621 0.25547954 -0.12097199 0.22636858 0.027602464 -0.029183613 -0.26446962 -0.5311884 -0.36764708 0.64477134 -0.08099407 0.23519988 0.22011802 -0.19369873 0.45817712 -0.5036951 -0.817089 0.27211532 -0.59782356 0.12008383 -0.53948313 -0.18835826 0.061058324 -0.6048997 0.58498025 -0.27318904 0.24172969 0.6791054 -0.008912285 -0.09236713 -0.026826717 0.37129864 -0.12793565 -0.03250655 0.6867552 -0.24266908 0.24061343 -0.224338 0.59449714 0.12352975 -0.4287085 0.3510455 -0.43475524 0.2564788 0.20803134 -0.6468087 -0.06254867 -0.30396423 0.12970567 0.41575992 0.66332805 -0.4387539 0.3865042 0.26682094 -0.17257312 0.56341594 0.051823955 -0.2538774 0.086225085 -0.2606667 -0.060532313 -0.07462019 -0.29478452 -0.008919629 0.25609666 0.10176105 -0.48666066 -0.6240913 0.20156921 0.18503979 -0.5458365 0.8173661 0.36831287 -0.13759917 -0.5554133 -0.25897807 0.24606068 0.15213007 0.05872481 0.097067975 0.0007421332 -0.46816644 0.014491332 0.40300542 0.62034893 0.18059093 -0.025171919 -0.31996205 0.16917239 0.13542207
357 -0.0016124466 -0.44158128 -0.78134114 0.34370613 0.022561563 0.058391683 -0.2860434 -0.0029713346 0.055214062 0.67259604 -0.26540616 -0.17897646 0.51241374 0.5183978 0.13906166 0.5481356 0.11526964 -0.3149237 -0.26876786 0.30280727 0.2665309 -0.16021276 0.19677208 0.62978685 0.2327587 0.26611272 0.008125796 0.026081687 -0.6789522 0.46517876 0.6369659 0.20533597 -0.013333779 -0.514378 0.5933298 0.2827022 0.14981465 -0.1853994 -0.41522902 -0.014143825 0.55402404 0.6298519 0.20856218 0.45245105 0.07539106 -0.391059 -0.49821672 -0.07509381 -0.0059782485 0.1469227 0.13228332 0.19123659 0.27140048 0.4495891 -0.5100303 -0.30335543 0.34166908 0.493392 -0.3803739 0.6723416 0.100583434 0.09043774 -0.27127317 -0.44057015 -0.056315348 0.15750545 -0.064674884 -0.47840238 -0.42125714 0.6628318 -0.034629446 0.57685 0.07628906 0.27878085 0.20608489 -0.07455246 0.4407299 0.31217918 0.12839475 -0.044354726 0.01822627 -0.30189046 -0.20740308 -0.3896282 0.15369001 -0.4003356 0.14540298 0.45609835 0.003820621 0.11303226 -0.028057383 0.3491157 -0.06598628 0.47252235 0.100178465 0.7962841 -0.36144215 -0.052076753 0.06885682 0.5632625 0.13306442 0.07399917 0.37009424 -0.19146886 -0.39258653 0.17220421 0.46656305 0.63895774 -0.568945 0.42280906 0.29567075 -0.33597592 -0.58465344 -0.3029025 0.043919522 -0.07641137 -0.28446263 -0.31502506 0.14452781 -0.30224812 -0.060364593 -0.35367405 0.26367125 0.14500731 0.14582063 0.45303014 0.10987456 -0.56750673
157 -0.22649147 0.01837552 -0.093065046 0.45499235 0.05084705 0.23091666 -0.33471867 0.2659862 -0.56397253 0.2858514 0.08538976 0.23058811 -0.10123512 -0.64993954 0.18232098 -0.1503698 0.31574544 0.35380712 -0.5493563 0.03447501 0.12274341 -0.010001329 0.084508285 0.41831633 0.3571228 -0.03557316 0.077460274 -0.53187627 -0.37953722 -0.08079654 0.20150451 0.34041715 0.32078007 -0.1430653 0.33062693 0.048132982 -0.18804951 -1.0904634 -0.26608974 0.38210806 0.5328719 0.35448638 -0.17320327 0.4569273 -0.058176994 0.23145443 -0.27556235 0.105468296 0.26764908 0.20293301 -0.05798835 -0.457409 0.4568663 0.46704644 0.33348504 0.3568816 -0.54541415 -0.55349064 -0.026916213 0.029872919 0.34075698 -0.15690571 0.025314942 0.64093244 -0.14222579 0.8335742 0.4146837 -0.56295425 -0.35845992 0.3058874 -0.006353728 0.11227316 0.54577285 0.07162295 0.18758474 -0.05139705 0.11792494 0.21854793 0.3650439 -0.2574652 0.26737174 0.10872045 0.074248254 -0.5654352 0.18066843 0.34112674 0.24157013 0.12729447 0.03647558 -0.90078884 0.8650496 -0.067094766 -0.30072862 -0.41732448 0.7241507 0.12617232 0.014305592 -0.6288776 0.45310652 0.08140422 -0.5079551 0.10628173 0.18484683 0.27739403 -0.21741562 -0.25738576 0.422237 0.27350217 -0.0050333533 -0.09485861 0.45953533 -0.02371143 0.084680356 -0.360862 0.04362179 -0.37909585 0.15383098 -0.609371 -0.3578038 -0.67262477 0.23862013 -0.38881242 0.027968457 0.13543382 -0.15060724 0.31618714 -0.027949484 -0.42003995
108 -0.28924194 0.34545544 0.3386291 0.28334478 0.95448565 0.36130932 0.24153912 -0.5411381 0.032424454 0.41044414 0.5495558 -0.25117752 0.50847614 -0.013217785 -0.18779455 0.109157965 -0.15052342 0.023306238 0.30830008 -0.18204716 -0.28949487 0.48713985 0.3228723 0.3098707 0.8084315 0.1136337 0.032221045 0.3315906 -0.05717335 -0.024624951 0.38394144 0.092941634 -0.12609167 -0.6617191 0.6013786 -0.39165947 -0.09888424 -0.00738812 -0.24573529 -0.03584787 0.28745878 0.46576974 0.04830393 0.24998984 -0.10145583 0.11735158 0.043347433 -0.12404878 0.66812414 0.3635419 0.48967612 -0.23682928 -0.57705265 0.40771455 -0.40073907 0.34742132 -0.15579809 0.10398092 0.1257034 -0.81634086 0.07615152 0.08074646 -0.27588534 -0.1620399 0.19843066 0.566665 0.5487404 -1.0528653 0.08599649 -0.12188287 -0.20696272 0.6145992 0.4662654 0.100964576 0.42939985 -0.09577827 -0.053747743 -0.25772926 -0.1404896 0.81961936 -0.051726 -0.31452054 -0.2255328 -0.0173839 0.037073147 -0.29035297 -0.058937673 -0.98464006 0.7633516 0.30352378 0.084058546 -0.26350188 -0.4160989 0.09798854 0.28017968 0.018201912 -0.5213155 -0.105663046 0.36884543 -0.08745576 0.067732856 0.15799384 0.26703534 -0.2691576 -0.25538084 -0.17113443 -0.21730527 0.19774973 -0.04935274 0.5188743 0.22120354 -0.055216026 0.09293918 0.047178753 0.4547699 0.29765892 -0.095665716 0.013838473 0.783505 -0.020186968 -0.069752924 0.049954135 0.48525637 -0.0044760765 0.2374099 -0.058131337 0.29490793 -0.62280047
270 -0.07946385 -0.37355563 -0.3343025 -0.3912855 -0.11420151 0.052448694 0.10302585 0.14122754 -0.06319296 -0.37779117 -0.057370026 0.12615421 0.08714129 -0.06331916 0.0544687 -0.36940497 -0.03719429 0.09176991 -0.029089764 -0.36428615 -0.027891345 0.028974047 -0.38129705 -0.033670932 0.15778688 0.09664948 0.047775567 0.17861764 -0.16228667 0.19561219 0.2527636 -0.0072578425 0.38047358 -0.046811875 -0.043571014 -0.25963977 -0.2883546 -0.59820336 0.06369598 0.1181261 -0.28786424 0.6122227 0.21886458 0.23372439 -0.11624223 0.26321104 -0.0065614884 0.08239064 -0.019148054 0.3786126 0.26059556 -0.04447881 -0.29125655 0.07945042 -0.06119307 0.58878446 -0.40756395 -0.009249544 -0.14818764 0.036584865 -0.29396233 -0.03852201 -0.0681399 -0.061700687 -0.14400183 -0.0871647 -0.04101323 -0.52632374 -0.44687778 -0.029390188 -0.16701503 0.171172 -0.3095426 -0.0016442668 0.12280323 -0.62437457 0.036531977 -0.17526428 -0.3058928 -0.3250463 -0.7165829 -0.38865733 -0.32806048 0.11260119 -0.10249802 0.05270681 0.041258868 0.28375593 -0.54307723 0.06992539 -0.11492997 0.16953664 -0.19032633 0.27033162 -0.074729264 0.18499196 -0.17522489 -0.47763175 0.5333623 -0.4901553 -0.45217252 -0.07569003 0.449802 0.016154148 0.3975838 -0.2518463 0.05675454 0.32280678 -0.5231502 -0.22663172 0.16141912 -0.3198523 -0.4961054 -0.3550754 0.09548694 0.08424861 -0.43083265 0.20787884 0.039587196 -0.28194866 -0.6852076 -0.2772652 0.17108814 0.37954053 -0.24239163 0.3843793 -0.120541684 -0.9094835
212 0.54401463 -0.057825044 0.08540695 0.30861297 -0.38543093 -0.2918874 -0.3265608 -0.05296155 -0.26096606 0.8721784 -0.39251572 -0.07321954 -0.26489317 -0.15287134 -0.36594525 0.14481686 0.05144395 0.09474441 -0.3325691 -0.07888868 0.09579599 0.16638868 0.057601605 0.09562145 0.21288766 -0.41751203 0.3014846 0.18229377 0.010831506 0.1601458 0.43996692 0.74189764 0.63921005 -0.32503334 0.2204766 0.21385825 -0.103097625 -0.4749479 0.0489998 -0.34901083 -0.06858848 0.48947033 -0.031210875 0.38542122 -0.43959838 0.54018253 -0.062304195 -0.19685534 0.29254183 0.20659445 0.731803 0.340084 0.31359553 0.38432202 0.050341107 0.53124523 -0.011137156 -0.46195695 0.13890862 -0.292385 0.27879328 0.01455967 -0.94684446 -0.28907555 0.1826659 0.22321227 0.07375846 -0.4331135 -0.106821835 -0.068441495 -0.32691133 -0.20296685 -0.14586638 -0.4998754 0.15674838 -0.20132005 0.06473297 0.14424737 -0.10067893 0.05699084 -0.059024062 0.012897865 0.34723327 -0.5549095 -0.18504386 -0.04350873 0.12710838 -0.15078816 -0.017882584 0.17880625 0.06973739 0.35548696 -0.05187101 0.15052053 0.46847153 -0.41647664 -0.19533277 -0.05706334 0.0043089753 0.10292867 0.07655794 -0.23174365 0.33695453 -0.4605304 -0.5752549 0.03591167 0.067922175 -0.28081042 -0.19259802 0.05977447 0.31868407 -0.23234272 -0.2792163 -0.24774992 0.36350366 0.26733953 -0.4991549 0.06238878 -0.057460357 0.36216643 -0.1641736 0.38315117 -0.26600647 -0.31278512 -0.16456501 0.3247633 -0.12374187 -0.33271128
102 -0.1487923 0.12513857 0.052357435 0.07757223 0.12579116 -0.60535073 -0.37221938 -0.2586333 0.06542229 0.19763474 -0.29813987 -0.24098851 -0.082763426 -0.28752238 -0.019513747 -0.22793773 -0.13310063 0.6569931 -0.061424028 -0.3955734 0.105896965 0.22032261 0.0046949154 -0.09083527 0.26797906 -0.10670895 -0.09771067 -0.02467015 -0.30683583 0.30001885 0.13022661 0.009799243 -0.049393646 -0.2747169 0.3761682 0.29783025 0.19361258 -0.19971089 -0.03301634 0.27140814 -0.09754159 0.10872019 0.1456265 0.052511685 -0.3069449 -0.5591307 -0.287741 0.6061922 -0.05155717 0.2381226 0.16166867 -0.09455189 0.43384534 -0.37037668 -0.86742413 0.15865317 -0.4471064 0.13214286 -0.55275536 -0.19735926 0.041643616 -0.5888622 0.57495743 -0.21251296 0.1983539 0.7591133 0.09459305 -0.11351817 -0.007091421 0.39297584 -0.12119423 0.030262291 0.6757968 -0.20145889 0.12322901 -0.07974551 0.5240224 0.1480353 -0.3149622 0.16750434 -0.41759852 0.19712174 0.11750203 -0.6884485 -0.051294163 -0.2229431 -0.107413635 0.35280252 0.70503217 -0.39821813 0.53175265 0.30632603 -0.35659465 0.58817446 0.11730132 -0.2259342 0.18039274 -0.35402957 0.116373345 -0.07227008 -0.27752587 -0.04300908 0.21101575 0.15778117 -0.50427055 -0.6295536 0.35169333 0.2645331 -0.43083414 0.7465916 0.39803788 -0.021928826 -0.5867843 -0.25093424 0.21143681 0.17254718 -0.13422935 0.13300095 -0.09118636 -0.42278376 0.13429943 0.29691678 0.65640765 0.20991609 -0.07525654 -0.15924792 0.2531182 0.07767908
153 -0.21303609 0.49344027 0.3690182 0.23500343 1.0368288 0.33739462 0.21662539 -0.5206589 -0.009826441 0.49304816 0.56911963 -0.24014579 0.45266634 -0.019203315 -0.22049293 -0.04235284 -0.24339682 0.021805886 0.26016125 -0.0663653 -0.29552755 0.4396455 0.35286698 0.26576048 0.8363488 0.1087252 0.020902727 0.30034882 -0.12645534 -0.105139926 0.44576296 0.23091312 -0.07512712 -0.678638 0.61462206 -0.37364838 -0.119166404 0.026674753 -0.2355655 -0.043557785 0.34637916 0.5776497 0.2593498 0.284684 -0.16568157 0.097220376 -0.029516721 -0.03887535 0.68118393 0.34353843 0.4651689 -0.20550683 -0.4985866 0.31438673 -0.46243864 0.34267068 -0.122266956 0.19771661 0.10647845 -0.728079 0.0032549882 0.026592454 -0.3329988 -0.16490401 0.24919268 0.6056917 0.53439724 -1.1361611 0.13416284 -0.03060938 -0.1959128 0.65822065 0.5916996 0.10032406 0.4227094 -0.15605563 -0.08828091 -0.3451297 -0.25895002 0.8782553 -0.030963235 -0.35927892 -0.3339407 0.109716825 0.05116389 -0.3210436 0.049645394 -0.92249167 0.7048011 0.33295324 0.06459386 -0.25554 -0.41850933 0.14409214 0.35449558 0.13008912 -0.5763435 -0.11787683 0.34596583 -0.11526698 0.11056362 0.042591672 0.30217874 -0.21436734 -0.11515697 -0.08887803 -0.30825412 0.22000569 -0.08483185 0.5050647 0.22748522 0.02884126 0.0902998 0.12555273 0.33908564 0.3339862 0.019555742 -0.056611557 0.7595211 -0.011325285 -0.10262532 0.070718534 0.3283069 -0.053226843 0.17278302 -0.04521362 0.3038661 -0.52603495
215 0.0006507366 -0.1404784 -0.35704833 0.20262316 0.3025272 -0.0017999467 -0.17631894 0.09045994 -0.026243515 -0.28003204 0.13482837 -0.21149234 0.06694816 -0.6054856 0.38706627 -0.2714465 -0.07866073 0.050907746 -0.26297462 0.15557255 -0.15090935 0.014567943 0.11418318 0.28062373 -0.62633073 0.06736594 0.2227582 -0.43066132 -0.116362095 -0.23028244 0.42356306 0.26345193 -0.14330257 -0.3144513 0.06188975 -0.013163608 0.5228126 -0.1773352 0.09772022 -0.028223418 0.4877617 -0.31105545 0.29197857 0.08424764 -0.026281979 -0.015590207 0.36697495 -0.11400056 0.5777022 0.16376682 0.23182572 0.035070844 0.47663257 0.14769715 0.23638779 0.086615115 -0.12995481 -0.31522322 -0.020760003 0.21625791 -0.31820452 -0.5636533 -0.74353045 -0.28607798 0.7059582 0.19752671 -0.007145309 -0.64318264 -0.6469739 0.16260435 0.35921615 0.27087805 0.19696873 0.030984785 -0.10120079 0.11947154 0.12614359 0.1499777 -0.22750586 0.058596622 -0.45804054 -0.20674615 0.16511394 0.20301174 0.12470688 -0.08190456 -0.23824225 -0.1258163 -0.17517543 0.8520453 0.6495798 -0.26342142 -0.044549614 0.4891262 0.2862667 0.047206838 -0.2210002 -0.36287117 0.29154617 -0.18977654 0.34027645 -0.4016623 0.069206886 -0.07403487 -0.5078317 -0.39607373 -0.13901709 0.05261605 -0.17269394 0.42454422 0.31074968 -0.112098105 -0.2689601 -0.14841014 0.60500735 0.37178054 -0.23352456 0.09358616 -0.34535435 -0.22400175 -0.04350084 -0.080416255 0.10695863 0.5234418 -0.08402867 0.1461177 -0.31893378 -0.1948776
365 0.2928766 -0.31206256 0.32152545 0.019530283 -0.1514795 -0.22955446 0.26223245 -0.267786 0.08351742 -0.31222188 -0.55977744 -0.47299823 -0.17775553 -0.24114758 0.08468447 -0.15695578 0.4700792 0.7971876 -0.17816047 0.20603047 -0.037607376 -0.027802728 -0.4193471 0.72569656 0.23157927 -0.15199666 0.12678126 -0.26160288 -0.3279397 0.40558347 0.403674 0.016595919 -0.015754266 -0.21835205 0.38606614 -0.09018238 -0.23211265 -0.77872705 -0.16273066 -0.19469157 -0.03642869 0.4807673 -0.05712065 -0.7349885 -0.17206545 0.017573232 -0.29963908 0.18984705 -0.12076321 0.7030059 0.08556926 -0.12767549 -0.023876285 0.12353086 0.0817208 -0.11970179 -0.75048095 -0.17249653 -0.12562442 -0.32586756 0.17973961 -0.38184378 -0.097202174 -0.1441441 0.17543791 -0.13223696 0.41287485 -0.2447588 -0.6781932 -0.55486995 0.16531622 0.088022314 0.79578894 0.13355361 1.0074106 -0.33606604 0.14998876 0.021040607 -0.3977803 0.016473338 -0.37813243 0.11037465 0.16617642 -0.049261477 -0.19361879 0.5422764 0.09207922 0.29161087 0.3959527 0.14709528 0.063022606 0.013032859 -0.42157063 0.191426 0.1587789 0.84331137 -0.08202983 0.4584429 -0.14821409 0.014703626 -0.077383034 -0.21032108 0.066312894 -0.0778775 -0.48902255 -0.1543699 -0.25194156 -0.5406319 0.15609115 0.16432476 0.013436542 0.35567367 -0.44812337 0.122873195 0.05311869 0.16392562 0.15181135 -0.029667024 0.19477949 -0.27596435 0.7889866 0.026978895 -0.01397933 0.3921832 -0.8816457 -0.24430737 -0.17824255 0.44415516
360 -0.23645599 0.39871472 0.2736643 0.3172278 1.0459374 0.29308626 0.26837176 -0.5581768 0.031782653 0.44229266 0.5589148 -0.31087065 0.4533262 -0.009683168 -0.16715467 0.04532225 -0.15870965 0.03645116 0.265706 -0.15435563 -0.33385572 0.5585342 0.30575028 0.2707233 0.8130332 0.116281144 0.08325809 0.30494508 -0.079886116 -0.07116543 0.36868095 0.09946046 -0.08155258 -0.6676213 0.5212346 -0.33014554 -0.1367937 0.0035407199 -0.24159457 -0.05355805 0.28865823 0.5699169 0.060653504 0.299082 0.0057877116 0.1080567 0.015341166 -0.06970949 0.6595831 0.3241591 0.44692418 -0.26282313 -0.5559148 0.35678023 -0.45245332 0.32758132 -0.07204273 0.12826577 0.15647693 -0.81254345 0.048539337 0.057080317 -0.2205626 -0.1681242 0.23779735 0.5791798 0.5128627 -1.1162168 0.049923327 -0.060555004 -0.2717976 0.6161272 0.52486306 0.089318216 0.38840944 -0.14133294 -0.07721547 -0.2649621 -0.20684382 0.88824946 -0.08846344 -0.31839845 -0.2537093 0.105438136 0.01451429 -0.2867088 -0.0077211754 -0.97993 0.7096497 0.32933846 0.059408583 -0.26062053 -0.38975444 0.084007226 0.3068469 0.128727 -0.51963776 -0.15838526 0.30852833 -0.14450732 0.032604236 0.13113175 0.2607898 -0.27164114 -0.17152521 -0.24497639 -0.19966574 0.2640072 -0.097266495 0.5498817 0.2077564 -0.027855184 0.122114494 0.085710846 0.40821803 0.26948205 -0.0651914 -0.042699102 0.79709166 -0.069654524 -0.069267556 0.05777684 0.38538924 -0.07892905 0.2000959 -0.033446636 0.30617473 -0.6185934
251 0.18951684 -0.32663652 0.266523 -0.062221587 -0.17035861 -0.12457858 0.36602464 -0.37640285 0.019807588 -0.2927225 -0.5239288 -0.5502969 0.023392737 -0.13961685 0.17327325 0.064936094 0.46117076 0.782775 -0.38398644 0.11882632 0.08460643 -0.021027328 -0.40843415 0.7644446 0.26388344 -0.1740258 0.106693156 -0.28903747 -0.30675474 0.4578857 0.53037614 -0.017809168 0.012430998 -0.1745549 0.21719877 -0.11200357 -0.28659853 -0.8843497 -0.12250947 -0.031183721 -0.15345263 0.36578262 -0.12926131 -0.69483995 -0.14765893 0.0017882559 -0.39883655 0.12678903 -0.17129022 0.63051534 0.042328764 -0.20040832 0.08234448 0.3154744 0.10076981 -0.1264646 -0.73875016 -0.26278153 -0.056985967 -0.32049105 0.15031572 -0.34212002 0.018135099 -0.062227774 0.19805796 -0.06506944 0.2903898 -0.15451221 -0.5450321 -0.68653166 0.21339768 0.0825996 0.71405333 0.15208869 0.8725963 -0.26684728 0.096418515 0.08142456 -0.31757474 -0.089413494 -0.33392826 0.06342477 0.0526984 0.060409844 -0.21960603 0.48600402 -0.13350016 0.17785567 0.43945974 0.26711023 0.14783326 0.008209977 -0.31578615 0.23260184 0.08689612 0.6928714 -0.20716636 0.45104703 -0.13295628 0.014398899 -0.1238282 -0.19604425 0.029388681 -0.1837773 -0.45703423 -0.0524281 -0.37471858 -0.48202682 0.12101993 0.19568987 0.14570403 0.37495074 -0.46961927 0.0864779 0.08679354 0.24263255 0.06338411 0.045637947 0.2177708 -0.30380264 0.70798427 -0.09239067 0.16729924 0.47630823 -0.9951593 -0.14809512 -0.09144127 0.2751649
191 0.11036599 0.014452245 -0.09850129 0.49226943 0.14179228 -0.09998651 0.12133854 0.22776513 -0.008373085 -0.43697765 -0.02498514 -0.34034085 -0.119937055 0.073783115 0.22458 -0.36322188 0.124663346 0.11318303 -0.1952916 -0.68212485 -0.18585029 0.25040546 -0.41039807 0.47075245 0.31772077 0.09278135 -0.017121095 -0.24087428 0.49494702 -0.25200266 0.27031967 0.4600921 0.37509444 0.06875388 0.76945525 -0.023137044 -0.05860217 -0.39898795 0.34246153 -0.07423114 -0.08963441 0.07834137 0.42987445 0.45405686 0.44907916 -0.15725018 0.14366896 0.06932252 -0.3211794 0.5294067 0.41230592 -0.11749844 0.15851986 -0.09868462 -0.28715637 -0.36596474 -0.3959507 -0.1220698 0.6441809 0.06261446 -0.42172226 -0.11362699 -0.42473242 -0.52435946 0.18890603 0.35324183 0.16875125 -0.2865771 -0.15564482 0.37587526 -0.50400305 0.94629425 -0.058913235 0.043490622 0.19708705 -0.36068416 0.3793685 -0.3768636 -0.14832962 0.30668792 -0.07615071 -0.09297516 -0.2228891 -1.0025644 -0.54119307 -0.57594824 0.26335427 -0.12787297 -0.17767757 0.01095626 0.37628168 0.19419122 0.39732948 0.29240698 0.33891815 0.27506933 0.08756894 0.21057382 0.0047845896 -0.083019145 0.3129693 0.06600957 -0.34778616 -0.35750645 0.6737941 0.22210455 -0.33681282 0.08635321 0.3603103 0.55217046 -0.09021983 0.30172658 -0.5373054 -0.5177336 0.22985272 -0.3542868 -0.48500168 0.050057378 -0.19189584 -0.5250922 0.2752722 0.10106235 -0.24765253 -0.6353018 -0.030594615 -0.20163432 -0.17473511 0.23656541
167 0.15896802 0.06680614 0.035332356 0.44043344 -0.000370117 -0.059875853 0.1273765 0.34398347 -0.14112176 -0.2685605 0.0008135867 -0.2860562 -0.13271934 -0.09854096 0.30222702 -0.33734462 0.21631205 0.25447306 -0.0160384 -0.5802682 -0.41290164 0.08870226 -0.47791767 0.46927497 0.45201835 0.06387457 -0.059284855 0.028856393 0.4158608 5.3259282e-05 0.33745372 0.30580264 0.33373865 0.10455401 0.86837125 -0.018064471 0.03356078 -0.68938804 0.26547503 0.01550353 0.06468776 -0.05922391 0.38678357 0.34113774 0.46669075 -0.12571399 0.02479977 0.069742076 -0.3767321 0.2705807 0.3596842 -0.115407616 0.046529874 0.11944977 -0.49575523 -0.38783073 -0.38828114 -0.24021502 0.59431183 -0.035424814 -0.4487756 0.0024574809 -0.5799928 -0.5052538 0.096928336 0.34239802 0.1776071 -0.037692174 -0.2013322 0.3992938 -0.32074106 0.92189616 -0.08313144 -0.066539094 0.3984952 -0.29942572 0.29508427 -0.5443222 -0.10202904 0.27852267 -0.054227192 -0.071006894 -0.118580125 -1.0152044 -0.39990917 -0.6144863 0.2537892 -0.112470955 -0.061406303 0.0015446031 0.1982334 0.3504975 0.41665903 0.19672732 0.24475193 0.24536802 -0.06484764 0.12256116 -0.2460079 -0.072342575 0.34296447 0.120474204 -0.34551993 -0.36473525 0.47427458 0.29711458 -0.37203085 0.4162486 0.31662026 0.67403644 -0.3304681 0.22284457 -0.40387785 -0.33193728 0.34515363 -0.30584794 -0.30239648 0.13274592 -0.33835375 -0.59982526 0.06405343 0.15553115 -0.26689446 -0.47414744 0.08743135 -0.2065722 -0.034119904 0.20328926
244 0.20976283 0.013852144 0.17451416 0.20916755 0.019926535 0.4697375 -0.013786522 -0.0021254208 0.54353535 -0.022800572 -0.13009495 -0.012377092 -0.47156513 -0.3710722 0.09521076 0.34649625 0.37723896 0.37293124 -0.2914018 0.09170518 -0.36761606 0.48577258 0.3626586 -0.011467193 -0.15903553 -0.26986176 -0.2041453 0.123846985 0.018963022 0.24400559 0.18020688 0.1413587 0.27410483 -0.40994862 0.037350375 0.0040090135 -0.26333147 0.56004566 0.2651808 -0.30883542 0.3445866 0.8678679 -0.13497657 0.45783886 0.120657526 0.599817 -0.09432947 0.11668644 0.40699857 0.4064916 0.3287062 0.1815208 0.5067866 0.5353553 -0.5871362 0.15286292 -0.24741504 -0.3060578 -0.5992805 -0.55070037 -0.0266466 -0.37312478 -0.23041521 -0.23933873 0.19762011 0.4423658 0.04079222 -0.17065126 0.23690207 0.06585414 -0.0694833 0.6452105 0.49980462 -0.056788724 0.040363714 -0.23883827 0.052604556 -0.0041223112 0.5119788 0.57706785 -0.3407663 -0.25914726 -0.5450822 0.009577836 0.08181992 -0.027177125 0.073008955 -0.051642418 0.21898498 0.415811 0.54575926 0.4730358 0.21515961 0.023257036 -0.2643911 0.31576124 -0.2169828 -0.6771422 0.31386632 0.355004 -0.015510103 0.3669425 0.15147707 -0.527962 0.07439656 -0.44527143 -0.18040726 0.38403317 0.79709786 0.65402454 -0.015533268 0.15871829 -0.3071318 -0.095286585 -0.2432759 0.37253284 -0.44717872 0.6513822 -0.38918635 0.22890303 0.22329065 -0.034280464 -0.19217774 -0.018339744 -0.6736145 0.5042384 0.19584917 -0.20920421
146 -0.14491408 -0.2728734 -0.68447816 0.3052312 -0.090551004 0.024428196 -0.20773287 -0.10398361 0.14442332 0.7536839 -0.086269766 -0.19670308 0.31664824 0.646475 0.36303356 0.7024236 0.08173471 -0.27619535 -0.41587335 0.42535612 0.3301098 0.035562754 0.285795 0.7518904 0.33905935 0.11805394 -0.10882729 -0.13459523 -0.55803317 0.46512944 0.63474524 0.22590008 -0.05302855 -0.5818225 0.5252701 0.28147438 0.010260416 -0.18897453 -0.59419036 0.032435 0.5325462 0.7075316 0.13634978 0.33307117 -0.037475165 -0.3792906 -0.48111087 -0.123129405 0.02810137 0.23150235 0.11152212 0.118188746 0.15378387 0.418192 -0.46407533 -0.37969708 0.23323938 0.31601498 -0.39279443 0.6803904 0.005918547 0.1269337 -0.32126287 -0.48443547 0.045542676 0.20358048 0.1022388 -0.54405814 -0.42101663 0.56999975 0.029455246 0.57362676 -0.000938014 0.27480143 0.14676888 -0.09871755 0.48865414 0.4300798 0.16285117 -0.1234708 0.12756963 -0.38405564 -0.25450715 -0.3469259 0.12612431 -0.4023124 0.062721334 0.5642137 0.0051568034 0.2337698 -0.029114714 0.34595785 0.015622491 0.37278438 -0.036128 0.8699855 -0.4244784 -0.035858236 0.31333563 0.50918514 0.23335166 0.049400244 0.2668218 -0.19298638 -0.16183892 0.23754846 0.48216322 0.3534352 -0.47765493 0.3192457 0.41163293 -0.38362417 -0.5084262 -0.22231194 0.023467025 -0.1276895 -0.37084603 -0.2466892 0.29075888 -0.2959815 0.13395713 -0.45443717 0.25360477 0.19221401 0.16548127 0.36804605 0.11811584 -0.6404339
243 0.015322211 -0.14762573 -0.4727415 0.19524461 0.4088748 0.019358078 0.08622931 -0.06253933 0.067180395 -0.572046 -0.0028089557 -0.3040495 0.06876879 -0.6307504 0.36324757 -0.20644088 -0.12098308 0.09920181 -0.49775755 0.033432513 -0.25921848 -0.19730656 0.14123175 0.10144064 -0.45074242 0.13952732 0.4055361 -0.567716 -0.01698315 -0.28124464 0.3808141 0.32179794 -0.22408427 -0.24119385 0.27970436 -0.1158283 0.36212695 -0.055871345 0.113541946 -0.15401196 0.21510297 -0.23863386 0.18319249 -0.066761844 -0.03087615 0.01926133 0.13339593 -0.16349824 0.22854896 0.15408896 0.35678098 -0.023543343 0.47306627 0.27466154 0.23003054 -0.135943 -0.27533448 -0.17048988 -0.041120615 0.06546761 -0.3019225 -0.36494553 -0.46340013 -0.18050131 0.3917128 0.1618593 0.054845814 -0.43140414 -0.44267485 0.09308663 0.16290814 0.26079473 0.038364116 0.02773145 -0.19018659 0.07521046 0.16356343 0.48497885 -0.16557594 -0.14354448 -0.21213281 -0.3390353 -0.15963358 0.06999506 0.286952 0.14907573 -0.15960364 0.12367776 -0.23710318 0.84216017 0.6240851 -0.2896451 -0.09969357 0.41654903 0.4065609 -0.13407259 -0.09334924 -0.39203364 0.36635208 -0.3802071 0.36891174 -0.3684474 0.15619624 -0.36369824 -0.56192815 -0.5466523 0.13210426 0.3030892 -0.18102048 0.5140463 0.4532388 -0.1325612 -0.30847698 -0.24284811 0.50368184 0.38387683 -0.2862611 0.036644563 -0.398139 -0.4089992 0.064398885 -0.18840924 0.18478712 0.34966928 -0.044160027 0.18861806 -0.29209453 -0.21385038
21 0.5617617 -0.2751987 0.03554028 0.35376394 -0.3553536 -0.32306188 -0.36891517 0.110754505 -0.22282176 0.97238255 -0.19817711 -0.03827002 -0.19885227 -0.026608089 -0.5383823 0.2676056 0.0059706946 0.021293946 -0.41809434 -0.09660303 0.40622124 0.16464503 0.07005333 0.07219549 0.13471755 -0.28575784 0.2223036 -0.010480243 0.09834081 0.18434872 0.3634867 0.5806049 0.589007 -0.30874527 0.072167374 0.24690236 -0.13147208 -0.5002897 0.10010697 -0.18945558 -0.10635072 0.6465399 9.148607e-05 0.34312382 -0.36783603 0.33256093 -0.16284804 -0.13509588 0.46462035 0.24354449 0.6368216 0.2169758 0.5433995 0.22884923 0.0192371 0.56752986 -0.08251862 -0.464921 0.21556954 -0.24300133 0.10582991 -0.04820309 -0.8358787 -0.20870405 0.19956915 0.19224136 0.08789381 -0.37055445 0.0042782915 -0.2761784 -0.28273186 -0.27100018 -0.23471774 -0.5846993 0.19034585 -0.23089603 0.08891495 0.17172284 0.058190927 0.131986 -0.17441678 -0.04563574 0.34630722 -0.40605566 -0.07211956 -0.05303765 -0.0368228 -0.24372378 0.10152248 0.047530044 0.055425514 0.28542465 0.11572551 0.060768496 0.4687717 -0.3682929 -0.43634403 -0.032147516 0.13135631 0.04562179 -0.036792453 -0.29217678 0.45418775 -0.48735112 -0.498785 0.06656409 -0.09095278 -0.26623088 -0.23318763 -0.13239236 0.33444905 -0.37633896 -0.32114416 -0.1938308 0.37960494 0.22179346 -0.6380116 0.0555634 -0.027017009 0.25581554 -0.41229707 0.16992325 -0.13245839 -0.11966564 -0.3266095 0.35502383 0.028922651 -0.24292187
