512 128
14 0.01209494 -0.48817614 0.058807213 -0.62318623 0.17560129 -0.2512751 0.011408686 -0.5846064 0.14615141 0.353214 0.15553387 0.01571331 -0.44854397 -0.092482485 -0.0693652 -0.1861843 -0.20253514 -0.09409591 -0.02723204 -0.17545481 0.009871193 -0.49086747 -0.49808365 -0.091080494 0.31802726 0.34617192 0.14572322 -0.50933677 -0.019342057 0.029403837 0.014751209 0.19457838 -0.22433132 0.26660842 0.2940969 -0.13241301 -0.40896136 -0.4779451 -0.22407915 -0.029963853 0.09159283 0.38223398 -0.08247875 0.072217606 -0.03580135 0.14447686 -0.12150003 0.017187146 -0.08565404 -0.060673453 -0.4394464 -0.16528568 -0.16826989 0.16889796 0.067127466 -0.2816744 0.028167274 0.67782426 -0.53489023 0.25601378 0.15783717 -0.043284588 0.17637378 0.070819765 -0.32792288 -0.024891362 0.15765974 -0.41341454 -0.09700629 0.36312893 -0.1825339 0.5368294 0.46653336 0.18817377 0.38954762 -0.022249663 0.34862405 -0.2865921 0.03726053 -0.014612982 -0.038722858 -0.35534003 0.613348 -0.09939624 -0.013173303 0.067775786 0.050495636 -0.54807174 0.118523 0.17299005 0.20823978 0.18226348 0.0025125896 -0.04359776 -0.064139634 0.3638636 0.14680041 0.414081 0.4242207 -0.09010517 -0.81372356 0.23428093 0.15427306 -0.158447 -0.3364588 0.16739577 0.08473599 0.5087825 -0.1361556 0.07753066 0.15491176 0.45405647 -0.38286856 0.19364594 0.27764693 -0.26564476 -0.47907943 -0.3813771 0.31858873 -0.16199732 0.21489578 -0.4611936 -0.1451242 -0.40718365 0.123979054 0.17703804 -0.14666313 -0.21092792
55 0.14681557 -0.05618789 -0.13092373 -0.31437865 -0.53754747 -0.12630312 0.007314755 -0.7016126 0.408936 -0.7326796 -0.26447368 -0.08740305 0.05000749 -0.438809 -0.04077808 -0.25723022 -0.028314155 0.82624835 0.0072681652 -0.1886325 -0.15477689 -0.010018512 -0.013234933 -0.6319899 -0.00042604498 0.07821668 0.1283486 -0.23686387 0.19878857 0.20721513 0.031976912 0.08124442 0.4995625 0.12060285 0.33789384 -0.072202645 -0.3732714 -0.09790467 0.17137142 -0.39613146 0.21516441 0.3687235 0.36166623 0.46807566 0.0017690675 0.15374662 0.007599917 0.10996985 -0.37787917 -0.6770272 0.32934183 -0.15949433 0.3058265 -0.082787074 -0.16929933 -0.17212453 0.18913005 -0.32415396 -0.23424321 -0.042077493 -0.15198922 0.3883056 0.70865583 -0.5527926 -0.16973914 0.09710651 0.24990857 0.12845382 -0.23407967 0.67662776 -0.23074976 0.07400233 0.42087886 0.30405438 -0.17361033 -0.15527156 -0.7859554 -0.3743099 -0.45671663 0.015205982 -0.24161984 -0.673368 0.15601298 -0.3596621 -0.34150252 0.30406865 -0.4685258 0.036908332 -0.20011328 0.21622254 0.05158229 0.2968456 -0.12017655 -0.10825631 0.070969865 0.12494733 0.549954 1.0387901 0.30541718 0.17069991 -0.41741285 0.05625033 0.16577904 -0.1046239 0.23859781 -0.31954372 -0.37629524 0.3745711 0.25853428 0.10284183 0.28763142 0.3950818 -0.34835485 -0.49222568 0.0038518663 -0.021310212 -0.0950472 0.22060312 0.12879239 -0.17713714 0.00934486 0.26274103 -0.32476452 -0.10804549 -0.1567596 0.5480842 0.21711434 -0.115948945
70 0.11470327 -0.31358078 -0.06787598 -0.46547323 0.15274449 -0.27136955 0.120081566 -0.70440733 0.06945219 0.35731786 0.057628967 -0.1747103 -0.48725125 0.14951898 -0.06045926 0.035413586 -0.14082833 -0.12916927 0.021110538 -0.25377876 -0.0028573254 -0.39239898 -0.506979 0.008300239 0.08926356 0.3144084 0.025392586 -0.5717284 0.08665391 0.25116712 0.12304652 0.18209872 -0.07811647 0.40145996 0.1395599 0.031336635 -0.43439782 -0.3261882 -0.0890408 0.00016168716 0.1161834 0.34008425 -0.04147212 0.24862704 -0.031937666 0.17043635 -0.24181353 -0.024206895 -0.23635462 -0.15773833 -0.5126373 -0.23416659 -0.15410098 0.13436146 0.19619705 -0.2798047 0.061654 0.8595563 -0.55260795 0.25013992 0.09401783 0.013650235 0.24961545 0.14618187 -0.38743135 0.053902935 0.19352804 -0.41827783 -0.035622682 0.32522747 -0.17913812 0.37814844 0.49935403 0.17204693 0.45533234 0.09602753 0.25675815 -0.46773553 0.18671471 -0.2860766 0.122817226 -0.3102652 0.7726082 -0.12891422 -0.18708017 -0.049678467 -0.10317546 -0.49974346 -0.2209499 0.15541986 0.30712464 0.21742538 0.042484693 -0.05216971 0.017785624 0.41616905 0.04446857 0.33373845 0.46413928 -0.022248406 -0.71965164 0.28607243 0.105425425 0.012013276 -0.34398568 0.084331065 0.0693664 0.44349667 0.020840652 0.27230766 0.07678248 0.5124409 -0.32720527 0.13673618 0.38516346 -0.26896757 -0.5875741 -0.26396394 0.28596675 -0.25580144 0.1459968 -0.38778716 -0.07031838 -0.52950543 0.09144963 0.2720671 -0.043634366 -0.005213209
119 0.23972681 -0.24614978 0.1238309 -0.071840756 -0.1603674 -0.3456457 0.29415944 -0.32868752 0.18707515 0.35246474 -0.44739679 -0.31347293 -0.33287144 -0.020321827 0.41833612 -0.504836 -0.0283504 0.20820224 -0.37222293 0.037305053 0.030726004 0.11831579 0.4251849 0.06846027 0.3312105 -0.24319564 -0.45412195 -0.1576217 -0.01069868 0.1314531 0.1654582 0.05138484 0.44187808 0.13925554 0.12076055 -0.024144663 0.5075957 -0.1025947 -0.2291209 -0.05576689 -0.4964003 0.28630984 0.07091729 0.23744263 0.022331938 0.009654191 0.052878026 -0.016106596 -0.15116934 -0.13286087 -0.46586022 -0.017009236 0.30139896 0.7293227 -0.28062958 -0.12034756 -0.029509371 -0.072335586 -0.102229774 -0.27809775 0.29314047 0.119115144 0.19126563 -0.041176844 -0.11439468 0.5535284 -0.53979594 0.22684957 -0.310664 -0.18850023 -0.52273494 -0.2591035 0.30388802 -0.38672704 -0.13091631 0.23220646 -0.4421175 -0.34847054 0.28487274 0.06825096 -0.15148409 0.20853044 -0.22215606 0.24157569 -0.30087742 0.30596977 0.3568416 -0.6701421 0.3967392 -0.36403683 0.628117 0.01270173 0.2754888 0.39969087 -0.5798644 0.46997616 0.34554797 0.3645989 0.1619644 -0.19545625 -0.5899884 -0.11224363 -0.18318021 -0.20031597 -0.023062216 0.00058120856 0.23712564 0.40044472 -0.28562045 0.17329647 -0.29661998 -0.0780791 -0.69859356 -0.06770212 -0.26966527 0.5649407 -0.24190664 0.07854397 0.29395428 -0.35996893 -0.32362965 0.39064384 0.10592255 -0.6771684 -0.07948596 0.52709335 0.21903686 -0.09074352
29 -0.10196887 -0.3351324 0.013599775 -0.5638581 0.31246468 -0.19963317 0.09187812 -0.5454744 0.22519599 0.20023389 0.103995524 -0.09764941 -0.33693436 -0.02534856 -0.20050856 0.10030669 -0.10066972 -0.14736387 0.040315755 -0.036219813 0.11832114 -0.4465957 -0.45660797 -0.01325073 0.18176971 0.40292045 0.025022842 -0.5272307 0.08749938 0.2524618 0.060695183 0.20440662 -0.034876596 0.32487893 0.31733495 -0.04487606 -0.4500006 -0.48510146 -0.08090597 -0.08583086 0.08227689 0.53009784 0.03847531 -0.020786054 -0.12179848 0.28400606 -0.18472348 0.10328206 -0.16096225 -0.11239821 -0.4960846 -0.20303139 -0.17924593 0.24176449 -0.029146738 -0.25075993 0.030890793 0.6678422 -0.3661706 0.39637396 0.057704184 -0.014006902 0.12230242 0.18577617 -0.34000176 -0.1748866 0.2716052 -0.3194469 -0.1058453 0.41446564 -0.10901353 0.50812566 0.4592767 0.059020907 0.4613984 0.1586329 0.22695681 -0.4533835 0.019049592 -0.07643077 0.10010288 -0.3024117 0.6849562 -0.115820676 -0.1508552 0.22107191 0.020823598 -0.65295386 -0.04117193 0.23762414 0.40223923 0.15389687 -0.0070113447 -0.06206569 -0.10471453 0.51083565 0.13054354 0.45678663 0.39283326 -0.0406587 -0.8967447 0.27665994 0.030326946 0.028808773 -0.25805488 0.1773696 0.22502385 0.36662894 -0.0939108 0.2990937 0.063578576 0.47454372 -0.41024256 0.16679102 0.08185204 -0.1983542 -0.3866256 -0.44754753 0.23228514 -0.20439066 0.2075825 -0.3327433 -0.0445717 -0.46803007 0.1628313 0.03397905 -0.057542875 -0.16061573
11 0.5302828 -0.13381805 -0.40845165 -0.599484 0.22258867 -0.3029936 -0.08206336 -0.017613707 0.36646155 -0.22634491 -0.48008895 0.08604338 -0.20856138 0.18437372 0.0687926 -0.4996007 0.35380265 -0.014365983 0.03161203 -0.1630413 -0.028637413 -0.40951213 -0.15157187 0.37138277 -0.58097994 -0.04772601 -0.1401443 -0.5503635 0.7763774 -0.2625461 0.5553692 0.1518028 0.080204815 -0.37996918 -0.09188245 0.28426078 -0.14195402 0.25891882 0.05927823 0.7563897 -0.38837078 0.21794286 -0.16862148 0.05996504 0.073838085 0.37401935 -0.007245666 -0.36121312 -0.001661494 -0.5890458 0.03588146 -0.09019287 0.029588377 0.3465639 -0.09699403 -0.03107873 0.37068504 -0.002881053 -0.23432451 0.248548 -0.055427656 0.09996441 0.32013306 0.13665675 -0.62909114 0.13138638 0.058406103 -0.64711905 0.105780095 -0.11780618 -0.2958667 0.10736339 -0.06407682 0.235397 0.2519127 -0.110774145 -0.22039719 -0.07770091 0.2569208 -0.24562757 0.17268914 -0.3947767 -0.33459514 0.0751283 -0.24935462 0.13514751 0.34376436 -0.032511126 0.21270594 0.2576839 -0.4851157 -0.05415 -0.4565623 -0.05356909 -0.4073226 -0.24310447 0.48527566 -0.099249735 0.0785826 0.1320425 -0.1683072 -0.4701725 0.18748377 -0.0016333527 -0.00010755145 0.18050808 -0.3551798 -0.0056661074 -0.07938534 -0.14393869 -0.064620644 0.30656543 -0.3893682 -0.27421975 -0.5423385 0.114838056 -0.37593198 -0.32286683 0.072342575 0.3715406 -0.5036983 0.46844938 -0.40697205 -0.15422775 0.09959569 0.20222187 -0.10518171 0.0041219704
122 0.24036321 -0.27997634 -0.07237877 -0.44730422 0.31185633 -0.28411335 0.15386909 -0.7206288 0.080610245 0.31469426 0.051939256 -0.18256454 -0.5392224 0.1059133 -0.11189702 -0.043442972 -0.14596371 0.0200411 -0.09843466 -0.20855542 0.09811377 -0.46128315 -0.49984375 0.034412578 0.19072174 0.3849432 -0.016181203 -0.56092185 0.16204399 0.25596896 0.23988302 0.19590667 -0.0736022 0.38569283 0.12927662 -0.032668456 -0.52637887 -0.34566873 -0.06364108 0.05694492 0.08011818 0.4218724 0.04143302 0.1582349 -0.056871604 0.11939644 -0.24762009 -0.050788563 -0.14289 -0.035147104 -0.5429253 -0.23687688 -0.06730288 0.18078612 0.21691106 -0.3141593 -0.06020262 0.87818897 -0.57982934 0.19155271 0.084536955 -0.04199367 0.2603481 0.05548225 -0.43071917 0.07868504 0.21496227 -0.4575897 -0.050723672 0.36655894 -0.18449804 0.3202651 0.5037971 0.16340728 0.36590505 0.14064658 0.29455906 -0.32586807 0.26074186 -0.2275685 0.091199026 -0.23852547 0.6568323 0.008808135 -0.07388101 -0.0308651 -0.16271918 -0.6366316 -0.20220158 0.18173054 0.37299386 0.18506318 -0.011396787 -0.026990373 0.10455528 0.44797343 -0.03610798 0.39980546 0.48247662 -0.060938373 -0.6899648 0.2778559 0.09458067 -0.020571603 -0.43317387 0.11489631 0.16113262 0.50226665 -0.01987019 0.07580678 0.04288943 0.45519313 -0.3643919 0.1713524 0.48176113 -0.26619872 -0.6106077 -0.25299805 0.27757058 -0.2795442 0.1034526 -0.33465856 -0.04679056 -0.5702274 0.039033826 0.3625372 -0.10330362 -0.10696797
74 0.5147802 0.011599171 -0.3645147 -0.85204625 0.39330134 -0.28866366 0.046762243 -0.0951171 0.7103171 -0.050281964 -0.45069575 0.3273 -0.34744883 0.16524231 0.05500059 -0.71242994 0.19521102 0.014274264 -0.13409892 -0.044368558 -0.16697001 -0.46020773 -0.057833496 0.39077374 -0.5395758 -0.07502137 0.018781815 -0.33850688 0.75609154 -0.28094748 0.6098051 0.053722553 0.031044021 -0.2052734 0.009995487 0.2294915 -0.3235459 0.2014417 0.2754661 0.7234087 -0.5149804 0.17228001 -0.15772912 0.10285515 0.21825111 0.35159957 -0.066555925 -0.25637525 0.09691789 -0.5575 -0.06003576 -0.07373758 0.096330225 0.3821108 -0.09952999 -0.11032826 0.41862777 -0.068039514 -0.25467405 0.1679379 -0.037635423 0.07907688 0.32401997 0.067248 -0.64016294 0.1514533 0.04628373 -0.83250487 -0.1503285 -0.21995486 -0.14097987 0.06705901 -0.08003555 0.11027738 0.3315538 -0.08801849 -0.15546127 -0.14578603 0.3460312 -0.22660016 0.12787724 -0.38052776 -0.5142137 0.12181482 -0.26210627 0.22631532 0.3015045 0.14853413 0.288211 0.10253483 -0.5592647 -0.0025468054 -0.39747873 -0.01389646 -0.4291438 -0.30932748 0.5059537 0.01362475 0.17545448 -0.038809273 -0.07581706 -0.47304338 -0.03913305 0.048836984 0.11064431 0.2735259 -0.36383572 -0.01914787 -0.019118581 -0.22007146 -0.12841079 0.2183369 -0.5856509 -0.20927602 -0.60749555 0.113069996 -0.46914104 -0.36696595 0.032767747 0.32879832 -0.69609135 0.5458726 -0.3870469 -0.024478722 0.1884353 0.33799508 0.0017539593 -0.005738713
340 1.4438086 -0.26147157 -0.4395684 -1.0608492 0.18482168 -0.34462017 0.088517986 -0.31399274 -0.030700952 0.2748534 -0.2948683 -0.17056203 -0.55698764 -0.16982126 -0.2511939 0.09095868 0.23806308 0.28964534 -0.39790106 -0.029259352 -0.07843706 -0.07683196 -0.36036643 0.22307937 -0.38212338 -0.6912021 -0.027955249 -0.35577458 0.20275953 -0.059702054 0.55974954 0.07853138 0.38585722 -0.06734505 -0.13184786 0.7109814 -0.11036618 -0.1267098 0.479977 -0.45363194 -0.68707013 -0.31632477 0.025006851 -0.15860216 0.077222 0.26163092 0.15129636 -0.32917824 -0.08556527 0.2808699 0.42583853 0.6991704 -0.21784455 0.39149112 0.12995543 -0.35935238 0.015104803 -0.43155324 0.026378622 -0.418574 -0.13610783 -0.46212062 -0.20160028 0.01099283 0.45821652 0.0030936396 0.6262471 0.2694648 -0.11153934 -0.42382485 -0.09510483 0.299397 0.1106797 -0.22914784 0.3495635 -0.2910105 -0.00611001 0.08147164 -0.5039027 -0.1748082 0.35642922 -0.30349195 0.17002244 0.34675568 -0.3324433 0.39459613 0.1795781 -0.1709014 0.20278922 0.61584663 0.015038073 -0.18484294 0.04990011 0.2621753 0.16006806 -0.037222452 0.28310308 -0.022803172 0.27071682 -0.18772292 -0.9667206 0.23178251 -0.20398271 -0.19835582 -0.08977491 0.08654263 0.12694322 -0.09637217 0.21719337 0.115848094 0.253996 0.3376928 -0.20332871 0.055142213 0.21843627 0.12020668 -0.18220806 0.31636703 0.099220924 0.46882272 0.059463993 -0.065586425 -0.10311354 -0.1761418 0.07637953 0.0030089763 -0.18487324 -0.18878873
115 0.3255102 -0.3468242 0.12872663 -0.19580463 -0.19329248 -0.43327293 0.26919195 -0.35491842 0.1490511 0.40695575 -0.48432222 -0.20704648 -0.2566516 -0.091937825 0.46201193 -0.33129933 -0.11558248 0.19197014 -0.4231263 0.09652161 0.08204911 0.14899787 0.39892185 0.20687544 0.42139107 -0.35996592 -0.5275513 -0.14547034 0.00417999 0.24260189 0.056649536 -0.058039315 0.5097589 0.1866732 0.15698728 -0.07182316 0.3661842 -0.0881946 -0.26192173 -0.1560224 -0.49629414 0.26569688 0.15108006 0.26316893 0.14837246 -0.025791002 -0.019508753 -0.0017578789 -0.14323705 -0.18444605 -0.5461289 -0.15391691 0.2968712 0.6654943 -0.37380797 -0.1611017 -0.028505635 -0.06816448 -0.063991375 -0.1886974 0.31461447 0.07445218 0.20409237 -0.106336884 -0.21305686 0.5383874 -0.45937878 0.1514948 -0.34009522 -0.15953645 -0.49894026 -0.25171128 0.26292095 -0.3789509 -0.1388711 0.14794752 -0.48609078 -0.3229619 0.26667464 0.050119814 -0.2870233 0.1078205 -0.17717575 0.27913654 -0.31152698 0.34010354 0.41071478 -0.744731 0.49341363 -0.46025643 0.5520588 0.043593507 0.31062272 0.40739635 -0.65193236 0.4462724 0.2688328 0.32566935 0.20960863 -0.123567104 -0.618544 -0.08650686 -0.13240887 -0.21045372 -0.030624792 0.087951325 0.19728464 0.41292277 -0.26609683 0.11870775 -0.26724145 -0.10365398 -0.58929193 0.049683668 -0.18442528 0.4709456 -0.2528626 0.08145136 0.26596233 -0.42164442 -0.25292605 0.45785862 0.05116554 -0.6308116 -0.12198949 0.46622866 0.20972285 -0.18906982
289 0.5893643 -0.63294077 -0.98288286 0.1004639 0.15846194 -0.3808865 -0.06985679 -0.14594276 0.1298459 -0.44731662 -0.4085552 0.076139465 -0.04263248 0.020017292 -0.099967055 -0.5375833 0.21780138 0.36890328 -0.10146898 -0.34814835 -0.2691384 0.49388483 -0.19627132 -0.13327536 -0.13370429 0.13188219 -0.12767234 -1.1303319 0.7750066 -0.10745716 0.3795658 0.34845623 -0.018301396 -0.10291647 -0.34800562 0.10543581 -0.21430454 -0.22903858 0.008945014 0.61717105 -0.12752028 0.5806057 -0.18695123 0.080790274 -0.09551226 0.27270523 -0.15883988 -0.33665735 0.18429804 -0.43487817 -0.3639259 -0.15600069 0.44401702 0.056075767 0.17572373 0.028514614 0.07374758 0.008689065 0.13977425 0.13757525 0.0544465 -0.33660153 0.12583078 -0.36721846 -0.55333215 -0.2844511 -0.17684731 -0.4358443 0.27598864 0.25438067 -0.10016192 -0.01477414 0.124020934 0.31121737 0.61838794 -0.18711123 -0.044661947 -0.22556007 -0.49969953 -0.49317145 0.45510063 -0.1192592 -0.30636838 -0.1802256 0.08259295 0.066969946 0.51418555 -0.13768399 -0.3808053 0.25505528 -0.38360882 -0.49990535 -0.17402737 0.2644975 -0.15390337 0.35641485 0.3039919 -0.14284115 0.18593861 0.052673288 -0.7756335 -0.48454425 0.10985413 0.35099465 -0.120304 -0.21119836 0.012233225 -0.25704494 0.28254175 0.34443167 0.2144814 0.17004989 -0.42755908 -0.3570392 -0.2376039 0.20688437 0.03227908 0.069697976 0.22006008 0.3758757 -0.09596718 -0.07113426 -0.17158785 -0.09890456 0.032625284 0.6923538 -0.034245994 -0.19337295
318 0.22770774 -0.3060918 0.41038138 -0.930841 0.010173022 -0.25073162 -0.40104145 -0.15535545 0.27612916 0.12146851 -0.0969435 -0.109307006 -0.25535625 -0.056659393 -0.5327956 0.15402003 0.0012572061 0.16362138 0.041795652 -0.04201254 0.11883772 -0.18524916 -0.46938163 0.2856284 0.21178709 0.11808327 0.3611091 -0.46727818 0.39310932 -0.04466629 0.076667264 0.12311499 -0.11730272 -0.4150499 0.07442895 0.13008189 0.48038524 -0.118991144 -0.107514426 -0.26336902 0.24969369 0.69289005 0.38427085 -0.05537515 -0.27037895 0.0069358204 -0.38766158 -0.20052083 0.2108304 -0.17553036 0.36672938 -0.012118697 -0.22065692 0.09188219 0.0033551182 0.3791516 -0.17166296 0.35950476 -0.40627292 -0.26022685 -0.5105658 -0.44105434 0.2273452 0.03437627 0.0731678 -0.062266648 -0.12759744 -0.5183281 -0.5255689 0.047078006 0.19730072 0.0030899197 0.4181405 -0.4215249 0.16252288 -0.24485743 -0.21473779 0.0425512 -0.00397792 -0.10962525 -0.12912486 0.60022825 0.25602847 0.12851796 -0.46906352 0.28256044 0.26419052 -0.20189545 -0.5326598 0.33269513 0.25299513 0.26286748 -0.23717892 0.35546413 0.057055485 -0.3052675 -0.32096598 -0.10366025 0.29498348 -0.2630782 -0.42166775 -0.44209212 0.30897367 -0.12943766 0.014928547 0.21645142 0.16695955 0.42988348 -0.3021117 0.14189519 0.20573267 -0.1300116 0.24473204 -0.72170395 -0.2632175 0.47975537 -0.16037437 0.29901722 0.119225204 -0.01457513 -0.522585 0.06014368 0.39723757 -0.19785346 -0.50925964 0.31586212 0.033971712 0.16642939
56 0.20999856 -0.8412605 -0.5722393 -0.684564 -0.3434146 0.33469522 0.17820223 0.393533 0.3075595 -0.050704237 -0.6914069 0.84381163 -0.1440532 0.21290915 -0.016358316 -0.15984175 0.15482308 -0.014373633 0.3484359 -0.29371837 -0.5947769 0.036305994 -0.28706297 -0.33159465 1.0064722 0.08390234 -0.51471424 -0.26087558 -0.2335694 0.14702456 0.075417735 0.33988747 0.09858582 -0.27377117 -0.3658725 -0.13909052 0.08704042 0.26837087 -0.044335395 0.3236129 -0.44494614 0.07693526 0.27566972 -0.06327296 -0.7724599 0.69247276 0.24211034 -0.49846074 0.021185165 0.21286869 0.1926964 -0.021944867 0.18362646 0.3305913 -0.030097226 -0.40989485 -0.18891235 -0.33165538 0.025017709 -0.43697113 0.25693598 -0.23183401 0.07309225 -0.27648002 0.14456545 -0.18319553 -0.08420473 0.17248644 0.16955347 -0.098101266 -0.08034873 -0.35958377 0.29112032 0.07578105 0.047489192 0.24524608 -0.19319634 -0.6464368 -0.02677383 -0.20598067 0.12884963 0.17411925 0.10790946 0.0024330409 -0.18515822 -0.17730634 0.46803358 -0.6164882 -0.011166232 0.8030465 0.071047805 -0.35894078 -0.10362096 0.19688033 -0.03860026 0.4189732 0.3657038 -0.10157727 0.29684353 0.40334898 -0.37545827 -0.20149717 -0.1845459 -0.15664321 -0.49455538 0.24918966 -0.06618915 -0.031049244 -0.43513632 0.30552727 0.37712112 0.47983953 0.014718814 0.25342724 -0.0748187 0.20000836 0.014251156 -0.12704481 0.051005386 -0.09441535 0.07348705 0.20299628 0.30530635 0.33970588 -0.30144438 0.5854541 -0.21281214 0.24565916
455 0.14212787 -0.7086529 -0.76500314 -0.54726285 -0.44004798 -0.10009918 -0.46487987 -0.08700932 0.31050763 -0.22136913 -0.5553944 0.005286233 -0.42844957 -0.3266201 0.31181568 -0.73462635 0.081070624 -0.019322138 0.37334648 -0.26355794 0.54855007 0.29741243 -0.48159367 0.32620636 -0.53721756 0.38723904 -0.029599447 -0.05839338 0.029108416 -0.08125464 0.09329882 0.07985824 0.1794451 -0.13641179 0.08254658 0.0440382 0.3004036 -0.25392964 0.37584978 -0.47914812 0.20991082 0.5067519 0.22470205 0.28745228 -0.045812655 -0.38359627 0.42176327 0.1704354 -0.28110316 0.0965959 0.40461373 -0.19371943 0.6051837 0.1386869 0.31253248 -0.2507504 -0.026472928 0.06947311 -0.8068892 0.29049322 0.19993983 -0.2596257 0.13084035 0.07934962 -0.2454167 0.23090503 -0.15060884 -0.14415033 -0.43142673 -0.26361486 0.20545436 0.71832514 0.027762245 -0.3485825 0.06745687 -0.16239889 0.050033573 0.22713141 -0.21704893 0.15877762 -0.34603932 -0.08787628 0.3857157 -0.22705433 -0.2655197 0.19167496 0.21660253 -0.10585469 0.029262958 0.2783342 0.2537005 0.0681147 0.34081492 0.101631865 -0.18459828 0.06468335 0.19256529 -0.11909383 0.25777707 -0.032394446 0.49155152 -0.9755465 0.20247257 -0.15909778 0.03662281 -0.07849603 -0.013586637 0.3561959 -0.21837437 0.27360576 -0.051285878 -0.16497265 -0.2688991 -0.2585504 -0.0973964 -0.34321678 -0.38147295 -0.31690446 0.24148588 -0.024108576 0.12991753 -0.15006115 0.2579265 0.22161213 -0.18164316 0.057853855 -0.2822906 0.26658484
246 0.19145289 -0.24064273 0.41909167 -0.98155075 0.080682024 -0.1837391 -0.3624161 -0.24756753 0.24330878 0.48680708 -0.25896126 0.18146114 -0.26205435 -0.31573758 -0.37543145 0.21603394 0.16765286 0.33100405 0.06476516 0.03744404 0.17021427 -0.27585056 -0.43589056 0.090077735 0.021862485 0.04385621 0.538631 -0.40000096 0.33906707 -0.048932508 -0.03519853 -0.18325238 -0.031152798 -0.26652932 0.084671386 0.24669777 0.37173828 0.11496953 0.022885988 -0.4146222 0.31521335 0.5679235 0.20244616 0.19105685 -0.21828982 -0.11862346 -0.3613402 -0.14036238 0.30529404 -0.34590533 0.32954043 0.01759749 -0.3647184 -0.081274405 0.24270129 0.24142425 0.049363837 -0.028959258 -0.3509675 -0.51215905 -0.3883008 -0.42665184 0.27816436 -0.13223502 -0.21305737 0.033134118 -0.17635553 -0.38619453 -0.53352946 0.095928974 0.25308084 0.035559487 0.387142 -0.18070169 0.34560376 -0.3675616 -0.032734476 0.13873166 -0.19917439 -0.2910012 0.049827337 0.53488296 -0.0084098475 0.23979513 -0.4223522 0.16044949 0.25741127 -0.12120913 -0.33543473 0.1275476 0.32841763 0.24004695 -0.18432914 0.3941711 -0.1592614 -0.148865 -0.3098427 -0.12912412 0.4422606 0.025372759 -0.30508164 -0.4493937 0.033902552 -0.14775577 -0.019013839 0.1581546 0.3911064 0.5536751 -0.27937403 0.17825486 0.40399933 -0.021214128 0.12668592 -0.6936482 -0.08798831 0.38147622 -0.096281745 0.37600765 0.28042355 -0.03530426 -0.5223841 -0.07201041 0.45166677 -0.012946818 -0.48604906 0.45951417 0.20016204 0.25527397
230 0.5238106 -0.5784507 -0.98933876 0.16338892 0.051273417 -0.43631384 0.052694175 -0.19561952 0.01815365 -0.3720724 -0.5511946 0.07874013 0.049128838 -0.027337389 -0.029093489 -0.5696518 0.3664235 0.30487522 0.02066045 -0.6091666 -0.28351158 0.4885425 -0.35913172 -0.1073885 -0.26789522 0.14686842 -0.03787451 -1.0882183 0.6730345 -0.21147227 0.37858564 0.3231787 -0.09001679 -0.11409848 -0.45897558 0.0928589 -0.20645824 -0.23118165 0.10177689 0.67013854 -0.03953862 0.52285045 -0.27781704 0.10853644 -0.09859353 0.4034154 -0.06509636 -0.37215382 0.17375866 -0.34272984 -0.33725268 -0.08984554 0.38517785 0.025182154 0.20056374 0.05927075 0.11627079 -0.03849589 0.10400201 -0.0025018868 0.08943333 -0.33252686 -0.04406982 -0.3954939 -0.43746132 -0.19283722 -0.16778618 -0.39683685 0.23976463 0.16247979 -0.36409834 0.03759518 0.07954643 0.37655672 0.5810669 -0.26066557 0.00093439716 -0.11735412 -0.5786181 -0.5529972 0.4506755 -0.114383355 -0.45888603 -0.092768855 -0.012485988 0.033289175 0.44177833 -0.10163492 -0.23961295 0.19603734 -0.22944918 -0.44287747 -0.18682106 0.282098 -0.07758023 0.2817229 0.35978934 -0.16145192 0.16242838 0.083422706 -0.80738246 -0.49161756 0.030132378 0.4428279 -0.27452755 -0.29313007 0.1321301 -0.24160352 0.29537225 0.5164522 0.16770455 0.1405007 -0.5095763 -0.44173327 -0.27261066 0.2418832 0.04942797 0.13178067 0.23578069 0.17431553 -0.13340077 -0.10346489 -0.21110828 -0.15713596 0.0733364 0.69380206 -0.07157184 -0.07962799
354 0.12402791 0.42432082 -0.37461418 0.07857946 0.41049093 -0.6907482 0.47495475 -0.094224304 0.9267216 0.110489145 0.059693087 0.36551282 -0.035471417 -0.71332234 0.12637666 -0.7124965 0.039859388 0.74316794 0.005948127 0.12115586 -0.43189862 -0.061869334 -0.17973113 0.32784384 -0.42586163 0.33768815 -0.54848486 -0.3616456 0.04749297 0.15039963 0.56854784 0.28166652 -0.19319491 0.076205514 -0.026274942 0.14227925 -0.51377904 -0.9396508 0.7367997 -0.16808219 -0.20294434 0.19658165 0.30888617 0.1339478 0.12219912 0.37121993 -0.01863866 0.19182068 0.022173155 0.43964133 0.24865672 -0.11327021 0.79134005 0.47441277 0.25417367 -0.3812635 0.23229685 0.8334391 -0.9716106 0.16705786 -0.19919983 -0.45277438 0.052046504 -0.2958362 -0.10553321 0.0887893 0.18259649 -0.42490524 -0.31910932 0.3081979 0.042064786 0.031797227 0.85712045 -0.1545948 0.4312288 0.48975497 -0.13041529 0.14857922 -0.47393507 0.009597353 0.1555185 -0.2448588 -0.06192247 -0.55493534 -0.09959274 0.20482019 -0.07919959 0.310549 0.13994817 -0.2852742 0.03241431 0.6162463 -0.107631646 0.6578793 0.6971097 0.17452925 -0.2408987 0.08094856 0.67571926 0.07569727 -0.86026335 -0.13333242 -0.44384065 -0.34257057 0.25934127 0.3006996 0.12512667 -0.6030995 0.1649345 -0.010223159 0.20082277 1.2399566 -0.4551477 0.12818342 0.35492575 -0.10343271 -0.048492342 0.021134408 -0.38826367 -0.05528248 -0.36961097 0.3797692 0.15785363 0.018399278 -0.010655982 0.073685825 -0.030730478 0.114028655
89 0.45707148 -0.04381521 -0.43041936 -0.906951 0.34838596 -0.26639408 0.043619264 -0.15043037 0.69506645 -0.05916307 -0.57040834 0.24644354 -0.33061516 0.17423253 0.19630794 -0.6468656 0.20780988 -0.055431377 -0.2119624 -0.08615769 -0.113267854 -0.43936217 -0.07554102 0.46068236 -0.5553116 -0.04704251 -0.060276393 -0.3210063 0.7602622 -0.283322 0.70066375 -0.02022822 -0.023678618 -0.22168133 0.064650856 0.23803812 -0.24609736 0.2302728 0.15466633 0.72201085 -0.56217283 0.16752334 -0.3215845 0.10790407 0.32095933 0.3127921 -0.009361874 -0.30378872 0.073722295 -0.5733515 -0.09385968 -0.04014456 0.015719699 0.41473207 -0.06846264 -0.10558628 0.4076442 -0.0408996 -0.2017404 0.2881485 -0.053129904 0.08181626 0.42113507 0.2226812 -0.7248831 0.1972316 -0.0073350375 -0.7427545 -0.108219646 -0.19981433 -0.21801673 0.24638198 -0.0609384 0.20532839 0.36016244 -0.13130286 -0.16204175 -0.0681743 0.33446082 -0.19347939 0.119559154 -0.43566322 -0.45832852 0.053816557 -0.36015052 0.118443415 0.26523763 0.14111501 0.2893133 0.16392943 -0.5976501 0.10002689 -0.33138508 -0.012679631 -0.3882727 -0.3491548 0.47813952 -0.008687488 0.10343448 0.06323635 -0.08956761 -0.33253974 0.00082371884 -0.04917936 0.094896995 0.30606464 -0.34685323 -0.0362821 -0.10002631 -0.29265362 -0.11285008 0.27212018 -0.51014537 -0.16409151 -0.5979262 0.15290864 -0.5062961 -0.2994923 -0.013431651 0.39549777 -0.7084149 0.62357634 -0.48276874 -9.986829e-05 0.14612322 0.25740707 0.030093294 0.05416867
250 0.401109 0.28623146 -0.05254331 0.22175647 0.08627488 -0.11223049 0.5215331 -0.02827721 -0.39668822 0.07702013 0.27986562 0.19334613 -0.34592056 -0.31880164 0.22349331 -0.26669434 -0.13781929 0.2812126 -0.32215384 -0.5113661 0.3229196 0.34679776 -0.07192112 0.010374068 -0.22510599 0.22532792 0.22443546 -0.41707787 0.15275891 -0.124813184 0.61844254 0.4366949 0.1147475 0.014753648 0.50042784 0.10992697 0.42333806 -0.081235096 0.41695914 -0.21723537 -0.063162535 0.32294008 0.3185842 0.30253777 -0.100530975 -0.12467251 0.32278723 0.15676658 -0.06914339 -0.10590139 0.2673488 -0.34168229 -0.076342046 0.4025414 -0.18110773 0.122927785 0.43220246 -0.06424812 -0.05218392 -0.06449035 0.21312153 -0.35116792 0.08863231 0.16308825 -0.12904453 -0.044497054 0.26701137 -0.41387665 -0.26629806 -0.18941827 0.047317546 0.4321894 0.33735067 -0.15301761 0.3059904 0.1059467 -0.32488889 -0.4454357 -0.28805417 0.12331207 0.075141706 -0.21848948 0.068647936 -0.37807858 -0.34386247 0.31218672 0.4057021 -0.23797412 9.8143886e-05 0.3526343 -0.030385213 0.4171138 0.15391223 0.22185214 -0.28083396 0.004270769 0.15632428 0.04165736 -0.30838156 0.82488453 -0.08674567 0.15385522 -0.4451758 -0.74682075 -0.50113785 -0.28488803 0.18794855 0.13922174 -0.65219206 0.27216145 0.0033491966 0.063738376 0.044336606 0.15829003 -0.12504913 0.46090296 -0.25643626 -0.25301528 0.06794541 -0.26378837 0.115530595 0.011183288 0.15401176 0.3133283 0.034036987 -0.11644372 0.114050865 0.33552307
350 0.19014387 -0.36550936 -0.26137117 -0.43285775 0.07863274 0.043945737 -0.16685127 0.16316998 -0.77872175 0.03478571 -0.3836889 0.4101215 -0.5636467 -0.40148637 0.4813907 -0.31202802 -0.14343669 0.47560626 -0.1293839 -0.3816282 0.6782959 -0.11184164 -0.33442363 0.22231872 -0.23506068 0.25225055 -0.17816867 -0.06007787 0.05851137 0.21426566 0.26843122 -0.09777276 -0.017016308 -0.023798237 -0.22391628 0.3813972 0.35017496 0.01537003 0.68541574 0.026337856 0.1722652 0.20065199 0.058495864 -0.29416564 -0.5707652 -0.12442327 0.09722593 -0.09814714 -0.2791592 -0.4369123 0.45234802 -0.2843708 0.22404076 0.29258585 -0.23307571 0.017870069 0.123266675 0.014432727 -0.30948675 -0.050343387 -0.3393384 -0.39587942 0.24745296 0.008003084 -0.6263789 0.41088876 0.2058749 -0.16753612 -0.52834094 -0.2042823 0.28737035 0.12434405 0.23860984 -0.39230612 -0.009181234 0.2717742 0.08324668 -0.053020507 -0.15179327 0.10080692 0.33203444 -0.35494068 0.4330159 -0.14206192 -0.2779687 0.4033664 -0.233378 -0.40447378 -0.31822398 0.058441855 0.3936039 0.36785537 0.35426572 -0.49035487 -0.1521147 0.14870209 0.46245736 0.06589401 0.33452427 0.11308531 0.23578063 -0.038575407 0.08213892 -0.18060671 -0.047924176 0.31446415 -0.026890421 -0.04577885 -0.4017242 -0.016548304 -0.042045154 0.13119568 -0.40515956 0.4578987 0.13167629 -0.27137816 0.1555224 -0.07341649 0.061786335 -0.58376783 0.06819496 -0.32345614 0.25092515 0.35169652 -0.0842615 0.0750203 -0.02155334 0.30884773
184 0.31933182 0.024754098 -0.4264043 -0.46854544 -0.18953037 -0.22469588 0.57360816 -0.15915748 0.20555021 0.6381991 0.41831848 0.56667477 -0.41447124 0.18490598 0.26018026 0.022715205 0.16698374 -0.37909085 -0.11811284 -0.58803993 -0.07475213 0.15224509 0.10687786 -0.3304127 -0.24360336 0.037366156 -0.57853925 -0.042544734 -0.38626957 0.16009931 0.086396515 -0.08257117 -0.096496604 0.005171974 -0.06058847 -0.16785969 0.648564 0.09113561 -0.4499918 -0.30102983 0.20230258 0.4084915 0.0066430345 0.49300578 -0.10428441 -0.22067459 0.07096584 0.50891393 0.17462073 -0.6812289 0.8388288 -0.48519245 0.15615298 0.79775256 -0.028814021 0.54204506 0.14734276 -0.01112962 -0.5343522 -0.20785671 0.40132314 -0.078340694 0.36880744 0.54594094 -0.6626997 0.8034695 0.72967577 -0.19071324 0.6114689 0.10582818 -0.42277563 0.11424394 0.5880886 0.21409342 0.13290028 0.34524095 -0.25488585 -0.12719299 -0.039673507 0.37993523 -0.3780309 -0.17884405 -0.36112678 0.14171894 -0.2462251 0.34707052 -0.1299956 0.13392223 0.017891597 0.2981824 0.5128584 0.38198918 0.023865037 0.33411458 0.41126537 -0.057337716 0.19634889 0.9899891 0.8659312 -0.08536777 -0.5456066 0.057848208 -0.1739808 0.28572562 0.27562794 -0.06736301 -0.22161902 0.27624407 -0.23689988 -0.10533226 0.15390153 0.57737845 -0.19019635 0.33252877 -0.24910878 0.22031659 0.34639236 0.3488308 -0.4997857 -0.10573546 -0.39248875 -0.2838931 0.7635291 -0.23991515 -0.16100915 0.49965915 0.09155923 0.38770196
161 0.23618115 -0.18385291 0.066993125 -0.20697351 -0.157113 -0.36709931 0.31717435 -0.4873273 0.16442102 0.3265203 -0.3988212 -0.23613417 -0.34125242 -0.12003593 0.3684125 -0.4416527 -0.06099749 0.25992888 -0.41845542 0.010389448 -0.026657034 0.18385638 0.38759997 0.0226329 0.29794866 -0.35777968 -0.5008548 -0.10875762 -0.017157704 0.15093045 0.10262061 -0.09910073 0.42213297 0.24184896 0.1075544 -0.026831418 0.5222428 -0.047936335 -0.2916657 0.0452742 -0.45302182 0.22834373 0.04669613 0.29283231 0.045305256 -0.0460654 0.032568216 -0.06716388 -0.15583804 -0.11201998 -0.5764153 -0.102766156 0.28763047 0.7377362 -0.27160266 -0.11417276 0.00073538214 -0.05468668 -0.07419293 -0.21353853 0.23434283 0.047193695 0.12258695 -0.04854061 -0.07979464 0.58322006 -0.4687182 0.1660128 -0.2772034 -0.15257975 -0.52849096 -0.26907468 0.34089386 -0.36461335 -0.15987776 0.20149702 -0.4374861 -0.24984731 0.23166656 0.07539028 -0.12187039 0.19879836 -0.27261937 0.24460962 -0.3733048 0.31896237 0.38851103 -0.71890527 0.38594788 -0.49560922 0.5735321 0.115784444 0.28333467 0.4270027 -0.5724894 0.47098598 0.2302023 0.2510263 0.2637179 -0.19356629 -0.60522723 -0.08895374 -0.15916538 -0.29050574 -0.14812277 0.04173302 0.33126515 0.4464126 -0.36994106 0.07844086 -0.26900798 -0.02447083 -0.7021314 -0.11673598 -0.17681734 0.51467943 -0.2389991 0.19148482 0.34256333 -0.4672932 -0.33842078 0.44845554 -0.017077956 -0.6879413 -0.23188308 0.56488186 0.36186573 -0.06633387
211 0.2605147 -0.16756819 -0.26347315 0.0477629 0.16582625 -0.07474522 0.3032053 0.083635285 -0.07836972 -0.10572295 -0.36306128 -0.07304151 -0.33333063 0.004008863 0.45146137 -0.3891496 0.037070546 -0.06422961 -0.013834889 -0.18173163 0.27279082 0.22220603 -0.27427724 0.9790056 -0.23227194 -0.5968965 -0.1867631 -0.0041319523 0.23969106 -0.06707078 -0.21623997 -0.08186992 0.021808019 -0.88953435 0.12709773 0.0015749785 0.21317983 -0.3513928 0.16612297 -0.31833613 0.02508771 0.52776396 0.5957197 -0.0037730238 0.21611466 0.39016515 0.47843665 0.11097615 -0.27007854 -0.19549625 0.089195035 0.10056731 0.026767999 0.51234597 -0.20910196 0.13870391 -0.013144164 -0.10196933 -0.5216001 0.22871609 -0.29267594 0.17880166 0.07625325 0.11303766 0.34848756 0.33099058 -0.18954834 -0.27341083 -0.5693544 -0.23426779 -0.24314456 0.6319386 0.09257174 -0.2772211 0.24773528 -0.78468174 -0.18326437 0.057704896 -0.081038795 0.3864763 -0.20473951 -0.13073425 0.09756812 -0.37347174 0.03078625 -0.16722555 0.37795186 -0.22645003 -0.3225501 0.41179782 -0.2813827 0.123250514 0.3458843 -0.0541196 -0.37830824 -0.04348298 0.42782208 0.008654336 0.8397297 -0.12998289 -0.97906107 0.013522657 -0.19025044 -0.39457002 0.6116397 0.023018667 0.16673116 0.28168166 -0.04865128 -0.14031076 0.1573402 0.31021714 -0.12862365 -0.44196904 -0.17447117 0.15001231 -0.120444395 0.6951906 -0.31555665 -0.479839 0.059386026 0.2235581 -0.056419797 0.30622464 0.0778821 0.038243413 0.7952713 0.015142272
85 0.05038201 -0.15546082 -0.031248359 -0.5809315 0.10679062 -0.11603953 0.13869159 -0.15070352 -0.38570166 0.49975216 -0.3464874 0.33510172 -0.5163654 -0.4628264 0.3387484 0.043129396 0.011555813 0.32762745 -0.22070858 -0.40517095 0.6075385 -0.08733572 -0.08374723 -0.30602607 -0.12275819 0.21368098 -0.27941266 0.05450168 0.08573536 0.20941232 0.6167514 -0.15625148 0.08969185 0.024843236 0.04160061 0.20559283 0.31141883 -0.20541531 0.66604227 0.10943399 0.24434485 0.13264748 0.11756825 -0.14906174 -0.18352245 -0.14948253 0.10883727 -0.08424999 -0.298154 -0.29394004 0.32598692 -0.42337835 0.16669661 0.44850942 -0.14186095 0.050932832 0.119499095 0.018060006 -0.24560209 0.09788162 -0.46674725 -0.5110226 0.09763701 0.008770679 -0.19428623 0.23838323 0.24656731 -0.36140501 -0.48923844 -0.43968996 0.19472899 0.40004924 0.07004172 -0.4430601 0.41463068 0.273537 0.09925548 -0.024266139 -0.24730168 0.12402243 0.23958108 -0.28201446 0.050280653 -0.32728183 -0.04372888 0.45654047 -0.22160505 -0.0031160533 -0.44708434 0.18600716 0.19768944 0.25501347 0.6977874 -0.50764364 -0.4258273 -0.101686135 0.32215422 0.016660225 0.3045788 0.23466556 0.2119741 -0.0020248375 -0.20145567 -0.22502926 -0.13814297 0.32650524 0.34236708 0.05520845 -0.38043353 -0.0023755983 0.0006938109 -0.059558935 -0.4362975 0.40937006 0.09269817 -0.09903417 -0.17180073 -0.32354945 -0.009339613 -0.79996157 -0.0055886065 -0.11459821 0.18260975 0.15885687 -0.13131067 0.07952816 0.11728193 0.20869665
233 0.11123204 -0.27458683 -0.34397098 -0.2250932 0.022910934 -0.10353364 0.067402296 0.1000477 -0.6454605 0.060710218 -0.073131666 0.36960736 -0.7374489 -0.37204915 0.38182315 -0.2519185 0.054778237 0.46569276 -0.23008059 -0.50988024 0.6629738 -0.19332203 -0.19717248 0.19345248 -0.19383228 0.30223542 -0.37537917 -0.13618474 0.09588506 0.11912329 0.3727225 -0.12029105 0.18466863 -0.09404156 -0.27902025 0.3150677 0.2297251 -0.14833996 0.69823277 0.183994 0.09613814 0.25925645 0.066264 -0.1694323 -0.5178545 -0.023615636 -0.005693925 -0.1254154 -0.19048992 -0.33053848 0.44949102 -0.2994653 0.21933642 0.36791238 -0.27090073 0.00046700574 0.05734763 0.16057624 -0.28646538 0.0035185146 -0.3074442 -0.15415598 0.1400197 -0.029987996 -0.55208486 0.21997611 0.23379555 -0.027095126 -0.4638829 -0.13293995 0.32450438 0.08120975 0.15377304 -0.46207252 -0.15684386 0.1822365 0.14320181 -0.12338867 0.03896025 0.19052722 0.4337976 -0.21550521 0.24662548 -0.21842739 -0.22556633 0.3905567 -0.18631344 -0.38819987 -0.4561141 0.07768348 0.23706529 0.45386705 0.27445528 -0.40706825 -0.003459612 0.06944431 0.4009406 0.05531502 0.2529593 0.10717527 0.23030655 -0.19074364 0.17985028 -0.3156712 0.061730564 0.24370936 0.11583652 0.022055183 -0.41671586 0.12552759 0.0005639231 0.11564809 -0.36659032 0.17908895 0.16668515 -0.31493926 -0.11495905 -0.16698577 0.0503388 -0.5568047 -0.09867006 -0.3244185 0.3841243 0.18411179 -0.17819591 0.06768198 -0.06669061 0.5543004
199 0.021117466 -0.008804734 -0.3036914 -0.36229792 -0.113130435 -0.28585863 -0.16213204 0.09819126 -0.07148876 -0.05553045 0.15204832 -0.21710214 -0.0635539 -0.3691157 0.12436579 -0.26639852 -0.18698698 0.40604633 -0.3451965 0.11435065 -0.12140284 0.18979228 -0.15564156 0.4268255 -0.26103622 0.33995515 -0.15521075 -0.26348856 -0.1511854 0.20592225 0.29471684 0.21138275 0.15067063 0.14215074 -0.03943605 0.2654074 -0.073121525 0.023011176 -0.22304787 0.009977433 0.26189202 0.31269613 -0.13291407 -0.4943116 -0.116681956 0.5919953 -0.42889237 0.61189157 -0.36821908 -0.26312906 -0.010351905 -0.24890052 0.52967846 0.2994782 -0.20613407 -0.07157218 0.21301787 -0.8033809 0.17902324 0.579394 -0.7129557 -0.51426864 0.35998327 0.11306921 0.0022532258 0.69991136 0.16343318 0.030728946 -0.5000001 -0.0961276 -0.3686671 -0.030723464 0.5781759 -0.22010304 0.00043795814 0.08428276 -0.3065771 -0.26636973 -0.31023484 -0.28971484 -0.091124095 0.042735472 0.003412981 -0.58373904 0.268211 -0.162408 -0.16444062 -0.31961414 0.1406553 0.31211463 0.30282596 -0.3194887 -0.05680556 0.15501833 0.07165182 -0.33820674 0.40117294 -0.036059797 0.43765825 0.026166467 -0.066868246 0.004327694 -0.008569094 -0.04967271 -0.099861085 0.028802779 0.11645393 0.6000014 -0.031774808 0.5410923 0.40046772 0.19091095 -0.31490737 0.099177286 0.16416605 0.3410895 -0.7182745 -0.21706848 -0.07305303 0.06336995 -0.49408296 -0.08213488 -0.13113166 0.1716041 0.058093343 0.46454787 -0.66290265 0.46096614
358 0.06929999 -0.39451876 -0.15449369 -0.10692364 -0.08299175 0.4700648 -0.18676327 0.05941448 0.41057754 0.2739678 -0.17725202 0.032320675 -0.8102022 0.04555833 -0.2886218 -0.5881204 0.009434892 -0.042537246 0.22791171 0.14887954 -0.3946768 0.26553532 -0.030020315 0.21681409 -0.3050046 -0.40822124 0.096163675 0.090551935 0.24885385 0.022452312 -0.52794445 0.025736507 0.19403337 -0.02606748 -0.2604946 0.007615643 0.4396399 -0.127941 0.24716638 -0.30492958 -0.048002053 0.06979795 0.6137476 0.03919993 0.1336666 0.5706654 -0.2950701 0.21868046 -0.19277374 0.09136178 0.13713764 0.020880317 -0.13882779 0.19972655 0.24686496 0.37985834 0.4473812 0.27223998 -0.9786331 -0.6671206 -0.11993351 -0.08878466 0.55032617 0.13874306 -0.1787795 0.21435687 0.5948399 0.0958509 -0.049578987 -0.28499025 -0.357593 -0.012870313 -0.01730569 0.19876848 -0.1347486 0.22638473 -0.3015948 0.47219324 -0.15633155 -0.26674238 0.18571176 -0.32558373 -0.25883695 -0.29670244 -0.7733282 0.16452134 -0.44351885 -0.19746396 -0.66098285 0.3923002 0.2830279 -0.017411212 0.16447626 -0.24212414 0.73208714 0.15801638 0.433254 0.079057164 0.22969297 -0.1008746 -0.6913476 0.3259869 -0.17580725 -0.3199781 -0.48691377 -0.32378858 0.36230874 -0.17630248 -0.4035739 0.15645973 0.036824632 0.18638699 -0.10198239 0.10229646 -0.039803427 0.6567365 -0.22647218 1.0031607 -0.2771021 0.1180283 -0.08867931 0.4887905 -0.41379404 0.101918444 0.25546458 0.60047084 -0.44898152 0.2977811
58 0.062036272 -0.7734174 -0.5545349 -0.68383056 -0.2734299 0.322713 0.37259665 0.2522399 0.25668117 -0.023867033 -0.5052143 0.89425874 -0.28526455 0.11000566 -0.12463748 -0.40030125 0.088409215 0.042275846 0.46514273 -0.28858638 -0.5609967 0.015358346 -0.46068385 -0.19512518 0.8813885 -0.06413398 -0.6215462 -0.54096186 -0.065212645 0.055938683 0.1560308 0.40256292 0.08719406 -0.23108242 -0.46825436 -0.24488036 -0.054777224 0.32023972 0.04339403 0.4320806 -0.33335236 -0.15950583 0.301163 -0.15115021 -0.86187476 0.6660914 0.21113244 -0.42580527 0.003395438 0.25797337 0.16921945 -0.0065395385 0.14790931 0.30184308 -0.0352494 -0.19526678 -0.07706159 -0.19801919 0.012048081 -0.40757704 0.2721649 -0.11896388 -0.07625039 -0.3779702 0.30054808 -0.21548834 0.017182507 0.011342472 0.2906794 -0.10734802 -0.18922117 -0.37568897 0.1822259 0.101100795 -0.092412174 0.14996806 -0.23909943 -0.5421313 -0.05415722 -0.13252424 0.1887921 0.16844074 -0.1322843 -0.07394276 -0.04844619 -0.0473199 0.42304978 -0.52897346 -0.07061376 0.6590863 0.1958819 -0.36747095 -0.09496325 0.37330702 -0.09225448 0.29588297 0.2346753 -0.11881813 0.32238853 0.33231062 -0.3750115 -0.3656106 -0.20833175 -0.18122844 -0.5927111 0.16076484 -0.0388631 0.075398594 -0.38044873 0.40708426 0.43182468 0.50215954 0.017038044 0.16271943 0.04919909 0.08033213 0.03327386 -0.19312108 0.14514807 -0.116622105 0.07263534 0.25274813 0.25246456 0.24554689 -0.42794594 0.6446558 -0.24203975 0.37774748
336 0.16473085 -0.19679387 -0.5096011 -0.5107053 -0.41458598 -0.3939401 0.3921056 -0.18463574 0.31350514 0.44639358 0.32940513 0.5306678 -0.25793627 0.20441285 0.15751088 0.03210322 0.27819672 -0.7542173 0.050561182 -0.5029206 0.31760994 0.0054942393 0.25471076 -0.5023785 -0.15304697 0.021504847 -0.51796937 0.18533735 -0.4865374 0.22910602 -0.039521325 -0.31057814 0.16021365 0.09811889 -0.029295746 -0.1452153 0.5427884 -0.05250817 -0.6722875 -0.49971858 0.2526201 0.46341887 0.30555186 0.5731101 -0.18782389 -0.17133711 -0.08099516 0.37223387 0.06815486 -0.60189676 0.9939967 -0.6329587 0.31090418 0.68079937 -0.02642234 0.26831642 0.08445474 -0.030731168 -0.77193266 -0.4122154 0.56504285 -0.28845015 0.4646523 0.2473476 -0.49303612 0.5436347 0.40193605 -0.040698823 0.5013837 0.09951136 -0.34249234 0.29238558 0.54576427 0.16517839 0.23178586 0.25557023 -0.22574165 -0.12639551 -0.11825954 0.32950312 -0.6627796 -0.33702514 -0.4393079 0.12149686 -0.06985372 0.1875819 -0.14340866 0.09786869 0.14028975 0.5533607 0.43412223 0.3265226 -0.15275082 0.21203005 0.31502503 -0.112447426 0.15992421 0.7512227 0.6742951 -0.093407854 -0.54012203 -0.02494711 -0.047308266 0.14186892 0.26747337 -0.09090744 -0.33047134 0.43609002 -0.24559988 -0.09206034 0.45161358 0.47456872 -0.14704548 0.34253633 -0.25677022 0.3858192 0.2904171 0.2896689 -0.48229572 0.027445255 -0.42071262 -0.19093858 0.53575593 -0.46492612 -0.084258065 0.4635538 0.030357016 0.23823565
93 0.067800075 -0.1438314 0.1511965 -0.18497412 -0.15553735 -0.38522288 0.20793553 -0.40563422 0.12416451 0.5422648 -0.42078668 -0.29804236 -0.3931189 -0.038326763 0.373577 -0.6024609 -0.12549844 0.21350458 -0.38874856 -0.022570027 -0.11455833 0.14612742 0.3518641 0.1415866 0.30260518 -0.32948247 -0.47563118 -0.23149331 0.05567965 0.13094366 0.24342938 -0.01011268 0.49815384 0.1469239 0.24148236 -0.004422771 0.4052848 -0.07707439 -0.17622638 -0.1669868 -0.5508649 0.31057042 0.13156939 0.26959264 0.19286802 -0.039208774 0.16218124 -0.015833972 -0.117409594 -0.2164328 -0.49748418 -0.14506663 0.24862653 0.78981966 -0.3080087 -0.17204265 0.014905177 0.07041206 -0.10408802 -0.28135562 0.3056477 0.11239749 0.314549 -0.12805238 -0.14328016 0.6472777 -0.5118859 0.20826688 -0.2690217 -0.25662223 -0.50662774 -0.2713316 0.32940996 -0.38460937 -0.1465594 0.27657393 -0.48039418 -0.3436505 0.21651366 0.15757109 -0.21495345 0.15649809 -0.2817686 0.2499977 -0.28113893 0.2860699 0.3455944 -0.610257 0.35237136 -0.41291296 0.54686713 -0.11686417 0.33184484 0.3793536 -0.56635416 0.44173273 0.1987562 0.29949597 0.1776005 -0.23459013 -0.46536133 -0.03471089 -0.22966027 -0.1696191 -0.1589483 0.11050032 0.19759043 0.3427743 -0.22420853 0.14633012 -0.31515548 -0.07366356 -0.6676273 0.045490082 -0.1798916 0.59406376 -0.20097022 0.099727295 0.16096057 -0.5136211 -0.3278664 0.3158836 0.07518428 -0.66104186 -0.18500806 0.5020523 0.2531215 -0.13372198
331 0.064608715 -0.033217926 -0.24783394 -0.27117082 -0.16856089 -0.25009337 -0.1614542 -0.026727902 -0.1589412 -0.18154547 0.14551401 -0.2252513 -0.077969894 -0.28086936 0.15790239 -0.29450643 -0.24371827 0.35187212 -0.34220845 0.11723317 -0.09166234 0.08266782 -0.017854948 0.29697016 -0.37900117 0.14538273 -0.15443973 -0.18398693 -0.16433966 0.20324044 0.35472474 0.073993765 0.21805197 0.16011938 0.052158054 0.27658316 0.015167863 0.082918584 -0.24897416 -0.09256831 0.21323058 0.35921413 -0.110180445 -0.47610554 -0.12007805 0.5931057 -0.3855763 0.62612134 -0.3799886 -0.38738015 0.10316039 -0.21663196 0.41064104 0.2387171 -0.14808385 -0.03398739 0.19506386 -0.8322173 -0.0061001508 0.6564074 -0.72183573 -0.60407734 0.37994552 0.036272172 -0.073193826 0.63880575 -0.013576778 0.059946302 -0.55398905 -0.16084963 -0.3735352 -0.08467554 0.48575318 -0.33023766 0.040840406 0.038197 -0.31824273 -0.3589847 -0.28034762 -0.38159448 -0.16882756 -0.039498918 0.05917068 -0.6167968 0.28397417 -0.2526035 -0.085786015 -0.31946024 0.32806993 0.32302254 0.4231556 -0.30748692 0.032144133 0.32683894 0.0894223 -0.3346302 0.45958963 -0.10815501 0.44738466 0.08314176 -0.018037552 -0.002443985 0.023594921 -0.05904515 0.08839641 0.010042487 0.20586531 0.63651824 0.024085121 0.41314027 0.5103349 0.1255595 -0.23922767 0.08906518 0.17778108 0.2977192 -0.58029914 -0.06404521 -0.07077745 0.09791344 -0.4064738 -0.15931413 -0.10155433 0.28351116 0.09137443 0.5407522 -0.75578356 0.4159986
83 -0.036697403 -0.31789663 -0.025732195 -0.43263513 0.15582964 -0.0080553815 -0.19422804 -0.5121786 0.123268634 0.14910279 0.06029223 0.24398012 -0.42463517 -0.13570604 0.032054964 -0.4812107 -0.1424434 -0.09719662 -0.093338385 -0.4485205 -0.20781998 -0.5460439 -0.43872383 -0.13569532 0.20787378 0.18032467 0.10549814 -0.5980089 -0.086438484 -0.040192686 -0.24461222 0.34774393 -0.06867138 0.027736278 0.27430212 -0.1820163 -0.389738 -0.494009 -0.4943894 -0.077300146 0.13397549 0.4325863 -0.24259523 0.04141372 0.09465104 0.24687654 0.04352429 0.12086853 -0.043655396 -0.15641035 -0.11622644 -0.06875632 -0.26241013 0.06280248 -0.084926814 -0.22175059 -0.0030843895 0.77091974 -0.7766918 0.568284 0.1894099 -0.0502057 -0.023585696 -0.12981728 -0.55963355 -0.07913662 0.10578323 -0.0042725042 -0.2800326 0.31708848 0.056842156 0.7867092 0.56968105 -0.12285988 0.5043396 0.025969785 0.3907047 -0.47608504 -0.12069994 0.27358627 -0.26193106 -0.57818264 0.58447236 -0.08920064 -0.110776566 -0.0124195805 0.22820494 -0.40768212 -0.12183147 0.23053083 0.22244391 0.16832042 -0.17906317 -0.122481525 -0.1611245 0.4839484 -0.004483759 0.32278728 0.29879013 -0.429538 -0.7867423 0.24673142 0.02377167 -0.31399956 -0.30516487 0.36514586 0.17553504 0.6080556 -0.16669399 0.10211677 -0.046259876 0.48064193 -0.2800898 -0.06967905 0.12885268 -0.0595634 -0.31833234 -0.5377505 0.100089766 -0.17534637 0.16071787 -0.41208506 -0.09208456 -0.22876498 0.077678785 0.05954893 -0.12698372 -0.1229163
101 0.27728835 -0.28310052 0.13602562 -0.286056 0.051749546 -0.11092515 0.18986012 -0.247728 0.13590844 -0.016868193 0.27234054 0.33658308 0.13948715 -0.05235991 0.06695459 -0.12891264 0.027007213 0.65293235 -0.18812424 -0.06856766 0.00223188 0.06296583 -0.4437632 0.35132098 0.5290132 0.15714483 -0.37491673 -0.8281474 -0.012745571 0.07471389 -0.36682627 0.17051943 -0.21728286 0.059099432 0.4219993 0.031022644 0.32721862 0.16521394 -0.28168666 0.0729956 -0.53404963 0.42981228 0.18121131 0.28090885 0.110907204 0.15387663 -0.22608523 0.045657054 -0.50962335 -0.5189576 0.4895704 0.2598285 0.2817659 -0.13591813 0.12355903 0.2877098 -0.111273944 -0.10266187 -0.65781116 -0.5739442 0.30157033 -0.149708 0.24210563 0.12729321 -0.08386321 -0.04302234 -0.24190144 -0.12199893 0.109243624 -0.26957694 0.18357018 -0.5438255 0.4447615 0.065025106 0.26026326 0.15702257 -0.11698817 -0.4206644 -0.32058936 -0.06709865 -0.35981756 -0.5744664 -0.39109808 -0.14805883 -0.6196879 0.11242796 -0.01842944 -0.21293041 0.28493416 0.29298592 0.8228919 0.29321823 -0.009639727 0.13234758 -0.12775387 -0.09011171 0.02103683 -0.035211775 0.07100207 0.029700007 -0.5947063 -0.16436243 0.097272046 -0.3745013 0.0338157 -0.40938473 0.08377477 0.20851849 0.532815 -0.34535122 -0.15336962 -0.039007537 -0.11679945 0.3435186 -0.12039999 0.20389454 -0.6754786 0.118472256 0.17882179 -0.24652913 -0.043630585 0.00092289754 -0.36543414 -0.41206878 -0.48679125 -0.53829986 -0.21318832 0.0301136
155 0.31617644 -0.36972588 0.11906374 -0.23230565 -0.19045936 -0.31480944 0.34058076 -0.37941372 0.10800217 0.23950976 -0.3295126 -0.20121706 -0.365637 -0.005496091 0.5209514 -0.4329843 -0.015064751 0.23923132 -0.40992746 0.029513223 0.03156785 0.08171696 0.3550974 0.22874802 0.3801139 -0.35708207 -0.632136 -0.214339 0.016181268 0.18476951 0.17792623 0.050822474 0.5138712 0.14809503 0.16715223 0.0024784955 0.4276705 -0.10617804 -0.1554466 -0.058475677 -0.43363744 0.3705343 0.17189203 0.26316682 0.16494375 -0.051228598 0.06520474 -0.05518407 -0.20586233 -0.1806254 -0.56091374 -0.11802631 0.31342092 0.74177873 -0.29742575 -0.15869097 -0.032890063 0.022811886 -0.032839898 -0.27918914 0.2802191 0.09403191 0.18911076 -0.15223634 -0.13802604 0.47589186 -0.5994441 0.3306218 -0.16267273 -0.10686003 -0.520658 -0.2661971 0.25138536 -0.29982996 -0.1587743 0.24165359 -0.4543283 -0.2076979 0.34290347 0.08528803 -0.22063814 0.1646566 -0.20003809 0.27786598 -0.30911988 0.30779776 0.3760046 -0.6865669 0.3966163 -0.40822977 0.58417016 0.03822388 0.21587463 0.30811018 -0.5524808 0.43266588 0.2911646 0.33802795 0.14054108 -0.23217604 -0.59695816 -0.09854667 -0.15879914 -0.23476835 -0.04016293 -0.05817188 0.2673449 0.31700173 -0.33480224 0.11049523 -0.26713848 -0.08346827 -0.6280897 -0.048081223 -0.15294239 0.53171086 -0.32278162 0.095296666 0.16560708 -0.41792575 -0.28361925 0.42494553 0.06737722 -0.6892653 -0.17400116 0.50429237 0.17932545 -0.042722486
452 -0.31118387 -0.563071 -0.12098191 -1.0554833 -0.25274423 0.06782565 -0.48135036 0.05701551 -0.074759915 0.070129395 -0.54743356 0.21437581 -0.26624203 -0.33484825 0.397295 0.027314141 -0.010021696 0.28219262 0.06914113 -0.027735349 -0.33764383 -0.07751468 -0.21491595 -0.4556252 -0.37433743 -0.04309178 -0.23779814 -0.5454959 0.34039468 -0.026542952 0.038800385 0.116642706 0.22719646 0.16559364 0.6531502 -0.06645917 0.5411603 0.20359372 -0.357762 -0.2339529 -0.142364 0.7686698 0.46554485 0.08659652 0.09658139 -0.34497362 -0.10100264 0.18396135 -0.2488115 -0.69713825 0.19520462 0.025398415 0.013660966 0.15602896 -0.2906638 0.3880705 -0.7688883 0.2811771 -0.3926458 0.37176186 -0.09671952 0.011227811 0.050797895 -0.06055578 0.14588363 -0.3789774 0.7768397 -0.5074377 -0.14673465 -0.059337668 -0.076573014 -0.08879939 -0.75016534 -0.14488162 0.027034925 -0.059186656 0.06072166 -0.048056155 -0.40894344 -0.115034044 -0.23321538 0.088098176 -0.062280312 0.15133423 -0.6285251 0.39866868 -0.20763767 -0.37003395 -0.28474393 0.30054182 0.7478698 -0.30436426 0.003902411 0.1000086 0.6278525 -0.21463321 0.51815844 0.04002607 0.373725 0.1502816 -0.62512475 -0.36698136 -0.40736198 -0.34588942 -0.38388407 0.15042646 0.7209496 0.70073617 0.5429749 0.31082916 0.20003681 -0.1405347 0.4084527 -0.32009184 0.22616981 0.23937628 -0.029726356 0.11255671 0.059346292 -0.080944516 -0.03535819 0.28137746 -0.49937135 -0.38458663 0.27922156 0.36521354 -0.4760463 -0.05081265
371 0.1661563 -0.18637122 -0.18688025 -0.36704534 -0.0814436 -0.04570074 -0.25624898 0.06356997 -0.16646546 -0.34941685 0.07086131 -0.06967981 -0.18750218 -0.1685518 0.22485623 -0.28681144 -0.28755128 0.34837034 -0.3691871 0.04352152 -0.10636393 -0.007852046 0.07411816 0.18301728 -0.37686455 0.3204893 -0.13117231 -0.14978974 -0.14995998 0.26402324 0.3496518 0.13313214 0.21841995 0.22035685 0.055755664 0.38653177 0.19219887 -0.009920444 -0.22397421 -0.15087783 0.30315802 0.37509105 -0.06150603 -0.5171044 -0.2619328 0.39317736 -0.38367265 0.5345951 -0.3133945 -0.3095897 0.1423938 -0.24013215 0.51225877 0.2886668 -0.18159845 -0.14076483 0.090824544 -0.8065155 0.20527853 0.61533964 -0.5763636 -0.6646442 0.31170303 0.016678011 -0.0858169 0.60323656 -0.11149485 0.04523437 -0.5425693 -0.071171954 -0.3556187 -0.069903545 0.6262015 -0.3770594 -0.0070166592 0.14689726 -0.26790112 -0.37990823 -0.2499052 -0.32258898 -0.14771073 -0.07094208 0.099419445 -0.42797256 0.31192717 -0.23338503 -0.15653068 -0.35410967 0.2999829 0.3806215 0.25625768 -0.29871666 -0.12226581 0.14716001 0.15865132 -0.42159545 0.5787637 -0.12872612 0.39526564 -0.029841138 -0.103442185 0.17227837 0.04861939 -0.15456004 0.03286445 -0.044664565 0.22783092 0.56158274 -0.11338974 0.45226967 0.5406612 0.10233207 -0.21271235 0.044870336 0.2564807 0.49641186 -0.6241614 -0.064561285 -0.038718384 0.12960571 -0.46769458 -0.0885579 -0.10948906 0.23333389 0.09190189 0.48077112 -0.7795777 0.5299101
108 -0.12850592 0.2509979 -0.44949317 -0.619525 -0.19047564 -0.4268297 -0.10161529 0.07688264 -0.1865728 0.16097255 0.38126355 -0.15574561 -0.19503845 -0.38945603 0.17624313 -0.20773485 -0.11337033 0.44280243 -0.43442062 -0.09436951 0.0295155 0.21741547 -0.18422695 0.3212875 -0.47620034 0.31855723 -0.22338735 -0.49041593 -0.20879595 0.21707092 0.43601963 0.3026862 -0.053930525 -0.13335344 0.041336156 0.08200484 -0.053063214 -0.098211326 -0.17909034 -0.15787219 0.28237173 0.17951824 0.23630464 -0.6232398 -0.13850963 0.2578786 -0.3640385 0.59362185 -0.1679254 -0.20460682 -0.0055014156 -0.116367355 0.46732354 0.25085437 -0.14144583 0.022473877 0.18389368 -0.63882 0.07338483 0.48748255 -0.68645805 -0.57332796 0.37723807 0.03911139 -0.014141458 0.58555996 0.06655232 -0.21025822 -0.3950651 -0.3052912 -0.220283 -0.09837177 0.5880747 -0.17027764 0.08724509 0.21463452 -0.17082231 -0.3210064 -0.24632867 -0.17470637 0.0016030272 -0.18498169 0.12980141 -0.34132838 0.38014683 -0.24961716 -0.120172516 -0.1683934 0.109924294 0.28593972 0.16717768 -0.36792505 -0.186677 0.118793905 0.031404406 -0.27418607 0.27702832 0.012596359 0.3811031 0.047505535 0.09359451 0.11614315 -0.050078053 -0.23219657 -0.09299356 -0.011321668 0.19627902 0.6389906 -0.1798837 0.305846 0.53282046 0.2073052 -0.17607072 0.1901663 0.43829927 0.29697064 -0.6978739 -0.19961718 -0.06262936 0.37467033 -0.28519556 0.16600695 -0.036242172 0.3444567 0.03654046 0.5702249 -0.5665826 0.27920115
176 0.4031901 -0.31273058 -0.71800095 -0.25337103 0.13371806 -0.17660876 -0.019733345 -0.18215494 0.22477227 -0.2723982 -0.13836236 0.4087151 -0.16706604 0.08745082 0.036463246 -0.41837108 -0.01207387 0.3735902 0.1614575 -0.4532351 -0.3490948 0.20785782 -0.13229018 -0.54701585 0.1399317 -0.090594985 -0.48848712 -0.7730993 0.45135137 -0.24059643 0.38998407 0.21133995 -0.015790071 -0.33507997 -0.3415136 0.08725808 -0.042503607 0.09733565 0.026111057 0.41045883 -0.26523733 0.5391458 0.07068145 -0.02082301 -0.13228722 0.57719195 -0.025062935 -0.29485765 0.25107998 -0.34827125 -0.081427485 -0.22259226 0.21175191 -0.075424306 0.114285104 -0.113218464 0.050835013 -0.30618447 -0.46473458 -0.06549767 0.28091517 -0.48506188 0.0762251 -0.12011215 0.112321146 -0.14667533 -0.36283195 -0.14469667 0.16167451 -0.087782115 -0.23837133 -0.15689877 0.020025618 -0.24921346 0.34345517 -0.18856873 0.0082152495 -0.20378578 -0.31623358 -0.1855087 0.08018684 -0.16087845 -0.053998917 0.0047781337 0.1917996 0.038376156 0.45466477 -0.19084601 -0.2007829 0.2041167 -0.37331516 -0.69536704 0.12138105 0.22816522 -0.18699752 0.22914056 0.2826567 -0.24125491 0.11809638 -0.0139918635 -0.64619976 -0.30159155 -0.23727334 0.3654897 -0.3968596 0.018042918 0.23528296 -0.19775115 0.26605895 0.41915727 0.11229009 0.23184593 -0.16135114 -0.113910384 -0.19984028 -0.15128537 -0.012256611 0.1915812 -0.03148412 0.029363418 0.20702209 0.20141827 -0.1339018 -0.1207734 0.13620858 0.8091882 -0.2271663 -0.21867082
50 0.7427064 -0.23782885 -0.6623489 -0.04136536 0.34708065 -0.23132782 -0.04741286 -0.029069174 0.16272648 -0.32916135 -0.6083697 0.113227054 0.07317294 0.013127873 -0.18011038 -0.3003096 0.24060015 0.12766472 -0.017186554 -0.51662415 -0.20737068 0.41349623 -0.22071889 -0.17013603 -0.12166654 0.019790383 -0.117503725 -1.0131981 0.89670175 -0.06320383 0.3901717 0.1615694 -0.17400838 -0.44823807 -0.4144826 0.1680487 0.039924707 -0.15720701 0.31967413 0.6872587 0.13120641 0.69709724 -0.1108812 -0.077958815 -0.23860969 0.3024767 -0.11988161 -0.49599525 0.21255283 -0.14463657 -0.2790107 -0.09672792 0.25345865 0.1295118 -0.086730935 -0.00093838316 0.18170016 0.15336438 0.08224542 0.45120415 -0.046355885 -0.26075897 0.08619045 -0.23557799 -0.45505032 -0.14456749 0.15532719 -0.26232612 0.2389237 0.034213636 -0.32511434 0.021754676 0.13690782 0.26568535 0.3936213 -0.12449795 -0.12614706 -0.20214453 -0.25981486 -0.46115237 0.26865035 -0.15089187 -0.3449486 0.10733867 -0.044551738 0.32593277 0.2155456 0.062231686 -0.21001011 0.23479816 -0.28985146 -0.59093386 -0.08729142 0.10255455 -0.17203882 0.14721593 0.43735546 -0.09422045 0.18158053 -0.13146561 -0.74240994 -0.2609899 0.098065846 0.44808757 -0.40695968 -0.32546276 -0.044675298 -0.23000547 0.16522978 0.27181047 -0.04666059 0.03915401 -0.43595117 -0.18278642 -0.27973524 0.28009245 -0.11393585 0.005851987 0.15714684 0.20153664 -0.042678036 0.16740836 -0.30924907 -0.17490716 -0.2375551 0.56160647 -0.18225092 -0.012070635
210 0.10041916 -0.06698815 -0.22162688 -0.4300707 0.002003891 -0.21526569 -0.15811661 0.063808456 -0.22069025 -0.15197958 0.13713934 -0.14553235 -0.11357735 -0.37910792 0.13565694 -0.15923993 -0.22181144 0.30311573 -0.29349276 0.12848626 -0.11047996 0.04761968 -0.06157926 0.32525364 -0.26628926 0.37230587 -0.040394466 -0.24135582 -0.081411876 0.25631225 0.34811515 0.24848086 0.17167811 0.13167734 -0.012145687 0.28213456 0.0061430526 -0.002769833 -0.08235246 -0.14175172 0.2901296 0.40026626 0.0420017 -0.503877 -0.24653195 0.496047 -0.36112332 0.6043976 -0.34946334 -0.20808172 0.05419682 -0.22435135 0.44833454 0.2904758 -0.17180426 -0.14744951 0.19277309 -0.83088094 0.17874953 0.532553 -0.6584951 -0.5989564 0.28172702 0.08552246 -0.018044207 0.6678592 -0.015995191 0.046712 -0.41239798 -0.08187391 -0.3457303 -0.10884766 0.6303716 -0.2485621 -0.07357764 0.113317594 -0.35415423 -0.28738326 -0.25418136 -0.39852622 -0.031137317 -0.072636515 0.0015519223 -0.38966498 0.2800089 -0.18781056 -0.15242039 -0.3988368 0.3681096 0.33258045 0.27994725 -0.34066916 -0.19238305 0.1271333 0.060700305 -0.3875279 0.44772372 -0.064800635 0.47093317 -0.017737 -0.032873403 0.18839133 -0.1368881 -0.1505738 0.011664336 -0.093072 0.2924364 0.5923785 -0.06941299 0.47483206 0.4665667 0.1590457 -0.26709878 0.09079721 0.23489183 0.4559286 -0.70734835 -0.15348923 -0.048910152 0.1512512 -0.44309983 -0.003634491 -0.11819424 0.24058545 0.14117293 0.5061041 -0.7016404 0.47894418
302 0.15784502 -0.7361842 -0.7860015 -0.70077246 -0.3270002 -0.15624313 -0.3887476 -0.16609493 0.4352535 -0.12957364 -0.5432468 0.12604284 -0.5006611 -0.10533425 0.30681163 -0.5349523 0.06781585 -0.0010363254 0.45329815 -0.13703042 0.3953102 0.27686498 -0.5146919 0.29862925 -0.41490832 0.44241896 -0.11401868 -0.13276981 0.11949964 -0.114029296 -0.23940165 0.10994698 0.024314713 -0.18710533 0.082058325 -0.06893638 0.5148804 -0.083028756 0.2523633 -0.40761402 0.27841678 0.35866475 0.26632687 0.2012685 0.15151092 -0.5264858 0.4363024 0.23725049 -0.109047316 0.18710965 0.37137997 -0.15892291 0.58858144 0.18637529 0.432669 -0.15949313 0.12615533 -0.017878065 -0.7566129 0.2984924 0.08664026 -0.043957613 0.075055815 0.10412402 -0.33448994 0.27950978 -0.34252813 -0.21108207 -0.3519429 -0.01989886 0.24508747 0.68833905 0.028212344 -0.29672974 -0.017637305 -0.23153065 0.26952234 0.029077018 -0.2768493 0.1488936 -0.40207678 -0.20701157 0.42132306 -0.33739868 -0.40096557 0.19226119 0.35797966 -0.0028067785 -0.017794942 0.2410426 0.12034087 -0.055304315 0.35979885 0.1091093 -0.101894766 -0.031453986 0.3566244 -0.17138225 0.22282946 -0.076788895 0.43486428 -1.0063474 0.19613187 -0.3241391 0.14877817 -0.07277354 0.07104197 0.2915328 -0.3734467 0.1284938 -0.074422956 -0.081320174 -0.38036376 -0.4009381 -0.4334698 -0.383814 -0.51095706 -0.4906388 0.43977347 0.040556163 0.18469843 0.0044302284 0.052609514 0.23462695 -0.17574012 0.046039376 -0.3979856 0.20659369
393 0.22171429 -0.09290436 -0.106283255 -0.48727784 -0.48618132 -0.2903342 0.07305755 -0.84064704 0.39027625 -0.67542744 -0.2112023 -0.027900737 -0.08784186 -0.4349412 -0.04589716 -0.2559599 -0.03571687 0.9504298 -0.06349777 -0.15384214 -0.03331286 -0.03824323 0.09737782 -0.5377644 0.01742873 0.05749681 -0.009080061 -0.31172323 0.23505782 0.33151644 0.029553065 0.02721501 0.47347367 0.17639983 0.32014477 -0.12130682 -0.5270313 -0.16892579 0.18677653 -0.38451013 0.27658895 0.30194536 0.42193833 0.5349819 0.052556314 0.14884076 -0.011546706 0.01738706 -0.29065067 -0.59764856 0.3161221 -0.18029101 0.22905044 -0.19316177 -0.07804983 -0.17459138 0.17441785 -0.23982652 -0.27679032 0.006354745 -0.11549501 0.3746904 0.6491686 -0.6171104 -0.1318916 -0.01452319 0.16524683 0.12818985 -0.16354237 0.79206556 -0.23983291 0.024531033 0.37884793 0.24749966 -0.14142364 -0.18191391 -0.9768177 -0.20609352 -0.4825641 -0.010739262 -0.2667277 -0.71368414 0.16566359 -0.3285275 -0.2874762 0.37080812 -0.50888073 0.012852211 -0.09937052 0.19002399 -0.033254057 0.30745 -0.16173345 -0.05916689 0.12608862 0.06255418 0.4171539 1.0290793 0.38103884 0.1618507 -0.31881574 0.0015143052 0.24058895 -0.18735582 0.3100185 -0.41143796 -0.2533543 0.361016 0.30130798 -0.007085203 0.32333523 0.35553998 -0.40266725 -0.5060672 0.09409583 -0.080533445 -0.25221524 0.2840192 0.12443969 -0.13429345 0.044684332 0.32149443 -0.27597913 -0.035450865 -0.20078251 0.5271032 0.16495465 -0.10309528
372 0.19244966 -0.27462313 -0.48626176 -0.5551043 -0.20494887 -0.16184683 0.35875803 -0.12723733 0.3720312 0.5005771 0.41633648 0.56894237 -0.46919084 0.24429828 0.09562661 0.16701962 0.33273405 -0.54804206 -0.12844059 -0.38741532 0.062221523 0.12462499 0.2176204 -0.34879482 -0.10010632 -0.04986208 -0.49966606 0.09112001 -0.3829562 0.2577371 -0.03342913 -0.081671186 0.08099236 0.046267238 -0.06740656 -0.0623101 0.47344398 -0.119539075 -0.44956076 -0.43053657 0.29811 0.4487409 0.30405012 0.5485231 -0.15758927 -0.14752784 0.012430477 0.46953213 0.15228738 -0.5728826 0.8320111 -0.52486444 0.31902072 0.6808019 -0.0955176 0.34876668 0.09837112 -0.06035704 -0.53859776 -0.37979028 0.3872089 -0.11606912 0.248993 0.35709298 -0.5944292 0.5668277 0.52644455 0.011364849 0.6113051 0.2765082 -0.30105954 0.16948485 0.6969497 0.1213273 0.07687753 0.26225913 -0.26224917 -0.048873257 -0.06540939 0.38263324 -0.448673 -0.17482902 -0.51490045 0.114074744 0.015095759 0.28344038 -0.15760006 -0.0632071 0.12992617 0.486984 0.4953052 0.3709488 -0.07629659 0.20318048 0.3753658 -0.09081604 0.21835673 0.8171599 0.7748108 -0.008469839 -0.5045312 -0.06644225 -0.061818667 0.21396488 0.34994972 -0.16480355 -0.16769989 0.4211333 -0.39506808 -0.20749044 0.26909 0.44740674 -0.1102219 0.40109223 -0.27221516 0.34287626 0.20437847 0.28469887 -0.48859638 -0.03434675 -0.42939693 -0.18674698 0.7724925 -0.3052772 -0.1916286 0.5354388 0.054978024 0.23509341
347 0.048204035 -0.43204784 -0.30290902 -0.3762998 0.08974349 -0.061739635 0.009080307 0.14602834 -0.7378988 0.01262398 -0.34434402 0.39858317 -0.47159815 -0.29654893 0.37066415 -0.12366279 -0.059672713 0.42178097 -0.26181895 -0.3122271 0.7387892 -0.1939005 -0.36436927 0.23047692 -0.11829641 0.2784447 -0.3694176 -0.11000023 0.20842601 0.121339224 0.35777023 -0.21581021 0.05911164 0.027116897 -0.23966843 0.35460615 0.31842947 0.058909096 0.6336206 0.14642158 0.33197287 0.32793674 0.07135986 -0.26263517 -0.51695806 -0.11877503 0.0072630397 -0.1670372 -0.2354087 -0.34677187 0.39114222 -0.3436494 0.19047488 0.34573925 -0.3169633 -0.013485816 0.20765474 -0.036012497 -0.34021366 -0.05398721 -0.44951433 -0.4659628 0.16108935 -0.01668588 -0.5044314 0.24172673 0.25456208 -0.15254755 -0.49667093 -0.1996827 0.201203 0.22000068 0.038473595 -0.42866883 -0.12450449 0.2681863 0.12764503 -0.06195427 -0.096402355 0.15541464 0.24623251 -0.32932398 0.42805347 -0.16649093 -0.23959343 0.48901623 -0.21530326 -0.44332045 -0.42875075 0.104789 0.3089273 0.43475452 0.2526719 -0.48059902 -0.15866195 0.062212992 0.3803507 0.12190836 0.32490048 0.006065721 0.1696339 -0.10611315 -0.018082157 -0.23117742 -0.012059677 0.36273333 0.17805997 -0.10397143 -0.3929149 0.030247174 0.032406285 0.12563768 -0.4712282 0.35576674 0.09258717 -0.31460673 -0.0027858655 -0.17140733 0.07605461 -0.6025689 -0.08379987 -0.13105069 0.2900021 0.28609943 -0.17436914 0.05927347 -0.14966135 0.2475559
485 0.45094663 0.22200397 -0.12834437 0.16935967 0.0018943908 -0.25200137 0.7209491 0.041813128 -0.3234054 -0.015303491 0.38091373 0.23886484 -0.35055605 -0.29741064 0.16995396 -0.22501668 -0.14205791 0.31782693 -0.287743 -0.37515095 0.5539508 0.27291304 -0.1460098 0.04640277 -0.18680868 0.34769922 0.24447747 -0.3421475 0.3052538 0.024625866 0.587828 0.26740322 0.23617393 0.12641022 0.38537422 0.115507 0.38197485 -0.0959591 0.26360643 -0.12848808 -0.07711893 0.18038012 0.3687127 0.36849082 -0.16264488 -0.15715589 0.17803006 0.13837479 -0.18833958 0.09921908 0.26978913 -0.28821152 -0.045765307 0.43570128 -0.20857476 0.11245728 0.513499 -0.07338389 0.06636643 -0.11603867 0.19041167 -0.3300142 0.074188 0.048310738 -0.033230357 -0.148143 0.28351068 -0.3918895 -0.21117176 -0.09097335 0.11911593 0.43990606 0.3269552 -0.10272065 0.32705855 -0.013756891 -0.23548251 -0.5109209 -0.19610865 0.09321117 0.11044242 -0.3431068 0.14285052 -0.45862538 -0.45307994 0.3938068 0.5147748 -0.25912654 -0.07052746 0.46018875 -0.14588931 0.58871603 -0.014583265 0.27216497 -0.37552336 -0.030345555 0.13696514 0.08902404 -0.283641 0.6665581 -0.08231658 0.161106 -0.43991747 -0.7634985 -0.2891661 -0.22965561 0.1170062 0.09423901 -0.620374 0.2690265 0.17392248 0.06763873 -0.11785544 0.10062314 -0.13537794 0.35499644 -0.3649005 -0.35157287 0.109887585 -0.11217002 0.04667357 0.16135311 0.058315724 0.30842426 0.1364102 -0.110676326 0.14181389 0.26922774
410 -0.056610532 -0.59683913 -0.12697165 -0.4038514 -0.16275735 0.67258835 -0.114041924 0.107024826 0.3184688 0.35478503 -0.12761916 0.09080326 -0.8674104 -0.06784667 -0.40942335 -0.51002365 -0.17850795 -0.16859053 0.18303291 0.34599003 -0.28682858 0.32940957 0.10532248 0.25427684 -0.25708875 -0.38134396 0.18021841 0.2596183 0.24100062 0.14723544 -0.6696129 0.17194715 0.10294174 -0.02132489 -0.14161095 -0.09110955 0.48067424 -0.076344766 0.113840714 -0.36413044 -0.2215484 0.1063491 0.460571 -0.21177071 -0.017243337 0.60494554 -0.31442258 0.35218024 -0.22580853 -0.08201585 0.02069138 0.05585475 -0.032672875 0.33795592 0.046099864 0.39220658 0.37800115 -0.1164216 -0.7108142 -0.49817973 0.051970992 -0.17694189 0.5351653 0.22143003 -0.26053986 -0.023737669 0.6284547 0.17369351 -0.13174474 -0.29694635 -0.305804 0.10807979 0.077315934 0.16682906 0.066943854 0.29558563 -0.41312745 0.47985467 -0.18316868 -0.08363437 0.22763777 -0.38861406 -0.2304913 -0.3785707 -0.6071507 0.3389003 -0.23046727 -0.31274718 -0.4628877 0.39633763 0.15580732 0.023352928 0.2640065 -0.20772006 0.44697148 0.2501778 0.43541548 0.17624624 0.33423963 0.03231852 -0.65181214 0.49610507 -0.0147592835 -0.24364406 -0.4099101 -0.4632993 0.31787863 -0.2552873 -0.46148163 0.09438088 0.12662737 0.1260549 -0.069087274 0.2792859 -0.17960857 0.5608255 -0.25865015 1.0193526 -0.3344069 0.3079489 0.0011758937 0.63155335 -0.35029158 0.33750987 0.23348661 0.32749957 -0.32216874 0.31181702
368 0.2646783 0.0057476712 -0.5531984 -0.5060253 -0.1804352 -0.31686503 0.6799544 -0.16543029 0.3082513 0.7497229 0.43567884 0.622429 -0.49024674 0.20977755 0.07782646 0.06766526 0.20871355 -0.25596887 -0.15847877 -0.4577682 0.11444514 0.08890752 0.08027013 -0.22964884 -0.15632324 0.082918115 -0.6103685 -0.009598117 -0.39982024 0.18257001 0.13499245 -0.11148415 -0.015640488 0.07328352 -0.20120475 -0.23698528 0.4432376 0.08524259 -0.60528654 -0.20099062 0.2572955 0.25626296 0.043180995 0.46172705 -0.15383396 -0.2261424 -0.02855209 0.5033382 0.1910556 -0.53848517 0.91127896 -0.37091586 0.17350267 0.7873361 0.008730343 0.5472069 0.11361021 -0.05209087 -0.5302918 -0.294723 0.38287088 -0.015188833 0.3598693 0.4767799 -0.61948925 0.71510077 0.560605 -0.21017495 0.6130165 0.124232456 -0.4030692 0.1218003 0.52528787 0.18257175 0.0466983 0.2742068 -0.20081502 -0.14859754 -0.020084016 0.45010328 -0.46526113 -0.19519079 -0.46087885 0.0060650036 -0.18255015 0.33011013 -0.13481815 0.18742727 0.06418098 0.37812185 0.49675533 0.40493533 -0.04852916 0.32967055 0.37517297 -0.12323928 0.1891144 1.0003068 0.86795 -0.0697621 -0.45892224 -0.07403347 -0.1763432 0.18739192 0.4460079 -0.07831747 -0.2127638 0.34817183 -0.2463528 -0.16127421 0.23860067 0.5508083 -0.31938276 0.20319705 -0.33484897 0.15038738 0.22182971 0.28416064 -0.46011648 -0.037586816 -0.49810484 -0.09395691 0.72320044 -0.2521428 -0.13461803 0.5643828 0.055008583 0.35764125
57 -0.03956681 -0.44818085 -0.079607524 -0.4263674 0.11154851 -0.03968261 -0.16526707 -0.27126512 0.26254627 0.25903726 0.030961152 0.2741721 -0.3148263 -0.35551462 0.017058926 -0.39961022 -0.24383724 -0.101918936 -0.008415671 -0.23317163 -0.17896008 -0.5331609 -0.359309 -0.13740489 0.26566687 0.44383794 0.2613374 -0.42927933 -0.10273153 -0.061611116 -0.36919677 0.24551974 0.03298268 0.04685571 0.33064213 -0.083559014 -0.36691454 -0.49754998 -0.5351125 -0.09028741 0.1885138 0.43225083 -0.27578723 0.17633924 0.08416872 0.31516013 -0.01806997 0.018316904 -0.08071023 -0.15396912 -0.17177972 -0.016061675 -0.2472097 0.036091983 -0.14755253 -0.27863687 0.08324659 0.57489276 -0.57227623 0.44541764 0.14525665 -0.044123005 0.1383723 0.06451666 -0.49199107 -0.09085742 0.07721603 -0.0004999573 -0.2624602 0.3776076 0.14285105 0.78809553 0.52367115 -0.003126693 0.6228162 -0.18365796 0.49576697 -0.49102536 -0.18354163 0.22794452 -0.239482 -0.46246177 0.6485667 -0.24108246 -0.2082292 0.074101925 0.328015 -0.38101602 -0.050489966 0.24112344 0.22931583 0.19718695 -0.11873141 -0.19276437 -0.43750572 0.38698497 0.004661061 0.29128847 0.38082904 -0.35456696 -0.9426524 0.2605613 0.031874646 -0.3014071 -0.28869838 0.51873654 0.22212054 0.49496403 -0.11679225 0.17743224 0.057828 0.58351254 -0.4333996 0.037501745 -0.0028238958 -0.0977971 -0.295484 -0.6071108 0.1933341 -0.23956102 0.066817895 -0.3638903 -0.15411071 -0.37093374 0.16356102 -0.08694448 -0.03019868 -0.24041305
343 -0.04978644 -0.4873886 -0.21655954 -0.37368402 -0.026411505 -0.09887141 0.042521633 0.08776554 -0.5109443 0.20732592 -0.4137487 0.5270349 -0.5234069 -0.35806072 0.18096803 -0.10505073 -0.118453644 0.36807635 -0.12292857 -0.44094875 0.73599184 -0.25095204 -0.3096571 0.065127864 -0.36829555 0.44313216 -0.4569476 -0.109099574 0.25042793 0.18902853 0.26524293 -0.16818067 0.3122139 -0.044901554 -0.015567168 0.2083301 0.34120807 -0.09187405 0.5755512 0.12999271 0.31147417 0.2506971 0.39495376 -0.1297748 -0.49536496 0.026392477 -0.05557336 0.06715351 -0.37310532 -0.41439253 0.43786165 -0.31060326 0.15052277 0.397474 -0.2908349 0.0074825827 -0.02748433 0.013144817 -0.43922144 -0.054831836 -0.46011528 -0.4841849 0.20233348 -0.086057335 -0.42209864 0.17966132 0.20547125 -0.24261367 -0.6236879 -0.2841542 0.08434771 0.27923903 0.06890803 -0.59894454 0.050868392 0.1579238 0.21588571 -0.155168 -0.18459488 0.048971996 0.31779215 -0.2986379 0.10430183 -0.16972695 -0.057608016 0.51520395 -0.2217907 -0.41873473 -0.34166792 -0.013686774 0.27713078 0.3899495 0.43919185 -0.65765804 -0.40271053 -0.06624386 0.4756977 0.031149756 0.32171106 0.03234206 0.29460764 -0.11341889 -0.12607345 -0.1611846 0.02128236 0.6114814 0.33504525 -0.14419039 -0.4703559 -0.036609426 0.17662911 -0.034252953 -0.30301684 0.38766065 -0.07549101 -0.16013588 0.014477816 -0.20946945 0.13333687 -0.81005055 -0.11902164 -0.142222 0.17603053 0.19808502 0.03604795 -0.102266274 -0.14455266 0.12381206
449 -0.3861557 -0.620707 -0.18482603 -1.1667584 -0.3391658 -0.024375983 -0.54507893 0.084977604 -0.018042967 0.040703636 -0.48507753 0.1435968 -0.14497873 -0.3124599 0.32671738 -0.05051297 -0.022214115 0.22180024 0.16849975 0.1206114 -0.19386864 -0.0229815 -0.19493929 -0.4036372 -0.42444757 0.14821003 -0.17109838 -0.46884435 0.3783082 -0.087747574 -0.067961514 0.09556228 0.27790284 0.2572297 0.718401 -0.072431706 0.50913596 0.22583377 -0.5286731 -0.17694534 -0.114066556 0.7797094 0.46173552 0.06048434 0.028021991 -0.24072741 -0.20364761 0.23222096 -0.37113425 -0.661646 0.12505534 0.123521306 0.046416745 0.20959015 -0.30366012 0.43816113 -0.73833555 0.193902 -0.28878495 0.25329885 -0.08212008 -0.07936626 0.016198896 -0.10003077 0.19378407 -0.43352872 0.7893678 -0.5255878 -0.16485117 -0.040321883 -0.065735884 -0.013394382 -0.65212 -0.0730742 0.17436996 -0.15889244 0.08758271 -0.055419836 -0.4924057 -0.053693496 -0.1973146 0.12511958 -0.11011054 0.060881488 -0.6210407 0.49579698 -0.055661872 -0.42788762 -0.25465557 0.37028873 0.6973791 -0.30250326 -0.021019893 0.07661782 0.45708945 -0.22634915 0.4163475 0.015794253 0.36182782 0.12568483 -0.57458967 -0.36049405 -0.39180917 -0.29805565 -0.3758241 0.15161774 0.6620442 0.629956 0.6036848 0.36037856 0.27537417 -0.16579969 0.34253344 -0.37463346 0.14942281 0.1877657 -0.017135274 0.023215085 0.028664734 -0.021579722 -0.058786225 0.21163422 -0.47495702 -0.42354414 0.35116735 0.29035696 -0.42360038 -0.071663834
341 0.3456207 -0.18713024 0.34352684 -0.83562154 -0.043033145 -0.28713527 -0.5121162 -0.18123162 -0.033485204 0.4077391 -0.093260795 -0.09933268 -0.20281121 -0.27260605 -0.06458982 0.31831044 -0.09804691 0.21803814 0.031931646 -0.07079954 -0.11415716 -0.19008388 -0.47393668 0.030248344 0.14017978 0.042152103 0.5594795 -0.6663336 0.37866238 0.0015828796 -0.18294752 -0.17222068 -0.13371442 -0.4195789 -0.037552904 0.26522997 0.638942 0.22631957 -0.09680797 -0.36255184 0.4014212 0.4820749 0.08028086 0.17777483 -0.0051876074 -0.12931894 -0.31544477 -0.16670847 0.2898268 -0.36113065 0.22952878 -0.057959367 -0.3058719 -0.15633854 0.025903122 0.2812869 0.035179496 0.2042008 -0.62136805 -0.40183797 -0.47363976 -0.3427934 0.31142357 0.18616766 -0.082251266 0.28888664 -0.035430934 -0.4381809 -0.5235465 0.07267162 0.2899447 -0.12655637 0.3708354 -0.13871299 0.2854207 -0.38086292 -0.033561017 -0.012626266 -0.06025336 -0.08841042 -0.1507665 0.5889101 0.259596 0.11154523 -0.6608203 0.18816836 0.24564417 -0.20134172 -0.5680505 -0.020419223 0.3136172 0.10743243 -0.19160408 0.3035173 0.027092751 -0.2891339 -0.30499724 -0.28650552 0.41982764 -0.060862966 -0.51739955 -0.43807703 0.1590998 -0.12605654 -0.12104653 0.3738937 0.13625054 0.55680877 -0.19272977 0.2710013 0.22624174 0.1660048 0.24815248 -0.46744743 -0.059612382 0.27521616 -0.042720728 0.16305616 0.26489028 0.030410226 -0.5410274 -0.08373193 0.34859413 -0.10930754 -0.59897614 0.41695106 -0.014558878 0.26250947
171 0.062259544 0.0053285286 -0.45337844 -0.59872967 -0.31702733 -0.43390298 0.002667155 0.07383004 -0.24365345 0.053480368 0.2592937 -0.19178495 -0.111489855 -0.2767959 0.21451929 -0.24417847 -0.062921494 0.320252 -0.28235543 -0.1553274 0.11785573 0.17958091 -0.18573159 0.38142785 -0.47603425 0.28372288 -0.08839543 -0.28550103 -0.14659244 0.21061406 0.37023175 0.22986026 0.022967681 0.032410994 0.093512736 0.12425721 0.016407983 -0.13624372 -0.4397579 -0.09545512 0.2583918 0.12958674 0.20329279 -0.5594652 -0.1563147 0.36586416 -0.434716 0.53814936 -0.2778451 -0.1764289 -0.032321475 -0.1472027 0.5343132 0.18715578 -0.12770167 0.07430568 0.11998747 -0.6339472 0.20245185 0.49582204 -0.6660617 -0.6909818 0.51179594 0.061619416 -0.018633123 0.6070276 -0.042072017 -0.25866905 -0.37328807 -0.26347104 -0.2948524 -0.15834278 0.592857 -0.03875879 0.24319334 0.12524855 -0.15922204 -0.48642987 -0.31670618 -0.2980568 -0.10543892 -0.069657914 0.1457979 -0.36330986 0.38190034 -0.2925966 -0.010215625 -0.006743562 0.1162756 0.17225868 0.1381218 -0.30781627 -0.065339185 0.047238156 0.016750503 -0.33866876 0.34596112 -0.090816416 0.2722072 0.14149743 -0.031276837 0.060604293 0.065470815 -0.32259607 -0.115420304 0.043360963 0.15073867 0.6598315 -0.090388596 0.46942273 0.6202649 0.20212953 -0.21891272 0.13636482 0.3789717 0.34826612 -0.6822829 -0.22397049 -0.17455828 0.36266175 -0.36641803 0.1906442 -0.1069504 0.25341326 0.2031698 0.5148263 -0.58657116 0.2993932
236 0.14884773 -0.30713823 0.13894662 -0.26027316 -0.21863855 -0.3555188 0.137746 -0.33508638 0.18589774 0.35412174 -0.41980323 -0.31352842 -0.27150625 -0.122233786 0.41126534 -0.54872787 -0.16253205 0.2186697 -0.50908196 0.118425645 -0.011509464 0.3058831 0.40416056 0.13404475 0.38469416 -0.23982005 -0.47040612 -0.12510699 -0.016888997 0.102370284 0.20944864 -0.077532046 0.42544308 0.22202027 0.15577571 0.04990325 0.37434506 -0.15241815 -0.25620624 -0.15973485 -0.50633097 0.27882928 0.03178249 0.17626123 0.012064582 0.0070072366 0.036309402 -0.10589162 -0.041918505 -0.047426425 -0.47650865 -0.12582418 0.23837905 0.8143658 -0.33422068 -0.22157474 -0.025682664 0.0003802663 -0.033325505 -0.40224832 0.3482211 -0.037808646 0.25672534 -0.10393191 -0.113099374 0.58899534 -0.40603524 0.19486481 -0.2992342 -0.1334993 -0.4799592 -0.18379813 0.32835194 -0.3218718 -0.10999893 0.17212477 -0.4597175 -0.27579337 0.23199882 0.107603624 -0.2305317 0.20727818 -0.32650575 0.2332411 -0.20619936 0.33890295 0.32759172 -0.6911176 0.43121332 -0.3481292 0.5224824 0.047714546 0.22457616 0.30279538 -0.6211388 0.40291455 0.24963588 0.3378496 0.16872671 -0.19155088 -0.5552945 0.010779153 -0.20413646 -0.14656973 -0.0886052 0.089214936 0.19455239 0.410526 -0.29240474 0.08338773 -0.2653438 -0.124252036 -0.6960539 0.04817359 -0.25105783 0.6176967 -0.2539901 0.107768886 0.1847579 -0.4823935 -0.35496762 0.3691803 -0.007819245 -0.6428431 -0.085903734 0.5484683 0.2768475 -0.117089756
190 0.14159329 -0.060828645 0.11666399 -0.53888875 0.015136035 -0.02408125 0.00035679163 -0.13260916 0.13046527 0.084141366 0.38097954 0.42795566 0.024187911 -0.29471877 0.07750161 -0.3130113 0.20516162 0.69020116 -0.2891622 -0.056964356 0.2625614 0.21778888 -0.26215172 0.43787166 0.5168776 0.31379262 -0.42950338 -0.6264909 -0.17252144 -0.1446667 -0.024443308 0.122602135 -0.31968588 0.16138767 0.39484966 0.18892694 0.36310276 0.025379322 -0.21200386 0.061709095 -0.58681804 0.5146273 -0.107707985 0.16754997 0.012571862 0.26450065 -0.20087 -0.12426387 -0.5663895 -0.6109667 0.281909 0.38954923 0.1307886 0.074700296 0.04785385 0.13376315 -0.21113081 -0.020160023 -0.6668533 -0.63124406 0.34743288 -0.1249968 0.35770047 0.073956124 0.09501932 -0.15972352 -0.08130489 0.11856005 0.17322761 -0.22883949 0.08324721 -0.4177915 0.7746822 0.14449674 0.36572757 0.11258434 -0.19299938 -0.0685297 -0.35866067 0.023984069 -0.14824288 -0.35740378 -0.6164916 -0.050900497 -0.57113427 0.36262453 -0.13324822 -0.25328687 0.24820103 0.40107617 0.7823414 0.2545694 -0.13338858 0.040700544 -0.118076295 -0.044640776 -0.061088867 -0.063654594 0.09953464 0.16834429 -0.5576233 -0.12198888 -0.06087472 -0.32895818 -0.09543911 -0.52201974 0.26486167 0.07270735 0.52533937 -0.30840078 -0.22830135 -0.03730327 -0.06958087 0.08018878 -0.061484765 0.14146487 -0.7198725 0.13898392 0.005586835 -0.36961126 0.0639194 -0.114695735 -0.48143718 -0.4431534 -0.540386 -0.29940158 -0.11754544 0.11993959
80 0.06865247 -0.76352304 -0.21731785 -0.55843496 -0.3633254 0.104658514 0.47499356 -0.3124239 0.53928465 -0.2732246 -0.09076293 0.042708218 -0.36901593 0.21030447 -0.004988772 -0.31917435 0.06303191 0.29874155 0.44030955 -0.081329964 -0.3899219 0.21003768 -0.02722699 -0.06043931 -0.487732 0.6346711 0.24717973 -0.4764045 0.16044831 0.6333439 -0.096186735 0.17982332 -0.18565589 0.11921067 0.04337395 -0.29541522 0.18580067 -0.020510275 0.01886136 -0.1805489 0.12056265 -0.5156094 0.6936479 0.08514079 0.029221525 0.5249682 -0.100664616 -0.276993 0.059482675 -0.2188754 -0.48887867 -0.106451735 -0.64508486 0.38113973 -0.28763795 -0.3152782 0.09849446 -0.30858323 -0.053456493 -0.15792136 -0.18509424 0.08336428 0.13886712 0.41975367 -0.24369258 -0.07899683 0.3602641 -0.038455207 -0.025270458 -0.04261258 0.11121758 0.17633653 0.19793987 -0.104048066 0.055290807 -0.25515273 -0.49273333 -0.6365427 -0.15323626 0.036816474 -0.023003368 -0.26547676 -0.30838916 -0.26793882 -0.14058922 0.024124706 0.27609125 -0.2978554 -0.024385158 -0.06265526 -0.19552526 0.02435216 0.273067 0.09366746 0.36673322 -0.19922385 0.4619982 -0.315446 0.271084 0.31451046 -0.5625659 0.054177668 0.08274706 -0.18534504 -0.1782719 -0.10524532 0.29699656 0.18991625 -0.5910754 -0.33070204 -0.22995389 -0.08990249 0.26835528 0.050484754 0.023367891 -0.30723548 -0.065255806 0.022574937 -0.039333075 -0.3817783 -0.22874613 -0.09621136 0.2453236 -0.52536595 -0.33004206 0.2173316 -0.276015 0.09243256
316 0.35716328 -0.32075894 0.21811259 -0.9901454 0.09259916 -0.488376 -0.40869373 -0.29535785 0.06417328 0.3161482 -0.08574435 0.007537647 -0.402068 -0.15915658 -0.21771637 0.085697114 -0.03190686 0.21634032 0.041565605 -0.11560322 -0.1255616 -0.15092254 -0.4246011 0.36625767 0.15918212 0.1309302 0.40121934 -0.6538428 0.5011206 0.008603794 -0.12483248 0.14308731 -0.24939828 -0.44070676 -0.0071543986 0.18667482 0.67774165 0.032897647 -0.33124948 -0.21874441 0.2230368 0.39258394 0.26378962 0.07299786 -0.18077639 -0.042511404 -0.19273084 -0.11354978 0.35947222 -0.28810185 0.2523145 0.13657275 -0.28275615 -0.03139421 0.018409641 0.57132345 -0.36340508 0.48444188 -0.4161247 -0.23640278 -0.4952671 -0.18194884 0.3516509 0.24318877 0.15047191 -0.0027314755 -0.23902492 -0.6520066 -0.30227774 0.026782753 0.08424792 -0.10151553 0.48381236 -0.34779915 0.14453648 -0.094986886 -0.26474112 -0.013670067 -0.001080445 -0.028462026 -0.05486031 0.50184023 0.4756904 -0.0015215212 -0.4504447 0.22200575 0.23293804 -0.29042715 -0.54322517 0.2013391 0.13806604 0.16370341 -0.22574542 0.2666563 0.24787848 -0.33879483 -0.40216833 -0.21362464 0.3125066 -0.09125601 -0.3387884 -0.5302395 0.37373713 -0.16921732 0.080272704 0.24887827 0.038275085 0.5325273 -0.2832164 0.16208033 0.12842347 0.071126364 0.40125406 -0.6125026 -0.06301678 0.42962584 -0.19026089 0.22628656 0.039020803 0.19301438 -0.55650556 -0.013603626 0.3030826 -0.13367447 -0.4141737 0.12355778 -0.16564633 0.040900372
278 0.17047562 -0.26272377 0.07473931 -0.1830434 -0.124863245 -0.39999107 0.1872699 -0.22410889 0.14860077 0.43367708 -0.41098353 -0.27376175 -0.25038737 -0.14094298 0.30463156 -0.50575244 -0.057363387 0.1443927 -0.4072235 0.06687111 -0.059727408 0.13625412 0.34622183 0.22832525 0.3170194 -0.31859154 -0.4887876 -0.21939743 0.037154466 0.09330161 0.15968159 0.05132895 0.4644217 0.10362837 0.10809667 -0.094174154 0.33598092 -0.17483486 -0.27557874 -0.13788272 -0.5096994 0.18495005 0.11308359 0.28063205 0.02398563 0.029090665 -0.006682855 0.01801049 -0.1498513 -0.21350174 -0.5194184 -0.063567385 0.35706532 0.78649 -0.31536117 -0.14674045 -0.07324978 -0.049651824 -0.101745196 -0.3408178 0.29816073 0.052086543 0.3546172 -0.05038627 -0.11390975 0.5810745 -0.59161496 0.15788086 -0.24887215 -0.16092439 -0.517483 -0.14571565 0.34431574 -0.3315263 -0.2510732 0.2127303 -0.46110383 -0.22142994 0.2009976 0.099139646 -0.16313471 0.08381692 -0.2904417 0.22119784 -0.18913156 0.22207244 0.34161663 -0.6918441 0.4533391 -0.381272 0.6937197 0.13204597 0.2831522 0.27039847 -0.7049119 0.3456967 0.2586854 0.4151737 0.13681278 -0.21055906 -0.44852814 -0.09300753 -0.13256857 -0.22401807 -0.0754957 0.10730324 0.19528346 0.48655567 -0.43739074 0.12296768 -0.29241866 -0.10472299 -0.62745655 0.036910277 -0.20037472 0.52093357 -0.3001522 0.08047456 0.2878943 -0.46257967 -0.33083647 0.32989633 0.019185742 -0.78365564 0.016890619 0.41937077 0.24926758 -0.1843384
61 0.094764076 -0.53688556 -0.31421822 -0.21629022 0.015045564 0.7298253 -0.091721535 0.071607605 0.3594767 0.23190577 -0.22776008 0.19102637 -0.8259236 -0.018389799 -0.3696738 -0.5430369 -0.21290301 -0.05436505 0.15210861 0.38373187 -0.45845017 0.16153897 0.009787364 0.09589002 -0.1780617 -0.48975214 0.13440096 0.24361774 0.23856221 0.1015935 -0.54533076 0.060669735 0.2043792 0.020142231 -0.17623022 0.02430836 0.4092914 -0.24357049 0.22384763 -0.37569797 -0.07876646 -0.022065481 0.45786136 -0.070308454 0.0068199043 0.5636288 -0.2590748 0.32501477 -0.12511519 -0.068002164 0.04595951 0.06861529 -0.0711258 0.18542658 0.17741816 0.41134816 0.24916677 -0.023854708 -0.75835794 -0.6575067 -0.072396144 -0.14430574 0.61046106 0.076825574 -0.25516555 0.114747204 0.4970876 -0.013106674 -0.16226402 -0.19351472 -0.34017402 0.13182425 0.15596324 0.14746372 -0.025267417 0.27521017 -0.28990546 0.479208 -0.29326686 -0.17305006 0.22551519 -0.33995935 -0.24507965 -0.29981384 -0.70001143 0.22405978 -0.2913824 -0.255078 -0.51950103 0.339235 0.32515913 -0.003551395 0.26828286 -0.12480129 0.61587197 0.14079574 0.44627994 0.09242335 0.27447814 -0.121984616 -0.72331876 0.3872395 -0.07482431 -0.31914347 -0.50405145 -0.38319612 0.40169716 -0.22623724 -0.48776442 0.054653242 0.12267542 0.13523133 -0.06292595 0.017652074 -0.06190531 0.48546055 -0.18276009 1.0191134 -0.27577752 0.21212755 -0.06937967 0.5155058 -0.4695049 0.30273163 0.2804805 0.45625705 -0.33962235 0.21383618
116 0.13735653 0.070650294 -0.6354963 -0.44654614 -0.13557889 -0.29061213 0.78041035 -0.21683246 0.2665173 0.6857623 0.51472694 0.68819076 -0.5406357 0.16734357 0.089024745 -0.054162007 0.21514261 -0.27971122 -0.10909753 -0.54431117 0.14287233 0.09892254 0.12338909 -0.23311853 -0.2642006 0.102964476 -0.6012738 -0.062566735 -0.3494279 0.17610548 0.09279276 -0.039196208 -0.062055167 0.066182904 -0.14712074 -0.19026236 0.45950153 0.049037907 -0.5358647 -0.22966453 0.24397862 0.3713716 0.01009738 0.53059715 -0.21347594 -0.20643172 -0.028612994 0.5067461 0.2669936 -0.5861169 0.8580693 -0.3455019 0.21773493 0.73665935 -0.05347897 0.50917786 0.024469031 -0.08449735 -0.47284305 -0.3899553 0.47539178 -0.0012227093 0.2637936 0.46022978 -0.662829 0.63996553 0.5749891 -0.21142645 0.632121 0.13455622 -0.39557737 0.11481078 0.6104498 0.20728984 0.0321333 0.30632666 -0.10321648 -0.0872528 -5.247255e-06 0.49316213 -0.30087334 -0.16072309 -0.46934253 0.13320144 -0.31379685 0.3790382 0.018363554 0.027787698 0.10471402 0.34393135 0.4801993 0.50089103 -0.12683155 0.34859335 0.40424588 -0.09994865 0.20151445 0.97293884 0.8858199 -0.11612258 -0.4712575 -0.0643253 -0.22285636 0.09801408 0.36429435 -0.18034947 -0.1898008 0.32773677 -0.23973885 -0.14726545 0.27181712 0.6214444 -0.3329879 0.17521264 -0.30914956 -0.0058959434 0.20811751 0.26123846 -0.47779232 -0.028104568 -0.49730703 -0.19251725 0.8180387 -0.28995818 0.036195695 0.512434 0.116646804 0.42555374
425 0.30384246 -0.3711719 -0.5923352 -0.08934863 -0.30271238 -0.49200487 0.28591537 0.33061838 -0.77347046 0.5698971 0.068218164 0.18727161 -0.5389028 -0.11713829 0.42582947 -0.1224488 0.16435787 -0.19864969 -0.19979109 -0.2808261 0.767632 -0.13694179 0.040967323 -0.29992974 0.039662264 0.48591134 0.043028947 0.104105264 0.1609544 0.21842477 0.4967747 -0.03602622 0.046681635 -0.01686066 -0.28129813 0.526735 0.52793515 -0.32181978 0.24300589 0.38509947 0.23400897 -0.5854044 0.31163898 0.16654184 -0.15993784 0.060840663 0.069791175 -0.31163257 -0.32497233 -0.04451091 0.3220661 -0.22421737 0.16537055 0.36237186 -0.2500256 0.28105453 0.1550728 0.34450257 -0.34540936 -0.18263702 -0.22711161 -0.029028466 0.10305131 0.08847413 0.24175194 0.16784039 0.21598464 -0.24887285 -0.24146214 -0.15243039 0.17268145 0.4843734 0.32075366 -0.33305457 0.6701259 0.057688653 -0.09854566 -0.33327678 -0.09008205 -0.019051176 0.106901824 -0.24329926 -0.11373561 -0.6396109 0.13040967 0.35526332 -0.17462605 -0.19593477 -0.6215873 0.5385737 0.20475952 0.3036856 0.44408053 -0.21639898 -0.28455612 -0.2527633 0.22520287 0.05601231 -0.03828514 0.6185008 -0.07567593 0.04292439 0.036203373 -0.4541331 0.08492516 -0.1722678 0.11919868 0.29912645 -0.43068522 0.02195771 0.32407406 0.19902189 -0.11590589 0.15463376 0.22652741 0.4318232 -0.6451075 -0.3245597 -0.16785817 -0.35803303 -0.2646452 -0.04575941 -0.29245806 -0.34025127 -0.31447917 0.09694464 0.007790937 -0.042743504
286 -0.068280526 -0.21082829 -0.14380437 -0.6373051 0.1932052 -0.36681116 0.058889393 -0.72413474 0.28874278 0.37644914 -0.095200166 -0.22681314 -0.3845343 -0.03944377 -0.17601256 0.14238307 -0.02447576 -0.06345084 0.056748033 0.025975246 0.070509225 -0.36541948 -0.44228697 0.046475705 0.0563505 0.37733465 0.012758969 -0.39483178 0.089442596 0.23921339 0.15978503 0.07186894 -0.035620544 0.41560227 0.18008037 -0.08761787 -0.66427463 -0.37356782 -0.07416078 0.0212536 -0.014951315 0.25265262 0.06966099 0.120619185 0.054582458 0.18221024 -0.3794439 0.0724701 -0.1843012 -0.21222872 -0.5618734 -0.27722913 -0.12879269 0.1792595 0.15475497 -0.22323205 -0.05748987 0.7803307 -0.42548543 0.20515905 0.097582534 -0.10326588 0.3066075 0.009582813 -0.45954293 -0.11713127 0.1283369 -0.5085928 -0.16512115 0.3328171 -0.12630978 0.5111378 0.42024776 0.18346179 0.6003409 0.12943557 0.2227179 -0.42513794 0.05177791 -0.19764903 0.19815256 -0.38485712 0.6066775 -0.16396415 -0.09229003 0.08836408 -0.016714886 -0.6215555 -0.1178333 0.17746389 0.355725 0.23247701 0.072554745 0.011102798 -0.09784363 0.43611595 0.01764465 0.41327703 0.32470858 0.11609514 -0.76550275 0.20706703 -0.051278565 0.04628857 -0.39347082 0.20219414 0.21963692 0.37688738 -0.008103643 0.36161512 0.2351572 0.41752955 -0.37370548 0.1904329 0.3687104 -0.35384744 -0.54102457 -0.4152017 0.26359156 -0.22719559 0.09413524 -0.3511355 -0.040617775 -0.58108324 0.16952445 0.14856933 -0.024346756 -0.14418912
271 -0.4304808 -0.62910515 -0.1286668 -1.1552863 -0.31292877 0.020411322 -0.5200385 0.01969192 0.1049515 0.18413618 -0.6110474 0.17727965 -0.13997835 -0.4484216 0.32942703 0.011498882 0.034512755 0.22301121 0.1166898 0.050993092 -0.2902702 0.120247774 -0.1545981 -0.42156848 -0.31305218 0.1571875 -0.22882286 -0.48787758 0.30181527 -0.018573482 -0.00063511357 0.087146275 0.2087802 0.27186558 0.7229559 -0.12536764 0.49147445 0.22432466 -0.43650946 -0.26586327 -0.23572159 0.76353014 0.41927487 0.10185126 0.14760162 -0.29835814 -0.18081866 0.28220603 -0.21489684 -0.8123848 0.1535834 0.08853603 -0.013287659 0.22383119 -0.24823193 0.40271726 -0.8003812 0.13911332 -0.26744944 0.34129277 0.015433278 0.00043667146 0.13652274 -0.042625085 0.15359604 -0.37717402 0.735231 -0.52388054 -0.18420266 0.008614581 -0.03675302 0.061741617 -0.75613695 -0.1178951 0.010141378 -0.22349757 0.006295533 -0.016547147 -0.44520235 -0.11051692 -0.15978363 0.09558656 -0.113865614 0.008209135 -0.5704985 0.46612597 -0.13908926 -0.37349927 -0.25872856 0.31995976 0.59082395 -0.20810339 0.154928 0.063690275 0.4946738 -0.24777044 0.44693476 0.06493717 0.32761547 0.31862926 -0.59373 -0.4349798 -0.3996682 -0.30007723 -0.2832541 0.20998707 0.71223253 0.6728121 0.562131 0.429918 0.27868778 -0.17319556 0.39210695 -0.32365274 0.14223045 0.23895925 0.011881152 0.14976425 0.07468372 -0.14072345 -0.027987715 0.23454829 -0.4307389 -0.3744338 0.40785474 0.3027468 -0.35713816 -0.098325
439 0.04007652 -0.4407552 -0.13668026 -0.2652349 -0.033871766 0.45678324 -0.22600573 0.018405523 0.39981365 0.39946216 -0.24888346 0.16727367 -0.8080092 -0.014148028 -0.28623676 -0.56160885 -0.05470278 0.007328615 0.24926317 0.27973703 -0.29716128 0.2424414 0.009335 0.13063987 -0.21838611 -0.25480965 0.21693791 0.13949737 0.16002788 -0.053215206 -0.46443897 0.05068369 0.19537535 -0.003987503 -0.2814155 -0.005425503 0.3974923 -0.09535994 0.24925183 -0.34742212 -0.13975939 -0.08191041 0.55737066 0.010502524 0.10779373 0.5172377 -0.23071696 0.30299687 -0.16959384 0.028973207 0.14972454 0.15182975 -0.13373351 0.19869344 0.34447882 0.44078976 0.37105244 0.119040206 -0.96069014 -0.86137736 0.022864401 -0.11571769 0.5862924 0.07358574 -0.17940131 0.2456232 0.35477105 -0.06620728 -0.08348513 -0.32582834 -0.37013692 0.07162792 0.025382789 0.16250063 -0.040023085 0.21362625 -0.2764683 0.5308571 -0.26756892 -0.22076987 0.26758942 -0.2937724 -0.38174924 -0.34721428 -0.68748987 0.11787422 -0.37862745 -0.15527506 -0.52852005 0.4286202 0.20825641 -0.06655051 0.14426702 -0.19613262 0.6265223 0.10388247 0.43721613 0.071260236 0.22971168 -0.049489684 -0.6531964 0.29954478 -0.30798417 -0.30697164 -0.35024467 -0.3614255 0.35838413 -0.2752926 -0.42368555 0.123842955 0.09078748 0.19180264 -0.22477865 0.07557851 -0.0933265 0.61727434 -0.16542275 0.99527246 -0.23842151 0.17567141 -0.08666103 0.4905648 -0.4385805 0.18495286 0.36222214 0.5651977 -0.35342723 0.25713572
356 0.1497243 -0.11210288 0.49361545 -0.8726231 0.039194774 -0.26695746 -0.65034 -0.21494162 0.012622891 0.52330434 -0.10293076 -0.09321227 -0.2684519 -0.34734887 -0.023830201 0.21022847 0.026171299 0.2071861 0.005021044 -0.13739169 -0.19091181 -0.23081438 -0.45482454 0.077984154 0.043915424 0.025707046 0.5240422 -0.80292255 0.2974919 -0.029831715 -0.26689592 -0.024097929 -0.17765553 -0.52281606 0.091925845 0.26663342 0.6805377 0.13634406 -0.113301314 -0.43146998 0.22810087 0.5397652 0.15207323 0.15517245 -0.010614956 -0.15784049 -0.2410244 -0.033314247 0.32141632 -0.51050746 0.1903936 -0.008096121 -0.32510945 -0.11437645 0.0359181 0.33356535 0.0009204599 0.12748705 -0.4732183 -0.34644064 -0.4304641 -0.22569883 0.305715 0.14175282 -0.15852316 0.23404624 -0.10978605 -0.43096992 -0.5069789 0.024779664 0.2790311 -0.019788526 0.41277823 -0.18389899 0.3535682 -0.25102034 -0.104318984 -0.05835182 -0.08899512 -0.06467352 -0.0039369264 0.38833398 0.2692813 0.19455793 -0.58220655 0.09038397 0.272879 -0.1549085 -0.5062712 -0.008136191 0.17480443 0.09359813 -0.18208998 0.31024647 0.06419713 -0.19284219 -0.26493394 -0.21951824 0.3529433 0.0058619827 -0.44846132 -0.43181357 0.18494365 -0.26096803 -0.0876922 0.22461998 0.082702234 0.66801286 -0.34857294 0.26132146 0.19269738 0.14716108 0.3138199 -0.39165595 0.035371505 0.3971172 -0.073152944 0.20247643 0.17858367 0.26048017 -0.5173066 -0.12747274 0.52723855 0.008706812 -0.6091028 0.29597104 0.07432281 0.34666196
300 0.00075225474 0.072511464 -0.6081833 -0.7976719 -0.28473255 -0.5917595 -0.06407528 0.18231092 0.048795927 0.23121908 0.3320321 -0.13362055 -0.14969163 -0.244495 0.08080826 -0.25175717 -0.07987984 0.39212695 -0.31172076 -0.1027269 -0.08313452 0.3488708 -0.15975375 0.43638366 -0.49409828 0.41992256 -0.279502 -0.5076383 -0.18282399 0.283465 0.285768 0.24220815 -0.081468195 -0.1572655 0.015000064 0.069013 -0.07478776 -0.054520596 -0.3003135 -0.12838458 0.26918194 0.032175403 0.18314846 -0.6579883 -0.15099593 0.16231169 -0.52708465 0.5767331 -0.11254365 -0.11440178 -0.025507813 -0.03505603 0.5521618 0.18585572 -0.10317023 0.120888464 0.16491644 -0.56055003 0.18769853 0.5487012 -0.68430936 -0.5428251 0.3537658 -0.013143761 -0.08726791 0.5985155 0.014543631 -0.22408058 -0.34879175 -0.16133305 -0.16828781 -0.08931453 0.48878175 -0.100246325 0.030944113 0.07818586 -0.054079548 -0.44787368 -0.20031102 -0.161679 -0.00868759 -0.17472866 0.22386216 -0.48425785 0.36333 -0.27366784 0.0009374536 -0.14080681 0.085199274 0.23764363 0.11933871 -0.29699266 -0.111803085 0.13950165 -0.026584905 -0.26660755 0.23773186 0.02580321 0.28801042 0.06612343 0.010891403 0.06597986 0.082153425 -0.38850203 -0.06094235 -0.060258366 0.0855223 0.66263586 -0.250137 0.39102876 0.5769712 0.17362228 -0.2344347 0.1644788 0.48093235 0.25333986 -0.8003691 -0.22659785 -0.06401727 0.43370223 -0.27870667 0.24667935 -0.0953706 0.3732943 0.05941827 0.40843052 -0.50126326 0.39789954
245 0.20522276 -0.3441596 -0.147534 -0.217801 0.07893381 -0.037840422 0.13222009 -0.009873037 -0.56327397 0.19496712 -0.22026777 0.45515722 -0.6449484 -0.21373078 0.20275478 -0.17531115 -0.00939514 0.3968855 -0.21626419 -0.4447398 0.60397637 -0.32478586 -0.09298854 -0.0040206756 -0.13087986 0.3550637 -0.34386796 0.052569848 0.18906416 0.17450686 0.50945693 -0.2172301 0.10575824 -0.016662052 -0.11173798 0.27704147 0.37217036 -0.15719242 0.61351764 0.12108147 0.17388359 0.02690468 0.17637883 0.015826164 -0.3640719 -0.010968544 -0.03687784 -0.2140078 -0.22582628 -0.45048454 0.4297826 -0.25513688 0.10895818 0.29989672 -0.13333096 0.070279635 0.14856915 0.17704526 -0.31729856 0.15180615 -0.40977606 -0.2535394 0.13519314 -0.18724295 -0.4307177 0.272075 0.2474661 -0.07329254 -0.38813022 -0.24445431 0.17995645 0.25404555 0.2500977 -0.4846307 0.0018821917 0.10407654 0.013040181 -0.021593079 -0.045994073 0.2983266 0.4022222 -0.47995114 0.027263695 -0.17837463 -0.042764705 0.4966785 -0.2816369 -0.28024635 -0.47750387 0.27406496 0.20218837 0.2379689 0.5441737 -0.38417563 -0.22048979 -0.12777352 0.30133426 0.05726339 0.2218827 0.050290316 0.33871377 -0.07684579 0.059973124 -0.4561873 -0.03020528 0.285168 0.18063137 0.101217695 -0.44155768 -0.013636436 0.109645404 0.014662138 -0.33105654 0.28714415 0.21338598 -0.07065673 -0.268575 -0.22700503 -0.0024689687 -0.60582376 -0.07033928 -0.28162593 0.297864 0.29347554 -0.073974535 0.14086972 0.051699225 0.28010467
296 0.17640783 -0.30022886 -0.16764742 -0.54311025 0.12931524 -0.28441295 0.14451504 -0.6396548 0.19037308 0.32482058 0.096393526 -0.039062932 -0.50091976 0.11799276 -0.033527356 0.08041972 -0.051683974 -0.09839409 -0.063151464 -0.14688258 0.009431324 -0.47230816 -0.34263253 0.056234345 0.09689344 0.3047429 -0.061317712 -0.5509231 0.05216472 0.30754238 0.112170175 0.19278698 -0.04066209 0.35776487 0.18862154 -0.031203607 -0.554058 -0.37438086 -0.10375658 0.007737302 0.04809282 0.22102088 0.12471427 0.17399232 0.038337477 0.16144818 -0.23067524 -0.022860993 -0.09037113 -0.1292219 -0.58015364 -0.24257584 -0.17585623 0.12181508 0.19387846 -0.30492464 -0.15745941 0.85163695 -0.56821257 0.227689 0.13710445 0.06864709 0.22851098 0.099314384 -0.517878 0.026326237 0.10437608 -0.48508334 -0.12448026 0.38514876 -0.07975983 0.4294916 0.49295512 0.11581774 0.5301468 0.20243749 0.3154781 -0.34058455 0.26749936 -0.3007995 0.12072398 -0.3842922 0.73918825 -0.009616498 -0.18512748 0.03710127 -0.1194497 -0.6588264 -0.09704377 0.03855715 0.31351054 0.23970819 0.012064994 -0.14287975 0.031002842 0.47251272 0.080387235 0.31325272 0.41080618 0.014339159 -0.7385083 0.1893831 0.10730983 -0.029099483 -0.2813372 0.12793387 0.1671968 0.41218185 -0.030298144 0.14734729 0.103288464 0.49621433 -0.38809577 0.20603693 0.41089487 -0.2554827 -0.6438754 -0.32189533 0.22474504 -0.2009319 0.09357863 -0.2678361 -0.008989026 -0.64041877 0.064233676 0.25038686 -0.17523976 -0.16201289
75 0.33079636 -0.20169812 -0.3861275 -0.5668426 0.11731737 -0.06906165 -0.27899387 0.04919725 0.14943573 -0.38419852 -0.40804073 0.044713408 -0.0272481 -0.06387752 0.07540414 -0.28056744 0.21449599 -0.15349147 0.26196873 0.049303416 0.038081493 -0.35519728 -0.3581961 0.032091547 -0.2793203 -0.044454765 0.004710417 -0.31886098 0.6771258 -0.27830064 0.42562145 0.22681385 0.09055573 -0.38049012 -0.07858186 0.41307816 -0.14757872 0.1448158 0.5070081 0.7320639 -0.35207048 0.6149623 -0.086898714 0.13154772 0.21436583 0.44322833 0.07340948 -0.25170955 -0.14695519 -0.5074467 0.099830575 -0.15583874 -0.062849045 0.4722405 0.029798359 -0.17836602 0.41536587 -0.24449424 -0.32478288 0.26623482 0.04874247 -0.039456982 0.24016218 0.22130097 -0.31165627 0.1335474 0.12021364 -0.2746553 0.011450115 -0.09230633 -0.14819977 0.09584622 0.02603604 0.1217763 0.37316626 -0.22290894 -0.4124152 0.056418087 0.11793959 -0.57591736 0.089855544 -0.048376355 -0.47325435 0.042311776 -0.11777721 0.22894897 0.23498113 -0.20084353 0.35914195 0.14792404 -0.333146 -0.13469379 -0.30968955 -0.04283545 -0.49917004 -0.15145908 0.35798496 -0.04176969 0.11986887 0.02172184 -0.29921818 -0.3988574 -0.104251295 0.25285017 0.055960435 0.013502476 -0.18478176 -0.047289904 -0.13481663 -0.29273358 -0.029678915 0.18373697 -0.27459037 -0.08821276 -0.5995833 0.24653351 -0.30565384 -0.14421715 -0.008073102 0.20317979 -0.43271068 0.28098816 -0.22820061 -0.31794453 0.12681629 0.4552704 -0.09595236 -0.15484565
